#include "nnom.h"

#define GROUP_CONV2D_KERNEL_0 {18, -91, 81, -65, 20, -46, -40, -24, 14, -26, 38, 57, 92, -40, 27, 34, -78, 56, 58, -22, 35, -64, -32, 75, -21, 42, 13, 51, -82, -87, -22, 57, 23, -8, 81, -9, -87, 56, -14, -71, -73, 50, 79, -74, 88, 62, -44, 48, -85, 20, -48, -83, -9, -19, 53, 75, -66, 60, 72, 11, -25, -82, -52, 68, -2, -51, -14, 59, -30, -61, 36, -86, -63, -51, -66, -55, -45, -23, 20, -44, 19, -16, 83, -89, 41, -50, -63, -17, 52, -71, -1, -52, 31, 82, -41, -70, -55, -68, 18, 4, 30, -62, 54, 43, 64, -25, 24, -26, -83, -25, -67, 13, -65, -53, -67, -13, -34, 24, -3, -22, -42, 39, 24, 64, -46, -40, -29, 88, -73, 29, 44, -70, -8, -46, -82, 85, -15, 86, -39, 81, -21, -36, 91, 7, -78, -43, 55, 91, -34, -22, -3, 21, 75, -38, 83, 19, -59, -53, -55, 56, 0, -20, -83, 14, 54, 3, 24, -83, 19, -45, 15, 90, 12, -32, 28, -21, 44, 86, 54, 9, -57, -74, -52, 11, -42, -17, -76, 66, 90, 78, -53, -1, -73, -13, -34, -77, -32, -42, 44, 50, -21, 39, -11, 2, -29, -25, -43, 68, 82, -88, -47, 37, 11, 59, 10, -87, 7, -43, -20, -16, -42, -50, -74, -30, 10, -77, -47, 64, 27, -79, 21, -66, 48, -8, 44, -61, -43, 29, 62, -72, 47, -69, -75, -73, -46, -11, -56, 69, 64, 89, -19, 54, 35, -70, 93, -67, 89, -53, -64, 74, -82, 68, 83, 3, 54, -21, 24, -17, -25, 2, -58, 59, 92, 39, -85, -33, 70, -60, -61, 88, 25, -38, -77, 16, 61, -32, -36, -63, 57, 36, -17, 49, 75, 25, -34, 73, 31, -62, 16, 81, 77, -26, -63, -16, -60, -38, 89, -84, 31, -50, 67, -72, 53, 68, 2, 73, -4, 4, 82, -89, -13, -13, -67, 58, -70, -71, 34, 44, 41, -74, 49, 56, -73, 75, 76, -50, 35, 13, 1, 85, 48, 9, 79, 0, 59, 86, 77, -85, -50, -41, -61, 74, -71, 15, 21, -79, -87, 28, 29, 52, 7, 6, -18, 36, -70, -6, 20, -54, -6, 23, 12, -66, -90, 58, -22, 3, 77, -70, -39, 36, -78, 8, -90, 86, 63, -63, -13, -62, 1, 53, -7, -74, 66, -75, -12, -13, 91, 6, -2, -7, 90, 16, -59, -14, -38, 23, 36, -92, -4, -39, 12, -40, 41, 4, 73, 47, 20, 24, -60, 4, 26, -68, 51, 91, -23, -8, -3, 65, -33, 50, -52, 2, 9, -25, -55, -12, -10, 44, 39, 24, -81, -23, -77, -41, 67, 46, 20, -28, -35, -93, 14, 75, -46, 52, 24, -7, 47, 68, -49, 56, -53, -3, -50, 5, 31, -29, 78, -88, 33, 49, 45, -11, -37, 83, 77, 36, 48, -54, -6, 86, -65, -50, 5, -28, -46, 26, 56, -92, -8, 0, 73, -7, 21, 54, -44, -13, 88, -75, -44, -48, -5, -34, 10, -79, 89, -60, 61, -8, 72, -50, -63, -37, 22, -23, -9, -84, -93, -79, -35, 59, -77, -77, 66, 5, 72, -21, 55, -72, 4, -18, 52, -27, 26, 80, -87, -14, 38, 39, -48, 46, 90, 77, -47, -78, 61, -27, 36, -88, 36, 15, -30, 73, -3, -28, 50, 32, -73, -68, -32, 28, -68, 89, -77, -40, -91, 7, 47, 51, 24, -47, 42, -67, 81, -13, -70, 33, 37, 2, -3, 64, 66, 40, 37, 27, -59, -85, 21, 63, -76, 23, 76, 23, 74, 83, -64, 55, 77, -6, 70, 65, 30, -34, -48, -40, -7, 33, -6, 34, -24, 11, 17, 54, 76, 18, 38, 27, -4, 1, 86, -26, -82, -53, 70, -74, 85, -29, 14, -7, 69, -15, 93, -30, 12, 46, 28, -87, 58, -73, 79, 65, 8, 45, 8, -89, -29, 6, -93, -26, -44, 68, -78, -59, 13, 23, 86, 82, -50, 21, -48, -70, 62, -52, -28, 82, 56, 67, 89, -65, 49, -92, 46, -48, -58, -27, 21, 2, 73, 84, 91, 68, -16, -83, 38, -8, 86, -24, -67, -18, 14, 33, 73, -17, -66, -36, 56, -90, 90, -38, 15, -71, -65, 51, -9, 59, 85, -68, 90, 33, 85, -15, -68, -38, -25, -17, -56, -44, 53, 82, 28, 70, 6, -66, -21, -45, 61, -65, -8, 54, 53, -27, -91, 15, 79, 75, -9, 55, 26, 41, -54, -18, 15, 9, 79, -41, -23, 56, 77, -13, 18, -50, 25, -21, 48, 8, 62, 19, -18, -2, 9, 50, 92, -2, -75, 63, -12, 43, 39, -68, 42, -36, -46, -47, -43, -35, 83, 75, 6, -30, 84, -47, -82, 18, -55, 73, -1, 51, -73, 90, -26, 78, -9, 59, -27, 42, 42, -21, -51, -62, 78, -38, -79, 46, -68, -79, 74, -31, 65, -61, -52, 48, 35, 47, -23, 36, 33, -63, -63, 52, 76, -85, -84, -11, -53, 40, -37, -29, -38, -9, -5, -39, 25, -71, -46, 84, 92, 14, -15, 16, -23, 54, -6, -78, 32, -28, 0, -88, -4, -64, -89, 65, 53, -88, -89, 11, -28, 60, 19, -90, 16, 2, -47, 51, -35, 82, -9, -12, -25, -32, -46, 44, 77, -55, -8, 65, 14, 73, 66, 32, -45, 43, -25, 0, 64, -78, 46, 75, 78, 49, -6, 12, 39, -44, -43, 38, -59, -79, 33, 24, -16, -22, -24, 2, 2, -29, -10, -72, 79, 59, -42, -82, -90, -20, -87, 8, -10, -70, -48, -39, -88, 1, -92, -39, -22, 8, -40, 30, -31, 42, -30, -41, 42, 14, -26, 66, -3, 68, -4, -92, 34, -49, 82, 40, 28, 69, 81, 68, -19, 52, 43, -65, -80, -70, 45, -58, -29, -38, 24, 84, 17, 24, -69, -10, 20, -56, 49, 29, -90, -70, -87, 15, 49, -73, -91, 53, 75, -46, -70, 32, -50, 66, -10, 59, -60, -72, 53, 80, 67, 59, 63, 24, 75, -21, 36, 37, 11, 23, 44, 66, -75, -32, 45, 2, 91, 20, -19, 12, -47, -79, 92, -9, -9, 92, 60, -51, 7, -68, 1, -80, -20, -82, 19, -64, -1, 80, -47, -74, -33, 35, 46, 39, 18, -13, -91, -58, -29, -6, -73, 92, 33, -44, 63, 41, -7, -63, 28, -21, -93, 79, -80, 71, 21, 5, 25, 59, -76, -14, -43, -23, 76, 54, 34, -14, 6, -62, 50, 82, 14, 28, -65, 74, -30, 65, -2, 84, 9, 35, -21, 87, 57, -49, 27, 36, 24, 56, 61, 1, -75, 37, -39, -75, 53, -7, -54, 68, 55, -10, -19, 34, -61, -14, -32, -68, -12, 53, -89, 37, -87, -88, -83, -28, -60, 26, 87, -87, 6, -11, 92, -23, -67, 55, -90, -29, -46, -13, 40, -2, 39, -88, 80, -79, -46, -66, -87, 40, -83, 84, 78, -41, 76, 85, -5, -53, 88, -37, -45, 34, -92, 26, -27, -1, 50, 88, -3, -45, -34, -47, -35, 24, 36, -7, -29, 59, -55, -58, 72, -42, -91, -19, 34, 62, 49, -85, 53, -48, -34, 30, 71, 26, -64, 6, -71, -13, -39, -73, -82, 91, 87, 68, 1, -27, 14, 86, 83, -22, -46, -66, 18, 76, 67, 2, -42, -23, 30, -1, -54, 36, -61, -58, 30, -90, 5, 0, 16, 37, 42, -46, -42, -71, -44, 34, -36, 83, 74, 48, 32, 7, -92, 33, 32, 45, 54, 26, 9, 57, 40, 23, -13, -37, 49, 51, 60, 54, -86, 35, -84, -86, 73, -29, -26, 70, -87, -39, -32, 32, -5, 38, 52, -30, 73, -82, -19, 18, 59, 64, 48, 23, -20, -53, -58, 8, -76, -54, -65, 60, -24, -14, -1, -53, -32, -16, 88, 43, -75, 66, -50, 10, -54, 23, -93, -89, -87, 66, -69, 76, -81, -13, -6, -42, 15, -13, -76, -6, -11, 24, -33, -41, -30, 61, -5, 36, 81, -81, -93, 41, 66, -16, 4, 55, 57, -26, -74, 47, -86, -31, 1, 92, -82, 81, 79, -39, 83, -54, -5, 39, -56, 0, 24, -44, 49, -22, -72, 49, 59, -14, 28, -17, -34, -22, -38, 10, -14, 19, 10, -81, 30, -50, 80, -26, 23, 34, 30, 76, -53, 54, -71, -4, -18, 36, -19, -45, 51, 5, 93, 34, -91, 18, -53, 91, -57, -12, -68, 48, -29, -20, 88, -66, -53, 33, 47, 50, 26, 66, 68, 16, 72, 35, 13, 41, -26, 91, -5, 87, 41, 64, 59, -73, -33, 13, -23, -45, -83, 10, 29, 48, 89, 24, 14, -54, -81, -40, 86, 43, -24, -18, 72, -93, -17, -90, 82, 13, 80, -84, 20, 65, -54, -51, -4, 78, 4, -73, 55, -28, -93, 62, 13, -71, -41, -36, -51, -50, -92, 83, -19, 31, 51, 41, -37, 91, 71, -46, 41, 88, -71, -47, -32, -81, 17, 43, 89, 50, -33, 1, -13, -11, 34, -14, -85, 55, 22, -25, 48, -79, -57, 5, 33, -65, 66, 85, -6, -27, 18, -78, 38, 22, 77, -58, -34, -88, 16, -78, -50, 20, 44, 32, 55, 71, -3, 47, -46, 46, -1, 61, -47, -64, 5, 82, -31, -41, -72, 82, 25, -89, -65, 56, -33, -59, 17, 4, -43, 42, 42, 17, 4, 45, -73, -40, -23, 49, -59, 29, 31, 1, -34, 39, -16, 91, -47, -65, -25, 77, 19, -91, -68, -41, 86, -92, 46, -69, -73, -37, 8, 14, 4, 0, 49, 5, -69, 76, -43, 11, -77, -6, -45, 36, -44, -76, -11, -47, 92, -92, 11, -89, -1, 38, 3, -64, 43, 16, 57, -23, -42, -86, 60, -69, -74, -37, 59, 86, -3, -15, 54, 29, 72, 63, -12, 12, 74, 48, -93, -20, -26, 25, -7, -89, -72, 28, -9, -67, 46, -77, -81, -51, 2, -18, -35, 25, -66, -73, 2, -34, 57, -16, -44, 92, 2, -69, -35, -19, -65, -75, -86, -72, 51, -51, -5, -65, 14, -64, 33, -48, 65, -37, 81, -4, -20, 53, 4, -87, 71, 12, -63, 80, -41, -89, 88, -77, -56, -50, 76, 53, -31, -31, 31, -9, -18, -20, 63, -49, 3, 16, 42, 52, -42, 75, -51, 25, -32, -70, 23, 63, -67, 16, -88, 3, 22, -51, -87, 27, -78, -46, -76, 2, 43, -54, -35, 91, -46, -34, -54, 2, -23, 85, 6, -73, 40, 14, 93, -90, -3, -59, 71, -37, -57, -75, 26, 45, -36, 21, -22, 45, 81, 21, -38, -80, -41, -35, -32, 79, 25, 72, -47, -49, 29, -42, -83, -63, 2, 7, 69, -1, -1, -50, -20, -51, -71, 21, -59, 32, 77, -21, -74, -51, 77, 21, -73, -82, 23, -52, -11, -19, -6, -61, -52, -82, -89, -45, -76, -17, -59, -33, 85, 63, -50, -17, -84, -63, -72, -15, -34, 81, -48, 64, -19, 3, 81, 21, -56, 64, -77, -81, 45, -69, 45, -78, 78, -84, -33, -71, -78, 39, 87, 47, 68, 76, 16, -2, 40, 8, 81, -53, -6, -3, 61, 28, 91, 54, -40, 83, 43, -61, -22, 14, 43, -14, -6, -42, -34, -4, 24, 28, -48, 92, 69, -77, 63, 14, 89, 91, -4, -44, 45, 57, -79, 84, -92, 72, -58, -41, 50, 43, -93, 42, 56, -29, -33, 17, 85, 14, -92, 84, 42, 40, -55, 77, -90, 46, 36, -81, -58, 10, 9, -37, -12, -91, 15, 89, -44, -73, -69, 36, -35, 15, -48, 25, 45, 62, -18, 24, -69, 10, -87, -44, -3, 79, -14, -7, 5, 21, 92, -26, 67, -31, -61, -44, -85, 64, -2, -57, -69, -76, 40, -28, -46, 67, -8, 41, 48, 12, 74, 66, 45, -30, 47, -9, 87, 52, -37, -87, 92, -45, -35, 23, -81, -59, 8, -26, 69, 49, 34, 89, -23, 2, 65, -9, -16, -26, -82, 0, -10, -39, 89, -17, 17, 50, -31, 45, 70, 14, 27, -9, -11, -86, -3, -43, 23, -3, -83, -46, 2, 55, -9, -77, -81, 92, -14, -72, -92, 34, 41, -60, 92, 69, -54, 11, -14, 7, 43, -50, 85, -41, 42, -93, -46, 93, -52, -57, -68, 65, 27, 51, -38, -34, -54, -15, 10, -83, -11, 54, 93, 8, 29, -69, 81, 4, 88, 28, 29, -11, -50, -83, 90, 28, 59, -32, -93, 7, 22, 49, -41, -63, 62, -15, 12, 33, 43, -85, -91, 39, 8, -42, -52, 66, 18, -70, 16, -41, -54, -59, -81, 62, 13, -30, 85, -24, -38, 65, -16, -74, -68, -24, -48, -22, 79, 12, 61, -26, 16, 26, 27, 22, 75, -1, -41, 20, -11, -5, -48, -5, 74, -32, 18, 53, 11, 0, 26, 73, 24, -70, 73, 2, -20, -66, 81, -12, -92, -8, 33, -16, 20, -39, 34, 53, 90, 82, -75, -74, 91, -53, 48, -17, 21, -22, 77, -10, -41, -18, 43, 46, 30, -77, 67, 38, -61, 0, -48, 26, 53, 84, 45, 22, 70, 40, 10, 4, 9, 49, -20, 67, 18, -60, -72, -61, -46, -85, 58, 57, -35, -39, -82, -81, 62, -28, -26, 46, 24, -39, -45, 1, 0, 75, 43, -45, -50, 38, 73, -47, 76, 0, -11, -69, 88, -80, -65, -89, -2, -80, -52, 88, 61, 47, -13, -62, 57, 13, 27, -22, 41, -63, 36, 78, 42, 51, -46, 39, -27, -17, 39, -31, 19, 3, 31, -56, -58, -89, 29, -71, -89, -22, 88, -45, 25, 47, -80, -53, -81, 27, -44, -87, 23, 39, -48, 17, -48, -50, -72, 35, 18, 1, -17, -89, -6, -76, -49, -35, 43, 45, -59, -43, -32, 53, -33, 76, 15, 69, -47, 72, -32, 46, -38, -63, 25, 67, 4, 11, 55, -61, 15, 51, -4, -25, -49, -4, -64, -24, -72, 68, 52, -24, -5, 5, -16, 75, 51, 47, -3, 37, -32, 63, -64, -71, 82, 23, 25, -35, -29, 59, 17, 62, -72, -25, 89, 60, -40, 80, 91, 70, -82, 4, -2, 48, -29, 72, 0, 93, 64, 13, -73, -33, -43, 15, -73, 14, -55, -87, -83, -84, 68, -72, 63, 35, 1, 79, 57, 1, -61, 5, 47, -85, 7, -92, -7, -62, -10, 71, -61, 50, -75, -38, 62, -70, 43, 16, 77, -55, -67, -43, 10, 92, -6, -57, -59, -90, 87, -44, -41, -30, -71, 32, 42, 39, 25, 61, -78, 8, -37, -83, -60, -5, -30, -84, -4, 19, -37, 59, -36, -20, 7, -68, -83, -47, -31, 74, 16, 44, 4, -49, -30, 42, -24, 25, 88, 66, 47, 62, 8, 59, -65, -64, -3, -3, 21, -71, 4, -36, 25, 43, -37, -33, 59, 30, 1, -78, 44, 83, -69, 86, 73, 78, 68, 62, -2, -89, 62, 3, 91, -1, -30, -2, 44, -76, 79, 43, -7, 87, -6, -64, 63, 45, 49, 46, -21, -25, 8, 75, 10, 48, -64, 29, -73, 5, 66, 47, 89, -1, -21, -20, -50, 29, 85, -15, -67, 50, -87, 68, 51, -84, -12, 79, 38, 51, 2, 75, 10, -90, 60, 84, -87, 33, -73, 15, 65, 33, 53, -76, -92, -2, 83, -50, 12, 90, 77, 50, -12, -50, 5, 66, 3, 89, -34, 1, -53, -38, -62, -11, -28, 79, -78, 49, -83, -36, 22, 59, 70, -49, -20, -67, -67, 20, 81, 52, 82, 84, 85, 45, -68, -38, 51, -29, -56, 0, -78, 61, 27, 45, 54, 49, -20, 69, 46, -67, -81, -63, 2, 16, -19, -58, 60, -25, -72, 46, 2, -18, -50, -91, -65, -47, -83, 82, 55, 82, -46, -22, -59, -47, -6, -30, -79, 54, 75, 49, -82, 16, 54, 27, 25, 26, -78, 63, -41, 54, 9, -45, 23, 79, 54, -92, -31, 52, 27, -52, -48, -66, -58, 37, -77, 57, -81, 73, -84, -45, 67, -48, 6, 89, -43, 38, -12, 24, -11, 92, -7, -59, -63, -37, 44, -21, 9, 18, -34, -18, 30, -76, -41, -61, 19, 11, 11, -17, 52, 20, -4, -57, -85, 17, 29, 34, 78, -74, -73, -34, 26, 34, 10, 41, -75, -41, 5, 27, -72, 71, 40, 42, -87, -10, -61, -47, -50, 93, 48, -69, -66, -80, 9, -77, -83, -69, 41, -90, 55, 90, -60, -46, 45, -47, 8, -4, 77, 38, -72, 80, 13, -65, 93, 68, 90, -37, 51, -88, 72, 37, 81, 68, -80, 44, -78, 15, -46, -31, -3, -19, 72, -51, -54, 17, 1, 23, 87, -64, -34, -88, 23, 66, -67, 85, -44, -30, 46, -18, -54, 22, -68, 63, -53, 61, -70, 90, -72, 25, -93, -64, 1, -44, 43, -40, 34, 48, 14, -41, -52, 42, 38, 92, -4, -22, 63, -5, 67, 45, -45, 41, -41, -60, -45, -25, -27, 90, 46, 42, -46, 91, -46, -14, 56, 28, -2, 37, 49, 91, -24, 69, 62, 92, -19, -72, 6, 73, -7, -73, 42, -9, -63, 49, -29, -1, 21, 9, 55, 0, -77, 54, -72, 29, 37, -6, -26, -19, -19, 46, -37, 62, -4, -50, 46, -35, -32, 78, 73, -10, -87, -37, -80, 63, -53, 63, 79, -21, -76, 91, 44, -93, -63, -36, -1, 18, 51, 26, 10, -30, -35, 13, -44, -68, 75, -37, 1, -22, -31, -47, -30, 18, 82, -92, 12, -58, 85, 32, 4, -42, 62, 48, -29, 85, -91, -19, 72, -66, -35, 52, -9, 30, -32, -39, -83, -34, -55, -50, 43, -81, -13, 69, 35, -48, 83, 93, -62, -26, 14, 88, -68, -12, 71, -5, -62, 33, 12, -79, -93, 59, 28, -31, 38, 82, 67, 85, -41, -50, -22, 71, 8, -83, 11, 61, -15, 77, 13, -41, -72, -91, -31, 73, 65, 85, 52, 55, -59, -61, -50, -44, 45, 54, -68, -19, 18, 85, 68, -80, 9, 63, -21, 62, -92, -23, -81, 80, -30, -79, 90, 34, 90, -28, -52, -92, 5, 20, -51, 62, 73, 81, -57, -1, 45, 11, -60, -29, -44, -79, -64, -74, -78, 41, 43, -5, -77, -62, 79, 68, -51, 73, -8, -61, 78, 18, -56, 41, -61, -66, 80, -93, 67, 64, 58, 63, 35, -42, -64, -34, -52, -5, -38, 2, 15, 19, 83, 3, 5, 39, 67, 10, -12, 74, 60, 66, 63, 91, 91, -84, -8, -41, -43, -36, 13, -34, -88, 53, -54, -38, 62, 36, -83, 53, -37, -1, 58, 56, -66, -83, -22, -32, -29, -55, 6, -4, -87, 16, -37, 58, -10, 41, -31, 53, 24, -68, -55, 42, 65, 74, 32, 77, -32, 76, 70, 7, -48, 18, 45, 1, 51, -89, 42, 63, -40, -53, 26, 41, 6, -3, 32, -88, 66, 92, -64, -89, -31, 44, 63, 47, 24, -84, 90, -19, -43, 41, -86, 14, -58, -93, 12, 31, -4, 76, 72, -88, 11, 3, -81, -79, -21, -81, 34, 20, -75, 26, 7, -17, 1, -29, -5, 16, -58, 90, -18, -56, 13, 65, 76, 51, -71, 76, -44, 16, 90, -90, -85, 70, -54, 85, -14, -64, -27, 35, 83, -6, -54, 63, 22, 17, 21, -70, -44, -13, 89, -59, -89, -23, 20, 46, -58, -10, -66, 44, -53, 69, 65, 12, -3, -1, 34, -81, 30, -1, -10, 26, 9, 46, -46, 54, 38, 79, 39, -4, -63, -70, 1, 92, 79, -56, 27, 82, 82, -64, 62, 27, -40, 53, -16, -52, -31, -70, -26, -85, -61, 2, -76, -53, 45, -31, 67, -62, 78, 73, -42, 0, 90, -63, -24, 28, 77, 16, 31, -27, 59, 83, -18, 58, 53, -10, 30, 46, 82, 32, -10, 35, -16, 15, -15, -85, -88, -1, 33, 22, -9, 81, -10, -2, 84, 30, -63, -80, -54, 45, 78, 59, 48, 82, -51, 65, -65, 41, -69, 84, -55, -28, 76, 26, 27, 77, 32, 12, -36, 80, -21, 25, -30, -52, -93, -56, 16, 44, 60, 50, -74, -34, -11, -44, -8, 78, -67, -1, 39, 76, 23, 62, 66, 45, 70, -77, -68, -53, 9, 28, 71, 81, -74, -59, 62, 69, -48, 47, -66, 34, -58, -71, 28, 58, -42, -20, -83, -26, -52, 5, 3, -34, -14, 8, 32, -15, 72, 38, 69, 37, -14, -65, 38, 17, 31, -59, 89, 59, 82, 56, -33, 37, -51, 26, -24, 68, -29, -9, -85, 54, -64, 65, -37, 22, -40, 29, 22, -65, -26, -78, 35, -42, 57, -89, -62, -13, 32, 3, -12, 52, 64, -30, 92, -86, 11, 83, 47, 20, 38, 9, 52, -45, 18, -63, 92, 25, 42, -54, 52, -14, -22, -58, -36, 56, 40, -39, -92, -46, -83, 11, -14, -80, -3, 30, 39, 80, -65, -17, 75, -11, 54, 6, 22, 53, -91, 36, 37, -5, -78, 83, -79, -6, -91, -72, -23, 22, -91, -68, -13, -83, -72, -59, -50, -29, 76, 56, -21, 43, 33, 37, -83, -66, 66, -57, 74, -18, 66, -36, 58, -72, -48, -90, -42, -66, -54, -32, -15, 74, 60, -16, -35, -77, 17, -81, 23, 26, -37, -39, 31, 43, -83, -31, 91, -58, 53, 70, 77, 9, -48, 4, -82, 63, 8, -49, -17, -90, -9, 5, 16, -83, -82, 88, -61, -53, -50, 33, -76, 60, -41, 68, 30, 12, 28, 89, 0, 32, -79, -25, -32, -73, -22, 25, 78, -12, 32, 64, 15, 53, 26, -54, -14, 25, -25, 60, -18, 57, -89, -56, -43, -39, 44, -1, 41, 89, 13, -33, 2, 53, -52, -36, -2, 80, 58, -54, 38, -23, -38, 52, 0, 21, 30, -90, 35, -44, 54, -69, -50, 22, 59, -21, -67, -31, -43, 2, -70, -32, 67, -91, -90, 51, -56, 80, 69, -48, 37, 67, 88, 28, -18, -24, -38, 89, -33, -55, -51, -43, -78, 67, 5, -40, 31, -67, 46, -32, 50, 67, -49, -70, 48, 55, 38, 37, 81, -52, 9, 75, 64, 3, 70, 45, 69, -82, 12, 26, -53, 16, -53, 75, 87, -84, 89, -52, 89, 45, 56, 59, 73, -11, 51, -54, 91, -69, -61, -33, -93, 13, -24, 1, -63, -85, 88, 49, 5, -11, 69, 14, -53, -9, -65, -27, -59, -67, -3, -14, -9, -2, 51, -25, 57, -18, 35, -36, 43, -38, -84, -40, 30, 51, -54, 80, 28, -12, -75, -38, -53, -49, 40, -12, -87, 77, 50, 27, -68, 85, 20, 31, -51, -48, -29, -93, -15, 34, -30, 2, -41, -37, -6, 67, -86, -49, 61, 29, -69, 3, 8, -33, 24, -89, 67, -11, -19, -32, 19, -12, -10, -72, 80, -74, 81, -24, 44, -81, 1, -72, 87, 49, 23, -41, 68, -78, -79, 69, -4, -4, 11, 24, -45, -19, -11, 64, 5, 38, 49, 68, 11, -48, -23, -24, -45, 5, -93, 61, 16, 24, -83, 20, -9, 58, 54, -65, -37, -92, 17, -36, 22, -18, -33, 39, 61, 74, -37, 82, 29, 83, -86, -40, -13, 42, 45, -64, 20, -47, -75, -87, -37, -59, 35, 93, 43, 80, 61, 88, -10, 2, 24, -3, 24, -79, 71, -93, -50, -69, -59, 51, 93, 58, -68, -26, -57, -81, 45, -59, -68, 47, -57, -82, -4, -70, 41, 8, -82, 30, 81, -68, 28, 40, -37, 84, 4, -70, 64, 34, -15, -37, -7, -1, 0, 16, 19, 51, 64, 26, 48, 3, 64, -39, -83, -53, 71, 35, 64, 38, 53, -29, 21, 70, -62, 93, 8, -32, 93, -4, 53, 62, 40, 53, -84, -78, -41, -49, 5, 62, -79, 81, -84, 80, 15, -27, 3, -80, -21, -69, -51, 68, -77, -49, 33, -87, -12, -25, 87, -74, -51, 53, -90, -31, -2, 20, 19, -36, 31, 29, 71, -92, 43, 19, 21, 72, -34, -43, -36, 92, -5, 80, 15, 88, 54, -40, 83, 13, 92, 6, 56, 12, 18, -19, -77, 84, 51, 47, 40, -82, -83, 67, 53, 11, 52, 31, 56, -52, 14, 76, 24, 42, 87, 60, 91, 9, 38, 84, -87, 62, -66, 32, -53, 85, -63, 41, 47, -93, 77, 50, -59, 22, 92, 33, 76, 35, -74, -75, 3, 67, 10, 0, -34, -70, 1, 29, -56, -87, 47, -65, -50, 8, -66, 41, -84, -69, 34, 40, 29, 3, -16, 21, -40, 80, -55, 9, -71, -27, -52, -54, -11, -80, 18, -49, 19, 22, 68, 38, -75, -91, 56, 70, 71, -44, -85, 89, 52, 63, 49, 82, 68, 88, -88, -53, 30, -10, 72, -10, 85, 27, 15, 47, -6, -9, -35, -25, -13, -29, -5, -62, 54, 52, 25, 1, 44, -25, 26, 66, 9, -88, 8, -62, -93, 69, 78, -37, 17, 85, 32, 51, 78, 44, 31, 50, 14, -48, 64, -26, 5, -32, -19, 21, -57, -49, 64, -53, 25, 35, -12, -1, 14, -89, -54, 20, -37, -8, 83, -2, -17, 54, 2, 48, 58, 61, -13, -7, 1, -34, -33, -77, -57, 36, -31, -73, -56, 3, 7, -71, -62, 49, -73, -9, -86, 88, 4, -75, -67, 39, 61, -83, -67, -53, 61, 3, -47, 73, -29, 68, -8, 57, 39, -71, -68, -75, 32, -77, 76, 55, -31, -18, -87, -70, -80, 29, -18, 87, -34, 72, -4, -25, 64, 17, 83, 71, 10, 31, -28, 39, -77, -21, -73, -74, -36, -74, -47, 45, 54, 54, -93, -69, -3, 52, 64, -8, 53, -92, 16, 53, 87, -28, 35, -48, 56, 9, 34, -19, -26, -58, 47, -56, -9, 75, -10, -15, -44, -72, 9, 59, -82, -16, 59, -86, 26, 31, 93, 1, -54, -1, -10, 36, 85, 45, -73, 1, 26, 64, 61, 42, -74, -59, 29, -54, -23, -45, 30, 75, -31, -32, -56, -30, -44, 88, -85, -59, -29, -84, -58, -63, -93, -18, 3, -69, -40, -25, -4, 54, -37, 31, 56, -38, 45, -70, -87, 54, 29, 16, 41, -43, 24, -27, -58, -24, 28, 0, 11, -2, 64, 76, -85, 54, -77, -6, -63, 34, -85, 22, -32, -2, -36, -34, 24, 55, 5, -59, 1, -77, 15, -83, 15, 3, -33, -6, 42, 15, -47, 49, -44, 54, 74, 72, 6, -82, 57, -21, -43, -84, 91, -72, 27, 57, 29, -23, 4, 56, -68, -93, -2, -25, 32, -37, 28, 31, 39, -31, 1, -60, 81, -68, 86, -57, -42, -12, 45, -48, -90, -48, 52, -23, 19, -59, 11, -63, 42, 79, -17, 27, 39, -20, -86, 28, 73, 58, -13, -49, 6, -68, -72, -35, 24, 78, 26, 71, 42, 24, -3, 75, -51, -82, -32, 28, 55, 84, 64, -15, -48, -49, -15, 51, -1, -59, 26, 67, 73, 45, 33, -51, -55, -13, -40, 91, -48, -93, -75, 31, -57, 6, -56, -19, -4, -75, 73, -92, -53, 85, 85, -22, -50, -69, 2, -58, -47, -68, 85, -29, -24, -51, 77, 63, 2, -18, -40, -60, -36, 74, -21, 11, -44, -82, 49, 69, -21, 65, -89, -75, -39, -67, 78, -40, -76, -74, 15, 91, -68, 34, 54, -49, 75, -37, 25, 89, -60, 5, 37, 60, 48, -62, 75, -7, -55, 71, -72, 44, -22, -79, 77, 83, -83, -38, -18, -74, 44, 43, 1, 42, 63, -77, 12, -9, 52, 15, 21, 63, 57, -27, -49, -46, -37, 92, 52, 30, 10, -67, -62, 61, -28, 18, 12, -34, -76, 14, 50, 88, -82, -14, -6, 36, -11, 7, -35, 72, -19, 10, -10, 62, -28, 34, 62, -1, -83, -50, -71, 58, 69, -87, 43, -62, -20, 39, 56, -88, -26, -48, 8, 70, 47, -40, -89, 89, 14, 36, 75, 35, -84, -77, 71, -91, 80, 38, 47, 80, -43, -65, -67, 71, -72, 70, -4, 69, 47, 37, -38, 20, -33, 89, -58, 27, -85, 62, -39, -30, -81, -12, 24, -11, -38, 74, -48, 6, -91, 73, -61, -65, 92, -87, -64, 66, 21, -46, 56, -5, -86, 42, -3, 81, -81, 47, -93, 35, -93, 10, -40, -92, -83, -70, 29, 26, -42, -75, 74, -81, 7, -15, -63, 43, 27, -55, 80, -57, -45, 44, -1, -26, -16, -62, -4, -39, -50, 16, 75, -57, -91, 83, -90, 78, 63, 7, -20, -68, 32, 12, 71, 77, 80, -82, -18, 71, -67, -49, 44, -61, -50, -54, -13, 79, -81, -56, -22, 43, 57, 15, -77, 64, 13, 1, 83, -68, 35, -73, -41, -92, -64, -51, 5, -70, 31, 11, 68, -57, 86, 77, 10, 5, -5, -11, 5, -90, -72, -3, 48, 39, 60, 29, 66, 25, -76, 78, -61, 60, 90, -22, 46, -40, -93, -22, -74, 42, -93, -57, 13, 69, 51, -2, -21, 1, -28, -76, 72, -56, 73, 73, 62, 72, 13, -30, 18, -79, 67, 4, -1, 1, -28, -34, -85, 86, -15, 41, -78, 21, -21, 28, -59, -60, 86, -42, -43, -46, -49, 73, -34, -77, 87, -52, -43, -36, -51, -51, 89, 76, -35, -36, -10, 50, 24, -74, -4, -70, 4, -58, -76, 31, -87, 78, -84, 5, -87, -56, -23, 28, -54, 1, -16, -27, 82, 62, 86, 31, 43, 73, 90, 56, -74, 58, 45, 6, 63, 89, -90, -5, -78, -60, 33, -36, 91, 22, 67, 84, 10, 39, -44, -25, -12, 26, 13, -74, 53, 88, 24, -51, -72, -78, -87, 24, -18, 24, 76, -22, 53, -28, 93, 79, -71, -16, 27, 11, -35, 62, 3, -55, 50, 32, 42, -78, 58, 6, -65, 78, -82, -51, -1, -8, -9, -93, 86, 41, -39, 36, -39, 80, -83, 25, 43, 49, -21, -86, 7, -35, -32, -74, -83, -13, -87, -5, -91, -14, -22, 24, -26, -68, -56, 85, 52, -69, -59, -70, -57, 1, -55, 93, -28, -37, -74, -93, -13, 79, -83, -93, 2, 30, 84, -57, 57, -28, -15, 54, 55, 66, -10, 92, -20, -80, 30, 14, 61, 8, 43, -2, -30, -7, -49, -24, -83, -14, 42, -20, 84, 30, -53, -89, 3, 52, -80, 44, -52, 61, -67, -69, -36, 79, -82, 78, -71, 55, 76, 62, -2, -88, -12, -23, 59, -16, 35, -78, -53, -16, 59, -37, 40, -81, -16, 67, -3, 38, -26, 71, -6, 25, -57, 62, -9, 14, -67, -88, -28, 13, 89, 1, 86, -19, 14, -77, 55, -42, 73, -46, 54, -40, 76, 34, -49, -34, 7, -8, -9, 4, -83, -38, -91, 41, -53, -29, -76, -11, 81, 93, 87, -68, -55, 69, 90, -7, -42, -58, 42, 1, -26, -14, -53, -70, 80, -33, -21, 37, 48, -37, -71, -3, -5, -13, -89, -86, -10, 7, -10, 79, -63, 80, -31, 35, 0, 75, 57, 43, -20, 68, -62, 52, 51, 86, 49, 51, -17, 42, -18, -62, -74, 88, -74, -36, -59, -67, -2, -70, 35, -1, -39, -3, 40, -76, 62, 38, -25, 90, 30, -12, -60, 20, -70, 24, 34, 41, -36, -88, -17, 7, 18, 21, -88, -13, -32, -47, -49, -9, 64, 15, -47, 77, 7, -77, 89, 18, 71, 37, 14, -38, 4, 59, 80, 5, -73, -18, 61, -11, -43, 10, 92, 47, 50, 16, 77, 57, -50, -66, -2, -86, 33, -80, -88, -37, -26, 40, 29, -16, -87, 73, 21, -58, -59, 83, -26, 92, 22, -92, -76, 81, 36, -73, -66, -93, -42, 21, -31, -82, -8, 22, -47, -4, 68, -21, 93, -91, 44, 87, -31, 24, -33, 9, -82, -62, 54, -64, 44, -49, -82, -71, -48, 46, 59, -4, -50, 26, -45, -77, -85, 29, -46, 58, 77, 88, 47, -14, 37, 67, 52, -20, 22, 73, -17, -78, 14, -55, 50, 80, -71, -45, 66, 0, -66, -7, -45, -45, -2, -16, -48, -75, -90, 54, 33, -93, -21, 80, -87, 76, -59, -2, -32, 54, -42, -45, 59, -71, 51, 20, -2, 31, 40, -69, 44, -45, -87, -75, 81, 89, -87, -50, -67, -90, 61, -7, 28, 36, 75, -37, -30, -29, -7, -13, 40, 19, 3, -52, -4, 26, -12, -86, -63, 65, -25, -32, -50, -79, 65, -28, -4, 48, 17, 7, 71, -8, -63, -25, -69, 45, 71, -24, 24, -58, -38, 82, -27, 73, 80, -61, 91, 67, -90, 32, -19, -69, -14, -61, 51, -14, 25, -47, -83, -67, -33, 0, -1, 46, -4, 0, -33, -76, -4, -84, -47, -30, 23, -84, 84, -41, -41, -25, -20, -51, 33, 32, -92, -15, 91, -76, -91, 17, -24, -26, -57, 33, -69, -26, 80, 84, 17, 66, 79, -46, 87, 35, 63, -24, -16, 3, -40, 82, 55, 75, 11, -71, -76, -78, -60, 12, 19, -87, 3, -71, 47, -16, 64, -4, -61, -62, 92, -60, -1, 34, 15, -34, 90, 45, -2, -37, -44, -66, -55, -92, 34, -87, 70, 61, 44, -36, -80, 38, 42, -57, 68, -61, 38, 31, -9, -23, -88, -32, 35, 45, 10, 48, 13, 20, 15, 25, 8, 71, 75, 62, 62, -79, 17, -87, -82, 12, -84, 10, -4, -9, 19, -8, 59, -55, -63, -7, 23, 72, 25, 20, 24, -67, 50, 60, 5, -44, 48, 1, 93, 61, 80, -26, -8, -78, 7, -21, -44, 61, -6, 77, -87, -63, 11, 14, 93, 59, -92, -91, 81, 43, 73, 54, 75, 66, 34, -57, -33, 32, 51, 10, -32, 92, 15, 31, 31, 56, -59, 83, 17, -68, 89, 19, -42, 5, 9, -88, 57, 9, 5, 15, -7, -66, 30, -45, -47, 80, 7, 47, 61, 12, -32, 40, 81, -46, -47, 60, 86, 65, -7, 45, 9, -56, -53, -20, -62, 53, -16, 84, -58, -44, 55, -66, -7, -50, 56, -74, -10, 77, 84, 46, -15, 11, 30, 82, -48, 2, -65, 38, -57, 62, -45, 56, 88, -40, 89, -52, 50, 74, 40, 1, 34, 60, -54, 86, -38, -14, 49, 43, 71, 70, -34, 60, 8, 71, 2, 5, 8, 6, 80, -68, 73, 45, 16, 32, 52, -20, -37, 17, 31, 5, 86, 44, -16, 89, 6, -50, 76, -48, -38, 42, -12, -29, -42, -51, 57, 70, 19, -68, 67, 60, -8, 83, -3, -7, 13, -29, 34, -80, 48, -34, 8, -59, -56, 33, 72, 32, -7, 0, -81, 58, 84, -5, -85, -84, 84, -43, -13, -59, -29, -56, -60, -74, 26, -68, 21, -43, 83, 47, 41, -50, -24, 37, 72, 44, 10, 62, -10, -54, 59, -53, -26, 64, -76, 77, -36, 26, 34, 37, 84, 60, -69, -12, -26, -31, -53, 92, -68, -46, 11, -13, -41, 16, 43, 3, 63, 58, 23, 3, -51, -45, 15, -36, -12, 64, -59, 59, 93, -21, -87, 72, -90, -76, -88, 73, -32, 86, 0, 25, -51, 63, -80, 67, -93, 72, -56, 8, 30, -92, -79, -17, 26, -22, 80, 60, -20, -38, 2, -25, 74, -32, -28, 81, 30, -86, 19, -69, 57, 8, 47, -69, 3, -85, -40, -69, -14, 33, 8, 6, -38, -72, 45, 32, -75, -6, 81, 83, 30, 32, -11, -10, 43, -59, -71, 67, 24, 52, -40, 46, -78, -80, 87, -46, 35, 46, 19, 29, 53, -70, 75, -89, -31, -55, -76, 1, -10, 58, 69, -39, 70, 20, -27, -84, 68, -16, 6, -25, -70, -58, -45, -87, -45, 50, -4, 51, 68, 23, -68, -25, 9, -27, -88, -41, 82, -13, -36, 58, 32, -4, -14, 14, 22, -49, -29, 34, -81, -30, 38, 66, -45, -78, -13, 38, 37, -32, -3, 8, 91, -57, -19, 19, 91, 41, 88, 19, 48, 47, 32, 77, 62, 15, -13, 84, -74, -88, 34, 56, -69, -30, -44, 72, -29, -37, -30, -12, -13, 56, -65, -17, 80, -60, 34, 47, -45, -92, -37, -87, 37, -74, -53, -82, 25, 59, -26, -11, 78, 67, 37, -27, -32, -62, 36, -69, -72, -93, -63, 70, 19, 14, -9, 47, 19, -91, -38, -8, -37, 79, 70, -35, 72, -34, 16, -20, 3, 7, -33, -64, -38, 63, -58, -1, -13, -18, 72, 19, -45, -63, 51, -69, 63, 57, -13, 13, 38, 83, -71, 57, -39, 46, 58, -26, 69, -15, 34, 89, 30, 29, -53, -49, 36, -2, 75, 64, -20, -68, -1, 91, -20, 27, -1, -79, 3, 35, -69, -22, 4, -31, 7, 85, 12, 24, -87, -61, -3, 37, 69, 21, -23, 4, 4, -40, 44, 43, 41, 6, 19, 39, 30, 80, -35, -5, -92, -28, 84, 45, -3, -14, 53, -23, 87, 25, 67, 44, -49, 84, -66, -83, -50, -56, 78, -75, 66, -89, 41, 54, -59, -7, 7, -28, 61, 0, 77, 55, 13, 82, 51, -39, 68, -61, -38, 25, 41, -62, -61, -16, -73, 55, -7, -64, -47, 7, -93, -71, 0, -30, -18, -34, 26, 61, 24, 63, 12, -43, -67, -4, 65, 72, -37, 70, -78, 87, 5, 0, 67, 59, 91, -93, 85, -16, 40, -17, 8, -27, -82, 11, -48, 37, 54, 23, -93, -11, 6, 92, 35, 73, -41, 25, -65, 20, -35, -16, 4, -32, -58, 18, 77, 42, -89, -56, -93, 10, 67, 60, -60, -54, -33, -70, -80, -62, -75, -55, 42, -65, -16, -93, -41, 3, -47, -71, -84, -30, -68, 23, -63, -19, 75, -29, -64, 2, -40, 22, 13, -37, -93, 66, 53, 80, 63, 9, 52, 79, -63, -24, -72, -80, -33, 49, 92, -33, -2, -19, -89, -11, -51, -93, -91, 38, 56, -10, -9, -44, 5, 25, 67, 14, -67, -16, -1, 42, 11, 9, 17, 42, 6, -51, -85, -77, 28, 85, -60, 28, 86, 92, -55, -5, -43, -20, 88, 8, 53, -28, 39, -27, -18, 8, 20, -7, 57, -40, -21, 66, -27, -36, 33, 51, -9, -21, -23, 5, 85, -93, -20, -84, 39, 34, 67, -21, 81, -32, -64, -12, -34, 79, -52, 72, 11, 14, 0, -16, -54, -89, -51, -9, -93, 44, 80, -84, 19, 88, -88, -74, -29, -76, -45, 70, -17, -43, 5, -27, -56, 87, 13, 90, -92, 13, -38, 45, -70, -4, 63, 81, 72, -66, 6, -3, 37, -80, 44, 73, -72, 80, 48, 93, -8, -36, 9, 50, -92, -56, 81, 77, 90, 93, 24, -51, 37, 29, 71, 81, 76, -81, -58, 75, -54, -69, 3, -40, 55, -65, -69, -73, -6, 70, -27, -86, -40, 48, 20, 31, -26, 90, 60, 75, -43, -78, 54, 25, -3, 36, -11, -83, 89, -51, -86, 52, 76, -8, -43, 89, -65, 44, 46, -34, -27, -91, -88, 84, -30, -51, -3, 14, -51, -50, 48, 2, -42, -57, -92, 76, 8, 69, 2, 25, 51, 6, 60, -53, 72, 40, 11, -48, 50, -15, 17, 78, 29, 90, -68, 50, 67, -75, 11, 18, -73, 78, 30, 33, -42, -77, -10, -26, 88, -48, -59, 29, 27, 26, 3, -84, -84, -45, -64, 56, 33, -38, 1, -64, -63, -28, -70, 42, -84, -82, 84, -22, -12, -13, -40, 15, 50, -76, -32, -46, -51, -41, 52, -86, -11, 57, 37, -42, -84, -19, 40, 45, 55, 55, 54, -31, 14, 34, 30, -65, 77, -29, -52, 16, 42, 89, 53, 76, 55, 49, -14, -28, -40, -16, 53, 62, -16, -89, 48, 25, -80, -25, 40, -82, -92, -30, -50, -25, -66, 27, -42, -48, -87, 13, 56, 45, 40, 1, -46, -29, 24, 84, 31, 63, 33, -10, -73, -85, -6, 26, -17, 9, -74, -89, 87, -7, -42, -26, -31, -47, -23, 50, -57, -47, -64, 89, 30, -83, -41, 51, 35, -56, 65, 19, -56, 10, -20, 84, -9, -26, -21, -89, -73, -36, 20, 61, -22, -34, -14, -34, -36, -60, -38, 30, -58, 60, -66, -79, -36, -42, 13, 10, 73, 8, -26, -35, 78, 33, 24, -69, 7, -50, 12, 21, 52, -15, -45, -53, -74, -11, 52, -22, -52, -84, -86, -20, -31, -11, -57, 40, 70, 52, -8, 63, -28, 27, -17, -28, 90, 11, 12, -18, 71, 46, -65, -22, 89, 8, 20, -7, 60, 70, 65, -63, -56, 93, 20, 7, 6, -61, -18, -83, 12, 5, -33, -65, -21, 71, 54, 44, 23, 24, -33, 57, 76, -34, -6, 72, 80, 38, 84, 66, 81, -45, 77, 82, 93, 77, -74, 70, 10, 42, 43, 7, -35, -83, -19, -58, -44, -61, 46, -62, -55, -93, -8, -37, 32, -75, -75, 20, 5, 23, -67, -49, -17, -44, -77, -11, 29, -40, 38, -46, -79, -68, 18, 52, 72, -35, -54, 1, -7, -61, -67, -70, -12, 50, 0, -72, -58, -24, 77, -68, -90, 19, -20, -4, -46, 56, -77, -73, 33, -79, 5, 82, -22, -21, -33, 34, 33, -86, -5, -45, 50, -31, -59, 91, -60, 38, -24, 15, 17, -14, -55, -27, 24, 85, 19, -93, 77, 18, 91, -36, 33, -49, -80, 21, -18, -72, -5, 46, 73, -20, -25, -16, -86, -55, -48, 82, 64, -30, -70, 85, 2, 56, -33, 54, -45, 35, 39, 59, 91, -22, -47, -70, -11, -67, 44, 87, 33, 79, -37, 25, 13, -91, 66, 62, 18, 28, 79, -93, 16, -50, -93, -10, 48, 28, -34, 68, -71, 82, 25, -82, -81, -32, -34, 40, -27, 62, 90, 47, 7, -26, -42, 30, -89, 63, 34, -53, 18, 56, -88, 24, 12, -23, 51, -63, 86, -88, 80, -85, 11, -88, 15, 62, -64, -58, -8, -88, -47, -24, -86, 66, -16, -77, -59, -38, 48, 26, -73, -29, 65, 22, 23, -42, -18, 14, -86, 68, 54, -55, 26, 67, -26, -62, -41, -29, 49, -86, 3, 26, 55, 83, -30, -7, -91, -34, 89, -65, -73, -61, -76, -77, -67, 60, -63, -47, 82, -24, 18, -67, 56, -34, 31, 90, 82, -77, -8, 88, 69, -46, 68, -76, -80, -17, 65, 63, -82, -22, 8, 29, -35, 81, -93, -39, 79, -64, 52, -55, 75, -7, -13, -56, 93, 18, 84, -1, -67, -35, 31, -24, -92, 32, 37, -16, -29, 78, -69, 67, -57, 63, 82, -70, 14, -63, -92, 86, 82, 81, 56, -88, -1, -49, 50, -5, 36, -86, -8, 25, -60, 61, -65, -10, -23, -46, 84, -90, 25, 69, 32, 10, -46, -4, -36, -7, 86, 50, -27, 22, 47, -15, 77, 80, 39, 46, 21, 79, 27, -48, -4, -72, 69, -71, 67, 28, 32, -22, 28, 85, -92, -19, -75, -70, 14, -64, 6, -5, 64, -64, 85, -88, -75, 0, 42, -14, -81, 47, -30, -70, 77, -6, -33, 36, 2, -79, 39, 18, -60, -32, -47, 56, -3, -17, -70, -55, 4, 19, 23, -84, -49, 67, 30, 56, 3, -84, -24, 18, -47, -16, 17, 65, 79, 25, -83, -37, -71, -46, -75, -14, -43, -40, -53, -26, 84, -8, -40, 21, 15, -52, 71, 43, 68, 43, -13, -26, -2, -2, 81, 15, 48, 76, 46, 90, -11, -75, 70, -60, 90, -3, -48, -64, 2, 9, -3, 41, 93, -68, 61, -20, 30, 57, -34, 23, 41, -57, 56, 4, 91, 56, -49, -3, 24, -51, -21, -60, 65, -1, 54, -59, 93, -46, 65, -49, 17, -7, -28, 90, 85, -72, -4, -73, 60, -72, -57, -22, -17, 6, 4, -65, 86, -13, -80, 26, -88, 87, 25, 3, 24, -41, -34, 20, 90, 51, -93, -2, -6, 37, -23, -74, 36, -26, -75, -2, 23, -63, -2, 35, -88, 81, 68, -55, 17, 75, -40, -48, -13, 27, 31, 32, 62, -14, 3, -56, 54, -17, 58, -5, -33, -75, 14, 82, 16, -67, 10, 25, 45, 83, 66, 50, -4, -27, 69, 62, 81, -67, 11, 55, -56, 72, -63, 90, 45, -25, -77, -58, 85, 81, -47, -90, 93, -78, -1, 67, -34, -33, -44, 47, -52, 34, -89, -63, -23, -42, 3, 51, -58, -27, -27, -35, -51, -7, 88, 90, 56, 58, -23, 88, -86, -47, 70, 85, 48, 76, 37, 49, -37, -25, 79, -55, 55, 92, 49, 42, 49, 39, -6, 1, 18, -53, -24, 39, 73, -1, 58, -55, 11, 46, 24, 22, -66, -60, -2, 25, 40, 40, -13, -71, -56, -57, 80, 43, -10, -29, -85, -39, 39, -29, -76, 15, -87, 53, 78, 71, 70, 33, 7, -42, -52, -30, -91, 55, -79, -54, -14, -6, -76, -49, -81, -45, 27, 20, -48, 90, -11, -57, -25, -44, 23, -36, -75, -63, -23, 34, -60, 39, -8, -59, -89, -78, 47, 5, -15, -66, 11, -32, 17, -75, -93, 51, -69, -16, 19, -29, 33, -59, -33, -75, -19, 20, -70, 67, -61, 41, 81, 66, 44, 79, -31, -86, -3, -40, -15, 10, 39, 71, -42, 62, 84, 2, -28, -66, -31, 30, 85, 2, -92, -15, 89, 12, 16, -21, -58, -86, 57, -93, -4, 46, -32, -28, -15, -1, -13, -45, -12, 91, 75, 13, -89, 69, 47, 70, 47, -5, 18, 57, -30, 37, 69, -1, -39, -80, 58, 88, -3, -19, 32, -66, -39, -70, 80, 40, -54, -65, -70, 73, -35, 27, -40, 57, 27, -13, -17, -86, 69, -20, 18, -90, -13, -7, 41, 42, 80, -29, 57, 6, 72, -27, -31, 59, 87, 69, -89, -19, 54, 41, -46, 93, 37, -33, 51, 88, -35, -21, 63, 46, -9, -6, -48, -43, 91, 76, -64, 0, 36, 0, 72, -84, -69, 76, -44, -36, -21, -55, 28, 76, 42, -30, 36, -43, 57, 85, -52, 40, 75, 35, -65, 49, 55, 92, 77, 93, 15, 64, -90, -15, 52, -57, 48, -56, -85, 50, 33, 82, 26, 45, 48, -21, -48, 50, 3, 27, 55, -29, -62, -52, -1, -72, -35, 42, 2, -28, -3, 30, -46, 67, -47, 73, 43, -57, -69, -3, 43, 90, 90, -86, 45, -1, 26, -17, 68, 28, 48, -45, -7, -77, 93, -45, 35, -10, -51, 89, -83, -22, 42, 72, -34, 61, 32, -61, -70, -71, 8, 49, 43, -63, 83, 9, 38, 10, -42, 79, 66, -36, 46, 87, -19, -81, -41, -90, 19, 29, 14, -8, -49, -18, 45, -9, 23, -85, -73, -79, 64, -70, -91, 55, -83, -49, -32, 73, 64, -35, 37, 83, -6, -9, 61, 92, -68, -47, 2, 71, -91, 13, 40, 55, 39, 10, -13, 52, 41, -31, -4, -44, 72, 32, 32, -26, -12, -55, -87, 25, 14, -2, -83, -66, -24, 43, -26, -84, 53, 16, -77, -91, 26, -18, 88, -33, 41, -63, -44, -68, -69, -77, -54, 30, -50, 8, 3, -42, -75, 25, 79, -26, -27, -3, -68, 3, -35, -15, -63, 87, -70, -67, 55, -85, 20, 81, -34, 42, -89, 78, -83, 51, 5, 16, -86, -69, -90, -22, -85, 50, 7, 17, -26, -23, 26, 54, -34, 15, -15, -35, -16, -6, 21, -50, 92, -76, 43, 25, -23, -75, 10, -49, -86, 38, -61, 73, 23, -2, -75, -47, 38, -48, -76, 44, -91, 19, -39, 28, -7, -87, -35, -69, -79, -59, 92, 2, -68, -90, -17, -25, 14, 61, -53, 86, -6, -41, 92, 11, -1, 47, 2, -37, -21, 39, -82, 88, 73, 1, -45, 25, 16, -63, -48, -49, 18, -56, -26, 44, -21, -76, 17, -48, -32, 17, 56, -27, -87, -69, -85, 69, 37, -5, -51, 50, -27, 12, -27, -50, -92, 8, -24, -64, 47, 34, -52, 28, -55, 45, 55, 66, 14, -91, -72, -20, 33, 10, 77, 25, 73, -49, -87, -21, 78, 24, 82, 35, 7, -27, 60, 4, 86, -55, -28, -86, 74, 29, 91, 70, 38, -35, -48, -25, 27, 12, -18, 75, -77, -12, 76, -66, -30, -22, -59, -32, -19, 43, 88, 46, -1, -54, -22, 67, 53, 45, -53, -37, 88, -36, -74, 52, 75, -73, -81, 55, -72, 34, -77, 5, -93, -48, 33, 44, 59, -32, -93, -92, 20, 63, 46, 33, -52, -12, -31, -18, 53, -31, 55, 56, -17, -4, 74, -40, 92, -68, -78, 82, 57, -40, 60, -26, -2, 28, 92, -59, -90, 19, -74, -77, -44, 80, 78, -9, -31, -15, 51, 73, -67, -42, -16, 60, -49, 45, -91, 22, 79, 77, -22, -5, -55, 70, 2, -66, -87, -76, 51, -85, 42, 19, 17, -75, 48, 68, 20, -21, 70, 15, 23, -17, 29, -19, -54, -29, 0, 5, 14, -60, 65, -46, 16, 21, 31, 2, -60, -54, -75, 61, 6, -75, -46, -89, -28, -44, -24, 61, -72, 17, 32, 10, 39, 14, -17, -88, 26, -89, 25, -74, -70, 4, 0, -35, 44, -58, -55, 28, -87, -76, 30, -73, 9, 84, 42, -46, 60, 44, -11, 38, 67, 76, -43, 53, -37, 90, -1, 6, -16, -60, 4, 80, -37, 63, 85, -28, 60, 87, 19, -79, -30, 84, 71, 55, -39, 23, 59, 56, -77, 78, 54, -30, -74, 75, 23, 87, -81, -91, -91, -49, 29, -13, -66, -18, -37, 83, 37, 19, -84, -41, -59, 3, 33, -64, -15, 75, -24, 17, -70, 66, -62, 68, 85, 32, 17, 35, 43, 4, 80, -55, 69, -65, -56, 67, -42, 23, 1, 24, -66, -54, 27, 25, 61, 72, -29, 1, -6, 78, 36, -8, 74, 91, -92, -58, -76, -56, 28, 64, -23, -53, -88, 36, 14, -9, 6, -59, -61, 44, 20, -40, 16, -30, 89, -89, -23, 85, -8, 9, -55, -16, -59, -4, -39, -82, 74, 70, -27, -11, 35, 73, 21, -79, -81, 14, -48, 54, -44, -12, -20, 69, -80, -74, -56, 15, 92, 34, 71, -21, 71, -54, -68, 70, -47, -75, -69, -62, -77, -68, 68, -25, -88, 16, 0, 41, 76, -93, -52, -44, -28, 9, 92, -33, 2, 88, 33, 80, -6, -14, -88, -76, -76, 22, 4, 61, 15, 25, -57, -56, -73, 37, 15, -32, 89, 4, 84, -15, 37, -57, 2, 65, 54, 84, 90, -26, -65, 57, -40, -87, 43, -34, 3, -43, -38, -75, 86, -86, 84, -24, 92, 69, 21, 54, 16, 71, -20, -74, 86, 65, -77, 19, 33, 81, 88, -69, 55, 67, 66, -37, 30, 50, -42, 85, -58, -67, 65, 75, 56, -80, 26, 56, -66, -75, -34, -11, -50, 54, 47, 73, -87, 93, -30, -51, -81, 78, -75, -86, 87, 1, -82, 72, 3, -1, 24, -18, 34, 87, -24, 4, 75, 6, 32, 51, 83, 58, 41, 84, -77, -47, -8, 88, -17, -85, -55, -66, 43, 57, -58, 82, 16, 55, -60, -57, 78, -92, -34, -92, -77, 31, -88, -24, -45, 29, -12, -6, -12, -39, 34, -45, -63, -28, -6, -68, 38, -70, 80, -44, 13, 69, 43, 1, 49, -44, -82, -88, -24, 75, -53, 65, -30, 35, -71, -6, 52, -44, -88, -70, -74, 6, 44, -59, 34, 50, 77, -5, 42, -77, 67, -68, 0, -10, 45, -54, 73, 35, -26, -89, 73, 49, -79, 86, -81, -18, 31, -13, 34, 79, -83, -24, 91, 25, 42, 3, 13, 53, -44, 38, -75, 15, 19, -39, -87, -4, -56, 60, 92, -6, 79, 0, -86, -26, 70, 23, -37, -53, 19, 7, -65, 52, -40, 50, -43, -81, 43, 65, 4, -26, 89, -30, -21, 78, -85, -87, -15, 82, -76, -49, 34, -48, 17, -9, -71, -37, 79, 8, 83, -46, 53, -48, -16, -1, 7, 19, 44, -11, -68, 10, -79, -5, 23, -79, 52, 33, -37, 1, -11, -19, 13, -62, 39, -61, 57, -42, -62, 68, -36, -25, 49, 18, 12, -41, -70, -59, -83, -38, -73, -1, 20, -49, -48, -54, 54, 9, 5, -36, 44, 89, 74, 47, -29, 33, -28, 21, -13, 1, 65, 70, 18, -33, -34, 78, 92, -33, -25, 17, 30, -88, 26, 36, -10, 12, 89, -61, 79, -38, -48, -52, -10, 24, -91, 55, 46, 90, 37, 48, 65, -12, -72, 17, -26, 3, 81, -81, 93, -69, 54, 19, 3, -38, -83, -12, -89, 52, 64, 38, 43, 59, 10, -16, -37, -72, -69, 10, -43, 55, 3, -40, 60, 62, 40, -58, 92, -1, -10, 39, -84, -13, -54, -56, -8, 58, -58, 20, 29, -90, 49, -91, 29, 36, -52, 53, -67, -90, -57, 26, -21, 13, -28, 5, -7, 35, -16, -67, 27, -85, 50, -75, -34, 54, -29, 37, -37, 71, -29, 63, 23, -31, 70, -82, 60, 64, 60, -36, -53, -80, -27, 29, 65, 8, -58, -78, 86, -8, 91, -13, 82, 78, -27, -28, -22, 12, 80, -74, 30, -35, 25, 93, 77, -65, -36, -72, -40, -36, 25, -85, -90, -22, 73, 18, -86, -54, 55, 79, 32, -38, 87, 11, 66, -20, -11, 28, -68, -31, 54, 87, -83, 87, 6, 29, -75, -50, 12, -15, 76, -53, -15, -93, 57, 21, 64, -65, 62, 18, -49, -62, 58, 23, 15, -73, 4, 62, -88, -21, 85, -68, -74, 7, 85, 16, -92, 22, -53, 54, 45, -33, -66, 6, 13, 14, 44, -45, 80, -12, 35, 41, 84, -31, -80, 59, 92, 88, -88, -85, 0, -77, -79, 70, 28, 64, -9, 21, 82, -68, -22, -54, -89, 44, -66, 57, 27, 85, 41, 93, -8, -53, -21, 50, -50, 85, 5, -49, 65, 15, 2, 93, -75, 39, 0, -57, -46, -43, -2, 42, -27, -59, 41, 1, -68, 72, -41, 90, -84, 85, -89, 15, 87, 84, -27, -49, -84, 80, -13, -38, -27, -35, 50, 14, -82, -88, 13, -64, 84, -66, 72, 35, -24, -89, 80, 28, -70, -6, -27, 46, 88, -92, 59, -21, -89, 67, -91, -70, -36, -8, -25, -91, -26, 15, -88, 92, -78, -31, -62, 65, -1, -19, -76, 15, -58, 28, 47, 28, -40, 25, -85, -34, -17, -6, -12, -69, -57, 20, 50, 49, 9, -24, 50, 61, -63, 69, -28, -33, -78, 49, 74, 77, -44, -29, -63, 20, -12, 74, -64, -48, -60, 42, 85, 9, -90, 2, -63, -82, 56, -47, 3, 88, -91, -51, -68, -6, -27, 68, -16, 90, 7, -60, -86, 0, -3, 72, 50, 25, 69, 4, 60, 24, 38, -2, 47, -36, -31, 60, 92, -10, 33, 29, -84, -49, 42, -21, -31, -16, -2, -50, 82, -64, -35, 33, -31, 3, -73, 63, 14, -57, -41, 24, 55, 57, -20, 59, 35, -34, 80, 35, -19, -86, -19, 79, 54, -69, 19, -33, 57, -40, -21, 49, 11, -65, -41, 42, -20, 79, -65, 43, 85, -74, 66, 74, -8, 88, 76, 4, -88, -32, 12, -78, -75, 79, 27, -76, -84, 80, 15, 87, -88, -61, -26, 6, 90, -50, 74, -87, 29, -78, 92, 51, 56, -46, 81, 78, 52, 42, -38, -1, -18, 63, -27, -7, 35, -86, 12, -86, -93, 43, 51, 83, 7, 6, 3, 18, 42, -83, 93, -19, -14, 76, 20, -20, -15, -10, -77, -18, -30, -8, -82, -38, 22, 29, 16, -35, -61, 64, 39, -14, -62, 31, -47, 64, 50, 81, 20, 69, 40, 12, 78, 75, -17, 78, -57, 88, 47, 54, -40, 5, 26, -33, -20, 4, -15, -71, -64, 88, 58, 76, -46, 35, 43, 2, 20, -21, 42, -79, 39, 37, -9, -33, 64, 78, 69, -3, 45, -93, -39, 87, 75, -67, 1, 15, -6, -50, 43, 76, -66, -20, -11, 57, -48, -71, 61, 13, -32, 11, 54, 88, 7, -17, -92, -46, -11, 29, -35, 37, 0, 29, 43, -77, -60, -10, -17, 65, -92, 68, 18, -24, -12, -84, -61, -67, 81, 66, -81, 10, -3, 23, 45, -89, -28, 54, -58, 69, 9, -17, 78, -31, -24, 8, -87, -74, 22, 21, 92, -37, 81, 78, -20, -70, -78, 23, 4, -82, -89, -52, -65, 35, 22, -44, -35, -44, 65, 35, 42, 66, 71, -7, -34, -73, 68, 63, -20, -79, -53, 13, 26, 85, 14, -63, 47, -58, -65, 72, 33, 17, 1, 70, 31, -15, -39, 31, 91, -9, 31, 12, 35, 92, 40, 73, 65, 31, -28, -1, -66, 83, 84, -11, 44, -71, -36, 12, -53, 5, 53, 66}

#define GROUP_CONV2D_KERNEL_0_SHIFT (10)

#define GROUP_CONV2D_BIAS_0 {56, -94, 27, -38, -82, 43, -75, -58, 48, 45, 70, 37, -2, 38, -102, -9, -62, -103, -9, 77, 38, 53, -2, 67, 53, -5, 68, -13, 42, -77, 75, 95, -80, 35, -53, 57, -40, 57, 14, 101, -83, 52, -23, -58, 72, -10, 89, -110, 62, -76, -88, -53, 51, -80, 63, 54, 107, -69, -34, 107, -108, 75, 99, 75}

#define GROUP_CONV2D_BIAS_0_SHIFT (9)


/* output enconding for each layer */
#define INPUT_1_OUTPUT_SHIFT 7
#define GROUP_CONV2D_OUTPUT_SHIFT 6

/* bias shift and output shift for each layer */
#define GROUP_CONV2D_OUTPUT_RSHIFT (INPUT_1_OUTPUT_SHIFT+GROUP_CONV2D_KERNEL_0_SHIFT-GROUP_CONV2D_OUTPUT_SHIFT)
#define GROUP_CONV2D_BIAS_LSHIFT   (INPUT_1_OUTPUT_SHIFT+GROUP_CONV2D_KERNEL_0_SHIFT-GROUP_CONV2D_BIAS_0_SHIFT)
#if GROUP_CONV2D_OUTPUT_RSHIFT < 0
#error GROUP_CONV2D_OUTPUT_RSHIFT must be bigger than 0
#endif
#if GROUP_CONV2D_BIAS_LSHIFT < 0
#error GROUP_CONV2D_BIAS_LSHIFT must be bigger than 0
#endif

/* weights for each layer */
static const int8_t group_conv2d_weights[] = GROUP_CONV2D_KERNEL_0;
static const nnom_weight_t group_conv2d_w = { (const void*)group_conv2d_weights, GROUP_CONV2D_OUTPUT_RSHIFT};
static const int8_t group_conv2d_bias[] = GROUP_CONV2D_BIAS_0;
static const nnom_bias_t group_conv2d_b = { (const void*)group_conv2d_bias, GROUP_CONV2D_BIAS_LSHIFT};

/* nnom model */
static int8_t nnom_input_data[12800];
static int8_t nnom_output_data[6400];
static nnom_model_t* nnom_model_create(void)
{
	static nnom_model_t model;
	nnom_layer_t* layer[3];

	new_model(&model);

	layer[0] = Input(shape(10, 10, 128), nnom_input_data);
	layer[1] = model.hook(GroupConv2D(64, 8, kernel(3, 3), stride(1, 1), dilation(1, 1), PADDING_SAME, &group_conv2d_w, &group_conv2d_b), layer[0]);
	layer[2] = model.hook(Output(shape(10, 10, 64), nnom_output_data), layer[1]);
	model_compile(&model, layer[0], layer[2]);
	return &model;
}
