#include "nnom.h"

#define GROUP_CONV2D_KERNEL_0 {65, -68, -3, -32, 40, 44, -83, -61, 28, -41, 4, 65, -20, 36, -66, -77, 86, 11, -13, -63, 22, -32, 57, -86, -62, -78, 33, -61, -69, -62, 6, -68, -54, -26, -91, 68, -29, -71, 79, 71, -12, 55, 64, -45, -6, -76, 17, 20, -41, 20, 35, 63, -84, -20, 32, -4, -12, 18, 3, 49, -62, -20, -34, 9, -87, -39, 35, 31, 58, 63, 93, -18, -56, -42, 48, 86, 65, 77, -25, -21, 9, -76, 23, -46, 84, -64, 22, -23, -36, 23, -5, -86, -36, -42, 52, -77, 70, 3, 48, 32, 80, 25, 73, 54, 64, -31, -51, 63, 17, -86, -26, 42, -45, -55, 52, -46, -67, 63, 34, -6, -54, -42, -45, 79, 32, 78, 78, -79, 23, 81, 29, -53, 75, 35, 55, -51, 76, 41, 15, -93, 70, 88, -65, -90, -36, -55, -10, -48, 1, -48, -14, 6, -90, -27, -59, -27, -3, 0, -9, -8, 62, -49, -58, -81, -39, 40, 39, 31, 80, 83, 0, 35, 20, 9, 50, -9, 19, 25, -17, -29, 27, 21, 87, 3, 28, -17, 75, 16, -74, 76, -35, -51, -33, -91, 77, 31, 30, 82, -7, -16, -68, -33, -85, -69, -9, -87, 79, -13, -59, -10, -90, 51, 33, -38, -82, 3, -4, 35, -62, 80, 30, 69, -22, 57, 13, -7, -68, -1, -32, -53, -7, 26, -93, -16, -78, 28, -13, -46, 14, 1, 57, -18, 89, -55, -9, 88, 28, -44, -64, 62, 22, -53, 14, 35, -90, -51, -28, 4, 5, 84, 90, 82, -85, -71, 51, -14, 80, -76, -51, 41, 25, 76, 65, -88, -54, -41, 30, 11, -33, -89, 40, -36, -87, 76, 57, -67, -20, -7, 56, 71, -70, -86, 88, 50, -6, 2, -1, -29, 65, 83, -91, 43, -23, -86, -63, 11, 82, 29, -4, -9, 5, 34, -3, 5, -60, 75, -8, -85, -55, -38, 50, 35, 33, 52, -56, -52, -84, -48, -75, 91, -60, -73, 21, 8, -1, 58, 2, 34, 40, 59, -6, -89, 61, -87, 37, -20, 55, 33, 82, 72, 33, -60, -41, -85, 79, -2, 7, -52, -89, 15, -91, 3, -79, 43, 76, 76, -89, 14, -36, -9, 37, -7, -25, -25, 90, 80, -6, 70, 24, 40, 35, -35, -43, 45, -82, 28, 51, -39, 86, 38, -22, -8, 85, 3, 86, 76, 29, -25, -42, -20, -83, 80, 40, 35, 73, -30, 34, -31, -19, -31, 71, 15, 91, 63, 5, -49, 14, -53, -73, -55, 79, -4, 84, 83, -34, 20, 30, 66, 31, 36, -73, -18, 37, -45, -36, -51, -44, -55, -80, -79, -17, 86, -16, 60, -57, -18, -41, -19, -18, 86, 90, -21, -12, 90, -78, 86, 8, -90, -26, 57, -87, 85, -21, 92, 44, 79, 53, 48, 56, -37, -13, 58, 55, -91, -58, 14, -20, -61, 36, 48, 44, 51, 90, 36, 16, -11, 0, -40, -24, -41, 82, 52, -59, -53, 52, 68, 64, 86, 49, -9, -75, 77, 59, -19, 64, -50, -39, -89, -54, 58, 65, 13, -6, -67, 20, -30, 54, 11, -18, 55, 90, 47, -40, 61, -42, 9, 72, 88, -23, -5, 63, -78, 55, 91, -68, 36, -49, 38, -5, 65, 71, -64, 69, 46, -90, -2, 82, -60, 75, -76, 73, -1, -9, -43, 89, 89, 71, -87, 70, 37, 70, -9, -35, 79, -54, -63, 1, 50, 33, -16, -16, -23, 72, -21, -80, -40, 51, 28, 26, 35, -18, -59, 66, -56, 92, -71, 0, -33, -47, 44, -64, -87, 86, 58, 6, 41, 85, -82, 39, 82, 26, 52, -14, -91, 30, -21, 82, -61, 19, -83, 78, -10, -77, -35, 1, -36, 57, -8, -38, -52, 10, 82, -85, 9, 20, 86, -88, 10, -35, 81, 63, -84, -76, -80, 23, 91, 26, 17, 31, -43, -57, 93, -26, 85, 25, -8, -50, -53, 37, -16, 49, -32, -24, -82, -7, -15, -61, -35, -4, -4, -25, 90, 50, 81, 22, 62, -42, -65, -24, 38, 68, 83, 12, 79, -33, -84, 42, -31, 39, -81, -4, 74, -91, 34, -8, -86, -60, -80, 40, -81, -11, 5, 76, -47, -5, -22, 69, 52, -49, 57, -79, 74, 30, 4, 78, 22, -58, -45, 85, 92, -54, -27, -31, 32, -88, -36, 11, 66, 40, -68, -3, -34, -93, 57, -87, 20, -71, -16, 11, 66, 11, -76, 78, 64, 29, 92, 16, 36, 31, 45, -9, -47, 23, -53, -76, -18, -80, -34, 88, -37, -61, 3, -17, 61, -67, -13, -11, 66, 3, 12, 90, -22, -16, 3, -10, 47, -24, -2, -85, 80, 2, -18, -60, -25, -68, -19, -4, 74, 13, -75, 39, -20, 17, -11, -59, -74, 15, -18, -50, 71, 19, 16, 73, 59, 48, 39, 15, 41, -25, 61, -75, -88, -24, -75, -58, 6, 87, -15, -9, 83, 67, 39, 35, 84, 90, 59, -27, -84, -70, -58, 57, -80, 91, -65, 45, -33, -35, -30, -3, 45, -28, -16, -48, -64, 79, -31, 85, -73, 33, -85, 66, -67, -57, -20, -42, -33, -47, 55, 33, 82, -89, 36, 68, 72, 11, 46, 57, 79, 82, 12, -16, -39, 85, -35, 16, 40, 28, 79, 46, 11, 70, -43, 65, 35, 18, -18, 34, -35, -4, 70, -46, 86, 66, -81, -57, -56, 89, 69, 72, 26, 54, -61, 3, -37, 64, -89, 5, -8, -87, -14, 8, -78, -28, 5, -49, 73, -67, 35, -44, -81, -2, -41, 19, 92, 86, -84, -62, -3, 82, -51, -18, 28, 22, 58, 8, -35, 92, 25, 72, 79, 38, 49, 6, -58, 67, 27, 6, -16, -28, 86, 13, 16, 81, 76, -63, -22, 89, -38, 63, -56, -82, 81, 85, -6, -45, 77, -71, 64, 59, 40, -1, -50, -5, -81, 1, 84, 67, 13, -82, 10, -60, -10, 86, 36, -22, -46, -44, 14, 66, 43, 8, -6, 67, -15, -88, -66, -31, -88, 78, 89, 5, 83, 57, 28, 70, -25, -18, -76, -49, -7, -20, 79, 53, -90, -23, 4, 55, 3, 53, 92, -88, 39, 29, 22, -46, -13, 35, 36, -37, 28, -8, -52, 87, -33, -72, -31, 17, -8, -41, -42, 51, -86, -33, -74, -79, 23, -25, 54, -34, -23, 31, -69, 64, 75, 68, 81, -30, 67, -1, 88, 48, 23, -3, 30, -9, -77, -13, -50, -70, 11, -54, -64, 21, -43, -82, -86, -85, 31, 10, 78, -22, -17, 90, -67, 60, -62, 32, -2, -35, 60, 22, -1, 24, -20, 53, 68, -39, -55, -2, 79, -36, 30, 0, -87, 73, -14, -20, 86, 55, -13, 28, -9, 17, 57, -32, 0, 54, -3, 76, 82, -39, 26, 26, -45, 17, -10, 13, 3, 20, -89, -50, -77, 43, -6, -5, -68, -11, 12, -52, 29, -67, 55, 90, -30, -90, 48, -13, 65, 74, 29, -34, -39, -1, -68, -72, -17, -9, -6, 48, -38, -14, -30, 68, 59, 73, -32, -8, -39, -3, 4, 78, -38, 7, -45, 32, 81, -85, -92, -64, 82, -20, -9, 39, 86, -6, -93, -58, 60, -12, 36, -51, 59, 1, -78, -66, 91, 43, -51, -22, -62, 86, 36, -59, -49, 93, -15, -49, 40, 72, 45, -33, -18, 85, 66, -9, -19, 48, -28, -70, -25, 92, 78, -4, -72, 93, 19, -53, 20, -17, 50, -39, 77, 13, 34, 1, -89, -75, 81, 42, -39, -7, 65, -33, -9, -87, 43, -34, -86, 0, 0, -32, 22, -33, 31, -1, -5, 14, -2, -19, 88, -70, 77, 32, 56, -14, 83, -48, -86, -79, -62, 75, 64, -49, 19, -56, 83, -53, -27, 26, -6, -93, -69, -35, 15, -61, 5, -81, 71, -17, -71, -67, -4, -85, 50, 64, 32, -23, 83, 8, 27, 6, 46, -83, -38, 54, -49, -87, 33, 55, -29, 11, -24, 12, 80, 46, 68, -51, 63, 15, 11, 75, 69, 64, -4, -63, -39, 3, 79, 71, 92, -92, -76, 40, -40, 19, 36, -38, -37, 12, -20, 34, -70, 36, -54, 56, 91, 54, -49, 15, -51, 79, 35, -69, -33, 13, 58, 18, 19, 54, -69, -28, 46, -53, 12, -3, -44, -93, -54, -62, -69, 89, 25, 43, 92, 74, -40, 63, 14, 65, -33, 14, 54, 46, 43, 35, 78, -6, 1, -84, 7, 66, 69, -29, 27, -17, -73, -71, -67, -38, 67, -33, -84, 12, -63, 42, -28, -55, 27, 90, 45, -70, 39, 69, 76, -21, 57, 84, -90, 8, 70, 72, 56, 19, -67, 69, 17, -68, 46, 75, 4, 15, -59, 9, 0, 79, -52, 19, 54, 37, -58, -84, 59, -52, 18, -52, 85, 45, -63, -62, 8, -12, -87, 84, 42, -70, -39, -63, 6, -19, 34, 60, 54, 13, 50, -86, -75, 10, 21, -88, -31, 17, 76, 83, 15, 27, 18, -75, 79, 39, 13, 72, -91, -40, -23, 71, 62, -55, 77, 66, -24, -43, 64, 18, -48, -76, -58, 88, 83, 51, 10, -27, 6, -88, -40, 88, 11, 8, 51, 13, 51, -31, -83, -41, -43, 23, -82, -19, 57, 63, -29, 53, 29, -58, 7, -52, 24, 73, -2, -36, -48, -45, 48, 47, 3, 27, 72, 2, 29, -5, 50, 49, -38, 78, -22, 82, -92, 17, 46, -23, -20, 85, -89, 25, 1, 20, 55, -61, 43, -87, 28, 29, -43, 69, 78, -73, 82, -64, 64, 55, -44, 35, 82, -14, -28, 48, 24, -51, 59, -69, 61, -7, -73, 2, -10, 34, -10, -58, 25, -40, -58, -28, -61, -23, 84, -78, -58, -49, 84, 19, -9, 40, 55, -35, 60, 11, -61, 93, 48, 89, -1, -43, 83, 3, -3, -88, -59, 85, -25, -37, -91, 55, -38, -38, -3, -45, -61, 55, -36, 4, 44, -16, 17, 68, 6, -45, 7, 19, 19, 52, 69, -52, 66, 32, -48, 33, -66, 39, -84, 90, 37, -90, 4, 77, 24, -29, -32, 74, 2, 77, -15, 19, 32, 13, 14, -75, -6, -84, -91, 93, -17, 1, 39, -31, 38, 15, 79, 1, -47, -31, -85, 47, 23, -83, -44, 2, -83, -80, -40, 66, 1, -74, -80, -78, 31, -22, -57, -82, 67, 0, -48, 45, -44, -37, -69, 73, 88, -18, -58, 10, 1, 77, 18, 49, -53, 64, -53, -12, 64, 31, -82, -7, -76, 58, -19, -16, -48, -2, -79, 77, 19, -72, -85, 75, 47, -20, -9, -13, 59, 21, 29, 26, 28, 43, 41, 54, -48, -57, 15, -36, -56, -45, -68, -16, -67, -67, 87, -36, -5, 37, -52, -3, 51, 48, -69, -74, -51, 27, 18, 20, 43, -77, 32, -88, -55, -79, 34, -91, -29, 69, 2, -77, 77, -72, -91, 30, -40, 66, 40, 14, 75, -87, 86, 18, 65, 37, 48, -86, 67, -55, -32, -9, 47, 89, 11, 57, 22, 46, 27, 22, -76, 7, 3, 31, -41, -60, 23, 88, -14, -18, 9, 50, 76, 38, -24, 57, 73, 9, 2, -92, 91, -2, 90, -28, 79, -9, -56, 33, 31, -45, 34, -80, 23, 89, 49, -91, 74, 43, 17, 45, -5, 56, 23, -83, -41, -70, -24, 81, -92, -88, 68, 5, -25, -92, -89, 24, -39, -18, -81, -58, -90, 77, 66, 44, -74, -92, -82, 69, -19, -47, 40, 50, -7, -45, 27, 16, -3, 48, 75, 17, 63, 84, 73, 75, 41, -55, -81, 83, -59, 4, -45, 84, 40, -38, -79, -50, 7, -16, 4, -32, 85, -26, -93, -71, -22, 91, 48, 0, 67, 83, -33, 13, 56, 36, 30, -11, 6, 71, 45, -13, 42, -50, 5, 58, -38, -54, 81, 37, -25, -34, -33, -9, -16, -74, -25, 93, 15, -83, -28, 91, 36, -10, -9, 46, -55, 28, -46, -22, -28, -85, 15, 35, -23, 57, 76, 66, 90, 4, -86, -68, -91, -32, 71, 71, -75, 62, 23, -29, 63, 23, 29, -28, -5, -58, -20, -40, 69, -1, -81, 89, -79, 29, 73, 2, -41, -16, 21, 72, -80, 20, -78, 43, -14, 81, 29, -81, 20, -11, 43, 39, 33, 90, 16, -49, -37, -89, 65, 59, 74, 21, -82, -74, 44, 1, -60, -51, -65, -51, 30, -15, 6, 27, 74, 36, 30, -25, -50, -89, -7, 53, 73, -3, -31, -66, -15, 33, 15, -36, -13, 51, -28, 63, 68, 18, -40, 2, -37, -47, -49, -1, -30, -87, -57, 86, -28, -48, 77, 34, 58, 5, -78, 19, -88, 16, -5, 85, 52, -13, -34, -1, -70, 60, -92, 69, 86, -58, 27, -30, 2, -62, -11, 66, 56, 43, -15, -36, -93, -10, -66, -43, 20, -27, 56, -11, -76, 3, -59, 75, -31, 86, 64, -71, 33, -53, -77, -69, -85, 0, -76, 9, -36, 91, 6, -82, 55, 16, 64, 32, 47, -60, 72, 82, -1, 44, -49, -62, -33, -63, -72, 92, 66, 62, -2, 79, 87, 50, -67, -4, 15, 69, 26, -81, -32, 30, -28, 33, -47, -3, 66, 77, 27, -92, 43, -25, 27, 28, 91, -87, 16, 31, -31, 59, -54, -34, 84, -18, 91, -20, 7, -80, 57, 28, -39, -36, -57, 3, 67, -29, 29, -39, 34, -47, 13, -31, 58, 1, 9, 83, -80, -40, 91, 24, -70, 92, -38, -14, -51, 66, -57, -15, -88, 46, 49, -84, -27, 60, 61, 49, -89, 70, 66, -48, -80, 48, -72, 33, -36, -44, -5, -29, -53, -74, -22, 61, 72, 11, -52, 88, 30, -41, 87, -39, -34, 52, -50, -16, -64, 67, 25, -32, -46, -13, 79, 44, -46, -70, 54, -11, -40, -91, 18, -65, 12, -16, 80, -77, 86, -45, 52, 91, -50, -46, -18, 9, 22, -43, -65, 19, 75, -48, 2, -88, 70, 3, 36, 58, -45, -87, 84, 56, -31, -82, -72, -62, 40, -6, -72, -14, -20, 70, -55, -55, 39, -65, -14, -46, -83, -77, -47, -90, 22, -21, -39, 49, -22, 25, -93, -54, 41, 28, 86, -28, -78, 66, 29, -46, -50, 56, 18, 18, -30, -17, 72, -29, -40, -71, -63, -40, 70, 21, -15, 84, -39, -50, 82, -72, 28, -50, -40, 85, -41, 17, 40, 40, -83, 55, 60, 17, 12, -53, -2, 26, -91, 28, 8, 49, -16, -48, 92, 37, 46, 41, 13, 32, -69, 14, 91, -84, -87, 82, 80, -69, 14, -89, -19, -91, -71, -38, -47, 7, -36, -62, -23, 5, 55, -47, -39, -84, 67, -89, 10, -34, -83, 39, -80, -40, 79, 69, -57, 44, 54, 18, -45, -65, 54, 20, 23, -23, 65, -53, -74, 82, -62, -90, -93, -91, -47, 51, -85, 70, -45, -12, 86, 83, -25, 69, -93, 55, 40, 34, 23, -47, -90, 35, -7, 28, 57, 40, 51, -90, -55, 76, 60, 80, 92, 72, -61, -12, -52, -21, -31, 18, 87, 13, 78, -10, 58, 3, 39, 9, 33, 68, -83, -62, 9, 74, 91, -42, 1, 15, 13, -6, -16, 19, -23, -74, 73, 28, 79, 73, 67, -9, -4, -93, -1, -83, 56, -7, -78, 74, -30, 56, 36, -54, -51, -26, -93, -79, 85, -18, -17, -41, 81, 75, 39, 91, -33, -76, 52, -5, 88, -30, 80, 18, 39, 44, -70, 28, 11, -11, 90, -34, 0, -92, 15, -44, -46, 83, -3, -37, -40, -28, -22, -33, 87, 54, -73, -8, 64, 75, -34, -63, 81, -70, -47, 48, -83, 39, 15, -79, -4, -31, 17, -11, 16, 27, 5, -17, -2, 30, -84, -4, 46, -29, -64, 10, -2, -78, -31, -71, -58, 36, -10, 33, -79, 51, 79, -18, -67, -30, -79, 56, -66, -19, -30, -47, -36, 5, 49, 21, -43, 24, 21, 29, 17, 86, 79, -12, 44, -35, 16, 11, 44, -51, 67, -56, 10, 65, -56, 60, 19, 87, 50, 27, 28, -6, -26, -10, 88, 24, -68, 81, 24, 46, -5, -72, 65, 60, -25, 2, 88, -62, 66, -36, -60, 67, -75, -39, -37, 3, 38, 49, 65, -46, 81, 75, 53, 72, 49, 5, -1, -27, 31, 35, 57, 66, 86, 39, -18, -4, 72, -16, -82, -58, 81, 52, 66, -73, 78, 75, -33, 83, -36, -61, -70, -15, -83, -58, 70, 60, -73, -92, -31, -33, 1, -54, 5, 84, 50, 9, -65, 47, -67, 7, -67, 72, -24, -87, 47, 73, -67, -41, -16, -86, 79, -78, -62, 63, -4, 89, 52, 23, 7, -81, -5, -36, -66, 63, -8, -73, -26, 78, 65, -48, 81, 83, 37, -3, 92, 87, -64, -51, 40, -46, -4, -49, -43, 45, 25, -62, -88, 21, 41, 84, 41, -46, -8, 39, -9, -33, -36, 87, 54, -22, -22, 4, 32, 66, 50, -50, 93, 85, 20, -31, 46, -4, -9, -82, 23, -45, 42, -83, 14, 45, 60, -20, -56, 32, 67, 28, -29, -60, -31, 55, -47, -44, 7, -81, -35, -27, 6, 82, -59, 6, -28, 51, 27, 39, -63, 4, -47, 57, 62, 37, 2, 60, 29, 3, 26, 31, -39, -41, 18, 20, 12, 41, 74, -27, 56, 73, -64, -69, -80, 40, 23, 64, 68, 28, 20, -30, -49, 19, -57, 56, -71, 11, -10, -50, -8, -35, 49, 18, 0, -22, 53, 48, -90, 83, 46, 63, -78, -84, -37, -3, -77, 44, -41, 28, 54, 33, -31, 48, 61, 9, 58, 41, 2, 86, 67, 4, 90, 3, 65, 43, 34, -49, -57, -13, -35, -78, -83, 71, 37, 10, 46, -45, -38, 66, -77, -7, 47, 70, -11, 27, 87, -76, -64, 77, 83, 70, -44, 22, 78, -54, -22, 27, -91, 82, 31, 69, 2, 49, 53, 35, -41, -70, -23, -59, 89, 12, 5, -12, 69, -37, 60, -8, 29, 66, -54, 87, 90, 84, 80, -90, 93, 79, -25, -16, -21, -11, 10, -93, 15, 79, 54, 61, 89, 52, 38, 58, -3, -30, 37, -28, -84, -38, -55, -54, 86, -91, -92, 15, 68, -51, -13, 75, 14, -43, -90, 35, -31, -36, -18, -87, 77, 5, 67, 45, -17, 5, -2, -33, -78, 75, 34, 64, -68, -79, -67, 9, 42, -16, 28, -44, 44, 87, -55, -93, 38, 7, -79, -72, 78, 75, 83, 33, 1, 85, -63, 11, 87, -12, -85, -25, 54, -11, -66, 62, -5, -52, 49, 16, 81, 72, 54, 61, 52, -10, -88, 57, -75, -90, 2, -7, 59, 49, 24, 33, 5, 28, -31, 6, 10, -73, -4, 45, 21, 53, -55, 60, -62, -14, -4, 10, 77, -62, 49, -49, -82, 81, -68, 93, 81, 80, -29, 6, -49, 23, -49, 22, 51, 88, 20, -29, -55, -36, -57, -64, 46, 14, -88, -4, 44, 73, -15, -79, 88, -58, 5, 55, -81, 64, 8, 71, 29, 61, -45, 1, 68, 34, 33, -79, -63, 1, 29, -78, 45, 50, 86, -5, 47, -56, -30, -34, -41, -12, 47, -4, -6, 66, -63, -10, 32, -65, 31, -15, 78, 21, 1, -14, 67, -16, -31, -72, 71, 48, 10, -48, -85, 69, 39, -3, 91, -63, 65, -67, -93, -28, 63, -20, 8, 1, 55, 76, 46, -89, -52, 61, 82, -90, 44, 63, -55, -76, 49, -15, -65, -70, -77, -59, -29, 62, 49, -64, 85, -57, 41, -29, 11, 37, -68, -58, 85, 27, 62, 52, -14, 18, 0, 42, -79, -33, -39, -1, -32, 47, 81, -26, -2, -25, -73, -54, 18, 20, 77, -50, 32, -51, 89, -10, 56, 43, 52, -20, 19, 50, 51, 90, 60, 18, 86, -64, 40, 76, -65, 7, -8, -27, -91, -42, 59, -65, -24, -75, 34, 43, 25, -61, 54, 7, -6, 80, -24, 35, 30, -91, -22, -32, 87, 31, -26, 85, -8, -65, -78, 81, -43, -25, -79, 90, -72, 2, -41, 35, -13, -25, -21, 88, -75, 59, -42, 8, 40, -63, 55, -54, -15, -75, -88, -28, 56, -51, -18, -32, -29, -46, 36, -18, 17, 74, -4, -26, -65, 68, 46, -62, 27, -25, 69, -48, -53, 29, -70, 26, -62, -77, -77, -25, -88, -25, -65, 6, 56, 61, 30, -47, 8, -62, -32, -78, -6, 37, -74, 78, -47, -19, 33, -57, 8, -13, -46, -10, 92, 91, 50, 46, 35, 85, 56, -48, 49, -7, -55, -79, 61, -43, -65, 37, 47, 69, 70, -1, -81, -30, 1, 38, -53, -50, -40, 47, -70, -63, -87, 11, 31, 18, -73, 37, 74, 62, 75, -61, -26, 80, -5, -22, -90, -30, -35, -37, -21, -56, -58, -75, -82, -79, 63, -24, -92, -28, 61, -50, 38, -45, 75, 17, 85, 80, 83, 53, -87, 76, 6, 13, -3, 23, -69, 41, -56, -59, 7, -7, 7, -41, 29, 25, -77, 31, 0, -42, 15, -20, 15, -38, 4, 22, 65, -30, 46, -54, -54, 18, 28, 92, 18, 2, 51, 40, -41, -57, 25, 37, 21, -86, 8, 29, -19, -88, -69, 23, 16, 33, -43, -48, -26, 36, -90, 73, -54, 74, 29, 78, -87, 20, -56, 16, -44, 75, 34, -70, 81, 40, 55, 81, -26, 9, 70, -53, -36, 88, 13, 41, 32, -45, -66, 23, 48, -71, -76, -59, -59, 27, -57, 13, 45, -26, 3, 27, 17, 49, 61, 58, 34, -56, 41, 2, 24, 31, -68, -36, -15, 36, 85, -90, 52, 45, 54, -49, -13, 41, -56, -17, 28, -80, -29, 20, 49, 2, 57, -9, 23, 61, 68, 10, -40, 68, 40, 76, -32, -66, 84, 32, 45, -51, -92, 12, -77, -37, 64, 8, 76, -78, 88, -25, 38, -64, -80, 85, -84, 66, 0, -25, -66, -41, -48, -9, 3, 64, -74, -4, 1, 74, -60, -7, -48, 39, -42, -64, 89, -83, 20, 11, 79, -3, 43, 58, -73, -21, 26, -39, 27, -64, -44, 58, 47, 14, 19, -80, -87, 59, 47, 47, -2, 41, 38, -75, 61, 33, -40, -70, 89, 23, 87, -71, -29, 26, 78, 59, -85, 45, -88, 39, 16, -2, -74, -51, -65, 4, -6, -56, -15, -18, 70, 28, -93, 60, -58, -65, -88, 22, -72, 70, -9, 75, 13, 62, -65, -47, 27, 50, -42, 42, 46, -22, 77, -52, -35, 19, -22, -90, 43, -41, -93, -70, 34, 55, 58, 9, -12, -54, -58, 2, -15, 69, -90, -15, 61, 60, 62, -48, 35, -59, -51, -58, -49, -22, -52, -68, 25, 17, -6, -37, 2, -14, -48, -85, 17, -3, 63, 42, 73, -32, 54, 90, -54, 34, 83, -87, -81, -90, 62, 79, 20, -51, -8, 33, 49, 63, -75, 51, 9, 24, 68, -69, -15, -12, -26, 32, -11, 27, 24, 29, -88, 85, -54, -38, 0, 45, 73, 72, -65, -42, -63, -60, 39, 71, 81, -2, 27, 93, -42, 57, -70, 66, -86, -74, 37, -60, -48, -47, -5, 80, -12, 36, 6, -90, 48, -63, 2, -12, -24, 32, -21, -3, 43, 19, 23, 88, -8, 13, 58, 80, -15, -70, 55, 27, 45, -9, 74, 70, -39, 25, 78, -15, 54, -30, -66, 89, 31, -92, -7, -45, 21, 48, 27, 90, -56, -9, 58, 82, 53, -45, -59, -10, -26, 28, -35, 68, -86, 55, -3, -69, 57, -22, 89, -63, 15, -51, 46, -72, 5, 28, 6, -59, -18, 93, -2, 60, -31, -87, 23, 24, -77, -59, -24, -8, -42, 3, -60, 13, 73, 77, -82, 42, 56, 87, -30, -16, -34, 41, 12, -86, 75, 54, 90, -12, 32, -54, -34, -8, 85, 70, -90, 81, -52, -75, 37, -55, 92, -24, -68, -77, -33, 28, 40, 48, -14, 17, 78, -45, -59, 62, -32, 8, 29, 24, -38, 33, -40, -2, -86, -51, 9, 10, 60, 11, -82, 66, 46, 93, -73, 8, -13, 87, 13, -76, 84, 13, 67, -67, -39, -60, -60, -60, 25, -79, 25, 72, 76, 58, 29, 69, -58, 83, 30, 50, -40, -7, 86, 70, -41, 7, -27, -70, -12, -54, -4, 45, 35, -93, -72, 43, 73, 52, 57, -51, 39, 45, 64, -71, 69, 14, 3, -42, -81, 41, 70, -42, -14, 29, -92, -58, 88, 21, 11, -81, -46, 27, 6, 17, -51, -73, 37, 3, -55, 60, 27, 60, 38, 12, 75, 29, -58, -34, 80, -64, 43, -29, -4, 57, -54, 7, 3, 20, 7, 24, -51, 67, 9, 70, -86, 33, 4, -73, -41, 46, 76, -34, -57, 53, -86, -58, -7, -40, -61, 25, 92, -66, 12, 11, -27, 13, 10, 20, 18, -47, 84, 26, 88, -4, 50, 48, -93, 22, 71, 81, 53, 36, -80, 49, -86, -13, 76, -47, -52, -69, -57, -35, 61, -67, 93, -55, 22, 16, 78, 39, -7, -3, 54, -10, 21, -92, -56, 75, 91, -45, -91, 50, 38, 16, -34, 24, 45, 55, 9, 46, 5, -45, -76, -27, -39, -79, -10, 57, 48, 60, -8, -7, 80, -83, -83, -78, -20, -53, 30, 55, 36, -85, -52, -20, -90, 84, 68, 51, 49, -6, -71, -31, -52, -62, 36, 55, 48, -56, -21, -59, -89, -91, -13, -90, 31, -20, 85, 10, 83, 49, 71, 49, 36, 40, -48, -74, 13, -92, -85, -23, -39, 17, 49, 21, 18, -91, 56, 93, 9, -14, 60, 43, 14, -20, -46, 48, -88, -31, -37, 7, 1, -5, -17, -67, -70, 13, -83, -63, -14, -82, -65, -62, 28, -45, -54, -72, -52, 13, -92, -14, -15, 50, -89, -49, 25, 84, 60, -74, 4, -68, -29, -82, -86, 31, -33, 12, -30, -44, -12, 83, 80, 46, -65, -77, 44, -92, -32, -76, 16, -68, -26, -32, 41, -27, -38, 43, 27, -61, 3, 25, 76, -8, -10, -40, -44, -50, -4, 26, -9, -73, 89, -81, 65, 62, -19, 81, 8, -32, -50, -25, 23, 86, -21, 57, 87, 83, 16, 10, 83, 78, -8, 44, 80, 22, -42, 25, -71, 42, 16, -76, 50, 21, 28, -36, 5, 49, 26, -41, 68, -60, -68, -79, 2, -2, -90, 52, 87, 93, 33, -73, 91, -85, 71, -90, -38, -6, -28, 22, -2, 79, -56, -60, -37, -2, 44, 34, -38, 50, 36, 85, -78, -64, -56, -52, -45, -28, 20, -34, 11, -59, -33, 71, -54, -67, -79, 58, 27, -40, 70, -92, -32, -79, 56, -8, 66, 64, -16, -13, -6, 43, -88, -78, -28, -57, -19, -60, -36, 73, -40, -47, 43, -3, -56, -91, 86, 15, -74, -9, 23, 15, -69, 46, 63, -14, -1, 84, 74, -79, -28, 2, 88, 81, -83, 65, -31, 93, 82, -31, 16, -48, -27, -90, -38, 16, -53, 57, 54, -24, -8, 75, -39, -2, -16, -33, -55, 45, -6, -49, 80, -12, 55, -69, 5, 46, 69, 58, 63, 15, -44, 47, -23, -87, -34, -24, -85, 71, -28, -64, 34, 92, 69, 49, -17, -86, 35, 58, -80, -29, 48, -24, -58, -46, -33, -91, 78, 64, -88, -59, 72, 91, -57, -33, -72, 72, 47, -62, 25, -56, -92, -36, -57, -66, 90, 86, 60, 33, -86, -23, -72, 50, -43, 40, 73, -9, -33, -18, 29, -7, 93, 54, 92, 7, 24, -87, -72, 6, 38, -30, 29, 63, 3, -76, 90, 84, -19, 30, 14, -42, 93, -29, -44, 12, -53, -29, 15, -9, -5, 60, 65, -49, -49, 14, -7, -61, 33, -12, 52, 7, 64, 58, 16, -78, -79, -8, 31, -61, -86, -15, 21, -66, -63, 41, 11, -17, 29, -50, 84, 50, -78, -13, -30, -7, 78, -47, 24, -45, -40, -31, -44, 30, -88, 23, 1, -55, -64, -66, -34, -84, 86, 16, 48, -56, -38, -86, -54, 2, 74, 54, -26, -29, -42, -52, -1, -84, -72, -6, -6, -87, -53, -80, -38, -68, 28, 60, -78, 9, -55, -69, -91, 19, -36, 53, 33, -15, -82, -13, 70, -49, -74, -52, 47, 69, -14, 20, -41, 37, -7, 21, -41, 34, 39, -14, 18, 29, 16, -42, 0, -46, -4, -78, -27, -31, -60, -47, -11, -52, -21, 90, -27, -33, -8, -57, 10, 26, -23, 70, -76, 15, -24, -42, -79, -84, 48, 86, -16, -45, 39, -92, 49, -67, -65, 12, -24, 42, 28, -68, 92, 66, 25, -72, -20, -48, -8, -33, -49, 77, -34, -45, -7, -82, -39, 68, 84, 27, 27, 16, 45, 87, 56, -56, 4, 29, 17, -43, -86, -89, -1, -86, -62, 49, -33, -6, -27, -70, -34, -30, -26, -46, 44, -41, 46, -44, -53, -27, 0, 56, 54, -5, 21, -79, -14, 22, 5, -37, 23, -71, -65, -15, 69, 33, 60, -42, -24, -31, -53, -2, 27, 79, 32, -83, 69, 80, 87, 21, -76, 57, -53, 42, 5, 49, 75, -24, 13, -29, 50, 20, -53, -52, 71, 74, 74, -89, -56, 72, -68, -79, 38, 21, 30, -2, 22, -55, -20, 82, -32, -35, 17, -58, -84, 75, 86, -14, -57, 9, -34, -27, 42, 60, 7, -6, 14, -57, -86, 84, 16, 43, 45, -90, -68, 45, 6, -19, 26, -88, -68, 74, 17, 53, -27, -93, -1, -87, 84, -21, -70, -81, -58, -15, 33, 44, -42, -27, -38, 92, 6, -35, -58, 47, -38, 71, -57, 1, 82, -25, 41, 43, 45, 64, 54, -92, 81, -20, 66, -21, 87, 83, -55, 1, -79, -9, -63, 55, -26, -92, 61, 46, -68, -90, 45, -60, -20, 12, -65, -71, 14, 50, -57, 91, -78, 1, 47, -24, 11, 70, 40, 47, 65, 32, -52, -15, 85, -73, 10, -86, 93, 34, -25, 89, -25, 83, 83, -50, 13, -85, -49, 72, -18, -75, -68, -27, 79, 78, 14, 63, -73, -4, 53, -25, 9, -76, 38, 91, 13, 72, -60, 57, 74, -3, -52, -86, -10, 10, 12, 91, 8, 51, -5, -69, -17, 78, 24, -10, 90, 60, 17, 74, 69, -1, 36, -74, -30, -49, 21, -34, -85, 17, -61, -78, -35, -60, 22, -58, 89, 89, 9, -16, 10, 48, 50, 54, -71, 45, 39, 21, 66, 64, 43, -5, 10, 11, -46, 50, 78, -37, -32, 14, 24, -9, -1, -50, 62, -87, -58, -14, -52, 83, 65, 68, 40, 28, 38, -14, 10, 27, 83, -79, -17, -43, -30, 75, -13, 89, -84, -32, 9, 91, -29, 8, -18, -88, 35, 18, 61, 2, -20, 90, -43, 62, 80, 70, -18, -22, 39, -25, -41, -62, -20, 5, 87, 52, 80, -68, 13, -79, -12, -30, -91, 60, 89, -63, 73, -65, 46, 76, -68, 79, -71, -58, -64, 85, 75, 27, 86, -88, 29, 74, -79, -78, -88, 85, -81, 86, 91, -60, 46, 56, 10, 44, -92, -70, 73, 33, -6, -75, -80, 69, 20, 2, -16, 37, 28, -85, 63, -47, -11, -65, -3, 38, -54, 87, 56, -54, -48, 44, -28, 66, -30, -82, 15, -13, 77, 11, -90, 4, 6, -15, -61, 55, -25, -78, -40, 6, -30, 5, 10, 56, 80, 28, -75, -56, -2, -60, 78, 75, -30, 67, -85, 21, 38, -13, 21, -18, -68, -92, 66, 89, -47, -27, 47, -9, -71, 27, 86, 16, -33, 46, 63, 2, -54, 15, -32, -83, -25, 39, 69, -52, 55, -5, -2, 15, -64, -27, -30, -67, 74, 42, -30, 57, -86, -4, 32, 78, -61, -17, -92, -86, -15, -15, 73, -92, -46, -57, 17, -61, 44, -17, 33, -9, 44, 50, 35, 39, 57, 35, 73, 68, 89, -20, 49, 10, 78, -63, -56, 63, -37, -54, 55, 85, 42, -5, -76, -17, 69, -5, -91, 0, 34, -74, 11, -6, 84, 69, -27, 1, 74, 88, -60, 87, 44, 0, -66, 74, 88, -67, 60, 28, 75, 76, 92, 30, 77, 84, 9, -36, 10, -65, 68, -29, 32, 86, -80, 66, 6, 34, 44, 20, -43, -2, -57, -71, 4, 16, 16, -63, 66, 73, -91, 42, 36, -82, 86, -78, -63, 1, -6, -79, 83, 55, 37, -59, 61, 78, 69, 35, -53, 54, -87, 81, 52, -59, 87, 68, 24, -86, -31, -12, -12, -13, 78, -16, 34, -47, -8, 61, -12, -16, -91, 12, 52, 40, -88, -9, 82, -44, -53, -12, -46, 55, -33, 46, -25, 34, 12, -60, 92, 63, -81, -45, -21, 5, -80, -68, -83, 7, 23, -5, 10, -93, 13, -45, 35, -36, 78, 73, -88, 14, -1, -76, 5, -61, 27, 26, 47, 1, -34, 53, -10, -48, -74, -84, 38, -82, 22, -64, 81, 74, -39, 9, 57, -12, 58, -31, -76, -38, -71, -71, -36, 6, -89, 54, -59, 30, -86, -55, 44, -64, 45, -37, 10, 35, -78, -5, 28, 7, 6, -25, -33, 32, 11, 75, 28, -63, -63, -56, -63, 81, -45, 63, -73, -49, -81, 12, -39, 14, 82, 78, 59, 68, -50, -12, 92, -92, 83, -8, -43, 59, 19, -13, 0, 27, -71, 31, -86, -50, 71, -8, 11, -41, 39, -62, -35, 43, -20, -71, -45, -88, -67, -14, 86, -9, -25, 79, 47, -33, 81, 70, 81, 92, 69, 93, -12, -65, -91, 64, 40, 2, 6, -88, -16, 35, -1, -55, -6, 49, -45, 10, -51, -80, -37, -79, -49, -63, 91, -55, -8, -17, -75, -37, -7, 32, 69, 47, 60, -81, 13, 85, 28, 51, 36, 28, -33, -39, 33, -93, 43, -10, -81, -63, 39, -21, -87, 84, 63, -9, 93, -74, -15, -67, 21, 43, -87, 23, -31, -33, 56, -33, -91, 87, -49, -65, -62, 87, 20, 11, -41, 14, -30, 24, 93, -54, 77, 22, -78, -57, 89, 42, 53, -47, -47, 71, -43, -4, -49, 74, -91, 20, -55, 37, 38, -10, 5, -28, 33, 78, -12, -48, 80, -66, -38, 5, 35, -64, -12, 69, -72, -21, 44, 64, 20, 78, 17, 61, 21, -22, -72, -75, -39, -27, -50, 41, -53, -16, -17, 51, 25, -8, -52, 34, 37, -77, 48, -48, 16, -80, -57, -12, -27, 45, 34, 13, -35, -66, -51, 63, -74, -41, -12, 93, -77, -20, 58, 11, -80, 90, -5, 27, -38, -88, 79, 50, 26, 90, -66, -64, -6, -36, 90, 35, -69, 13, -92, -90, -92, -22, 20, -70, -58, -21, -55, 81, 21, -55, -56, 8, 91, -45, -24, -84, -26, 41, 34, 48, 89, -13, 64, 91, -61, 18, -88, 7, -35, 40, 79, 16, 87, 64, -13, 58, -5, -1, -86, 71, 88, -71, 92, 37, 4, -42, -56, 57, -42, -4, -42, 61, -58, 1, -57, -77, -41, 74, -62, -57, 23, 17, 2, -19, 22, 90, -64, 88, -52, -62, -23, -19, -55, 34, 17, -69, -60, 41, 53, 16, -47, 80, 21, -42, 17, 70, -67, 25, 47, -12, -93, -58, -80, -58, 81, 75, -13, 32, -19, -34, 7, 6, -9, -71, 75, -57, -38, -29, 6, 4, -70, 59, -65, 1, 85, 51, -78, 45, -66, -7, -57, 58, -14, -7, 42, -5, -46, 38, -12, 88, -17, 33, -54, -86, -72, -70, 79, -31, 67, 60, 81, -24, 26, 13, -6, 86, 69, 83, 57, 86, 33, -41, -9, 42, -52, -59, 92, -36, -29, -86, 20, -44, -75, 73, -51, 31, -14, 75, 41, -6, -12, -88, 85, -79, 34, -28, -7, -43, 8, -81, 1, -68, -62, 69, -12, -89, -26, -6, 48, -21, -39, 11, 0, -80, -59, 12, 6, 68, 55, -78, -57, -84, -90, -13, -9, -87, -92, -11, 4, -77, -61, 30, 3, 64, 83, -65, -27, -66, 43, 70, 23, 38, 73, 25, 36, -4, -66, 69, 25, 0, 57, -16, 24, -77, -45, 86, 41, -87, 16, 7, -64, 51, -35, 79, -15, -28, 45, -2, 28, -13, -92, 48, -45, -31, 56, 86, -16, 68, -63, 24, 6, 86, 57, -49, -56, 21, -21, -70, -68, 17, -56, -2, -26, 87, 20, 28, 22, -14, 13, 15, 6, -52, 44, 9, 22, 66, -1, -77, 86, -83, -90, 14, -30, 31, -71, -51, 90, -73, 29, 13, 40, 39, 77, -76, -52, -82, -21, 44, -80, -42, -26, 40, -71, -86, 33, 52, 22, -28, 37, 54, -52, 47, -73, 83, 76, 26, -55, -21, -12, -33, -87, -87, -61, -29, 68, 84, 49, -21, 85, 36, -38, 87, -4, -83, 75, -22, 39, -18, -42, -29, -16, 13, 12, 16, -88, -43, -14, -74, 72, -50, -32, -80, 57, -87, -31, 13, 35, 4, -8, -72, -46, 49, -86, -74, -27, -24, 20, -30, 20, 20, -49, 6, -54, -19, 1, -39, 6, -7, 92, -36, 70, -8, -40, -10, 63, -72, 36, -86, -11, -54, 66, 90, 21, -47, -18, 44, -80, -13, 16, 14, -70, -53, 63, -17, 10, -90, 20, 62, 75, -84, -11, -8, 21, -28, 61, 90, 41, 62, -43, -85, 62, 74, 86, 80, 24, 58, -39, -18, -74, -1, 15, 50, 81, 87, -54, 78, -16, 69, 16, -30, -71, -30, -90, -50, 3, -51, 15, -57, 5, 4, 83, 29, -10, 54, -49, -76, 42, -35, 74, -25, -42, -39, 19, -25, 36, 58, 85, 58, -69, 35, -64, -71, -49, -15, -10, -26, 19, 73, -13, -2, 43, 7, 14, -84, 59, -9, -89, -32, 73, 47, 60, 79, -11, 78, 62, 90, -49, 18, 43, 71, 5, 3, 2, -86, 66, 76, 45, 77, -46, 14, -40, -21, -44, 49, 89, 23, 63, -7, 88, -30, 86, 18, -27, -87, 78, 89, -36, -29, -64, 67, 48, -28, -73, -53, 65, -67, -92, 29, -50, -83, 45, 60, -28, -7, -29, 38, 14, -75, -2, -13, 92, -12, -90, 28, 80, 84, -1, 24, -24, -28, 41, 57, -6, -55, 77, 7, -85, 19, -3, -31, 33, 11, -48, 79, 12, -74, 77, -19, -15, -28, -4, -63, 23, -18, -28, -16, -10, -88, 27, -9, 83, 85, 14, 9, 68, 86, 41, 10, -16, -17, 3, -41, -20, -34, -7, -93, 75, -92, -31, 40, -64, 21, 37, -63, 0, -26, -43, 55, 62, -67, 1, -20, -76, 92, -46, -16, -82, -3, 28, -26, 73, 21, 85, -76, -20, -55, 45, 57, 10, 50, 24, 34, 65, -44, 71, 20, -4, -89, -84, 32, 46, 81, 9, 93, -10, 87, 9, -55, -84, -42, 79, -26, -45, -37, -34, -55, -66, 6, 6, -92, -77, -69, -27, 61, -3, -63, 29, -35, -85, 2, 55, -42, 7, -41, 83, 84, -59, 34, 4, 42, -90, 49, 20, 15, 55, -45, -86, -72, 17, 68, -28, -53, 37, -5, -19, 16, 33, 75, 54, 93, 6, -86, 85, -35, -7, -48, -9, -23, 75, 29, 13, 25, -64, 44, -28, -72, 87, 18, 66, 47, 35, -25, -18, -35, -78, -16, -5, 16, 8, -32, 16, 44, -39, 60, -28, -69, 40, -14, 25, -71, -72, -92, -11, 32, -93, 53, -67, -1, -78, 51, -7, 84, 9, -62, -15, 32, -58, 25, 50, -32, 48, 21, 42, 40, -28, -35, -20, -92, 22, -37, 57, -64, 64, 14, 38, -68, 44, -14, -11, -51, 77, -31, 81, 87, 33, 47, 57, -22, -50, 77, 71, -55, -71, -50, -38, 21, -86, -3, 27, 24, -64, 79, -68, -45, 20, 31, -33, 89, -12, 9, 47, 52, -42, -93, 3, -32, -10, -39, 84, 68, -28, 37, -91, -31, -44, 67, -38, -74, 36, -41, 18, 14, -6, 66, -19, -25, -55, 22, -4, -4, -76, 43, 65, 72, -54, 32, -2, -33, -73, -6, -89, -85, 81, 2, 35, 47, 13, -85, -61, -15, 18, -77, 52, -35, -33, 56, -47, 62, 11, 80, -44, 77, -86, 51, 22, -34, 77, 52, -7, -22, 48, -57, -49, 68, -89, 58, -90, 70, -1, 61, 38, -38, -37, 63, 13, 32, -6, 6, 37, 48, -41, -39, 81, 78, -45, 92, -83, 92, -26, 48, -35, -27, 62, -40, 91, 8, -36, -32, -57, -76, 19, 35, 22, 77, 10, 63, 46, -63, 72, -56, -13, 46, 60, -2, -61, -91, -44, 27, -55, -65, 42, -85, 63, 44, -90, 12, -78, 58, -32, -3, 70, 77, -6, -7, 43, -49, -6, -7, 78, 58, -7, 78, -11, -39, 10, 25, 62, -50, -47, 32, -52, -36, -33, -87, -72, -36, 43, 92, -11, 82, -69, 69, -23, -44, 29, 55, 50, 33, 20, -28, 36, -34, -4, -20, -56, 75, -86, -1, 13, -9, 82, 12, -18, -78, -74, 14, -60, 38, 44, 30, -41, -49, -32, -32, -52, 40, 51, 16, -84, -11, -51, -82, 80, 5, -2, 61, -79, 78, -89, 19, 91, -26, -87, 31, 29, 12, 68, -4, 64, 38, -48, -74, 62, -49, 44, 15, -9, -17, 23, -33, -92, -54, 13, -67, -28, 57, -1, 62, 28, -89, -38, -86, 8, -62, -16, -31, -43, 11, 46, -39, -71, 1, -14, 62, -38, -22, -26, -61, -19, -22, 16, 73, -66, 46, -73, -25, -7, 57, 36, -24, 30, 9, -88, -59, 53, 68, -5, 37, 70, -12, -49, -14, 33, 69, 86, -76, -78, -53, -92, -61, -32, 47, 2, -33, -28, -61, 81, 47, 54, 66, 21, 16, 55, 39, 39, -54, -18, 12, -40, -47, -20, -31, -70, 48, -21, 9, -83, 12, 59, -85, -57, -88, 11, 37, -60, -69, 44, -45, -25, -70, -55, -11, 46, -6, -38, -16, 77, 85, -86, 16, -68, 17, 25, 76, -8, -24, -51, -88, 18, -58, -49, -18, -21, 31, 54, -49, -32, -49, -28, -28, 76, -32, 19, 31, 91, -29, -60, -68, 50, -56, -21, -66, -12, -42, 58, 48, 92, 10, -72, -39, 2, -85, -1, -2, 79, 70, -79, 0, -87, 45, -93, 89, 91, -36, 53, -51, 54, 45, -87, -16, 57, -91, -14, -73, -25, -84, -71, 61, -2, -14, -92, 59, 27, 1, -44, -8, -63, -78, 44, -77, 40, 38, 76, -11, 60, 46, -72, 79, 47, 9, -56, 31, -82, 45, -29, -34, -11, 41, -1, -77, -49, -78, 40, 91, -6, -54, -86, 59, -13, -9, 51, -21, 27, -52, 11, 75, -74, 56, -74, -40, 35, 29, -40, -2, 92, 64, -1, 80, -77, -2, -23, -59, 73, 47, -90, -41, 85, 11, -25, 57, -20, 21, -15, -42, -68, -67, 65, -3, 91, 0, 41, -11, 93, 1, 65, -29, 62, -21, -12, -6, 29, -4, 44, 72, -73, -68, 63, 47, -84, 76, 58, 39, -29, 70, -91, 77, 81, -9, 33, 75, -50, 72, -38, 17, -56, -40, 40, 87, -44, 26, -59, 52, -12, 21, -47, 23, 8, 85, -30, 88, -42, -4, -6, -54, 34, -81, 63, 13, -69, 59, -19, 88, -26, 63, -2, -18, -70, -3, -71, 54, -60, -6, 53, 8, -61, -47, -55, 35, -93, 85, 58, -28, 66, -21, -50, 83, 24, 85, 81, -50, -63, -20, 93, 73, 15, -71, 51, -36, 6, 88, 36, -10, -44, 66, 92, -11, -87, 80, -36, -63, 33, 56, -40, 37, 49, -48, -46, -66, 82, -31, -6, -42, -40, 29, 59, -67, -77, 35, 45, 33, 47, 2, -75, -74, -21, 11, 71, 16, -73, 0, 48, 8, -28, 37, -68, -37, 87, 13, -11, -85, -35, -57, -2, 19, -17, -84, 56, 18, -70, -6, -92, 1, -61, 84, -54, -56, 34, -57, 34, 10, 22, -4, 89, -44, -38, 31, 50, 34, -52, 86, 57, 84, 57, 44, -3, -67, 43, -62, 48, -54, -22, 44, 9, 51, 24, 16, 67, 79, 30, 89, 4, 69, 63, 3, -23, 52, -65, -50, 86, -5, 44, -71, 77, 85, -73, -22, 39, -73, -41, 83, -64, -59, 2, -56, 0, 86, 74, 3, -24, -51, 87, 46, -87, -46, 55, 14, 61, 35, 11, 60, -80, 17, -25, 35, -6, 23, -79, 31, -14, -34, 35, 93, 86, -62, 52, 40, 47, 4, -15, -65, -19, 55, 77, 61, -64, 4, 73, 17, 15, -29, 59, -39, 87, 76, 88, 65, 41, -73, -5, 3, 38, -82, -67, -68, -82, 28, 46, 90, -38, -48, 90, -90, -91, 38, 4, -45, 8, -3, 53, 63, 85, 78, -3, 34, 45, -2, -90, 54, -31, -9, 60, 70, 36, 47, 12, 49, 79, 78, 4, -71, -80, -23, -81, -56, -80, 72, 84, 83, -74, 92, 93, -92, -65, -23, -41, 52, 46, -8, -82, -48, -66, 23, 68, 46, -50, 55, 47, 16, 53, -4, -4, 74, 50, -18, 42, 24, 20, -73, -7, -21, -39, 32, -76, -56, -28, 34, 50, 34, 86, 44, 11, -27, 20, 68, 11, -38, 61, 63, 10, -1, -26, -68, -32, 27, -49, 72, 63, 58, 21, 73, -19, 66, -85, 15, 87, 59, 66, -59, -44, 34, -18, -19, 37, 10, 32, -88, 74, -43, -9, -56, 38, 23, 41, 82, -47, -29, 55, -63, 54, 71, 29, -10, 8, 3, 74, 37, -26, 88, -28, 20, 48, 83, -19, -19, -82, 3, 14, 12, 46, -79, 19, -34, -71, -46, -88, -10, -13, -84, -60, 74, -84, -15, 56, 7, 60, 45, 3, -3, 73, 50, -71, 11, -55, 73, 19, -42, 61, -57, -10, -24, 12, -77, 70, -82, -86, -75, -22, 31, 27, 64, -6, -93, -58, 74, 72, -2, 78, -88, -86, 2, -28, 59, -92, 59, 62, -48, -64, -88, -16, 36, 38, -88, 37, -76, 58, 76, 32, 43, -82, -1, 89, 59, 66, -61, -64, 19, 88, 7, -87, -93, 16, -23, 1, 9, -83, -57, 17, 22, -70, 53, 21, 73, 7, 72, 28, 2, -24, 20, -63, -20, -7, 67, -37, 73, -64, 33, -59, -86, 30, 31, -82, -82, -63, 43, -19, -22, 85, -68, -10, 25, -87, 70, -51, 27, -24, -73, 30, 77, -36, 26, 82, -31, -34, 53, -64, -41, -9, 88, -64, -80, -47, -61, -46, -85, 83, -86, 91, -77, 52, 70, 54, 77, -88, -27, 72, -92, -27, -54, 27, 43, -49, 87, -8, -83, -29, 33, 83, 79, -35, 74, 73, -53, 25, -80, -71, -73, -22, -40, -21, -38, -57, 51, -82, -27, -61, 42, 64, 71, 59, 75, 84, 84, -9, -29, -52, 48, 32, 84, 49, -92, 91, -35, -69, 4, -48, -77, -55, -67, -26, -61, -9, 52, 83, 27, 25, 2, 48, 0, 32, -50, -68, -51, -43, -36, 58, 51, -65, -88, 16, -46, -88, 64, -61, 20, 71, -27, -34, 4, 6, 12, 40, 80, -78, -19, 76, 24, -71, 68, -63, 37, 27, 46, -83, 69, -26, 77, -88, -53, 77, -2, 17, 93, 86, 58, 69, 93, 43, -76, 79, 41, -53, 42, 73, 86, 77, -29, -33, -32, -63, 22, 23, -22, -63, -28, 22, 13, -16, 29, 47, -27, -41, 86, -27, -72, -36, -65, 31, -67, -73, 31, 21, -46, 82, -55, -25, 77, 91, 54, 42, -57, 62, -73, 5, 87, 73, 63, -79, -52, 82, 90, 10, -49, -5, 42, -42, -53, 41, -53, -81, -86, -17, -61, 39, -22, -12, 59, 64, -23, -3, -51, 81, 29, -62, -48, 59, -48, -53, -82, 85, -81, 5, 32, 68, -5, 39, 47, -89, -20, -70, 37, -55, 5, -25, 19, 83, 12, -84, 84, -56, -2, -37, -68, 31, -58, -17, -88, -37, -92, -48, 5, 83, 31, -29, 51, 49, -19, 75, -64, -67, 72, 86, -62, -41, -59, 76, -66, -81, 49, -21, 71, 70, 52, 1, 19, 86, 16, 9, -2, -35, -32, -42, 80, -10, -18, -83, -68, 48, 16, 26, -75, -90, -16, -89, 3, 73, 50, -40, 30, 25, -45, 54, -79, -31, 14, 2, -73, 21, 42, -9, -73, -33, 16, 83, 58, -46, 36, 58, 15, 53, 66, -39, -31, -53, -81, -79, 5, -28, 6, 72, 84, -77, -55, -11, 45, 89, 31, 36, -64, -70, -55, 38, -90, -18, -62, 47, -46, -8, -37, 77, -11, 40, 24, -88, -68, -43, -8, -74, -35, -22, 92, 28, -82, 49, 7, 90, 9, 49, -54, -51, 37, 21, -66, 89, -2, 38, -84, 52, 4, 39, 75, -72, 57, -49, -89, 26, 76, -42, -20, -46, -87, 68, 36, -48, -37, -35, 26, -87, -33, -74, -46, 75, 87, -26, 3, -31, -35, -39, -88, -86, 84, -82, -87, 41, -34, 73, 50, -28, -24, -1, -92, -36, 62, 41, 17, 21, -38, -6, -72, -47, 48, -77, -60, 43, 74, -92, -2, 48, 44, -15, -77, 87, 66, 5, 68, 17, -47, 83, 60, -22, 57, 83, 83, 83, -65, 16, -11, -75, 52, -3, 75, 64, 66, -11, -88, 84, -15, 86, -10, 7, 60, 50, -50, 75, 88, -1, -31, -28, 17, -91, 46, 80, -57, -45, -40, -26, 18, -2, 71, 90, 41, -33, -64, -15, -42, 17, -81, 33, -67, 18, 30, -30, 69, 92, 25, 87, -52, -92, 54, 63, 71, 42, 51, -64, -25, -12, -28, 14, -30, 61, -81, -81, -78, -37, 27, 50, 11, -27, 24, 9, 49, 64, 26, -76, -19, 42, 84, 88, -6, -10, 69, -5, -80, 46, 87, -39, 74, 84, 39, 1, -44, -92, 41, 80, 60, 3, -48, 40, 4, 90, 32, 80, -58, -58, 14, 34, -63, -72, -31, 28, -21, -51, -47, -31, -90, -29, -57, 77, -76, -56, 56, -16, -63, 84, 88, -74, 21, -19, -14, 74, 47, -50, -58, 45, -19, -49, 64, 9, -46, 70, 29, -58, 50, 60, -63, -24, 60, -26, -78, 12, -84, 53, -80, -40, 58, 53, -85, 83, -42, -42, 68, -4, 62, 55, -45, -14, -81, 34, 82, -24, 85, 18, -52, -52, 25, -31, 69, -54, -73, -19, 22, 89, -3, -2, -48, 57, -79, -60, -39, -60, 3, -35, -22, 56, 56, 30, -53, -80, -17, -80, -1, 50, 22, 69, -57, 87, -33, 27, 21, -92, 9, -32, -72, 63, -93, 74, -49, 80, 75, 59, 52, -46, 11, -81, 6, -51, 41, -87, -79, 67, -43, 77, -92, -89, -64, -25, 11, 3, 30, 17, -65, -61, 57, 77, -65, -70, -88, 5, 86, 15, -50, 40, 14, -72, 25, 48, -11, 23, -4, -17, -60, 30, -11, -90, -59, 35, 78, 22, 25, 73, -49, 63, 30, 45, 8, -27, -7, -74, 51, -86, -73, 62, 11, 72, -73, 25, -71, -70, 36, 31, -79, 66, 23, -60, 63, 27, 34, 2, -72, -65, 79, 13, 47, 21, -86, 53, -54, 84, 2, -70, -81, -32, 49, -85, -40, -24, 54, -67, -67, -61, -88, -52, 20, -50, -29, 53, 65, 65, 21, -43, -60, 1, 80, 23, 59, 76, -77, 52, 65, 49, -56, -93, 19, -80, -58, -79, 31, 58, 38, 22, -11, 58, -81, 64, 84, 85, -57, 68, 24, 14, 48, 29, 81, 79, -92, 77, 16, -30, 47, 12, 53, -69, -17, -32, -68, 25, 23, -78, 26, -67, 82, 10, -9, 16, -26, -4, 75, -21, -52, 25, 6, -9, -2, 33, 19, 2, 36, 41, -43, 12, 70, -92, -9, -41, -30, -53, 67, -37, -57, -41, -14, -81, 7, -32, 32, -39, 14, 40, 86, 71, -83, -20, -84, -20, 71, 86, -81, -61, -48, -15, -28, -8, -90, 0, 88, 29, -39, -55, 82, 53, -43, -53, -93, 72, 26, -56, -4, 81, 46, -84, 60, -30, -16, 86, -81, -66, 48, 78, -42, 90, 76, 28, 3, 38, 13, -10, -64, 66, 69, 87, -1, -66, 37, -10, 66, -65, 43, 50, -21, 90, 81, 87, -1, 66, 35, -12, 73, -42, 87, -14, 11, -2, 65, -71, -25, -22, 57, -73, -74, 61, -62, 40, -79, -30, 65, -5, -22, 15, 78, -79, 72, -6, 56, -85, -10, -30, 30, -24, -9, -13, 60, 86, -35, -18, -9, -76, -81, -34, 24, 7, 43, -53, -27, 42, -34, -6, -58, -93, 3, 58, -80, 58, 60, 34, -23, -70, 5, 19, 33, 41, -53, -81, -86, 52, -22, -92, 23, -58, 35, 9, -24, 30, -91, -38, 11, -75, -39, 91, 6, 47, -17, 9, -6, 91, -85, 74, -74, -51, 24, -2, -43, -19, -76, 93, -5, 1, 37, 49, 32, -38, 81, 34, 77, -24, 55, -12, -37, -26, -28, 70, 78, -71, 89, -6, 86, -46, -48, -93, 92, 22, 14, -91, 30, -27, 64, -64, -14, 90, -23, 80, 61, 54, 87, 50, 24, -36, -84, 47, -79, 69, 89, 17, -65, 30, 55, -51, 52, 3, -42, -28, -37, 24, 3, 40, -74, -17, 48, -41, -11, -64, -7, 27, 23, 61, -32, -21, 50, -81, -7, -77, 33, 27, 34, -17, 3, -26, 18, 88, -70, -13, 24, 11, -48, -79, -62, 61, 48, -62, -10, 52, 28, 47, -82, -7, -9, 2, -80, -42, -10, -68, -23, 75, 73, -10, -8, -47, -50, 86, 82, 32, 32, 34, 9, 24, 83, 24, -20, 92, 84, -79, 29, -73, -21, 47, 55, -51, -81, -72, 44, -29, 41, -80, -11, 1, 84, 57, 83, 13, -55, 40, -87, -53, 58, 31, -75, 8, 29, -77, 25, 67, 86, -65, -40, -76, 25, -62, 82, 85, -41, -71, -52, -53, 69, -56, -90, 69, 26, -31, 69, -67, 90, 57, -90, 81, 21, -44, 83, 67, 71, -37, 64, 42, -75, -35, -74, 64, -60, -48, 65, -5, 5, -16, 36, 90, -76, -2, -69, -21, 66, -51, 14, -92, 31, 4, -3, -43, -86, 8, 6, -32, 3, 27, -6, 25, 24, -43, 10, -43, 56, -35, 82, 91, -4, 85, 40, -7, -29, 80, -81, -43, 50, -5, 42, 43, 41, -41, -16, 92, -40, 83, 1, 56, 36, -93, -65, -44, 57, -91, -38, 54, -77, -43, 45, 9, -68, -25, -61, -75, 33, 30, 71, -92, 4, -47, -37, 88, -40, -42, 80, -68, -57, -51, -29, -82, -20, 9, -57, -68, 13, 54, -5, 69, -73, 14, -80, -81, 31, -39, 92, -61, 0, -19, 35, -26, 78, -7, -13, -84, -26, -79, 41, 83, -77, 28, 68, -92, 10, 15, 26, 28, -60, -34, -22, -86, -68, -90, 68, -4, 86, -92, 58, 42, 40, 76, 17, -17, -18, -64, 58, -29, 79, -44, -84, 37, 39, 48, 26, 27, 20, -9, -88, 28, -26, -80, -93, -56, 86, -62, -40, 20, 79, -9, 52, 78, -68, -21, 81, 68, 68, -16, 8, 88, -53, 3, -73, -59, -22, -46, -78, 14, -82, 17, -81, 60, -62, -5, 20, -31, 89, 40, 80, -39, 82, -31, -18, 58, 22, 52, -92, -19, -49, 11, 49, -18, 38, 46, 52, 75, -47, 52, 40, 11, -39, 5, 56, -34, -39, 41, -68, 67, 83, -76, -46, 49, 31, -12, -44, -34, 30, 81, -45, 67, 79, -92, -53, 26, -4, 40, -37, -46, 43, 40, -74, 81, 86, 19, 47, 61, -49, -2, -20, 13, -71, 75, -1, 84, 17, -48, 5, -83, 12, -76, -84, -73, 92, 67, 85, 6, -32, 92, -3, -24, 29, 62, -45, -87, 84, 8, 86, 27, 2, -47, 89, 34, 61, -32, 58, -78, 74, -20, 67, 18, -88, -75, -64, -6, 76, -75, 61, 27, 21, 90, -21, 91, -24, -78, -62, -93, -22, -41, -26, 32, -19, -35, -28, 21, 18, -32, -85, 68, 14, 34, -15, -12, 81, 70, 92, 14, 84, 68, -24, 20, -58, -19, -65, 55, -70, 51, 38, 39, -38, 64, -3, -25, 21, 85, -71, 29, 25, -66, 92, 29, 2, -39, 31, 6, 51, -89, -64, -90, 20, -54, 19, 38, -13, -33, 47, -9, -79, -34, 82, 7, 16, 66, -88, 85, -66, -23, -39, 23, 39, -91, 21, -87, -4, 38, 25, -79, -60, 92, -92, 7, 71, 57, 20, 1, -53, 8, -37, 50, -60, -47, 68, -2, 48, -70, 26, -92, 39, 80, 58, -9, -17, 17, -10, -34, -11, -16, 27, 24, -81, -54, -32, 50, -62, -39, -78, 43, -9, -69, -67, -49, 87, 26, 15, 83, -79, 25, 42, 89, -56, 6, 33, 69, 29, -37, 73, -43, -19, 91, -53, 45, -75, -5, 71, 55, 32, 36, -81, 41, 8, 74, 32, 31, 39, -7, 4, -78, 86, 23, 85, -64, 16, -34, -26, 90, -3, -19, 31, 83, 6, -46, -25, -50, -52, 66, 87, 11, -80, -73, -10, -45, 70, 62, 46, -14, -47, -24, 25, 79, -39, 14, -5, 84, -50, 70, -54, 65, -57, -71, -86, -59, 88, 45, 55, -60, 66, -66, 5, 66, -60, -10, 22, -66, -34, 67, 78, 13, -43, 78, 30, -37, 29, 8, -59, -66, -15, 32, 7, -48, -58, -37, -43, 55, -65, -15, -52, 44, 9, -44, 61, -75, 73, 46, -70, -16, -55, -70, 82, -30, 87, 71, 66, 36, 73, -90, 51, 38, 23, 56, -11, 40, 23, 21, -86, 12, -73, -87, -43, -12, -2, 88, 74, 70, 50, -41, -40, -45, 59, -34, -17, 17, 39, 53, 22, 28, -18, 41, 79, -24, 25, -31, 19, -30, -73, 44, 42, 13, 64, 80, -4, -66, 33, 93, -89, 24, -15, 91, -35, 83, 86, 0, 81, -61, -34, 30, 68, -93, 62, 35, -22, 74, -75, 67, 62, -60, 19, 12, -23, -37, 36, -21, -27, 90, 27, -78, -47, -52, 24, -80, -86, 87, -35, -3, 1, -18, -87, -60, -6, 74, -16, -66, -5, -64, 26, -49, -64, -18, -45, 5, 78, -57, 52, 40, -76, 68, -84, 18, -68, -47, 45, 83, -2, 6, -18, -55, 72, -32, 26, -60, -41, -47, -82, -61, 70, -7, -55, 23, 1, -58, -38, -71, 21, -45, 10, -52, 12, 77, 50, 13, 79, -36, 20, -37, -44, 50, -42, 51, -18, -9, -29, 24, 75, 36, 40, 46, 11, 64, -69, -3, -10, 60, -48, 10, -45, -80, 60, -7, 58, -15, 68, 5, 45, 37, 9, -83, -41, 69, -51, 22, 80, -24, -53, -36, -72, -12, 53, -73, -61, -4, -30, 78, -11, 27, -64, 69, 52, -85, -44, -63, 14, 50, -72, -8, 46, 3, -92, 66, -22, 3, -62, -33, 65, -57, -51, 31, 33, -2, -54, -20, -9, 58, -77, 9, 39, 46, -60, -2, -28, -13, -4, 54, 87, 9, -59, -16, -40, 17, -49, 53, 60, -3, 46, 66, 42, -50, 77, 67, -4, -63, -2, -8, 22, -33, -18, -17, -82, -62, 74, -89, 49, -84, -90, 47, 8, 34, -31, 81, 38, 59, 40, 59, 45, 65, 73, 93, -12, 1, 16, 29, -68, -53, 7, 54, 21, 29, -67, 0, -22, 77, -24, -61, 56, -39, -68, 67, 25, 73, -71, -27, 49, 36, -88, 33, -36, 70, 19, -36, -70, 44, -44, -28, -29, 4, 50, -8, 57, -47, 54, 4, 14, 82, -79, -72, -34, 41, -3, -59, -59, -34, 7, -72, 19, 72, 76, -37, -20, -40, -74, 35, -11, 77, -32, -67, 60, -93, 56, 35, -10, -11, -79, 22, 60, 54, -84, 74, -83, -40, -60, -7, -6, 43, 25, -70, 17, -73, -13, -46, -48, -38, -7, -27, -53, 39, -10, -43, -40, -86, 47, -59, -68, -70, -68, 71, -85, -69, 9, -9, 74, -11, -75, -22, -42, 41, -54, 21, -77, 89, 46, 66, 46, -64, 39, 70, 14, -64, 81, -58, 50, 55, -85, 9, -4, -45, 50, 29, 11, -8, 24, -62, -1, 68, -74, -64, -38, 48, -59, 22, -42, 55, -32, -40, 46, 50, 2, -82, 33, 86, 90, 18, 42, 7, 18, 77, -81, -42, 88, -11, -68, 33, -79, 70, -64, -19, -88, -16, -61, -16, -1, -86, -24, -52, 50, 61, 93, 42, -13, -72, 6, 84, 22, 82, -12, 65, -42, -31, -39, 47, -80, 51, 32, 41, -40, -56, 81, 34, -14, -45, -5, 43, 26, 58, 4, 5, -78, -41, -63, 15, -18, -71, -61, -38, -28, 71, -38, 82, -42, 30, -19, -39, -24, 72, -34, -6, -89, 20, -33, -5, -25, 54, -39, 13, -79, -57, -34, -54, 26, 54, -83, 65, -83, 3, -12, -18, -13, 82, 19, -15, 26, -27, 57, 9, 46, -70, -70, -78, 21, -59, -40, 62, -91, 41, 57, -87, -9, -2, 78, 89, -49, -81, 23, -1, -60, -3, -56, -84, -72, 4, 41, 59, -37, -64, 17, -47, 52, -10, 78, 61, -49, 8, 74, -13, -80, -90, 11, 15, -92, -5, -36, 35, -29, 77, -51, 46, -47, 62, -30, -65, 21, 30, 56, 50, 41, 17, 18, 89, -38, 86, -36, -18, -2, 88, 81, 16, -14, -82, 27, -33, 0, 24, -91, -36, 44, 70, 89, -75, 63, 41, -48, -72, -92, -68, 72, -20, -7, -91, -73, -85, 44, -65, -77, -22, 82, -55, 12, 62, -55, -58, -75, 57, 55, 27, -57, -90, -7, 35, 36, -77, 64, 68, 87, -87, 29, 78, -3, -9, 37, 79, 17, -6, 88, 75, 92, 44, -67, -65, -56, -65, -38, 50, -88, 68, 2, 4, -37, 32, -68, 78, 80, 36, 89, 56, -72, 41, 69, -87, -35, 11, 89, -38, -18, 90, 38, -12, 89, -16, -32, -82, 71, -70, 66, -29, 44, -15, 15, 63, -38, -60, -29, -72, -10, -48, -57, -50, 12, -50, 0, 37, 63, 12, 5, 88, -17, 51, -64, -2, 4, 91, 65, 72, 84, -3, 33, 17, 83, 2, -2, -11, -88, 49, 44, 41, -78, 64, 86, 45, 82, -28, -91, -67, -1, 92, -89, 25, 46, -4, 71, -60, 26, 71, -72, -40, 78, -88, -68, 35, -33, 6, -28, 71, 44, -10, 11, 47, 38, 90, -37, -70, -11, 63, 62, 89, 35, -86, 5, 53, -47, 72, 27, -10, 39, -27, 54, -79, 44, -4, -17, 22, 22, -72, -55, 57, 42, -78, 9, -65, -68, -91, -89, -41, -53, -40, 12, -41, 77, 47, 64, 29, 40, 82, -1, -75, -52, -61, 11, -88, -3, -22, -22, 58, 47, 37, 79, 38, -86, -59, -66, 19, -75, 32, 13, -55, 42, 68, -67, -30, 24, 35, 55, -1, -46, 84, 88, 57, -53, 59, 7, -74, 5, -21, 51, 35, 24, -5, 47, -15, -85, -50, 44, 88, -47, 55, 5, -50, -15, -34, -42, 55, 77, 85, 65, -75, -65, 6, -92, -47, 29, -65, -16, 82, -78, -51, -2, -70, 38, -4, 89, -7, 92, 64, -17, -29, -78, -60, 86, -21, -15, -14, 23, -80, 81, 0, -3, 34, 56, -75, -87, 70, 64, 62, -86, 30, -18, 30, -36, -1, 13, -80, 14, -76, 6, 85, 48, -87, 8, 7, 25, 39, -45, 29, 51, -19, 63, 83, 72, -38, -58, 19, 0, -36, 2, -20, 8, 15, 55, -30, -38, 82, -54, -25, -90, 12, 15, -13, 45, 72, 25, -54, 91, -63, -52, -30, 46, -2, -52, 46, 33, 15, -3, -17, 43, 60, 9, -86, -49, 49, -53, 71, -47, 27, -71, 6, 14, -48, 86, -82, 78, -25, 65, -68, -53, 84, -49, -71, 42, 38, 93, -29, -85, 12, -35, -53, -44, 87, -10, -5, 62, 73, -20, 47, -37, 66, -91, -62, -70, -50, 14, -81, 47, -5, -68, -66, -23, 84, -11, -90, -2, -23, -90, -80, -16, 84, -59, 88, -64, -17, 28, -41, -82, -87, 51, 24, 4, 3, 24, -1, 40, 55, 93, 54, 3, 46, 91, -77, -77, -58, 37, -16, -63, -81, -19, -44, -26, 9, 38, 78, -58, -53, -17, -25, 79, 4, -40, 34, -21, -34, 65, 55, 85, 37, 52, 57, -61, -17, 75, 84, 38, 57, -29, -19, -60, -39, 42, 15, 63, -41, -55, -43, 84, 12, 39, -36, -67, 9, -71, 63, -11, 60, -16, -61, -22, 91, 89, -22, -54, 62, 63, 46, -3, 63, 80, 47, 37, 49, 11, -2, -64, 55, 14, -2, 59, 58, 91, -23, 34, -22, 54, -69, -18, 22, 38, 82, 87, 75, -29, 46, -25, -23, -51, 75, 25, -63, -9, -17, 78, -17, -68, 58, -41, -23, 33, 73, 23, -24, 55, -47, -91, -45, -11, -81, -16, 21, -26, 64, 43, 56, -32, 58, -79, 72, -91, -16, 2, -68, -78, 50, -49, 84, -7, 4, -2, -11, 60, -33, 86, 47, -9, 10, 19, -10, -42, -59, 60, 27, 87, 84, -37, -38, -78, 71, -51, -66, -1, 43, -83, -1, -9, -37, -46, -6, 48, 71, 33, 48, 27, 9, 24, -75, -24, 59, 62, 49, 71, -37, -23, -75, 85, 5, -1, -84, 73, 23, -51, 46, -67, -13, 66, -41, 49, -35, 36, -61, 41, 67, -34, 16, 89, -85, -44, 30, -7, -85, -56, 74, 13, 52, 89, 84, 83, -4, -62, 10, -49, -34, -49, 71, 14, -27, -88, 74, 49, -33, 12, 48, -13, -88, -70, -29, 41, -28, -60, -67, -49, -21, 59, 7, 61, -87, -49, -37, -92, -37, -69, 83, 38, -85, 18, 87, -93, 79, 85, 70, 56, 54, 71, -21, 77, 89, 76, -81, -58, 52, 36, 76, -88, 72, 21, -91, -12, -92, -1, 29, 48, -10, -1, 88, -76, 76, 15, -11, -40, 69, 87, 82, 22, 12, 50, -13, -47, -88, -7, 12, 73, -47, 12, -17, 78, 9, -4, 26, -12, -21, 72, -73, -56, -15, -58, 14, 66, 54, -72, 85, 50, 67, -86, -12, -37, -72, 9, -51, -52, 43, -2, 78, 20, -77, -13, 46, -19, 15, -53, 73, -65, -63, 13, -77, 4, 32, 20, -83, -39, -92, 66, 91, -78, -79, 47, -76, 29, 5, 18, -91, 5, -81, 41, -49, -4, -28, 63, 64, 35, 27, 47, 25, 66, -90, 91, 56, 33, 74, 49, -13, -33, -25, 24, 7, -65, 11, -24, 93, -36, -81, 40, -68, 79, -38, 41, 24, 27, 19, -20, 52, 23, -46, 42, 16, -13, -41, 5, 87, 34, 10, 34, -46, 29, 66, 78, -1, -86, -39, -21, 87, -23, -73, -37, 66, -82, 57, -16, -76, -7, 83, -1, -76, 66, -24, -19, 62, -9, 6, -42, -21, 78, 24, -81, 45, 66, 7, 48, -26, 80, -34, 49, 56, -41, -81, 0, -71, -71, -20, -36, -67, -25, 87, 83, -34, -42, -81, -57, -69, -38, -81, -68, 52, -20, -59, -74, 45, -52, -45, 61, -55, 28, -34, 26, 50, 81, 88, -3, 81, -75, -69, -47, -5, 31, -8, 69, -57, -58, -41, -28, -43, 36, -86, 76, -61, 35, -30, -49, 85, 50, 6, -20, -18, -76, -17, -27, 52, 37, 25, -6, 79, 67, -55, -63, 31, -65, -69, -78, 76, 37, -53, 59, -31, -80, 22, -56, 16, -7, 10, 4, -5, 55, 32, -47, -85, 75, 90, 37, -49, -27, -74, -4, -18, 82, -85, 84, -28, -65, 52, -40, 30, 32, -9, 88, 51, 3, -1, -82, -65, 1, -22, -43, -40, -80, 42, -78, 13, -24, -59, 90, 51, -76, -39, 88, 86, -20, 62, -78, -9, 78, -19, -90, -3, 89, -71, -92, -6, 76, -26, -61, -68, -53, -7, 54, 61, 38, -38, 24, 83, 93, 87, -89, 79, -91, -78, 76, -22, -38, 78, -79, -2, -70, -74, 0, -46, 77, 9, 0, -87, -89, 50, -41, -74, -7, 69, -4, -5, 61, 53, -91, 90, -88, 48, -83, -44, 8, -19, -27, 3, 66, -52, 72, -11, -40, 41, 7, 81, 76, 38, -20, -19, -64, -23, 67, -85, 13, -36, 3, 14, -56, 25, -70, 22, 10, 1, 21, 78, -6, 30, -53, -60, 48, 87, 79, 8, -48, 30, -93, -9, -88, 34, -73, 71, 40, -61, -87, -27, 63, 19, 62, 15, 29, 63, 85, 52, -1, 59, -63, 41, 78, 87, 92, 32, 54, 26, -1, -37, 73, 48, 30, -51, 68, 81, -35, -1, 67, 85, 83, 39, 66, -89, 15, -25, 55, -32, -10, 45, -15, 77, 39, 91, 78, -20, -4, -66, -11, -89, -61, 36, 51, -38, 62, -46, -41, 30, -91, 57, -74, 55, 51, 50, 51, 3, 69, -56, 91, 72, 1, 84, 68, -22, 29, -48, -15, 68, -27, 4, 15, -9, -22, 19, -75, 81, 26, -5, -40, 5, -43, 55, -45, 64, -17, 89, -11, -46, 30, -9, 76, -89, -20, -32, -37, -84, -77, -25, 76, 33, -77, 53, -9, 10, -76, 34, -71, 92, -88, 5, 84, 79, -82, -9, 0, 57, -2, 5, 41, -43, -72, 90, -7, 1, -39, 9, 64, 39, -61, -33, -48, -10, -30, 37, -16, -71, -84, -69, 10, -66, 90, 66, 41, 14, -20, -33, 58, -55, 34, 20, -64, -23, 8, 58, -48, 25, -77, -21, 37, -54, 51, 62, 3, -8, 17, -11, -9, -13, -49, 33, 13, -75, -28, -60, 43, 57, -23, 89, -66, 92, 91, 21, 38, 31, -36, -2, 28, 28, 40, 23, -25, -63, -75, -64, 77, 50, 72, 89, -62, -43, 38, 12, -49, 3, -82, -16, -2, 57, -63, 23, 57, 39, 78, -63, -18, 10, -28, 66, -9, 54, -29, 74, -45, -20, -81, 41, -4, 88, -66, 64, 16, 46, 54, -44, 90, 79, 69, 72, -51, 75, 77, -18, -1, -45, 57, -15, 23, -73, -82, 66, -18, -45, -38, 56, 43, -71, 19, 30, -20, 65, 38, 68, -49, -80, -79, -53, -12, 50, 25, -72, 65, 52, -78, -88, 67, 38, -7, 79, 32, 25, 18, -71, -4, 23, 20, 40, 39, -24, -87, -86, -39, 3, 25, 7, -9, 92, -29, -46, 5, -16, -6, -29, 23, -33, -75, -37, 26, 41, 89, -92, 84, -24, 84, -46, -1, -55, -56, 34, 41, 53, 41, 44, -56, 90, 56, 47, -71, -60, -90, -43, -30, -23, -6, 50, -59, 31, -91, -22, -47, -6, -88, 56, 32, -67, 89, 24, -74, 4, 16, 62, -25, 9, -54, 56, 31, -44, -31, 7, 10, 4, -70, 83, 55, -13, -14, -63, -78, -43, 3, -39, 34, -57, 29, 27, -85, 48, -13, -5, -81, 64, -28, -56, 67, 6, 63, -49, -42, -61, -61, 82, -62, -11, 34, 52, 84, 59, -9, -82, -27, 82, 64, 19, -66, 58, -16, -10, 37, -90, 11, -78, -81, 29, -50, -40, 20, 80, 78, -44, 10, 25, 69, -80, -35, 34, -80, -51, -36, 62, 42, 34, 47, -68, 63, -49, -61, 66, 40, -13, -27, -58, 55, -29, 49, -38, -23, -37, 21, 53, 34, -93, 46, 81, -65, -11, -49, 87, -7, 75, 11, -50, -35, -35, -76, 89, 84, 92, -71, -19, 16, 54, 19, -87, 10, -36, -75, -75, -93, 60, 47, 90, -89, -23, 10, -54, -11, -65, 37, -85, -90, 22, -78, 49, -62, 64, -66, -23, -56, 58, 30, 90, 19, 63, -32, 46, 40, 76, 78, -25, -56, 53, 18, 85, -65, -34, 28, 65, -63, 73, -30, 81, -11, 48, 31, -17, 69, -34, 92, 27, 3, -29, -9, 5, 44, 80, 74, 21, -10, -42, -25, 8, -79, -85, 57, 9, 51, 80, 22, 40, -39, 57, -23, -38, 78, -25, 69, -38, 14, -25, -66, -55, -12, 21, -92, 66, 80, 63, 20, 81, -61, -51, -91, 92, -50, -69, 76, -30, -57, -87, 61, 30, -10, 37, -7, -11, 41, -53, -45, -17, 82, 68, 36, 11, 81, 28, 61, -92, 87, 12, -43, 81, -31, -74, -37, -41, -65, 79, -68, 38, -2, 65, -2, -18, 57, -88, -59, -68, 61, -25, 49, 84, -67, 56, -22, 51, 72, -61, 27, -68, -14, -28, -43, 45, -73, -61, 26, -58, -38, -78, 54, 54, 8, -11, -23, 81, 24, -41, -60, -10, 73, 42, -26, -66, 43, 36, 27, 17, -49, -19, 79, -52, -13, 91, 44, 76, 79, -53, -69, 62, -60, 68, -93, 51, -34, 89, -81, 28, -2, -35, -16, -90, -46, 73, -75, -87, -34, 8, 42, -6, 50, -50, -70, 46, -33, -58, 27, 46, -20, -29, 10, -5, 75, 84, -51, 13, -57, 59, 58, 11, -57, 4, 79, -62, -70, -74, 84, -26, 22, -67, 51, 38, -42, 49, 46, -55, -41, 91, 6, -30, 39, 87, 60, -83, 27, 62, -48, -17, 52, 19, 81, 53, 82, 20, 30, -40, -88, 89, -34, -67, 88, -61, -79, 79, 88, -43, -49, -42, -43, 2, -25, 62, 59, 55, 4, -44, 59, -16, 75, 92, 1, -69, 28, 92, 46, -2, -65, 80, 0, 28, -49, -22, -6, -72, 51, 71, 6, 15, -64, 82, 21, 26, 46, -84, -8, 69, -72, -86, -90, 29, -5, 22, -38, -88, 81, 65, -9, 21, -72, 31, -78, 55, 73, 35, -20, 9, 89, 11, -87, -48, -24, -4, -41, 79, -41, 9, -36, -3, 41, 74, -86, -28, 56, -25, -48, -18, -84, -81, -19, -25, 24, 45, 19, 71, -70, -3, 39, 31, -11, 41, -85, -41, 10, 27, -49, 22, -26, 30, 82, -52, -49, 85, -47, 37, 48, -1, -88, -48, 1, 93, -46, -75, -69, -59, -5, -10, 92, -10, 58, -39, 27, -60, -54, 85, -92, -44, -2, 67, 11, -74, -39, 25, -86, -51, 51, 30, -8, 11, -20, 11, -60, 43, 24, -54, -59, -93, -47, -12, -28, 3, 75, 90, -71, 13, 86, -48, 2, 7, 35, -23, -65, -76, -47, 72, 18, -66, -34, -34, -77, 6, 62, -43, -62, 36, 86, 18, 67, -18, -34, 76, -33, 24, -20, 64, 29, -5, 62, -37, -51, -43, -87, -8, -4, -44, 31, 32, 70, -57, -11, 92, -30, -83, 82, -51, 24, 55, 17, 39, -79, -11, -30, -43, -37, 1, 49, -16, -37, 80, 49, 12, 17, 45, 4, 1, 39, -10, 69, 90, -69, 37, 42, -44, -13, -63, 32, -5, 58, 45, -30, -80, 0, 92, 79, -69, 61, 92, -81, 2, 88, 31, 85, 6, -11, 14, -5, -10, -55, 28, -29, 27, -86, -12, -13, 80, -31, -45, -7, 22, 19, 89, -88, -50, -67, 59, -40, 34, 7, 0, 74, 51, -33, -49, -40, 21, -35, -91, -74, 84, -89, 41, 27, 12, 67, 19, 31, -6, -74, 8, -52, 45, 67, -70, 16, 54, -59, 46, 80, 15, -10, -91, 51, -22, -59, -74, 47, -48, -90, -23, -13, -80, 8, -73, -1, 60, -77, 27, 92, -21, -15, 2, 11, -55, 47, 18, 11, 90, 10, 60, 69, -88, -82, -60, 74, 2, -4, 25, -29, 23, 84, -64, 8, 87, 38, 73, -35, 25, 76, 91, 27, 65, 9, -29, -71, -42, -85, 60, -78, -39, 67, -34, -50, -42, 23, 55, -93, 75, 91, 82, 10, 1, 59, -78, 9, 70, -37, 11, -2, -90, -80, -35, -91, 41, -82, 3, 45, 54, -37, 23, -18, 63, 54, -81, -32, -26, 13, 35, 84, 88, 65, -37, 79, -50, -55, -18, -12, 56, -19, 42, 34, -40, 34, 31, 69, 73, -25, -62, 63, -58, 7, 1, 45, -61, 2, 49, 25, -74, 87, -12, 51, -16, -13, -15, 63, -59, -78, 56, 72, -54, 8, -42, -43, -10, 74, 55, -78, 65, 80, 43, 25, -13, -68, 53, -19, -91, 34, 13, -10, 59, -72, -67, -34, 66, 8, 23, 49, 7, -82, 76, 52, 68, 60, 89, 3, 15, 40, -81, -73, -71, 29, -53, -52, -71, -52, 90, 58, -91, 57, -17, 51, 13, 27, -10, -27, -89, 27, -75, 57, 14, 84, 16, 51, 32, 40, 54, 20, -2, 49, 44, -53, -79, 30, 72, -59, 15, -15, -92, -62, -80, -40, 8, 12, 52, -26, 20, 2, 18, 18, -26, 21, 77, 2, 46, 73, 35, 79, -86, -85, -43, 45, -30, -26, 79, -9, -8, -50, -41, -54, 30, -4, 66, 65, 70, 41, -66, -76, 2, 75, 53, -27, 65, -20, -5, 48, -10, 21, 21, -32, -62, -75, -45, 93, -78, 36, 59, -76, -77, -31, 92, 75, -8, -56, 56, -33, -91, 78, -66, 8, 62, 89, -11, 10, 23, 26, 43, 2, 62, -9, -7, 10, 25, -1, -39, 32, -77, -50, 38, 40, -85, -44, -79, -56, 56, -38, 78, -53, 21, -81, 50, -17, 46, -1, -82, 56, 72, -49, 30, 89, 57, -34, -57, -20, 71, -57, 81, -18, 21, 30, 85, 53, 92, -18, -17, -31, -43, 68, -35, 1, -85, -23, -27, 31, 71, -91, 39, 38, 32, 59, -51, 12, 74, -70, -57, 43, 89, -11, -63, -4, -37, -72, -10, 42, 84, -51, 12, 22, -47, 68, -36, -15, 60, -54, -36, -91, 62, 55, 35, -7, -73, -64, -36, -89, 26, 70, 3, -5, -42, -66, -27, -72, 17, 6, 4, 54, -80, 39, -14, 39, -88, -41, -27, 90, -53, 83, 64, -70, 0, 55, -84, 65, -81, -19, -54, 39, 5, 58, 47, -86, 58, -22, -79, 84, -60, -89, 78, -24, -52, -78, 82, 31, 81, -9, -18, -23, -66, -39, -41, 25, -53, -84, 16, 60, -76, -20, 8, 82, -70, -8, -55, -81, -86, -2, -91, 0, 22, -68, -10, 58, 84, 76, 70, -41, -22, 35, -33, 93, -87, 76, -31, 55, 30, 23, 82, 32, 67, 74, 60, 40, -52, 44, -3, -11, -85, 38, 57, 50, -85, -26, 23, 3, 84, 22, 34, 63, 80, 60, -30, -68, 61, -6, -10, -23, -61, 2, 87, -31, 30, -18, -89, 76, 15, 83, -48, 73, 81, -44, -21, -20, 68, 53, -72, 11, 74, -35, 29, -61, -66, 74, -4, 13, -39, -1, -81, -34, -28, 6, -15, -5, -83, 86, -82, 92, 2, -54, -25, 56, 6, -7, 84, -6, 0, -87, -88, -67, 51, -20, 44, -71, 43, 28, -61, 61, -73, -14, 90, 4, -29, 38, 4, 55, 23, -72, -86, -72, -7, -60, -67, 73, -42, -44, 40, 92, 70, 13, -50, -27, -59, 57, -35, 68, 54, 5, -78, -34, 2, 32, -55, -14, -35, -11, -80, -6, 45, 41, -50, 77, 9, -74, -31, 63, 47, -23, 37, 32, 4, 34, -74, -73, 23, -3, 30, 8, -6, 46, -4, 56, 51, -67, 83, -57, 77, 22, -54, -41, -35, 88, -17, 93, -18, -24, 20, 37, -75, -61, 85, -89, -64, 11, -47, 10, 47, 80, 18, -19, 58, -22, -82, 37, 52, -47, 46, 22, 19, -1, 49, -39, 16, -35, -54, 83, -85, -18, 29, 31, -12, 67, -53, 41, -84, -44, -21, 36, 41, -50, -29, -26, -77, 20, -23, -86, -15, -4, 46, 72, 37, -20, 29, 68, -28, 59, 65, 53, 72, 82, -16, 91, 26, -84, -9, 86, 26, 32, -27, -67, 30, -77, -43, -29, 61, -31, 89, 59, -1, -5, -40, -28, 45, -72, -78, 55, 93, 41, 27, -40, 78, -6, 28, 38, 50, 62, -12, -79, -44, -86, -89, -44, 78, -25, -51, -50, -40, 40, 82, 53, 59, -23, 11, -1, -54, -10, -70, 1, 18, 39, -39, 60, 69, 19, -43, 47, 61, 53, 62, 74, -39, -82, -58, 60, 53, -59, -8, -66, 42, 84, 62, -10, 21, 20, -91, 73, -12, 44, -13, 92, 50, 73, -70, -2, -58, -49, -53, 45, -12, 54, -72, 88, -26, -1, -20, -11, -36, -48, 52, 27, -78, 31, -64, -88, 88, 32, 5, -41, -9, -64, 18, -63, 75, -19, -93, -5, 50, -87, -6, -76, -20, 91, -81, 15, -16, -72, 91, 7, -56, 44, 59, -33, -63, -49, -31, 12, -62, -87, -35, 74, 89, 48, -17, -9, 42, 49, -13, 66, 80, -36, -20, -19, -10, 2, 73, 32, -65, -23, 35, -90, -49, -88, -40, 45, 74, -60, 64, 46, -70, -92, 82, -83, 9, 46, 20, 53, 0, 89, -51, 43, 4, -6, -1, 50, -12, 7, 31, 33, 79, -69, -59, 53, -54, 81, 24, 53, 40, 22, -61, 86, -76, -5, -52, -28, 15, -4, 40, -53, -5, -3, -30, -5, 14, 22, 24, 87, -46, 77, 72, 31, 75, 23, -81, 24, -78, -66, -16, 49, 40, 6, 65, 89, -38, 78, 69, -40, -34, -60, 81, -81, 90, -66, -81, 66, -84, -51, -45, -13, -57, 72, 65, 5, -38, -1, 20, -57, 35, 12, 74, 60, -3, 87, -5, 78, -30, 17, -54, 24, -5, -49, 78, -82, 24, -35, -23, -47, 47, 77, 25, 93, 5, 83, -18, 30, 4, -37, 36, 88, 42, 25, 87, 2, -91, -74, 20, 61, 4, -88, 40, -18, -51, 9, 82, 26, 33, 27, -53, -5, 38, -13, -44, -86, -9, 11, -26, 46, 47, 17, -66, 16, -19, -86, 90, 80, 52, 70, 83, -93, 79, -66, 17, 30, 64, -85, -27, 19, 87, -38, -90, 93, 22, 42, -34, -54, 16, 79, -18, -3, 64, -16, -19, -35, -11, 17, 80, -58, -81, -49, 45, -3, 36, 70, -64, -69, 36, -44, 25, 82, -91, -75, 17, 90, 77, 71, -26, 74, -52, 66, -47, -58, -26, 55, 85, -33, 50, -23, -61, 2, -60, -52, 27, 22, -88, 73, 45, -59, -56, 15, 4, 81, 83, -11, 12, -53, -44, -85, 0, 44, -4, 21, 31, 1, -40, 3, -34, 15, 4, -31, -59, 69, -16, 73, 93, -18, -39, 22, 31, -6, 82, 25, -43, -62, 74, -60, -40, -13, 0, -45, 59, -76, 73, 1, -82, 47, -22, 59, -32, 10, -35, 37, 90, -89, -3, -79, 7, -47, 79, -11, -87, -13, 41, -58, -5, -37, 47, -89, 36, 4, -32, -75, 46, 37, 73, 21, -16, -49, -39, -24, -47, 12, -73, -1, -91, 20, -23, -91, 60, 12, 37, 75, -43, -24, 23, 77, -76, -89, 71, -36, -43, -24, -46, 47, 49, -5, 61, 62, 86, -46, -8, 13, -71, -37, 57, -61, 51, 43, 71, -22, 10, 79, -18, -91, 33, 8, 26, -81, -15, 47, 55, 50, -75, -16, 81, 47, -39, -55, 10, 82, 7, 69, -35, 65, 65, -28, -82, 38, -35, 34, 92, 79, -68, -8, 10, 45, -91, -78, 1, -89, 12, 84, -14, 10, 33, -67, -30, -66, 76, -13, -18, 49, 3, 41, -73, -14, -13, 90, -32, 30, -27, -93, -1, -13, 88, 1, 47, 26, -56, -90, 6, 38, 89, -73, 54, -62, -51, 1, -48, 66, -11, -16, 60, -72, -75, -31, 66, -25, 35, 82, 9, -6, 53, -37, 5, -79, -79, 0, -47, -87, -85, 58, -55, 68, -77, 25, -80, -61, -31, -28, -3, 79, 82, 46, 45, -4, 68, 65, 7, 47, 39, 50, 33, -22, 57, 4, -41, 49, -20, -8, -84, 39, 30, 67, 61, -11, -43, 53, 54, -71, 33, -60, 59, 33, -66, -69, 0, -63, 56, 30, 55, -15, -8, -45, 57, 55, 75, 57, -18, -92, -81, 36, 68, -30, -71, -38, 66, -49, -65, -92, 30, 15, 4, -46, -7, -44, 26, -88, -51, -66, -10, -83, 89, 39, -83, 34, 18, -23, -7, -41, 87, -12, -3, -47, 44, 48, 47, 61, -12, -52, -42, 14, 82, 88, 57, 1, -35, 92, -70, -90, -14, -61, -14, 45, 40, -92, -12, 66, 65, -9, -45, -80, -31, -39, 32, 52, -81, 36, 21, 92, 62, -84, 63, -67, -44, -17, -87, -78, -65, -25, -23, 1, -20, 40, 38, -46, -43, 1, 17, -67, 7, -72, -49, -58, 56, -5, 12, -30, 20, 16, 28, -51, -16, -77, -85, 18, -88, -12, 88, 5, 60, 0, -68, -39, -25, -11, -3, 19, -55, -19, 83, 35, -58, -60, 88, -74, -62, 7, -32, -36, 88, -62, 72, 52, 48, 74, -55, -29, -45, -49, 71, 25, -2, -42, 50, -35, -16, 26, -52, -59, -78, 34, -48, 36, -74, -64, 61, 17, 45, 46, -24, -77, -66, -68, 28, 69, -15, 29, 88, 76, -45, 6, -37, 60, 36, 18, -79, -23, -5, -62, -77, -78, -5, -58, -60, 3, 11, 16, -90, -64, 72, -48, 12, -87, -46, 33, -43, -26, -70, 55, -38, 9, 7, -81, -64, -21, 48, 80, 77, -25, 93, -41, 7, 77, -57, -2, -86, -59, 36, -82, 35, 51, -40, 33, 65, 6, 43, 93, 79, 60, -50, -78, -12, 69, 93, -6, 22, 22, -75, -15, -12, -93, 91, -60, -86, 36, -32, 83, -36, 4, 4, 9, -36, 75, -55, 30, 34, -5, -92, 11, -15, 42, -53, 65, -3, -25, 11, -2, -55, 37, -23, 85, 55, 67, -52, 83, -3, 68, -80, -86, 64, -72, 57, 33, -71, -7, -12, 4, 55, -37, -69, 1, 74, 30, -83, -15, 74, 47, 70, 22, 51, 27, 27, 42, 79, 13, -41, -4, -67, -52, -92, -31, 17, 55, -18, -68, -7, 36, -28, 3, 60, 46, 68, 40, 44, 6, -50, -83, -20, 67, 6, -93, 7, 25, -38, 46, -2, 84, -47, 64, 93, 45, -50, -24, 89, 32, -90, 24, 29, 10, -88, 19, 83, 31, -70, -41, 69, -93, -40, 30, 75, -82, -85, -81, 73, -22, 67, -44, -48, -2, -25, 9, 84, -51, -36, -28, 81, 64, -15, -81, 52, 51, -77, -25, -53, -84, -84, 82, -86, 67, 63, -26, -77, -70, 41, 42, -45, -25, 59, 85, -22, -5, -16, 57, -77, -81, -79, 56, -65, -85, 62, 62, -24, 80, -88, 21, 60, -77, -12, 53, 4, -16, 44, -92, 7, 79, -46, 5, -93, 7, -1, -75, -4, 68, 84, 24, 11, 45, -1, 9, 36, 14, 51, 91, -62, 15, -37, -32, 76, 22, 35, 8, 66, 74, -68, -47, -60, 35, -58, 74, 78, 49, -87, -13, -71, -35, 16, -10, -66, 19, 16, 6, 48, -79, -4, -32, 74, 53, 62, 73, 57, 44, -54, 3, 38, 75, 20, 30, 1, 85, 70, 80, 9, -4, -60, 47, 23, 29, -5, 37, -72, -82, -31, -49, -2, 29, -29, -71, -67, -71, -21, 84, -56, -20, -74, 56, -30, -75, -11, 14, 64, -20, -3, -58, 36, 83, -29, 10, -48, 16, 14, 8, -24, -18, 51, 85, -76, -8, -37, -69, 52, 5, 90, 60, -84, -32, -60, 46, -28, 79, -13, 90, 6, -13, 27, 13, -64, -59, 77, 29, 43, 31, 18, 51, -90, -88, 15, -89, -85, -60, -78, -73, -47, -68, -92, 43, 79, 72, -2, 58, 6, -81, -29, 76, -78, 27, -75, -17, 31, -64, -58, -89, 50, -54, -4, -90, -26, 60, 65, 46, 9, -77, 26, -72, 92, -64, 22, 30, -77, -86, 62, -89, 47, -60, -42, -2, -27, 57, -33, 83, -1, 6, -15, 54, -83, 28, -13, 3, 34, 59, 84, 42, -74, 39, 15, -25, 4, 22, 40, 80, -35, 28, -80, -70, -63, -32, -73, -76, 2, 29, -88, 65, 67, 37, 47, 30, -40, -90, 41, -47, -91, -83, -73, -38, -55, 86, 83, -17, -12, -33, -23, 63, 35, -52, -71, -60, -50, 54, 82, -60, 43, 86, 10, 76, 56, -50, -16, -24, -46, -87, 51, -21, 70, 0, -36, -49, -62, 78, -48, 45, 6, 36, 4, -63, 65, -22, 91, 55, -6, 67, -31, -71, 80, -65, -7, 73, 75, -35, -71, 12, 52, -57, -37, -60, -25, 44, 16, -74, -87, -57, -64, 79, -53, 69, -90, -49, -24, 40, 11, -19, -90, -39, 16, 30, 58, 56, 53, -84, 8, -61, -38, 85, 25, 17, 59, -60, -12, -79, -38, -12, 66, -10, 75, -85, 29, 73, -4, 42, 75, 43, -26, -8, 5, 16, -27, -36, -85, 16, -15, 83, -26, 74, 21, -49, 33, -52, -33, -89, -35, 71, -47, -85, 85, 42, 85, -58, -86, 23, 58, -19, -15, -10, -25, 92, -92, 37, -39, 43, -14, -29, -38, 64, -52, 91, 64, -61, 51, 72, 74, 2, 40, -93, 56, -33, -19, 50, -75, -34, 49, -73, 75, 5, -54, 55, 77, 77, 3, 93, -46, -76, 2, -34, 89, -74, -55, -67, -6, 54, -26, 73, -8, -35, -56, -69, 70, 42, 8, 63, 51, 80, -40, 3, 40, 32, -18, 54, -46, -93, -14, -55, -15, 51, -18, 54, -83, -45, -48, 8, 42, -64, 18, 22, -36, -84, -61, 6, -51, -8, 6, 17, 87, 88, -31, 57, -63, -1, 12, 1, -85, -39, -7, 68, 4, 36, 34, -42, 0, -59, 89, -86, 9, 13, -39, -73, 13, -54, 30, 10, -38, -71, 4, -1, -3, 57, 62, -39, 45, -50, -41, -78, -31, 57, -21, 17, 30, -8, 33, 78, 13, 71, 73, 13, -50, -6, -14, 10, 39, -32, -1, 39, -57, 63, 19, -30, 35, 2, -38, -12, 38, 50, -33, -65, 83, 41, -90, -85, 14, -31, -62, 76, -45, 68, -55, 81, -53, -73, -55, -43, -46, 38, 37, -14, 49, -71, -86, 32, -63, 79, -7, 83, -59, 15, 25, 35, 37, 73, 76, -31, 70, -38, -86, -39, -47, -8, -29, -13, 43, -40, 42, -9, -51, -64, 21, -61, -15, -74, -27, -23, 18, 15, 43, -26, 71, 27, -7, 81, 37, 70, 91, 73, 19, 54, -24, -77, -78, 34, -14, -70, -12, -41, -11, -8, -90, -87, 93, -91, 70, -16, -5, -8, 19, 5, -85, 4, 60, 30, -27, -83, -52, 85, -71, 29, 18, 79, -54, 50, -14, -18, -87, -40, 12, -71, -3, -3, 33, -45, -68, -17, -68, 27, 11, -86, 4, 43, 30, 76, 45, 22, -54, -18, 36, 44, 66, 5, -62, 39, 20, -60, 5, -2, 12, 43, 82, 22, -84, 85, 1, 72, 21, -14, -48, 70, -30, 37, -38, 57, 44, -89, -57, -48, -27, 57, 33, -18, -20, 16, -86, 45, -74, 70, 93, -17, 8, 1, -68, 29, 51, 47, 45, 90, -77, -46, 25, -81, 41, -19, -81, -6, 28, 47, -10, 38, -34, -83, -72, -26, 48, -2, 76, -37, -86, 21, -68, -87, -76, 92, 28, -39, 69, -28, -3, -47, -24, 62, -77, -46, -35, 0, 68, 35, -68, 9, 71, -30, -12, 67, -22, 93, 61, 80, -42, 49, 10, -37, -47, 35, -57, -70, -25, -9, 42, 12, -85, -28, 22, -9, 83, -12, 29, 24, 93, 41, 61, -87, -60, -6, 76, -79, -48, 25, 72, 60, 22, -11, -13, 57, 87, 31, 77, 53, 83, 92, 35, -80, -86, -76, 25, -48, -65, 1, 16, -32, -76, 8, 76, 8, -13, 20, -54, 38, 55, 45, 21, 92, -65, 59, -93, 64, -84, 56, 8, -78, -14, 71, 20, -57, 56, -32, 74, 61, 52, 1, -60, -61, 7, -51, -39, 92, -37, -33, -52, 10, -56, 62, 61, -23, 61, -56, -43, 12, -43, -7, -78, -54, -80, -52, 5, -12, -77, -33, 19, 76, -51, -15, 13, -81, -81, 16, -89, -90, -39, 86, -41, 65, -40, -8, -46, 63, 46, 59, 42, 39, 15, 67, 44, 60, -14, -50, -85, 28, 65, 17, -17, -33, 7, -38, 33, 87, 2, -36, -34, -32, 66, -36, -8, 22, 78, -26, 46, 30, 90, -4, -27, 78, -24, 11, -34, -9, -35, 8, -68, 66, 86, -74, 83, -36, -91, -11, 92, 32, 75, 79, -8, 50, -84, -1, 63, -47, 5, -31, 87, -39, -52, -16, 19, -86, 33, 10, -20, -36, -64, -16, 20, 21, -27, 30, 13, -6, 33, 30, 40, -16, 15, -4, -11, 44, -28, -30, 74, -35, 64, 31, 73, -46, 79, 85, 65, 19, -92, -31, 90, 87, -71, 61, -78, -5, -70, 77, 38, -61, -14, 70, -26, 18, 85, 58, -69, -83, 32, 80, 41, 13, 85, 90, 42, -66, -71, -53, -75, -78, 51, -90, 52, -19, 59, -56, 15, -65, 40, 60, 28, 72, -33, 19, 79, 52, 83, -24, -68, 72, 24, -11, -32, 70, -45, -81, 44, 30, 21, 25, 28, 0, 31, -17, 72, -80, -37, -52, 40, 49, 42, -38, 61, 91, -44, 0, -32, -33, 32, 39, -38, 79, -71, 89, 3, -53, 53, -13, -78, 64, 5, 22, -26, 65, 77, -31, -70, -44, 10, 82, -27, 16, 39, -57, 75, 7, -40, -43, -10, -57, 8, 71, -18, -62, -71, 23, 64, -93, -75, 28, -20, -64, -86, 63, 83, -83, 68, 84, -78, -57, 64, -21, 41, -47, 80, 76, 65, -72, 79, -20, 35, -24, -33, 66, 72, 37, -34, -62, 43, 83, 1, 8, 2, -28, -65, 27, 64, 48, 14, 71, -72, 62, 67, -2, 91, -78, 9, 77, 9, -63, 19, 5, 36, 15, -37, -24, 20, -34, 21, 20, -28, 10, 88, 54, -16, -10, -42, 57, -88, 50, 70, 61, 7, 6, 93, -93, -66, -83, 74, 4, -13, -26, -41, 23, 24, -1, 28, 8, 70, -52, 42, 51, -85, -76, 74, 22, -83, 59, 47, 66, -10, -90, -66, 84, -68, -65, -34, -26, -14, -33, 76, -13, 7, -65, -51, -46, -12, 50, -31, 75, -90, -55, -39, -38, -40, -26, -33, 53, -3, 8, -64, -72, 15, 66, -83, 82, 14, 83, -50, 22, -18, -65, -57, -29, 44, -65, 11, 71, -1, 91, 82, -40, -52, 77, -16, -12, -56, 44, 37, 18, -54, -50, -11, -16, -68, 91, 13, 87, 92, -18, -89, 17, -42, 19, -81, -52, 37, 25, -38, -5, 21, 71, -64, -59, 75, 21, 27, -78, -85, 55, 31, 18, 57, 44, -49, 56, -42, 32, -80, 61, 49, -65, 3, 32, -59, 25, 5, 18, -48, 55, -5, -19, -34, 0, -37, -35, -61, -8, -66, 13, -68, -28, -74, 31, 28, 86, -79, 26, 52, -49, 35, 26, -39, -85, 21, -44, -30, 63, -35, 40, 21, 7, 49, 38, 22, 3, 38, -13, -77, 56, 29, 88, -22, -5, 82, 21, -42, -90, -25, 76, -16, 14, -27, 33, -49, -51, 27, -56, 9, 48, 34, -21, 28, 38, 2, 15, 66, 27, 81, 77, -62, 45, -85, -43, 42, -21, -13, -91, -76, -6, -51, -35, 53, -88, 76, 11, -86, -66, 2, -86, 57, -50, 7, 42, -78, -9, 65, 80, 20, -14, -86, 23, -43, 80, -92, 81, -90, -81, 57, 64, 9, -41, -25, 66, 33, -10, 51, -33, -13, 45, 45, -88, 15, -5, -31, -70, 82, 50, 4, 70, -29, -43, 86, -65, -4, 35, 76, -53, 26, 51, 22, -40, 25, -60, 70, 62, 77, -27, 29, -75, 40, 19, -72, -43, 86, 73, 19, -33, 81, -90, 69, -83, 49, 70, -14}

#define GROUP_CONV2D_KERNEL_0_SHIFT (11)

#define GROUP_CONV2D_BIAS_0 {96, -27, -70, -17, -58, -106, -63, -108, -35, 85, 93, -40, -7, 50, 87, -11}

#define GROUP_CONV2D_BIAS_0_SHIFT (8)


/* output enconding for each layer */
#define INPUT_1_OUTPUT_SHIFT 7
#define GROUP_CONV2D_OUTPUT_SHIFT 5

/* bias shift and output shift for each layer */
#define GROUP_CONV2D_OUTPUT_RSHIFT (INPUT_1_OUTPUT_SHIFT+GROUP_CONV2D_KERNEL_0_SHIFT-GROUP_CONV2D_OUTPUT_SHIFT)
#define GROUP_CONV2D_BIAS_LSHIFT   (INPUT_1_OUTPUT_SHIFT+GROUP_CONV2D_KERNEL_0_SHIFT-GROUP_CONV2D_BIAS_0_SHIFT)
#if GROUP_CONV2D_OUTPUT_RSHIFT < 0
#error GROUP_CONV2D_OUTPUT_RSHIFT must be bigger than 0
#endif
#if GROUP_CONV2D_BIAS_LSHIFT < 0
#error GROUP_CONV2D_BIAS_LSHIFT must be bigger than 0
#endif

/* weights for each layer */
static const int8_t group_conv2d_weights[] = GROUP_CONV2D_KERNEL_0;
static const nnom_weight_t group_conv2d_w = { (const void*)group_conv2d_weights, GROUP_CONV2D_OUTPUT_RSHIFT};
static const int8_t group_conv2d_bias[] = GROUP_CONV2D_BIAS_0;
static const nnom_bias_t group_conv2d_b = { (const void*)group_conv2d_bias, GROUP_CONV2D_BIAS_LSHIFT};

/* nnom model */
static int8_t nnom_input_data[16384];
static int8_t nnom_output_data[16384];
static nnom_model_t* nnom_model_create(void)
{
	static nnom_model_t model;
	nnom_layer_t* layer[3];

	new_model(&model);

	layer[0] = Input(shape(32, 32, 16), nnom_input_data);
	layer[1] = model.hook(GroupConv2D(16, 2, kernel(11, 11), stride(1, 1), dilation(1, 1), PADDING_SAME, &group_conv2d_w, &group_conv2d_b), layer[0]);
	layer[2] = model.hook(Output(shape(32, 32, 16), nnom_output_data), layer[1]);
	model_compile(&model, layer[0], layer[2]);
	return &model;
}
