#include "nnom.h"

#define CONV2D_KERNEL_0 {-46, 70, -9, -44, 22, 32, -67, 48, 46, 3, -70, -24, 56, -13, 21, -42, 20, -28, -4, 19, 54, -70, -11, 19, -77, 37, 63, 8, -18, -71, -5, 22, 62, -6, -20, -80, -76, 76, 25, -5, 4, 4, -42, 21, -12, -22, 70, 40, 14, 66, -8, 15, -15, -32, -63, 10, 8, -37, -10, -50, 35, -68, -8, -55, -30, 48, -19, 54, -42, 21, -48, 17, -11, 24, -66, -43, 29, 12, 78, 36, 17, 67, 36, -60, -7, -28, -49, 60, -44, -74, -78, -6, -70, -57, -16, -55, 8, -61, 53, -73, -23, 57, 19, 47, -76, 34, 2, 10, -34, -16, 41, 70, 6, -1, 29, -24, 64, -38, -45, -49, -57, 63, -80, 38, -32, -44, 17, -9, -11, 5, 31, 58, -60, 7, 31, -49, -46, -50, -57, -25, -70, 67, -39, 9, -36, 0, -59, -21, -25, -5, 63, 32, -22, 44, 21, 68, -8, -40, -44, -27, -4, -42, -9, 64, 72, -50, -21, -62, 30, -25, -75, -3, 13, 26, -32, 33, -44, 71, -35, -7, 35, -69, -59, -70, 52, 65, 67, 53, -62, -6, -48, 16, 70, 50, 30, 55, 29, -8, 52, -17, 6, -36, 8, 53, 68, -5, -15, -53, 20, 13, -33, 28, -68, 52, -31, -13, 70, 0, -58, -38, -33, -56, -19, 69, -78, -18, -37, -9, -50, 1, -6, 61, -7, -55, -70, -68, -35, 57, 2, -68, -19, 53, 52, -38, 76, -2, 3, -15, -7, -67, -66, -8, 18, -48, -26, -31, -18, -15, 15, 14, 43, -79, -71, -28, -77, 20, -30, -79, 31, 29, 29, -78, 80, -71, -59, 48, 13, 6, -19, -35, 53, 74, -22, -31, 39, -50, -46, 15, 61, -52, 51, 52, 26, -1, -23, -5, -41, -34, -19, 67, -14, -16, 64, 39, 23, -78, 34, -37, -20, -51, 4, -17, -13, 70, -32, -71, 42, 13, -54, 14, -75, 19, -15, 64, 43, -64, -46, 18, -53, 45, -57, 28, -24, 24, 58, -40, -21, -32, -64, -49, -10, -73, 52, -61, 75, -51, 71, 13, -11, 47, 20, -37, -42, -62, 18, -73, -72, 40, 27, 14, -21, 26, -52, 32, -45, -15, -11, -68, 7, 52, 49, -43, 11, 32, -39, 2, 6, -39, -21, 55, 6, 57, -60, 19, 26, 11, -13, 8, -19, 37, 74, -46, -54, 28, 55, -45, 74, -1, -49, -30, 27, -72, 26, -77, 60, 49, 12, -58, -2, -42, -1, -12, -57, 5, -76, -19, 38, 25, 50, -64, 6, -6, -73, -36, 53, 37, -68, -41, 31, -55, 76, -18, 22, -42, -19, -17, 37, 23, 7, -43, 15, -45, 30, -57, -49, 12, -23, -46, -80, 80, -60, 61, 10, -13, -63, 49, 53, 46, -80, -23, -14, -54, -47, 7, 69, -1, 36, 78, 49, 68, 31, -69, 23, 28, -15, -1, -3, -23, 28, -25, 24, -66, 0, -37, 38, 27, 6, 16, -74, 73, 9, 32, 35, -41, 14, 3, -48, 72, 28, -79, 70, 12, 7, 66, -15, -2, -27, -22, 66, 72, 57, 71, 14, 49, -76, 9, -73, -24, 52, -2, 52, -69, -11, 43, 37, 36, -50, 1, 64, -47, -48, 7, -17, 71, 6, -35, 63, -64, -12, -72, -73, -63, -70, 57, -17, -68, -38, -69, 24, -42, 76, -28, -60, 48, -79, -15, 68, -15, 29, 28, -52, 57, 22, 10, 38, -49, 11, -73, 69, -11, 15, -27, -64, -71, 55, -41, -18, -6, 65, 52, -54, 9, 60, 67, -64, 35, 72, 15, 6, -62, 45, -53, 42, 13, 75, 66, 12, 19, 0, -60, 28, -77, 29, 52, 23, -64, 69, -41, 69, 14, -54, 61, 73, -19, 40, 35, -27, -13, 80, -66, 47, -54, -43, -14, -72, -41, -29, -25, 36, -38, 37, 25, 69, 40, -26, 60, 68, -74, -65, 30, -41, -10, -42, 32, 40, 76, 52, 42, -68, -9, 68, -27, 54, -26, -32, 5, 50, -71, 71, 20, 55, 32, -42, 77, 60, -29, -22, -79, 61, -15, 20, -25, 52, -54, -18, -1, -71, 59, 4, 8, 33, 77, 5, 41, -76, 20, -9, -56, -6, -4, 11, -71, -54, 49, -38, -37, 15, 31, -2, -75, -56, 74, 75, -69, 9, 42, -36, -8, 67, 47, 77, 46, -75, 17, 31, 47, 6, -33, -67, -71, 75, 38, 40, -47, -56, 29, -9, 79, 22, 29, 62, 70, -64, 79, -65, -59, -14, 39, 6, 17, -61, -11, 50, 37, -28, 62, -58, -26, -70, 66, -20, -23, 4, -13, -44, 59, 25, 20, 50, 72, -74, 6, -56, 46, -66, 37, 2, -29, -62, 23, -6, 3, 43, 76, 72, 4, 70, 63, -41, -80, -66, 77, 1, 75, 69, 56, -16, 60, 17, 47, -75, 4, -29, 66, -57, -56, -28, 67, -63, 44, -15, 30, -79, -3, -75, -11, -54, -74, -69, -74, -67, -59, -33, -12, -3, -61, -17, 53, 62, -31, 31, -56, 79, 70, -13, 33, 18, 41, -40, -57, -23, 63, 59, 16, 33, 19, 47, -61, 41, 57, 18, -80, 17, 18, -33, -28, 52, -70, -5, -34, -66, 24, 70, -26, -44, -7, 16, 49, -47, 47, 63, 30, 63, 63, 67, -28, -10, -72, 19, -74, 11, -44, -2, -19, -68, -20, -20, 18, -30, 56, -72, -54, 51, 72, -69, -33, 27, 32, -49, 18, 58, -30, -64, 49, -14, 76, 7, -69, -71, 19, -38, -51, 3, 52, -63, -33, -47, -58, 69, 5, -80, -12, -41, 53, -9, 67, -76, 73, -26, -21, -9, 51, -52, 41, 53, 79, 41, 26, -16, -51, 4, 43, 8, 26, 79, 58, 74, -34, -5, 1, 22, 0, -60, -67, 27, 72, 22, -70, -44, 67, 67, 2, -43, 53, -68, 75, -60, -60, 21, -72, 14, -9, -80, -51, -14, -63, -56, -37, 69, 73, 43, 78, -16, 58, -52, 35, -80, -79, 20, 61, -7, 47, 38, -17, -18, 7, -10, 32, 47, -43, 18, -42, 68, 1, -11, -4, 18, -46, 20, 78, 4, 16, -34, 16, -69, 46, -6, 70, -20, -33, -26, -22, -1, -35, -62, -57, -35, -31, -70, -2, 79, -14, 59, -34, 19, 54, 65, 4, 62, 33, 72, -79, 70, -70, -45, 76, 65, -15, 33, -35, 2, -70, -73, 28, -27, -67, 23, 62, -70, 34, 64, -8, -42, 76, 69, 48, -31, -25, -49, 17, 4, -67, -6, 65, -58, 57, 33, -16, -30, -10, 46, -24, 42, -27, 57, 64, 5, 18, 67, 76, 32, -34, 12, 67, 25, -54, -57, 71, 72, 79, -68, 31, -41, -14, 60, -46, -37, 77, 14, 1, -43, -24, 8, 64, -18, 1, 76, 8, -73, 46, -35, 48, -54, 2, -46, 2, -64, 17, 44, 12, 77, 71, 24, -21, -21, -34, 76, -46, -7, 1, -19, 79, 42, 11, -9, -78, 57, -10, 19, -56, 34, 36, 81, 79, 68, 63, 51, -67, 22, 0, 69, -67, 76, -25, -29, 5, -68, 38, 5, -28, -44, -53, -38, 33, -59, 10, 25, -9, 73, 21, 44, -76, -22, 26, 53, -45, 48, -74, -14, -21, -54, 77, 44, -45, 48, 31, 50, 12, -40, 42, -67, 74, -76, 26, -28, 31, 43, 8, -69, 20, 47, -51, 40, -31, 12, -71, -47, -56, 69, 43, -63, -19, -34, 27, -45, 6, -57, 0, 1, 54, -22, -66, -16, -11, 60, -59, 24, 48, 19, -78, 57, -1, -74, 20, -11, -57, -46, -14, 18, -45, -23, -78, -74, -34, -71, -54, 6, -17, 21, 70, -54, -58, -50, -10, -22, 59, 32, -46, 72, 9, 19, -26, 54, -45, 50, 65, 73, 43, -67, -77, 56, 29, -19, -68, -6, -73, 19, -25, -18, 67, 29, -36, 4, -66, -40, 1, 28, -35, 72, -33, 48, -30, 18, -42, -58, 13, -70, -58, -63, -71, -16, -13, -73, -23, -45, 36, 77, 10, 43, 80, 14, 27, -37, -52, -16, 77, 56, 21, -76, 48, 33, -59, 30, -45, -79, 26, -25, -18, -39, 13, 23, -45, -29, -15, -47, -30, 10, 48, -18, 51, -2, -19, 7, 56, 66, 9, 9, -10, 14, 45, 65, 6, 60, 25, 37, 41, -64, 40, 16, -10, 74, 66, -29, 47, -56, -34, -41, 3, 67, -37, 15, -5, 39, -5, -61, -64, -50, -71, 27, -38, 25, -17, 37, 40, 33, -45, 42, -48, 78, -14, 8, -13, -24, -21, 12, 70, 55, 3, 19, -13, -43, -26, -68, 22, 10, 77, 17, 75, 54, 49, -58, 37, -49, -73, 64, 69, 13, 43, -34, -6, -13, -41, -41, 43, -41, -3, -43, -33, -62, 54, -72, 63, 19, 10, 56, -78, -1, -27, 67, 71, 24, -72, -67, 10, 31, -67, 53, 49, 80, -14, -36, -57, 9, -77, 9, -76, -79, 65, -57, 73, 14, -64, 44, -36, -27, 65, 6, 9, 19, -27, -79, -1, -22, -64, 42, 1, -53, 42, -57, -68, 17, 56, 24, -49, -13, 80, 3, -70, 3, 52, 14, -10, 57, -40, -44, -10, -58, -50, -8, 40, -2, -1, -32, 53, 10, 55, 72, 31, 76, -15, -30, 31, 57, -14, -18, 21, -18, 33, 50, 32, -65, 0, 60, 9, -25, -46, -24, -71, 48, -32, -66, 13, 0, 20, 54, -55, -8, 20, -68, 39, 19, -59, 31, 37, -47, -60, -68, 14, -9, -52, -14, 48, -49, 19, -55, 52, 42, 12, 64, -75, 20, 24, 44, -76, -52, 73, -38, 75, 24, 63, -36, 10, 20, 26, -72, -67, -74, 72, -44, 6, 67, 18, -42, -7, 33, 43, -2, -27, 76, 16, 14, -65, -52, -49, -27, -60, 3, -44, 27, 76, -28, 14, -42, -30, -29, -55, 57, -61, -39, -44, 56, -23, -8, 57, 15, 64, 79, 54, -31, -74, 68, -12, 46, -13, 51, -50, 62, -31, 38, 29, 23, -70, -69, -69, -32, 41, 36, 64, 62, 35, -21, 60, -34, 68, -28, -39, 75, 53, 39, -2, -73, 59, -27, -74, 48, 72, -50, 54, -69, -30, -68, 28, -2, -36, 39, -3, -13, -79, -44, 34, -70, -62, 56, -12, -66, -66, 32, 58, -27, 55, -75, -39, 7, 61, 22, -9, -62, 65, -72, 80, -50, -36, -2, 39, 30, -24, -52, 2, -56, -16, 59, 13, -7, -12, 7, 77, 4, -9, 2, -2, 6, -1, -61, -48, -60, 29, 61, -23, 66, 18, -58, 5, 13, 4, -6, 31, 63, -45, -67, 23, 12, 41, -71, -58, 33, 79, -22, 32, -69, 0, -38, 21, 26, 77, 57, 3, 33, -34, -6, -12, 54, -32, 34, -67, 35, -63, 7, -74, -55, 62, 69, 3, 58, -61, -16, -27, -72, -71, -32, 80, -58, 52, 56, -66, 44, -56, -15, -62, -50, -32, 17, 69, -15, 71, -9, -67, -10, -21, -53, 49, -12, -2, -6, 39, 61, 5, -71, 50, -38, -31, -77, 73, 70, -39, 28, -56, 2, 68, -61, -67, -14, 22, 30, -41, 57, 40, -30, -26, 12, 38, -65, -69, -56, -56, -66, 52, 6, 26, -1, -32, -43, -72, -16, -19, -40, 73, -61, -8, 56, 35, 12, 51, -5, 62, 34, 13, -43, -74, -77, 60, -21, -13, -4, -9, -69, -51, 13, 17, -21, 50, -64, 68, 77, -28, 79, -70, 39, 56, 62, -41, -62, 35, -37, 1, -20, 39, 4, -64, -15, 11, -61, -70, -27, 52, -42, -40, 79, 43, -53, -4, 22, -15, -35, 26, -52, 78, -56, -71, -69, -23, -38, -15, -47, -65, -6, -62, -58, 19, -78, 43, 28, -52, 67, -63, 62, -73, 48, -15, -39, -42, -31, 23, 41, 53, -35, 65, 28, 32, 52, 55, 55, -14, 13, -31, 58, -3, -79, 76, -37, -60, 36, -2, 57, 34, -46, 2, -12, -48, 31, -19, 74, 32, -79, -3, -72, 34, 60, -33, 35, 41, 25, 64, -32, -74, -28, 41, 49, -73, -43, 9, -78, -4, -70, 57, -4, 67, -79, -72, -23, 10, -12, -26, 37, 18, -20, -66, 18, 57, 77, 16, -56, 40, 68, 61, -19, -62, 29, 39, -45, 74, 48, 16, 47, -25, 47, -50, -22, -44, -7, -4, 36, -26, -18, -47, -81, 10, 40, 43, 32, 47, 17, -37, -75, -6, -34, 0, 70, 27, 4, 34, 34, -76, -9, 18, -77, -12, 32, 5, 5, -62, -31, -61, 60, 62, -39, 79, -12, 50, -23, -64, -33, 16, -8, 22, 14, -58, -50, -15, -51, 34, -65, -70, 18, -59, -77, 56, 70, -2, -26, 7, 21, 24, 27, -31, -54, 69, -44, 72, -55, -14, -8, 76, -47, 7, 33, -62, -55, -31, -51, 65, 46, -37, -76, 72, 52, -22, -26, -68, 32, -29, 35, -74, 20, -12, -54, 15, 36, 2, -11, 69, -62, 42, -67, -46, 40, -46, -59, -16, 13, 31, -47, -50, 17, -60, 16, 79, -67, -50, -80, 76, -47, 36, 22, 76, 67, -63, -19, -8, 62, 45, 72, 65, -10, 5, -26, -32, 11, 43, 10, 75, 29, 39, -46, 70, 9, 11, -71, 21, -3, -49, 24, -3, -39, 15, -43, 38, -49, 23, -43, 33, 54, 53, -72, -79, -13, -9, 24, -2, 44, 19, -57, -52, -4, 21, -54, 33, 78, -81, 23, -56, -39, -53, 70, 37, 70, -59, -26, -1, -14, 56, 24, -27, -36, 73, 10, 52, 14, 69, -70, -34, 1, 69, -20, -33, -48, 30, 29, 20, -13, -42, -5, 53, 15, 2, -29, 54, 72, 72, -10, -60, -75, -20, 56, 6, 16, -58, 65, -34, 66, -17, -34, 34, -15, 75, -40, 18, 71, 4, 17, 74, 33, 16, 61, -10, -59, -20, -24, 32, 11, -30, 75, -57, -77, 73, 53, -30, 17, 53, -25, -18, -59, -43, 2, -68, 38, 23, -26, 78, 34, 1, -17, -56, -1, -24, 78, 50, 18, 56, -68, 27, -12, 17, -65, 22, -33, 9, -72, 66, -50, -79, -1, 60, -54, 67, 45, -48, 71, -67, -8, 49, 9, 62, 16, 54, -75, -41, 34, 25, -10, 50, -72, -80, -50, 14, -37, 77, 42, 49, -22, 25, -27, 6, -45, 35, 27, 11, 15, -75, 74, 60, -78, 27, 4, -17, 19, 37, -49, 72, -59, -41, -29, 51, 12, 12, 16, -9, 41, 27, -51, -64, 17, 72, -61, 30, -42, -54, 75, 40, -66, -46, -60, -58, 67, 58, 1, 29, 60, -61, 16, 80, -55, 60, -64, 38, -71, 52, -35, 23, 50, -51, 72, 61, 76, -36, -39, 73, -55, 3, 21, -76, 48, -74, 75, 59, -50, 72, 1, -36, 8, 37, -60, 31, -59, 50, -47, -56, -57, -42, 34, -32, -73, -68, -69, 59, 13, 60, 75, -11, 21, 56, -13, -55, 0, -25, 33, 59, -43, 79, 41, -6, 31, -54, -66, 33, 29, -15, -6, -9, -5, -43, -63, 30, 17, -73, -60, -70, 1, 30, -4, 7, -3, 60, -50, -17, 28, 71, 66, -77, 41, -46, 21, 43, -7, -45, -40, 50, -21, 39, 78, 37, 49, 58, 77, 80, -27, 34, -33, 81, -34, -35, 50, 24, -47, -69, 8, 76, -16, 54, -48, 73, -33, -35, -68, 3, 72, -69, 62, 67, 63, -11, 13, -26, 21, -54, -79, -44, 47, -30, 57, 71, -73, -73, -56, 27, -9, 5, 6, 25, 80, -58, -24, -29, 32, -72, -8, 29, -26, -43, 68, 30, 70, 13, -30, -78, -71, -78, -13, -2, -16, 19, 7, 66, 58, 78, 46, -54, 76, 64, 27, -36, -19, -49, -9, -8, -58, -64, -4, 67, 44, 34, -54, -49, -14, -11, -73, 76, 9, -65, -2, 51, 72, -25, 29, -1, 77, -66, 13, -26, -45, 25, -46, 64, -41, 4, -4, -4, 40, -23, -42, 40, 29, 9, -27, 41, 20, 56, -75, 17, 31, -25, -16, 28, 67, -35, 77, -17, 74, -60, -56, -31, -30, 76, 5, 66, 16, 75, -60, 58, 40, 44, -20, -13, -79, 69, -63, -23, 55, -9, 65, 38, 68, 25, 51, 51, -32, -4, -27, 64, -34, 13, 78, -70, -20, -59, 63, -23, -56, -65, 48, 69, 14, 54, 52, 21, -59, -30, -49, 46, 0, -71, -13, 76, -14, -55, 46, -58, 69, -51, 53, 56, 58, 15, -22, -76, 71, -36, -38, 64, 70, -26, 58, 8, -54, 34, -78, -43, 75, 0, 35, 35, -30, -68, 33, 81, 27, 49, -38, -14, -61, 14, 27, -71, 63, 6, -48, -9, -76, 30, 16, 68, -72, -70, -55, 14, -14, 53, 46, -51, -53, 27, 69, -69, -78, 10, 70, 13, 3, 78, 44, -14, -71, -8, 1, 43, 56, 20, -63, 59, 29, 62, 61, -2, -76, -45, 77, -69, -22, -46, -66, -39, 21, 1, 6, -44, -11, 58, -49, -63, 17, -19, 67, 57, 80, 13, -17, 50, 10, -16, 43, -54, 59, 74, 17, 7, -57, -45, 81, 32, -25, -12, -3, -60, 69, 73, -46, -46, -80, -57, -64, -12, 54, 58, -30, 28, 52, -57, 21, 69, -50, -36, -66, 35, -13, -28, -12, 56, -9, 0, -36, -71, -10, 78, -67, 43, -71, 15, -80, 65, -80, -75, 64, 77, 34, 62, 65, -60, 62, -63, -61, 3, 54, -45, 51, 58, -43, 22, 74, -10, -18, -50, 41, 78, 65, -15, -66, -74, -29, 8, -80, -61, 4, 9, -64, 27, 0, 63, -41, -12, -1, -71, -7, 30, 44, -68, -30, -10, 24, -21, 16, -26, 57, 33, -21, -44, 62, -7, 60, -19, -45, 17, -74, 50, -52, -22, -68, -19, 23, 52, -12, -9, 59, 63, -79, -60, -60, -61, 65, 63, 40, -66, 21, 58, 60, 0, 7, -63, -78, 77, -31, -19, 50, 15, 78, 39, 9, -10, 47, 40, -41, 48, -29, -47, 14, -6, -58, 3, 80, 41, -73, 21, -58, 42, -7, 62, -6, 19, 40, 77, -1, -35, 9, 78, 66, -8, -9, 8, -66, 40, -49, 42, -31, -76, -53, -45, 69, -21, 48, -19, -17, -37, 3, 9, -21, -70, -29, -53, -78, -75, -21, 16, 6, -22, 78, 32, 76, 47, 0, 21, -58, 28, 30, -71, 36, -38, 55, -40, 52, -41, -11, 34, -25, -80, -13, 75, 59, -34, 35, -75, 49, 17, -58, 76, -25, -10, -50, 76, 29, -60, -4, 62, 68, 19, -44, -35, -7, -46, -34, 75, -18, 52, -60, -32, -77, 31, -44, -27, -63, -75, 67, 68, -46, -37, -40, -40, 24, -53, 1, 1, 11, -40, 75, 37, 50, 11, 12, -69, -11, 32, 33, 26, 28, 20, -45, -25, -27, 42, -36, -57, 72, 44, 30, -63, 37, -54, 36, -26, 48, -9, 54, 38, -67, 70, 2, 43, -49, 38, 19, -73, 5, 50, 33, -14, -64, -28, 3, -51, 12, -35, 65, 60, 69, 50, 52, -39, -33, 15, -78, 41, -22, 37, -20, -23, 12, 33, 7, -58, 21, -45, -66, -35, -42, 27, -3, 80, 27, -65, 60, 80, 24, -30, 14, -37, -79, -77, -23, 69, 52, -16, 36, -63, -3, 68, 66, 27, -61, -78, 30, 36, -68, 57, 41, -39, -15, 39, 57, -48, -69, -58, 80, 65, -76, -56, -50, -4, 68, -7, -25, -8, -4, -12, 70, 72, -24, 73, 8, 45, 42, -57, -78, 11, -37, 55, 57, 8, -14, -78, 28, -26, 22, -41, -56, -12, -36, -31, 42, 28, 14, -48, -75, -40, 41, -3, -38, 31, -43, -39, -12, -3, -72, -59, -53, 65, -55, 19, -5, 35, -77, -21, 52, 16, -76, -18, -24, 40, -73, 22, 26, -60, -58, 67, 52, -66, 66, -23, -43, -21, 80, 67, -4, 19, 62, -19, -75, 13, 7, -43, -26, 1, 7, -20, 2, 27, 57, 8, 80, -80, 34, -28, 60, 41, -51, 60, 14, 41, 45, 60, 74, 12, -19, 63, 17, 69, -79, 36, 9, -27, 24, -33, 24, 69, 80, -69, 74, -12, 65, -73, -57, -50, -17, 4, -69, 8, -52, -53, -80, 72, -55, -1, -46, 51, 72, 50, 71, -44, -10, 10, 37, -24, 76, -65, 30, -21, 73, -13, -34, -45, 80, -9, 37, 45, 25, -48, -64, 78, -37, 44, -78, 42, -44, 53, -62, -63, 37, -45, -48, -15, 10, 79, -10, -17, -9, -70, 34, -38, -63, 43, -51, 79, -73, -67, 16, 23, 11, 27, 25, 32, -29, -32, -77, 49, 5, 46, -42, -9, 75, -11, 58, -74, -18, -64, 72, 72, -64, 11, 40, -79, -41, 1, 34, -21, 22, 4, 33, -39, -47, 38, 18, 54, -58, -41, 36, 38, 27, -34, 46, 48, -38, -25, 33, 19, -63, -60, 60, -47, -50, 50, -69, -49, -59, -1, 9, -7, 66, 54, 6, 47, -10, -13, 17, 37, -50, 70, -42, -6, -64, -5, 67, -71, -36, -10, -59, 37, -4, -55, -36, 51, -44, 27, -19, -12, 43, -33, 28, -61, -63, -20, 49, 43, 46, -40, 38, -33, -23, -27, 20, 42, -22, 28, -58, 16, 44, -25, -53, 14, 27, -39, 16, -14, 1, -71, 12, -28, -24, 75, -15, -69, 66, 11, 52, 76, -29, 61, 48, 2, 40, 65, -63, 79, 26, -38, 48, -30, 59, 64, 48, 18, -73, 55, -47, -40, 25, 11, -21, -10, 73, 42, 3, -67, 10, -36, -30, 76, -45, 11, -13, -47, -44, 37, 36, 54, -7, -27, -23, 58, -74, -29, 66, -56, -35, -23, -73, 46, -76, -50, 42, -22, -61, 53, -38, 50, 22, 12, 73, 60, 45, -18, 32, 12, 3, -48, -51, 39, 9, 11, 36, -5, 8, 66, -52, 19, -36, -38, 6, -61, -52, -45, 30, -63, 56, -77, -47, -51, 70, -16, -64, -72, 58, 44, -56, 53, 47, 71, 23, -75, 36, 73, -62, 22, -71, 57, 3, -14, -27, -15, -55, 71, 11, 45, 61, -59, -19, 65, 38, -49, -27, 41, -36, 28, 0, -15, -9, -51, 38, -31, -76, -16, -7, 57, -67, -66, 0, -38, -47, 24, 71, 69, 66, -79, -3, 13, -74, -70, 60, -31, -15, 67, -30, -47, -11, -52, -54, -50, -48, -32, -57, -76, -12, 53, 13, 7, 67, 1, 26, 79, 16, 44, 63, 13, -51, -45, 65, -39, -8, -37, 64, 55, -78, 65, -58, -5, -27, -42, -72, -52, -27, 63, -54, 47, 72, 79, -76, 34, 10, -57, 47, -27, 19, 12, 76, 71, -35, 18, 13, 11, -74, 3, 59, 35, 7, 52, -27, -44, -78, -76, 64, 52, -36, -39, 71, -80, -4, 31, 68, -29, 40, 80, -7, 55, 26, 10, -16, -52, -73, 63, 79, 73, 11, -47, 1, 74, 9, -47, -51, 17, -52, 47, -68, -35, 1, 1, -53, -19, -67, -73, 16, 42, -40, 78, 74, -58, 8, -13, -77, 3, 4, -54, -62, 74, 12, 52, -73, 16, 49, -73, -54, -67, 33, -19, -18, 37, 80, 6, -17, -8, -57, 7, -39, 18, 23, 14, 61, 45, 14, 29, 7, 62, -4, 51, -31, 37, 26, -79, -67, -73, 53, -34, 24, -40, -13, 64, -76, 27, 32, -23, -53, -26, -53, 18, -33, 71, -46, -30, 66, -35, 51, -5, 26, -43, 68, -75, 71, 80, -9, 44, 45, 48, -66, -33, -22, 25, 31, 15, 26, -30, -12, -47, -32, -8, -79, 0, 63, 16, 37, -7, -51, -18, 22, -73, 24, 47, 9, 23, -25, -57, -7, -28, 32, 9, -31, 34, -5, 75, -33, 39, 9, 68, 31, 70, 10, -2, -55, 68, -37, -18, -45, 5, -23, 8, -47, 16, 38, 1, 65, -21, 54, 17, 16, -7, 24, 78, 7, 59, 56, 9, -37, -6, 67, 38, -32, 56, -52, 78, 21, 75, -30, -30, -42, 39, 6, 66, 60, -74, 66, 21, -67, 27, 29, -18, 57, 25, -69, -32, -31, -39, 64, -26, -78, -49, -10, -8, -14, 58, -70, -21, -74, 25, -80, 24, -64, 9, 78, -75, -40, -30, -79, -57, -50, 2, -61, -65, 12, 31, -2, -2, -80, -62, 41, 39, -46, -72, 7, -7, 15, -42, -48, 47, 73, -2, 36, -6, -56, 7, 13, 77, 5, -59, 12, 58, 68, 33, 79, 53, -46, -62, -55, -61, 1, -63, 69, -67, -41, 35, 3, 40, -58, -16, -47, -79, -76, 5, 17, -64, -56, -5, -42, -23, 29, 56, -29, -68, -40, -25, 11, -71, 41, -70, -27, 70, 54, -45, 68, -22, 13, 72, -36, 54, 15, 40, 13, -64, -27, -8, -37, -33, -65, 71, -24, -55, 43, 3, -59, -3, 78, 60, -22, 72, -39, -71, 71, -10, 29, 15, 7, 61, -18, 28, -46, -39, 14, 16, -63, -54, -49, -30, 10, -2, -37, -19, 74, -5, -12, -75, -70, 27, -20, 65, -49, -17, -52, 31, 26, 30, -24, 4, 43, -22, 40, 30, -16, -29, -19, 15, 5, -21, 4, -33, 58, -70, 37, -77, 3, 80, 23, -2, -37, 22, 25, 43, 68, -24, -43, 45, -28, -31, 2, -49, 39, 63, -69, -19, 23, 30, 33, 80, 4, -16, -78, -72, 75, -38, -21, -76, -15, -35, 3, -32, -31, 57, -23, -53, 78, -17, -21, 74, -42, 14, 13, 10, -73, -33, -13, -8, -49, -49, -71, 73, -6, 16, 11, -33, 62, -41, 26, 51, 22, -40, -10, 54, 66, -50, 19, 21, -47, -25, -80, 0, 50, 5, -62, -53, 2, -52, 17, 75, -50, -31, 40, 74, 69, 2, 0, -30, 25, 0, 12, -61, -10, -18, 27, -70, 44, 79, -44, 3, -44, -78, 61, 68, -25, -16, -50, 71, -22, -14, -8, -54, -55, 20, 80, -68, -31, -57, -44, 33, 38, 18, -73, 44, -26, 64, -19, -10, -80, -26, -4, 35, -38, 33, 8, -5, 19, -68, 66, -44, 60, -4, -65, 72, -65, 62, -66, -67, -8, -47, -7, 15, -42, -67, -13, 39, 19, -9, -10, -70, 28, -64, -75, 17, 14, -10, -53, 9, -40, -60, -19, 26, 61, -23, -20, 43, -73, -43, -47, -4, -39, 35, -59, -76, 64, -53, -31, 44, -27, -7, 49, -29, 33, 69, -18, -41, 69, -33, 51, -51, 15, -50, 80, 10, -55, -78, 31, 41, 71, -40, -22, -80, -3, 3, 53, -26, 5, -79, 30, -62, -47, -23, -36, 40, -49, -28, 34, -57, -26, 73, -15, -46, 17, -51, -68, 56, 80, 80, -16, 24, 55, 37, -75, 26, 74, -7, 57, -3, -26, 52, -48, 13, 2, 69, -40, 41, -35, 61, 33, -73, 13, -29, -29, 41, -59, 40, -33, -69, -46, -52, 7, -64, -21, -39, -61, 28, 25, 0, -24, 0, 29, -75, -10, -75, -74, 34, -49, 19, -29, 50, 72, 1, 34, 51, 80, 2, -62, 53, 24, 25, 6, -24, -66, -33, 6, -75, 43, -77, 28, 39, 79, 8, 27, -17, 19, -39, -44, 16, -31, 20, -17, 41, 14, -33, 61, 34, 49, 24, 13, -40, -32, 60, -5, -50, 24, -29, 43, -44, -39, 32, -40, 66, -63, 45, -80, 22, 17, -10, -10, -49, -5, 19, 66, -46, -66, 61, -21, -57, -75, 46, 23, 55, -76, 14, 31, -40, 51, -63, -18, -29, 37, -5, -54, 17, -67, -28, 21, 47, 46, -34, -39, -77, 7, 62, 13, -35, 53, 26, 25, -52, 55, -1, -3, -51, -37, -39, -79, -52, -68, -8, -58, -55, -66, 59, 68, 50, 78, -24, 35, 59, -69, 6, -78, 23, 46, 49, -13, -61, 33, 16, 61, 26, 52, -46, 79, -2, -16, -26, 75, 18, -2, -62, -33, -47, 44, 24, -67, 44, -25, -48, -15, -46, 25, 45, -51, -77, 32, 45, 59, 48, -23, -73, -9, -29, 6, -39, 21, 14, 44, 35, 26, 4, 0, 17, 52, -67, 77, -24, 46, -61, -21, 67, -10, -71, -7, -61, 9, -30, 48, -29, 75, -79, 10, -36, 19, -57, -12, 70, 70, 7, -13, -72, -31, 54, -22, -50, -71, -61, 53, 66, 26, 68, 42, 19, 81, -10, -23, 53, -54, -14, 63, 75, -17, 54, 24, 24, 15, 55, 1, 65, 34, -74, -65, -4, 68, -54, -16, -19, 41, -1, 0, -66, -12, -78, -32, -31, 28, -69, 36, 37, -26, -42, -27, 61, -17, 19, 71, -18, -18, -18, -79, 51, 71, -37, -54, 45, -40, 62, -22, 78, -62, -69, -5, -11, 62, 19, 50, -46, -30, 54, -56, -78, 12, -57, -18, 19, -48, 37, 37, -19, -49, -66, 14, -76, -70, -68, 30, -21, -28, 68, 31, 12, 80, -71, -33, -6, 48, 0, -49, -29, -44, -2, -8, 29, 21, 41, 36, -15, -34, -57, 24, -32, -7, -64, 19, 11, -19, -19, -3, 5, 35, -70, 23, -49, -20, -8, 57, 5, -8, -43, -58, -9, 27, 24, 5, -58, 22, -74, 34, 41, -28, 3, 2, 7, -36, 54, 4, -38, -77, 60, -55, 66, -64, 8, -17, -21, -64, 23, 40, -34, 63, -20, 73, -44, 55, -52, -2, 9, -33, 73, -65, -1, 11, -39, -31, -3, -41, 16, 47, -6, 4, -47, 52, -66, 79, -24, 0, -28, 1, 58, 53, 62, -71, -74, 74, -57, 69, -25, 79, 40, -1, 51, -44, -33, 43, -12, -75, -4, -79, -55, -13, 54, -28, -41, 3, 25, -1, -10, -19, -80, -69, 15, -74, -48, 70, 53, 8, -80, -53, 64, -35, 14, -80, 4, -14, 29, 54, -78, -81, 36, -13, 54, 26, -13, -38, -30, -73, 42, 56, -80, 19, 73, -58, 62, -5, -51, -3, -33, -54, -71, -7, 44, 10, 12, 3, -63, 4, -58, -16, -75, 77, -60, -32, -35, -57, -3, 31, -6, -77, -72, -74, -74, -56, -74, 61, -53, -23, 12, 16, 19, 68, 75, 79, 7, 75, -47, 40, 68, 29, 56, 45, -68, 31, -45, 8, 73, 62, -69, 10, 13, -5, 18, 14, -16, -78, 58, 16, 0, -42, -33, 29, -77, -29, -39, -67, -55, 66, 57, 58, -73, -74, 15, -70, 49, 16, 15, -45, -19, -49, 30, -32, 17, 61, 1, -3, 47, 11, -39, 63, 24, -24, 27, 2, 78, -57, 3, 8, -9, -31, -74, -67, -48, 52, 20, -48, 23, -2, 43, -44, -43, -43, -52, -68, 14, -63, 13, -49, -6, -19, -71, 10, -8, 18, -19, -79, -42, 19, -42, -27, 22, 16, 10, 62, 14, 75, -54, 43, 29, 59, -15, 9, 18, 11, 16, -78, -37, 34, -8, -76, 48, 24, 10, -12, 32, -54, -49, 57, -47, -5, 34, -35, -73, 33, -41, 43, 6, -39, 52, -60, -40, 25, 25, 74, 50, -2, -41, -6, -7, -34, -79, 77, -2, 78, 40, -79, -50, 64, 41, 75, 3, 41, 32, -63, -6, -72, -71, -21, 9, -8, -36, -1, 44, -70, -25, 73, 41, -14, 35, -30, 10, 66, 51, -50, -37, -3, 63, -58, 75, -32, -19, 25, 55, -29, -74, 65, 48, 78, -75, 22, -44, -31, -62, 74, -26, -66, -56, -28, 30, 80, -32, 37, 37, 77, -56, 4, -6, 18, -1, 30, 63, -1, 15, -80, 46, -10, 11, -39, 78, 5, -5, -35, -59, -20, -59, -39, 12, -33, 62, -4, -27, -30, 19, -76, 78, -80, 72, 25, -45, -47, -59, 41, -39, -1, 5, -77, 22, 56, -53, 39, -76, 7, -23, -22, -12, 46, 23, -18, -40, 18, -17, 50, 32, 80, -53, 45, -20, 36, -41, 75, 50, -33, -51, 31, 8, -78, -20, 33, 74, 27, -69, -56, -30, 60, -66, 34, 71, 22, 53, -26, 46, -53, -72, 7, 68, 40, -6, -9, 6, -9, -78, -49, 9, -64, -20, -38, -70, -35, 9, 23, 39, -65, -8, 75, 43, 76, -67, 66, -11, 65, 75, -77, -6, -5, 77, -27, 9, -7, -57, 30, -24, -67, 21, -33, 73, 11, 48, -15, -28, 36, 59, 36, -50, -24, -66, -27, -39, 6, -68, -3, 24, 41, 26, -62, -57, -75, -67, 35, 31, -5, 36, 52, -78, -11, -39, 39, -21, -28, -39, 66, 2, 38, -61, 52, -64, -44, 58, -52, -21, 75, 15, -23, -56, 38, 74, 14, -8, -78, -24, 1, -22, 27, -62, 1, 77, 75, -19, -50, 60, 61, 67, 66, 77, -66, 7, 14, 3, 41, 37, 16, 33, 57, -18, 39, -7, -1, 70, 28, -54, 46, -55, 25, 51, 43, -66, -41, 15, 18, -70, -46, -58, 75, -24, -62, 32, 73, -20, -58, -66, 0, 0, -65, 24, -53, -18, 65, 75, 74, 39, 59, 61, 11, -37, 35, 2, -19, 3, -5, -75, 5, -69, 37, 79, 65, -43, -17, -50, -52, 15, 35, -61, 13, 33, -56, -42, 72, -62, 29, -10, -78, -4, -17, 0, -32, -33, 0, -23, -79, 35, -65, -51, -64, -59, 12, -14, -30, 72, -23, 14, -40, -78, 59, -47, -79, -45, -51, 26, 78, 7, -66, -52, -4, -27, 73, -67, 69, 62, 47, -67, 13, -39, -47, -8, 67, -11, 50, -79, -20, 29, -70, 7, 37, -23, -40, -37, -53, -68, 80, 71, 37, -60, 47, 4, 80, -54, -48, -36, -26, -47, 53, 75, -20, 52, 32, 54, -54, 1, 47, 14, -8, 26, -60, 46, 40, 60, -65, 0, -2, 9, 8, -65, 58, 5, -56, -75, 75, 43, 3, 47, 51, 67, -23, 13, -74, 10, -65, 33, -45, -15, -7, -24, 79, 44, -41, 35, -20, -28, -57, 67, -48, 16, 30, -5, -13, 28, -80, -72, -45, 7, 80, 11, 33, 24, 39, -40, 64, -50, -68, -28, 38, -73, -60, 19, -38, 56, -58, 22, -28, 28, -1, 34, -10, -57, 35, 42, -2, 8, 1, 66, -44, -48, 38, 46, 59, 35, -59, 48, -6, -26, -75, -8, -47, -57, -5, 42, 49, 29, 67, -42, -47, 42, 27, 37, 75, 60, -68, 81, -49, -43, 36, 33, 35, -64, -70, 9, 17, -49, 29, -38, -72, -45, -33, 18, -26, -66, -1, -21, 20, -19, -52, -33, 27, -6, 37, -64, 62, -48, -58, -47, -35, 67, -71, 9, -47, -9, -1, 47, 37, 69, -50, -62, -2, 17, -59, 68, -20, -33, 34, -24, 14, 25, 68, -42, 10, -64, -31, 47, 72, -26, 50, 34, 9, 71, 75, -57, 49, -49, -73, -32, 80, 55, 62, 19, 35, 67, 28, -25, 68, -15, -33, 62, 35, -21, -4, 35, 77, -26, 15, 9, -5, 16, 50, 4, 68, 13, 60, -24, -68, -6, 78, 16, 61, -51, 51, -28, 30, 12, -62, 53, -28, 61, 77, -44, -69, -2, -65, -68, 20, -60, 71, -79, -15, -73, 62, 26, 2, -44, -29, 30, 0, 66, 38, -75, -20, -66, 21, 19, -19, -71, 68, -60, -6, 2, -2, 17, -11, 33, 61, -29, 42, 65, 7, -32, -10, -41, -63, 75, 54, 0, 32, -62, 2, 43, -76, -51, -60, 2, 22, -8, -6, 75, -42, 64, 60, 80, 55, -48, -58, -78, 30, 67, -56, 28, -56, -32, 26, -72, 59, -25, -14, 61, 44, -38, 63, 59, -37, -72, -45, -1, 65, 43, 14, 41, -7, -20, -47, -43, -28, -40, 54, -24, 52, -26, -79, -45, -73, -16, -79, -14, -32, 42, 0, -78, -26, -73, 10, -78, 28, 9, -40, -49, 65, -4, 11, -75, -64, -24, -49, -34, 35, 66, -1, -66, -35, 58, -34, 25, 57, 19, 53, -74, -7, 21, 65, -32, -53, -26, -61, 27, 13, -77, 4, 59, -5, 73, -77, -13, 12, -6, 81, 51, -8, -10, -12, 79, 33, 54, -38, -18, 0, -58, 19, 69, 14, 51, 37, -25, 35, -25, 10, 43, -39, -56, -35, -51, -18, 69, -17, 38, 15, 78, 70, -48, -56, -54, 19, 63, 1, 63, -12, 59, 57, -48, -17, -80, 51, 42, -59, -30, -33, 37, 69, -72, 41, -21, -78, 1, 63, 72, -29, 48, -81, 47, -58, -36, 59, -62, 61, -18, 10, 72, 58, -19, 48, 77, -61, -55, -30, 53, 30, -10, -36, -69, -26, 43, 73, 15, -11, -77, 56, -64, 67, -20, 35, 56, 30, -22, 8, -7, -68, -52, 43, 32, 77, -12, -61, 50, -56, 69, -26, -53, 35, -71, -18, -76, -60, 53, -10, -31, 55, -18, 20, 11, 0, 6, 69, 11, 19, -54, -71, 14, -63, -6, -63, -23, 47, 77, 60, 68, 23, 39, 18, 61, -13, -51, 17, -26, -19, 69, -14, 67, -79, 38, 38, -74, 68, 70, -75, 21, -75, 25, -74, -78, -41, -2, 21, -23, -35, -27, 38, 64, -24, 14, -42, -47, 47, -12, 20, 74, -1, 20, 34, 8, -4, -10, -16, -24, 9, 28, 58, -41, 6, 31, 39, 30, -6, 21, -80, -30, 53, -44, -48, -7, -32, 77, 52, -42, 4, -77, -64, -34, -33, -68, -57, 71, 60, 8, 15, -12, -52, 3, 24, 25, -1, 53, -76, 20, -5, -28, -43, 78, 50, 38, 53, 65, 67, 31, 31, 78, -10, 32, -78, 39, -62, -71, -45, -12, -51, -50, 13, -51, -61, -11, -48, -59, -81, -3, 61, -62, 72, -11, 69, -3, 67, -63, -80, -74, 29, 63, 0, -45, 25, -56, -41, -22, -17, 49, 14, -12, 14, 66, -32, -38, -38, 0, 45, 11, -52, 74, 49, 49, 32, -72, -41, -7, -50, -23, 28, -15, 29, 59, -25, -55, -3, -43, -66, -68, -52, -45, 46, 65, -2, 77, -47, 51, -37, -67, -23, -58, -79, -47, -38, 20, -58, -59, 36, -12, -13, 61, 10, 50, 4, 22, 79, 61, -65, -50, 74, -67, 55, 4, -60, 48, 8, 33, -9, 46, -78, -39, 38, 65, -42, -27, -36, 79, 69, 51, 66, -42, 48, 41, -44, -24, -47, -34, -10, 34, -20, 55, -24, 10, -64, -33, 28, -57, 34, -52, -2, -43, -47, -61, -72, -76, -20, 65, -45, 59, -59, -60, 29, 45, 81, 42, -57, -70, 46, -75, -25, 7, -77, -60, 1, -3, -76, -68, -50, -20, 75, 65, -11, 54, -63, 42, 78, -11, -1, 6, 5, -70, -43, 75, -72, -32, -23, -15, 21, -59, -68, 74, 49, 4, 44, -71, 69, 48, 69, -24, 13, -15, 23, -30, -24, -57, 19, 66, -38, -4, 0, -34, 0, 65, 32, 47, 27, 73, 10, 64, 18, -67, 19, -41, 13, -7, 39, -30, -36, 36, -58, 53, 55, -41, 63, 37, 60, -52, -69, -46, -72, 26, 66, -36, 50, -2, -8, 77, -19, -6, -58, 11, -52, -33, -32, 79, 13, -73, -1, 76, 21, 14, 67, 23, -33, 17, -75, 31, 13, 2, 40, 39, -56, -3, -24, -40, 48, -72, 23, -59, 74, -49, -24, 40, 37, -1, 80, -57, 17, -19, 38, -15, 45, -67, 20, -39, -68, -73, 51, -77, -11, 73, -13, 39, 30, 5, -27, 72, -62, -60, 16, -17, 27, 67, 30, -48, -40, 53, 43, -21, 26, -69, -27, -76, -78, -36, 20, 69, 63, -6, -9, 48, 5, 50, -2, -42, -27, 40, -22, -48, -35, -31, 26, 19, 37, 37, -13, 26, -16, 47, -79, 17, 51, 11, 65, -80, -53, -59, -3, -16, 52, -62, -71, 80, 54, 50, 30, -72, 40, -14, 17, 52, -78, 4, -57, -54, -51, -51, 74, -23, -55, -19, 34, 60, -31, 36, -46, -51, -46, 11, 57, -44, 24, -53, 30, 75, -70, -12, -52, 55, -7, -27, -43, -21, -64, 16, 53, -80, 73, -3, -35, -39, -57, -62, -53, 31, 45, -61, 37, 73, 54, 26, -12, 76, 6, 0, 25, -74, -20, -67, -57, 41, -61, 18, 68, 27, -22, -33, 78, -73, -43, 25, -22, -26, 47, -36, -17, 63, 58, -45, 65, 26, 42, 60, -44, -24, 40, -56, 65, -24, 26, -66, -33, 37, -4, -41, -66, 70, 55, -26, -79, 19, 79, 13, 50, -45, -18, -30, -17, -50, 5, -36, 26, -16, -65, -47, 30, 41, -7, 74, -61, -12, 52, -31, 71, -51, 6, 55, -67, 65, -2, 67, 53, 18, 71, 40, -65, -8, 46, -10, -64, 62, -20, 52, -2, -25, 74, 76, -73, 15, -40, 33, 73, 78, 60, -30, 48, -9, 29, -36, 20, -27, -28, 59, 58, -61, 23, 32, -52, -61, 71, 1, -14, -31, -9, 10, -29, 6, -48, 2, 51, 74, 35, 24, 34, -38, 69, 11, 76, 30, -23, 47, 61, -69, -3, -62, -60, 5, 8, -80, 17, -2, -24, 23, -77, 65, 39, -14, -70, 44, 61, 5, 6, -57, -56, 68, 73, -20, 70, 68, -18, -16, -74, -67, 9, -56, -24, -15, -65, -39, 35, 52, 10, -56, -41, 19, 23, -33, 77, -22, -25, 36, 0, -7, -11, -50, -31, -63, -33, 12, -5, 73, -34, 4, 65, -2, -15, -33, -63, -46, -42, -72, 30, -40, -9, -31, -27, -63, -41, 78, 80, 12, 38, -26, -49, -13, -69, 45, 49, 74, 34, -64, 64, -30, -17, 18, 73, 45, -17, -47, -22, -23, 34, 54, -11, -61, 3, -21, -33, -72, 18, -15, 3, -74, -13, 57, -43, 35, 28, 13, 28, 63, 42, -2, 74, 17, 18, 22, 29, -20, 38, -5, -76, -11, 57, -11, 36, -8, 7, -26, -27, -37, 15, 10, 16, -35, -12, -35, -63, -36, 72, 15, -59, -43, -72, 27, 39, 34, 12, -57, 13, 71, 19, -12, -10, -42, -8, 6, 71, -50, -16, -74, -26, 44, 22, -49, -30, 16, 53, -69, 20, -18, -14, 74, -63, -50, -73, -33, 51, 53, 58, 46, -43, 42, 56, 16, -52, -39, -33, -43, -49, 47, -69, 74, -37, 14, -3, -19, 73, 34, -31, 33, -67, -30, 37, 77, 55, 40, -56, -39, -49, 66, 31, -42, 51, 28, -58, -77, 59, 46, -79, 73, -21, 20, -59, 42, -43, -16, 44, 70, 47, 21, -48, -46, 48, 77, 0, -37, -49, 52, -1, -64, -32, -60, -22, -29, -17, 62, 52, 65, -14, -40, 31, 15, -45, -4, -79, 18, -14, -75, -61, 64, 68, 42, -30, 20, -4, 15, 17, 24, 52, 1, -3, -47, 74, 70, 38, 47, 36, 43, -47, 46, -24, 67, 57, -68, -33, -75, 52, 22, 22, -24, -11, 61, 47, -76, 75, -3, -14, -20, -26, -23, 62, -77, 38, 25, 29, 38, 43, 6, -25, 2, -33, -2, 37, 27, -41, -12, 8, 20, -27, -10, 2, 4, -2, 54, 2, 25, 25, 45, 4, -19, -15, -13, -20, 11, 65, -64, 78, 53, -1, -55, -14, 8, 3, -30, -1, -26, 75, 62, -68, -8, -24, 41, 80, 18, -72, 16, 41, 75, -10, -33, 68, 34, 15, -57, -12, 16, 58, -70, 32, -60, 60, -46, -1, 4, 72, 56, 15, -47, -9, 58, -25, -8, 21, 51, -35, 20, -76, 66, 50, -22, -49, -37, 25, -42, 28, 23, -71, 79, 45, 52, 39, 60, -45, 75, 77, 75, 15, 27, 19, 41, -55, 51, 38, 26, 69, 28, -23, 2, -42, 30, 38, -12, 45, 35, -54, 75, 17, 8, -74, -13, 77, 55, 22, -68, -48, 37, -77, 16, 73, 13, -69, -64, -16, 30, -36, -23, -13, -49, -35, 44, 9, -18, 46, -80, -68, -36, 52, 13, -11, -5, 46, -72, 11, 12, -28, -56, -69, -73, 32, 10, 58, 68, -10, -34, -79, 75, -37, -5, -59, -55, 39, 7, 67, 36, 80, -63, 57, 43, 72, -18, -53, 47, -77, -71, -52, -29, 62, 43, -63, 31, 17, -66, -80, 44, -18, 62, 21, 72, -72, -62, -48, 43, -75, -78, -75, 3, 15, 10, -52, -68, -2, -64, 24, -51, -79, -42, -25, -5, -34, 7, 22, -50, 63, -44, -77, 77, -79, -15, -47, -12, -32, -14, -67, -26, -29, -5, 15, -61, -46, -65, 29, -8, 26, -41, 62, -61, 73, -26, 67, 78, 29, -17, -4, -46, -51, 26, 53, -23, -67, -43, -8, 69, -75, 37, 55, -71, -41, 80, 44, 43, -62, 59, -4, 35, -39, -21, -74, -71, 16, 71, -8, 19, 80, 80, 4, 18, -79, 24, 5, 35, 38, -57, -72, -36, -77, 47, 53, 43, 68, -57, -46, -65, -12, -51, 31, -68, -23, -51, 3, -71, 71, 49, 70, 52, 9, 4, 49, 5, -14, 23, 72, -49, 50, -69, -8, 15, -66, 44, 7, -72, 77, 8, -17, -42, -57, -5, -2, 75, 48, 66, -23, 68, -20, -14, 74, -18, -1, -36, 71, -78, -74, -67, -53, -79, 1, -59, 54, -60, 27, -41, 76, -36, 46, 30, -24, -24, -76, 33, -4, -26, 34, 67, 55, -73, 45, -1, -46, -26, -63, -29, -74, 37, 76, 48, 34, -50, -1, 27, -44, -32, -32, -42, -56, -16, 21, -32, 12, 57, 73, 39, -75, 2, -33, 78, -35, 12, 41, -6, -57, -64, 21, -32, 38, 10, -22, -45, -56, -35, -19, 27, 44, 42, 63, 68, 46, -27, -30, 29, -67, 72, 44, 16, -56, 42, -31, -24, -65, -63, 62, 25, 60, -27, 44, -17, -22, 45, 0, -72, 9, 39, 6, -36, 66, -80, 75, 6, 59, -73, 32, -3, 14, 50, 48, -70, 30, -18, -79, 28, -10, -78, -50, 80, -60, 70, 64, -50, 49, -68, 55, 65, -43, 43, -55, 80, -42, 36, 0, -65, 66, 45, -8, -61, -57, 69, -49, 21, 24, 11, 57, -17, -62, 62, 29, -67, -52, 18, 71, -80, 13, 12, -46, 14, -17, 66, 62, 8, 17, -67, -32, 58, -8, -46, 25, -23, 3, 76, -20, 66, 28, 75, -58, 16, 44, -14, -57, -37, 32, 58, 63, -2, -51, -8, -45, -63, -17, -6, 34, 43, -57, -1, -52, -46, 42, -42, 33, -35, 54, -49, 20, 26, -64, 60, 5, -63, 42, -39, -60, -16, 20, 54, 8, 54, -19, 70, 58, -56, 47, 5, 26, -56, 9, 38, -45, -50, -46, -17, 42, -30, -51, -16, 20, -3, 11, 9, -16, 80, -8, -18, 75, 33, -26, 28, -62, 67, 39, -19, 27, 60, -36, -46, -23, -66, -70, 66, 8, -42, -20, 8, -63, -64, -26, -42, -7, -11, 1, 25, -56, -13, 77, 13, -5, -20, 13, 70, 49, 72, 68, 35, 62, -31, 7, 27, 11, 72, 79, 68, 74, 72, -72, 49, -66, -47, 47, 61, 20, 4, -19, 10, 78, -31, -10, 58, -59, -55, 6, 34, 55, -15, 79, 33, 38, 76, 3, -14, -53, 15, -38, 71, -55, -1, 12, 31, -40, 40, -60, 19, -71, 52, -69, 74, -42, -69, 38, 18, 59, -76, -24, -24, 48, 14, -64, -34, -28, -80, 9, -58, -72, 34, -34, -62, -8, -29, -11, 43, -67, -66, 45, -62, 36, 43, 24, -19, -23, -26, -36, 20, -56, -12, -54, 63, -64, -63, 21, 6, 51, 27, -21, 55, 10, -30, 62, -75, 17, -61, 9, 79, -48, 57, 7, -23, -19, 40, 43, -63, 47, -40, -2, -79, -69, -21, -19, -34, -80, 65, 26, -53, 7, -16, 7, 36, -54, -42, 0, -63, 8, 60, -36, -53, 39, -50, -6, 63, 22, 77, -10, 49, -5, 54, 4, 40, -58, 38, -78, -27, 79, 29, 70, 7, -66, -13, -26, 45, 30, -24, -45, -5, 67, -7, 79, 21, -59, 44, 71, 77, 23, 65, 41, -14, 31, 55, 30, -8, 1, 42, 52, 30, 7, -39, 73, 62, -1, -5, 81, 24, -74, 75, 15, -5, 73, -4, -53, 12, -18, 27, -9, 20, 67, 1, 52, -10, -1, -80, 72, -45, -38, 8, 53, 66, -59, -12, 20, -26, 4, 73, -68, -54, 78, -60, 29, 22, -66, -15, 79, 49, 73, -44, -40, -16, -72, -61, -47, -50, 71, -34, -78, 8, -1, -16, 23, 41, 30, -67, -3, 5, -77, 25, 42, -35, 23, 34, -43, 12, 23, -15, -4, -10, 50, -27, 50, -34, -74, -33, 36, -16, 13, 11, 36, -21, -30, 26, 44, -10, -73, 26, -60, 4, 41, 36, 69, 73, -36, -62, 60, -59, -32, 53, -37, 54, 29, 23, -39, -38, -18, -57, 8, 11, -31, 41, 66, -22, -26, 12, -71, -43, 56, -9, 20, 63, -61, -15, 24, 43, -21, -76, 23, 80, -68, -65, -41, -80, 51, 27, -55, -29, 39, -41, -27, -51, -70, -28, -36, -70, -24, -9, -11, -39, -72, -36, -20, -11, 75, -21, -43, -54, 55, -29, 26, -65, -69, 22, 6, -66, -36, 10, -29, 41, 76, 63, 39, -8, -58, 57, -24, 43, 70, 59, 65, 26, -37, 7, 14, 49, 63, -76, 76, 77, 66, 68, 46, 10, 3, -10, -42, 48, -79, -25, -15, 56, 29, 70, -42, -30, 71, -68, 65, -75, -3, -72, -48, -68, -47, -45, -9, -75, 11, 55, 43, -24, -20, 51, -12, -43, -7, 59, -47, -46, -30, 9, -2, -69, -6, -67, 57, -78, 34, -14, 35, 41, -20, 76, -77, -3, 58, -19, 58, -64, 31, 20, -68, -70, -74, -8, 47, -55, 60, 53, -54, -3, 16, -32, 11, 38, -11, 77, 18, -24, 20, 18, -32, 1, 56, -34, -6, -42, -31, -9, 64, -23, -28, 64, 22, 40, -6, -62, 47, -57, 14, 31, -57, 31, -39, 56, -45, 31, 11, -43, 60, -63, 74, 4, -60, 54, -49, 46, -47, 5, -10, -79, -15, 71, -61, -11, 30, 35, 53, 61, 7, 23, -67, -47, -36, -63, -61, -5, -63, 43, 44, -17, 80, -53, -18, -79, -9, 4, 54, -6, -4, -27, 3, 26, 22, -67, 39, 13, 45, -10, -72, -34, 12, 48, -58, -50, -74, 44, -2, 14, -58, 12, 75, -35, 48, 71, -53, -46, -71, 55, -16, 7, -26, -44, -1, -20, -70, -22, -74, 55, 29, 20, -19, 19, 15, 14, 23, 55, -37, -79, 8, -23, -21, -67, -11, 65, -73, 9, -25, -60, 55, 56, 6, 10, 74, -47, 20, 2, -35, 33, -39, -63, 5, -1, 27, -68, -11, 54, -60, -53, 5, -40, -33, -39, -1, -59, -77, 62, 25, -3, -61, 12, 74, -10, 8, -33, -41, 69, -53, 40, 44, 42, -76, 11, -80, 29, -52, 40, -3, 9, -34, -59, 66, -67, -15, 73, -33, 1, -66, -42, 64, -49, -29, -25, 80, 13, -63, -54, 75, -64, -8, -55, -56, -71, -9, -66, 77, -59, -12, -48, 49, -17, -45, -68, 61, 3, 8, 51, -18, -35, -4, 57, 23, 61, 16, 72, 41, 3, -46, -9, -79, -71, 15, 70, -63, 3, -46, 76, 60, 41, -51, 7, 74, -45, -56, 45, -54, -35, -20, 3, -44, -49, 34, -38, 63, 2, 66, 21, 12, -67, 13, -52, -65, 62, 62, -21, 38, 67, 59, -59, 30, -35, 43, -65, 75, 7, 75, -48, -79, 63, -30, -59, 29, -28, 78, -32, -53, 33, 28, 61, 71, 16, 79, 69, -50, 21, 77, 33, -35, -5, 56, 78, -31, -67, 67, 15, 56, -51, -47, -57, -27, 11, 20, 22, 2, 15, 74, 1, -31, -14, 64, -55, 15, -57, -67, -46, 62, -70, -9, 28, -13, 36, -39, -64, -58, 66, 12, -17, 59, -70, -67, 35, 67, -78, 19, -38, -73, 78, -68, -8, -58, 47, 52, 43, -55, -71, -48, -50, 20, -45, -31, -62, 62, -29, 32, 66, 81, 50, -73, -44, -77, -71, 57, 71, -75, -31, -54, 5, -43, -73, 15, -49, 8, -25, 78, -74, 35, -9, -79, -46, -31, -62, -72, 0, 71, 38, -28, 36, 55, -47, -24, 75, -30, 57, -57, -11, -71, -33, -2, 57, 72, -12, 7, 36, -62, -21, 36, -11, -62, 20, -19, -20, 1, -1, -51, -42, 33, 65, 40, -56, -5, 41, 60, 7, 16, -51, 54, -63, -16, 70, -75, 35, -33, -24, -2, -60, 52, 4, -31, -40, 54, -68, -11, -30, 9, -61, 75, -21, 8, -36, -8, 12, 78, 40, -74, -20, -30, -63, -26, 51, -53, -54, -8, -76, -12, -47, 19, 42, 43, 77, 66, 22, -43, 3, -25, -49, -20, 2, -56, -43, 33, 55, 23, 50, 75, 64, -8, -61, -31, 65, -30, -39, -16, -9, 73, -36, -80, -14, -79, 14, -18, 36, 59, 3, -54, 44, -19, 32, 28, 52, -48, 66, 73, -12, 11, -52, -65, -4, -47, 80, 11, -75, 75, 42, -44, 28, -46, -49, 75, -12, 55, -32, 8, 1, -52, -53, -43, 16, -2, -30, 13, -57, -64, 13, -39, 27, 56, -67, 21, 22, 12, -77, 4, -53, -22, -65, 77, 40, -54, -4, -5, -45, -47, -48, 31, -71, 56, 74, -43, 1, 11, 4, -66, -70, 77, -56, -57, 52, 48, 24, 8, 38, -17, -39, -65, 47, -76, 6, -64, 1, -37, 73, -7, -30, -48, -43, 15, -65, 67, -4, 15, 41, -40, -43, 36, -28, -40, 42, 7, -51, 72, 53, -23, 33, -73, 3, -21, 35, 60, 42, 4, -72, -67, 38, -18, -56, -35, 76, -46, -48, 28, 47, -7, 16, 43, -11, -14, 28, -80, 20, 47, -62, -76, 32, -76, -68, 61, -11, -30, -63, 40, -66, 13, 80, -55, -4, -63, 54, 78, 28, 77, 70, -31, 16, -1, -62, 30, -21, -64, 80, -66, -14, 23, 45, -34, -15, -63, -41, -32, -35, -49, 55, 30, -81, -38, -61, -49, -42, -57, -60, -74, 80, -5, 59, -72, 17, 60, 21, 15, -66, -38, 36, -66, 56, -49, 26, -51, 78, -15, 42, 22, -12, 65, 71, 69, 28, -27, 2, -60, 46, 30, -7, 12, 42, -12, -11, -55, -61, -76, 62, -62, -36, 24, 32, 1, 16, -5, 41, -13, 76, 25, 57, 42, 15, -1, -77, -51, -46, 25, -70, -51, -37, -38, 35, -34, 17, -2, -1, 3, 20, 29, 36, 19, -3, -71, 36, -31, 40, 61, 49, -7, -8, 31, -37, 4, -20, 4, 72, -75, 54, -34, 8, 33, -6, 76, -66, -73, -23, -52, 63, 62, -60, -34, 29, -60, -57, 32, -77, 41, -34, -28, -14, 68, 30, -9, 53, 33, -76, 65, 48, 16, -66, -42, 67, -32, 58, -42, 61, -14, 61, 60, 56, 46, 44, -53, 37, -61, 3, -3, 52, 42, 4, 62, 44, 55, 13, 11, -9, -12, -13, -54, -24, 37, -54, -64, -44, -54, 7, -24, -57, -75, 30, -46, 45, -10, 58, -43, -7, -35, -76, 72, 75, -18, 73, 77, -65, -10, -48, -75, 52, 14, -20, -28, -20, 25, -20, -29, -20, 25, 78, -58, -56, -30, 62, -63, 0, 29, 71, 56, 12, -79, -48, -8, 21, 19, 43, 4, -58, 64, 17, -43, 3, 52, 4, -52, 54, 16, -42, 16, -6, 70, 70, -44, 67, -9, 20, 49, -26, -74, -56, 23, -45, 1, 29, 68, 10, 19, -55, 37, 54, -17, 52, 7, 40, 9, -5, 17, -6, -68, -71, 6, -69, 30, -71, 2, 47, 29, -26, -47, -59, 13, 52, 71, 58, -5, -23, 9, -59, 73, 30, -51, -11, -6, 58, -74, 9, -68, 50, -66, -69, 65, -70, 71, 44, -17, -23, -39, 10, 5, 17, 63, 16, 66, 61, -70, -35, 63, 54, -69, -26, 69, -70, -3, 1, -6, 69, -38, 59, -72, 54, 28, 58, 22, -65, 3, 31, 40, -42, 60, 21, -26, 67, 27, -48, 8, 16, -60, 65, -60, -3, 16, -71, 26, 25, -43, -63, 29, -14, 49, 64, 66, -39, -32, 41, -69, -61, -67, -22, 70, -52, -47, -4, -46, -4, -65, 54, 7, -38, -73, -3, 5, 33, 49, -38, 8, 57, -65, 49, -18, -12, 57, -76, 79, -29, -63, -12, 63, 64, -36, 55, -16, 28, 16, 44, -64, 67, 72, -27, 55, -45, 38, -44, 71, -70, -56, 77, -7, -33, 78, -55, -11, 20, 13, 9, -40, -61, -72, 63, -31, 50, -32, 15, 74, -14, -9, -33, 73, 33, -80, -80, 46, -27, -22, 30, -7, -44, 58, -27, 68, -63, 73, 24, 14, -8, 43, 32, 48, 63, 67, 31, -36, -73, -7, 51, 68, -21, -37, -58, 40, 51, 47, -2, -42, 49, 71, 21, -76, -14, 26, -41, 60, 18, 61, 58, 4, -53, -35, 65, 3, 59, 24, 32, 75, -76, -69, 14, 78, -33, -69, -73, -59, 4, 42, 65, 63, 28, 43, -40, -47, -3, -28, 11, -53, 10, 46, 29, -35, 79, 57, 44, -19, -38, -14, -13, -18, 12, 42, -20, 33, 51, 47, -6, 16, 71, 47, -76, 21, 62, 30, 56, -32, -62, 28, 56, 12, -80, -42, 57, 10, 26, -60, 59, 27, 47, -49, -14, -14, -2, 34, -79, 57, -77, 2, 49, 5, 75, 2, -59, 22, 60, 8, 14, -24, 6, 4, 23, -21, 26, 35, 17, -48, 21, -13, 40, -18, 80, 36, 48, 64, -51, -70, -38, 42, 69, -11, -36, -43, 26, 0, -42, 17, 73, -4, 78, -49, -35, 35, 2, 50, 39, 78, -52, 55, -26, -7, 73, 9, -8, -79, -80, -26, -39, -75, 80, -28, 19, -63, 4, -55, 71, 10, -51, -14, 72, 6, -19, -1, -8, -65, -68, -50, 54, -71, 69, -48, 37, -55, 78, 47, 69, 73, 46, -40, -67, 1, 37, 13, 29, -34, 13, -17, -32, -11, 42, 10, 41, 56, 56, 79, 67, 27, -17, -77, 24, -35, -44, -56, -19, 26, -51, -16, -19, -31, -69, -18, 61, -7, -42, 11, -33, 39, 54, -68, -9, -22, 8, -25, 78, 79, -45, 28, 21, -73, -63, 52, -67, -52, 28, 41, -57, -37, -24, 6, 12, 40, 5, -46, 29, -12, 36, -55, -63, 22, -13, 74, 51, -38, -28, 70, 55, -18, -12, -44, 36, 68, 7, -18, -11, -27, 1, 40, -46, -74, 14, -44, 24, 65, -80, 24, -69, -40, -50, 25, 70, 13, -69, -9, 8, 41, 48, 44, -23, -69, -60, -12, -30, -29, 31, -65, -7, 56, 43, -54, -34, 45, -70, 25, 17, -47, -49, 66, 37, -75, 34, 25, -2, 75, 37, 1, 29, -9, 68, -32, -24, -38, 15, 38, -19, -19, -57, -6, -14, -60, 7, 62, -78, 45, 51, 61, 36, 21, 66, -73, -24, -70, -12, -68, -39, -18, -33, 49, 47, -52, -10, 4, -2, 34, -36, -19, -16, 10, -4, 31, -42, -6, -48, -63, -42, 62, 77, -42, 44, -22, -35, 72, 45, 18, -40, -68, 54, 80, -70, -36, 61, 80, 35, 22, -23, -30, -4, -30, -18, 2, -36, 66, 22, 37, -71, -66, -47, -39, 21, -62, -53, 3, 29, 75, 18, 70, -17, -29, 23, -55, -29, 49, -21, -6, 12, -62, -36, 78, -7, -59, 7, 68, 79, 7, 29, 46, 9, 30, 57, 25, 63, 23, -40, -20, 56, -13, 79, -14, -32, 32, 30, -59, 73, 51, -17, -9, -80, 67, 65, 70, -56, -54, -74, -78, -55, 63, 56, -16, 13, -78, -76, -62, 19, -24, -77, 25, 9, 57, 46, -54, -70, 29, 53, 11, 19, 15, -71, 68, -69, -77, 7, -34, -44, -45, -37, -59, -30, 69, 48, 43, 75, 20, -60, -55, 14, 72, 50, -13, -30, -65, 10, 46, 2, 29, 55, -57, 65, -12, 68, 22, -62, -37, 38, 60, -52, -21, 38, -19, -55, 45, -50, 10, 55, -67, 52, 66, -56, 39, 26, 20, 54, 2, -25, 80, 77, -29, 42, -37, -58, -43, -62, -71, -25, -38, 26, 61, -21, 10, -3, 41, 25, -22, -24, 33, 41, 62, -2, -74, -13, -51, 8, 28, 54, -4, 37, 61, -65, 18, 8, -36, 33, -46, -35, -55, -46, 26, 5, -28, 73, 20, 79, 53, -28, 15, -30, 10, -1, 52, -12, -68, -77, -79, 31, -34, 72, 36, 33, -72, -76, 61, 46, 69, -31, 33, 73, -57, 23, -14, -33, 63, 13, 50, -5, 24, 34, -65, 31, -56, 36, -67, -81, -41, -2, 29, -34, -51, -59, 44, -64, 22, -55, -75, -80, 74, 19, -73, -58, -8, -29, -13, 12, -31, -75, -12, 63, 58, 40, -16, 29, -26, 2, 20, -17, -9, 57, -35, -18, 77, 23, 51, 51, 66, -38, 17, -57, -75, 35, 6, -79, -38, -72, -33, 55, 11, 75, 61, 71, 21, -14, 70, -17, 21, 80, 41, 23, -39, -33, -3, -80, -74, -11, 5, 73, 53, 39, -18, 6, 78, -50, -69, 64, 70, -19, 57, 80, 45, -7, 20, -61, -77, 24, 33, -70, 49, 8, -38, 51, -77, -40, -28, 77, -16, 20, -27, 19, -59, -29, 30, 45, -72, -10, -3, 20, -4, 28, -71, 52, 60, 24, 16, 67, -2, -35, 80, 68, -74, 77, 55, -66, -36, 78, -50, 51, 34, 60, -4, -74, -21, -63, -30, -68, -16, 11, -43, 64, -61, -62, -37, 70, 37, -64, 58, -76, -18, 26, -76, -44, 3, 71, 52, 47, 40, 19, 58, 72, -47, 32, 71, 14, 8, 53, 21, -78, 71, 21, 73, 12, 73, -2, 19, -31, -41, -77, 55, -78, -80, -65, -4, 26, -2, 28, 26, -71, -21, 74, 42, -61, 26, 30, -78, 38, -22, 57, 39, -78, 23, -21, -71, -11, 81, 71, 38, -67, 59, -48, -7, 51, -40, 12, 29, -6, 68, 31, -80, -64, 72, -2, 0, -36, 3, 69, 69, 72, 49, -24, -66, -29, -41, 34, -33, -69, -56, 80, -2, -49, 43, -50, 47, -61, 72, -27, -79, 70, 27, 74, 10, -30, -40, -18, -7, -34, 55, -2, -4, -7, 18, 55, -65, -77, -80, 7, 2, 24, 79, 7, 6, -14, 12, 31, 50, 20, 72, -41, -45, 39, 59, 55, -53, 77, 61, -24, 50, -34, -54, -51, -51, 25, -81, 55, 62, 21, 16, -48, -17, 25, -29, 35, -15, 43, 67, -35, -1, -28, -21, 32, 71, -32, -19, -74, 62, -71, 52, -71, -8, -27, -25, -44, 17, 54, -64, -16, 32, 59, -36, -79, 49, -13, -41, -34, 9, 24, 0, 75, 0, 11, -4, -1, 52, -79, 3, -67, -74, 9, 18, 40, -14, 50, 51, 53, -34, -16, 38, 45, 18, -41, -25, 74, 26, 13, 13, 9, 26, 62, 57, -40, -34, -40, -1, -69, 41, 10, -8, 68, -15, -76, -37, -64, -42, 62, 55, -1, -21, -42, 10, 4, 37, 4, 2, 23, -3, -74, -8, -72, 8, -44, -38, 30, 31, -23, 79, -62, 3, -19, -65, -54, -65, 10, -4, 77, -48, 5, 56, 59, -79, 3, -31, -43, 28, 42, 8, -3, 44, 60, -42, 7, -31, 61, 20, 47, -1, -44, 53, -17, 57, 62, 62, -24, 53, -47, -12, 80, 56, 33, 71, -15, 69, 41, 33, -6, 68, 59, -33, -3, -74, -79, -73, -52, -71, -55, -64, 62, -60, 70, 12, -40, -5, -37, -23, 30, -49, 9, -22, 3, 24, -58, -13, 62, 0, -20, -46, -12, -10, 24, -70, -63, -10, -76, 67, -16, -59, -54, -74, 18, -62, 43, 70, 50, 13, -30, 28, 11, -2, -59, -74, -38, 10, 60, -69, -18, 56, 22, -39, -77, 39, -64, -77, -36, 54, -12, 3, 7, 34, 78, -23, -62, 76, 4, 66, 18, 35, -43, 13, -63, -3, 1, -61, 10, 39, -19, -33, -11, -38, -9, 44, -76, 42, 27, 77, -24, 43, -29, -24, -7, -21, 17, 68, 15, -61, 79, -71, -28, 64, 40, -13, -40, 16, -3, -72, -11, 29, -50, -65, 28, -3, 22, -35, -67, 21, 51, 22, 5, 41, 7, -22, -43, -53, -47, -47, 74, 53, 80, -57, -29, -50, -11, -7, 80, -75, -68, 3, 67, -9, 25, -55, -44, -9, 34, 48, -2, -80, 69, -31, -27, 32, 52, -9, -58, -27, -61, 19, 61, -56, -68, -33, -15, 23, 1, 50, 10, -36, -36, 26, 38, 8, -29, -59, 46, 23, -17, 78, 66, -78, 40, 59, 58, -62, -79, -71, 42, 10, -24, 11, -30, -14, 45, -65, -50, -20, 5, -38, -21, 71, 20, -2, 68, 76, -20, -27, 25, 37, 32, 51, -79, 66, 15, -68, 55, -7, 58, 38, 6, 1, -73, 50, -48, -44, -45, 65, -20, -44, -16, -12, -18, -50, 12, 40, -25, 55, 77, 73, 39, -14, -45, -67, -44, -9, -59, -58, -12, -12, 9, -23, -71, -46, -32, -76, -47, 65, 33, -69, 64, 33, -48, -31, 0, -25, -62, 20, 13, 69, 28, -46, -41, 61, 55, -1, -60, 16, 74, -3, -55, 32, 4, -43, 24, 24, 32, -2, -58, 8, -34, -68, 18, 71, 57, 44, -49, -32, 36, -27, -23, 19, -14, -28, -48, -16, 67, 22, 32, -42, 40, 67, -38, -77, 16, -64, -60, -25, -37, -9, -67, 27, -40, 74, -27, 30, 61, -40, 67, 80, 23, -38, 68, -20, 57, 80, 72, 68, 14, 72, 74, 61, 12, 27, 1, -75, -9, -77, 59, -56, -28, 67, -1, -59, 78, -8, -17, -62, 44, 10, -52, 51, 55, -79, 9, 36, -21, 10, 45, -11, 20, -63, 64, 10, -31, 77, 58, -56, 57, -4, -47, -52, 61, 21, -6, 67, 51, -8, 73, 52, 39, 61, 61, -46, -28, -18, 51, 18, -6, 58, 58, 27, -27, 5, -22, -36, 43, 10, 50, 41, 70, -20, 43, -27, 9, 67, -59, 57, 2, -60, -40, 20, -51, -61, 48, -40, -18, -29, -55, 9, 23, 5, 44, -14, 67, -71, 4, -58, -80, 63, -62, 52, 80, 24, 16, -70, -44, -44, -6, -74, 11, 76, 40, -64, -13, -63, 38, 30, -73, -73, 36, -52, 30, 20, 18, -34, -24, -56, -60, 59, -59, 16, -21, 74, -77, -45, 15, 75, -14, 69, -15, 63, -26, -31, -33, -23, -77, 41, 22, 36, 0, 34, 53, 70, -67, -47, -46, -20, 75, 24, -19, 74, -26, -54, 0, -80, -38, -24, -10, 23, 39, 2, -75, 44, 75, 5, 33, -71, 57, -4, 16, 41, -65, 26, -67, -20, -63, 5, -74, -36, -51, 75, 58, 28, 22, -28, -62, 4, -43, 68, 71, 47, 30, -56, -73, -71, 7, -32, -46, -45, 56, 10, 75, -49, -4, -69, -29, 65, 76, -17, -14, 29, -68, 5, 52, -39, 62, -11, -3, 17, 26, -38, 78, 26, -74, 25, 43, 65, -18, 80, -79, 28, -51, -43, -18, -15, -65, -47, 5, 17, -64, -4, 54, 18, 9, 68, -50, -37, -76, -14, -51, 0, 46, -15, -59, 33, -24, -8, -68, 77, -63, -20, 21, 28, -25, -74, 27, -35, -75, 36, 7, 53, -52, 75, 20, -52, -4, 49, 41, 57, 44, -77, 9, -47, 7, -80, -61, -20, -26, -17, -51, 43, 26, 72, -8, 51, -65, -13, -71, 54, -79, -43, 39, 34, -35, 4, 42, 58, 22, 9, 49, -15, -48, 16, -50, 6, -27, -14, -52, -57, -4, 3, 74, 34, -20, 34, 43, 27, -21, 50, 61, -68, 21, -38, -37, -34, -46, -16, 48, -24, 60, 59, -56, 69, 2, 61, 63, -46, -77, -27, -58, 45, 55, -43, -18, -69, 62, 37, -56, -3, -17, -44, -49, -61, -54, 38, -11, -18, -59, 32, 45, 11, -42, -15, 8, 4, -56, 26, 43, 58, 8, -68, 38, -5, 1, 42, 75, 22, 41, 46, -75, -3, 27, -21, -75, 6, 0, 54, 31, 64, -37, 25, 61, 49, -29, 30, -14, -10, 20, -68, -38, 15, 22, -25, 80, -35, 36, -42, 80, 75, 39, -1, 3, -62, 75, -32, 68, 30, 13, -36, 10, -5, -21, 62, 56, -13, -63, 48, -21, -13, -40, -51, -16, 77, 61, -42, 56, 41, -6, 66, 16, 15, -76, 30, 79, -14, 59, 68, -19, -77, -67, -78, 73, -21, 19, 22, -58, -76, 72, -79, 54, 66, 75, 72, -6, -6, 10, -27, 17, -55, -79, -78, 5, 67, -24, 40, -21, 56, 48, 10, -50, -63, -10, -52, 18, -70, -51, -50, -31, -9, 14, -9, -51, 40, 16, 46, 33, -42, 11, -11, 56, 2, -35, -42, -68, 56, 26, 75, -47, 79, 76, 39, 80, 52, -53, 55, 7, 46, -8, 69, 54, -6, 29, -18, -3, -17, -45, -6, 61, 22, 56, 53, 56, 13, 55, -21, -60, -54, -54, 48, -11, 39, 25, -61, 67, 0, -50, -52, -24, -58, -72, 56, -58, 33, -80, 6, 76, 33, -8, 51, -52, -52, 39, -48, -23, 40, -76, 70, -70, -7, -22, 58, -74, 74, 71, 6, -13, 56, -31, -69, 40, 1, -59, -79, 48, -33, -74, -45, 74, 65, 43, 75, -63, -4, 49, -19, 32, 38, -65, 43, 13, -33, -67, 69, -62, 7, -67, -54, -63, -4, -80, 45, 62, 0, 46, -11, -23, -72, -44, -17, 50, -59, -80, 6, -69, -1, 26, -80, 66, 77, -69, 54, -5, -77, 51, -50, 13, 22, -37, -37, -36, -22, -80, -50, -57, 30, -76, 20, 53, -36, 41, -34, 67, 53, -62, 29, -55, -38, 76, -11, 79, -16, -50, -55, 0, 22, -70, 74, 48, 34, -41, -43, 26, -31, -66, 9, 63, -3, -20, 23, 6, -72, -70, 43, 62, -67, 25, -49, 31, -27, 73, -40, 74, -4, -14, 50, -34, 50, -55, -43, 40, -56, 25, -4, 72, -15, 21, 10, -25, 79, 64, -54, -31, -66, -18, -4, -46, 36, -67, -64, 76, -2, 51, 22, 39, -41, -66, 44, 80, 77, 22, 60, -71, -44, -17, -80, -35, -23, -36, -19, -25, 11, -72, -28, 62, 74, 21, 6, 10, -35, 71, -41, 54, 57, 54, -77, 72, -9, -46, 30, 75, -66, 68, 31, 53, -13, 76, 50, 68, 49, -49, 42, -38, -36, -33, 4, -61, 59, 40, -59, -26, 57, -3, -31, -59, 53, -33, 32, 69, -6, 30, -29, 39, -24, -17, -38, 66, -50, 31, 49, 64, 37, 7, 48, 26, 38, 57, -12, 61, -25, 76, 67, -19, -22, -29, 65, 43, -65, -25, -28, 52, -66, -42, -58, -62, -21, 63, 33, 10, -70, 16, 52, 0, 0, -63, 79, 39, 63, -73, -57, -71, 38, -59, 77, -29, -17, -71, 5, -38, -35, -21, -75, 34, -51, -36, 14, 35, 4, -65, 50, 38, -21, 70, 80, 7, 48, 54, 52, 1, 4, 10, 10, -2, 30, 42, 64, -76, -34, -57, -38, 59, -7, -51, 16, 55, 46, 23, -28, 60, 26, 28, -54, -7, -77, -65, -58, 9, 17, 12, -46, 9, -18, -37, 18, 39, -7, -22, -21, 15, 25, 43, -20, 12, -49, -10, -39, -65, -61, -3, 31, -15, 47, 52, 55, -61, 59, 34, -77, -52, 51, -26, 25, -19, 8, -30, -17, 3, -80, 3, -43, 75, -51, -75, -19, 27, 72, 35, 3, 38, 11, 35, -61, 79, 3, -36, -38, 59, -59, 59, -51, 36, 63, -67, -10, -31, -59, -54, 42, -13, 36, -9, 31, -80, -78, 34, -56, -46, -71, 78, -72, -21, 5, 55, -47, -48, -47, 62, 58, 42, 60, -13, -45, 47, -21, 62, 77, 80, -30, 22, -78, -75, -75, -57, -64, -33, -30, -66, 75, 77, -66, 43, -54, 48, 45, 24, 13, 17, -38, -3, -7, 78, -80, -15, -5, 57, 15, 6, 1, 41, -4, 69, -54, -30, 46, -33, 25, -77, -20, -32, -56, 72, -49, 52, -56, -53, 0, -3, -48, 35, 43, -71, 67, 72, -39, -66, -4, -78, 36, -64, 34, -23, -5, 76, 64, 28, -62, -47, 9, -40, -8, 58, -63, 12, 51, -58, -51, -38, 27, -4, 15, -41, 69, -67, -60, 30, 17, 20, 24, 71, -64, 78, -69, 25, 50, 79, 31, -70, 34, 75, 62, 35, -60, -23, 25, 59, -69, -6, 56, 77, -5, -3, 32, -23, 16, 26, 8, 11, 63, -66, -46, 42, -51, 45, -61, -80, -9, 80, -40, 19, -38, 65, -11, 66, -74, -22, 72, 62, 34, 8, -76, -55, 57, 30, -77, 61, 12, 74, 49, 53, 7, 42, 21, 67, -23, -12, 7, 64, 2, -24, -28, -79, 72, 61, -63, -32, -6, 52, 34, 8, -44, -52, -22, -15, -53, 60, -6, 26, 29, -72, -19, -8, 22, -75, 22, -40, -53, -8, -52, -64, -46, 22, -51, -63, 23, -13, -8, -58, 4, 24, 12, -51, 68, -24, -58, 78, -79, 13, 71, 45, -34, -71, -20, 13, 11, -67, -59, -11, 57, 30, 59, 67, -11, -27, 18, -2, -46, 19, 70, 7, -72, -44, -27, -62, -58, -14, -62, -23, -30, -42, 31, 19, -38, -19, -7, -51, -6, -6, 8, -68, -6, 11, -22, -22, -46, 59, -24, 46, 43, -6, 34, 24, -45, 33, 23, -17, 51, 36, -15, -77, 9, 29, -78, -50, 26, 60, 33, -14, -76, -27, -50, 77, -48, -23, 75, -38, 70, -13, 18, 32, -71, -60, 65, -53, -43, -59, 65, 27, 8, 11, -4, 32, 9, 13, -80, -3, -21, -4, 2, 76, 21, -31, -7, -70, -72, 75, 37, 37, -77, 49, 17, -36, 24, -9, -48, 0, 34, -30, 70, -59, 29, 57, -34, -9, 16, -61, -3, 1, 46, 68, -16, -68, -19, 50, -55, 39, 33, 79, -21, 75, 6, -20, -69, -78, -52, 31, 80, -45, -23, 6, -49, -15, 78, 23, -55, -73, -55, 43, -4, -13, 25, 23, -50, -9, -64, -80, 22, 41, 62, 21, -41, 56, 18, 39, 0, -20, -58, 64, -52, -33, 62, 74, 37, -16, 17, 3, -29, -75, 42, -35, 5, 13, 29, -16, 31, -3, -71, 47, -20, -47, -47, 32, -6, 31, -49, -74, -41, -73, 14, 0, 0, -77, -4, -56, 18, -12, -67, 44, -40, -77, 36, 58, -2, -27, 60, 2, 48, 68, 69, -73, 46, 4, -7, 53, -69, -27, -26, -33, 52, -70, -11, -2, 50, 27, 73, 2, 73, 45, 57, -65, 64, 44, 0, 37, -7, 40, 35, 72, 69, 37, 16, 36, -20, 26, 37, 37, 76, -14, 71, -79, -25, 11, 5, -69, -50, -11, 51, -24, -6, 68, -11, -79, -59, 49, -8, 48, -68, -63, -75, -44, -44, 61, -68, 35, -74, -61, -50, -14, -5, -63, -17, 68, -51, 21, 66, 59, 0, 70, -77, -74, 18, -14, 49, 15, -36, 12, -66, -75, -64, -57, -63, 47, 28, -10, -65, -63, -18, -76, 18, 37, -38, 78, 64, -64, 60, -77, -30, 76, -60, 11, 10, -63, -35, -31, -70, 0, 49, -36, -23, -34, 76, -24, -68, 2, 29, 44, -57, 55, -15, -47, 30, -79, 76, 27, -32, 11, 79, 71, -4, 8, -10, 58, 41, 22, 27, -43, -51, -63, 23, -77, 18, -19, 67, -69, -65, 9, -22, 39, 14, -78, 21, -63, 26, 0, 68, -63, -51, -46, -52, 38, 77, 31, 42, 7, -78, 65, 73, 9, -63, -5, -30, -23, 21, 31, -27, 9, 14, 42, -69, 51, -69, -28, 59, -14, -78, -41, 70, -79, -35, 61, -76, 23, -53, -71, -16, -29, -75, -9, 42, -80, -66, -10, 33, -49, 1, -50, -74, -45, -30, 56, 22, 49, 10, -68, -34, 48, 62, 1, -12, 23, -52, -46, -51, 38, -78, -29, 37, -59, -6, -25, -61, -50, -73, -18, -50, -70, 78, -65, 54, -56, 56, 6, -22, -46, 42, -46, 48, 11, -1, 73, 8, -35, 27, 26, 63, -62, 41, 21, 59, 31, -8, 78, 15, 74, -1, -81, 3, -29, -25, -3, -31, -27, 60, 29, -43, 38, -50, -63, -58, 50, -38, -5, -77, 60, -54, 64, 57, 47, 16, -46, 77, -53, -69, -46, -41, 73, 60, -75, 39, -53, 35, -35, -64, -74, -58, -64, 8, 62, 28, -33, 47, 9, -17, -4, -72, 68, 51, 40, 40, -36, 31, 29, -10, 59, 46, 68, -79, 14, 67, 53, -55, -60, -31, 70, -51, -26, 7, 30, 48, 5, -24, 58, -1, -31, -3, 14, 9, -58, 75, -80, 76, 35, 40, 0, 36, 10, -56, 73, -11, -10, 16, -27, -51, 45, 53, 80, -74, 24, -48, -9, 8, 67, 66, -1, 78, 76, 67, -20, 42, -51, -56, 14, 0, 80, -32, 56, 44, -16, 32, -14, -39, 53, -2, 60, 23, -49, 38, 48, -11, 49, 20, -55, -8, 28, -71, 49, 70, -62, -34, 41, -11, 0, 18, -65, -58, 0, -37, -2, 25, 33, 40, 22, -31, -57, 29, -14, 37, -28, 15, 13, -25, -46, 6, -80, -80, 21, -4, -40, 76, -37, 80, -68, -42, 40, 78, -61, -70, 64, -71, -1, 19, -24, 2, 52, 16, -17, -69, -40, -2, 46, -63, 78, 80, -74, 11, -27, 8, -41, 70, 73, -37, -35, 62, 62, 75, -27, -12, 63, -6, -60, 3, -29, -2, 18, -67, -65, -60, -27, 47, 57, 67, -43, -69, 17, 33, -45, -63, -42, -10, 4, -64, 56, -69, -23, -23, -57, 59, 66, -45, -36, -51, -35, 52, -70, 35, 53, 2, -14, 31, 51, 73, -9, 77, 3, -11, -68, -41, 45, -74, -71, 23, -3, -33, -53, 34, -43, 52, 27, -58, 55, 46, 48, 53, -11, -54, -35, -15, -31, -50, 53, -69, -11, 34, -67, -10, -70, -41, -31, -24, -49, 30, 29, -40, 0, -47, -56, 66, -38, -51, -60, 35, 70, -18, 61, -1, 55, -56, -27, 54, 57, -37, 13, -22, 17, 77, -37, -31, -71, 65, -9, -55, -61, 41, -19, -24, -47, 18, 39, -79, 40, 76, 12, -65, 65, -36, 1, -12, -40, 32, -62, 25, 55, -33, 58, -67, 12, -67, 14, -23, -14, 57, 44, -45, 21, 66, -40, 23, -45, -6, -44, 36, -69, 16, 61, -26, -14, -41, -49, -44, 47, -36, 31, -4, -38, -22, -65, -1, 12, -62, 3, 27, 75, 64, -28, -30, 61, -80, -13, 53, -41, -49, -73, 8, 21, -79, -37, 20, -78, 21, 55, -22, 23, 44, -51, -79, -69, 13, 7, 73, -15, 9, -61, -8, -15, 19, 76, 23, 38, 71, -68, -60, 9, -72, 1, -42, 62, 28, -46, 62, 28, 1, 73, 28, 8, 52, -73, -14, -33, -34, -19, -49, 81, 1, -56, 79, -49, -33, -77, -57, 78, 73, -1, 19, -17, 7, 26, 32, 21, -53, -15, -66, 61, -54, 77, -7, -12, -75, -9, 66, -19, -33, -63, 4, -62, 69, 38, -22, -18, -60, -74, -5, -34, 36, -45, -23, -71, -77, 62, 70, -61, -72, 2, -12, -4, -58, 25, 44, 18, -79, -1, 26, 38, -73, -45, 68, 50, -74, -43, 43, -26, -2, -33, -35, -77, 2, 58, -24, -27, -72, 21, 61, -7, 4, 38, 29, 55, -79, 65, 21, 1, 14, -22, -15, -41, 21, 68, 60, -34, -52, 59, 10, 44, 20, -21, 58, -77, 54, 34, 22, -1, -78, 65, 63, 59, 22, -40, 48, 69, -51, -36, 40, -24, 10, 69, 26, 76, -26, 67, -30, -68, -27, 54, -16, -72, -49, 75, 80, 68, 38, 49, -19, 28, -40, 69, -70, -44, 51, 9, 47, -41, -19, -80, -14, 18, -49, 17, -9, 21, 17, -77, 8, -33, -57, 77, -73, 30, 42, 39, 54, 21, 26, 75, 40, 74, 28, -67, -24, 0, -13, 19, -73, 52, 50, 24, 19, 61, -41, 23, 35, -15, 49, 10, 28, -77, -71, 32, -80, 24, -7, 29, 27, 31, 69, 78, 20, 20, 37, -70, -32, -12, 48, -56, -46, -67, -22, 48, -29, 28, -18, 36, -78, -79, 12, -48, -52, 57, 64, -41, 57, 24, -72, 49, -33, -62, -61, 55, -11, -8, -77, -77, -55, 55, 61, -31, 6, 27, -32, -47, 22, 33, 68, -75, -67, 53, -63, -38, -79, 66, 74, 64, 36, 59, -59, -36, 1, 63, 45, 56, 7, -50, -32, 12, -63, -60, -25, -57, -1, 43, 61, 20, 2, -25, -74, -60, -38, 17, -55, 75, 40, 5, 2, -4, -75, -43, -30, -4, 77, 69, 68, -56, -78, -32, -43, 28, -74, -18, 9, -68, -49, -67, 7, -63, -80, 20, 68, 46, -12, 28, 56, -44, 16, 24, 6, 34, -39, 26, 14, 71, -55, -10, -31, -14, -1, -3, -38, 37, -51, 45, 22, -70, 59, -56, 33, -70, 37, -35, -51, -49, -11, 13, 21, -66, 9, -22, 30, 18, -59, -1, 53, 20, 22, -11, 15, 16, 50, 63, 25, 51, 10, -80, -38, 35, 57, 80, 19, 52, 66, 21, 42, 70, 67, 18, 8, 20, -48, -50, -72, 45, 69, -28, 0, 31, -58, -63, 22, 56, -5, 4, -74, -57, 13, 71, 48, -28, -42, -39, 4, -56, -35, 13, -34, 72, 28, 56, 68, 34, 73, 41, -5, 36, -3, 10, 25, 21, 31, -23, -60, 48, -45, -74, 65, 37, 34, -41, -71, 64, -29, 35, -63, 64, 7, 0, -33, -79, -19, 69, 57, -25, 31, -21, -39, -51, 4, -40, 6, -26, 20, -68, 43, 68, -24, -80, -49, 74, 69, -24, 37, -22, 31, -12, -78, -32, 67, -60, 57, 71, -79, -2, 39, 52, 67, 46, -9, 52, 5, -62, -12, 29, 50, -51, 52, -22, 31, 16, 36, -2, 31, 3, 68, 53, -55, 20, 15, 69, -38, -52, -78, 36, -77, -2, -54, 46, 10, -46, 75, 66, 14, 55, 39, 76, 68, -12, 53, -46, 15, 54, 67, 49, -53, 72, 56, -36, -72, 55, 39, 42, -24, -31, 48, -7, -67, 15, -59, 20, 22, 29, -6, 33, 46, -12, -77, -69, -26, -58, -54, 53, 5, -56, 39, 79, 64, 11, 63, 48, -46, 11, -49, -24, -57, -75, 20, 10, -41, -15, -74, 36, -12, 73, 58, 12, 27, -28, 20, -43, -11, -33, 14, 6, -25, -28, -66, 46, -62, -5, 33, -54, -30, 40, -55, -35, 68, -45, -35, 62, -35, -72, 40, 44, -79, -54, -60, -12, 46, -34, 77, 5, -14, -14, -11, -52, 50, 22, -45, -70, -64, -61, 77, -4, -58, 42, 9, 19, -44, 27, 18, 17, -37, 5, 3, 53, 47, 18, -71, 23, -12, -61, 39, 78, 2, -20, -68, 63, 30, -68, -34, -10, 22, 25, -78, 40, 25, 65, -75, 63, -65, -12, -79, 29, 46, 30, 44, -78, 67, 24, -77, -4, 27, -11, -36, -73, -38, 65, -46, 15, -23, -23, 40, -4, 30, 49, 0, 47, 17, 59, 15, 53, -19, 28, -30, 5, -22, -75, 30, -26, -4, 38, 35, -4, 36, -78, 52, 35, 20, 21, 42, 53, 28, -30, 31, -66, -77, -80, 33, -10, -65, -7, -72, -19, -72, 46, 55, -76, -25, -76, 31, -22, 77, -11, 25, 71, -31, -48, -36, -32, -35, -64, 74, -73, 80, -72, 71, 3, 16, 79, 51, -72, -16, 66, 23, -49, -71, -61, -46, -57, -63, 19, 25, -73, -2, -10, 2, 63, -58, 74, -63, -57, 5, 3, -62, 29, 53, 51, 71, 20, -42, -3, -71, -20, 34, 61, 1, -79, -48, 68, -2, 44, -47, 31, 19, -16, 28, -13, 46, -52, -48, -24, 14, -27, 63, 39, 61, 67, -1, -7, 18, -72, 57, -14, 15, -65, 26, -62, 2, 32, 62, 24, -53, -35, -62, -28, 21, -39, -73, -26, 26, -17, 18, 36, -67, 25, -67, -46, -2, 72, -69, 57, 35, 28, 52, -61, -67, 45, 0, -75, -28, 35, 49, 60, -46, -63, -13, 78, -43, -30, -40, 38, 7, -49, 58, -32, 66, 37, -26, 57, -67, 65, 45, 67, -71, 68, 64, 71, -44, -45, 4, -64, 23, -65, 77, 9, -78, -41, 43, -16, -12, -7, -80, 24, -48, -59, -80, 37, -30, -3, -42, -33, -62, 78, -8, 29, -26, -50, -33, 19, -23, 25, 58, 62, 34, 4, -73, 24, 74, 40, 51, -20, 50, 50, -16, 28, 62, 15, 56, 6, 30, -34, -74, 43, -42, 26, 79, 29, 75, 12, -76, 80, 3, 3, 29, -28, 75, 1, 14, -80, -42, 73, -76, 80, -43, 34, 56, 76, -50, 42, 46, 5, -46, 50, -37, 22, -36, -66, -6, -71, -63, 53, -79, 10, -62, 33, 56, 44, -9, 56, 34, 37, -41, 0, -43, 41, 60, 10, -73, -77, 54, -5, -44, 52, 63, 78, -76, -72, -35, 51, -43, 60, -70, 74, 65, -2, -52, 32, 63, -17, 5, -60, 25, -16, 56, 29, 5, 75, 36, -11, 29, -3, 10, -2, 72, -2, -22, -66, 34, 3, -65, -16, 17, 77, 78, -31, -57, 30, -38, -65, 5, 47, -32, 1, 59, -48, -72, 57, -63, 37, 27, -17, 9, 11, -73, -37, 0, -76, 37, -32, 47, 57, 7, 73, -32, 45, 8, -4, 65, -41, -13, -72, 79, 40, 59, -34, 38, -37, 69, 38, 72, 54, -13, -42, -22, 77, -36, -40, 56, 35, -26, -47, 44, 43, 63, 52, 17, 13, 25, -39, 5, -30, 61, 39, -45, 75, 71, 76, 43, -40, 7, 54, 41, -54, 21, -70, -5, 68, 80, -15, 18, 42, -61, -78, 38, 53, 12, 55, 75, 46, -44, 21, 33, -55, 47, -36, 26, 74, -22, 28, -51, -80, 30, -30, 63, 30, 22, 37, -19, -30, 21, 57, -63, -27, 28, 47, 7, 74, 43, -31, -51, 67, -2, 24, 54, -69, 67, -45, -28, 66, -26, 74, -6, -55, 59, 74, 49, 74, 9, -61, 61, -9, 12, 7, -3, -57, 78, 15, -52, 80, -76, 17, -42, 26, 57, -63, 3, 71, 80, -36, -25, 47, 17, 62, 38, 36, -58, -4, -55, 64, -67, 34, -57, -28, -34, -72, -6, 34, -31, -17, -40, -58, -22, -68, 26, 44, 5, -50, 9, -12, 14, -24, -12, -59, 52, -8, 40, -64, -17, 76, 58, 5, -10, -65, -74, 10, 63, -19, 26, -59, -79, 49, -33, 11, -70, -68, 77, 29, 65, 14, 46, 40, 11, -5, 29, 11, -71, 56, -12, -9, -34, 15, -25, -9, -59, 54, -40, -69, -2, -22, 57, 68, 40, 66, 66, 22, -55, -39, -51, -3, -51, -9, -76, -19, 66, -1, 56, 28, 20, -5, -22, 20, 48, -28, -58, -28, -37, -7, -20, -38, 11, 53, -11, 18, 26, 44, -20, 7, -67, -75, 55, -7, -32, -31, -77, 8, 74, 0, 20, -40, 61, 39, 54, 46, -29, -51, 34, 68, 46, 16, 47, -67, 72, -31, -3, -19, -79, 2, -53, -42, 19, 26, 52, -44, 6, 60, -35, -54, 1, -66, -17, 61, -14, -71, 32, 77, -34, 45, -49, -51, 71, -39, -80, -58, 59, -78, 6, -57, -9, 49, 28, 15, 40, -6, -20, 35, 78, 57, -60, 77, 70, -44, 17, 2, 38, -50, -53, -69, -65, 39, 43, -52, 62, 52, -63, -31, -9, 17, 62, -48, 72, -45, 31, -74, 45, -37, 55, -78, -6, 54, 43, 79, 49, -70, 27, 12, 53, 9, -61, -72, -63, 51, -12, 28, 80, -71, -26, 81, 11, 49, 42, 40, -51, 33, -61, 38, -21, -35, 42, -16, -12, -17, 59, 61, 68, 48, -56, -38, 20, -37, -67, 3, 9, -9, -37, 3, 8, 66, -59, -10, -70, 17, 58, 16, 74, -51, 59, 21, 59, -46, 43, 77, 56, 52, 2, -25, 72, -71, 39, -11, -23, -67, -48, -62, -20, 54, -6, 41, -64, -58, -74, 67, -51, 5, 4, 27, 19, -78, -42, -78, 36, 38, -27, -58, 47, -74, -74, 25, 19, 74, 11, -18, 39, -45, -27, 17, 28, -38, 14, -70, -61, -80, 19, 33, 21, -30, 9, 40, -77, -20, 5, -33, 65, -3, -19, -55, 3, -37, -66, -20, -78, -40, -52, -51, -33, -58, -9, -61, 37, 65, 39, 53, -40, 30, 50, -4, 24, 33, -78, 38, 40, -45, -69, 23, 79, -41, -74, -50, -39, 24, -18, 35, 6, 7, -47, -58, 76, -77, -63, -26, 12, -37, -62, -58, -17, 66, 67, -50, 79, -40, 56, -34, -32, 46, -40, -33, 75, -41, 76, -44, -7, 42, 34, 0, -24, -16, -3, 28, 33, 65, -77, -66, -53, 75, 9, 2, -22, -75, 72, -2, -8, 25, 31, 54, 32, 36, 74, -70, -32, 76, -49, 36, -40, -36, 75, 77, 79, -8, -10, -53, 77, -11, -68, 72, 16, 72, 70, 33, -11, -56, -9, 35, -14, 66, 62, 39, -31, -33, 55, 73, 4, 52, -34, -31, -27, -3, 7, -23, -76, 40, -6, 8, 76, -67, -59, -53, -10, 43, -59, -56, -7, 51, 32, 73, -69, -37, -46, -51, -76, -1, 79, -66, 45, 23, -53, -1, -49, 23, 40, 6, 32, 33, -13, 27, -64, -74, 54, -35, 69, 78, 0, -58, -40, 26, 51, -23, -44, 69, 37, 57, 64, 47, 51, -7, -23, 74, -70, -45, 77, 74, 51, -12, 79, -34, -14, -26, -76, -80, -62, -19, 65, 22, 78, -26, 27, 51, 11, 68, 49, -6, 59, 28, 71, -69, -54, 35, 71, -28, 65, -76, 40, -28, -72, -34, 17, -80, 66, -32, 3, 41, 2, 0, -76, 20, 13, 80, 76, 47, -65, -11, -56, 10, 54, 34, -13, -80, -3, -37, 39, 49, -52, -26, 55, -70, 68, -40, 6, 66, 45, 49, -43, 26, -55, 49, 38, 28, -40, 7, -78, 69, 56, 50, -53, -35, -6, -58, -42, 45, 60, 74, 16, 28, -3, 40, -77, -51, -28, -60, -22, -16, -80, 60, 8, 18, 37, 48, -48, -66, 55, -47, -9, 10, 27, -67, -14, -39, 42, -20, 69, -66, -9, -64, 58, 30, 19, -34, -54, -78, -23, 76, 8, 41, -6, 65, -29, 50, 76, -34, 13, 80, 64, 45, -80, -61, -79, 34, 48, 12, 55, -30, 35, 9, -28, 4, -67, 15, -68, 24, 44, -73, 49, -7, -62, 71, 47, -15, -77, 41, -39, 15, -63, -21, 27, -32, 16, 2, 67, 70, -77, -17, 46, 77, 53, 25, 54, 50, -52, -1, -16, -2, -57, -76, 20, -15, -69, 70, 41, 45, 44, -7, -3, -80, 12, 49, -43, -26, 75, 25, 60, -53, -67, 4, -59, -34, -64, 22, -47, 58, -58, 15, -16, 21, 50, 56, -59, 67, 42, 16, 22, 10, 37, 25, -61, 29, 4, -48, 39, 35, -16, -10, -74, -48, 17, 36, 80, -36, 57, 58, -22, -77, -33, -23, -67, 73, 72, -74, -21, 70, -33, 43, -50, 51, 18, 46, 46, -24, -43, 52, -44, 17, -23, -21, 7, -41, -7, 23, -80, 31, 10, -49, 75, -32, 3, -24, 29, 33, -10, 12, -76, -32, 1, 65, 19, 10, 18, 23, -26, -67, -55, -46, 51, 19, -51, -58, -35, -69, -54, 61, 58, 6, -24, -67, 52, -18, 18, -28, 72, 38, 2, 58, 70, 34, 5, 11, -25, -39, -57, 7, -62, -14, -79, -38, 43, 35, 49, -55, -10, -20, -22, -49, -75, 45, 48, 28, 32, -9, -66, -14, 47, -47, -8, -10, -28, -74, 66, -75, 16, -31, 63, 29, -13, -56, 26, 23, -26, -79, -48, -15, 57, -30, -3, -25, 7, 60, -30, 23, 1, 19, 28, -30, 34, -71, 25, 51, 30, -16, 56, 61, 28, 67, 79, 67, -17, -13, -19, 49, -52, -4, 30, 71, 73, 80, 46, -44, 79, 15, -80, -44, 15, 77, 9, 17, -3, 7, -21, 66, -8, 76, -72, 58, -2, 77, 17, 4, 55, 58, -12, 52, -73, -46, -3, -13, -17, -13, -37, -23, 55, -4, 79, -59, 2, 31, -44, 29, 56, -51, 41, 2, -50, 48, -50, -70, -40, -27, 23, -3, -27, 14, -51, -21, -1, -71, 75, -66, -57, -34, -70, 39, 75, 70, 50, -75, 27, -19, -48, -57, 17, -50, -37, 19, -20, 77, -25, 33, -43, -44, -47, -42, -19, -21, 38, -57, -22, 52, 12, -8, -52, 38, -18, -27, -39, -15, 54, 13, -24, -6, 5, 54, 38, -40, -32, 63, 67, -38, -55, -79, 66, -16, -10, -52, 38, 65, -1, -77, 64, -61, -21, -52, 42, -32, 53, -57, 11, -80, 23, 62, 13, -5, 57, 72, -40, -10, 75, 6, -56, 79, 58, 68, 63, -17, 21, 2, 16, 78, 23, 73, 27, 60, -20, -44, -79, 18, -65, -45, -75, -15, 39, 35, 76, 47, -18, 5, -69, -57, -13, -9, 20, -27, -73, 38, 33, 5, -55, 68, -14, -29, 15, 80, 43, 56, 66, -41, 5, 36, -29, -8, 32, -63, 30, -75, 72, -75, 70, 66, 28, -48, -45, 71, -27, 17, -21, -47, 75, -51, 23, -41, -68, -7, -26, 34, -42, 15, 3, -50, 19, 49, -79, -47, 75, 5, 17, -4, 64, 1, 77, -3, -72, 33, 73, 4, 64, -59, -37, 36, 20, -74, 66, -28, 34, -79, 44, -17, 6, 77, 18, -22, -10, -24, -80, -67, -19, 58, -79, 51, 52, -44, 36, -49, -64, 13, 75, -71, 20, -4, -28, -62, -47, -52, 32, 13, 30, 24, -73, 51, -13, -19, -12, -16, -17, -26, -25, 65, -18, 78, 4, 28, -5, 51, -58, 68, 21, 71, -53, -13, -63, 30, -55, 76, 2, -67, 41, 27, 28, -39, 49, -63, 12, 4, 7, -79, -57, -38, 26, -78, -26, -41, 77, -25, -17, -45, 38, 75, -11, -48, 69, 38, -50, -39, 81, 11, 8, 12, -16, 35, -75, -28, 13, -72, 48, 48, -57, -22, -77, 52, 59, -41, 78, 54, -7, 14, 52, -14, -43, -10, -47, 23, -62, -11, -73, 53, -65, -42, -78, -34, -52, 37, -49, 28, 32, -68, -13, -12, -74, -22, 69, 32, -28, 29, 64, 42, -56, -72, -37, 15, 47, 52, -53, 60, -6, -67, 71, -22, -23, 49, -42, -10, -46, 55, 32, -71, -16, -34, 68, 78, 77, -31, 75, 8, 10, -71, 9, -51, -17, -6, -29, 42, -40, -51, -37, 57, 2, -45, -58, -26, 43, -50, -20, -73, 32, -30, -80, 2, 33, 34, -65, 77, -10, -18, 36, 61, -64, -41, -56, 72, 67, 57, 55, -47, 43, 34, -45, -43, -29, -9, 40, -50, -8, -78, -55, -19, -52, -57, -5, -63, 66, 72, -36, 41, 2, -58, -41, -55, 28, -24, 1, -80, 27, 69, -32, -44, 78, 58, -48, -17, -66, -56, 54, -72, -17, 42, -44, 45, -73, -74, -65, -45, 36, -57, 52, -58, 0, 53, 1, -75, 27, -57, -45, -13, -48, 22, 62, -49, 32, -13, 66, -63, 76, -7, 5, -49, 13, -64, 79, 2, 55, -78, 66, 2, 26, 42, -42, -10, 64, -32, 12, 40, 40, -23, -21, -57, 55, -17, 19, -40, 44, -58, -50, 45, 76, 0, -74, -11, -80, -16, -17, 65, -80, 63, 75, 50, 64, 2, -36, 22, -64, -30, -39, -53, 66, 13, 52, -39, -24, 59, -60, 57, 69, -49, 29, -38, 66, 40, -30, 17, -8, 42, -56, -66, 40, 44, 37, -24, 66, 16, -62, -33, 3, 22, 34, -2, -8, 54, -18, 28, -59, -52, -52, 16, 56, -62, -6, 54, -23, -55, -66, -3, 39, -4, -49, -7, -12, 42, 60, -23, 80, 81, 40, -64, -7, 72, -70, -12, 68, 2, 49, -48, 35, 79, -31, -53, -74, 27, -18, 12, 11, 38, 61, -23, 38, -5, 67, -42, -20, 43, -16, 62, 61, -39, -4, 31, 14, 57, -41, -54, -60, 31, 81, -21, 43, -56, 35, 25, 12, -44, -33, -45, 71, -51, 66, 27, 77, -71, -15, 64, -18, 47, 37, -79, -54, 40, 80, 36, -37, -56, -1, -64, 8, -73, -5, 2, 30, 10, 53, 77, 36, 16, -65, 27, 51, -66, 52, 9, -8, -51, -31, 15, 9, -12, -15, 66, -34, -78, 40, -62, 41, 34, -29, 8, -17, 0, 36, 17, -27, 53, -47, -42, 74, -45, 61, 60, 44, 50, -31, 47, -27, 56, 67, -20, 52, 4, 80, 2, -67, 4, 21, -51, 17, -3, 5, -32, -8, 16, -36, -2, 10, -44, 7, -64, -40, 39, -12, 79, 47, 5, -59, 6, 68, -36, -46, -50, 28, -12, 5, -75, -69, -13, -22, 13, 73, 18, 50, 1, 80, 30, -54, -25, -38, 7, -6, -35, -57, -26, -17, -3, -37, 49, 57, -59, 27, -55, -57, 73, 62, 38, -70, 59, -40, -1, 71, 53, 48, 49, -55, 21, 32, -4, 13, -45, 28, -36, -15, 43, -66, 12, 80, -57, -8, 61, -58, 64, 81, 12, 45, 46, 27, -17, -45, 40, 28, -49, -77, 3, 4, -53, -23, -56, -41, 14, 11, 52, -50, -40, 17, 55, 58, -25, 5, -22, -10, 34, -56, -22, -27, 55, 78, 35, -8, -67, -47, 58, -32, -78, 69, 32, 41, -60, 68, -6, -34, 75, -58, -33, -33, 14, 70, 25, 70, -57, -71, 76, -64, 11, 32, 71, -58, 66, -64, -38, -36, 18, -68, -19, -39, -73, -74, 7, 45, -42, 5, -46, 31, 31, 60, 33, -48, 59, 12, 9, 68, 23, 64, -27, -32, -47, -15, -67, 2, -77, 19, 33, -43, -42, -25, 54, -13, -22, -3, 63, 60, -64, -68, -65, 70, 18, 64, -24, 33, 40, -49, 55, -31, 62, 2, -76, -8, 56, 62, -24, -71, -75, -64, -74, -3, -52, 24, -56, 79, 8, -19, 55, 45, 51, -35, -13, 47, -61, 50, 54, -73, 55, -55, -55, 34, -73, 30, 11, -72, 74, 31, 35, -26, 1, 69, -35, -5, 35, 79, -57, 22, -34, 57, -69, 40, -39, -7, -49, 64, -17, 13, 77, -46, -31, -56, -75, 4, 15, 27, 60, -6, 12, -36, -43, 43, -43, -37, -64, -2, -14, 0, -51, 8, 33, -60, -11, 29, 43, 46, -76, -8, 20, 42, -42, 11, -46, -41, -4, 26, -14, -3, 6, -70, 16, -80, 36, 68, -74, -43, -36, 15, 18, 67, 1, -56, 69, 64, 55, -33, -28, 9, -60, 11, -26, 18, -28, 63, 67, -63, -21, 26, -64, -34, 56, 14, -41, -47, -77, -7, 70, 7, 63, -80, -68, -42, 46, 47, 43, 35, 73, -67, -70, 6, -40, 41, 36, -4, 44, 62, 10, -2, -55, 68, -48, 8, -50, 79, -32, -6, 7, -45, -54, -72, 48, -53, -54, -67, -39, -15, 33, -72, -37, -15, -47, -60, -47, -15, -68, 48, 28, 1, -5, -47, -42, 63, 12, 35, -17, -70, 63, 43, 71, 46, -11, -15, -12, -45, -56, 6, 22, -30, 48, 66, -65, -54, 52, 59, 31, -70, 52, -46, 65, 11, -79, -29, -74, -79, 23, -45, -8, -56, -74, 36, 51, -48, -48, 31, 72, 74, -26, -78, 40, -42, -59, 51, -12, -79, -1, -16, 18, -69, -10, 68, 64, 34, 37, -76, -50, 18, -78, -2, -46, 63, 37, -6, -44, -24, 43, -14, 72, 77, -55, 54, -59, -48, 41, -72, 21, 68, -79, -14, -16, -44, -59, 58, 39, 18, 63, -47, 28, 3, 40, 35, 66, -2, 9, 5, -34, 28, 61, 20, 62, -65, 9, 9, -53, 39, 66, -42, -62, -25, 55, 55, 57, -8, -14, 71, -35, 11, 1, 46, 76, 42, 26, -69, -10, -56, -70, 53, 53, 61, 39, -47, 55, -76, 54, -72, 74, -75, -20, 49, -1, 19, -65, -66, -39, 16, 69, 34, 46, -35, 54, -53, -60, 33, -78, -22, -45, 24, -34, -9, -61, -65, -52, -4, 57, -10, 77, -17, -73, -15, 15, -48, -5, 38, -54, -9, 43, -61, 16, -1, 13, 6, 30, -34, -34, 50, 64, -49, -9, 16, -49, -46, -52, -2, 62, 31, 45, -52, 68, -48, 34, 2, -37, -51, -29, 63, 29, 20, 28, 32, 13, -35, -50, -66, 37, -53, -49, -3, -68, -34, 42, -73, -55, -15, 80, 55, -76, -52, 16, 35, -36, -79, -14, -28, -6, -72, -38, -67, 50, -34, 21, -52, 42, 8, 69, 15, 25, 14, 55, 26, -21, -21, -35, -14, 60, 70, 35, 19, -52, 10, 72, 74, -21, 31, -44, 4, -54, 1, 27, -3, -18, 44, -76, -38, -2, -1, 61, -59, -26, -44, -20, -77, 21, 11, 58, -46, -75, 54, -61, 58, 18, 18, 68, -72, -12, 69, -41, -8, 46, 39, 19, -51, -23, -32, 35, -36, 60, 45, -77, 44, -53, 8, 53, 33, 24, -72, 5, 12, 80, 59, -39, -45, -56, 17, 50, 67, -52, -68, 34, -70, -75, -2, -72, 54, -40, -9, -67, -6, -45, 24, -20, 61, -20, 59, 78, 29, -46, 63, 25, 44, 38, 45, 16, 12, -7, -52, -49, -52, 31, -71, -20, 74, 20, -12, -60, -22, 53, -76, -80, 32, -52, 31, -72, 13, 65, -72, 74, 44, 75, -39, 50, -5, -37, -19, 8, -41, -11, -24, -7, 54, -79, 37, -67, -7, 25, 78, -2, -34, -7, 12, 68, -68, 67, 70, 11, 75, 78, -24, -6, 36, 14, 33, -51, -28, -28, -42, 33, -72, -40, -25, -15, 69, -5, 30, -57, -45, -61, 47, -38, 14, -69, -73, -69, 68, 77, -62, 53, -64, 57, 45, -27, -66, 14, 54, 18, 3, 13, -44, 66, 66, -61, -65, -30, -50, 31, -59, 44, -34, -33, -78, 78, -42, -61, -27, 33, 34, -20, -75, 44, -19, -44, -45, 58, 64, 53, 79, -38, -18, 43, -65, 39, 65, -45, -50, -18, 32, 42, 6, -40, 64, -19, 56, -19, 9, 34, 52, -10, -74, 12, -62, 34, -28, 40, -13, 72, 80, -51, 0, 36, 15, 7, -31, -36, -30, 73, 72, -5, 5, -26, 66, -4, 78, 7, -17, 41, 15, -75, 50, 46, -74, -76, 25, -66, 65, 18, -15, 38, 48, 8, 22, -75, 78, -23, -73, 4, 47, -27, 63, -29, -6, 28, 72, -57, 13, -69, -8, 51, -32, 47, -64, 25, -45, -38, 73, -72, 8, 10, -74, -15, 70, 80, 16, -8, 55, -59, 6, 37, -30, -9, -48, -70, 23, 64, 32, 38, -51, -30, 3, 37, 50, -48, 60, -62, -10, 10, -52, -61, -18, -3, -15, -30, -65, -46, -33, 33, -60, 12, -73, -40, -35, -72, 55, -21, 13, -17, 55, 80, -29, 64, -37, -67, -75, -51, -72, -39, -31, -12, 42, 33, -26, 38, -29, 1, -15, 49, 24, 51, -16, -45, -63, -49, -69, 23, 19, 48, -25, -40, -38, -58, -67, 41, -29, -23, 18, 41, 66, 29, -64, 80, -15, -11, 10, 7, -69, -24, 23, -18, -72, -2, 25, 23, 26, -12, -58, 53, 35, 2, 62, -61, 66, 57, 3, 67, 6, -43, 63, 41, 43, -20, 42, -20, 46, 70, 13, -53, 25, -25, -32, -55, -58, -13, -71, 50, 65, 26, 36, -45, 59, 68, 56, -69, 12, -1, 14, 44, 5, -35, 33, -37, -56, -27, 39, 44, 58, 44, 7, -3, 43, 8, -47, 17, 62, 55, -64, 76, -77, -28, 30, 20, -56, 61, -20, -64, 33, 62, -48, 59, 17, -24, 56, -2, 41, -1, -25, 0, -28, 2, -31, -32, -50, 28, -13, -18, 50, 17, -74, 70, 77, -72, -65, -12, 41, 59, 53, 76, -20, -75, 53, 56, -44, -31, -21, -41, -2, 76, -78, -37, 23, -67, 5, 67, 34, -68, 11, -16, 10, -18, -21, 63, -68, -41, 28, -6, -47, -39, -74, 1, -65, -51, -60, -55, 3, 65, 49, -56, 25, 20, 21, 3, 32, 34, -17, -45, 15, -40, -73, 44, 10, -65, -49, -37, -69, 77, -77, -35, -53, -1, 69, 5, -73, -3, -18, -70, 19, -3, -69, -59, 36, -50, 70, -60, 14, 55, -76, -73, -40, -59, 50, -7, -37, 26, 28, -8, 32, 30, 16, 80, -47, -29, 45, -3, 20, 61, 73, -25, -32, 17, -23, 67, -58, 21, -65, 37, -67, 75, 62, -58, 75, -34, -71, 44, 70, -79, -54, 57, -45, 23, 61, -48, 4, -36, 34, -41, -50, -51, -47, -2, -73, 13, 70, 51, -30, -64, -38, 8, -67, -54, 47, -33, 38, 70, -67, 30, 49, -21, -68, 73, -78, 63, -34, 16, 12, -33, 47, -3, 12, -36, 48, -4, -66, -50, 9, -80, 69, -51, 28, -21, 64, -80, -65, 74, 55, -55, -17, -1, -19, -42, 79, 34, 19, -66, 30, 38, 14, -37, 5, -34, -12, -72, 76, 24, -69, 68, 59, -36, -5, 6, 69, -80, -74, -40, 11, -33, 67, 68, 66, -10, -59, -71, -76, -26, 24, 48, 17, -60, 30, -39, -21, 29, -14, -78, 2, 18, -55, -30, 16, 28, 7, -6, -56, -32, -69, 74, 44, 67, 27, -60, 2, 28, 57, 33, 76, 21, 53, -61, -13, 23, 76, -15, -10, -38, 11, -31, -43, 68, 38, -49, 48, -77, -67, -73, -21, -64, -26, 56, -41, 15, -37, 53, -29, -79, -69, 13, 76, 47, -66, 5, 33, -50, 53, -46, 51, 80, 56, -77, 19, -35, -45, 75, 58, 36, 31, 75, -14, -10, -76, -26, -1, -15, 56, -72, 27, -36, 11, -60, 25, 24, 1, -11, 66, 72, 71, 73, -57, 58, -38, 39, -77, 25, -41, 8, -78, 75, 19, 80, 9, -49, 46, 25, -42, 63, -20, -32, 36, -39, 78, -48, 7, -35, -49, -29, -71, -9, 78, 6, 47, -12, -67, 41, -52, -53, -62, 80, 69, 40, 5, 54, -75, -22, -19, 20, -77, 27, -1, -15, 3, 57, -57, -25, 58, 26, -38, -14, 4, 78, -45, -72, 20, -19, -42, -22, -71, 1, 76, 39, -58, 18, 57, -19, 17, -12, 65, 75, -77, -7, -24, -18, -60, 61, 17, 36, 66, -77, -22, 42, -47, 6, -65, 33, -10, 25, 75, 16, -48, 1, -40, 28, 70, -21, -14, -8, 37, -67, 13, -46, 67, 29, 12, -30, -31, 55, -13, -24, -67, 29, 72, 77, -51, -70, -67, 59, -68, -65, 75, 37, -34, 26, -72, 70, 20, 67, -10, -47, -48, -25, 3, 29, 66, 8, -19, -24, 50, -42, 69, -16, -62, -42, -29, -22, -37, -80, -2, -43, 12, 47, -35, 70, 21, 2, 17, -75, 46, -45, 2, 78, 60, -58, 74, 41, -67, 9, -63, -47, 47, -9, 53, 52, 3, 27, -18, -76, 37, 19, 44, 6, -51, 50, 38, 43, -27, -38, -5, -39, -67, 49, -21, 72, -73, -77, 72, -64, -34, -67, 76, -68, -16, 2, 42, -43, -34, -11, 77, -50, -39, 36, 5, -17, 32, -42, -58, 27, 40, 15, -45, 7, 50, 5, -9, -49, -4, -38, -9, -22, 40, 65, -14, -70, 75, -30, 17, -77, 15, -68, 3, 73, 52, 40, -20, 28, 69, 19, -58, -42, 56, 24, -22, 2, 46, 27, -9, 7, 57, 58, 11, -28, -77, 60, -44, -31, 68, 74, 73, -45, -46, -6, 13, -68, 53, -35, -27, 63, -40, -48, 0, -75, 44, -19, 38, -52, 10, -20, 62, 1, 11, 77, 57, -48, 28, 7, 4, 22, 1, 39, 8, -5, -71, -44, -78, 63, -4, -50, -77, -79, -9, 6, 24, 13, 47, -33, -26, 72, -9, 50, -66, 6, 52, 9, 45, 34, -18, -42, -26, -22, -11, -52, 41, -55, 3, -14, 38, -51, -14, 34, 64, -14, -48, 71, 78, 65, 50, -8, 14, 6, -15, 65, 69, 2, 53, 71, 63, 33, -59, 44, -78, 18, 49, -77, -55, 4, -62, -16, 40, 42, 59, 12, -68, 27, -70, -39, -69, 62, 10, 24, -49, 0, 52, 77, 29, 56, -10, 48, -60, 36, -54, 2, 15, 18, -16, -71, -13, 34, -27, 75, -37, 3, 39, -68, 49, 40, 41, 4, 18, 70, 32, 75, 63, -45, 46, -72, -47, 61, 18, 35, -70, -68, -58, 30, -17, -58, 79, -36, 65, -53, 22, 60, -56, -70, 57, 35, -78, 8, -22, -5, 61, 20, -15, 79, 42, -15, -28, -41, 10, 4, -56, 35, -31, 76, -16, -1, -69, 68, 71, 63, -11, 3, 45, -58, -61, 51, 12, 3, -74, -60, 37, -29, 45, -73, -74, 33, 27, -56, 27, 73, 12, 56, -43, 48, -54, 11, 75, -52, 24, 49, 28, -34, -31, -11, -41, 75, -48, -71, -67, -32, 66, 35, 19, 41, -30, 59, -8, 77, 12, 72, 38, -47, -67, -70, 26, -56, 1, 74, -66, 40, 63, -77, 38, 56, 78, 78, 4, 25, 65, -3, 7, -19, 52, 4, -70, 63, -72, 69, 39, 26, -50, -59, -12, 45, 11, 55, 45, -42, -36, -56, 9, 21, 62, -12, -55, -5, 37, -41, 51, 52, 5, 77, -69, -17, -70, -38, -21, -68, -5, 77, -27, 48, 38, 73, 38, 12, -33, -75, 27, -67, 7, 60, -80, 53, 19, 29, -30, 52, -77, -56, 77, 18, -38, -13, 28, -6, -47, 64, -19, 72, 72, -69, -76, 21, 53, 45, -43, 75, 23, 66, -65, -33, -69, 24, 73, 24, -47, -50, -7, -65, -39, 43, -30, 49, 32, 34, -22, 75, 25, 73, 62, 52, -41, 33, -64, 80, -9, 62, 8, 46, -6, 15, 58, 54, 32, 4, -23, -35, -15, -62, -28, 72, -62, 38, 21, 49, 8, -23, 58, -69, -76, 68, -73, -16, 74, -7, 56, 31, -44, 25, -11, 57, -80, -50, -60, -44, -71, -8, -46, -2, 21, 11, -54, 49, 23, -71, -70, 69, 62, -45, 40, 49, 49, 72, 13, -29, -63, -10, 25, 26, -24, 20, 50, -54, -1, -10, 62, 0, -50, -45, 48, 2, 55, 29, 65, -14, 13, -62, -7, 10, 48, 62, -72, -59, 50, -52, -44, 76, 76, 76, -56, 77, -10, -80, 52, 26, 75, 72, 57, 0, -34, -52, -64, -78, -55, -78, -58, -36, 63, -32, 6, 47, 69, -9, -9, 12, 47, -10, 80, 41, -24, 2, 61, 44, -43, -64, 9, 43, 8, 25, -4, 61, -41, 43, -42, -66, 16, -76, 45, -10, 30, -58, -31, -73, 42, -30, 69, 26, -30, -30, 69, 23, -4, -74, 19, 49, 14, 63, 32, 16, -12, -64, -40, -26, 24, -20, -38, -71, 11, -17, 12, -64, 26, -75, 74, -51, -20, -77, -46, -26, -44, 41, -79, -4, 14, -67, 78, 49, 50, 67, -78, 37, -61, 42, 62, 75, -65, 50, -1, 45, 48, 32, -50, -35, -16, 21, 16, -25, 15, 37, 48, -41, 55, -56, -11, -46, -48, -38, -33, 36, 32, 15, -34, 59, 69, -67, 58, -66, -65, 65, -75, -47, 38, 62, -20, 43, 43, -26, -47, -33, -17, 47, -25, -65, 52, -15, 58, 45, 60, 32, 76, -35, 66, -14, -18, 22, 35, 65, 60, -22, 70, 0, -28, -13, 14, 75, 72, 25, 67, -50, 50, 13, -55, 28, 76, -68, -48, -55, -48, -42, 25, 43, 80, -78, -41, -80, 72, -32, 16, 63, -53, -25, 74, -58, -34, 20, -16, -50, 30, 19, -63, -53, -78, 16, 2, -30, -76, -43, 36, -8, -47, 70, -51, -23, -64, 27, 54, -66, 28, -2, -26, -20, -74, 55, -47, -27, 22, -30, -79, 12, -63, -1, 71, 76, -12, -34, 42, 40, -28, 11, 79, -66, -53, -69, -29, 25, -9, 61, 64, 65, 29, -44, -31, -80, -46, 60, -53, -54, -60, -65, -14, -80, -1, -63, -43, -24, -16, 28, 65, 33, 74, -47, -25, 28, -10, -56, -73, -66, -68, 47, -33, -64, -8, 64, 55, 52, -15, -51, -6, 40, -59, -77, -25, 43, -74, -42, 23, 34, -13, 77, -49, -25, 20, 58, 48, -44, 76, -70, 54, 17, 43, 79, 33, -60, -32, 47, -79, -23, -17, 55, 13, -27, -54, -14, -6, 11, 7, 31, 46, 10, -56, 57, -37, -53, 42, -60, 10, 21, -68, 48, -65, 68, -69, -12, 58, 64, -65, -65, -14, -64, 41, -78, -4, -56, 77, 50, -48, 12, -74, 80, -60, 25, -71, -21, 49, -11, -1, -74, -45, 15, 5, -43, -10, -57, -59, 52, -80, 16, -75, -31, -29, -66, -23, -45, -45, 40, -37, 80, 38, 5, -63, -6, 49, 61, 59, 5, -9, -5, -10, -15, -7, 55, -7, -15, -18, 25, -14, -11, 14, -70, -33, 38, -18, -39, 46, 74, -66, 49, 47, 39, 10, -1, -14, 42, 40, 40, 6, -25, -61, -52, -20, -8, -64, -11, 29, 79, -63, 19, -5, 31, 26, -45, 14, 63, 3, -62, -13, -6, -63, -36, 22, 69, -69, -3, 12, -28, -56, 16, -43, 12, -28, 22, 34, 59, 57, 22, -77, 32, -30, -40, -59, 27, 42, 13, 71, -22, 29, 78, -32, -9, 76, 13, 60, -13, 1, -32, 49, 17, 50, 28, -26, -15, -76, 71, 14, 15, -42, 34, 75, -54, -59, 66, 9, -50, 39, -52, -56, -68, -67, -74, 72, -50, 19, 33, 54, -48, -34, -42, -78, 55, -29, 76, 69, -31, -14, 18, -21, 34, -51, -55, 22, 43, -40, -68, -54, -32, 7, -77, 69, 20, 4, 19, -41, 62, 19, -27, 22, -3, -52, 31, -31, -55, -6, 66, -57, 6, 61, -14, -27, 13, -6, 62, -52, -43, 34, 52, -14, 11, -77, -15, 23, 76, -74, -45, -3, -76, -26, -36, -41, 24, -53, -44, -66, -47, 19, 64, 0, 11, 76, 46, -48, 35, 61, 17, 61, 60, -68, 22, 13, -40, -77, -28, -21, -6, 32, -51, -15, -27, -70, 0, -72, 77, -72, -8, 38, -64, 0, 78, 16, 80, -27, 47, 32, -69, 7, 78, 49, -29, 53, 31, -63, 54, -32, 50, 36, -45, -71, 12, 60, -74, 63, 35, 67, 22, -14, -62, 18, 6, 52, 39, -64, 25, 1, -35, -14, 76, 3, -68, -41, 44, 8, -78, 5, -32, -54, -56, -28, 57, -39, -8, -41, 42, 33, 73, 41, 60, 56, -57, 75, -25, 37, -35, 48, -75, -21, 79, -6, -50, 41, -44, -7, -28, -64, -26, -39, 66, 76, -63, 5, -24, 32, 58, 26, -22, 39, 32, 2, -29, -36, -72, 27, 21, 63, -37, 30, 15, -71, -12, 47, 57, -15, 2, 0, 6, -50, -60, 6, 78, 21, 25, 44, -59, -25, 16, -20, -1, 65, -21, -33, 62, 28, 67, 17, 37, -29, -38, 74, -76, -68, 68, 27, -13, -76, -17, 78, -51, 49, -47, 66, -70, -52, 64, -32, 4, 37, 67, -60, 51, 61, 40, 4, -19, -13, -69, -32, 31, 22, 33, -37, -7, -70, 39, 22, -40, -73, 59, 58, -32, -63, 34, 67, -63, -41, 13, -52, -23, -40, -56, 21, 33, -23, 12, 67, -65, -8, 25, -40, 34, 71, -20, 62, -52, -64, 26, -56, 9, -74, -22, 24, -69, -4, 54, 47, -16, 22, -73, 49, 16, 31, 25, -46, 43, 5, -34, -73, -63, 68, -59, 0, -61, 11, -51, -20, -53, -32, -24, -49, 59, -23, -6, -40, 60, -15, -20, -38, -49, 32, 40, -73, 8, 77, -57, 67, 45, 53, -37, -45, -72, -4, 25, -41, -12, 35, 74, -57, 2, -62, -18, 37, -67, -77, -70, 30, 47, 52, -26, -55, 44, 75, 77, -54, -12, 35, -32, 68, -27, 56, 48, 34, -4, -65, -46, -20, -26, -60, 79, 81, 15, -59, 1, -74, -22, 55, -69, 66, -71, 60, 40, 30, 36, 5, -14, 68, 53, 71, -51, -43, 49, 11, 61, 57, -8, -60, -78, -15, 66, -60, 19, -25, -4, -51, 21, 29, -9, -24, -15, -7, 76, -31, 26, 67, 64, -43, 41, 77, 55, 5, -49, 36, -11, -73, -59, -72, 0, -54, -27, -56, 62, 74, -1, -16, -4, -70, 28, 11, 11, 71, -55, 7, 4, 46, 64, -65, 79, -72, 39, -64, -48, 45, 0, 70, -32, -55, -40, -74, -15, 55, 39, 53, -64, -40, -44, 23, 49, 35, -61, -80, -70, 44, -10, 57, -39, -27, -56, -31, 26, -31, 6, 54, -41, 49, 44, -53, -30, -11, 44, -63, 32, -27, -28, -5, 28, 14, 42, 79, -80, -45, 51, 58, 33, 27, -70, 18, -79, -28, 24, -67, 67, -12, -58, 21, 72, 77, -71, -44, -16, 16, 20, -7, 57, 3, -30, 13, 22, 25, -9, -69, -11, -64, -54, -21, 46, -16, -68, 59, -40, -16, -22, -16, 51, 27, 44, -35, -71, -18, -78, 78, 51, 37, -51, -11, 56, -12, -38, -46, 34, -27, -74, 52, 4, 15, -73, 18, -11, -56, -37, -31, 77, -66, 16, -43, -4, -47, -47, 5, 59, 16, -40, -61, 6, -22, -56, -1, -35, 24, 23, -5, -70, 19, -40, -6, -5, 20, -31, -56, 49, 34, -18, 44, 11, 40, 2, 14, 28, -32, 57, 44, 28, 61, 19, -36, -6, -14, -42, 65, -24, 26, -71, 29, -69, 12, 60, 40, 27, 60, 63, -14, 31, 77, 40, 44, -54, -59, 75, 79, -71, 32, 1, 51, 27, 49, 45, 63, 37, 19, 40, -80, 13, -66, 55, -66, 39, -70, -80, 53, 75, 10, 38, -34, -16, -59, 19, 15, 78, -29, -74, -79, 72, 7, -76, -74, 77, -46, -4, 80, 35, -3, -2, 37, -22, 55, 70, -17, -43, -34, 67, 34, 11, 48, 37, -63, -16, 7, -42, 20, 53, 0, 64, -55, 66, 60, -20, 71, 63, 80, 6, -72, -41, -34, 58, 59, -12, -4, 52, -61, 65, -62, -38, 27, -14, -60, -20, -29, -1, 76, -36, 37, -55, 16, 54, 18, -66, 79, 25, 26, -69, -73, -23, -67, -56, 78, -43, -29, 23, 75, 36, -23, 39, 40, 9, -25, -24, -9, 75, -30, -11, 6, -66, -67, -44, 44, 75, -50, -34, -77, -10, -14, 67, -21, 80, -8, 26, 34, 54, -15, 22, -1, 68, 62, -36, -14, 36, -23, -30, 64, -51, -1, 76, -68, -52, -27, 1, 30, -24, 35, 71, -6, -35, -12, 41, 11, 17, 59, -62, -33, 19, -4, 41, 73, 22, -4, -14, -81, -79, -68, 34, -11, -67, 6, 25, 52, 46, 38, 67, 29, 47, 37, 74, -35, -33, 32, 28, -50, -78, 46, 70, 30, -55, -46, -6, -51, 65, -30, 67, -23, -34, -3, 44, -33, 5, 5, 25, -20, -13, -12, -79, -61, -73, -31, -47, 60, 69, -11, -30, 1, 75, -20, 3, -72, 17, -48, 15, -28, -78, -44, 48, 17, 26, 51, 15, 32, -46, -60, -25, 55, -74, -40, 46, 1, -2, -46, 68, -2, 20, 26, 16, 38, 74, -36, -78, -56, 24, 44, 13, -59, -41, -38, 5, -30, 26, 14, 41, 52, -74, 64, -31, 20, -40, 0, -48, -63, -9, -23, -28, 44, 62, -53, 35, 59, -69, -77, -14, 50, -19, -76, -18, 50, -59, 48, 80, 26, -46, 36, -74, 57, -40, 37, -71, -56, 2, 73, 59, 20, -60, 50, 65, 13, -13, 79, -21, -69, 57, 63, 0, -57, 46, 9, -45, -22, 37, 41, 5, -66, -70, -23, 20, 66, 65, 0, -43, 35, 63, -50, 26, 9, 15, -8, 7, 2, -26, 34, -62, -79, -45, -16, -39, 80, -73, -54, 4, -16, 47, 20, -75, -53, -29, -62, 56, 75, -9, 63, 8, -1, 58, -35, -29, 41, 78, -41, -23, -59, -71, 65, 36, 11, -52, -24, 26, 32, -81, 34, -59, -80, 53, 37, 20, -34, 29, 63, 2, 16, 37, -70, -48, 48, 46, -22, -71, -42, 34, -65, -46, -70, -7, 46, 40, -17, -61, -10, -66, -31, -65, -67, 63, 55, 20, 6, -48, 69, -44, -32, -13, -21, 53, 16, 72, -80, 22, 73, 2, 54, 72, -46, -42, -50, 7, 0, -37, 35, 80, 39, -20, 40, 23, 7, 13, 80, -38, -70, -21, -47, -76, -30, -34, 60, -27, 61, -32, 14, -12, -30, 58, -23, 17, -72, -55, 46, -16, -25, 3, -21, 60, -16, -27, 13, 1, -27, -20, -49, -36, -19, -4, 24, -8, -72, 80, 75, -39, -37, 72, 6, -71, -52, -12, 13, 31, -47, 8, -24, -18, -50, -51, 0, 40, 15, 43, -51, -69, 43, 16, -67, -9, 56, 28, -23, 26, -79, 18, 41, -61, 64, -56, 33, -77, 42, 37, 28, 9, -19, -57, 74, -1, 53, 16, -7, -26, 42, 16, -30, -3, 9, 3, -19, -80, -62, 75, -49, -29, -54, 60, 70, 69, -21, 60, 21, 6, 33, -9, -13, 63, 21, 30, 13, -10, 5, 0, -76, 13, -19, 78, -53, 46, 30, 41, 32, 68, -63, -63, -55, -71, -3, -32, 23, -22, -38, 78, 52, -57, -80, -34, -80, 36, -52, 44, -69, 11, -66, 60, 31, -18, -31, 48, 45, 58, 28, 6, 53, -32, 74, 51, -65, 61, 62, -40, 3, 42, 41, 51, -9, -4, 61, -20, 3, 56, 61, -75, -79, 52, -35, 55, 42, -55, -59, 35, 71, -78, 16, 39, 8, 20, 1, 0, -53, 50, -62, -49, -24, 8, 26, 72, 27, 52, 34, 0, -57, 34, -65, 16, 51, 31, -70, -64, 59, -46, 8, 13, -80, 49, 72, 1, 27, 15, 1, -18, 10, -45, 11, 63, 11, -35, -8, 2, -55, 70, 17, -61, -59, 29, -73, 0, -72, -12, 58, -29, 60, 55, 24, 24, 25, 27, 63, -40, 11, -74, -58, 8, 18, -9, 40, 71, 65, 72, -9, 39, 44, 79, -61, -53, 74, -31, 55, 62, -52, -14, -72, 12, 2, 8, 24, 61, -2, 27, 77, 30, -30, -7, 34, 58, -45, 73, 60, 4, -28, 50, 20, 55, 80, 47, 37, -50, -35, 79, -13, -27, 59, -49, 12, -16, 47, -10, 70, 66, 46, 11, -11, 14, -56, -10, 10, -2, -46, 24, 41, -75, -44, -26, -76, 35, 18, -25, -22, 3, 44, 75, 64, 79, 53, -12, -49, -20, -69, -54, -74, -1, 39, 37, 19, 64, -69, -68, 69, 44, 8, -72, 54, -34, 19, -15, 80, 64, 45, -63, -45, -71, 53, -78, 62, -28, 27, -32, -22, -21, 27, -64, 23, 57, -17, 8, 25, 70, 0, -34, 11, -55, 60, 31, 16, 51, -8, 69, 4, 16, 1, 32, 52, -25, 10, -47, 31, -4, -28, -57, -54, -28, -81, -18, -30, -73, 65, -36, 48, 70, -52, 29, 57, 23, -28, -27, 68, 47, -28, 58, 77, -26, 44, -74, 12, -20, 20, -47, 71, -43, 78, -57, -64, -47, -52, 14, 26, 67, 54, 34, -57, -55, 66, 9, 55, -25, 35, 47, -79, -75, 37, -50, 49, -19, -68, 50, 68, 78, 3, 17, 7, 38, 69, 78, 38, 53, -10, -36, -40, -50, 33, -19, -10, -79, 78, -58, 48, -44, -42, -4, 9, -75, -15, -54, -51, -17, 59, 71, -27, 12, 74, 72, 17, -15, 39, 64, 37, -12, 15, -38, 67, 68, -67, 24, -9, -54, 10, -7, 42, -5, 4, 71, -13, -79, -44, -35, -6, -43, 41, 7, -23, 20, 4, -65, 20, 11, 23, 49, -37, 45, -27, -9, 15, 56, 14, -44, 1, -7, 80, -13, -49, -17, -50, 51, 29, 1, -7, 76, 80, 29, 61, -12, 20, 29, -15, -29, -12, 53, 61, -67, -37, 67, 70, 69, 28, -73, -41, -32, 62, 73, -67, 16, -9, 12, 2, 20, 79, -33, -32, 25, 59, -68, 50, 2, -30, 10, 22, -41, 75, 12, -64, -11, -37, -62, -66, 58, -66, -74, 19, 47, -80, -50, 17, 46, 33, -64, 12, -11, 25, 51, -35, 42, -25, 48, -47, 11, 34, 15, 65, -16, -31, 31, 2, 34, 57, -40, 54, -39, -51, 22, -19, -80, -2, -56, -56, -71, -24, -64, -16, -12, 0, 54, 25, 17, 2, -20, 4, -63, 16, 37, -32, 59, 7, -12, 63, -72, 56, 7, -69, 76, -61, -14, 45, -66, -6, -18, -62, -41, -35, 60, -49, 59, 77, -55, -58, -63, 6, 55, 71, -22, 53, -45, -35, 19, 26, 63, 43, 21, 61, 61, 19, 70, -6, 36, 8, 61, 17, -30, 78, 5, -68, 11, 31, -13, 71, -10, -75, 45, 0, 28, 43, 0, -66, 66, -29, -21, 41, -28, -2, 62, -72, 20, 28, -38, 65, -46, -25, 62, 63, -9, -8, -25, -76, 36, -47, 63, 15, 73, -52, 7, -43, 67, 77, -4, 55, -72, -6, -43, 22, 40, 10, -25, 64, -52, 14, 43, -26, 45, 66, 9, -56, 16, -48, 21, 39, 63, -72, 44, -26, 68, -62, -26, 16, -42, -51, -9, -32, -35, -42, 11, -36, 13, 15, -14, -10, -60, -14, -38, 4, 28, -60, -6, -75, -33, 75, -61, -78, -31, 51, 25, 26, 20, 13, -65, -60, -23, 75, 28, 48, 65, 78, -75, 48, 30, -48, -23, 13, -76, -43, -9, 12, -76, 20, -66, -69, 18, 20, 48, 5, 7, 30, 33, 67, -25, -41, -55, 68, -77, -58, 2, 35, 50, 56, -35, 37, 80, -76, 62, 36, 68, -7, -30, 20, 67, -10, -2, 74, -51, 59, -48, 13, 59, -29, -52, 53, 71, 3, 32, 74, -34, 75, -51, 2, 8, -34, 31, 34, -46, -79, 34, -78, 46, 26, -70, -19, 77, -57, -36, 1, -35, 44, 28, 23, 31, 51, -77, 53, -9, -73, 8, 17, -59, 78, -13, -53, 13, -56, -49, -33, -72, -45, -64, -56, 18, 29, -36, 73, 46, -45, -43, -24, -57, 15, -26, 76, 30, 27, 64, 29, -17, 14, 60, -19, -37, 13, 49, 11, -23, -78, 51, -35, -80, -17, -12, -59, 8, -68, 33, 53, 13, 32, 69, 29, 68, 1, 61, 76, 8, 54, 4, 60, 7, -17, 47, 8, -55, -41, 29, -40, 16, -44, 44, -12, -21, 47, 67, 78, 57, -29, -60, 11, -53, 64, 9, 74, -46, 57, 5, 16, -10, 5, -5, 77, -76, -42, 19, -13, -48, 38, 71, 79, 1, 49, -27, -40, -10, -47, 5, -25, -22, -22, -28, -58, -17, 13, -39, -17, 59, -70, -14, -5, -81, -3, 30, -27, 31, 42, 50, 30, -22, 52, -7, 50, -25, -1, -12, 72, -46, 20, -74, 55, -53, 13, -40, 13, -5, -25, 0, 43, -36, 59, 75, 36, 33, -56, -80, 11, 64, -16, 71, 68, -31, 26, 25, -44, 60, 18, 11, 58, 39, -8, -43, 58, -32, 45, 22, 45, 46, -32, 59, 8, -33, -35, 18, -28, -47, -59, -69, 53, -13, 39, -41, -26, -38, -70, -48, 18, 30, -32, 59, 78, -62, -27, -42, 11, 21, 58, -71, -16, -39, -54, 2, 61, -11, 75, 47, -42, 1, 21, 68, 66, 60, 75, 36, 74, -14, -77, 77, -34, -40, 66, 20, -9, 13, -19, -30, -42, 61, -63, -16, -65, 51, -30, -19, -34, -5, -21, 76, 60, -53, -22, 65, -1, 77, 16, 16, -37, 54, 77, -73, -71, -43, -36, -30, 16, -22, 77, -44, -25, -72, -2, 65, -41, -72, -19, 45, -79, -24, 33, 18, 2, -41, -9, 8, -38, 35, 63, 22, 12, 52, 78, 70, -17, -61, -21, 31, 56, -37, -3, 48, -67, 68, -47, 14, -20, -5, -62, -11, -66, 13, 45, 24, 24, 54, 45, 53, -48, 43, 71, 11, -33, -53, 8, -15, 6, -68, 1, 65, 68, 3, 30, 80, -26, -31, -67, 17, 67, 15, -7, -65, -26, 32, 18, -80, 4, -46, -13, -78, 31, 80, -61, -49, 43, 22, -30, 23, -10, 70, -33, 24, 24, -18, -13, -64, 24, -46, -51, 41, -63, 78, -44, 39, 76, 44, 56, 10, -6, -39, 13, 79, 70, -4, 31, -29, 55, -23, -16, -31, 72, 78, 60, -69, 79, 38, 10, 75, -25, -36, 18, 70, 16, -6, 33, 34, 2, 24, 52, -79, 7, 68, 31, 0, 5, -36, 20, 19, 16, -62, -31, 79, -37, -59, -77, -13, -44, -59, 19, -50, 40, -71, -27, -33, 68, 25, 18, 6, -4, -76, 48, 4, -34, -62, 36, -76, -76, 12, -21, 11, -21, -67, 14, 55, 34, -23, -78, 34, -36, 26, 52, -10, -54, 21, 39, -25, 24, 44, 5, 63, -8, 37, -35, 16, 78, -73, 18, -35, -52, -40, -8, -19, 14, -68, 18, 27, -36, -34, 55, 48, -8, -1, -67, 16, 70, -50, -6, -22, 41, -56, 58, -13, -42, -57, -79, 62, -73, 24, -27, 17, -38, 63, -27, 48, 41, 69, -44, -63, -44, 63, 71, -12, 22, 53, 65, -71, 25, 39, -12, 63, 61, 23, -47, -49, 63, 5, -16, -74, -38, -8, -65, -65, -5, -53, 78, 2, 57, -23, 57, -6, -56, 0, -73, 59, -70, 27, -54, 27, -65, 12, 22, -27, -5, 69, 76, -65, 7, 31, -26, 16, -64, -80, 34, 76, -54, 59, -68, -53, 44, -35, -33, 78, -64, -21, -62, -69, -18, -14, -71, 62, 72, 7, 45, -39, 75, -11, 23, 66, 31, 39, -33, -28, 71, 58, 55, -17, 71, -45, -71, 67, -4, 2, -24, 0, 41, 18, -45, 9, -51, 49, 74, -74, 24, 68, -33, 45, -63, 21, 50, 21, 37, 28, -65, 79, 74, -37, 67, 22, -45, -74, -33, 27, -52, -57, -67, 0, 29, -61, 20, 79, 12, 23, 65, -68, 79, 48, -73, 45, -22, 55, 54, 42, 40, 55, -65, 56, 75, 53, 20, -11, -35, 12, -77, -41, -79, -60, -15, 65, -49, 30, 45, 73, 50, 78, 71, -67, -29, -46, 57, -24, -5, -37, -14, 5, 51, -3, -57, 63, -45, 42, 59, -10, 73, -73, 57, -40, 71, 45, -22, -64, -67, -4, 80, -74, -24, 55, 53, 15, 29, 79, -30, 41, 44, 53, -35, 69, -73, -28, -7, 29, -28, -81, -9, -14, 49, 43, 61, 2, 68, 64, -34, -8, 30, -77, -15, -63, -17, 25, -47, 2, 23, 19, 19, 67, 44, -5, -67, 55, -47, 55, 11, 69, 19, 72, 21, -50, -24, 2, 71, 72, -80, 59, 0, 56, -61, 13, 39, 37, -66, 2, -8, -18, -72, -35, -37, -54, 74, -45, 71, 8, -75, 74, 55, -73, 37, -64, 38, 49, -11, -23, 39, 68, 36, 57, -39, 10, -48, -13, 47, 35, -29, -46, -44, 74, -28, -6, -46, 80, 27, -13, 44, 25, -40, 5, -52, 30, -79, 69, -25, 36, 72, -18, 28, 81, 68, -6, -20, 73, -49, 18, -2, 12, -27, 54, -62, 39, -12, -38, -48, -44, 8, 40, -28, 66, -40, 51, 9, 74, -24, 25, -34, 25, -29, 65, 13, 73, 77, -78, 80, -14, 55, -23, 33, 59, 45, 1, 78, -35, 26, 75, -10, 1, -37, -28, 52, -50, -8, 5, -26, -66, -68, 73, 21, 14, -74, 62, 62, 69, 78, 20, -42, 12, -70, 4, -60, -55, -63, -51, 40, -26, 51, 44, 12, 1, 64, -73, -78, 13, 24, -16, -26, -9, 69, -49, -62, -26, 33, 28, -40, -63, -22, -62, -34, -56, 3, -19, 66, 75, -45, -25, -78, -76, -59, 22, -21, 32, 15, -77, -16, 78, -60, -62, 1, 3, 77, 70, -24, 58, 22, 42, 63, -19, 7, 17, 62, 59, 45, -30, -31, 46, 31, -13, 9, -37, 75, -76, -65, -71, 80, 24, -61, 47, -80, 51, 80, 71, 62, -68, 31, -8, -30, 70, 67, 9, -30, -64, 0, 67, 51, 0, 19, -70, 32, -78, -2, 49, -53, 20, 25, 36, -4, 76, 70, 50, 72, -47, 34, -4, 49, -34, 0, 40, 50, 80, -44, 70, -41, -19, 30, 43, -69, 29, 50, -14, -72, 71, 46, 40, -12, -63, -50, 47, 42, 8, 66, 27, 12, -40, 53, 19, 78, -23, -9, 65, -30, 59, 76, -37, -18, -60, 20, -54, 63, -12, 69, -10, -21, -20, 11, -66, -65, 63, 40, -61, -47, -75, -62, -70, 31, -41, 10, 21, -27, -55, -67, 27, -54, -45, -53, 14, 29, -46, 79, 12, -48, 11, -75, -3, -19, -12, -4, 73, 5, 43, 10, -19, -6, 31, -64, -47, -31, -77, 15, -55, 16, 10, 4, 46, -37, 4, 32, -48, 10, 65, 74, 80, 75, -46, 61, -11, -15, 30, 71, 24, 5, -11, -59, 67, -36, -7, 13, -50, 16, -26, -27, 20, -11, -21, 1, -14, 45, 21, 7, 76, -69, 33, 69, 27, -73, -77, 32, -13, -5, 59, 71, -63, 5, -74, -63, 21, 51, -73, 35, 33, -45, -40, 5, -58, 8, -67, 12, -3, -56, -14, 73, -65, 30, -29, -49, 73, 35, 40, -1, -64, -31, -63, -72, -57, 14, -68, -24, -49, -13, 19, 43, 11, -23, -79, -13, -39, 73, 58, -37, 47, 22, 2, 5, 16, -14, -80, -41, -31, -4, 24, 58, -14, -57, -62, 56, -57, -4, -23, -35, 9, -33, -8, 37, 8, -22, -18, -29, -52, -8, -47, 60, -15, -74, -34, 52, -31, 57, -3, 59, 2, -56, 1, -35, -17, -66, 77, -39, -29, -11, -59, 57, 23, -76, 45, -45, 41, -77, 71, 72, -40, 72, 22, -30, -60, 71, 7, -69, 12, -37, -20, 49, 33, 13, -5, 21, 74, -16, -61, 76, 70, 73, 10, -9, 47, 0, -60, 14, 41, 60, 5, -21, -79, 77, -22, 20, 4, -41, -66, 27, -5, -23, -25, -38, -15, 2, -11, 58, -9, 64, 51, 43, 74, 43, -71, -42, 11, 68, 38, -33, -44, 4, 31, 63, 46, 73, -11, -76, 32, 14, 59, -55, 20, -75, -35, 29, -13, 60, 16, -48, -3, -32, 67, -74, 26, 67, -77, -67, 79, -14, 78, -22, 9, 72, -5, 75, -57, 53, 56, 76, 21, 21, -38, 48, -60, -10, -12, -45, 67, 66, 70, -74, 54, -23, 80, -35, -14, -15, 47, -76, 66, -61, 68, 39, 28, 73, 59, -20, -50, -37, 8, 11, 15, 66, 78, -21, -39, -30, -39, 73, -13, 69, 35, -20, -27, -12, -26, -60, -73, 5, -59, 80, 68, -37, -18, 80, -61, 26, -36, -5, 80, -74, -62, 36, -31, -59, -57, -80, -14, 68, -56, 35, 9, 1, 6, 70, 26, -56, -34, 68, 13, -11, 61, -21, -51, -26, -70, 73, 45, -72, 11, 73, 70, 29, 48, 49, -51, 53, 33, 10, -72, 66, 41, 49, -42, -50, -32, -6, 63, -17, -49, -33, -39, -30, 61, -21, -31, 0, 74, -50, -72, 26, 63, 34, -15, -75, -22, 22, -71, -15, -70, 66, -50, -65, 18, 66, 63, 69, -38, 23, 54, -33, 78, 43, 13, 53, -36, 18, -26, 37, -64, -27, -4, 28, -44, -43, 56, 34, 15, 32, 55, -76, 67, 67, 18, -24, -56, 11, -47, 63, 37, -22, 71, 34, -64, -47, 63, -25, 4, 1, 1, 78, 50, 11, 42, -35, -25, 73, 19, -74, -18, -20, -23, 19, 12, 22, 74, 32, -53, 33, 57, -67, -41, -77, 10, 46, -58, 78, 62, -1, 1, 44, 52, -23, -52, -27, 75, 6, -75, -1, -5, 18, -21, -26, 17, 25, -11, -45, -15, 39, 80, 26, -25, -63, 49, -1, -74, 1, -60, 8, 1, 12, -62, 26, 28, -3, 44, -23, -61, -33, 58, -22, -69, 48, 63, -33, -28, -71, -3, -74, 34, 43, -68, 24, 68, 37, 59, 78, -2, 55, 37, -60, -22, -79, 51, -79, -70, -6, 23, -76, 57, 67, -64, -59, -71, -15, -36, 7, 36, 59, 57, -30, 37, -72, -71, 28, 75, -62, 76, 10, 17, -36, -22, 8, -80, 68, 17, -45, 48, 46, -22, -78, -74, -70, 69, -24, -60, 24, -76, -28, -50, -68, -65, 49, 72, 66, 32, 80, 38, -53, -78, 71, 69, -18, 13, -78, -34, -40, 78, -71, 42, 14, 49, -35, 35, -4, -2, -13, 76, -26, 37, 77, 41, 55, 80, 35, 47, -71, -52, 11, -39, -45, 53, 50, -24, 16, 12, -38, 18, -1, 66, -8, -9, 25, -11, -69, 8, -72, -56, -71, -63, 72, 13, 69, -51, 58, -69, -43, -72, -12, 72, -46, 76, -16, 6, 49, 24, -26, 40, 5, -49, -43, 28, -54, -14, 74, -15, -55, -64, 56, 23, -7, -14, 23, 42, -37, -7, 7, -68, -80, -39, 20, -35, -40, -38, -50, -24, -66, -20, -26, 14, -79, 70, -39, 51, 8, 36, -59, 79, 10, -23, 22, -56, -7, 76, 31, 70, 66, -49, -18, -6, 78, -62, -21, 34, 1, 56, -77, 66, -71, -51, 34, 32, -36, -22, -69, 28, -10, 9, -80, 72, 75, -40, -23, 11, -71, -76, -43, 62, -62, 31, 22, 10, 16, 35, 18, 49, 47, 63, -64, 60, -13, 30, 18, 64, -3, 19, 18, -40, -3, -30, 46, 16, 35, -58, 55, 2, -67, -56, 23, 20, -61, 72, 30, -43, -42, 11, 24, -33, 75, 12, -14, 34, -2, -36, 41, -64, 10, -7, -62, 67, -34, -26, 19, -38, 78, 76, -9, -29, 13, -56, -49, 35, -11, -78, 44, 76, 14, 9, 78, 17, -26, 35, 19, -14, 5, 6, -68, -70, -31, -8, -32, -46, -7, 76, -57, 78, 51, -15, 54, 6, -49, -9, -6, -27, -66, 14, -23, 16, -61, -49, -78, 33, 76, -10, 66, -72, -27, 6, 17, -31, -23, 10, -13, -73, 3, 54, -61, 1, -3, -40, -43, -53, 80, 65, -22, -42, -57, 11, -10, 49, 21, -24, -13, 33, -52, 43, -35, -75, -40, 11, -68, 54, 43, 14, 23, 4, -57, -6, 54, 60, -47, 66, -80, 36, 15, -28, 43, -79, 54, -11, 73, 3, 24, 68, 65, -12, -31, 4, 44, -80, 16, -65, -75, 52, -21, 44, 47, 27, -68, 25, 9, -56, 23, -19, -63, 63, 78, -7, -39, 33, 61, -46, 3, 39, -78, 67, -50, -24, -25, 46, 30, 58, -15, -36, 39, 12, -53, -71, -77, 27, -17, -74, -63, -58, -38, 66, 68, -52, -28, 32, 61, -37, 24, -77, 64, -65, -58, 69, -53, -46, -63, 79, 33, 48, -45, -42, 75, 29, -25, -69, 51, 32, -48, 60, -40, 67, -77, 65, 69, -32, 5, -11, -73, 48, -4, 23, -70, 73, 13, 52, -51, -16, 13, 9, -42, 8, -9, 5, -31, 23, 12, 50, 12, 7, -78, 33, 19, -71, 18, 43, 14, -5, 17, 70, -1, 45, -56, -44, 24, -58, 28, 29, 48, -40, -30, 47, 65, 23, -45, -17, 55, 7, 38, 14, 51, 51, 22, -20, 61, -71, 64, -67, 22, -29, -50, 64, -15, -50, -80, 36, -5, 1, -71, 3, 16, -58, -8, -8, 77, 22, -64, -71, -31, -36, -18, -38, -37, 45, 6, -53, -55, -14, -64, 8, -55, 76, -80, 71, 64, 64, -64, 53, -2, -6, 39, 16, 2, -27, 30, -41, 4, -22, 65, -44, 30, 74, -23, 17, -33, 80, 52, 37, -58, 47, 1, 49, -45, -7, 27, 71, -60, 25, 3, 67, -71, 1, -7, 40, -59, -39, 65, 37, -39, -55, 3, -9, -55, -80, -23, 59, 24, -74, -64, 79, -8, -59, -59, 5, 7, -43, -30, 33, 73, 34, 