#include "nnom.h"

#define ADD_CONV2D_KERNEL_0 {-53, 40, -78, 19, 96, 1, 52, 89, 52, 68, -30, 64, -45, 67, 62, 31, -61, -82, -85, 31, 6, -1, 35, 50, -66, 94, -68, -18, -66, -40, 48, 13, -75, -17, 84, -96, 84, 53, -82, 23, -20, 51, -8, 48, -65, -13, 71, 94, -79, -39, 91, 40, -53, 53, -25, 72, -81, -4, 53, -86, 17, -77, -56, -5, 25, 35, -70, 6, -69, -24, -11, -20, 60, 3, 81, 21, -48, 53, -3, -32, 68, -25, 60, 10, -24, 2, -12, 73, -58, 95, -10, -73, 26, 91, 69, -72, -18, -27, 19, -7, -23, -51, -6, 65, 11, -38, -5, 96, 65, -78, -14, -7, -37, 16, -48, -14, -19, -31, 41, 98, -34, 61, 85, -81, 97, -94, 36, -54, -19, -82, -66, -49, -34, 47, 49, 58, -58, -51, -26, -43, -46, -95, -98, 94, 98, -9, 37, -79, -51, -9, -8, -31, 25, 90, 44, 76, -89, -66, -25, 89, -54, 30, -35, -34, -88, 52, -66, -51, -76, 23, -93, 77, -17, -55, -60, -60, 42, 82, -75, -43, 41, -41, 68, 43, 79, 97, -5, 33, 81, -41, 82, -41, 45, 46, 65, 21, -35, 76, -77, -86, -48, 79, -43, -28, -81, -19, 80, -42, -98, 11, 13, -7, -97, 72, 22, -22, 54, 23, 81, 20, 7, 14, 45, -20, -76, 36, -25, 56, -1, 77, 53, 2, 16, -64, -43, -89, -39, 25, 51, 92, 26, -46, 91, 14, -78, 90, 12, 66, 8, 85, 61, 69, -82, -20, 62, 9, -26, 20, -56, -23, 74, 96, 70, 49, 85, 9, 66, -65, -43, 92, -19, 53, -18, -34, -72, 38, -7, 30, -43, 16, 27, -6, -50, -25, -37, -39, 51, -97, -65, -54, -44, 57, 25, 7, 12, -88, 90, 95, 39, 51, -12, -45, -62, -98, 79, -37, 10, 55, -31, -76, -3, -14, -51, 40, 61, 92, -77, 58, 14, 19, -74, 48, 5, 36, 77, 31, -18, -64, 34, 16, -42, 17, -46, -79, 38, -42, -19, 41, -21, 55, -65, 23, 24, 46, -41, -12, 36, 68, 19, 14, -89, 11, 41, 96, -55, 66, -40, 40, 37, -17, 14, 28, 82, 80, -20, 87, 28, -22, 68, 37, -76, -35, 28, -97, 51, 61, -72, -52, -49, -63, -4, 19, -11, 98, 48, 11, 37, 71, -57, 70, 66, -96, 72, -12, -62, 37, 82, 23, -67, 93, -54, 89, -88, 86, -34, 5, 82, -40, -16, 26, -81, 41, -36, 95, 53, 68, 83, -64, -55, -6, -4, 39, 47, 52, 11, 82, -73, 58, 59, -77, -89, 12, 86, -43, -79, 48, -43, 81, -32, -73, 97, 61, 85, -41, 39, 81, 32, 14, 0, 55, -42, 69, -22, 39, -12, 39, 27, 75, 12, 66, 33, 50, 50, -49, -23, 80, 49, 38, 14, -76, -91, -24, -80, 3, 31, -34, 53, 15, 21, 75, -90, 37, 77, 80, -3, -41, 94, -41, 17, 49, -16, -30, 81, -20, 59, 36, 49, -42, 67, 50, 64, -68, -22, -18, -31, -32, -77, 30, 21, 94, -37, -74, 82, -93, -81, 87, 55, 30, -59, -70, 10, -38, 32, 29, 47, 8, 78, -39, -32, 28, -60, 31, -64, -59, -93, 74, -44, 75, -16, 71, -38, 72, -61, -21, -1, -40, -50, 53, 50, -46, 96, -11, -18, 97, 43, -35, 64, 69, -61, 78, -68, 14, 16, -51, -34, 49, -81, 74, 35, 81, 45, -47, -9, 14, -4, 40, 1, 37, 68, 15, 25, 45, -8, 51, 13, -44, -17, -89, 40, -64, 13, 53, -37, -77, -67, -18, 96, -98, -81, -65, -28, 31, 26, -94, 65, -31, -17, -74, 57, 12, -11, -58, -6, -82, 34, -43, -28, -85, -49, -98, 56, -82, -71, 85, 64, 74, 26, -34, 40, -77, -70, -32, 13, -57, -63, -25, -47, -94, 42, 36, 41, -76, -86, 3, -71, 1, 37, -3, 16, -20, -50, -44, 24, 96, 33, 67, -95, 68, 15, 66, -89, 6, 37, 39, -61, 10, 59, -5, -98, 55, -53, 75, 87, 94, -1, -60, 67, -14, 7, 43, 32, -72, -38, -20, -26, 8, 90, 78, -84, -91, -67, -60, -17, -22, -45, -53, -17, -66, 30, -46, 96, -66, -30, -83, -95, -80, 82, -58, 4, -5, -28, -48, -46, 27, 9, 83, 92, -77, -58, 12, -93, 86, -71, -2, 3, -91, -17, 44, 92, 29, 59, 16, -41, 87, -96, 65, 61, 93, 56, 33, -7, -1, -29, 37, 66, 98, 38, -84, -38, 6, -69, -26, 20, 59, 47, -56, 95, 61, -5, 66, -73, 46, 18, 53, -45, 13, -27, -44, 55, -91, -23, 63, -61, -50, -98, 80, 52, 67, -75, 64, -22, -73, -43, -75, 80, 93, -4, -60, -40, -52, -83, 73, -24, 84, -26, 95, 1, 39, 71, 60, 19, 15, 53, 64, 19, -51, -20, -67, 23, -22, 68, 84, -38, -66, -21, -94, 88, 50, -94, 79, -48, 95, 18, -45, 56, 79, -51, 39, 40, -21, -64, -62, -39, 6, 59, 50, 83, -5, 97, 75, 41, 66, -15, -69, 58, -26, 82, 95, 72, 1, -80, 29, 46, 80, -2, -66, 51, 67, 13, 76, 90, -5, -13, 76, 91, -94, -83, -19, -72, 63, 93, -83, -63, 92, 41, -66, 68, 67, 61, 54, 34, -33, -68, -90, -41, 28, -22, 73, 65, -93, 80, 77, 13, -12, -47, -76, 0, 8, -63, 97, -87, -34, -53, -70, -36, 30, -32, -67, -67, 98, -44, 33, 7, 37, 76, -51, -6, -59, 89, 21, -93, -82, -78, 32, -38, -94, 65, 90, 93, 92, -53, 5, -36, 84, 69, -61, -44, 45, 80, -12, -2, 29, -52, 38, 0, -47, -15, 73, 77, 63, 28, 38, 16, 67, 55, 96, -11, 8, -51, 24, 23, -71, -33, -95, 43, 64, 43, 30, 11, -41, -48, -52, -23, 5, -87, -51, 73, -57, 43, -28, 31, 52, 54, -86, 64, -39, 22, -37, 48, 36, 22, 3, -53, -45, 65, 51, -88, 38, -46, 69, -12, -73, 63, -86, -16, -56, 87, 98, -49, 93, -37, -44, 45, 1, 82, -49, -52, 29, -97, -52, -5, 34, 98, 28, -1, 62, 74, -62, -34, 23, 68, 31, -21, 98, 10, 90, -46, 80, -88, -67, 57, 7, 13, 44, 58, -74, -38, 83, -86, -28, 20, 25, -78, -84, 96, 93, 83, -77, 71, -86, 57, 63, -91, -34, -18, -12, 72, 13, -45, 40, -88, 12, 8, 32, -31, -38, 31, -41, -22, -84, -49, -4, -58, 31, -54, -53, 0, 36, 93, 31, 45, -23, 70, -60, 1, 88, 51, -54, 32, 24, -92, -97, -42, 5, -65, 12, -34, 18, 81, -90, 37, 82, 31, -18, -11, -8, 14, -2, -88, -49, 30, 22, -4, 86, -17, 69, 9, -45, -49, -64, -89, -55, -31, -97, 43, -38, -64, 54, 86, 23, 13, -75, 71, 49, 82, 66, -65, -65, 14, -83, -83, -33, 31, -90, -9, 15, -28, 38, 14, 41, 77, 94, 3, 30, -13, 62, -3, 52, -23, -65, -43, -81, 8, -74, 14, -73, -71, 27, 88, 69, 52, 75, -74, -77, 61, 52, 26, 57, -54, -85, 82, -79, 39, -98, -49, -35, 38, 45, -39, -91, 4, 9, 1, 34, -81, 54, 73, -56, 24, 15, -34, -93, 25, 73, -11, -61, 7, 35, -30, -60, -92, -11, -75, -63, -95, -36, 35, -38, 31, 64, 83, 34, -58, 22, 13, 92, 83, 21, 52, 81, -1, 69, -44, -29, -45, 35, -55, -83, -43, 25, 93, -42, 96, 86, -49, 88, 21, -33, -1, -27, 73, -78, -97, -83, -46, -59, -76, 32, -41, -57, 86, 8, -23, 28, -78, -2, 67, -36, -24, -41, 94, -96, -71, 4, 35, 47, -83, 21, 44, -25, -48, 7, -56, 63, -68, 72, -74, -73, -86, -59, -70, -24, 81, -54, -29, 40, 23, 73, 71, -78, 50, 38, -14, -81, -26, -57, -23, 9, 46, 81, -64, -60, 19, 21, 86, 42, 78, 52, -58, 42, -81, -70, -24, -83, -52, -37, 5, 64, 9, -44, -75, -98, -58, -83, 45, -90, 90, -83, -64, 6, -11, 51, 92, -67, -33, -86, 78, 88, 35, -46, -28, -88, 44, 80, -18, -54, 44, -72, 49, 47, -32, 67, 32, -20, 35, -34, 21, 93, 21, 28, -53, -20, -25, 2, -94, 6, 9, -25, 7, 12, 98, -40, -87, -8, 10, -14, -4, 26, 24, -69, 54, 98, 41, 5, 71, -20, 10, 71, -25, 49, 56, -54, -30, 5, -78, -64, 75, 48, 35, 2, 13, -26, -14, 74, -10, -39, 85, 92, -91, -94, -36, -54, -89, -55, -76, -52, 35, -33, -85, 65, -9, -51, -38, -2, -39, -18, -61, -1, 13, -77, -27, -44, -69, -51, 74, 3, -9, 33, 68, -78, -41, 22, 43, -79, -78, -83, -75, 79, 1, -3, 67, -7, -40, 87, -24, -67, 55, 84, -91, 20, 78, -1, -43, 79, -47, 26, -25, 37, 46, 29, 7, 35, 84, 50, -72, -13, 63, -23, 77, -39, -90, -94, 66, 91, 73, 25, 73, 39, 34, -28, 60, -32, 92, 40, 89, -40, 45, 81, 14, 61, -95, 33, 13, 43, 29, -73, 89, 25, -53, 90, 66, -16, 42, 69, 87, 53, -48, 27, 25, -79, -22, -67, 86, 32, -54, 41, -97, 16, -94, -47, -40, -64, 23, -84, -46, 22, -14, 71, 38, -18, -5, 63, 1, -35, 72, 18, 4, 29, 91, 59, -55, -7, -81, -8, 92, 41, 76, 55, 88, -59, -16, 68, 3, 54, 89, 2, 64, -45, -74, -72, -6, -29, -5, 15, -64, -84, 58, 50, -33, 10, 53, -35, 16, -33, -19, 12, 45, -54, 11, -19, 97, -76, -18, -5, -39, -33, -19, -88, -72, 13, -22, -88, -1, -97, 36, -76, 93, -54, 89, 8, -60, -45, -68, -4, -36, -65, 67, -76, -80, -91, 75, -69, -95, 55, 86, -68, -20, -13, 48, -55, -61, -94, -51, -91, 9, 45, -45, -18, -4, 63, 80, 82, -35, 51, 75, -44, 66, 50, -79, 28, -92, 37, -17, -5, -24, 46, 97, 3, -33, 98, 61, 10, -28, -36, 98, -13, -41, -89, -2, 13, -81, 94, 68, -61, -73, -70, 67, 9, 8, -13, -83, 97, -54, 33, 89, -94, 55, -78, 79, -64, -65, -26, 91, 37, -53, 13, -46, 87, -68, 36, 75, -33, -32, -50, -47, 23, 50, -34, 69, -48, -54, 88, 25, 52, 87, -19, -82, 77, 18, -95, -4, 19, 65, 61, 83, -50, -29, -1, -75, -86, -28, 75, -35, -11, 60, 15, 70, 27, 77, -64, -24, -43, -10, 88, -3, 31, 69, -70, 62, 23, 0, -8, 12, 76, 95, 75, -51, -17, -70, -83, 64, 22, 49, 69, -30, 31, -5, 10, 59, 24, -7, 43, -66, -64, 45, -18, 64, 85, 59, -32, 3, -6, -74, -57, 9, 33, 19, 88, 98, -56, -11, 20, -78, 36, 29, 60, -58, 5, 51, -16, -49, 91, 11, -63, -44, -14, -98, -56, -85, -20, 66, -8, -32, 31, -27, 40, 11, 90, 82, 25, -14, -46, 61, 91, -69, -78, 7, 4, -94, -26, -5, 81, 58, 13, -53, 56, -2, 40, 24, -71, 19, -98, 90, -10, -23, 74, 35, 75, 58, -16, -95, 20, 60, -10, -62, 11, -24, 44, 87, -58, 43, -89, -27, 71, 84, 41, -15, 88, 22, 83, 86, -8, -57, 11, -26, 75, -1, 89, 61, 51, 91, -82, -73, 30, 26, 96, 84, -62, -77, 80, 62, 5, 84, -49, -28, 84, -91, -54, -23, 95, -90, -51, -69, -89, -97, -31, -32, -64, -58, 73, 26, 8, -81, 21, -70, 29, -40, 87, 15, 96, -82, 1, 71, -53, 44, 42, 20, 42, 15, -37, -25, 83, 61, 26, 14, -29, 28, -23, -41, 46, -23, 42, -2, 6, -44, 55, -33, -90, -64, 45, -56, 39, -28, 65, -53, 68, 56, 12, 45, 93, -57, -85, 83, 26, -70, -16, 84, -45, 0, -1, 72, -51, 46, -1, -87, 6, 48, 63, -17, -29, 68, 24, 55, -24, 97, 85, -81, -1, 61, -89, 96, 3, 1, -2, -23, 90, -4, 89, -27, -15, -93, 50, 47, -42, 40, 95, 98, -51, 44, -53, 98, 5, 17, -90, -98, 0, 28, -48, 42, -49, 81, 34, -52, 39, -23, 37, -27, -53, 99, -24, 26, 20, 0, -83, 61, 18, -25, 63, 66, 94, -29, -81, 97, -18, 78, -56, -17, 8, -28, 7, -11, 29, 43, -91, -57, -76, -42, 17, -90, -47, 80, 63, -63, 70, 64, 6, 10, -51, -79, -47, -80, -61, 7, 11, -43, 21, -27, 73, 74, 24, 29, -74, -59, 63, -7, 12, -9, -25, -61, 30, -51, 17, 60, -51, 93, 53, -12, -22, -31, -15, -80, 26, -49, -55, 22, -16, 82, -5, -49, -56, -92, -1, -98, 38, 17, -63, -31, -61, 75, 52, -17, 16, 87, 32, -84, -67, 7, 47, -77, 9, -14, 63, 84, 96, 93, -5, -84, 60, 50, -22, 65, 68, 55, -61, 53, -31, -35, -83, -93, 2, 41, -5, 95, -77, -62, -61, 50, 70, -50, 40, -19, 57, -30, -95, 18, 8, -67, -2, 77, -68, -39, 16, -78, -54, 65, -73, 32, -68, 72, -79, 62, 79, -15, -7, 84, -8, 23, -20, -64, 86, -98, -36, -60, 36, -6, 63, -80, -48, -94, -94, -35, -47, 39, -61, 75, 89, 21, 68, -69, -96, 56, 76, 30, -35, 85, 46, 44, 86, 24, -89, 18, -7, 34, -7, -9, 35, -3, -23, -84, 77, -65, 75, -72, -61, 16, -69, -8, 49, -80, 0, 50, 53, 97, 20, 24, 38, 97, 80, -73, -37, 90, 64, -22, 53, -73, -8, 78, 39, 22, 16, 73, -61, -84, 36, 40, -17, 7, -9, -14, 55, -35, 58, 38, 33, 65, -99, 80, 19, 10, -79, 74, 60, -95, -49, 58, -48, 72, 44, 1, -59, -19, -71, 4, 96, -50, -79, -81, -49, -68, 0, 77, -60, 26, -6, -28, -94, -38, 77, -55, 97, 83, -84, -85, 83, 70, 82, 22, -9, 13, 59, 64, 47, 63, -66, 14, 35, 62, 4, -65, 58, -93, 46, 82, -1, -47, -61, -21, 82, -94, 3, -24, -71, -74, 41, 39, -94, 19, -36, 80, -50, -71, 43, 58, 12, 11, 57, 9, 22, -78, -19, 22, 24, -7, -11, 50, 60, 54, 65, 67, 15, 75, -68, 51, 20, -28, 15, -77, 62, -67, 71, 96, -92, -62, 52, -68, -46, -81, 87, -19, -84, 23, 13, 15, 52, 52, 87, 98, -52, -51, -60, -43, 8, 82, 60, 86, -64, -67, -24, -45, 2, 31, -39, -76, 0, 50, 74, 62, 21, 27, 81, 69, 98, -60, -2, -59, 2, 93, 73, -22, 27, -9, -1, -1, -5, -35, 35, -53, -15, -6, 58, -74, -28, -96, -51, -72, -85, 13, 41, -92, -39, 99, -55, 49, -61, -38, -9, -54, -37, -10, 12, -60, 87, -60, 86, 77, 22, 21, -49, 14, -63, 64, -45, 51, 16, -56, -71, -54, -64, 4, 3, 51, 46, 50, 47, -36, -83, 70, 26, -97, -18, -53, -64, 75, 7, 13, -86, 15, -45, -95, -11, -15, 34, -62, -44, -21, -78, -72, -81, 13, -42, -24, 74, -42, -70, -81, 55, 17, 14, -97, 14, 25, 74, 4, 70, -59, -16, -4, 53, -75, 91, 87, 10, 4, -57, -48, -44, 62, 12, 85, -45, 92, -97, -61, 20, 38, -52, -95, -26, -27, 75, -14, 2, -1, -25, 64, -84, 29, 87, -85, -15, -86, -23, -73, -57, 76, -38, 98, -69, -72, -34, -25, -17, -48, 86, -75, 49, -86, -19, -31, -88, 28, -45, -7, 29, -75, 93, 40, -73, 35, -95, -97, 67, -96, 52, -87, -30, 35, -94, -70, -16, -15, 36, -35, -64, -24, 95, -88, -49, -16, 4, -54, -3, -71, 80, -16, 14, 24, -70, -7, 78, -64, -86, 51, -64, 17, -68, 6, -77, -67, -92, 61, 98, 56, -63, 33, -5, -73, 52, 58, 38, -55, 78, 24, 53, -45, 81, -69, 40, 9, 61, -38, -93, -25, 30, -73, -45, 96, 49, 11, 86, -52, 57, 43, -19, -13, -60, 97, -74, -33, 67, 54, 89, 72, 10, -10, 24, 72, 28, -69, 50, 46, 88, 97, -28, 54, -61, -94, 79, 11, 63, -38, 73, -78, 42, -85, 78, -54, -86, 79, 28, -16, -67, 45, -3, -15, -60, 66, -52, -75, 96, -33, -89, -19, -34, -3, 13, -72, -40, -56, -70, 82, -61, 16, -85, 82, -73, 80, 28, -74, 17, 12, 8, -24, 81, -43, -26, 16, 32, -76, 59, 46, -66, 83, 40, -2, -82, -90, 80, -83, 52, -24, -57, -89, -94, -21, 63, -61, 36, -13, -33, 40, 54, -91, 92, -34, 4, 58, -45, -34, -13, 9, -75, -61, 49, 33, -6, -50, -79, -95, 33, 9, 75, -18, -35, 36, -3, -35, -60, 61, 36, 77, -4, 34, -75, -83, -98, -66, -38, -42, -46, 13, 43, -69, -93, 64, -60, 37, -91, 25, -75, 89, -52, 59, -53, -74, 96, 29, 84, -4, -65, 91, -54, -66, 6, 46, 46, 1, -28, -95, 20, 69, -37, 79, 81, 38, -98, -86, 50, -46, -39, -49, 12, 46, -89, -68, 43, -93, 85, -58, -98, 88, 52, -79, -51, -41, 86, 69, -66, 9, -82, -78, -91, 10, 64, -73, -65, -48, 74, -59, 43, 52, 20, -8, -56, -87, -56, -34, 91, -14, 95, -58, 11, -97, 77, 2, -14, -92, -34, 3, -74, 95, -55, 0, 74, 9, 6, -22, 89, 53, 2, 63, 67, 51, 79, 13, 83, 16, -97, -78, 40, -74, -36, -85, -25, 31, -6, -51, 74, 83, 10, 42, -67, 71, -64, 35, -1, -18, 24, -57, -71, 73, 12, -36, 29, -83, -82, -55, 25, -22, 72, 77, 50, 70, -72, 26, 80, 90, 17, -63, 5, 72, 76, -65, -77, 2, 50, -1, -41, -24, 34, 30, 43, 22, 73, -87, 95, 57, -9, -85, 57, 5, -33, 3, 74, 5, 56, -97, 75, -60, 92, -69, 45, 98, -73, 65, -41, -2, -43, 22, 1, 23, 16, 30, -18, -79, -82, 41, -88, 76, 60, -74, -93, 6, -92, -64, 46, -37, 71, -83, 85, 76, -47, 43, 58, -62, 78, 32, 28, -10, -74, 2, 62, -10, -57, 86, 80, 32, 94, 57, -5, -32, 69, 85, -2, 73, 66, -35, 6, 1, 55, 37, 61, -61, 21, -49, -26, 61, 85, 17, 96, -9, 74, 64, -67, -95, 62, -59, 46, -83, -42, 10, -97, -40, -79, -30, -52, 94, 63, 94, 42, -84, -39, -9, 58, -91, -46, -58, -2, 37, -50, -57, -35, 19, 69, -58, 56, -70, -62, 45, 82, -81, -95, 66, 68, -34, -54, 81, -42, -23, 0, 27, 81, -76, 40, -7, 86, -55, -60, 40, -82, -67, 93, 58, -2, 0, -51, 39, 97, 87, -82, 17, -47, 67, 57, -54, -50, 18, -54, 31, -13, 51, -45, -43, -22, -85, -68, -65, -42, -43, 84, 84, -33, -35, -38, 84, -91, -91, 76, 71, -88, -89, 0, -95, 84, -35, -79, 62, -71, -67, 80, 62, 73, 91, -69, -72, -9, -16, 52, -27, -66, -90, 75, -67, 6, 41, 32, -27, 63, 14, -52, 64, -5, -39, 74, 89, -96, -80, 64, -97, -11, -65, -36, -91, 7, -2, -20, -12, -87, 73, -72, 25, 57, -57, 87, -6, 19, -74, 84, -3, -27, 72, 47, -53, -40, 51, 71, 89, -87, 2, -66, -86, 39, -30, -63, 49, 23, 4, 52, -73, 93, -87, 80, 19, -55, -46, 77, -35, -86, -11, 3, 13, -30, 10, 14, -46, 40, 9, 49, -85, 59, -13, 69, 58, 68, -79, -12, -38, -21, 73, -2, 94, -75, -59, -11, -18, -19, 28, -46, 24, 75, 18, 5, 95, -56, -76, 31, 39, -49, -45, 10, 58, -24, -44, 23, -44, -25, -61, 86, 74, 61, 28, -59, -76, 23, 1, -87, -81, -23, -35, 24, 59, -9, -72, -64, -2, -67, 81, 2, -22, -48, 22, -69, 28, 85, 37, -25, 44, -36, -79, -88, 53, 7, -50, 69, 79, 38, 61, 94, 96, 69, -35, 20, -82, -34, 46, -56, 47, -7, 1, 77, 51, 82, -76, 42, -92, -71, 34, -90, -83, -77, 89, 67, -23, 8, 22, -57, -51, 46, 61, -38, -48, 17, 54, 81, -20, 39, 75, 47, 26, -38, 57, 33, 62, -88, -80, -73, -28, -51, 22, -78, 8, 30, 69, -24, 41, 14, -51, -8, -92, -86, -13, -91, 26, 98, 86, 68, -8, 35, 34, 94, -79, 47, 71, 94, -92, 22, 78, 94, 51, 85, 65, 45, -79, 34, -77, 24, 0, -13, 31, 4, 94, -94, 9, -90, 2, -94, -92, 70, 51, -55, -38, 96, 70, 78, -56, -71, -19, 28, 11, -68, -38, 78, -80, 23, -38, -17, 18, 89, -44, -16, 89, 18, -86, -12, 81, -46, -89, 55, 89, -45, 75, -95, 47, -35, -28, 2, -57, 11, -4, 90, -67, -39, 6, -25, 57, 44, 26, 11, 37, 89, -29, -47, -2, -32, 31, 78, -50, -70, 26, -89, -71, -62, 16, -33, 1, 26, 76, -63, -42, 9, -25, 68, -1, 45, -76, -71, 20, -97, 59, 95, 56, -76, 85, 26, -20, 12, 23, 93, -11, 72, 3, -79, -97, -89, 49, 41, 75, -13, 3, 13, -18, 63, 68, -4, -37, 33, 83, 21, 5, -72, 61, -41, 66, -59, 45, -55, -24, 24, -49, -34, 64, 8, -66, 93, -16, -48, -28, -67, -94, -70, 0, -65, -79, 63, -80, 65, -16, -44, 24, 3, -29, 73, 51, -95, -48, -4, -14, -78, -10, -21, 94, -65, -86, 84, -3, 73, 73, 2, -57, 80, -72, 4, 71, 42, 24, 8, 18, 86, -68, 48, -30, -8, 58, -45, -46, -54, -23, 69, 61, -43, -66, -24, 49, -35, 2, 89, -25, 5, -44, -47, 17, -9, 77, -50, 27, -12, 55, 13, -73, 8, 23, -17, -71, -18, -54, 33, 63, -81, 45, -61, 17, 26, -87, 47, 14, 41, 29, -7, -87, -12, 66, -3, -73, 11, 7, -18, -88, 58, 49, 70, -82, 9, -37, -73, 17, 12, -84, 14, 67, -80, -4, -97, -6, -71, -44, -53, 16, 72, -86, -3, 48, -45, 39, -43, 96, 33, 86, -78, 17, 21, 48, 2, 43, 22, 50, 9, -47, -81, -50, -74, -98, -13, 32, 90, -89, -5, 65, -18, -79, 96, 26, 66, 78, 55, 82, 47, 35, 20, -9, -96, 25, 51, 77, 37, -23, 6, 6, 27, -82, 16, -15, 77, -15, 56, -82, -53, 68, -83, 90, 89, 51, 13, -7, 32, -58, -47, 78, 28, 70, 34, -77, 68, -54, 18, -4, 95, 90, 83, 36, -34, -2, -93, 80, 96, 63, -54, -46, 26, 84, 95, -95, -15, -16, 4, -71, -20, -39, -67, 41, -51, -26, -1, -38, 64, -66, -63, -75, 13, -77, 43, 57, -58, -63, 61, -3, 52, -47, 50, -5, -16, -90, 43, -40, 50, -64, -45, 29, 18, -25, -79, -17, -27, 62, -8, -43, 21, -77, 85, 55, 74, -95, -97, 18, -33, 50, 43, 68, 92, 71, -82, 82, -24, 1, -64, -24, 36, 66, 27, 4, -69, -88, 58, 19, 75, -38, -28, -96, 2, 20, -61, -35, -50, -3, 60, 14, -92, -76, -17, -70, -44, -45, 86, 98, -16, 5, -11, 65, -63, -18, 54, -33, 19, -21, 67, 62, 43, -40, 60, -20, 96, 61, 50, 72, -17, -96, 29, 57, 77, -94, 13, -33, 84, -89, 79, -1, 11, 3, 80, -74, 98, -76, -81, 91, -19, 15, -86, 67, 7, -11, -38, -51, -67, -39, -10, 77, -33, -76, 26, -94, -68, 33, -28, 7, -84, -96, -36, 91, 12, -44, -77, 55, -60, 30, -64, -15, 73, 57, -57, 20, -28, 18, 1, -58, -16, -72, -5, -89, 60, -56, 46, -86, -12, 72, 64, -71, -86, -35, -53, 11, -71, 81, -88, -14, 13, 88, 4, -6, 94, 13, 48, 36, -53, -18, -14, 28, -34, -47, 70, 50, 20, -84, 3, -68, -86, 89, -42, 52, 79, 94, 29, 43, 96, 81, -31, 48, 38, 96, -1, 16, -25, -41, -75, 71, -69, -47, 1, -24, -11, -21, 91, -79, 31, 56, 76, -45, 50, 48, 14, -1, 84, 47, 1, 66, 12, -75, 75, 44, 75, 59, 15, 84, -84, -70, 87, 14, -42, 79, -22, 15, 64, -10, 15, -8, -35, -17, -89, 60, 44, 39, 46, 70, 98, -82, 48, -48, 12, -21, 10, -35, 61, -24, -85, 58, 12, -12, 36, 33, 48, -21, -91, -89, -57, -4, -24, -74, -20, 70, 0, -82, -77, 76, 62, -65, -23, 39, -82, -78, 7, 14, -26, -79, 56, 27, -30, 87, 5, 87, -67, -41, 72, -93, -15, 22, -12, -92, 15, 54, -15, -6, -73, 15, -87, -23, 97, -44, -55, 14, -41, -94, -35, 40, 3, 90, 1, 64, -13, -3, 90, 6, 18, 41, 88, -61, -7, 7, 30, -12, 23, -25, 81, -23, 64, 51, -87, -66, 42, 22, -27, 63, -50, -35, 95, 10, 23, 12, -18, 80, -21, -72, 29, -34, -9, -65, -79, 27, 60, -13, -30, 73, -70, 78, -59, 59, -97, -34, -2, -60, -58, 67, -42, -42, -95, -77, -62, -46, -31, -74, 12, 41, -55, 8, 92, -70, -96, 40, 31, 10, -54, 4, 30, -48, -82, 64, -20, -17, -75, -25, 39, 8, 65, -55, 83, -61, -46, -42, -76, -46, 24, 16, -46, -87, 40, -97, 15, 57, -88, 31, -41, -74, -25, -93, 30, 38, 81, -94, 52, 2, 46, -7, 20, 74, -57, -69, 18, 45, 63, 73, -27, -10, 56, -95, -25, 15, 47, -83, 94, -64, 18, -28, 85, -7, 85, -42, -21, -8, 33, -5, -41, -95, -84, 2, 71, -82, -49, -50, 89, -50, -13, 32, 46, -89, 17, -32, -2, -98, -28, -53, 35, 76, 46, -25, 44, -54, -24, -61, -25, -81, 59, 83, -94, -58, 37, 94, 82, -37, 9, -43, -12, -23, -9, 21, -51, 43, 86, 78, 74, -37, 66, -94, -55, -22, -11, -21, 39, -20, 23, 93, 46, 25, -40, 43, -92, 98, -69, -74, 57, -83, -52, 82, 43, 53, -86, 22, 92, 69, -92, -51, 54, -26, 60, 52, -63, 69, -70, -6, -27, 36, -28, -76, -52, 51, 18, 48, -76, -15, 74, -9, 88, 64, 20, 43, 46, 60, -4, 89, -86, -33, -1, 75, 21, 1, 62, 28, 93, -38, 54, -6, -48, -95, -2, -76, -22, 52, -12, -36, 68, 42, -68, 13, -59, -60, 42, 72, 65, -60, -97, 67, -72, -76, -62, -56, -3, 51, -53, 35, 17, 69, -51, -78, 6, -44, 46, 60, -43, 79, -19, 88, -28, 18, -59, 44, -98, -93, -72, 44, 87, 1, -51, -74, 11, -22, -20, -50, 12, 33, -64, 79, -98, 62, 0, 67, 74, 64, 18, 0, -90, -88, 51, 61, 98, -2, 97, -79, 74, 18, 91, 0, 70, -63, -5, 0, -17, 88, 37, 16, 34, 63, -81, 60, -22, 4, 53, -95, -12, 41, 5, -63, 43, 12, 48, -90, 53, 39, -94, 82, -92, -88, 87, -33, -22, 50, -96, -98, 43, 41, -35, -77, -36, 15, -71, 9, -86, -57, -52, 54, -57, 40, -73, 67, -47, 73, 9, -93, -56, 60, 84, -51, 17, 5, -68, 83, 5, 17, -7, -46, 18, 83, -92, -82, 64, -53, -30, 25, -35, 93, -36, 7, -20, 60, 90, -6, 30, -20, -76, -39, 23, 14, 70, 47, -57, -50, 14, -33, -82, 12, -35, 35, 23, -11, -72, 40, 54, 62, -58, -7, -48, -64, 0, 79, 92, -46, 15, -62, 72, -7, 4, -92, 45, 90, 74, 29, -98, -80, -38, 11, 56, -10, 87, -12, 74, -47, -56, -90, 51, -77, -40, -84, -65, 1, 60, -95, 90, 78, 21, -86, -14, 46, -38, 81, 15, 4, -95, 78, -71, 47, -44, 79, 44, -58, 43, -4, 84, 47, 53, 35, 66, -10, 88, 73, -70, -6, 47, 14, -47, 83, 60, 37, 22, 1, -35, 34, -3, 0, 21, 58, -10, 82, 21, 30, -26, -56, 93, -62, 75, 77, -11, 39, 54, 20, -41, 61, 89, 78, -14, 29, 64, -30, -63, 25, -19, -40, 65, -79, 56, 83, -56, 79, -29, -42, 48, -78, 78, -74, 14, -85, 4, -7, 78, 21, 71, -75, -26, -42, 59, 33, 67, -36, -86, 64, -81, 39, -83, -43, -79, 59, -97, -28, -65, 92, -81, 97, -32, -48, 32, 32, -91, 10, 42, -5, -77, -8, 45, -32, 32, 60, -96, -91, -33, 70, 65, -85, -82, 83, 39, 75, 88, -64, -29, 31, -76, 7, 10, -80, 20, -7, -17, 0, 52, 56, -14, 26, 17, -9, 5, 24, 48, -74, -1, -85, 15, 98, -5, 54, 40, -73, 18, -71, 34, -7, -46, 94, 44, -35, -67, -31, 41, -78, 36, 13, 9, 85, 54, 81, 68, -54, 31, 6, 25, 4, -92, 92, 51, 30, -28, -72, 16, -91, 46, -92, -57, -3, 18, 78, 57, 30, 14, 65, -65, 37, 47, 84, -4, 12, 35, 10, -49, 96, 53, -21, -53, -62, 80, -43, -56, 15, 0, -15, 25, -52, 37, -50, 79, -71, 93, -35, 68, 61, -39, -56, -36, 64, 48, -15, -78, 34, -65, 13, -92, -79, -40, -69, 95, -60, 13, -58, -34, -89, -21, 72, -18, 24, -37, -8, -44, 78, 31, 74, -28, 70, 21, 89, 13, -16, 15, -57, 76, 50, -49, 41, -39, 21, -32, -35, 57, 66, -68, 92, 64, 42, 28, 59, -44, 70, 53, 27, -83, 82, -95, -77, 80, -45, 28, -26, -88, 82, 68, -38, 88, 35, -53, 88, 78, 46, 3, -78, 88, -47, -97, -26, 28, -84, 39, -37, 92, 47, -72, 74, 50, 69, 34, -51, 51, 31, -43, 30, 50, 93, 67, -29, 80, 55, 60, -62, 64, -56, 77, -75, -87, 67, -19, 25, -9, 55, -50, -55, -42, -75, -68, -13, -43, 66, -47, 61, -13, 7, -62, -89, -75, -13, -94, 25, 94, -4, 51, 3, 86, 71, -33, -97, 97, 34, -66, -52, -58, 7, 35, -29, -93, -12, -55, 82, -72, 40, -23, -79, -38, -22, -87, 35, -31, 94, -98, -19, 89, 16, -43, 79, 16, -20, 23, 96, -51, 22, -85, -70, 94, 78, -58, 33, 83, -63, -1, 58, 81, -17, 14, -43, 8, 6, -58, -83, 21, 85, 81, 9, 84, 14, -75, 4, -16, 8, 71, 30, -41, 78, 70, 28, 53, -14, -58, 5, -96, 93, 47, -26, 25, 98, 98, -14, 13, -32, 96, -44, -59, -44, -38, -41, 61, -59, 51, -7, 13, 32, -55, 12, 52, -78, -72, 58, -53, -41, 98, -34, 32, -17, -27, 44, -1, -23, 93, -9, -54, -60, -58, -45, 84, 69, -62, 26, 27, -52, 85, 84, -48, 43, -17, 13, 13, 17, -96, 71, 60, -52, 73, -10, 0, 9, 15, -96, 5, -40, 41, 36, 47, -75, -68, 54, -50, -93, -11, 59, 62, 74, -77, 86, 74, -10, 15, 68, -60, -94, 91, -47, -16, -75, -61, 7, -29, 1, 73, 26, 63, 17, 5, 93, -11, -84, 61, 53, 77, 73, 6, 44, 74, 7, -16, -50, -89, -54, 74, 45, -39, 68, -12, 31, 26, 89, 88, -69, 58, -12, 32, 24, 3, -90, 2, 64, 92, 68, 44, 62, 45, 83, 19, 52, -54, -21, -54, -86, 34, -8, -2, 48, 47, 11, -83, 89, 0, -91, 60, -74, 6, 42, -80, 36, -30, -20, 45, 55, 83, -41, 68, -18, 53, -94, -27, -6, -33, -16, -17, 73, 62, 85, -89, -71, 51, -9, -12, -33, -25, 26, -82, -38, -85, -24, 14, -47, 57, -14, -18, 85, -34, -82, -70, -27, 50, -57, -54, 71, 26, -56, -63, -37, -67, -7, 83, 26, -66, 46, -52, -73, -92, 78, 91, -97, 68, 49, -31, 45, 51, -14, -48, -56, 2, -53, 13, -23, -31, 66, -5, 11, 4, 71, -84, -50, -90, 67, -66, 15, 60, -98, 66, 91, -19, -10, 68, 83, 59, -74, 85, -84, -72, 84, 5, 45, 61, 86, 15, 6, 51, 97, 81, 62, 28, -29, 41, -96, 55, -1, -7, -73, -5, -96, 69, 81, 35, -24, 68, 81, -89, -76, -20, 91, -39, -89, -65, -53, 66, -47, 35, -57, -44, 8, 21, -81, -16, 19, -40, 25, -91, 37, 0, 75, -1, -60, -52, 58, 25, -67, -36, -72, -33, -72, 9, 79, -66, 25, -94, -8, 51, 30, -37, -57, -60, -73, 47, 53, 75, -74, 74, 62, 39, -65, -95, -90, -38, 79, -57, 43, 76, -84, 20, -61, 41, 50, -93, -41, -4, -77, 20, -11, -48, -59, 61, -92, 88, 53, -34, -63, 95, 26, 98, 58, 41, -65, 89, 62, -84, 54, 67, 44, -1, 57, 49, -29, -45, -80, 38, 42, 56, 18, 13, 70, 79, -3, 74, 11, -5, -6, -56, -87, -36, 87, 95, 88, 20, -11, 42, 41, -54, -35, -12, -3, 29, 38, -45, 67, 14, 46, -68, -91, 27, 26, 96, -13, -62, -82, 1, 58, -47, -4, 90, 68, 87, 51, 7, -35, -86, 78, -66, -19, 86, 35, -18, -11, -43, -26, 79, -55, -37, 32, -41, -73, 83, 68, -72, -11, -91, 78, -45, 97, -16, 81, -80, 17, 7, 95, -84, -42, 20, 70, 45, -10, 0, 71, -2, 6, 65, -94, -65, 10, 81, -78, -48, -74, 37, 14, -91, -77, 48, 38, -58, 95, 58, -81, 46, 58, 25, -69, 87, 53, 66, -48, -29, 19, 3, 7, -89, 14, -7, -28, -65, 80, -16, 9, -66, -73, -12, -57, 92, 60, 7, 42, 91, 11, -6, 92, -7, 16, 97, -48, -38, 32, -96, 63, 45, -5, 16, -62, 64, 73, -16, -48, -32, 58, -94, -87, 19, 26, -63, -4, 25, 19, 56, 86, -26, 36, -20, 60, -6, -7, -87, -69, -57, 56, -89, -43, 68, -71, -54, 2, -78, -57, 74, 48, -10, -38, -91, -25, 43, 94, -48, 29, 49, 43, 3, -43, -48, -92, -88, 57, -51, -40, -1, 42, 40, 42, 32, -96, -81, -8, -48, -92, 11, -28, 70, 90, 31, -77, -39, 6, -70, -93, 30, 65, 36, 66, -57, -54, -14, 59, 35, 54, 24, -6, -58, -26, -49, -51, 52, -24, 45, -36, -50, 31, 98, 68, 50, 94, -29, -27, 43, 36, -22, -78, -78, 21, -36, -53, 77, 2, 90, 95, -81, -83, -46, 75, -20, 32, 0, -83, 93, 74, -30, 55, -64, 47, 93, -89, -53, -31, -22, 25, -8, 83, 95, 37, -60, 28, -5, 94, 62, -13, 95, 92, -93, 0, -94, -33, -56, -47, -84, -29, -85, -72, 63, 90, -17, -34, 90, 36, 43, 68, 24, 87, 27, -83, -55, 49, -89, -66, -71, 11, -43, 7, -5, -44, 59, 98, 93, -8, 84, -15, 74, 45, 23, -57, 85, -19, 73, 77, 33, -81, -11, 9, 58, -80, 25, -51, -44, -68, -57, 79, -77, -21, 94, -31, -21, 51, 42, -19, 11, -86, 65, 54, -71, -48, 69, 46, -75, 23, -25, 18, 17, -97, -89, -29, -17, 94, -50, 27, -18, 6, 11, 44, 10, 6, 26, -38, 97, -48, -3, 84, 7, -38, 90, 78, 3, -65, 29, -93, 56, -31, -26, 6, -98, 57, 43, 66, -15, 8, -71, 71, 1, 68, -56, -21, -17, -27, 93, 88, 30, 40, 73, -58, -78, 17, 67, 31, -3, -98, 64, -96, -66, 85, -21, 50, 49, -77, -71, 34, -77, -94, -96, -43, -98, 15, 56, -41, 60, -95, -83, 97, 84, 86, 23, 57, -75, -93, -56, -96, 79, -19, -73, -64, 66, -42, -8, -12, 27, 60, 44, 22, 65, -76, 52, -15, -97, 79, -36, -19, -46, -88, -25, -82, 16, 0, 5, -19, -51, 16, -20, -62, -76, 47, -11, -17, 28, 70, 37, -25, 13, -54, -36, -28, 87, -57, -77, -94, 27, -31, -79, 31, -43, -1, 23, 34, -50, 90, 77, 13, 48, -69, -95, -14, -93, 18, 16, -47, 78, 10, -65, -92, 47, 45, 18, 57, 33, -58, 4, 26, 4, 69, 67, 51, 86, -63, -73, 65, 69, -33, 60, 70, -61, 68, -58, 17, -38, -67, -81, -37, -33, 6, 59, -95, -13, 83, 9, -39, -87, -40, -30, -70, -60, 30, 5, -39, -29, 85, 97, 49, -58, 20, 41, 23, -8, 77, -67, 37, -59, 42, 65, -42, 19, 12, -46, 9, 24, -67, 92, -65, -6, -94, -18, -5, 88, 87, 12, 12, 79, 43, -24, -61, -48, -98, -40, -56, -40, 4, 45, 72, 43, -66, 81, -29, -91, -77, 41, 89, 1, -96, 69, 43, -57, -68, -52, 79, -97, -2, -82, 92, 63, -29, 48, -51, -22, 54, 81, -68, -30, 75, 51, 53, 19, -98, -53, -82, -69, -36, 76, -32, 91, -33, -28, -92, 35, -33, -85, 81, 52, 94, -3, 41, -16, -75, 24, -93, 1, -50, 64, -92, -75, -12, 59, -59, -70, 65, 65, 78, 58, -87, 58, -54, 56, 18, 62, 89, 94, 89, 68, -46, 91, 67, -45, 15, -41, -21, -59, 41, -32, -83, 94, -1, 13, -47, -13, -65, 25, -88, -23, -89, -62, -30, -80, 56, 72, -55, 49, 67, -41, 91, -87, -1, -23, -41, -95, 20, -89, -84, -71, 37, 27, -93, 30, 67, -50, -14, -81, 64, -3, 51, 60, -14, -31, 89, -78, -82, -77, 18, -44, -76, -40, -73, -62, -50, -23, -69, -18, 56, 16, -3, -46, -36, 71, -45, 25, -49, -60, -56, 70, 97, 89, 90, -5, -94, 98, 18, 85, 23, -85, 67, -45, 5, 38, 53, -35, -93, 96, -74, 66, 6, 66, 13, -8, -76, -85, 31, 29, 93, 35, -72, 1, -87, 21, -8, -52, 47, 56, 14, -78, 33, 19, -87, -86, 0, 50, -66, 54, -95, -90, -85, -59, 61, -62, -34, 78, -26, 67, 5, 74, 35, 98, -53, -85, 35, -41, 60, -48, -29, 28, -40, 56, -48, 68, -13, -27, 27, -53, -58, -86, 42, -13, -8, 37, 56, -8, -45, -79, -79, 58, 12, -14, -73, 82, 36, -61, -55, -82, 11, 66, 16, -91, -69, -61, 51, -38, -29, 36, 31, -46, 28, -10, -39, 88, -28, -39, 92, 39, -69, 4, 47, 64, 28, 72, -5, -78, -44, -73, 14, 43, -98, -70, -46, 56, -79, 96, 37, 3, 0, 40, -89, -52, -82, -74, 98, 34, -95, -71, -59, -67, 8, 0, 29, 36, 15, -16, 46, 34, 60, -12, 96, 64, -60, 51, -98, 13, 16, -37, -10, 45, -64, -77, 94, 25, -9, -49, 23, 39, -95, 21, -80, -21, 57, -27, -88, -97, -37, 69, -14, 15, -86, -8, -66, -52, -35, 54, 43, 77, 55, 63, 7, -79, 86, -3, 64, -87, -95, -97, -39, -84, -95, 74, 80, -86, -91, 86, 63, 94, 13, 88, -7, -14, 71, 50, 98, -33, -85, -70, -78, 34, -22, 30, 56, 93, -67, 13, -63, 96, -41, 59, 39, -75, 23, 86, 97, -45, 10, -3, 20, -76, 77, -67, -13, 45, 54, -82, 53, 18, -90, -24, -34, 11, -72, 14, -79, -28, 80, 16, -48, 18, 98, 44, 93, -94, -97, -52, 75, -11, 41, 48, -10, 19, 51, 88, 28, 86, 80, 70, -67, 92, 12, 26, -48, -79, -78, -36, -74, -10, -39, -67, -48, -47, -89, -46, -2, -57, -59, -6, 73, 76, -53, 44, 48, 62, -16, 6, -55, 37, -14, 73, -56, 82, -39, -43, 17, 53, 98, -42, -90, -7, -31, -56, -16, 40, 98, 2, -91, -31, 6, -38, -68, -79, 97, 91, -12, 59, 83, 34, -49, -29, -94, -75, 65, -82, -9, 0, -12, -16, -39, -24, -34, -81, 73, 39, 26, -71, -8, -61, 24, -51, -49, 89, 19, -52, 7, 22, -53, -55, -9, -27, 9, -47, -55, -54, -7, 83, -61, 31, -22, -69, 41, 46, -45, -41, 5, 56, -22, -41, 58, 20, -65, -12, -85, -33, -78, -92, -62, -8, 18, -24, 12, 31, 72, -75, 78, 18, -52, -30, -86, -16, -57, -46, 12, -2, -8, -28, -96, -65, 55, -2, 64, -21, -70, -80, -67, 86, 51, 11, -25, 71, 38, -33, 8, 86, -32, -85, -10, -43, -94, 52, -93, -6, 2, 94, 67, -31, -69, 42, -45, -24, -15, 7, -59, 1, 57, 72, -43, -56, -6, -56, -71, -91, -15, 57, -31, -23, -88, -67, 97, 35, 31, 26, 3, 29, -12, 26, -67, 61, 16, -77, -33, -25, -34, 14, -86, -79, -44, 78, -13, 43, -10, 96, 8, -82, -37, 70, 5, -80, 11, -70, 13, 55, 52, 18, -11, -23, 57, -30, -49, -75, 56, 16, -11, 33, -35, -6, -21, -44, -20, -81, 13, -50, 40, 28, -74, 4, -15, 49, 59, 52, 24, 22, -6, 10, 9, -68, -96, 46, -1, 3, -40, 0, -8, 9, 28, 41, -12, -39, -25, 65, -20, -66, 28, -32, -24, -82, 1, 46, -91, -91, 30, -7, -58, -77, 97, -47, 21, 6, 67, -42, -7, 2, 17, -87, -65, -2, 95, 39, -64, 38, 23, 77, 84, 24, -92, -45, -61, 19, -70, -59, 90, 59, -10, -37, -98, 29, -2, -28, 9, 2, -24, 4, 19, -71, -30, 96, 59, 23, 0, -6, -42, -51, 58, -12, 5, 35, -63, -40, 10, 4, 95, 6, 41, 35, 24, 49, -88, -36, 59, -52, 79, -65, 59, 49, 58, 24, 48, -37, 70, -96, -91, 75, 14, 41, 8, -37, -14, 6, 56, 54, -62, -72, -57, -82, 42, -89, -22, -33, 87, -65, 76, 81, 37, 80, 91, -10, -4, -83, 66, -45, 26, -75, 97, 64, -15, 25, 8, 4, 23, -96, 24, 55, -71, 73, 46, 61, -91, -31, -14, 79, -75, 33, 15, 84, -91, -55, -39, 11, -92, 48, -38, 83, 32, 7, 93, -53, -33, -40, 96, -39, -40, -19, -89, -8, 78, 44, 48, -22, -34, -57, 14, 17, 80, 3, -13, -89, -34, 46, 49, -15, 60, -44, -2, 19, -18, -55, -37, 67, 39, -59, 28, -36, -40, -20, -58, -70, 24, 47, -88, 23, 67, 50, -87, 4, 42, 70, 70, -64, -70, 62, -72, -30, 50, 40, 29, -42, -12, 53, 33, -73, 17, 41, 87, 29, -22, 39, 6, 68, -19, 20, -20, 35, 62, -96, 37, -29, -39, -6, 2, 85, -77, 77, -66, -75, -45, 63, 52, 90, -77, 68, -6, 97, 5, 75, 2, 98, 52, -38, 86, -45, -52, -7, -40, -19, 63, -54, -64, -22, -16, -49, -63, -8, 79, -25, -36, -29, 36, 2, 27, 80, 32, -79, 31, 71, 22, -96, -67, -45, -26, 86, -54, 70, -50, 58, -17, 62, 11, 33, 23, 31, 56, -85, 76, 38, 64, 11, 50, -47, -80, -76, 19, -34, -15, -36, 32, 64, 53, 27, -89, -20, 98, -91, 60, 34, 94, 72, 16, 72, 19, 13, -39, -77, -74, 32, 28, -94, 19, 14, 62, 17, -31, 39, -40, 6, 42, -83, -81, 20, 92, 83, -52, -73, -93, -83, 20, 81, 77, 87, 21, -73, -36, -30, 67, 21, -57, -7, 65, -68, 11, 22, -17, -42, 82, 4, 83, -45, -60, -58, -27, -89, -20, 67, 5, -28, 37, 56, -88, -98, -26, -67, -33, -10, 44, 44, -18, -63, -53, -79, 12, 10, 47, -70, -74, -19, 66, -91, 29, 17, -70, 79, 46, -31, -15, -22, -6, 28, 65, 47, 4, -84, -36, 24, -93, -70, 19, 16, 51, 64, -96, 22, -17, -57, -49, -26, 29, 64, -55, 15, 85, 38, 37, 43, -15, 65, 18, -46, -49, -32, -91, 88, 64, 56, 81, 6, 23, -68, 2, -63, -52, -68, 14, -7, 76, -34, -62, 73, -98, -53, -34, -15, -10, 34, -65, 96, -45, -54, 80, -23, 16, 79, -73, -61, -76, -36, 41, -87, 72, -50, 25, 67, 55, 29, 54, 97, 81, -6, 38, 35, 75, -16, -91, -57, -66, 22, 44, -16, 12, -17, -22, -34, -58, 89, 9, 88, -28, -7, -88, -21, 89, -46, -18, 76, 45, -53, 14, 60, -59, 50, 16, -21, -4, -91, 1, 89, 90, -18, -33, 2, 7, 45, -79, 15, -35, -19, 6, 57, 66, 69, -21, 16, -95, 44, 62, -15, -12, 44, 27, -69, 86, -41, -1, 51, 2, -38, -98, -34, -89, -90, 84, 22, 72, 27, 70, -49, -4, 21, 37, -57, -87, 74, 71, -72, 94, -31, 29, 67, 1, 58, 46, -48, 86, -82, -79, 69, -41, -70, 92, 72, 48, 75, -25, -25, -93, 64, -31, -48, 81, -32, -12, 6, -88, 43, -80, 36, -5, -67, -80, -60, 18, -44, 91, -79, -15, 15, -76, -96, -55, 43, 82, -21, -59, 25, 80, 94, 22, 23, -23, 38, 25, 46, -46, 51, -95, -42, -68, -85, 52, 22, 21, 91, -33, -4, -37, -59, -14, 83, -39, -12, 73, 14, 2, 10, -87, 56, -62, -32, -7, 94, -40, -96, 94, -88, -44, -70, 86, -6, -30, -92, 33, -78, 40, 35, 40, -46, 25, 7, -65, 89, -24, 27, 70, 46, -15, -64, 68, -63, -41, -26, 50, -98, 66, -76, -8, 19, 1, 94, 73, 73, -18, 96, 61, 63, -49, -10, 83, 94, -46, 57, 77, -79, -56, 41, -69, 18, 15, -24, 35, -95, 23, 65, -89, -40, -73, -36, -44, -50, 37, -69, -35, 70, 74, -33, 69, -65, -53, 16, -55, 7, 89, -16, -12, -96, 22, -92, 85, -80, -62, 83, -96, -35, -46, 55, -15, 18, -1, -41, -57, 44, 58, -97, 46, -26, 12, 41, -88, -96, -23, 76, 3, 68, -34, 93, -97, -88, 50, 11, 28, 65, 37, -38, -9, 15, 16, 95, -9, -68, 98, 21, 1, -24, 79, -75, 84, 79, 34, -41, -70, -84, 7, -4, -70, -72, 5, 75, -35, 50, -16, 71, 38, 16, -41, -28, -72, 44, -17, -92, 91, 58, -7, -5, 4, 83, 41, -81, -53, -37, 37, 78, 44, -67, -78, 96, 17, -47, -2, -90, -84, 47, 47, -60, -15, 35, -33, 23, 71, 72, -71, 5, 96, -4, 97, -78, -50, 10, 23, 74, 79, -83, -84, 8, -40, -80, -16, 38, -69, 68, 27, 0, -71, 62, -46, 13, -60, -23, 49, -39, 5, -11, 70, 83, 19, 72, 49, 86, 87, -91, 44, -43, -71, -35, 5, -37, 55, -66, -27, 85, 68, 1, 48, -92, -15, -85, -14, -3, -10, -64, -32, 51, -4, 38, -2, 54, 12, -79, -27, -77, -40, 24, -83, -77, -7, -50, 38, 37, 82, -95, -19, 65, 20, -4, 58, 36, 42, -44, 64, -64, 83, 40, 64, 87, -98, -12, 35, -9, -25, 58, -37, 47, -30, -91, 67, 25, -37, -24, 57, -19, 12, 3, -76, -57, 58, -24, -9, -98, 57, -76, -11, 77, -90, 64, -30, 2, -7, -75, 44, -53, -84, -54, 67, 58, -98, 91, 45, 12, -96, -28, 5, 38, 93, 15, 57, 36, 39, -53, 63, 20, -91, 40, 45, -96, -94, 92, 10, -6, 92, -98, 73, -72, 2, 42, 97, 3, 95, 12, -61, -71, 22, -21, -13, 23, 96, 38, 72, -70, -43, -36, -54, -20, -51, -44, -69, 11, -88, 12, -72, -91, -76, -34, -63, -89, 85, 85, -4, -29, 21, -31, -22, -11, 64, 91, -85, 17, 95, 42, 46, 12, 81, 14, -66, 19, -92, -44, -8, -48, 18, 11, 50, -39, 72, -71, -46, 8, 67, 81, 35, -58, -60, 44, 66, -35, -90, 60, -47, -49, -65, 65, 60, -81, 42, -79, 41, -61, -69, 32, -47, -74, 67, -76, -95, -94, 92, 71, -10, -8, -54, -68, 41, -1, 32, 21, 75, 58, 34, 46, 7, 81, -60, 57, 28, -52, 4, -10, 74, 10, 62, -91, -64, 95, -69, -78, 28, 1, -76, -66, 97, -97, -95, 91, 50, 47, 31, 49, 90, -82, -71, -54, 93, -85, 26, 12, 56, -4, 52, -98, 49, 34, 52, 35, 78, 86, 79, -28, -59, 35, -5, -81, -50, -78, 86, -30, -79, 13, -30, 35, -93, -88, 24, -61, 4, -2, -6, 81, 97, -76, -31, -56, 19, 70, 52, 19, 46, 28, -89, -48, -12, 47, -28, -2, 7, -62, -18, -42, -46, -88, 44, -84, -66, -31, 23, -65, 37, 88, 60, 77, 43, -51, 69, -44, -73, 7, 42, -56, -69, -49, -71, -45, 69, -66, -38, -7, 25, -64, -6, 92, -91, -40, 82, -84, -27, 61, 22, -14, 1, 34, -35, -10, 7, -37, 46, -61, 58, 88, 6, 29, 63, 54, 30, -91, -82, 44, 49, 36, 16, -41, -48, -4, 66, -14, -93, -9, 0, 44, -43, 56, -53, -54, 45, -55, 32, -28, -1, -88, 71, -35, -34, -7, 29, -60, -73, -3, -64, 59, -23, -38, 20, 80, -66, 28, 30, 20, -57, -8, -30, 27, -27, 96, 30, 29, 25, -6, 68, -6, 81, 43, -53, -81, -8, -26, 66, 39, 53, -89, -66, 73, 56, 94, -30, 62, -27, 96, -15, 43, 72, 92, 60, -51, -86, 82, 23, -15, 13, -92, -53, -46, 58, 89, 60, -85, -17, 63, 76, 81, 89, 65, -26, -58, 67, -37, 45, -56, -73, 4, -60, -63, -13, 78, -80, 28, -81, -48, -34, 98, 27, -7, -12, 3, 69, 68, 77, 57, -36, 55, -45, 91, 84, 68, 63, 86, 76, 2, -75, -38, -4, 16, 51, -75, 30, -97, -96, -12, -21, 0, 73, 32, -94, -43, 19, 72, 8, -28, -38, 46, -97, -8, 82, 56, 89, -35, -90, -28, -14, -33, 80, 54, -67, -28, -65, -41, 3, 28, 93, 29, 24, -41, 76, -32, 11, -55, 8, 63, 61, 40, 42, 29, 61, -25, -62, -34, -46, -77, 73, -88, 9, -29, -79, -92, -96, 64, -22, 50, 52, -77, -68, -23, -65, 5, 3, -63, -72, 10, 46, 2, 51, -35, -42, -75, 18, -53, -43, 13, -49, 41, 55, 82, 23, -8, 11, -50, -84, -84, -18, -32, -8, -53, -5, 73, 14, -29, -14, -89, -3, 77, 16, -18, 32, -30, 38, 93, -18, 98, -19, -69, 32, 31, 98, -45, 40, 92, 10, -35, -97, -94, 23, 15, -31, 36, 53, 20, -37, -4, -42, -85, 72, -94, -50, -30, -68, 24, -28, -61, 87, 19, -4, -31, -10, 39, -14, -71, -80, 97, 0, 72, -94, -38, -33, 30, -20, 90, -52, 69, -94, 69, -35, 12, 63, -82, -56, -44, -16, 58, -55, -73, 95, 2, -38, 74, 25, -47, -36, -38, -23, 1, 51, 52, 83, -66, -53, -51, 2, 29, -77, 37, -28, -51, -37, -80, 77, -78, 83, -26, -81, 86, -31, -35, 72, 70, -94, -11, 44, -89, 14, 37, 22, -25, 44, 61, 77, 67, -22, -25, -51, 1, 59, -51, 26, 15, 29, 98, -34, 73, -86, -24, -47, 24, 45, -6, -52, 81, 76, -97, -53, -90, 37, 59, -20, -33, 55, -72, -54, 63, 90, 30, 81, 70, -37, 37, -44, -79, -77, -71, -36, 52, -7, 19, -7, -46, 4, -93, -98, -94, 78, -81, 76, -30, 48, -94, -82, 62, -52, 88, -16, -96, -50, 45, -72, -5, 89, -17, -24, 73, -2, 41, -51, -56, -55, 58, 55, -54, -31, -55, 5, 32, 50, -85, -86, 83, 52, 93, -47, 28, 28, 89, -88, 13, -42, -46, -28, 42, -69, -76, -46, -83, 53, -17, -97, 50, 34, -20, -94, 62, 23, -2, 26, 46, -51, -94, 94, 89, 8, 71, 11, 90, 13, 60, 4, 52, 12, -94, -80, 52, -6, 74, -94, 57, -71, 17, 24, -32, -9, 83, 63, -75, 67, 61, 83, 3, 10, -57, 93, 12, 19, 64, -26, -22, 75, -55, 46, 32, 16, -32, 69, -18, -51, 43, -70, -71, 70, 54, -98, 94, -5, -73, 1, -17, -95, 37, -81, 71, 51, 73, 24, 4, -98, 43, 13, -53, 84, 84, 39, -27, 53, -68, 6, -11, 25, 47, -59, -18, -43, 3, 48, 78, 90, -4, -16, -2, -19, -92, -70, 82, 10, 90, 38, 50, 22, -96, 59, 81, 36, -32, -46, -76, 90, -11, -84, -53, 89, 90, -56, -17, 86, 55, -43, 77, 55, -25, -21, -24, 93, 50, -66, 42, 94, -51, -40, -76, 75, 61, 58, 36, 95, 14, -77, -72, 57, 90, 25, -65, 63, -54, -88, -79, 98, -65, -87, 17, -92, -86, 50, 48, 63, -92, 46, -23, 36, 71, 58, -60, -61, -31, -45, 12, -69, 48, 72, 48, 58, 28, 6, 58, -67, 79, -24, -85, -58, -26, 27, -87, 66, -51, 16, -18, -51, -53, 69, 97, -88, -43, 85, 69, -2, 61, -45, 81, 50, -68, -67, 29, 19, 16, -3, 52, -83, 26, -4, 90, -57, 39, 71, -69, -27, -56, -17, 80, 11, -84, -70, 1, 49, -46, 11, 92, 78, 84, 35, -93, 60, 34, -83, 43, -50, -29, -62, 53, 88, 67, 87, -24, -76, 29, -92, 21, 59, -63, -10, -32, 67, -78, 38, -19, 18, -46, 79, -58, 89, 97, -20, -49, 30, 52, 81, 71, -77, -11, 82, -53, 94, -35, -2, 95, -56, 59, 35, -2, -82, -27, -1, 5, -94, 34, 4, 9, -77, 64, 7, -45, -34, -49, 51, 44, -71, 20, 20, -57, 82, -20, 95, 51, -52, 24, -93, -24, -84, 90, 7, 27, -55, 42, 29, 60, -3, -14, 93, -64, 15, 24, -69, -87, -43, 30, 58, 65, -5, -67, -35, -15, 37, -11, 67, -85, -23, -13, 16, -67, -31, -11, 50, 77, 91, 22, 29, -2, -64, 84, 68, -54, -27, -77, 62, 48, 95, -83, 21, 90, -11, 14, -24, -71, 47, -76, 92, 20, -96, 3, 84, -10, -89, -61, -30, -28, 72, 4, -6, -69, 93, 53, -82, 47, -39, -67, 67, -89, 46, 13, -24, -16, 63, -97, -63, 85, 18, -20, 44, 40, 54, -6, 16, 18, 13, 83, 98, 97, -54, -82, 65, 61, -55, -76, -57, -55, 72, 22, 8, -79, -79, -19, 79, 41, 54, -35, 16, -44, 87, 84, 52, 27, 10, -78, -44, 79, 69, -37, 62, -23, -58, -20, 0, 13, -44, 30, -19, 82, -98, 80, -97, -90, -7, -68, -91, 74, -82, -20, -36, -1, -44, 62, 93, 47, 74, -91, 92, -19, -67, 12, -56, 92, 54, 58, 20, 13, 64, -52, -1, -17, 57, -76, -69, 60, 22, 68, 90, 37, -64, 89, 14, -16, 18, 30, -20, 29, -12, -22, -37, -73, -20, -79, 27, 5, -29, 88, 48, 54, -61, 70, 40, 25, -90, -47, 15, 87, -80, -48, 16, -58, -97, 34, 48, -63, -7, 29, -25, -80, 94, 64, -51, -17, -22, -24, 73, 98, 5, -31, -60, 4, -42, 53, -91, 83, 9, 74, 87, -86, -17, -86, 11, -6, 12, -7, -48, 66, -71, -29, 0, 87, 18, 37, 22, 66, 57, -51, -82, 59, 41, -72, -95, -25, -12, 93, -97, 43, -50, -91, -57, 15, -93, -74, -14, -18, 30, 54, -35, -4, 26, 54, 97, 5, -44, -45, 46, -96, 5, 36, 16, 41, 38, -82, -13, -85, 57, -35, 46, -22, -62, 81, 88, -78, 96, -42, -84, -61, -67, -29, 64, 45, -15, 33, -84, 9, 3, 8, -62, -35, -72, -71, -86, -68, -66, -41, -75, -95, 11, -64, -57, 30, -95, -83, -31, 36, -40, 67, -64, -85, -94, -2, -75, -32, -1, 46, -65, -97, 39, 74, 0, 15, -36, 91, -57, 66, 13, -56, 26, -32, 89, 33, -2, -70, 91, 84, -17, 2, -16, 85, 85, 93, -86, 8, 54, 31, 16, 45, 65, -40, -19, -9, 19, -22, -86, -76, -66, -84, 74, 67, -6, 31, 97, 39, 72, 44, 48, 78, -86, 18, 94, -61, -74, -79, 35, -94, 57, 86, -15, -63, -12, 89, 45, 38, 5, 62, 2, 54, 17, -60, -26, 86, -56, -42, 13, -35, -75, -6, -16, 30, 56, -18, 50, -44, -83, 6, -22, 33, -36, -4, 72, 10, 46, 54, 52, 4, -30, -8, -16, -66, -92, 50, 55, -80, -73, -39, -19, -64, -73, -9, -14, -56, -31, -54, 69, -11, 35, 11, 85, 1, -95, -13, -43, -34, -26, 9, -55, -43, -7, 56, -20, -65, -14, -31, 3, -26, 37, 31, 35, -32, -1, 39, 60, 21, 9, 24, -52, 34, 85, 85, -76, -46, -44, 15, 19, -23, -25, 82, -14, 25, 32, -51, 37, 86, -89, 25, -5, -45, 62, -92, -12, 50, 37, -92, -51, -16, -94, -78, 24, 24, -49, -2, -54, -82, -19, -45, -99, 62, 2, 45, -69, 22, -33, 35, 84, 77, -97, -89, -1, 70, 12, 35, 93, 18, -79, 51, 45, 80, -58, 30, -83, -45, -11, -55, -97, -72, 67, -58, -21, 62, -35, 91, -71, 79, -11, -32, 98, -70, -40, 90, 50, 94, -5, -4, -44, -69, 44, 73, -2, -27, 69, 5, -79, -33, 32, -23, -11, -93, 17, -74, 73, 76, 17, -5, 79, 47, 72, 83, 25, -79, 47, 54, -29, 57, 71, -62, 11, -24, 55, -23, 65, -33, 32, -56, -41, -6, 82, 5, 11, -70, 27, -63, -50, 29, -61, -80, -96, 36, 98, 13, 87, 75, -4, -58, -22, 43, 88, 13, 77, -52, -77, -55, -20, 35, 93, 65, 10, 24, 48, -72, 39, 95, -88, 54, 38, 81, -33, 1, -53, -70, 57, -2, 13, 58, -57, -76, -55, -55, 95, -23, 12, 43, 56, -16, -25, -86, -61, 52, 27, -64, 97, 93, -63, 91, -95, -55, 6, 62, -21, 15, 11, 60, 69, 87, -1, -82, -98, -56, 81, 12, -44, 23, 91, 86, -47, -93, -28, -25, -80, -23, -82, -9, 10, -39, 0, -41, -25, 0, 94, 1, 91, 70, -84, 92, -20, -64, 2, 26, 81, -9, 97, 75, 68, 6, -24, -50, -63, -5, 90, -36, -18, -64, 33, -59, -98, -91, -14, 78, -77, 19, 23, 76, 29, 19, -57, 13, -88, -56, 42, 18, -16, 42, -83, 83, 48, 6, 18, -81, 95, -23, -70, -2, 63, 86, -7, 96, 3, 68, -79, -53, -51, 81, -21, 47, 87, 1, -82, -4, 68, 22, -56, 16, 58, -10, -16, -46, -29, 56, -64, -31, -67, -97, -31, -90, 19, -75, 29, -14, 24, -98, 23, -76, 36, 78, 14, -33, -87, -1, -54, -80, 64, -29, 24, -15, 29, 27, -85, 34, 87, -71, -36, 22, 42, 40, 62, 6, -30, 80, -60, 31, -75, 97, -72, -75, -21, 70, -71, 43, 5, -3, 31, -93, -64, -80, -62, 1, -92, -51, 41, -72, 90, 53, -63, -85, 85, 69, 15, -50, 18, -72, 66, 2, -15, 38, 71, 38, 30, 46, -1, -23, -43, -16, 93, -30, -25, 50, -64, 24, 0, 0, -81, 67, 34, -50, -68, -90, -89, 74, 47, 67, -50, -51, -60, -22, -54, 14, 6, 96, -64, 73, -81, 8, -2, -40, -62, -63, -41, -85, 0, -6, -26, 37, -31, -15, 48, -56, 32, 13, 88, 51, -94, -30, 51, 15, -77, -61, 53, 14, -33, -10, 95, 87, -5, 54, -76, -54, -47, -10, -25, 7, 44, 74, 49, 29, -84, 40, 55, -38, -79, -8, -60, -11, -48, 9, -39, -37, -35, 36, 17, -84, 3, 48, 59, -8, 35, 53, -77, -19, -57, -28, 13, -26, 34, 4, 23, -44, -28, 30, 75, 33, -12, -21, -17, -74, -26, 42, 28, 3, -91, -31, -25, 35, 95, 43, 25, 49, 48, -33, 31, 17, 45, -37, -3, -17, 52, 70, -45, -74, 27, 58, 53, -43, 16, -73, -39, -10, -92, 43, -7, -11, -75, -50, -21, -64, -16, -29, 94, 13, 54, 78, -31, -74, -44, -30, 79, 56, 73, -56, -59, -15, -40, 90, 38, 36, -41, -65, 83, -98, -24, 77, -76, -27, 26, -34, -58, -44, -18, 54, 49, 85, 45, 0, -97, 19, -59, -32, 88, 29, 70, -32, -3, 89, 8, -42, -96, -83, 42, -94, -59, 85, 54, 91, -53, 72, 79, 27, 56, 68, -6, 62, 19, 37, 34, -58, -43, 16, -50, -53, 78, -48, 97, -46, 97, -62, 68, 9, -19, 43, -25, 20, 24, 10, -58, -90, -74, 35, 98, -47, 50, -50, -63, -20, -68, 31, 61, -79, -11, -87, 63, 46, 33, 75, 86, 10, 35, -33, 65, 6, 70, -87, 14, -47, -76, -19, -80, 63, 64, -26, -17, -3, -57, -9, -83, -42, -4, 6, -47, 38, 62, 78, 98, 14, -13, 7, -82, 79, -59, 83, -37, -50, -55, 7, 48, 52, 92, -87, -33, 10, -22, -21, 62, -77, 33, -82, 56, -80, 50, 7, 9, 80, -38, -5, 33, 19, 91, 55, -6, -45, -44, -20, -85, 78, 42, -52, 71, 18, -24, 56, 89, -38, 80, -27, 18, -44, 53, -35, -36, -40, -85, -54, 97, 98, 63, -3, -68, -74, -78, -77, 45, 30, -87, -28, 65, 61, 93, -4, -64, 79, 43, 15, 33, 25, 96, 78, -74, -19, -20, 93, 59, 55, -33, -84, 62, 28, 37, 52, -13, 23, -90, -97, 51, -78, 76, -28, 77, -87, 34, 7, -89, -45, -40, 92, -61, -32, -43, 24, 72, -46, 23, 59, -11, 73, -39, 5, -22, 45, -78, -81, -34, -87, 72, 90, -47, -44, 6, -45, -72, 41, -83, 58, 62, -70, -51, -52, -91, 80, 87, 89, 71, -59, 98, 55, 53, 89, -56, -40, 70, 18, -39, 78, 96, 82, 89, -7, 28, -30, 18, 29, 80, -75, -84, -86, -30, -11, 75, 3, -25, -13, 71, 58, 69, 96, 1, -80, 78, 52, 36, 32, -25, -47, -92, 52, -1, 14, 34, -48, -60, -14, -92, -47, -21, 56, 81, 3, 35, 94, -89, -19, 28, -89, -88, -98, 97, -52, -85, -95, -93, -72, -65, 76, 39, -24, 68, -41, -46, 20, -57, 40, -26, 44, 9, -73, 84, -29, 61, -53, 54, -51, 12, -69, 37, -68, -15, -61, 66, -76, 50, -78, 74, 56, -28, 17, 97, -21, -54, -92, 86, 2, 53, 30, 72, 48, 19, -97, 16, -54, -28, -8, -70, 77, 37, 91, 3, 81, 47, -3, 58, 86, 45, 66, 70, 92, 69, -88, -37, 22, -15, -46, 36, -67, 16, -20, 6, 48, -11, -63, -97, -76, 16, -55, -98, -80, -35, 16, 62, 78, 12, -42, 46, -56, 40, 0, -24, -98, 64, 30, -45, 58, 28, -94, -17, 23, -41, 43, -27, -32, -14, 15, 84, 1, 6, 78, -19, -32, 13, -16, -63, -24, -19, -8, 80, 17, 5, 51, -74, -28, 81, -97, 54, 17, 3, -16, -12, 16, -39, -59, 87, 13, -21, -9, 11, 81, -5, 32, 91, 31, 25, 97, -59, -44, -63, 96, -50, 59, 87, 76, -24, 75, 82, -36, 59, -20, -2, -39, -44, -39, 86, -49, -3, 12, -31, 2, -39, -82, -93, 82, -38, 17, -46, 84, 28, 48, 96, -89, -8, -46, 8, -20, -30, -50, 25, 62, -33, -28, -36, 8, 58, -5, -14, -28, -12, -11, -26, -45, 25, -87, 51, 76, -28, 17, -22, 45, 87, 31, 75, 6, -13, 40, 56, 84, -36, -10, 25, -96, 58, -5, 10, -84, -33, -42, 59, -92, 92, 6, 15, -64, 12, 70, 30, 38, -53, -90, -13, -82, 10, -31, -12, -28, -4, 7, 44, 37, 38, -76, -81, -49, -97, -8, 16, -46, -58, -36, -37, -29, -88, 45, 74, 70, -49, -11, 44, 24, 90, 46, -5, -9, -15, -47, -44, 49, 8, 48, 89, 49, 65, 47, 64, -4, 42, -49, -23, -23, 26, 55, -33, 28, 21, 98, 23, 75, -67, 85, 76, -49, -92, -83, -35, -10, 61, -76, 97, -64, 26, -92, -14, -96, -83, 71, -19, -71, -37, -14, 62, 55, 71, -83, -9, -36, 64, -9, -22, -60, -19, -78, 10, 34, 52, 71, -95, 62, -53, 85, 77, -76, -8, -29, 14, -60, -70, -27, -11, -13, -50, -92, -17, -73, -89, -33, 31, -5, 82, 75, -37, -7, -14, -35, -38, 39, 96, -91, 52, 67, 64, -11, 72, -14, -68, 3, -30, 49, 96, -89, -56, 24, 88, 6, -37, -98, 61, -26, -50, 10, 11, -68, -70, 79, -57, -56, -45, 48, -8, 55, -67, 66, -68, 42, 9, 2, 13, -50, -90, -71, -39, 13, 35, -79, -5, -7, 22, 49, 92, 80, -94, -67, -36, -21, -94, -7, -83, 97, -87, 87, 76, 78, -10, 46, 34, -67, 62, -78, -3, 80, -71, 44, 94, -55, 61, 68, 28, 12, -25, -42, -86, 14, -36, 40, 77, -24, -71, -46, 96, -1, 45, -17, 82, -64, 85, -28, -38, -37, 98, 21, -88, 2, 46, -86, 90, 87, -70, -26, 10, -62, -65, -18, -80, 75, 11, 20, 79, -83, -1, 42, 98, -94, 39, -91, 6, 5, 5, 67, -75, 87, 32, -20, 61, 93, -32, -5, -58, -54, -16, -36, -33, 46, 87, 49, -28, 3, 3, 19, -2, 58, -77, 9, -8, 56, -87, -12, -34, 63, -48, -75, 15, 74, -81, -30, -47, 9, 55, 6, -19, 65, 67, -13, 61, 51, -51, 27, 68, 2, 34, -31, -64, -91, 92, 10, 12, -87, -76, -7, 43, -68, -56, -23, -43, -79, -15, 77, -75, 49, 57, 98, 52, 68, -15, -66, -79, 11, -47, 26, -49, -8, -90, 2, 47, 0, -29, 47, 44, 15, 61, 94, 19, -5, 20, -26, 75, 0, 42, 40, 82, 21, -81, -67, 58, 96, -41, 31, -78, -44, 65, -5, -96, 35, -2, 78, 15, -86, -86, -44, 68, -85, 13, 15, 74, -33, 58, 15, -4, -54, -60, -39, 19, 17, 13, 49, 10, -8, 89, 15, 38, -22, -30, 77, -38, 41, -18, -80, 48, 27, -87, -18, 84, 16, 73, -87, -80, 57, 56, 45, -28, -16, 12, 81, -80, 92, 86, -2, -89, -32, -5, 84, 50, -55, -44, 67, -56, 41, 45, 76, -95, -18, 45, -77, -15, -48, -79, -20, -42, -45, -12, -19, 86, 13, 38, 87, 61, 77, 79, 68, 82, -91, 67, -68, -71, -98, 58, 15, -78, 80, 74, -98, -12, 24, 3, 96, -12, 22, -83, 83, -38, 94, -20, 91, 26, 83, 92, -94, -94, 85, -71, 23, -90, -43, -24, -36, -79, 1, 56, 17, -13, 28, -14, 4, 4, -77, -51, -29, -9, 13, -57, 51, -13, -7, 57, 2, -55, 38, -67, -39, -34, -80, -73, -41, 86, 96, -61, -74, 29, 88, 92, -85, -90, -62, 97, -78, -47, -58, 67, -60, -14, 22, -86, -21, 9, 43, -80, 81, -16, -94, -94, -91, 14, -21, 9, 64, 10, -15, -66, 2, 85, -44, -70, 93, -67, -56, -39, -24, -50, -38, -37, -22, -25, -51, -50, -59, -66, -72, -91, 68, -56, -28, 46, 4, -76, -63, 84, -44, 30, -17, -95, 79, 80, 57, -38, 1, 72, -96, 8, 12, 64, -2, 39, -81, -63, -66, -72, -20, 84, 0, -72, 43, -70, -74, -15, 86, 40, -31, -68, 43, -80, -43, 90, -78, 17, 47, -25, -48, 17, -63, -21, 52, -71, -29, 3, -78, -80, -90, -36, -30, 85, 61, 20, -36, -33, -60, 18, 59, 52, 33, -68, -78, -52, -25, 88, 19, -41, 72, 77, 70, -66, -34, -79, 35, -15, -45, 52, 34, 20, -65, 0, -71, 10, 27, 87, -49, -22, -38, -26, 92, -91, -97, 25, -69, 41, 62, 90, 94, -49, 75, 52, -27, -21, 97, -39, 69, 55, 54, -77, -70, -66, 9, -15, 20, 92, -34, -93, 8, -92, 14, 11, -22, -54, -22, 87, -41, 0, 59, 12, -6, -40, -30, -7, -75, -1, 19, 94, -66, -68, -68, 62, 17, 76, -12, 91, -52, -67, -4, 11, 65, -25, -66, 18, 64, 1, -87, -3, -19, -45, 94, 17, -46, -36, 35, -89, 42, 14, 40, 90, -71, -51, -97, 9, 84, 60, 95, -94, -87, -94, 27, -2, -37, -71, 95, 40, 67, -63, 79, 51, 1, 54, -67, 55, -86, -57, -86, -31, 6, 77, -13, -27, 86, -30, 3, -60, 2, -89, -39, -3, 10, 34, -79, 66, -71, -79, -77, -19, 88, 85, -9, 68, -73, 32, -98, -9, 13, -34, -77, -85, 4, -97, 35, -46, 5, 91, -60, -3, 18, -30, 34, -26, -15, -6, -74, 25, 64, 63, -53, 0, 57, -95, 41, -41, -23, 10, -16, 11, -83, -81, -3, -46, 50, -87, -52, 26, 4, 26, 74, 87, 58, 53, -71, -59, -69, -13, 63, -84, 8, 67, -66, 0, -74, -61, -17, -69, -33, 33, -37, -49, -64, -41, -84, 89, 10, -92, 64, -20, -27, -48, 23, 27, -60, -16, -68, -31, 86, -62, -63, -30, -30, 36, -86, -82, 53, 12, 27, 79, 60, 74, 98, 97, -6, -88, 45, 58, -25, -26, 85, -78, -59, 76, 77, -23, 85, 87, 4, -49, -70, -35, -48, 0, -52, 88, -91, -72, 58, 22, -68, -51, -49, 36, -11, -72, -41, 98, 28, -33, -34, 70, 59, 27, 52, 22, -50, 1, 16, -83, -32, 95, 86, 25, 93, -23, -25, 24, -52, -57, 98, 90, -50, 79, -53, 49, 50, 23, -5, 22, 31, 26, -68, 54, -96, -57, -18, -37, 98, 23, -6, -37, -54, -74, 10, -70, -1, -2, -54, 40, -18, 3, -2, -89, 87, 84, 55, -73, -36, 67, -36, -59, -13, -88, 29, 44, -49, 45, 27, 18, -97, 8, -63, 72, 63, -34, -41, -92, -14, 79, 46, -73, -13, -75, -7, -45, -71, -27, 76, 70, -30, 61, -97, 69, -81, -67, 86, 75, 74, 2, 70, 86, 15, -41, -84, -68, 30, 56, 82, 79, -26, 5, 7, -48, 59, -25, -32, -90, -4, -39, -18, 58, -85, 21, -81, -14, 65, -84, -52, -3, 39, 5, 16, -12, -47, -81, -64, -39, 86, -31, 73, 48, 84, 91, -83, -50, 70, -19, 22, -24, -12, 13, 1, 50, 85, -77, 71, -15, 85, -19, -8, -31, -47, -42, -43, -7, 49, -64, -79, 58, 16, -91, -68, -40, -52, -9, 92, -74, 53, 98, -83, -85, 70, -5, 12, 88, 78, 49, -27, -87, 80, -53, 39, -27, 7, -44, 46, 57, -40, -76, -78, -13, 30, -97, -66, -32, 43, -15, -4, 74, -87, -93, 77, 55, -76, 73, -33, -41, -83, -80, 80, -70, -56, 44, -25, -69, -43, -65, 67, 56, 50, -11, 11, 62, -79, -58, -56, 90, -9, -20, 49, 41, -87, 78, -29, -76, 38, 49, -71, -26, -71, -87, -2, 11, 66, -54, -83, -68, 28, -9, -61, 33, -23, -3, 55, -4, -48, 50, 60, -27, 79, -91, -8, -43, 52, 58, 20, 24, 94, -96, 11, -48, -79, 21, -26, -25, -50, -29, 36, -30, 58, 37, -23, 58, 1, -74, 57, 49, 70, 14, 96, -88, 28, -12, -18, 82, -56, 64, 6, -48, 68, 1, 61, 3, -74, -5, -31, -72, 63, 49, -15, -22, 94, 80, -10, 14, -93, 48, 55, -27, -21, 40, -76, -28, 24, 24, 60, -28, 11, -83, 79, -60, -42, 94, -93, -87, -12, -31, 61, -91, 98, 80, 9, -80, -32, -16, -43, 32, -35, 9, 32, -75, -2, -26, 79, 55, 13, -61, -29, -37, -35, 97, -29, -45, 50, -76, 88, 64, -93, 42, -12, 65, -42, -51, -97, 11, 82, -17, -41, 14, -78, 47, 22, -1, 61, 17, 45, 76, -7, 72, 91, 93, -82, 70, -52, 50, 48, -54, 73, 62, -84, 61, -65, 53, -5, -96, -21, 8, -30, -48, 52, 15, 32, -72, -37, -90, 4, 92, 74, 14, -89, 11, 66, -69, -86, 40, 76, -39, -13, 33, -72, -73, 24, -21, 22, 43, -41, -26, 69, -50, -85, -26, 6, -55, -26, 44, 22, 56, -73, -17, -91, -76, 40, 84, -20, 45, -17, -37, -73, 57, -19, -15, -93, 73, -88, -17, 86, 86, 68, 34, -44, -79, 84, 72, -98, -84, 0, -20, 73, -29, 47, 19, 8, 78, -9, 76, -50, -16, -7, 0, 46, 95, -82, -54, -95, 35, 69, 40, 46, 16, -56, -82, -83, -16, 27, 84, -72, -60, -71, 58, -10, 94, 49, 21, -69, 94, -86, 43, -87, -59, 96, -50, 18, -85, 12, 10, -50, 4, -67, -63, -58, -6, -38, -10, -68, 71, 89, 94, 74, 44, 46, -1, 86, -12, -44, -65, 1, -23, 24, -70, -45, 47, -46, -53, 79, -9, 19, -13, 92, -51, 83, 52, 3, -17, -28, -64, -84, -62, 60, 5, 43, -69, 49, 53, -25, -88, -88, 44, 3, -1, 27, 52, -56, -31, 85, -79, -6, -5, 64, -89, -47, 54, -44, 53, -15, -31, -23, -86, 8, -31, -30, 68, 68, 67, 82, 18, -72, 16, -15, 24, 7, -42, 69, -90, 82, -92, 7, 68, 66, 71, -49, -58, 85, -52, 81, -51, -1, 89, -24, -38, 63, -45, 15, -67, -91, 22, -30, -4, 82, -93, -68, -76, -30, 35, 49, -46, -5, 77, -19, 88, 94, 46, -81, -38, -48, -24, -35, 55, -65, -81, 73, -36, 86, 83, -40, 6, -32, -39, 88, 38, 37, -51, 30, 43, 90, 6, -13, 71, -22, -34, 96, -69, 45, -52, -38, 63, -90, 77, -96, -90, 61, -24, 42, 98, 28, -15, -86, 27, 81, -35, 71, 86, 15, -55, 70, 40, 5, -45, 44, -41, 71, 5, -29, 52, -91, -54, -11, 31, 50, -88, -2, -92, 97, -10, -58, 16, 26, 10, -3, -75, 96, 57, -62, -92, 14, 5, 77, -24, 40, 1, -75, 61, 45, -32, 45, -37, 63, -5, -6, 8, -47, -86, -49, 5, -96, 42, -42, 44, -91, -16, 15, -83, 91, -58, 67, -2, -13, -7, 62, -65, -9, -26, -90, 44, -87, -38, 10, 41, -27, -45, 5, 89, 20, -7, -45, -83, -14, -26, 93, 4, -82, 90, -61, -57, 51, -30, -69, -83, 5, 49, -72, -80, -47, 75, -71, -22, 69, -26, -87, 3, 44, -9, 61, -16, 91, 38, -45, -51, 62, 92, 39, -30, 18, 15, 86, -71, 63, -32, -59, -84, 31, 94, 6, -20, 51, 33, -19, 40, 65, 50, 31, 80, -14, -11, -89, -53, 39, 90, -17, 64, 91, 15, -11, -52, 57, 54, 90, 21, -55, -23, 92, -34, 5, 84, 98, -59, -8, -14, 32, -29, 82, 30, 34, 39, 70, 5, -61, 19, 17, 24, 50, -92, 65, -69, -92, 33, 36, -12, -34, 34, 66, 4, -59, -23, -70, -59, 93, 78, 88, -78, 34, -39, -48, 87, -80, -69, -56, 33, -26, 48, -49, -19, 46, -59, -27, 73, 74, 51, 69, -56, 48, 35, -78, -76, 82, 47, -78, 54, 24, -3, -54, 51, -84, 63, 6, -86, 0, -3, -38, 72, -73, -85, 69, 35, -39, 34, -82, -83, 63, 80, 70, -55, 43, -17, -20, 90, -95, 71, -67, 34, -9, 3, 87, -28, 4, -35, -61, -95, -25, -23, -98, -75, -79, 36, 23, 43, 36, 5, 61, -6, 9, 33, 55, 63, -41, 61, 37, 44, -95, 77, 43, 76, -81, -95, -28, 88, 54, 89, 92, -90, 94, -65, -1, -39, -9, 22, 72, 4, -67, 42, 76, 63, -28, 89, -76, 95, -42, -78, -40, -8, 77, 82, 29, 7, 40, 65, -18, 51, -75, -98, 58, 59, -56, 82, 26, -39, -31, 56, -2, -86, 6, 2, 77, 80, -92, 69, 40, -41, -83, 48, -82, -80, -75, 83, 64, 58, -96, 80, 32, 3, 93, -92, 28, 58, 97, 46, 80, 93, -10, 26, 93, 31, -19, -58, -34, -88, 40, -52, 75, 11, 94, 20, -82, -78, 40, 84, -87, -88, 6, 41, -93, -93, 62, -20, 47, 68, 62, -83, -20, -14, 51, 22, 26, 91, -85, 20, -81, -6, -27, -26, 88, -62, 45, 76, -86, -33, -77, 21, 62, 91, -46, 84, -29, -86, -30, -79, 4, 67, -10, 89, -50, -76, -52, 78, 72, -2, 9, 9, -81, 48, -44, 89, 26, -5, 17, 54, -10, 3, 59, 59, 89, -78, 78, -32, 33, -34, 39, 87, -24, 96, 2, -15, -76, 76, 35, 44, 91, 46, 22, -8, -52, 54, 89, 43, 96, -92, -5, 60, 9, -45, -81, -57, 35, 14, -64, 82, -39, -97, -72, 24, 94, -34, 4, -11, -55, 48, 41, 34, -41, -21, 3, 76, -70, -58, 46, -59, -92, -37, -44, -13, 4, 20, -68, -25, -92, 20, 79, 15, 5, 14, -83, 17, 2, -69, -28, -64, 44, -96, 82, 41, -73, -23, 54, 49, 2, -77, -28, 83, 11, -29, 38, -15, 86, 85, 30, -38, -84, -72, 67, -13, -9, 56, 3, -77, -10, 82, 16, -11, -4, 49, -44, 18, 14, -7, 21, 81, 80, -26, -13, 52, 47, 58, 85, -4, -8, 83, -81, -93, -49, 4, 37, -28, 69, -73, 24, -31, 63, 64, 35, -30, 39, -94, 90, 36, -57, -24, 94, 18, -45, -34, -44, -79, -4, -23, -93, -2, -37, -17, 71, -62, 93, 7, 0, -57, -62, 42, -77, 24, -63, 89, 13, 82, 36, 60, 12, 26, 15, 58, -37, -71, 32, 38, -34, 27, 17, -39, -68, 42, -13, 39, -78, 89, 55, -6, -93, -18, 69, -4, 65, 72, 36, 61, -29, -29, 52, 83, 92, 51, 2, 23, 34, -49, -2, -86, -41, -39, 35, 99, -54, 10, 25, -3, 34, 73, -81, -60, 42, -80, 17, -1, -21, 26, 75, 51, -8, 34, -34, 31, 69, -15, -92, 35, -86, -67, -58, 95, 18, -64, -30, -72, -56, 82, -76, -36, 76, 7, -58, 0, -26, -95, -53, 1, 43, -14, 28, 70, -60, -57, -28, -96, 75, -80, 60, 12, 68, -21, -15, 87, -83, 40, -79, -37, -79, -74, 14, -38, 51, -69, -57, 23, 71, -95, -31, 33, -78, -52, 57, 58, 65, -12, -61, -86, 43, 77, 27, -47, 79, 30, 8, 31, 82, 59, 88, -63, 4, 87, 24, 53, 25, -50, -81, 20, -79, -35, -43, 93, -5, 35, 84, -41, -12, -42, -80, -2, 43, -86, 83, -42, -97, -80, -14, 29, -8, -93, 69, -82, 28, -63, 87, 35, 60, -19, 94, -96, 27, 45, -7, -87, 31, 38, 70, 25, 58, 89, -46, 82, -73, -55, 91, -58, 42, -78, -54, 52, 28, 23, -27, 82, 36, -55, 6, 19, -31, 17, -85, 90, -8, -55, -81, -91, 31, -95, -77, 14, -44, 49, -13, 83, 48, 64, 30, 81, 51, 34, 6, -72, 52, -38, -14, 90, -49, -24, 25, 72, 95, -61, -44, -26, 6, 18, -56, 12, -63, 18, 65, 36, 80, 70, 78, -12, -22, -76, 20, 13, 45, -52, 18, -14, -90, -52, -96, 44, -82, 75, -82, 40, -73, -35, -26, 64, 15, 93, -79, -32, -97, 50, 97, -49, -2, -97, 77, 71, 3, -95, 4, -84, -30, 41, -95, 57, 58, 81, 59, -14, -64, -41, 88, 4, -39, 32, -5, 54, 34, -27, -52, -93, 41, -87, 85, -42, 67, -30, -48, 43, 27, 0, 61, 23, 60, -91, -62, 72, -23, -95, -10, 79, 25, 12, -9, -17, -51, 18, 5, -64, 69, -5, -74, 37, -53, 57, 50, 22, 69, -38, 46, -9, -34, -35, 85, 59, 16, 38, -44, -5, -20, 86, 83, -89, 77, 36, 7, 73, 13, 6, 51, -35, -91, 96, 59, -19, -3, 49, 58, 51, 1, -84, -42, 27, 42, -89, 42, -69, 18, -54, -58, -96, 50, -7, -8, -6, -46, -89, 69, -78, 14, -9, -89, -66, 65, 22, -43, -5, -87, 47, 59, -35, 22, -60, -67, 21, -2, -28, -51, -39, -89, -85, 34, -49, -53, 86, 47, 81, 12, 2, 19, -57, -28, 23, -12, 66, 72, 48, 59, -33, 72, 49, -82, -57, -93, 14, 55, 79, -14, 80, 61, -28, 84, -75, 65, 19, 82, 15, -59, -41, 64, -36, -51, 14, 7, 22, 19, 80, 19, -39, -32, -17, 31, -98, -89, 83, 13, 61, -87, 10, -79, 87, 97, -63, -39, -41, -3, -35, -60, 86, 96, -66, -74, -39, 12, 15, 28, 59, -14, -18, -50, -39, -53, 70, 51, 88, 71, -18, 74, -8, -35, -24, 43, -21, 37, -82, -77, -7, 51, -29, 47, -95, -49, 55, 87, 36, -79, -92, 5, 86, 26, 43, 37, -2, -45, -99, -21, 26, 18, 64, -76, 66, 68, -51, -57, 52, -85, 80, -19, -58, 96, -33, 43, 36, 97, -11, 89, 14, 70, 98, 0, 75, -54, 48, 1, 91, -80, -28, 17, 7, -57, 3, -46, 59, 34, 73, 98, 35, -53, 25, 65, 70, 3, -63, 6, -57, -82, 82, -82, 97, 68, 73, 98, -51, 98, 73, 34, -8, 55, -6, -8, 92, 17, 62, -22, -51, 37, -78, -87, 52, 7, 52, 57, -55, -47, 52, -6, 58, -39, 56, -92, -68, 37, -14, 85, 71, -53, 51, -94, -36, -63, 4, 55, 61, 47, -70, 89, 42, -45, -16, 43, -54, -98, -94, 7, -79, 15, 87, -49, -43, 94, 32, -86, 68, 0, 40, -15, 4, 62, 61, 92, -4, -96, 62, 37, -32, -51, 77, -7, -63, -44, 67, 59, -21, 82, -82, -37, 97, 74, 29, 97, -96, -94, -88, -51, 1, -74, -28, 54, 26, -78, -43, -70, -50, -80, -13, 36, -61, -52, -41, -67, 18, 5, 74, -46, 72, -22, 16, -10, -64, 13, 83, -79, 57, 77, -84, -38, -26, 40, -85, -17, -26, 84, 78, 50, 85, -88, -51, 78, -39, 66, -85, -8, 68, 88, 80, -67, -18, -51, -97, -4, -30, -55, -44, 66, -13, 86, -37, -38, 1, -28, -27, 41, 24, 53, 71, 72, 12, -97, 74, 54, 38, -41, -35, -46, -96, -42, -66, -47, -39, 84, 69, 85, 23, 20, 68, -3, -83, -51, 70, 33, -68, -26, -55, 25, -78, 21, 47, -86, -12, 66, -79, -82, -97, -26, 19, -81, 76, 68, 42, -71, 61, -20, -14, 51, -97, -32, 22, 10, 73, 12, -69, 63, -20, 14, -37, -72, -49, 94, -11, -17, 8, 42, 73, 34, -86, 84, -51, -10, 9, -7, -5, -87, -54, 48, -29, -90, -46, -19, -79, -44, -76, 22, 27, 6, 30, -8, 64, -55, 48, 34, -49, -17, -62, -98, -9, 69, 53, -92, -96, -14, 31, 86, -82, -52, -3, 56, -90, 51, 30, -86, -78, 62, 70, -86, 34, -51, 75, -55, 97, -38, 92, -52, 24, 46, 17, 83, 32, -61, 43, 82, 9, 51, 7, -61, 41, 2, 39, -19, -63, -9, -47, -4, -66, -19, -49, 28, 15, -72, 69, 98, -70, -96, -63, -19, 52, 86, 74, -71, -84, -92, 16, 53, -48, -98, -92, -48, -92, 16, 20, 76, -67, -21, -43, 56, -65, -43, -76, -46, -98, 1, -70, 71, 7, 35, 14, -10, -80, -61, 6, -48, -67, -55, 24, 5, -82, -41, 31, -90, 74, -94, -39, -8, 69, -87, -39, 8, -21, -20, 43, 91, -88, 82, 31, 41, 22, -65, 11, 16, 66, -16, -77, 93, -4, -74, 27, 44, -8, -47, 14, -47, -51, -11, 19, 42, -37, 74, -52, 12, -86, 65, -42, -19, -89, 17, -34, -47, -17, 41, -89, 62, 97, -45, -36, -59, 23, 97, 83, -62, 47, 53, -62, 29, 82, -98, -23, 73, 29, 67, -71, -61, 85, 23, -14, 31, 94, -90, 71, 22, -94, -8, -23, 79, 91, 78, -41, 39, -14, -75, 30, -57, -26, 94, 67, 4, -67, -63, -6, 31, -75, -91, 17, 89, 97, 41, 11, -26, -25, 67, -94, 74, -51, -51, -72, -24, 53, 96, -17, -52, -95, -86, 17, -40, -62, 86, -96, 48, -36, -20, -78, -82, 59, 66, -24, -45, 44, 55, 13, -90, 11, 46, -91, 18, -62, -25, 1, -87, -67, 92, -56, -85, -48, -13, -84, -16, 3, -78, 73, 12, 70, -83, 1, -21, -14, 96, 97, 30, -96, -79, 0, -24, -63, 44, 33, -55, 96, 1, -93, 90, 67, 64, -59, 25, 43, 24, -92, 22, 26, -7, -87, 81, -6, -65, 55, 69, -44, -15, 96, 21, -9, 18, 81, 84, -44, -31, -51, 69, -36, -48, -95, 17, 72, 5, -58, -1, 12, -69, 18, -84, -8, -73, 48, 37, 38, 20, 63, 96, 97, 25, 35, 38, -43, 27, -94, 93, -10, -79, -27, 92, 4, 44, 41, -76, -81, 63, -11, 84, 72, 90, 83, -57, 4, 50, -6, -44, 33, 89, -81, 94, 32, -1, -11, -79, -5, -91, 59, 24, -40, 53, -96, -55, -92, 96, -8, 82, -64, -11, -31, -68, 76, -48, -30, 93, -97, -4, 33, 63, 65, 42, -45, 90, 44, -75, 3, 52, 68, -46, -80, -43, -22, -10, -89, -32, 96, 96, 38, -34, -20, 62, 90, 78, 54, 55, 76, -91, -94, 44, -72, -64, 77, 4, 67, -25, 93, 38, 30, -64, 69, -3, 72, -43, -7, -44, -75, -6, -57, 9, 68, -88, -67, -18, 66, -34, 59, 62, -57, 25, 49, -10, 22, -46, 65, 21, -80, -72, 19, 53, -9, 6, -14, -79, 62, -58, 61, -24, 13, 49, -34, 48, -33, 23, 57, -56, -8, 2, -21, -93, 80, -25, 66, -6, -36, 40, -52, 1, 62, 82, -88, 44, 24, -19, 41, -73, -93, -49, 18, 78, 84, 65, 14, 33, 58, -20, 77, 19, 13, 13, -54, -68, 29, -91, 6, -1, -66, -64, 18, 15, 58, 3, 78, -70, -36, -19, -94, 88, -43, 6, 36, 60, -31, 55, -51, 78, -18, -76, -49, 98, 0, 52, -33, -39, 63, -92, -95, 2, -45, 8, -19, 85, -87, 63, -38, 12, 60, -70, -45, -96, 28, -99, -85, 69, -70, -92, 43, -9, 20, 27, -69, 86, -37, 75, -11, 42, -73, 87, 12, 72, 29, 3, 69, -35, -31, -92, 2, 34, 98, -94, -62, 44, -45, 69, -12, -40, 72, -59, -47, 42, 75, 8, 82, 54, -22, -40, 45, -82, -78, 78, -61, -73, -39, 61, -6, 6, 56, 41, -54, 63, 95, -12, 90, 16, -51, 72, -22, -64, 65, -34, -30, 79, 73, -82, 85, 23, 56, 34, 1, 88, -10, -2, 98, 16, -14, 1, 36, 70, 56, -64, 62, 36, -23, 34, 11, -79, 40, 91, -39, -30, 13, 98, 39, 34, -95, 8, 88, -64, 58, -7, -96, -68, -44, 56, 67, -9, 90, -73, 49, 2, 45, -95, -17, 33, 31, -28, -14, 63, -14, -51, -89, 10, 11, 10, 84, -32, 22, -53, -34, -85, -53, 11, -25, 96, 3, 11, -64, -50, 10, 40, -31, 10, -33, -8, -3, 13, 50, -75, 95, -31, -12, 59, 17, 54, 39, 3, 83, -79, -92, 6, -19, -59, -26, 43, -40, 15, 34, 33, 70, 33, -78, 40, 49, -97, -14, -42, -38, 73, -75, -75, -95, -23, -33, -85, -26, -10, -56, -96, 75, -82, 64, -35, 56, 89, -56, -49, -93, -52, -50, 64, -84, 13, -55, 18, 67, -24, 28, -85, -11, 75, 22, -93, 19, 60, 34, 98, 7, -60, -25, 25, 61, 46, 12, -83, 95, 10, -62, 42, 3, -42, -86, -12, 69, -60, -91, -79, -72, 93, 36, -96, -29, 5, 84, 36, 25, -41, 90, 24, -17, -91, -24, -57, 79, -81, 22, -9, -11, -93, -22, 62, -10, 50, 9, 45, -31, 53, -91, 90, 16, -46, 59, 11, 62, -34, 60, -55, -47, -7, -70, 80, 3, 61, 22, -47, -86, 42, 25, -10, -84, 28, 68, 80, -20, 73, 6, -28, -96, 77, 46, -27, -75, -16, 8, 71, -6, 84, 65, 59, 49, 19, 45, -77, -50, -34, -88, 77, -76, -75, 51, 96, 59, -90, 43, 42, -23, 32, 44, 35, -90, -16, -61, 36, 81, -50, 3, 87, -21, 42, 23, 43, 22, -83, -95, -87, 43, 15, 52, 41, -73, 42, 64, 44, -67, -21, 65, 87, -39, 90, -96, -86, 75, 35, -35, 65, -35, -80, -63, -22, 39, -69, 45, -1, 11, 98, -52, -82, -4, -70, -29, -75, 64, -51, 34, -29, 20, 66, -76, -8, 86, 32, 64, -50, -72, -78, 32, 88, 54, -7, -66, 59, -84, 6, 27, -96, 76, -60, 24, 59, 88, -7, -46, -11, -74, -17, 34, 88, 21, 79, -58, 10, 50, -16, -56, -33, 50, -15, -7, -58, -50, -46, -24, -46, 25, 3, -40, 51, -67, 29, 53, -9, -61, -40, -80, 47, -53, 47, -49, 31, -30, -66, 85, -22, 22, 12, -14, 65, 93, -1, -34, -85, -21, -11, -54, -66, -76, -2, -24, -63, 37, 12, -12, 93, -61, -33, -52, -37, 76, 47, -28, 47, 87, 29, 41, -57, 25, -32, -22, -77, -95, 20, -64, 12, 74, -29, -13, 10, -55, -49, -22, 21, -43, 57, 29, 18, -64, 97, 16, -22, 9, 79, 0, -30, 59, 32, 28, -40, -51, 35, -42, 88, -81, 24, 44, 23, 81, 53, -19, -85, 80, -15, 36, 66, -19, -1, -24, -97, 18, 12, -35, 21, -7, -4, 79, -7, -45, -1, -77, -73, 38, -63, 49, -86, 64, -43, 33, -65, -44, 45, 69, -65, -39, -1, -28, 33, 10, 94, -44, -31, 10, -64, 24, 95, -50, -15, -77, 48, -36, -62, 47, 62, -58, -5, 41, 21, 50, -97, -93, -72, 77, -28, -86, -92, -24, 93, 63, -83, 15, 27, 0, -20, -19, 17, -37, 78, -16, 92, 34, -34, 42, 89, -51, -87, 24, -33, 1, 65, -93, 57, 15, 0, 79, 27, 2, -62, -16, 3, 37, -84, 95, -46, -1, -43, -83, -72, -30, 64, -18, -12, -98, 92, -32, -13, -50, -41, 77, 54, 47, -36, 34, 10, -20, 83, 70, 96, 29, -43, 68, -3, 15, 30, 52, -19, -13, 53, 52, 40, 2, 98, -79, 90, -35, 25, -36, -46, 51, -67, -73, -35, -93, 77, -49, -83, 69, 48, 36, -11, 53, -14, 72, -53, 11, -22, -5, -29, 42, -41, 76, 80, 57, -71, 18, -44, 78, -47, -46, 91, 97, -12, 83, -28, -39, 16, -19, 11, -51, 86, 73, 72, 85, 8, 29, 15, -67, -85, 90, 69, -5, 91, -29, 24, 77, 65, 54, 31, 82, 90, -63, 45, -76, -57, 27, -68, -35, 10, 5, -52, 89, 75, -92, -40, 37, 70, -23, -50, 40, -23, 56, -81, -53, 67, -66, 92, 37, -57, -40, 48, 75, 83, 69, 1, -8, -41, -10, 27, 80, 16, -8, -69, 85, -2, 93, -40, 94, 93, 39, 42, 52, 79, 67, 84, -26, 44, 68, -25, 43, -62, -67, 15, 16, 29, -59, 86, -64, -44, -55, -85, 19, -95, -57, -79, -96, -98, 3, -81, 90, 10, -34, -94, -53, -77, -36, -64, -49, 3, 71, -74, -70, 77, -83, -30, 50, -47, 94, 40, -37, -54, -19, 66, 55, 14, 35, -38, -20, 44, -46, -71, 11, -55, 52, -17, -84, 59, -16, -97, -63, -94, -69, 95, -12, 87, 67, 20, 24, 67, -94, 98, 30, 37, -65, -70, 54, 62, 19, -43, 7, 62, -79, -96, 15, -12, -31, -89, -77, -3, 19, 57, -45, -21, 41, -34, 10, -35, 76, -13, -9, 38, -69, -49, -25, 37, -35, -77, 48, -81, 93, -83, -8, -23, 68, -41, -5, 74, -43, 46, 53, -29, 91, -62, -48, 22, 85, 45, 98, 0, 27, -63, 92, -74, 69, -91, -57, 78, -78, -76, -92, -33, -86, 40, 94, -69, 37, -87, 53, 67, 83, -1, -61, 34, 69, 22, 52, -38, 17, 86, -77, -53, -51, 3, 52, 6, 81, -6, 89, 46, -19, -49, -20, 67, 89, -48, -53, -51, 60, -34, 76, 21, -6, 56, -25, 84, -24, 12, -1, 84, 85, -9, 74, -9, -6, 43, 63, -46, 59, -5, -43, 41, -59, -98, 11, 39, 44, 44, 72, -21, -48, -74, -56, -74, -47, -62, 68, -22, -2, -11, -86, 18, 38, 48, -57, -77, -28, -83, -35, 25, -22, -41, 65, -55, -92, -41, 92, -80, -46, -63, 36, 57, 5, 63, 34, 71, -10, 56, -66, -19, 39, -38, -92, -9, -85, 3, 4, -49, -29, 68, 74, -44, -74, -34, 9, -90, -14, 59, 48, -3, 31, 21, -19, -82, -21, -55, -11, 26, 44, 82, 41, -29, 42, 14, 57, -12, 45, 50, -31, -18, 19, 65, -47, -39, 29, 32, -67, -64, -29, -48, 87, -58, 20, 11, 71, 16, -36, -62, 10, 16, -91, -72, -92, -1, -35, -59, 27, -55, -23, 9, 87, -50, -70, 54, -58, 53, -60, 36, 95, -87, 8, 63, 77, 70, -13, 71, -2, 27, -52, 75, 46, -56, -86, -49, -66, -62, 14, 39, -31, 82, -10, -75, 34, 39, -70, 47, 76, -68, -49, 62, -5, -65, 24, -49, -42, -63, 23, -76, 19, -64, 63, -48, -70, 60, -66, -15, 22, 30, 76, 46, -89, 26, 2, 83, -17, -97, 3, 17, 81, 28, 76, 46, 86, 50, 69, 43, -71, 2, 0, -6, -10, -57, -67, 0, -60, -78, 34, -66, 35, -94, -20, -84, -45, -72, 14, 90, -28, 59, 56, -85, 25, -92, -84, 1, -27, -46, 16, 69, 24, 42, -39, 22, -12, -5, -29, -37, -62, 20, 65, 38, 30, -24, 55, 36, 72, -48, 54, 47, -76, -79, -65, 58, -69, 62, -41, 0, 67, -6, 32, 27, 68, -95, 17, 77, -10, -76, 10, 18, -3, 14, 14, 57, 36, -48, 59, 45, -97, -53, -93, 43, -85, -95, -74, -58, -72, -89, -44, 65, -85, 83, -94, 72, -74, -2, 72, 83, -19, -94, 26, 84, -90, 62, 50, -7, -91, -81, -41, -87, -46, -18, 43, 53, 17, 30, -96, 29, 45, -35, -84, 1, 82, -96, 0, 31, -64, -58, 67, -36, -33, -94, -22, 31, -38, 21, -56, 80, -19, 13, -32, -37, -70, -83, -19, -92, -18, -90, 15, -85, -30, 61, -84, 66, 78, 7, 33, -55, 68, 7, 7, -29, 1, 15, -60, -16, 20, -85, 43, 56, 52, -62, -15, 70, 61, -96, 47, 35, 92, -55, 97, -27, -87, 12, -4, 26, -32, -92, -10, -21, 28, -55, 96, -14, 78, 58, -39, 52, -71, -56, -72, -21, -50, -76, 38, 24, 69, 49, 22, -3, 14, 77, -35, 54, -21, 21, -35, 21, 22, 16, -94, -24, 85, -4, -48, 94, 95, -95, 88, 31, 2, -80, -29, -59, 19, -95, 43, 36, 59, -44, -13, -23, 79, 72, -57, -76, -54, 60, 10, 59, 23, -62, -24, -24, 59, 93, -46, 65, -87, 45, 6, -18, -72, 18, -79, -39, 18, -59, 76, 54, -25, 13, 88, -70, -55, 25, 56, -3, 16, -77, -95, 86, 78, 34, -10, 75, 80, 75, 16, -17, 92, -37, 3, 49, 20, -20, 19, 0, -92, -80, 29, -29, 4, -92, -81, 10, -14, -90, 83, -22, -71, -9, 60, 48, -26, 93, 84, 62, -19, -11, -24, -87, -52, -2, -38, -5, -43, -7, 14, -59, -95, 15, 64, 76, -96, -74, -18, -71, 29, 65, -68, -22, 11, 28, -6, -28, -18, -52, -14, 50, 18, 74, -75, -69, 42, -22, -34, -19, -36, 88, -89, 61, -14, -46, 94, -48, -36, -75, -62, 46, -96, -98, -73, 69, -90, 7, 37, -22, -87, 19, -8, -26, 15, -32, 61, 5, 49, -94, -50, 98, 19, 62, -44, -89, 27, 46, 83, -33, 79, -19, 13, -40, 3, -92, 37, 49, -82, -10, -57, -97, -56, -9, 62, -56, 46, -68, 22, -14, -79, 50, 70, 78, 84, -94, -11, -81, -75, -47, -89, -48, 5, -25, 44, 29, -38, 20, -6, -20, 7, -55, 62, 95, -7, -71, 69, -64, 36, -20, -97, 85, 95, 25, -46, -28, -64, 66, 9, 74, -57, 32, -73, 53, 18, 73, 59, 87, -88, 98, 3, -71, 64, -51, 70, 48, 26, 0, 8, -74, 93, 60, -98, -95, -10, 35, 83, 67, -47, -92, 34, -36, -98, 63, -51, 17, -38, 12, -66, 25, -19, -16, 36, -2, 88, 28, 79, 30, 60, -23, 21, 11, 63, 32, 75, -9, 97, 31, 73, -47, -54, -28, 35, 75, 64, 58, -81, 35, -35, -94, 63, -86, 59, 53, 47, 94, -67, 1, 17, -9, 42, 69, 97, 99, -76, 40, 62, -61, 65, -59, 36, -70, -62, -82, -89, -87, -91, 76, 79, -89, 93, -45, -9, 79, 16, -33, 47, -50, 90, -32, 16, 82, -36, -78, -42, -37, 68, 74, 28, 74, -39, 53, -96, -84, -31, 90, -35, -71, 86, 26, -65, 66, -24, -70, 72, -38, 78, 5, -3, 50, -84, -77, 76, -22, 39, -9, 35, -3, -7, 46, -52, 45, 34, -17, 68, -52, 6, 64, -5, 2, 96, 40, -55, 51, -46, -29, -29, -87, -20, -42, 9, 69, 54, -33, 54, 71, -1, 15, 34, 37, -20, 18, 92, -95, 20, -49, 54, -69, -63, 32, 33, -73, 94, 91, -43, 93, -37, 87, 70, 91, 87, -62, -51, -76, -35, -2, -47, 30, -70, 27, 88, -56, -88, -57, -92, -18, -91, 63, 16, -35, 91, 39, 87, 2, 79, -84, 85, 2, 42, 15, -2, 12, 73, -51, -54, -38, -29, -36, -64, -35, 60, 2, 11, 87, -93, -70, 20, -55, 35, 68, -20, -30, -10, 95, -22, -12, -59, -12, 12, 16, 95, -60, -91, -14, 34, 78, -17, 55, -60, -93, 2, -82, 17, 21, 43, 89, 88, -9, 10, -60, 28, -21, -39, 40, 76, 76, -56, 69, -84, -81, 5, -2, 53, 18, 90, -84, -59, -84, -30, 78, -18, 48, 28, -27, 88, 65, 43, -12, -25, -8, 28, 64, 16, -21, -46, -32, 73, 22, 96, -47, -17, -3, -97, -12, 40, 19, -94, -38, -6, -71, 86, 46, -36, -37, -74, -54, -96, -21, -15, -34, -17, -85, -17, -62, 53, -80, -59, 38, 60, 5, 1, 8, 22, 84, -63, 44, 41, -45, 78, 31, -31, 6, -87, -70, 81, 21, 40, -75, 22, 35, -14, -79, -9, -86, 68, 15, 66, -67, 78, 89, -53, 15, 26, 22, -67, -93, -33, 61, 0, -33, 67, -43, -7, -45, 33, 46, -68, 67, 20, -54, -30, 4, 63, -97, -6, -33, 49, -18, 71, 58, 72, 60, 56, -60, -45, -60, 76, -7, 12, -71, 87, -61, -54, 15, 39, 73, 0, -23, -59, -74, 38, 95, -47, -2, -24, 23, -58, -58, -81, 39, -46, 68, 34, -65, 31, 75, 94, -60, -27, -10, -93, -84, 97, -57, 35, -52, -2, 29, -21, -16, 76, -58, 67, 6, 38, -5, 3, 5, -84, -9, -80, 91, -20, 16, 50, 90, 20, -67, -56, 43, 57, 47, -48, -73, 7, -75, 16, -61, -5, -68, 64, -63, -2, 6, 18, -3, 2, -96, 14, -76, 83, -24, -42, -52, -1, -83, 96, 6, 38, 63, 33, 37, 17, 9, 91, 46, 75, 98, -38, -22, 81, -36, 67, 15, 49, 1, -85, -27, -87, -58, -2, -61, 65, 96, -62, 55, -49, -73, 91, -89, -19, -52, 9, 89, 73, 10, -87, -21, 71, -46, -71, 54, -69, 24, -6, 5, -46, -96, 44, 28, -34, 55, -67, -10, -90, -86, -19, -91, -84, 33, 21, 65, 23, 81, 78, -79, 63, 63, 53, -61, -67, 96, -93, 23, 76, 63, -59, 74, -90, 77, -36, -22, -83, -97, 79, -43, -41, -89, -48, 49, -15, -91, -88, -56, 88, -86, -51, -81, 95, -14, 65, -47, -55, 91, 18, 5, 57, -75, -36, -3, -94, 97, 67, -19, 1, 76, -12, -80, -52, 60, 97, -2, -38, -80, -45, 95, 13, -64, 67, 71, 48, -68, -66, -69, -97, 10, -24, -49, -87, -56, -28, -98, 24, -91, 6, -59, -40, 88, 81, -34, -82, -12, -8, -89, 86, 3, 18, 24, 26, 76, 34, -49, 28, -94, -46, -13, 3, -32, 8, -65, -32, 9, 29, -75, -25, 77, -82, 27, -91, 97, 46, 79, 66, -54, -62, -86, -92, -33, 50, -14, 98, 11, -94, -49, 48, 63, 3, -1, 54, -73, 88, -84, -11, -94, 4, 84, 2, 26, -89, -46, 55, 61, -34, -74, -5, 58, -13, 38, -6, 76, 23, 27, 67, -70, -73, 13, -15, -45, 48, -22, -33, -79, 7, -15, 1, 96, -90, -22, -35, -26, -49, 53, -5, 11, -49, -47, 85, -45, 59, 92, 60, 71, 69, 18, 31, -50, 33, -12, -47, 5, -48, 17, -27, -73, -96, 38, -27, 95, -68, -32, 9, -14, 54, -57, 78, -42, -21, -22, -85, 43, 71, -81, -85, 53, 82, -23, -32, 11, -32, -25, 82, -6, -33, -62, -1, -65, 4, -93, 89, -89, 49, 94, -23, 32, 63, 25, 66, -73, -66, -14, 85, 84, 95, 29, 17, -42, 30, -34, -60, 82, -53, 4, -97, 72, -83, 87, -8, 68, -1, 65, -79, -83, 41, -72, -42, 22, -63, 1, 86, -9, 75, 10, -24, 18, -48, -47, 20, 33, -90, -77, -27, -12, 21, 88, 90, 7, -47, 72, -42, -58, -97, -37, 5, -63, -93, 30, 19, 5, -16, 2, -25, 2, 35, 48, -60, -31, 10, 26, 69, -14, -82, -19, 58, 0, 31, 26, 70, -10, 90, -56, 47, 79, -33, 87, 64, 67, 27, -93, -58, -86, 66, -87, -14, 57, -79, 24, -55, -1, 34, -85, 16, 72, 3, -84, 78, 43, -32, 37, -83, 23, 14, 72, 97, 1, 43, -74, 60, -31, -36, 49, -37, 89, 83, -92, -49, -35, -44, -13, 41, 6, -95, -27, -68, 16, 72, -45, 63, 92, 27, -20, -70, -38, 62, -68, -72, -32, 65, -83, 38, 37, 13, 89, 73, 80, -54, -77, 96, -93, -72, 55, 8, 45, 91, 43, 8, 27, 23, 69, 53, -55, 50, -12, -45, -21, 26, -34, -87, 49, -13, -71, -20, 7, -85, -10, 15, 63, -92, -70, 88, 91, 12, -92, 75, 34, 34, 93, -50, 14, -54, 56, -45, -42, 82, 77, 24, -15, 89, -2, 35, 91, 32, -19, 32, -27, 30, 62, -27, -95, 77, -55, 81, -74, 42, 10, -64, -40, 5, -43, -42, -90, -50, 50, 95, 50, 69, 50, 32, -16, 23, 39, 42, -76, 35, 8, -87, -81, 84, 89, 73, -39, 39, 96, -93, -50, -46, 46, -40, 81, -45, -83, -94, -82, -22, 31, 75, 42, -6, -28, -57, 80, 9, -50, -45, 61, 12, 50, 23, 38, 22, -56, 13, 27, -4, -95, -66, 72, -29, 77, 70, -73, -9, -23, -48, 72, -60, -16, 54, -92, -31, -18, -16, 20, -6, -21, 22, 82, -6, 87, 65, 21, -12, 21, -37, -42, 90, -15, 48, -53, -17, 84, -89, 43, 72, 46, -95, -24, -10, 32, -70, -83, -62, 7, 86, -77, -13, 98, -60, 75, 74, 52, 73, -3, -39, 16, -17, 78, -64, 4, 55, 82, 54, -78, 67, -22, 84, -85, -7, 95, -28, 23, 54, 10, 37, -92, -64, 51, 46, -53, 33, 66, -10, 31, 40, -4, -40, 97, -10, -20, -78, -78, 54, -11, -19, -32, 34, -72, 68, -83, -18, 86, -34, -35, -30, 90, -17, 0, 30, 95, 37, 53, 43, 91, 35, -84, -95, -2, -95, 19, -6, 36, -47, 72, -23, 45, -7, -86, 39, 3, 38, -16, -49, -85, 12, 47, -94, 39, 35, -76, -81, 18, -61, 56, -4, 77, 63, -72, 68, 71, -27, -63, 37, 64, -8, 40, 9, -5, -69, 46, 23, -36, -21, -98, -49, 7, 85, 16, 43, 47, 86, 94, -21, -60, -58, -21, 74, 75, 97, 25, -57, -46, -39, 67, 13, 5, 29, 25, -11, -17, -75, -78, -88, -55, 2, 5, 5, 2, -14, -87, -11, -56, -51, -71, -44, 12, -72, 57, -65, -52, -96, 58, 28, 55, 74, -52, 74, 75, 43, 96, 59, -58, 20, 47, 46, 76, -79, -57, -78, 4, -86, 71, 97, -58, -3, 33, 64, 31, -66, -2, -3, 42, -17, -81, 95, -57, 8, 9, 33, -18, 87, -72, -26, -74, -96, 92, -31, -29, -79, 29, 66, -49, 44, 75, 10, -59, 73, 31, -64, 14, -56, 63, 97, 35, -53, -38, 63, 86, -28, 11, 12, -96, 85, 45, 24, -14, 1, -87, 89, 55, 19, -46, 38, 55, 90, -13, -6, 80, -57, 52, -3, 3, -27, -35, 49, 27, -44, -51, 60, 47, 46, -43, 47, -51, -33, 10, -23, 2, -96, 52, -10, 32, 53, -92, -13, -62, -80, -48, 45, 45, -8, -72, -92, -88, 66, 66, -81, 33, 59, 83, 12, 63, -88, -80, -73, 16, 95, 69, -44, -42, 72, 44, 8, -65, -52, 96, 87, -59, 92, -15, 50, 68, 91, 10, -50, -63, -54, 95, 65, -31, 34, -55, -74, -88, 87, 21, -48, 43, 80, 28, -12, 61, 55, 92, -28, -41, 5, -35, -11, -33, -77, 34, 87, -4, 58, -8, -77, -33, 38, 0, -22, -3, -6, -10, 62, 21, -4, 72, 60, 39, -85, -39, -51, -30, -31, -22, -45, 10, 53, 45, 83, 30, -37, 75, 72, -78, 52, -10, -76, 33, 79, 49, 71, -45, -93, -37, -37, 49, 70, 46, 55, 46, 73, -36, 58, 29, -51, 26, 74, -2, 45, -40, -13, 7, 3, 91, -7, 88, -56, -42, -49, -90, 86, -85, -53, -51, 22, 27, 75, -74, 1, -8, 14, 13, 43, 55, -35, -82, -97, 93, 70, 51, 48, 56, 37, -67, 57, 88, 4, -78, 66, -24, -36, -17, -40, -84, 49, 59, -63, 30, 75, -59, 15, -82, 96, 83, -45, 24, -74, -18, -19, -77, 46, -89, -67, -86, -18, 77, -73, 81, -80, -49, -8, -62, 37, -32, -9, -63, -21, -85, 45, 60, 10, -59, 84, 61, -13, -2, 98, 54, 13, 3, -2, 70, 63, -4, 74, 0, -40, -3, 70, -38, -26, -39, -58, 8, 67, 54, -51, 9, -92, 84, 81, -29, -65, 82, 54, -30, 18, -49, 42, -31, 14, 92, -60, -27, 7, -1, -92, 17, -68, -26, 60, -80, -72, -53, 90, -79, -39, 51, 35, 68, -61, -66, -80, 52, -93, -45, 56, -72, -23, 37, -84, -70, 93, 59, 12, -48, 23, -31, 4, 85, -28, 67, 31, -54, -35, -36, 18, -53, -69, -61, -70, 45, -83, -83, -55, -41, -51, -46, -62, 58, -74, 76, 52, -29, 19, 13, -53, 8, -71, 16, 88, 81, 61, 97, -87, 35, -7, -23, -39, 3, -13, 79, -47, 28, -56, 64, 54, -4, -65, -5, 84, -15, -10, -2, -31, -54, -10, 49, 78, -62, 72, -84, 19, 71, 13, -84, 87, 72, 59, 52, -69, 49, 15, 1, -33, 10, 87, -17, 24, -70, 51, -13, -40, 83, 50, -57, -27, 65, -30, -46, 86, -16, -94, 23, 51, -30, -73, -82, -38, -88, 67, -15, -37, -98, 3, -35, 85, 43, -30, -69, 81, 47, 74, 59, 48, -87, 28, -7, 49, 98, -91, 82, 79, -60, -21, 27, 52, -40, 75, -6, 68, 22, 24, 43, -12, 36, -46, 82, 85, 78, 67, -46, -73, -57, 61, -90, -41, -5, -30, -9, -52, 81, -89, 79, -29, -59, 30, 77, -26, 16, -63, -42, 52, 13, 12, -59, 47, 10, 21, -3, -37, 19, -20, -86, 20, 14, 65, -23, 18, -12, -2, -81, -76, 8, 29, -11, 64, 49, 77, -48, 26, 31, -93, -8, 4, -48, 81, 79, -86, -13, -97, 39, -12, -76, -18, 24, 70, -84, 21, 38, 14, -93, -6, -91, 83, -98, 49, -27, 57, 8, 52, 50, 40, -69, 71, 59, 47, -11, -16, 34, -78, 43, -88, 96, -42, -45, 75, -65, -60, -46, 7, -15, -94, 95, 49, 36, 17, 7, -60, 29, 63, -13, 54, 54, -75, -20, 87, -93, -25, -65, 40, -1, -38, 94, 78, -89, -6, -58, -23, -35, 80, -7, 11, -59, 46, -87, 8, -68, -18, 95, -71, 48, 63, -87, 65, 99, 95, 30, 53, -60, 23, 32, -12, 36, -30, -58, 54, -17, -78, 57, 59, -77, 15, -17, -16, -79, 87, 89, -4, -34, 93, 16, 76, -53, -45, 39, -74, -37, 66, -11, -82, -45, 16, -78, 25, 74, -14, 31, -88, 8, -21, 26, -53, -96, 72, 12, -92, -9, -44, 57, 89, -53, 89, -59, 22, -65, 45, 33, -65, 48, 18, 60, -7, -52, -47, -91, -89, -1, -94, -33, -9, -40, 86, -25, 61, -62, -17, -84, 26, 55, 24, 44, 91, 89, -86, -62, 20, -28, 34, 25, 92, -55, -25, 59, -73, 55, -14, -78, -92, -79, 8, 97, -33, 50, -52, -14, -65, 36, 56, 77, -55, 41, 89, 61, 53, 11, 80, 76, 3, 40, -54, -77, -53, 44, -87, 12, -70, -48, 46, 26, 92, -96, -59, -28, -82, 3, 1, -79, -36, -61, -31, 98, -49, -97, -8, 29, 74, -77, -46, 24, 52, -51, -77, -12, -35, 53, 59, 55, 78, 69, 14, 48, -50, 9, -71, 18, -69, 91, 39, -96, 44, 67, 27, 44, 8, 40, -23, 49, -89, 65, -72, 86, -14, -64, -16, 52, -7, -76, -92, -54, -10, -12, -83, 71, -37, -60, 93, 79, 47, -60, -27, -43, 15, -93, 65, 92, 25, 57, 68, -6, -23, -94, 83, 48, -93, -31, -83, -69, -96, 84, -88, 74, 83, -67, 53, 3, -54, 8, -95, 80, -11, 59, 68, 55, 39, 49, 67, -57, 23, 89, -79, -4, -45, -93, 36, -62, -77, 40, -44, 27, -28, -85, -52, -67, -78, -54, -44, 95, -41, 55, 45, -20, -77, -79, 60, -26, -34, -29, -34, 64, 48, -85, 7, -25, -59, 74, 2, -34, 25, -42, -79, 30, 64, 20, 31, 59, -14, -97, -61, -96, -84, 23, 14, -52, 95, 75, 93, -54, 42, -96, 73, -28, 61, -65, -11, 45, -95, -92, -3, 63, -12, -88, 52, 9, -76, 19, -29, -59, -34, -37, -43, -82, 30, -38, -46, 56, -1, -88, 37, 97, -90, -4, 7, -59, -81, 49, 36, -30, 57, -78, -34, 3, 98, -37, -51, 78, 45, -52, -54, 8, 48, -53, -5, 16, 62, 50, -2, 60, 13, 9, 37, 42, -7, 16, -77, -71, 76, 22, 35, -90, -27, -59, -86, -17, 56, -24, -80, 17, -45, -27, -16, -57, -73, -16, -6, -80, -45, -84, -40, 76, -9, 70, -88, -25, 22, 51, -79, -31, 20, 81, 92, -40, 24, -81, 39, 60, 22, 87, -53, 30, 68, -79, 13, -44, -60, 23, -75, -60, -78, -34, -21, -40, -5, 3, 75, 72, -59, -56, -39, 9, 98, -19, -84, 71, 17, -92, 63, -73, 38, 51, -33, -57, -20, -11, -80, -82, -43, -84, 66, 4, -20, -77, 55, -95, -45, 38, 21, 66, -72, 45, -67, 30, -6, 9, 10, -30, 4, -67, -9, -12, -18, -81, 83, -24, 54, 6, 32, 38, -42, 73, -83, -67, 28, 36, -35, 31, 95, -15, -83, 40, -98, -58, -45, -57, -13, -64, 79, -70, -39, 45, 6, -22, -29, -2, -56, 8, -94, -37, -85, -87, 98, 2, -84, -39, -57, -45, 13, -31, -15, -86, 7, 41, -53, -98, -74, -92, -27, 29, 6, -85, -71, -46, 38, 87, -33, 46, 28, -18, -26, 25, 39, 52, -86, -56, 98, -22, 13, -40, -64, 88, 20, -83, 79, -38, -30, -79, 49, -92, 20, 54, -31, -80, -67, -62, 27, -9, 17, -32, -98, -53, 93, -6, 63, -45, -94, -19, 74, -19, -1, 84, 67, -11, -88, -63, -27, -2, 63, 98, 15, -93, -41, 65, -3, -55, 41, 53, -51, 73, -40, -77, 40, 46, -44, -19, 93, -42, -27, 84, -31, 4, 53, -47, -68, 33, 46, 21, -85, -80, 41, 11, 7, 13, -42, 49, 13, -3, 19, -41, 7, 9, 15, -47, 21, -18, -59, 32, -96, -69, -10, -11, -69, 5, 48, -5, 65, 58, 10, -55, 53, -64, 82, -34, -43, 60, 76, 19, 25, -95, 61, 38, -13, 70, -95, 54, 32, -65, -29, 84, 2, 58, -18, -21, -68, 52, 69, -64, -13, -22, 94, 96, 4, -88, 91, -48, -20, 41, -65, 0, -68, 86, -58, 72, 37, -87, 81, 16, 92, 21, 10, 33, 22, -5, 97, -90, 77, 53, 49, -6, -11, 81, -9, -50, 78, -58, -20, -79, 61, -28, -36, -20, 43, 78, -33, 35, -96, -89, -62, -82, -1, 68, 58, 38, -19, -57, -12, 0, -15, -43, -27, 2, 34, -62, -54, -67, 79, -16, -31, -46, -55, -85, 80, 98, 73, -75, 54, 25, 86, -29, -91, -32, -22, -55, -51, 61, 24, 35, 84, -21, 97, -6, -97, -30, 61, -48, -14, -32, 28, 45, 32, -69, -72, 83, -83, -30, -32, 32, 83, -65, 33, -86, 88, -10, -10, -31, 2, -47, -82, -75, 10, 81, -84, 77, 29, -67, -63, 8, -33, 65, 67, -18, 14, 8, -82, 34, -35, 92, 32, -91, -64, -33, -79, -74, 88, 14, 16, 3, -18, 93, -67, 2, 53, 73, -10, -68, 66, -92, -37, 48, -84, -22, 18, -92, -21, 54, 13, 0, 40, 44, -2, 81, 73, 29, -48, -89, -46, -90, -43, -57, -62, 58, 36, 96, 33, -40, 86, 21, -70, -73, 75, 50, -36, 27, 3, 5, -65, 21, -78, -27, 83, 78, -82, -10, -63, -8, 51, 83, -67, 67, 87, 30, 12, -41, -97, -7, 84, 84, -37, -44, -13, -88, 68, 17, -84, 88, 96, -80, -4, -12, 59, -23, -25, -2, 73, 52, 98, -18, 7, 19, -89, 55, -49, -42, 15, -60, -24, 22, 49, -78, 10, -90, -69, -50, 9, 73, -4, 63, -38, 39, -88, -60, 24, -67, 48, 43, -55, -54, -51, 82, -95, -82, 58, 25, -29, 62, -37, 43, 50, -10, 33, 40, 77, -81, 87, -86, -37, -29, -37, 38, 49, 47, -50, 24, -94, 59, 30, -1, 85, -14, 47, 87, -20, -74, -34, -16, 86, -32, -74, 24, -63, 82, -75, 44, 29, 71, 51, -43, -96, 85, 16, -67, -93, 40, 46, -21, -70, -90, 72, -14, -62, 34, -41, 27, 94, 71, 84, 53, -65, -39, 94, -81, -15, -51, 37, 14, -21, -49, -62, -43, -43, 22, -47, 22, -28, -10, -82, 14, 56, 92, 41, 25, 73, 14, 35, -60, -37, 60, -97, -4, 89, 56, -45, -2, 53, -80, -9, 79, -52, 48, -19, -51, -39, -64, 58, 57, -55, 25, 5, -90, -43, -39, 13, -95, 9, -34, 11, 77, -60, 16, -56, -16, 91, 43, -14, 17, 8, 42, 72, 53, 69, 51, 74, 45, -98, 75, -45, -28, -92, -51, -17, 31, 86, -64, 25, -55, -63, -42, -82, 70, -15, -68, 5, -86, 32, -98, -11, -38, 55, 47, 2, 63, -53, 91, -15, 47, 43, 88, 43, -58, -21, 9, -49, -30, -58, -50, -34, -32, 98, 89, -51, 18, -30, -5, 27, 92, 66, -69, -58, 3, -92, -34, 7, -47, -88, 3, 19, 62, 94, 84, -97, -41, -39, -25, 66, 81, -94, -30, 29, -11, 34, -72, 40, 89, 31, -72, 21, -4, 2, 68, -61, -91, -85, -98, 74, -21, 68, -35, 79, 23, 83, 66, 79, -86, -12, -70, 15, 38, 19, 74, -73, 55, -10, -56, 27, -50, 70, 45, -75, 73, -3, -37, -96, -53, -95, 62, -26, -52, -14, -51, -7, 3, 44, -62, 1, 80, -47, -82, -65, 19, 28, -18, -63, -58, -51, 23, -80, 6, -70, 42, -4, 8, -84, 92, -11, -51, -69, 80, 95, 59, 49, -48, 93, -70, 19, 6, 82, 66, 57, 18, 63, -23, 36, 27, -14, 13, 66, -17, 73, 3, -98, -89, 79, 18, 33, 19, -16, 72, 51, -85, 19, 80, -26, -27, 60, 47, -97, 12, 14, -58, -94, -28, -67, -47, -30, -37, 82, 22, 12, 90, 7, -59, 2, -68, -84, 42, -21, -53, -23, 23, 56, -55, -98, -94, -38, 20, 84, -52, -36, 45, 69, -61, -59, 80, 37, 66, -92, -15, 19, 93, -60, -77, -49, -44, 15, -62, -11, 73, -50, 52, 94, 26, -78, 16, -37, -89, 66, -57, 21, -78, -64, 74, -5, 18, -72, -4, -48, -12, -98, -96, 41, -21, -66, -51, 78, -77, 46, 55, 32, -63, -74, 12, -72, 57, 33, -44, 96, 38, 27, -87, 21, -4, 59, 59, 71, -12, 61, 98, 54, -92, -72, -3, -5, -97, -87, 23, -14, 76, 84, 37, -90, -35, 36, 58, -85, 5, -61, -30, 13, 0, -95, 32, 9, 48, -66, -47, 81, -20, -26, 28, 73, -27, 97, 25, -19, -69, 96, 64, -70, 95, 33, 77, 44, -3, 53, -4, 84, 6, -67, 18, -81, 52, 85, -86, -94, -80, 81, 74, 45, -92, 96, -76, -16, -19, -2, 89, 73, -60, -79, -51, -67, -38, 74, -22, -85, 13, 1, 26, -33, -82, -92, -62, -77, -83, 75, 9, 17, 61, -87, -91, -27, -7, 29, -17, 10, -17, 8, -29, -80, 86, 2, -80, 59, -2, -50, 19, -7, -9, 31, 90, 87, 11, -25, -89, 36, 49, -23, -87, -15, -97, 55, 94, 51, -19, 66, -49, -87, 87, -12, 87, 62, -62, -18, -68, -29, 54, -45, -64, 22, 34, 20, 80, -82, 44, 64, -59, 23, 8, -63, 7, -22, 28, 15, 93, -86, 8, 86, 77, -84, 36, 51, 49, -27, -84, -36, 16, -82, 44, 4, -88, 33, -57, 36, 24, -25, -29, -5, -77, 87, 53, 61, -83, 27, -67, 79, 71, -10, 6, 46, -1, 16, -43, 35, 44, 55, 56, -47, -57, 32, 36, -22, 79, -93, 7, -15, 97, -98, 37, -36, -53, 71, 34, -38, 4, 11, 10, 78, -13, 72, 45, -30, 79, 91, 78, -62, -35, -41, -18, 63, -25, -82, 12, 64, 30, -76, -21, 10, 79, 49, 45, 9, 66, -47, 6, 88, -70, 17, -51, 19, -70, 39, 42, -5, -77, 10, -55, -71, 93, 33, 12, 75, -24, 7, 3, 91, -91, -28, -70, 32, 75, 25, 24, 53, -23, -68, -54, 33, 93, -27, -14, -13, -32, 6, 86, -68, -46, -72, 58, 70, -40, -23, -24, -31, 0, -32, 44, -32, 98, 23, 22, -67, -85, 80, 58, 64, -79, -69, -88, -87, 83, 73, 29, -79, 80, -77, -98, 83, -51, -42, 33, -86, -64, -12, 69, 95, -75, 70, -10, 74, 45, -69, -76, -31, 90, 83, -58, 96, -35, 52, 45, 3, 28, 81, -12, 84, -83, 83, -8, -34, 68, 2, 77, 5, -72, 50, -33, -40, -79, 8, 45, -4, 25, -7, 97, -59, -92, -12, 25, 75, 57, -91, -51, -14, 70, -76, -47, 11, -43, -83, -29, 73, 24, -94, -7, -58, 32, -80, -10, -57, -19, -36, 23, -12, -42, 17, 80, -33, -39, 2, 95, -1, -27, -90, -79, -58, -46, 10, -84, -2, 44, 4, 87, -71, 12, -89, 4, 70, 44, -42, 62, 76, -65, -4, -75, -69, -91, -93, -34, -77, 32, -87, 84, -18, -86, 40, 7, 43, -84, -80, -8, 29, -44, -74, -69, -25, -17, 56, 49, -86, 53, -5, -80, -61, -23, 45, 14, -51, -93, 94, 51, 31, -67, 49, -85, 97, -66, -81, -49, 74, 0, -22, 48, -16, -78, 72, 38, 74, 43, -67, -41, -54, -17, 48, 8, -57, 65, -49, -84, -58, -40, -37, -46, 43, 18, 31, 19, -10, 57, 39, 36, 19, 30, -42, 39, 72, -53, 64, -86, 27, 72, -13, 48, 74, 81, -50, -73, 3, 38, 92, 24, 0, 71, -55, 69, -54, -59, 31, 71, 2, -34, -8, 66, -87, 47, -97, -17, -12, 74, 81, 53, 79, 77, -75, 43, -78, -40, -22, 22, -4, 16, 62, -91, -90, -90, -24, -5, -68, -38, 3, -58, 39, 77, 46, -84, -68, -43, 1, 28, -66, 25, 0, -68, -18, -86, -98, -75, 38, 44, 58, 85, 92, -23, 65, -77, -93, -80, -55, -84, 77, 35, -87, 68, 4, 77, -47, -16, 11, 26, 36, -74, 13, -71, -92, 83, -17, -79, -34, -78, 48, 21, -69, -43, -38, 30, -15, -85, -31, 94, -39, -26, -21, -20, -81, 23, -19, -41, 42, -45, -67, -55, -54, 7, -97, -6, 63, 80, 19, 49, -66, 55, 80, 65, -95, 35, 5, -65, -34, 16, -27, 6, 27, -25, -26, 86, -19, 47, -42, -81, 79, 12, 91, -96, 54, -33, -11, -60, -64, -7, -15, -19, -34, 75, 90, 24, 2, 63, -30, 49, 60, 80, 86, 41, -89, 43, -90, -23, -80, -29, 19, -68, -91, -61, 69, 62, 85, 48, 82, 9, 5, 98, -71, -47, 34, -2, 12, -84, -45, 78, 15, -78, -50, 88, -21, 80, -73, 11, 32, -77, -61, 6, 86, 27, -5, 67, -8, 4, -42, 23, -38, 11, 96, 29, -41, -63, -52, 42, -84, 98, 47, -17, 6, 67, 55, 88, 29, 46, -4, -67, 33, -67, 39, -46, 19, 42, -5, -7, -12, -24, -69, -49, 37, 95, 57, -78, 56, 31, 60, -4, -35, 43, 30, 26, -3, -39, 55, -43, 21, 35, -42, -63, 41, -19, 50, -93, 13, -55, -52, -18, 49, -60, 62, 34, -90, -95, 27, 85, 56, 43, 61, -80, -69, -32, -55, -66, -80, 69, -89, 42, -61, -40, 20, -39, 4, -59, -35, 38, -55, 1, 7, -95, 90, 12, 83, -50, -91, -64, -48, 40, 15, 20, 75, 44, 24, 43, 30, -34, 28, -73, -75, 85, -6, -40, 86, 82, -21, 45, -67, 88, 50, -61, 78, 58, -55, 47, 64, -55, 74, 77, -86, 69, 40, -13, 12, -73, -7, -63, 12, 18, -92, 9, 47, -43, 55, -96, 72, 67, 43, -97, -21, -15, 86, 93, 58, -1, -79, -77, -22, 55, 75, 98, 56, 65, -58, -54, -17, 48, 42, -63, -27, 68, -3, -70, -84, 62, -31, 37, -61, 50, -53, -80, 76, 66, 41, 68, 0, -23, -96, 17, 69, 62, 53, -89, 35, 2, -38, -5, -75, 62, 65, -92, -39, 46, 38, 37, 31, 19, 10, -85, 39, -55, -73, 31, 35, -17, -79, 92, 18, 54, 37, 43, -12, 11, 7, -39, -61, 2, 28, -2, 29, 35, -32, -31, 43, 29, -96, 71, -6, -88, 75, 34, 68, 4, -41, -57, 0, -18, -68, 89, 76, 59, 20, 27, -33, 80, 95, 45, -7, 32, 68, 65, -97, -14, -74, 92, 70, -19, -73, 27, -46, -10, -90, 50, 10, 21, 88, -8, -60, -5, -19, -91, -92, -80, 87, -15, 11, -2, -80, -24, 52, -32, -66, 43, 2, -42, 85, -22, 8, -26, -55, 80, -1, -26, -75, 81, 11, 28, 57, -14, -59, 53, -29, 38, -44, 64, -92, 60, -1, 38, 84, -59, 81, -94, 58, -31, -54, -89, -62, 79, -74, -11, 71, 0, -86, -29, 42, -22, 51, -12, -24, 0, 65, -16, 89, -16, 7, -80, 3, -89, 49, -3, 38, -1, 71, -15, 45, 55, 42, -6, 26, -46, 42, 81, -36, -88, -74, 16, 26, 31, 27, 96, -22, -52, 49, 67, 95, 82, 60, -4, -3, -46, 86, -45, 32, -16, -28, -24, 66, 11, 71, -46, 45, -93, -44, -45, 23, -79, 73, 28, 1, -84, 4, 57, 38, 98, -34, -76, 97, 85, 39, -27, -50, 89, 25, 75, 10, 23, 73, 37, 74, -32, -27, 45, -26, 75, -53, 85, 81, -94, -88, 97, 51, -76, -20, 95, 28, -49, 91, 48, -86, 92, 32, 32, -86, -58, 16, 48, 66, -39, 96, 26, -37, -51, 8, -25, -56, -82, 48, -32, 22, 31, 8, -48, -75, 37, 67, 88, -17, 26, 23, 1, 81, -20, -69, 82, 96, 27, -91, 90, -30, -41, 74, -17, -36, -90, 1, 5, 87, 38, 86, -15, 59, -38, 0, -38, 34, 33, -64, 76, -71, 75, -50, -66, 6, -35, 50, 12, 51, -84, 28, 96, 9, 97, -31, -10, 94, -41, 31, -21, 79, 93, 34, 40, 41, 71, -90, 37, 72, 39, 51, -9, -41, 50, -8, -55, -68, 8, 35, -23, -58, -82, -2, -59, -5, -77, -56, 47, 98, 96, 44, -71, 24, 87, -12, -86, 28, 39, 95, -64, -27, -87, -42, -84, -98, -59, 59, -97, 49, -78, -92, -48, 42, -92, -14, 15, 92, 17, 75, 24, -98, -52, 68, 79, 58, 74, -73, 9, -61, -36, 78, -2, 25, -19, 8, 97, -56, -28, -45, -7, 32, -21, -38, 57, 82, 33, 17, -42, 4, -98, -79, 15, -6, 91, -29, -73, -24, 77, 23, -34, -39, -16, 69, 49, 55, -81, -75, 17, 73, 39, -6, -40, -89, 15, 47, 71, 30, 13, -88, -27, 69, -1, 94, -21, -74, -30, 87, 91, -23, -9, -90, -62, -86, 15, -81, 88, -45, -42, -38, -93, -60, 36, -28, -29, 0, -64, -63, -86, 0, 71, 11, -17, -70, -4, 42, -55, 63, 82, -36, -11, 3, -32, -15, -88, 47, 12, 53, 95, -48, 79, 44, 93, 29, 47, 14, -3, -25, 87, 50, 20, -51, -79, 97, 18, -56, 91, 20, -36, 95, 63, -87, -16, 7, -97, -75, -17, 43, -21, 32, -7, 89, -43, -74, -70, -27, -30, 70, -43, -60, 40, -76, -81, 80, 80, 96, 7, 36, 42, 43, 16, 72, -93, -75, -22, -69, -32, 25, -53, -93, 57}

#define ADD_CONV2D_KERNEL_0_SHIFT (11)

#define ADD_CONV2D_BIAS_0 {84, 11, 58, 36, 70, 21, -109, 11, -74, -22, 84, 93, 19, 111, -61, -18}

#define ADD_CONV2D_BIAS_0_SHIFT (8)

#define BATCH_NORMALIZATION_KERNEL_0 {92, 92, 92, 92, 92, 92, 92, 92, 92, 92, 92, 92, 92, 92, 92, 92}

#define BATCH_NORMALIZATION_KERNEL_0_SHIFT (10)

#define BATCH_NORMALIZATION_BIAS_0 {78, 78, 78, 78, 78, 78, 78, 78, 78, 78, 78, 78, 78, 78, 78, 78}

#define BATCH_NORMALIZATION_BIAS_0_SHIFT (7)


/* output enconding for each layer */
#define INPUT_1_OUTPUT_SHIFT 7
#define ADD_CONV2D_OUTPUT_SHIFT -3
#define BATCH_NORMALIZATION_OUTPUT_SHIFT 1

/* bias shift and output shift for each layer */
#define ADD_CONV2D_INPUT_LSHIFT (ADD_CONV2D_KERNEL_0_SHIFT-INPUT_1_OUTPUT_SHIFT)
#if ADD_CONV2D_INPUT_LSHIFT > 0
#define ADD_CONV2D_MODE 1
#define ADD_CONV2D_INTER_SHIFT ADD_CONV2D_KERNEL_0_SHIFT
#define ADD_CONV2D_INTER_LSHIFT (ADD_CONV2D_KERNEL_0_SHIFT-INPUT_1_OUTPUT_SHIFT)
#elif ADD_CONV2D_INPUT_LSHIFT < 0
#define ADD_CONV2D_MODE 2
#define ADD_CONV2D_INTER_SHIFT INPUT_1_OUTPUT_SHIFT
#define ADD_CONV2D_INTER_LSHIFT (INPUT_1_OUTPUT_SHIFT-ADD_CONV2D_KERNEL_0_SHIFT)
#else
#define ADD_CONV2D_MODE 0
#define ADD_CONV2D_INTER_SHIFT ADD_CONV2D_KERNEL_0_SHIFT
#define ADD_CONV2D_INTER_LSHIFT 0
#endif
#define ADD_CONV2D_OUTPUT_RSHIFT   (ADD_CONV2D_INTER_SHIFT-ADD_CONV2D_OUTPUT_SHIFT)
#define ADD_CONV2D_BIAS_LSHIFT   (ADD_CONV2D_INTER_SHIFT-ADD_CONV2D_BIAS_0_SHIFT)
#if ADD_CONV2D_OUTPUT_RSHIFT < 0
#error ADD_CONV2D_OUTPUT_RSHIFT must be bigger than 0
#endif
#if ADD_CONV2D_BIAS_LSHIFT < 0
#error ADD_CONV2D_BIAS_LSHIFT must be bigger than 0
#endif
#define BATCH_NORMALIZATION_OUTPUT_RSHIFT (ADD_CONV2D_OUTPUT_SHIFT+BATCH_NORMALIZATION_KERNEL_0_SHIFT-BATCH_NORMALIZATION_OUTPUT_SHIFT)
#define BATCH_NORMALIZATION_BIAS_LSHIFT   (ADD_CONV2D_OUTPUT_SHIFT+BATCH_NORMALIZATION_KERNEL_0_SHIFT-BATCH_NORMALIZATION_BIAS_0_SHIFT)
#if BATCH_NORMALIZATION_OUTPUT_RSHIFT < 0
#error BATCH_NORMALIZATION_OUTPUT_RSHIFT must be bigger than 0
#endif
#if BATCH_NORMALIZATION_BIAS_LSHIFT < 0
#error BATCH_NORMALIZATION_BIAS_LSHIFT must be bigger than 0
#endif

/* weights for each layer */
static const int8_t add_conv2d_weights[] = ADD_CONV2D_KERNEL_0;
static const nnom_weight_t add_conv2d_w = { (const void*)add_conv2d_weights, ADD_CONV2D_OUTPUT_RSHIFT};
static const int8_t add_conv2d_bias[] = ADD_CONV2D_BIAS_0;
static const nnom_bias_t add_conv2d_b = { (const void*)add_conv2d_bias, ADD_CONV2D_BIAS_LSHIFT};
static const nnom_addconv_parameter_t add_conv2d_parameter = { (const void*)NULL, ADD_CONV2D_MODE, ADD_CONV2D_INTER_LSHIFT};
static const int8_t batch_normalization_weights[] = BATCH_NORMALIZATION_KERNEL_0;
static const nnom_weight_t batch_normalization_w = { (const void*)batch_normalization_weights, BATCH_NORMALIZATION_OUTPUT_RSHIFT};
static const int8_t batch_normalization_bias[] = BATCH_NORMALIZATION_BIAS_0;
static const nnom_bias_t batch_normalization_b = { (const void*)batch_normalization_bias, BATCH_NORMALIZATION_BIAS_LSHIFT};

/* nnom model */
static int8_t nnom_input_data[16384];
static int8_t nnom_output_data[16384];
static nnom_model_t* nnom_model_create(void)
{
	static nnom_model_t model;
	nnom_layer_t* layer[4];

	new_model(&model);

	layer[0] = Input(shape(32, 32, 16), nnom_input_data);
	layer[1] = model.hook(AddConv2D(16, kernel(9, 9), stride(1, 1), dilation(1, 1), PADDING_SAME, &add_conv2d_w, &add_conv2d_b, &add_conv2d_parameter), layer[0]);
	layer[2] = model.hook(BatchNormalization(16, &batch_normalization_w, &batch_normalization_b), layer[1]);
	layer[3] = model.hook(Output(shape(32, 32, 16), nnom_output_data), layer[2]);
	model_compile(&model, layer[0], layer[3]);
	return &model;
}
