#include "nnom.h"

#define ADD_CONV2D_KERNEL_0 {84, -95, -110, -21, -116, 23, -67, 46, -20, 107, 103, -78, -26, -105, -38, -38, -47, -33, 102, -68, -35, 114, -86, 11, 25, 71, -106, -81, -15, -14, 75, 85, -10, -31, 76, -104, -64, 59, -86, 3, 65, -116, 83, 107, -48, -72, 58, 64, -43, -36, 3, 34, 67, 82, -83, 86, -95, -89, -53, 64, 112, -107, -44, 1, -110, 17, -20, 111, -76, 36, 78, -40, 84, -21, -32, 92, 98, -110, 75, -87, -106, -114, 57, -54, -120, -8, -12, -3, 21, 47, -56, 109, -11, -92, 64, 74, -7, -23, -101, 15, 91, -108, -27, 99, 91, -104, 106, 64, -49, -100, 90, 93, -92, -72, 64, -37, -79, 56, 12, 4, 41, -70, 80, -74, 60, -4, -87, -58, 67, 77, 112, -24, -114, -3, 71, 67, 36, 68, -99, 8, 32, 28, 47, -108, 111, 51, -11, 11, -64, 54, -92, 93, -84, -78, -112, 29, 47, 40, 71, -15, 71, -68, -104, 38, 119, -72, 110, -41, 72, -44, 80, -45, -85, -94, -33, 62, 54, 115, 108, -110, 18, 58, -20, -20, 17, 117, -62, 78, -118, -56, 5, -117, -36, 112, -96, -67, 116, 86, -35, 49, -100, -44, -62, -71, -41, -31, 84, -82, -53, -29, 103, -24, -28, -12, 14, 11, 114, -78, -68, 63, 29, -119, 7, -50, -35, 17, 84, -26, -41, -77, -108, -105, -118, 79, -14, 72, 109, -74, 61, 90, -114, 113, -31, -79, 96, -119, -94, -37, -41, 101, 100, -78, -65, 110, -89, 120, -16, -25, 46, 81, 113, 0, 57, 93, 13, 26, -81, -21, -107, 2, -87, 18, -74, 9, 5, -53, -108, -64, -68, 74, 1, -19, 54, 59, 23, 37, -10, -96, 92, -9, 19, 98, -68, -24, -45, -36, -89, 94, -93, 54, -83, -54, 20, 56, -59, 7, 36, 16, -65, 71, -85, 111, -8, -8, 42, 50, 6, 4, -83, 52, 20, -30, -99, -45, -67, 49, 37, 112, -16, 75, -87, 45, 8, -2, -51, -58, -69, -29, -1, -81, 89, 85, 79, -119, -94, -3, 0, 90, -31, -75, 6, -12, -35, 60, 84, -14, 54, 82, -92, -71, 66, -37, -66, -103, 102, 59, -31, -114, 56, 34, 36, 24, -17, 50, -98, -77, 74, -27, -36, 88, -80, 17, 86, 27, -85, 115, -8, -94, 117, -29, 70, 101, 17, 84, -63, 59, -23, -108, 12, 87, -63, -38, -46, 28, 88, 64, 87, 10, 78, 10, -31, 18, 58, 98, 74, -38, -61, -92, 60, 75, -27, -38, -14, 13, 31, -114, -95, 19, -89, -26, -52, -54, 40, 34, 40, 34, 70, -5, -120, -41, -15, -93, -12, 28, -81, -84, 119, 8, 68, 84, 108, -90, -81, -98, 58, -70, -53, 20, -32, -15, -100, 85, 6, -76, 106, 76, 117, 82, -32, -30, 26, -108, -51, -72, 4, 52, -77, -114, -33, -4, -85, 62, 29, 63, 84, 13, -106, -65, 104, 2, -61, -111, 33, -77, 5, -95, 68, 56, -102, 68, -18, -34, 7, 99, 62, -87, -42, 110, 90, 49, -73, -106, -59, -20, -54, -9, 60, -59, 46, 97, 67, -50, 12, -21, -48, 69, -41, 96, 91, -101, -32, -107, 112, -117, 51, 19, 106, 11, 59, 62, 85, -47, 116, -53, 25, 40, 95, 63, -31, 33, 40, 101, 7, 83, -96, -48, -17, 55, -3, 81, 3, -43, 74, 12, 38, -78, -52, -72, 66, 73, 87, -55, -61, -99, -14, 87, 55, 17, -114, -70, 85, 53, -24, 47, 109, 36, 20, -77, -5, -32, 104, 27, 112, 92, -8, -72, 104, 62, -28, -64, -107, 43, 65, -73, -27, -117, -120, 117, 2, 26, -85, -4, 26, 13, -86, -92, 34, 68, -92, 34, -111, 37, 22, -94, 1, -59, -30, 37, 105, 11, 20, 94, -93, -103, -11, 47, 0, -41, 16, -58, -20, -95, 38, 81, 67, -96, -3, -24, -74, -1, -95, -76, -118, 52, 64, 87, -95, 21, 10, 91, -9, -114, -13, 14, 30, 70, 10, 119, -62, 88, 73, -55, 104, -56, 46, -22, -42, 54, 104, 54, 55, -103, -44, -56, 6, 63, -30, -82, 12, -54, -36, 94, 84, -39, 75, -70, -71, -99, 31, -77, -13, -90, 87, -8, 50, -11, -120, 114, -59, -55, 89, -90, -73, -74, -9, 31, 79, -25, -79, -96, -2, -97, 48, -83, 102, 38, 93, -117, -4, 1, -41, -34, 36, -88, 66, 117, 98, -53, -15, -61, 2, -40, -71, -105, 106, -7, 117, -98, 58, 117, -68, 67, -80, 21, 98, 81, -103, 64, -78, -72, 41, -1, -51, -103, 42, 62, 25, 20, 50, 8, -34, -118, -43, 50, -82, 121, -13, 113, -67, 80, 90, -73, -92, -23, -47, 13, -22, -56, 2, 21, -100, 18, -73, 82, -50, -18, 56, 36, -117, 79, 112, -96, 5, 112, 88, 109, 76, 66, 34, 56, 79, 101, 114, -35, 8, 77, -7, 77, -13, -103, 53, 64, 93, -71, -68, -67, 95, -79, -66, 41, 4, 96, -39, -113, 90, -99, 107, -52, -31, -12, -83, -116, 43, 120, -11, 85, 80, 22, -49, 8, -118, 93, 3, -107, 7, 0, 110, -51, 51, -29, 100, -115, -23, 0, -92, -31, -112, -21, 37, -120, -1, 102, -19, -41, -99, 17, 14, 116, -32, 10, 69, 84, 87, 35, 50, -64, 23, -71, -27, 118, 40, -48, 121, -78, 50, -28, -58, -78, 7, 59, -102, -88, 72, -104, 55, 24, 57, 104, 74, 88, 97, 37, 49, -76, 83, -48, -88, 34, 65, -26, 114, 89, -93, 88, -58, -101, -113, 96, 41, -107, -66, 40, -59, -118, -79, 25, -61, -73, 91, -1, -6, 41, 119, 71, 113, -86, -81, -12, 52, 33, -92, -30, 43, 97, 92, -87, 108, 81, -118, 49, -98, 42, 62, -87, -120, 116, 49, 47, -8, -78, 12, 27, -118, 77, 14, 54, 71, -74, 91, 115, -54, 87, 38, -94, 112, -102, -101, -73, 116, 67, -53, -96, -90, 107, -92, -33, -25, -8, 105, -85, -47, -41, -30, 60, -3, 82, -5, -92, -61, 113, 17, 107, -79, 12, 99, 15, 57, -66, 115, -20, -22, 26, -65, -75, -93, -52, -76, 68, -58, 67, 7, -35, -95, -98, 30, 78, 87, -119, -30, 80, -81, 85, 47, 57, 88, 86, 36, 46, 53, -96, -2, 51, -2, -111, 100, -47, 53, -109, 120, -71, 36, -106, -58, 64, 81, -95, -84, 13, 97, 108, -20, -1, -32, -102, -25, -48, 50, 59, -17, 9, -60, 29, 85, 53, -82, -10, 57, -27, -24, -89, 71, 82, 22, -40, 114, 20, -14, 56, 106, -43, 68, -98, -49, 24, -55, 18, -62, 3, 38, -50, -45, -68, -97, -2, 48, -2, -84, 30, -7, -2, -120, -52, 30, -8, -50, -88, -120, 10, 104, 42, 7, 48, -100, -66, 91, 76, -103, -32, -39, 96, 36, -12, 40, -103, 58, -69, -103, -61, -47, -24, 20, 60, 51, -100, 104, -114, -54, 46, -11, -57, -86, -118, 81, 47, -99, 119, 61, -81, -98, -28, -39, -75, -61, 69, -73, -80, -57, 30, -50, 40, 80, 63, -37, -84, -50, -100, 99, 101, 20, -31, -30, 89, -106, -1, -6, 102, -120, 37, 20, 82, -58, -13, 50, 59, 83, -109, -41, -10, 75, 82, -108, -40, 76, -85, 48, -73, -60, 114, 11, 2, -56, 64, -27, -94, -39, -110, 99, 19, -66, 39, 36, 52, -30, 110, 39, -102, -30, 26, -100, 14, -110, 17, 67, 5, 112, 63, 53, -93, -77, 36, 111, -82, 110, -28, -3, -34, -78, 96, -97, 91, 89, -47, -19, -7, -12, 59, -72, 8, -43, 77, -80, 78, 66, -37, 90, 78, -58, -101, 105, -27, 59, -102, 59, 13, -43, -57, 24, 106, -92, 1, -54, 15, 1, 113, -73, 113, -34, -111, -59, 78, 19, 0, 94, 99, -84, -91, 87, 35, 58, -18, 117, 43, 24, 80, -41, 120, -40, 5, -70, 105, -117, -49, -6, -22, 67, -57, 17, 96, -86, -31, -108, 76, 28, -108, 35, 117, -38, 3, 42, 80, -115, -45, 59, 47, -51, -52, -43, -11, 1, -29, 76, -95, -39, 71, 107, 92, -63, 22, 80, 118, 96, -116, 27, -12, -14, 82, 57, -77, 1, 20, 105, -10, 37, 73, 105, 4, 109, 2, -46, -6, 34, -78, 13, -99, -8, 89, -60, 28, -77, 118, -30, -111, -120, 12, -32, -99, -17, -9, 53, -56, -2, -80, 51, -104, 46, 21, 76, 75, 63, -103, -99, -24, -50, 45, -75, -95, 21, -71, 54, 4, 110, 78, -63, -36, -104, 66, 6, 19, 19, -21, 48, 56, -89, 4, 42, 105, -85, 72, -112, -84, -69, 29, -3, -31, 17, -105, 63, 89, -34, 37, 117, 56, -74, -117, -70, -34, 104, -42, -86, 118, 11, 10, 20, -78, -39, 8, 110, -6, -28, 80, 27, -110, -61, -77, -35, 62, 104, 34, 58, 49, -52, 56, 84, -66, 53, -24, 56, 92, 53, 45, 76, -116, 12, 70, 119, 91, -81, 105, -51, -9, -33, 3, 95, 108, -15, -3, -11, -41, -30, 41, 28, 104, 21, 112, 60, 116, 43, -110, 75, -64, 94, -49, -112, 115, 12, -117, 50, -38, -106, -51, 81, -33, 49, 114, -67, -10, -76, -20, 71, 91, 62, 35, -88, 107, -5, 39, 70, -104, 61, -43, -103, -60, -41, 95, 27, 60, -109, 95, -105, -75, -64, -65, -6, -23, -74, 12, 118, -50, -78, 82, 48, -10, -69, 10, -90, -48, -18, 113, 81, -46, 33, -76, -68, -82, 20, -116, -67, 13, 42, -58, 53, 19, 71, 119, 10, -1, 83, -22, 47, -66, -97, -81, 49, -3, -121, -68, -43, -79, 90, -11, -61, 73, -78, 68, 16, -83, 60, 81, 117, 29, -90, 17, -20, -115, -75, 86, -49, -47, 100, 6, 113, -56, 14, 74, -74, -72, -108, 18, -29, -108, 38, 102, 21, -77, -51, -76, 8, 70, -1, -5, -91, 35, 56, 80, 93, -49, 106, 26, 50, -113, 44, 88, -114, 97, -110, 25, 17, -64, 52, -62, -87, -70, -115, 59, -53, -9, 13, 46, -37, 18, 77, 114, 101, 58, -95, 107, 59, 33, 86, -45, -36, -118, -33, -54, -29, -77, -27, 108, -75, -109, -76, -85, 6, 57, -93, -89, -56, -109, 34, -12, 46, 64, 11, 23, -43, -48, 116, 120, -120, 49, 90, 52, 25, -114, -46, 77, -44, 37, -79, 116, -35, 43, 8, -119, 92, 47, -66, -5, -88, -63, -14, -5, -65, -14, -28, -28, 113, 82, 82, -43, -7, 40, 50, -8, -71, -88, 21, 77, -73, 26, -114, 42, -51, 19, -104, -24, 103, -108, -92, 51, 57, -49, 26, 102, -108, 32, -26, 58, -120, -89, 39, -25, -13, 18, -87, -61, 24, 32, -110, 54, -92, -13, 21, -40, -42, -33, 111, 71, -34, 95, -91, 37, 45, 26, -67, -42, -44, -103, 33, 28, 18, -20, 45, 103, -28, -18, -5, -83, 57, -19, 88, -120, -118, 109, 91, 22, -68, -62, -26, -96, -119, -117, 103, -26, -32, 85, 71, -18, -70, -110, 112, -29, -13, 82, -75, 103, -15, -80, 11, -19, 82, 63, -75, -28, -81, -13, 11, -78, -76, -105, -11, 81, 86, -110, 88, -87, -30, -50, -32, -112, -32, -11, 71, -88, -48, 52, 98, 72, -33, -109, -92, 54, -48, -30, -65, 98, 49, 98, -101, 58, -66, -42, -10, -80, 58, 9, -18, -18, -14, 70, -87, -88, -3, 53, -17, -117, -14, -103, -109, 91, 74, 30, -85, 66, -50, -70, -79, -3, 43, 17, -72, 26, 85, 41, -35, 111, -10, -92, -108, 107, 38, -111, 57, 98, -64, -114, 39, 14, -47, 8, -20, -61, 16, 121, 13, -117, -95, -35, 72, -73, -10, -20, 43, 74, -45, -76, -44, 11, -98, -91, -37, 24, 59, 12, -109, -64, 110, 29, 45, 81, -33, -103, -101, 31, -16, -38, 5, 103, 33, 55, 38, -81, 45, 35, -120, 27, 108, -92, 101, 61, -61, 38, -36, -73, -101, -71, -52, -80, 38, -37, 27, -27, -95, -50, 24, 14, -51, -111, 111, 91, -49, -30, 29, 36, 26, 116, -33, 84, 69, -19, -120, 47, -69, -112, 51, -11, 58, 36, 40, 105, 114, 32, 112, -22, -106, 41, 59, 50, -109, -41, -6, -102, -89, -69, 103, 55, -62, -61, -95, 31, -40, 120, 99, 119, 25, -10, 105, -22, 52, -20, 51, -8, 73, 108, 19, -53, 115, -83, -68, -36, 46, 40, 21, 19, -86, 24, 59, -41, -79, -26, -93, 36, 49, -53, -37, -104, 101, 41, 63, 16, 0, 114, -66, 5, 26, -47, -65, 8, 108, -10, 89, -45, 63, 34, 28, -41, -45, -20, -58, -94, 12, 8, 70, 52, -39, -40, -110, -68, -7, 68, 62, 85, 84, -59, -74, 26, 30, 93, -92, 109, 41, -114, -24, -37, -119, -112, 92, 21, -51, -60, -8, -105, -42, 113, -112, -45, -101, -52, 14, 6, -78, 18, 51, 31, -99, 89, -74, 85, 73, 85, 53, 20, 119, 68, -14, 0, -118, -6, 46, -53, 86, 24, -12, -60, 82, -56, -106, 1, 74, -89, 69, 3, 94, -82, 111, -77, 116, 20, 4, -92, -24, 115, 43, 114, -55, 63, -105, 41, -47, -20, 49, 20, -96, -92, -83, -24, -19, 92, 40, 30, 106, 57, -10, 48, -46, -110, 49, 57, 74, 59, 2, -20, -25, 56, 106, 18, -46, -55, -85, 104, -59, -30, 9, 102, -27, -62, 8, 74, -67, -64, 75, -37, 70, -75, -119, -118, 12, 1, -54, -93, -121, -70, 13, 18, 30, 49, 89, 1, -27, 61, 1, 62, -29, -16, -58, 86, 8, 66, 81, 120, 0, -100, 70, 49, -5, 53, -6, 56, 11, 26, -32, -15, -31, -87, 103, -6, 84, -118, 78, -112, -12, 109, -71, 63, -12, 91, -113, 88, -29, -46, 100, -1, 4, 55, -75, 110, 23, 68, 1, -89, -79, -107, 34, -95, -13, 57, -74, 51, 3, 59, 93, 105, 1, -118, -38, 121, 15, -119, -59, 120, 61, -2, 108, -75, 77, -64, 18, 27, -43, 83, -32, -36, -106, 29, 25, 65, -54, -73, 111, 87, 57, 34, -98, -76, 45, -76, -65, 58, 41, -81, -23, 118, -22, 43, -11, 67, 62, -102, -106, -109, -35, 16, -23, -50, -117, 33, 116, 33, 59, 7, 98, -110, -64, -92, 74, -3, 70, 95, 119, 7, 108, 10, 120, 49, -88, -28, -79, -5, 20, 56, 20, 56, 31, 106, -44, -96, 100, 117, -116, 87, -100, -28, -19, 66, -103, -79, 105, 62, -21, -52, 51, -93, -65, -71, 56, -42, 84, -57, 94, 43, 33, -33, -56, 87, 63, 115, -85, -11, -89, -80, 94, 86, 33, 19, 10, -76, 41, 7, -104, -25, -53, -114, -50, -7, -61, -112, -82, 105, -76, -36, -69, -48, -12, -26, 108, -16, 96, -74, 21, 61, 52, -10, -42, -99, -57, 41, 37, 121, -55, -91, 4, 8, -106, -73, 24, 42, -41, -11, -76, 13, 88, 112, -20, 60, -59, 81, 63, 37, 52, 22, -26, -99, 119, 78, -87, 111, 0, 88, 104, 23, -96, -61, 7, 80, -115, 55, 102, -10, -52, 85, 5, 31, 54, -16, 110, -79, 48, 39, 17, 58, -91, -106, -115, 54, -40, -110, 103, -44, -109, -117, -105, -8, 4, 2, -39, 12, -39, 64, -73, -79, -96, 77, -45, 53, 71, -93, 110, -75, -103, -14, -71, 54, 45, 36, -20, 52, 72, 64, -45, 67, -82, -83, 72, 3, 83, 54, 3, -14, -7, -6, 24, 112, 6, -58, 59, 13, -9, -77, -50, -17, 100, -22, 24, 112, -47, -108, 67, -41, -62, -7, 68, -14, 51, 50, 61, -15, 61, 112, 9, -64, -65, 59, -64, -27, -85, 90, 31, -58, -27, 36, -78, -43, 82, 42, 18, 58, -65, 107, 38, -83, -87, -84, 92, 95, 107, -50, -86, 113, 88, 103, -96, 85, 55, 92, 20, 48, 7, 0, 77, -120, -35, 28, -118, -52, -17, -46, 74, -52, -94, 17, 86, -81, -108, 32, -25, -77, -75, 101, -93, 48, 83, 15, -3, -120, -50, -116, -27, -16, -60, 4, -48, 100, -102, 78, 104, -108, 42, 62, 30, 109, -114, -95, 52, 2, 12, -109, -19, 52, -21, 110, 112, 105, -41, -3, -18, 44, -24, -68, -103, 19, -64, -77, 91, -32, -11, -99, -37, 98, 61, -49, -76, -16, 4, -108, -100, 56, -93, -8, -98, 96, -106, -1, -30, 18, 92, 81, 116, 90, 43, -59, -5, -76, -70, 14, 114, 92, 11, -79, -19, 56, -108, 69, -14, -96, 94, -94, -11, 50, -80, 6, 38, -28, 40, 63, -30, 103, 4, -10, 8, 112, 92, 15, -78, 90, -45, -55, 11, -24, 112, -43, -116, -80, 110, 96, 73, -16, 110, -102, 40, 14, -43, -88, 73, 24, -85, 14, 43, 8, 20, 21, 19, -96, -88, 90, 6, 117, -6, 83, 23, 25, 60, 86, 100, -114, -41, 97, 52, -57, -8, -97, -74, -53, 112, 88, -5, -113, 75, -38, -19, -53, 74, 81, 6, -60, 106, 16, -102, -59, 1, 115, -53, -39, 9, -24, 1, -7, 79, -108, -58, 23, -30, -18, -25, -10, 73, -88, 78, 4, -102, 19, 118, 47, -78, 30, 44, -106, 23, 18, -43, 62, -117, 111, 22, 91, -52, -1, -70, -79, 103, 33, -35, -50, 72, 14, -118, -97, -113, 113, -99, -114, -13, -106, -30, -72, -76, -97, -18, -6, 120, -109, -22, 13, 108, -52, 113, 96, -20, 20, -4, -1, 61, -40, 96, 21, 92, -73, -55, -38, -101, -18, -13, 28, 41, -8, -77, 82, -7, -33, 109, 27, -40, -6, -24, 24, 73, 9, -41, -56, -9, -20, 39, 24, 19, 32, -25, 30, -30, 52, 6, -102, 95, -36, 114, 17, -4, -86, -110, 72, 76, -44, -62, -5, 6, 45, 53, 97, -74, 112, -70, -5, -12, 25, 86, -26, 111, -45, 10, -100, 101, 96, -56, -76, -8, -94, 70, -112, -25, -93, -5, 49, -56, 27, 18, -15, -6, 1, 27, -53, -47, 110, -34, -17, 107, -100, -51, -10, 2, -16, 43, -63, 91, 94, 91, 27, 4, 0, -119, 7, -103, 10, 89, -91, -22, -52, -118, -109, 64, 120, -51, -21, -46, -84, -69, 46, -22, 114, 99, 48, 115, 7, -107, 85, 14, -46, 94, 29, -7, 85, 104, -69, -19, 90, 19, 48, 78, 53, -35, -32, 94, -72, 1, -10, 112, 115, -30, 15, 37, 32, 74, -17, 69, 73, 48, 9, 107, -31, -83, -120, 43, -65, -70, 35, 115, 41, -26, 119, 90, -107, 76, 120, 20, 65, -16, -46, 91, -3, 71, 1, -52, 114, 61, -48, -78, -106, 105, 9, -118, -67, -5, -6, -81, 80, -73, -66, 113, 104, -74, 2, -109, -98, -84, 95, 23, 11, -82, 66, 69, -91, 15, -97, -108, -116, 26, -11, -86, -94, -99, -3, 3, 86, 63, 80, 8, 38, 3, -77, 9, -34, -103, -10, 120, 30, -8, -45, 87, 112, -7, 35, 4, -1, -91, 5, 106, -29, 88, -67, -10, -48, 59, -81, -60, -100, 77, 90, -80, 81, -15, -80, -79, -47, -14, -22, -42, 49, -83, 93, 3, 35, 67, 7, -62, -15, 51, 115, 69, 89, 79, -64, 84, 69, 26, 40, -52, -35, -108, -29, -119, 80, 119, -21, 102, 19, -109, -84, -8, 28, -111, -40, 35, -78, -48, 114, 70, -9, 52, 93, -67, -42, -85, -68, -7, 118, -113, -45, -16, -17, 74, -47, 24, 59, 31, 64, -79, 91, 101, 77, 47, 30, 73, 62, -81, 118, -35, 30, 54, 1, 48, 22, 70, 92, -56, 84, 41, -53, -91, 58, 31, -73, -66, -94, 81, 64, 48, 57, -48, 65, -12, 68, 78, -83, -98, -9, 16, -14, -47, 93, 93, 51, 22, 104, 17, -119, 71, -1, -85, 106, -44, 79, 50, -68, -118, 40, -45, -28, -14, 57, 93, -57, -24, 25, 14, -24, 119, -63, -90, 8, -66, -62, -54, -92, -57, 54, 33, 17, 46, 105, -91, -67, -13, -40, 80, -110, -78, 115, 87, 57, 114, -24, -94, 33, 18, -64, -75, 89, -57, -103, -98, 18, 6, 28, 89, -30, 15, -73, -11, 13, -22, -118, -50, 70, -63, 66, -113, -112, -5, -5, -68, 37, 58, 110, 107, -25, 23, 55, -29, -30, 55, 74, -20, -58, -49, 87, 39, 2, 50, 99, 66, -95, -56, 66, 50, -115, 115, -2, -71, 84, -119, 71, -100, -75, 98, 115, -112, 12, 105, 62, 54, 42, 36, -25, -24, 92, 48, -49, 13, 49, 49, -48, -24, 22, -83, -5, 121, -56, 86, 1, -56, -12, 1, 16, 51, -16, 39, 52, -47, -112, -43, 91, 35, -64, 82, -12, -30, 79, 119, 7, 41, -84, 101, 90, 106, -81, 52, -9, 49, -101, -16, 25, -40, -24, 114, -78, 21, 63, -24, -47, 109, 117, 78, -31, 28, 18, 5, 78, 104, -36, 13, -102, -53, 53, -106, 60, -53, 102, 114, 94, -93, -76, -106, -113, 86, -88, 79, 56, -5, -48, 107, -49, 20, -104, -38, -8, -51, -29, -1, -88, -61, 90, -118, -92, 37, -96, -16, 105, -39, 98, 8, -48, -96, 27, -84, 84, -69, -115, 75, -95, 27, 79, 39, 90, 55, 104, -36, -68, -36, 91, -120, 43, -7, 95, 47, 64, -26, -55, 84, 108, -60, 59, -88, -112, -87, -17, -1, 33, 16, -30, -79, -13, 107, 82, 80, -20, 39, 117, -66, -80, -108, -51, -92, -83, 80, 76, -8, 72, 98, -24, 17, 7, 30, -27, -10, 19, -66, 89, -51, -37, 40, -85, 30, -36, 34, 92, 51, 24, 108, -54, -100, -19, -16, -5, -18, -19, 41, -88, 39, 66, -16, 69, -120, -93, -13, -68, 93, -64, -114, 116, -36, -88, 43, 49, 112, 62, 55, 104, 117, 6, 26, 18, 86, 106, -34, -76, -86, -91, -9, 41, -55, 41, -102, 42, -47, 68, 115, 33, -118, -55, -120, 2, -84, 109, -2, -27, -62, 15, -88, -79, 114, -71, 74, -41, 91, -29, 60, 92, 17, -93, -112, -76, -37, 27, 87, -76, 66, 49, 39, -76, -7, 60, 13, 85, 59, 25, -42, -25, 57, 109, 56, 103, -28, 104, -16, -91, -100, -102, -49, -80, -18, -16, 99, 92, 94, 62, -4, 3, 84, 120, 29, 114, -56, -104, -103, -81, -16, 83, -110, -21, 117, 101, 26, -31, 84, 108, 46, -14, 1, 73, 52, -82, 65, -99, -4, -91, 98, 101, 25, -9, 75, 64, -101, -75, -111, 66, -15, -65, -105, 108, 89, -12, 91, 68, 120, -60, 22, -13, -109, -37, -18, 3, -87, 37, -118, -1, -92, 117, -11, -74, -90, -64, -16, -52, -67, 103, 63, -37, -17, -53, -87, -90, 45, 79, 91, -56, 35, -21, 103, -5, -57, -3, -52, -21, -30, 45, 109, 19, 68, -40, 60, 37, 32, 34, 25, 118, 21, -98, 6, 112, -74, 44, -48, -119, -37, -107, -23, -52, 4, -26, -57, 27, -41, -28, -7, -27, -17, -42, -16, 90, 78, 108, 92, 70, 49, -58, 20, 24, -23, 63, -7, 52, 58, 30, 18, -64, 92, -13, -27, 56, -45, -3, -81, 98, 20, 23, -114, -67, -74, 66, 100, -101, 45, 60, -105, 63, -77, 117, -50, -60, -94, 48, -65, -74, -8, 39, -61, 32, -56, 28, -79, -62, -112, -24, -69, 2, 12, 54, 47, 84, -82, 26, -8, -107, 113, 114, 111, 61, 84, 110, -37, -14, -94, 73, 6, -117, -46, 13, 89, -78, -62, 91, 58, -27, -15, 90, -60, 34, -120, -82, 11, 88, -29, 48, -42, 94, -73, -67, 20, -119, 27, -27, -87, 64, 93, -114, -100, -84, -102, 76, -39, 120, -23, 46, 45, 51, -86, -37, -112, -21, 13, -59, -89, -34, 19, -114, 16, -93, -78, 74, 118, 113, 20, 55, -90, -34, 57, 113, 116, 112, -55, -68, -68, 49, -61, 40, 18, 23, 111, -98, 25, -29, -82, -48, -45, 105, 3, -70, 52, -100, -92, 19, -111, -75, 120, -29, 19, 83, -25, 94, -77, 103, 89, -105, 93, 115, -74, -99, -52, -44, -108, 105, -37, -50, 69, 103, 40, 19, 32, -54, -29, 17, -116, -42, -56, -8, 10, -14, -60, -73, -50, 81, 59, -28, -52, 55, -6, -17, 92, -21, 89, -59, 48, -25, 0, 24, -98, -28, 77, -41, -77, -11, 93, -3, -100, 37, -25, 63, -5, -66, 41, -42, -52, -12, -113, -68, -70, -92, -72, -66, 19, 6, 59, 36, -62, 31, 25, -120, 103, 49, 38, -11, -50, -15, -99, 63, -38, -88, -11, 22, 80, -61, 62, -20, -65, 4, 72, 73, -50, 44, -42, 11, -105, -39, -108, -97, 94, -75, 72, -113, -103, 0, 3, -20, -18, -38, 39, 51, -7, 51, -67, -114, -60, -101, 46, 57, 14, -44, -119, 91, -67, -45, 29, 107, 29, -31, -45, -53, -67, -72, -43, 66, -1, 40, -12, 93, -12, -5, -51, -68, 95, -62, 1, -104, 46, 105, 67, -26, -114, -18, -117, -76, -1, 109, 95, -82, 67, -95, 40, 99, -63, 116, -53, -116, 83, -120, 107, -105, -100, -59, 4, -95, 28, 89, -50, 25, -73, 64, -7, -31, 97, -105, 59, 33, -44, 97, 111, 17, 74, -48, -119, -57, 94, -118, -88, 112, -106, 98, -67, 25, -31, -104, -27, -6, -101, 115, 45, 30, -17, 38, 22, -24, 14, -59, 103, 119, 27, 72, -54, 113, 76, 61, 79, -99, -106, -112, 118, -10, -75, -38, 83, 64, -30, -111, 13, 36, 58, 51, 12, -8, 83, 16, -52, 120, -75, -62, -13, -59, -60, -16, 56, 41, -80, -95, 119, 73, 34, 16, 116, 14, 102, 104, -18, -29, -61, 68, -21, -90, -76, -21, -39, -17, 44, -36, -65, -79, -85, -108, -107, 100, 107, 3, -119, 36, -73, 99, -60, 8, -110, 46, 99, 107, 93, -116, -72, 53, 11, -18, 61, -43, -116, 101, -88, 120, -48, 69, -120, -106, -116, 53, -60, 114, -11, -75, 104, -83, -11, 2, 52, 13, 99, -110, -34, 108, -21, 10, 119, -45, 56, 37, -88, 22, 99, -105, 60, 102, 78, 95, 50, -106, -47, 79, 98, -54, -32, 22, 102, 28, -22, 113, 44, 96, -88, 50, -49, -118, -28, -78, -51, 78, -102, -8, -107, -109, -33, -89, 118, -25, 113, 75, 16, -104, 69, -38, 18, -104, 17, 17, 68, 89, -13, 3, -20, 45, -56, -29, 92, 94, -55, 112, -99, 18, 95, -6, -116, 9, -30, -27, -83, 65, 100, -20, 73, -37, 82, -11, 59, -34, -1, -88, -25, -62, 37, 61, -57, -90, -10, 98, 18, 87, -95, 33, 48, -39, -7, 108, 17, -65, -120, -61, -66, -6, -30, -24, -111, 118, -27, -11, 112, 27, 60, -60, 41, 120, 82, 25, 74, -118, -33, 60, 25, -57, -54, -10, -42, -9, 31, 80, 97, 11, 105, 108, 39, 88, -105, -77, 75, -74, 11, 15, -92, 6, -42, -40, 38, 51, -12, -55, -20, -47, 74, -10, -27, 60, -53, -115, -93, 7, 119, -14, 49, 112, -28, 66, 33, -24, -115, 55, 116, 47, -96, 14, 3, 43, -48, -6, 104, -98, -67, 2, 53, -29, -43, -112, 101, -24, 72, -21, -41, -39, 50, 22, -5, -70, -106, -110, 92, -84, 33, 120, -81, -84, -16, -24, 67, 27, 24, -68, 2, -2, -56, 89, 46, -31, -30, -86, -109, -109, 16, 96, 54, -89, -29, 3, -87, 63, 24, -38, 7, -12, 78, 90, 89, 46, -85, 108, -104, -16, 83, -112, -8, 33, -76, -52, 44, 83, -59, -111, 116, -57, 89, -99, -7, -38, 85, 30, -14, 67, 9, -2, -19, 78, 112, 90, 67, -3, 51, -59, -30, -7, 1, 46}

#define ADD_CONV2D_KERNEL_0_SHIFT (10)

#define ADD_CONV2D_BIAS_0 {11, -5, -9, 12, -34, -55, 18, -7, 69, 11, -75, 54, -71, 65, -72, -25, -37, -29, -65, 5, -7, -63, 11, 47, -39, 9, -6, -38, -35, 8, -11, -24}

#define ADD_CONV2D_BIAS_0_SHIFT (8)

#define BATCH_NORMALIZATION_KERNEL_0 {101, 101, 100, 101, 100, 101, 101, 100, 101, 101, 101, 101, 100, 100, 101, 101, 101, 100, 101, 101, 100, 101, 101, 101, 101, 101, 100, 101, 100, 101, 101, 101}

#define BATCH_NORMALIZATION_KERNEL_0_SHIFT (7)

#define BATCH_NORMALIZATION_BIAS_0 {83, 84, 83, 83, 83, 83, 83, 83, 83, 83, 83, 83, 84, 84, 83, 83, 83, 83, 84, 82, 83, 83, 82, 82, 83, 83, 83, 84, 84, 83, 83, 83}

#define BATCH_NORMALIZATION_BIAS_0_SHIFT (7)


/* output enconding for each layer */
#define INPUT_1_OUTPUT_SHIFT 7
#define ADD_CONV2D_OUTPUT_SHIFT 0
#define BATCH_NORMALIZATION_OUTPUT_SHIFT 0

/* bias shift and output shift for each layer */
#define ADD_CONV2D_INPUT_LSHIFT (ADD_CONV2D_KERNEL_0_SHIFT-INPUT_1_OUTPUT_SHIFT)
#if ADD_CONV2D_INPUT_LSHIFT > 0
#define ADD_CONV2D_MODE 1
#define ADD_CONV2D_INTER_SHIFT ADD_CONV2D_KERNEL_0_SHIFT
#define ADD_CONV2D_INTER_LSHIFT (ADD_CONV2D_KERNEL_0_SHIFT-INPUT_1_OUTPUT_SHIFT)
#elif ADD_CONV2D_INPUT_LSHIFT < 0
#define ADD_CONV2D_MODE 2
#define ADD_CONV2D_INTER_SHIFT INPUT_1_OUTPUT_SHIFT
#define ADD_CONV2D_INTER_LSHIFT (INPUT_1_OUTPUT_SHIFT-ADD_CONV2D_KERNEL_0_SHIFT)
#else
#define ADD_CONV2D_MODE 0
#define ADD_CONV2D_INTER_SHIFT ADD_CONV2D_KERNEL_0_SHIFT
#define ADD_CONV2D_INTER_LSHIFT 0
#endif
#define ADD_CONV2D_OUTPUT_RSHIFT   (ADD_CONV2D_INTER_SHIFT-ADD_CONV2D_OUTPUT_SHIFT)
#define ADD_CONV2D_BIAS_LSHIFT   (ADD_CONV2D_INTER_SHIFT-ADD_CONV2D_BIAS_0_SHIFT)
#if ADD_CONV2D_OUTPUT_RSHIFT < 0
#error ADD_CONV2D_OUTPUT_RSHIFT must be bigger than 0
#endif
#if ADD_CONV2D_BIAS_LSHIFT < 0
#error ADD_CONV2D_BIAS_LSHIFT must be bigger than 0
#endif
#define BATCH_NORMALIZATION_OUTPUT_RSHIFT (ADD_CONV2D_OUTPUT_SHIFT+BATCH_NORMALIZATION_KERNEL_0_SHIFT-BATCH_NORMALIZATION_OUTPUT_SHIFT)
#define BATCH_NORMALIZATION_BIAS_LSHIFT   (ADD_CONV2D_OUTPUT_SHIFT+BATCH_NORMALIZATION_KERNEL_0_SHIFT-BATCH_NORMALIZATION_BIAS_0_SHIFT)
#if BATCH_NORMALIZATION_OUTPUT_RSHIFT < 0
#error BATCH_NORMALIZATION_OUTPUT_RSHIFT must be bigger than 0
#endif
#if BATCH_NORMALIZATION_BIAS_LSHIFT < 0
#error BATCH_NORMALIZATION_BIAS_LSHIFT must be bigger than 0
#endif

/* weights for each layer */
static const int8_t add_conv2d_weights[] = ADD_CONV2D_KERNEL_0;
static const nnom_weight_t add_conv2d_w = { (const void*)add_conv2d_weights, ADD_CONV2D_OUTPUT_RSHIFT};
static const int8_t add_conv2d_bias[] = ADD_CONV2D_BIAS_0;
static const nnom_bias_t add_conv2d_b = { (const void*)add_conv2d_bias, ADD_CONV2D_BIAS_LSHIFT};
static const nnom_addconv_parameter_t add_conv2d_parameter = { (const void*)NULL, ADD_CONV2D_MODE, ADD_CONV2D_INTER_LSHIFT};
static const int8_t batch_normalization_weights[] = BATCH_NORMALIZATION_KERNEL_0;
static const nnom_weight_t batch_normalization_w = { (const void*)batch_normalization_weights, BATCH_NORMALIZATION_OUTPUT_RSHIFT};
static const int8_t batch_normalization_bias[] = BATCH_NORMALIZATION_BIAS_0;
static const nnom_bias_t batch_normalization_b = { (const void*)batch_normalization_bias, BATCH_NORMALIZATION_BIAS_LSHIFT};

/* nnom model */
static int8_t nnom_input_data[16384];
static int8_t nnom_output_data[32768];
static nnom_model_t* nnom_model_create(void)
{
	static nnom_model_t model;
	nnom_layer_t* layer[4];

	new_model(&model);

	layer[0] = Input(shape(32, 32, 16), nnom_input_data);
	layer[1] = model.hook(AddConv2D(32, kernel(3, 3), stride(1, 1), dilation(1, 1), PADDING_SAME, &add_conv2d_w, &add_conv2d_b, &add_conv2d_parameter), layer[0]);
	layer[2] = model.hook(BatchNormalization(32, &batch_normalization_w, &batch_normalization_b), layer[1]);
	layer[3] = model.hook(Output(shape(32, 32, 32), nnom_output_data), layer[2]);
	model_compile(&model, layer[0], layer[3]);
	return &model;
}
