#include "nnom.h"

#define GROUP_CONV2D_KERNEL_0 {-7, 68, 73, -91, -33, 40, -114, 71, -40, -91, -53, 24, 25, 115, 33, -100, -75, -112, -9, -31, 59, -10, -97, -7, 108, 98, 41, 76, 56, -32, -35, 50, -45, -79, -114, -118, -10, -58, 53, 91, 99, 16, 84, 62, 34, 112, -61, -35, -44, 81, -97, -40, -24, 27, 30, -113, -41, 10, -101, 82, -81, 69, 45, -95, 44, -104, -26, -78, -11, 63, -31, -65, -70, 34, 46, -67, 100, 98, -14, -70, -111, -40, -110, -61, -77, -92, -68, -62, 107, -36, -89, 49, 30, 61, -65, 66, 50, -91, -49, -69, -13, 59, 55, 49, -85, -99, 47, 18, -26, -60, -100, -26, -15, 21, -109, 22, 2, 44, 84, 35, -67, 14, 1, 7, -11, -59, 73, 70, -41, 8, -104, 28, 65, 113, -62, 71, 44, 30, 76, -3, -49, -61, -98, 75, -92, 9, 63, 88, 113, 89, -103, 28, 90, -14, -67, 83, 71, 43, -66, 100, -46, -32, -69, -81, -109, 4, -84, 104, 36, 33, 120, 29, -26, 38, -100, -13, 78, -110, -61, -68, -95, 62, -93, 32, -85, -6, 39, 4, -94, -47, -3, -15, -102, 57, 105, -67, -26, 78, -85, -93, 114, -84, -37, 41, 98, 99, -73, 10, 101, 107, 98, -40, 99, 83, 21, -37, 88, 93, -33, 22, 112, 25, 110, 108, -47, 49, -70, 38, 96, 110, -78, 94, -54, -31, 58, 3, 57, 118, -99, 42, -112, 14, 102, 118, 76, -82, 69, -10, -57, 99, -25, -16, -83, 30, -94, 78, -1, 50, -28, -27, 106, -84, 81, -117, -83, -42, 48, 28, -98, -118, 88, 120, -44, -54, -31, 90, 48, -86, -97, 111, -111, 30, 80, -104, -110, -98, -111, 39, -86, 67, 71, -43, 35, -113, -96, 1, -84, 15, -120, 81, 108, 24, 25, 27, -52, 117, 100, 61, -77, 13, 88, -52, -29, -2, -34, 87, -13, 71, 99, 16, 28, -58, 68, -96, -63, 17, 95, -20, -118, 3, -89, 105, -8, 51, -41, 2, -112, 79, -12, -24, 71, 24, -33, 49, 17, -3, -33, 67, 35, 54, -87, -95, 39, 76, -82, 19, 50, -83, -72, 62, 11, 48, 52, 79, 102, 118, -87, -11, 26, -116, -75, 120, 49, -18, 79, -30, 37, -3, -38, -109, 14, -2, -75, -82, -70, -96, 53, -52, 10, -46, 42, 102, 68, -54, -116, -81, -52, -95, -11, -87, 14, -20, 12, -66, -50, -118, -33, -18, -29, 47, 20, 3, 114, 31, -50, -65, 82, 54, -100, 66, -97, -101, -81, 19, 103, 75, 9, 102, 42, 58, 63, -55, -103, 114, 92, -32, 64, -43, 30, 119, -29, -79, 71, 6, 65, 18, 82, 45, 29, -63, 68, -106, 95, -94, -69, -64, -101, -114, -10, -104, -91, 4, 55, 31, -25, -30, 116, 38, -80, 75, 47, -59, 95, -26, 102, -88, -22, 96, 113, -35, 21, 103, -21, -48, 61, -96, 12, -56, 118, -116, 38, -22, 9, 44, -98, -82, 94, -43, -55, 60, 89, -49, -47, 30, -37, -114, -21, 3, 86, 78, -15, -70, -25, -14, 117, 75, -36, 49, -27, -103, 33, -112, 62, 81, 51, -83, -11, -97, -25, -100, -14, -90, -110, -91, 63, 41, -80, -69, 18, 5, -62, 57, 88, -116, -8, 51, 110, -35, -26, -5, 63, -56, 96, 20, -92, 114, 31, 98, 35, -68, 55, 24, 17, -60, -65, -61, 71, -95, -64, -34, -81, -92, 32, -59, -33, -31, -118, 54, -20, 95, 2, 27, -66, -11, -27, 50, 63, 102, -117, 8, -102, 111, -73, -19, -75, 25, -47, -81, 27, -35, 15, 27, 73, 5, -60, 31, 10, 117, 81, -117, -82, 64, 82, -110, 3, 89, 42, -14, 50, 91, -51, -28, -29, -111, -74, 33, -10, -24, 60, 81, 19, -58, 18, -13, -80, -66, -12, -110, 86, -110, 68, -33, 89, 55, 82, 26, -8, 6, -90, 79, 6, -26, 71, -16, 3, 6, 64, -90, -10, 117, -104, -120, -113, 6, -87, -89, 8, 46, -9, 52, 27, -40, -67, -54, 97, 35, -68, -109, 95, 28, 30, 83, -91, -30, 53, -26, 34, 66, -47, -65, -110, -118, -104, -63, 47, 8, -103, 21, 55, -104, 0, 119, -42, -64, 10, 42, 30, 3, -112, 48, 16, -27, 108, -1, 65, -102, -70, -1, 108, 79, -77, 116, 100, -78, 29, -38, -15, -20, 13, 31, -1, 93, -3, 98, 119, -115, 22, 46, -8, 0, -110, -111, -90, 88, 95, -24, -111, -11, 35, 3, -20, -46, 6, -31, -10, -120, -58, 22, -103, 99, -94, 108, 54, -5, -119, 18, -67, -18, 76, 63, 48, -89, -94, -67, 78, -38, -73, -12, -6, 65, -111, -44, 109, 86, -103, 69, -9, -52, 75, -5, -30, 7, 73, -116, -31, 10, 34, -94, -87, 115, 109, 13, 97, 64, -111, 48, 97, 7, 47, -88, 49, 48, -81, 120, 91, -102, 96, 111, -101, 24, 56, 31, -10, 71, 62, -27, 3, 23, 71, -58, -41, -78, -115, 5, 97, 68, -2, 23, -93, -76, -10, -45, 80, 8, -118, -16, -29, 33, 96, 50, 83, 60, -93, 114, 34, 121, -117, 60, 34, -17, 116, 99, -20, 10, -80, 47, 104, -34, -98, -24, -119, -85, -2, 92, 10, 19, 21, 16, -109, 102, 10, 106, 65, 47, 22, 31, -8, 20, -98, 43, -81, -39, 23, -111, -62, -31, -80, 26, 77, -82, 77, 1, 46, 60, -10, -105, 87, 71, -52, -67, -70, -29, -89, -116, -73, -111, 111, 90, 2, 82, 93, -32, -79, -18, 14, 105, 119, 0, 25, -90, 67, -121, 38, 36, 119, 23, -59, -98, 88, -109, -23, 51, 113, 76, -5, -53, -9, 7, 59, -41, -104, 107, 58, 22, 42, -103, 85, 5, -68, -30, -15, 30, -11, -30, 34, -80, 20, -53, -115, -59, -107, -16, 14, 103, 30, -94, -30, -6, 65, -68, 59, 40, -83, -46, 119, -11, -92, 1, -93, -78, -49, -80, 1, -91, -25, -77, 1, 84, -89, -117, 80, 30, 36, 72, 77, 10, -92, -67, 40, 14, 96, -4, 55, 44, -56, -58, 94, -16, -44, -78, 67, 32, -37, -110, -105, -25, 18, 61, 14, 27, -55, 103, -7, 43, 95, -109, -18, -16, -84, -97, -112, 104, 64, -28, -42, -59, 75, -17, 32, 96, 9, 33, -21, -39, 93, 89, 80, -34, 9, 59, 114, 119, -103, 72, 116, -118, -49, 106, -114, 21, -16, -108, -2, 38, -48, -51, 31, 108, 9, -35, 44, -69, 90, 77, -67, 27, -84, -17, 109, -61, -27, 43, 28, -26, 28, 86, -112, 49, -54, 45, 96, -13, -26, -14, 98, -116, 24, 11, 9, -41, -101, 37, 108, 55, 97, 30, -116, -46, 101, 45, -29, 67, -20, 80, 100, 40, -84, -118, 47, -34, -70, -8, 67, -70, -48, -34, -97, -47, 44, -50, 77, 57, -4, -97, 119, 40, 120, 75, 95, -39, 67, 64, 47, 30, 111, 94, 77, -98, -11, 42, 31, 12, 101, 0, -53, 1, 104, 56, 60, -97, -121, -48, 117, 43, -26, 98, 41, -81, 119, -67, 120, -44, 64, -113, 5, -12, -13, -107, -44, -106, -42, 120, 100, 88, 85, 5, 81, 107, -55, 20, -86, -105, -23, -66, -54, 9, -63, -13, -71, -41, 84, -76, -33, -85, -86, 67, -2, 97, 25, 26, -33, 81, -88, 2, -12, 34, -99, 1, -40, 85, 12, 73, 95, 79, 11, -120, -97, -36, -116, -42, 29, -49, -28, -25, -33, 56, 82, 52, -23, 120, 32, 116, 120, -49, 55, -71, 83, -67, 29, -70, 13, -11, 70, 18, 112, 80, -113, 76, -64, 26, 96, -42, 88, -33, 1, 111, 71, -89, 98, 64, -88, -113, 24, -72, 41, 7, 73, -29, -66, -79, 39, -6, 71, -118, -75, -57, -45, 40, -64, 99, 11, 86, 65, 34, 2, 64, -103, 20, -57, -87, 23, 92, -100, -114, -16, 21, 88, -96, 107, -7, 84, -119, 45, 85, 35, -79, 116, -62, -15, 74, 25, 71, 120, -1, 29, 58, -4, 117, 87, -60, -26, -38, -92, -64, 53, 35, -5, 54, 96, 41, 66, -65, -11, 92, 14, 42, 39, -43, 4, -37, -93, 3, -59, -99, -7, -36, -18, 76, 66, -14, 42, 59, -120, -45, -100, -19, -62, 22, 52, 17, 106, 31, -101, -33, -89, -36, 38, 112, 55, -106, -84, 50, 76, -107, -81, 2, -59, 88, 81, 11, 29, -18, -83, -120, 69, 80, 66, -76, -13, -11, 12, 42, 17, 60, -51, -6, -115, -66, -100, -117, -55, -4, 15, 4, 104, 118, -39, -47, 10, -102, -115, -40, 75, -27, -2, 63, -117, 1, 38, -78, 9, -11, -50, 2, 80, 101, 98, 49, -81, 120, 14, -114, -90, 100, 55, 84, -18, 86, -15, 8, 106, -87, -51, -45, -3, 84, 37, -88, 25, -9, 34, -111, 15, 9, -49, -25, -108, -83, -105, 119, -113, 22, -35, -17, 31, -114, -98, 66, 20, 21, -54, -18, -105, 7, 36, 116, -94, -65, -70, 85, -33, -83, 52, 57, -120, 65, -30, 97, 15, -64, -7, -19, 77, 34, -32, 73, -11, 47, -46, 70, 86, -109, 59, 35, -78, 84, -70, 93, -72, 41, 28, 113, 106, -78, -80, -94, 51, -115, -100, 19, 27, 31, -48, -112, 28, -47, -7, -17, -79, 6, 41, 89, -61, 115, -86, -30, -90, 76, 101, -87, -9, -119, 82, 29, -71, -108, 90, 83, -12, 82, 14, 93, -91, 70, 80, 50, -44, 32, -45, 114, -21, -92, -82, 36, 6, 47, 57, 31, -72, -101, 37, 29, 104, 62, -87, -34, 79, 40, 31, -21, 86, 84, -30, 29, -41, 72, -21, 80, -50, -88, 58, 61, -67, -99, -68, 55, -98, -37, 47, -118, 39, -110, 28, 66, 49, 57, -116, 112, -51, 75, -63, -71, -107, -107, 90, 91, -4, -21, -63, -26, -4, 44, 4, 53, -9, 16, -35, 2, -83, -4, 63, -15, -117, -13, -96, -42, -41, -47, -22, 92, 109, 46, -67, 43, -14, -84, 43, -107, -46, 11, -104, 50, -32, 48, 33, 1, 47, -119, -93, 94, -3, 18, 14, 6, 73, -99, -5, 102, -121, 64, 81, 41, 52, 119, -19, -108, -114, -110, -12, 24, 88, 39, 10, -49, 77, 33, -51, 4, -47, -84, -80, 120, -44, -71, -30, 86, -112, -1, -26, -116, -10, 50, 119, 106, 80, 40, -28, 11, -102, -23, 82, 27, 12, -8, 77, -45, -24, 95, -114, 5, 77, -1, 89, 95, -117, 14, 20, 23, -35, 33, 31, -68, -11, 41, 35, -115, -17, 97, -15, 38, -18, 107, 110, -107, -64, 7, 105, -40, 64, -42, -5, -118, 2, -30, -65, 63, 31, 42, -76, 67, -22, 102, -14, 12, 102, -108, 11, 2, -88, 54, -21, -98, 50, -59, 66, 50, 6, 108, 90, -72, -88, -8, 29, -21, 75, -59, -20, -72, 24, 50, -42, -22, -76, 42, 116, -10, -109, -98, 18, 90, -38, 61, -41, -119, 28, -113, -50, -6, -87, -19, -4, 26, -45, 52, 49, 104, 57, -66, -93, -44, -2, 15, -24, 56, 110, -109, -100, 29, -110, 74, -13, -11, 86, -78, -73, 45, -107, -20, -109, 61, 70, -20, 74, 97, -79, 69, 60, 93, 97, 26, 77, -28, 18, -64, 17, 24, 73, -73, 32, 32, 65, -45, -22, -62, -26, 52, -36, 60, 53, 97, -15, -76, -39, 106, -103, 26, -115, -36, -63, -58, -22, -40, -28, -100, -110, -83, -49, -118, 115, 97, 108, -2, -41, 89, -50, -108, -50, -80, -120, 20, -100, 67, 113, 81, -119, -20, -83, 16, -64, -97, -83, 118, 4, 20, -86, 32, -8, 111, -118, -88, -34, 79, 107, 1, -99, 35, 82, 62, 1, -108, -20, -93, 34, -58, -114, 77, 3, -19, 28, 72, 93, 56, -67, 45, 62, -84, -114, -32, -70, 111, 105, 75, 117, 117, -52, -22, -38, -52, -36, 84, 98, 97, -45, -35, 86, -41, 91, -30, -63, 32, -77, 87, 41, -101, 93, -76, -83, -22, -39, 61, -109, 11, 99, -44, 15, 47, 84, 28, -88, 81, 35, -84, -72, 61, 60, 95, 105, -55, -114, 57, -22, -19, 80, 60, -116, 93, -5, -6, -38, 53, -3, -44, -36, -29, -70, 121, 12, -100, -89, 53, -90, 86, -20, 13, 47, 59, 86, 115, 118, 57, 111, -94, -102, -91, 46, 11, 87, -45, 95, 82, -82, 97, -80, 95, 119, -33, 47, -9, -57, -43, -40, 102, -52, -117, 104, -117, -118, -21, 43, -55, 24, -72, 32, 5, -40, -37, -97, -38, -45, -47, -66, 54, -57, 54, -71, 13, 47, 15, -35, 9, -45, 50, 107, 111, -86, 109, 61, 32, -43, -108, 81, -12, -32, 99, 18, 54, 6, 68, 82, 91, -104, -18, -111, -2, -13, -15, -59, -52, -117, -92, 78, 114, 54, -37, -85, 17, 25, -105, 40, 115, 7, 112, -85, 115, 23, -23, -83, -107, 64, -105, 87, 43, 13, 84, 27, 28, 1, -1, 81, 80, -88, 117, 96, 63, 109, -6, 50, -6, 29, 77, -102, -44, 55, 62, 100, 53, 3, -28, -4, -67, -74, 22, -48, -105, 99, -63, 87, -119, -107, 119, -21, 19, -103, -76, 83, -78, 67, -85, 46, 28, -45, -30, 56, -97, 40, -113, 23, -98, -89, 94, -68, -71, -64, -75, -36, 97, 74, -76, -8, 47, -83, 75, 101, -45, 57, -27, -72, -81, 119, -13, 23, -39, -85, 113, -82, 19, 10, -80, -100, -43, -100, 105, -7, -105, -58, -47, -121, -101, -26, -75, 73, 77, -113, -99, 86, 118, -81, 13, 43, 4, 53, -8, 8, -66, -53, 99, 13, -65, -105, -29, -6, -103, -8, -110, 22, -93, 50, -34, -75, 30, 57, -64, -76, -21, 65, 52, 11, -29, -45, -2, -29, 34, -44, -33, 107, -98, 32, 24, -79, 17, -60, -95, 72, -50, -107, -118, -58, 62, 117, 62, -30, 101, 116, -71, -44, -93, -58, 65, 109, 1, -77, -8, 1, 76, 9, 75, 21, -116, 13, 89, -65, 62, -108, -69, 54, -114, 112, 94, 33, 47, 48, -17, -115, 56, 85, 102, -44, -114, 42, 103, 54, 72, 13, -4, -85, 17, 68, 109, 68, 66, -48, 68, -36, 70, 55, -42, -36, 102, 43, 36, 83, 42, -108, 35, 52, -86, -80, -27, 111, -110, 8, 40, -45, 4, -115, -102, 41, 65, -100, 107, 70, 113, -14, 27, -67, -82, 94, -70, 84, -84, -115, 18, -17, 87, 95, 17, -96, -1, -102, 92, -105, 38, 102, 96, -88, 20, -88, -1, 38, 48, 74, 98, -94, -77, -46, 24, 81, 81, -69, 26, 13, 96, 10, 91, -12, 105, -34, 111, -52, 84, -86, 116, 11, 25, -37, -94, -1, 85, -13, 37, 17, -70, -51, -53, -96, -114, -102, 56, 94, -93, -71, 53, 57, -79, 49, 102, 18, -18, -24, 36, 9, -100, 56, 113, 39, 117, -35, 120, -106, 79, -105, 22, 61, -8, 66, 73, -89, 62, 79, -81, 34, -7, -86, 85, 31, 8, -29, -103, -1, 21, 63, 118, -11, -1, 80, -54, -21, -57, -67, 111, 42, -94, -92, -49, -68, 33, -50, -37, 77, -7, 108, 27, 64, 12, -12, -57, 4, -80, -31, -119, -17, -114, -9, 53, 104, -118, -9, -112, 1, 29, -92, 117, -22, -94, 11, -96, -28, 23, 37, -120, -16, -43, 60, -75, 71, -76, -9, -67, -9, -48, 67, -112, -35, 92, 110, -68, 82, -117, -12, -31, -42, 105, 10, 41, 69, -23, -92, 87, 2, -22, -61, 58, 109, -43, 39, -58, -106, 43, -23, 57, -54, 105, -109, 107, -4, 93, -24, 113, 49, -112, 51, -13, 61, 12, -62, -40, 59, -81, -113, -28, 90, -70, -104, 11, 23, -43, 41, 17, 85, -43, -62, 66, 38, -38, -42, -22, 108, 91, -76, 58, -24, 70, -59, 105, -107, 60, 35, -46, -76, 50, -43, 71, -74, -38, -59, 58, -12, -7, -29, 55, -29, 119, -43, 100, 98, 29, 70, -121, 53, 92, -39, 23, 45, -120, 11, -56, -76, -41, 61, -33, 38, -88, 64, -17, 38, -113, 64, -103, -15, 51, -113, 35, 30, -26, 46, -8, -85, 12, 21, 96, 9, 63, 57, -79, -87, 85, -23, 88, -29, -21, 70, 118, 109, 79, -91, 120, -74, 66, -58, 45, -79, 86, -38, 15, -80, -113, 74, 35, -110, 31, 65, 28, 87, 74, 101, -3, -23, -12, 99, 11, 113, -31, 15, 63, 22, 28, -4, -41, 87, 35, -55, 110, 88, 48, 6, 37, -15, -94, 31, 73, -81, -12, -99, -49, -111, 20, 19, 66, -118, 116, 103, 62, 97, 17, -8, -80, -11, 2, -24, -7, 15, 57, 101, -113, 106, 104, 111, -52, -23, -71, 108, 43, -87, -57, -27, 39, 101, -89, -121, 89, -47, -68, -53, 60, 37, -113, -104, -13, -63, -57, -44, -85, -118, -4, -103, 94, -57, -117, 11, 30, -91, 90, 43, -58, 0, -92, -29, 55, -5, 10, 67, -10, -113, 37, 79, 33, -50, 45, 64, 30, -110, 61, -40, -49, 70, 13, -29, 55, -68, 108, 115, -49, 51, -58, -46, 31, 6, -107, 113, -43, 5, -34, -46, -63, -115, 82, -51, -71, 47, 32, 68, -121, 60, 20, -12, -115, 100, 74, 89, -95, 39, -78, 26, -32, -120, -23, -62, 65, -116, 107, -104, 18, -47, -112, -16, -1, -71, -64, 91, -119, -14, -1, -91, -31, -20, 17, 23, -44, 24, -47, 97, -31, 82, 57, 48, 114, 31, 67, -35, 73, -61, -20, 54, 64, -8, 30, 29, -28, -42, 109, -17, 12, 104, 114, -69, -10, 74, -111, -103, -5, -91, -74, -101, 51, 27, 117, 26, -47, -103, -61, 89, -74, -42, -26, -105, -83, 76, -36, 87, 39, -44, 95, 110, 74, 35, -6, -30, -75, 25, 54, 107, -57, 0, 43, 68, -52, 98, 51, -72, 72, 78, 72, -103, 82, -2, 22, -76, -120, -25, -63, -13, -32, 78, 95, -13, -94, -7, 2, -12, 83, -11, 58, -117, 3, 68, 113, -16, -44, 110, -96, -46, 12, -64, -3, -77, 26, 95, -51, 34, 104, -40, -110, -95, 39, -46, -49, 31, -41, -54, 98, -58, -11, 96, 28, -100, -94, -39, 28, 114, -60, -46, 51, 40, -13, 82, -26, 93, 44, 93, -27, -39, 71, -52, 19, 7, -31, -60, -22, -44, 39, 79, 32, -61, 65, -110, 69, -24, -51, 36, -8, 64, -84, -97, 104, 54, 22, -13, 7, -73, -102, 37, -18, -98, -60, 97, -57, 54, -34, 19, -69, -24, -111, -41, -13, -53, -120, 74, 14, 92, 99, 116, 29, 75, -58, -106, -60, -98, 65, 60, 68, 112, -22, 9, 64, 96, 84, -44, 114, -34, 100, 91, -32, -102, 48, 83, -59, 78, 56, 5, 61, 115, 61, -65, 10, -28, -92, -112, -44, -86, 40, -116, 110, 80, 103, 120, -55, 43, 81, -69, -24, 87, -45, 38, -90, 23, 77, 51, -118, -108, 22, -86, -83, -25, 50, 26, -16, 45, 93, 46, -96, 85, 53, -39, 94, -57, -33, 35, -61, 25, -11, -31, 66, 83, 94, -40, 42, -102, -99, 33, -63, -107, -53, -16, -88, -118, -52, 52, 0, -81, -81, 55, 39, -75, -48, 65, 105, -52, -57, -26, -22, 23, 11, -101, 14, 42, 28, 27, -108, 59, 89, 84, -97, -46, -5, -6, 0, -25, 119, -84, 79, -106, 85, -37, 84, -18, -86, -42, 1, 74, -86, 25, -54, 12, -39, -1, -10, -63, -10, 2, -94, -75, -38, 55, 46, -88, -85, 18, 48, 52, -25, 57, 73, 44, -90, -80, 88, 72, 21, 118, -41, 52, 74, 105, 31, 30, 30, -3, 100, -105, -38, -102, 86, -73, -106, -91, 62, 94, -51, 75, 52, -101, -117, 60, -93, -117, 55, -5, 114, 25, 82, -24, 65, 28, 32, -38, 91, 64, 15, -61, 29, 21, -91, 71, 112, 42, -94, 26, -90, 115, 36, 38, -47, 54, 112, 19, -71, -49, -39, 11, 120, -18, -31, 30, -25, -49, -74, -9, -45, 76, -9, 3, 65, -40, -56, -25, -111, -70, -45, -17, 29, 77, 98, -42, 69, 95, -26, 42, 51, 47, -57, 31, 78, -104, 46, 93, 119, 113, 56, -43, 71, 36, 60, -99, -85, -29, 51, 118, -11, -12, -14, 34, 23, -58, 6, -9, -38, 6, 113, -61, -51, 32, 15, 109, 119, -87, 46, -24, -92, 72, 52, -34, -94, 74, -1, -99, 96, -52, 61, -89, -38, -101, 95, -86, 9, -21, 22, 24, -39, -13, -21, -95, -98, -89, -115, -83, 41, 109, 99, 45, -62, -60, 64, -96, 61, -70, -10, -93, -120, -39, -69, -76, -83, -44, 38, 71, -119, -35, 57, 72, -55, 89, 65, 101, -72, -69, -7, 86, -56, -48, -80, 0, 110, -54, -1, 31, 96, -80, -11, -74, 26, 92, -65, -36, 68, 108, -64, 79, 4, -54, 118, 71, -68, -113, 119, -104, -42, 66, -110, -112, 23, 27, -117, 113, 35, -73, 112, 15, 41, 20, 61, 112, 16, -65, 114, -83, 89, -54, -27, -11, -2, -8, 119, 39, 63, -118, -1, 112, -70, -76, 114, 54, -27, 3, -16, -44, 119, -9, 70, 23, 56, -89, 61, -1, -44, 58, 37, 65, 63, 33, 99, 114, 90, 46, -109, -4, 90, 7, -8, 108, 60, -108, -49, -42, 46, 2, 87, -68, 106, -46, 6, 54, -9, 22, 30, -106, -46, -85, -4, 73, 59, -6, 53, -105, -39, 89, -27, 22, 58, -106, -46, 75, -84, -82, -110, 89, 13, 29, 84, 73, 109, -24, 53, -102, 14, -25, -72, 39, 114, -114, -74, -44, 61, -28, 119, -47, -89, -70, 38, -93, -22, -42, -50, -12, 91, -59, 66, 38, 14, -118, -60, 116, 109, 38, 0, 77, 114, -86, -103, 97, 62, 28, -21, 86, 33, 13, 90, 14, -34, 8, -117, -68, -43, -103, 33, -110, 94, 46, 59, -5, -81, -63, -18, -84, -25, -81, 12, -26, 73, -37, 42, 9, 97, 91, -15, 76, 62, -33, 73, -66, 36, -73, -2, 18, 43, -103, 9, -26, 70, -109, 2, 23, 43, -99, 120, 108, 120, 27, 83, -33, 46, 79, 62, 34, -63, -80, -111, -73, -18, 6, -1, -13, 20, 1, 16, -109, 21, -96, 79, -74, -116, 73, 83, 24, -68, -14, -16, -117, -72, -48, 85, -86, 7, 38, -32, -4, -3, -99, -107, 36, -12, 52, 4, 114, 93, 51, -115, -71, -111, 60, -72, 113, 92, 73, -93, -76, 19, -29, 34, 50, 73, -36, -29, -90, -62, -65, -57, 56, 3, 42, 96, 41, 62, 8, 74, 104, 98, 23, -41, 31, -74, 35, -2, 62, 71, 47, -84, -88, -88, 109, -111, 22, 28, 34, -74, 114, 20, -89, 74, -91, 23, -49, 25, 53, 50, 32, -75, -91, 68, 102, -65, 103, -36, 57, -58, 46, 115, -58, -76, -59, -12, -63, -27, -9, -96, -40, -32, 83, 54, -1, -40, -28, -62, -86, 52, 18, -24, 31, -64, 37, 52, -92, -76, 70, -9, -47, -74, 102, 5, -98, 62, -31, 19, -26, -77, 110, -4, 71, -32, 60, -78, 51, 109, -110, -48, 106, -72, 80, 31, -43, 14, 42, -41, 3, -116, -46, -87, 4, -98, -111, -26, 103, -93, 51, -3, 80, 116, 22, 4, -115, 111, -116, 71, -20, -120, 81, -34, 98, -21, -76, -29, 11, 106, -34, 27, -101, 112, 35, -37, 13, -43, -45, 29, 40, 10, -116, -36, -26, -11, 31, -45, -104, 19, 35, -25, 22, 96, -79, -45, 75, -60, -31, -116, -102, -16, 76, -22, -39, 116, 47, 72, -99, -55, -4, -13, 116, -22, 68, 92, -80, 102, 69, -39, 88, -72, 100, 77, 97, -84, 89, 21, -85, -79, 75, -100, -62, 28, -69, 84, 86, 120, 49, 116, -62, 107, 33, 109, 113, 67, 34, 100, 50, -51, 69, 97, -4, -29, -23, -117, -98, -4, -90, -82, 110, 48, -31, 110, -106, -13, -64, -54, -98, 111, 75, 90, -14, 118, 64, 22, 3, -43, 118, -24, -28, -49, -49, 34, 92, -117, -56, -21, -19, 114, 120, 112, 8, 57, -1, -97, 118, 101, 28, 28, 116, -19, -21, 39, -17, 75, -45, 15, 99, 24, -19, -55, -74, 42, -21, 119, 27, -93, 76, -68, -103, -39, -77, 28, -14, 74, -63, 38, -4, 97, 17, 70, -101, -98, 36, -103, -69, -59, 82, -84, 29, -62, 80, -58, -114, -8, 97, -57, -33, 67, -108, -58, -117, 31, -103, 44, 68, -76, 32, 26, 61, 107, -25, 33, 27, 111, 20, 3, -83, 105, 49, 120, 106, -86, 11, -113, -83, -6, -41, -62, 96, -9, -105, 74, 63, 109, 97, -116, 18, -11, 97, -63, 111, -89, 22, -57, -118, 24, -97, 54, 37, -46, 120, 38, -19, 8, -94, 21, 62, -37, -35, -43, -53, 57, 12, 61, 75, -14, -20, 33, 106, 120, 7, -97, 42, -9, -50, 87, 83, 67, 30, 113, -66, -24, -56, -7, 73, -104, 61, -43, 106, 0, 96, -108, 40, -37, 0, -32, 88, 34, -37, 59, 100, 83, 74, 79, -82, 88, 29, -17, -74, -59, -7, 55, 67, -26, 60, -95, -76, 95, 85, -47, -50, 36, -12, 68, 21, 111, -81, -79, 55, -45, 72, 70, -14, 64, -12, 96, 55, 74, -36, -77, -88, -37, -120, 63, 26, 112, 38, -69, -57, -82, -69, -21, 40, 5, -62, 113, 4, -87, 22, 117, -56, -17, -28, 107, -15, -72, 74, -40, -99, -58, -9, -4, 63, 3, -83, -2, 84, -81, 96, -18, -111, 108, -92, -6, 73, -6, -90, -35, 15, 31, 0, 20, -30, -118, -120, -65, 83, 110, -112, -81, 15, -74, -118, 89, 106, 91, 9, 43, 42, 76, -76, 0, -3, -30, -55, -43, -56, -78, -113, 37, -35, -64, -65, 92, -60, -98, -95, -106, 53, -48, 19, -83, 83, -21, -111, 71, -77, -96, -21, -76, 77, 87, 8, -93, 5, -9, -9, -78, 13, -79, 67, -47, 53, 20, 61, 27, 36, 22, 18, -7, 33, -23, 2, -90, 31, -36, -23, -22, 44, -69, 29, -80, 104, -69, 116, 112, -119, -120, 78, -91, 111, 83, -12, 30, -69, -22, 107, -52, 91, -62, -14, 53, 83, 25, 42, 53, -28, -63, 111, 28, 117, -45, -54, 8, 35, 80, 27, -95, -104, 57, -68, -16, -67, -63, -10, -71, 84, 63, -106, 29, 58, 20, 117, -29, -108, 52, -57, -72, -23, -52, -17, -58, -21, 25, 45, 4, 11, -27, 72, -42, -73, 59, 101, 26, 36, -42, -65, -87, 47, 10, 116, -1, -12, -11, -33, 36, 32, -44, -67, -115, -19, 83, -9, -62, -10, 21, 40, 0, 57, -106, -98, 12, -23, -34, 18, -11, 13, -112, -88, -114, 62, -93, -15, -95, -36, 47, 22, -86, -116, 3, 7, -10, -4, -96, 107, 14, 78, 17, 101, -109, 119, 92, -44, 10, 115, 119, -50, -5, -38, 87, 87, 32, -40, -65, 11, 39, 119, -50, -76, -28, 115, 85, 99, -7, 0, -56, 25, -20, -73, -39, 9, -114, 32, 10, -60, -54, 0, 117, 49, 35, -67, -48, -66, -107, -78, 120, 91, -61, 34, -109, -50, 41, -76, 40, 14, 46, 60, -112, 47, -99, -81, 94, 65, 63, -16, -53, -118, 28, -27, 116, 87, 86, -27, 6, 41, 65, -1, 114, -73, -9, 56, 67, -34, 81, -41, 74, 112, -115, -96, 50, 101, 17, 74, 110, 108, 108, 93, 64, -78, 113, 76, 2, 42, -74, -78, 97, -10, 67, -22, 114, -17, -118, -84, 39, -103, 9, -95, -37, 85, 53, -86, 22, -120, -77, -118, 72, 47, 50, 101, -110, -84, 73, -71, 49, -93, -62, -41, 107, -100, -78, -96, 13, -89, -89, 91, 94, -76, -104, -21, -76, 44, 119, -63, 108, 50, -48, 98, 114, -119, -4, 87, -100, -89, -7, -61, -110, 107, -64, 19, 22, -101, 10, -35, -16, -23, 106, 115, -10, -43, 93, 54, 111, -62, -36, 98, -79, 29, -20, 52, 68, 114, 44, -95, -58, 102, 90, -109, 19, -33, 55, 54, -76, 105, -99, 108, -95, -49, 21, 56, 116, -2, -53, 109, 96, 26, -62, 25, 46, -76, 85, -33, -20, -38, 98, 9, -6, -62, 83, 60, -70, -37, 24, 6, 105, 28, -51, 18, -78, -117, 7, 87, 35, 15, -86, 85, -6, -52, -76, -80, 49, -80, -5, -67, -112, 0, -33, 27, 120, 57, -1, -75, 32, -94, -48, 118, 45, -46, 89, -55, 59, -118, 50, -23, 22, 107, 43, -58, 95, 119, 16, 27, -100, -67, 115, 27, 58, -74, -55, -25, -90, -14, -33, 45, -85, 73, 76, -74, -86, 96, -19, 82, 102, -75, -116, 26, 19, -103, -39, 16, -29, 6, -53, 116, 108, -108, 20, 8, 38, 92, -96, 100, 17, -103, 65, 31, -114, 99, -94, -91, 80, -46, -118, -106, 71, 50, -92, -97, 16, 81, -1, -111, 40, 101, 104, 26, 25, 57, -99, 120, -95, 54, -88, -59, 49, -74, -41, -90, 93, -7, 63, 31, 9, 75, -104, 66, 30, 55, 44, 39, 54, 55, 104, 25, -53, 21, 93, 44, -84, 90, -26, 31, 78, 49, -77, 32, 68, 75, 80, 23, 30, -100, -77, -9, -63, 39, 113, 86, 70, 58, -69, 24, -111, -62, -58, 49, 109, -41, -32, 102, 24, -49, -66, -53, 46, 43, 106, 41, 70, -3, -39, 60, 20, 83, -118, -72, 58, 74, -16, -113, -106, 15, -102, -84, -2, 19, -69, 120, -51, -53, -98, 90, 76, -90, 55, 12, 19, 10, 5, 78, -72, 87, -74, 10, -26, -39, -29, 51, -111, -81, 114, 91, -18, 33, -40, -98, -108, 93, 74, 95, 59, -42, -89, 52, 12, 77, 29, -1, -21, 108, -62, -62, 22, -113, -8, -14, 69, 74, -17, 68, -83, 105, 58, 6, 45, -74, 37, -115, 117, 28, -37, 43, -20, 59, -81, -42, 83, -21, 22, -60, -35, 47, -78, -18, 0, -16, 64, -68, 5, 96, 29, -78, 106, -56, 84, -101, 69, -14, -15, 79, 20, -108, -19, -46, -120, -15, 32, 78, 100, -48, 5, -113, 34, -58, -100, 21, -54, -25, -7, 19, 74, -119, -20, 95, 18, -119, -111, 57, 98, -110, 19, -50, 69, -85, -10, -28, -32, -110, -73, -86, 74, 52, -7, 21, -89, -73, -23, -108, -87, 113, 57, 59, 70, 42, -86, 51, 120, -6, -72, 82, -45, -7, -98, -120, -49, -115, 102, 113, 53, -78, -102, -18, 46, -15, -81, -73, 101, -84, 10, 9, -95, 44, 87, 49, 13, 41, -116, 45, -48, -97, -93, 107, -82, 67, -20, 66, -10, 44, -26, -18, 9, -18, 34, 109, -63, -30, -119, -67, 120, 21, -4, 44, -79, -87, 24, -73, -49, 29, 72, 111, -5, -25, 9, 10, 115, 4, -108, 60, 42, 44, 88, 24, -74, -91, -16, -17, 117, -47, 80, -62, -78, -76, -97, -10, 88, -95, -74, 118, -35, -7, -37, 35, -62, 81, 55, -56, 112, -20, 76, 120, -69, -2, -37, -74, -2, -53, -2, 92, -55, 60, 24, 14, 39, 60, -97, 52, -23, 92, 112, 60, 99, 45, -76, 117, -26, -67, 119, 11, 22, 64, -105, -92, 101, -32, -68, 13, -119, 117, -62, -97, -70, 21, 83, -89, 101, -73, -101, -99, -33, 1, -88, 13, 72, 82, -93, -92, -56, 8, 46, -24, 39, -5, 47, 62, -17, -112, -17, 73, -75, -20, 101, 108, -63, 23, -107, -105, 23, -45, -2, -94, 33, 11, -58, 10, -111, 0, -5, -67, -106, 68, -17, 37, -69, -119, 12, -111, -30, 51, -79, 93, -15, 46, -13, -97, 17, -97, 15, 93, -47, -47, 97, -30, -40, -119, -42, -51, 32, 39, -45, 36, -26, -11, 8, 82, 54, 77, 59, -57, -89, 22, 77, 2, -78, -56, -5, 108, -55, -60, 20, 69, 53, 107, -34, -96, 83, -117, -89, 121, 83, -115, 60, 86, 118, 108, 72, -55, -33, 17, 22, 90, 86, -89, 98, 107, 66, -15, -79, 4, -45, 28, -67, 4, -64, 32, -119, 31, -46, 41, 67, -11, -52, -97, 104, -32, 56, 64, -85, 45, -93, 13, -64, 56, -55, 120, -56, -6, -16, -25, 98, 21, -34, -103, 120, 93, 57, -20, 32, 49, -70, -70, 11, -1, 62, 37, 5, -22, -113, 9, 32, -87, 115, 43, -114, 42, -14, 59, 38, 93, 73, -53, -4, 99, 114, 56, 55, -27, 88, -13, 29, -18, -48, 78, 46, 63, 100, 86, 93, -97, -28, -75, -14, 103, -94, 102, -30, -37, -29, 71, -5, -76, 55, 70, -36, -91, -87, 8, -38, -103, -49, 63, -84, -1, -118, -64, -26, 7, -71, 65, -22, 95, -39, -5, 73, -102, 20, -94, -4, -117, 30, 86, -70, 13, -43, 49, 4, -15, -3, 85, 109, 118, 5, -117, 25, -101, 25, -109, -7, -58, -24, 108, -16, 21, 6, -33, 24, 6, -38, 41, 56, 62, -73, -119, 38, -75, 119, -102, -115, 37, 9, 24, 81, -32, 46, -16, -20, 73, 6, 57, 100, 3, 56, 105, -25, -48, -25, -14, 41, -102, -92, 104, -3, -63, 62, -29, -87, 49, -62, -91, 48, 62, 85, 31, 95, 70, -15, -27, 12, 111, -2, -51, -76, 60, -118, 72, 78, -17, -88, -104, -114, -36, 96, -32, -52, -17, 63, 120, 81, 52, 55, -117, 81, 44, -3, 44, 115, -81, -70, 73, 46, 40, 82, -38, -26, -47, 15, -79, 99, 41, 113, 115, -81, 32, 60, -89, 70, -46, -23, 24, -37, 24, -27, 58, -54, -97, 108, -76, -45, -94, -59, -60, -15, -73, -51, -112, -101, 65, 83, 12, -18, 60, 35, 36, 21, -104, -101, 104, 79, -83, 23, -88, -15, 85, 32, -75, 41, -92, -78, -65, -109, -97, -15, -34, -72, 19, -86, 113, 115, 117, -57, 105, 24, 116, -41, 110, 29, -111, -28, 51, -35, 71, -68, 84, 6, -46, 87, 46, -84, -28, 45, -60, 45, 45, 40, -71, 16, -85, 37, -30, -76, 58, -99, 71, -27, -51, 80, 25, -59, -7, 18, -80, 27, -72, 38, -81, 92, 115, -17, -11, 45, 42, 8, 117, 45, 60, 2, -59, -5, -15, -100, -79, 113, 64, -104, 66, -88, 112, -100, 44, 51, 94, -5, -8, -20, 0, -83, 63, 120, -18, 118, -65, -104, 17, -92, -57, 1, -101, -116, 58, 67, -67, 108, 55, 17, -115, -16, -92, 71, 21, -10, 119, 44, -118, -9, -76, -26, 8, 75, 30, -107, -73, 46, 79, -5, -27, 88, -92, 106, -9, -23, -10, 32, 95, -29, 6, 51, -37, 50, 36, 81, 83, 57, -103, -39, -19, 58, -56, -25, 75, 8, 57, -107, 86, -77, -69, 102, -9, -88, 62, -98, -72, 18, 116, -82, -71, -63, 98, 0, 27, -78, -17, 60, 23, 50, -62, 120, 25, 22, -62, -63, -10, 118, -39, -36, 21, 119, -41, 21, 118, 23, 81, -6, 12, 65, 88, 17, -35, 45, -30, 5, 37, 40, -9, 9, -73, 25, -32, -47, -111, -52, -62, 54, 76, 86, 25, -121, 77, 69, -33, 43, 108, -87, 35, 112, 72, 95, 32, -65, 99, -110, -60, 57, -62, -75, -5, -41, -73, -89, -29, 22, 77, 36, -20, 32, -70, 2, 85, -89, -27, 30, 0, 1, 79, 82, -54, 84, -2, 116, -26, 44, 17, -85, 74, -24, -11, -19, -18, 33, -93, 77, 21, -25, 34, -33, 35, -10, 52, 16, -99, -67, 20, 77, -11, 43, -3, 33, 3, 100, -99, 14, -92, -52, -71, -76, 66, 96, 111, -31, 67, -31, -6, 114, 58, 103, 109, -98, -34, 87, -42, -38, 88, -79, 8, -12, 103, 52, -111, -40, 92, 79, -33, 72, -90, 64, 21, 100, -22, 49, 84, 53, 116, -48, -120, -11, 15, -101, 27, -28, 65, 3, 23, -53, -68, 75, 108, -68, -27, 76, -23, 26, -61, -46, 4, -48, -109, -111, 47, 46, 72, 83, 60, 102, 51, -108, -4, -68, -7, 119, -37, 72, -55, -86, -62, -7, -97, -4, -55, 59, 71, -19, 114, -104, 116, -10, 20, 87, 14, -117, -85, -40, -10, -83, 10, 90, -51, -2, 102, -118, -84, -1, 80, 68, -93, -113, -86, -89, -87, 20, -46, 54, 57, 31, 5, -88, -78, -88, 97, 72, -5, 97, -63, -9, -96, 12, -95, 40, 43, 103, 0, -61, 95, -46, -31, -3, 30, -23, 2, 2, -53, 3, -41, 111, -16, 28, 72, 115, 51, -37, -110, -51, -114, 61, 58, -18, -101, -31, 17, 73, -117, 59, 98, 9, 87, -117, -2, 96, 38, -103, -23, -35, -121, 116, -30, 46, -112, 41, 73, -16, -34, -19, 17, 80, 64, -110, -69, -8, 29, -54, -86, 74, 78, 36, -82, -79, -37, 91, 111, 65, 105, -29, 6, -70, 72, -1, -115, -70, 41, 119, 108, -8, 31, 38, 95, -88, 64, 46, -3, 75, 113, 41, -65, 119, -56, -17, -4, 85, -116, -4, -11, 112, 6, 25, -91, -82, 45, -73, -104, 94, -76, -98, -72, -23, 87, 37, -105, 81, 89, 67, -119, -87, -50, -9, 26, -54, -62, 8, 13, -48, 7, -65, 99, -53, -64, -61, 32, -56, -30, 36, -1, -78, 47, -113, 33, -65, -56, -51, -81, -58, -93, -12, 15, -48, -93, -63, 83, -114, 6, 21, 105, -90, -34, 57, 24, -107, 90, 33, 5, 17, -59, -11, -29, 17, 104, 72, 114, 1, -102, 0, 77, -92, 103, -72, 35, 35, -6, -33, -113, -21, -67, 0, 61, -81, -97, -95, 87, -101, 9, 120, 110, 106, 59, -111, 0, 15, -36, -42, 67, -23, -102, -9, -29, 17, -69, 70, -21, 77, 11, 102, -29, 39, -23, -89, 62, 66, -1, -113, -47, -61, 11, -34, 83, 61, 114, -13, 37, 90, 67, -109, 107, 7, -69, 56, -25, 23, 48, 40, -96, 28, -44, 2, 105, -59, 70, 29, 111, -27, 36, 43, 109, 81, 90, -104, -83, -5, -11, 92, -69, 71, -13, 67, 49, -67, 120, 120, 93, 100, 91, 51, 84, 115, 15, 20, 35, 53, -10, 96, 15, -106, -44, 40, 73, -61, -55, 57, -96, -63, 49, -25, 71, 31, -107, 68, -33, -28, 53, 101, -80, -82, 39, -70, -16, -84, 76, 56, 102, -98, -34, -104, 71, 6, -12, -32, -72, 49, 120, 117, -107, 54, 7, 20, -19, 57, -5, 45, -116, 103, -70, -28, 17, 57, -42, -15, 83, 43, 78, 90, -41, 0, -59, -88, 24, 86, -105, -68, -19, -98, -41, 55, 60, 98, -59, -108, 116, 85, -118, 16, 95, 70, 28, -30, 1, 87, -36, -24, -109, 51, -114, -71, -87, 114, -49, -6, -103, 25, 83, -114, -82, 9, 22, -75, -53, 87, -33, 15, -104, 61, -87, 58, -6, -118, -108, 22, -110, -34, 90, 13, -59, 102, -50, 120, -86, -1, -114, -12, -5, 69, 44, -46, 56, 49, 29, -109, 4, 77, -58, -65, 80, 75, 87, -63, 43, -26, 2, 115, -50, 13, 62, 70, 14, -5, -24, -13, -111, 114, 61, 2, -53, 47, 4, 39, -51, 82, -118, 77, -98, 62, -54, 8, -54, 54, 85, -70, -79, 110, -22, 87, -18, 104, -71, 3, 84, 22, -50, -105, -70, -36, -51, 66, 11, -108, -14, -60, -40, 2, -57, -39, -45, -104, -37, -5, -121, -18, -89, 50, 19, 67, 101, 18, -51, -105, -103, -107, 21, 26, -120, 111, -46, -37, 119, -115, -23, -90, 11, -8, 101, 36, 78, -113, -94, -18, 83, 104, 34, -101, -9, 89, 32, -5, 113, -72, 63, -59, -73, -7, -115, 48, 111, 51, 99, -96, 43, -119, 22, -88, 86, -41, -66, -24, -83, 68, 48, -18, -93, -37, -75, -103, 22, 62, -29, 68, 8, -100, -74, 7, -21, 47, 53, 93, 47, 59, 88, 0, -95, 51, 73, -85, -96, -27, 36, -3, -44, -38, 17, 98, -31, 116, 9, -46, -37, 99, -70, 7, 16, -37, 69, -9, 19, -50, 112, 40, -102, 25, -64, 51, -69, -2, -97, -22, 65, 79, -18, -65, 19, -52, 41, 20, 78, 116, -81, -108, -94, 74, -17, 114, -27, -107, -66, -58, -37, 14, -83, 79, 29, 8, 28, 26, -101, -79, 37, 106, 69, -118, -17, -87, -90, -52, 40, -28, -20, -7, 79, 30, 79, -41, 47, -40, 20, -27, 86, 112, -57, -69, -11, 61, 88, -1, 89, 113, -80, -95, 114, 91, -5, -11, 16, 64, -70, -11, 69, -43, -16, 106, 104, 57, 31, 68, -32, 32, 120, -61, -9, -107, 86, 41, -50, 119, -43, 116, 6, -113, 55, 63, 22, 6, -20, -53, 119, 74, -29, -20, 20, 43, -51, -23, -104, -59, 49, 4, -97, -103, -110, -8, -22, -54, 29, -40, -36, 113, -117, -114, -108, 77, -20, 1, 14, -73, -23, -25, -25, -79, 0, 15, 35, 89, -58, 54, -57, 15, 1, -91, 33, 2, 83, -27, 79, -38, 5, -26, 26, -102, -103, -95, 70, 53, 102, -80, -39, 39, -58, -89, -40, -97, 18, -54, 69, -93, 14, -51, -10, -53, 107, 62, 93, -30, 119, -75, -70, -57, 65, 104, 46, 22, -78, -10, -75, -29, -68, 20, 46, -45, -19, 117, 106, 22, 11, 106, 85, -48, -16, -70, 2, -90, 112, -118, -2, -86, -72, 71, -18, -107, 10, 15, 55, 96, -51, 39, 68, 58, 93, 58, -15, -98, 105, -82, 71, -87, 4, 26, 47, 72, -106, 26, 25, 16, -42, 67, 84, -27, -65, 82, 0, 45, -115, -93, -107, 83, -55, -17, -120, 31, -1, 116, 5, -22, 91, -23, 19, -36, 41, 11, -8, 106, -79, -99, -41, -29, 42, -105, 85, 79, -11, 64, -24, -114, -30, -103, -12, -106, -119, -73, -18, -89, -56, 55, 101, 13, -97, 117, 90, 110, 117, 5, -16, -106, 54, 43, -95, 19, -51, -34, 38, -90, 30, -26, -104, -32, 44, -67, -69, 84, 39, -71, 102, 114, -95, -26, -11, -117, -69, 68, 95, -102, 26, -36, 101, -55, -108, 72, 106, -63, -17, 29, -66, -61, -47, 100, 20, 54, -104, 97, 59, -119, 113, 6, 21, 86, 57, 1, 79, -47, 28, -30, 16, 43, 108, -112, 42, -52, 9, 8, -11, -17, -19, -19, 69, 40, -59, -3, 62, -84, 108, -55, 79, 35, 47, -16, 16, -82, 87, -60, -86, 29, 20, 62, 90, -6, 85, -28, -28, -78, 80, -53, 58, 38, -35, 10, -45, 110, -108, -107, -82, -31, 76, 120, 93, 76, 57, -32, 42, -44, -32, -29, 100, 20, -86, -16, 70, 51, 38, 23, 77, 90, 63, 36, -50, -104, 29, 66, -88, 102, -95, -16, -39, -102, 23, 1, -104, -62, -84, -102, -27, 81, 62, -67, -52, -71, 69, -29, -52, -81, 74, -11, -107, 41, 103, 90, -23, -85, 76, 80, 2, 89, -40, 75, -12, -64, -100, -16, 76, 71, -30, -116, 115, 86, 90, -109, 103, 0, -37, -86, -29, -115, -101, 49, 26, 46, -46, -28, -23, -63, -59, 11, -103, 8, -7, 45, -46, -7, -10, -32, -24, -60, 77, -80, -87, -39, 31, 97, 71, -74, 57, -94, -116, 52, 35, 27, -62, -117, -11, -36, -77, 69, -40, -79, 99, -25, -54, 119, -42, -60, -120, -37, 95, -73, 80, -86, -57, 6, -18, 27, 76, -103, -96, 14, 104, -20, 95, -97, 21, -22, 36, 31, -112, 109, 57, 104, -33, -28, 85, 6, -22, 83, 53, 16, -101, -86, 88, 83, -50, -41, -34, -8, 66, -40, -115, -70, -26, -12, -4, 111, 98, -9, 112, -102, 39, -117, 87, 95, 98, 83, -117, -99, -30, 103, -65, -9, -30, -17, -25, 98, -56, -16, -89, -78, -61, 55, -67, -101, -74, -102, -33, -28, -108, -1, -95, 111, 52, 24, 15, -1, -75, -47, -98, -80, -87, -72, 96, 27, -17, 29, -83, 6, 97, 95, -57, -120, 104, -53, -39, 62, -14, 49, 48, 114, 50, -81, -30, -111, -51, -85, 51, 21, -75, -61, -63, 87, -118, 88, 88, -8, 59, 101, 81, 94, 116, 107, -99, 34, 23, -75, -104, 11, 0, 91, 0, 64, -17, -32, 28, -40, 110, 69, 67, -57, -119, 85, 117, -32, -69, -24, -99, -101, 63, -72, -27, 49, 28, -14, 94, -110, 73, -88, -61, -94, 111, -64, -96, 63, 72, -49, 80, -51, -67, -19, 12, -24, 54, -51, -85, 10, 88, -49, -37, -18, -25, -23, -7, 35, -36, -102, -67, -104, -8, 81, -13, -74, -9, 94, -45, -119, -119, 2, -5, -3, 62, -116, -93, 49, 20, 30, 70, 109, 48, -77, -5, -51, 22, 98, -120, 9, 21, 37, -6, 42, -44, -61, -113, -11, 42, -65, -70, -79, -119, -56, -89, 121, 70, 64, -64, -101, -70, 29, 68, 27, -34, 113, 60, 33, -89, -86, -71, 96, 115, 53, 14, -116, -33, 51, -105, 96, -110, 50, 94, 72, -10, -52, -20, 51, -52, 8, 34, 106, 85, -8, -50, 2, 88, -17, 56, -98, 106, 117, -56, -102, 83, 52, -115, -52, -43, 10, 79, -91, 82, -113, 33, -70, 81, -79, 119, -107, -83, -1, -96, -58, -42, 73, -83, -4, -92, -47, 78, -83, -32, -112, -40, 62, -51, 116, 105, 59, 37, 108, 49, -45, 38, 12, -85, -105, -88, -28, 36, 74, -80, -51, 63, 5, 117, 117, 36, 2, -8, -3, 2, 26, 24, -115, -43, -103, -38, -115, 54, 47, 106, -60, -26, 94, 78, -119, 95, -82, -21, 71, -105, 70, -44, 103, -45, 103, 20, 51, 77, 106, 25, 63, -105, -24, 40, 53, -54, 63, -37, -63, -85, 113, -18, 86, 70, -75, 85, 31, 15, 31, -81, -13, 34, -23, -80, -47, -30, -113, -95, 32, 119, 97, 69, 34, 65, 51, -64, 111, -99, 110, -46, 6, -117, 69, 58, -19, 2, 53, 47, 15, -67, -44, -55, 67, -113, -6, 107, -18, -27, 114, -67, 114, -107, 81, -5, 46, 42, -7, -24, -15, 71, -86, -105, -3, 86, -100, 15, 15, 25, 94, 71, 102, -119, 62, 67, -87, 77, -41, 50, -52, 43, 62, -29, 52, -80, -93, -114, -21, 119, -45, -66, 91, 113, 93, 51, -93, -18, 48, 111, 25, 8, -34, 54, 66, -105, -112, 52, 1, -53, 7, 110, 109, -38, -83, 26, -78, -84, -75, 78, 81, -102, 24, 64, -102, -37, -36, -117, -83, 35, -49, 42, -73, -36, -7, -85, 56, -71, 85, -120, 39, -79, 117, 54, -58, 42, -112, -74, -2, 75, 80, 55, -21, 4, 39, 72, 43, 111, 56, -31, -20, -79, 79, 57, 56, -112, 81, 65, 98, -60, -99, 53, -4, -45, 34, 82, 39, 104, 6, 120, 35, 1, -71, 98, -21, 87, 3, 83, -2, -5, 10, 91, -77, 73, 61, -59, -116, -59, 105, 17, -108, 34, -119, 37, 73, -65, 76, 59, 1, -37, 112, -33, 78, 43, 94, -55, -90, -52, 68, -99, -9, -90, -44, -58, 49, -41, 51, -15, -27, 74, 1, -47, -110, 28, 15, 120, 30, -6, -26, 68, -40, -75, -57, 88, 31, -69, -89, -85, -4, 25, 24, 38, -120, 57, -21, -13, -40, -40, 80, -109, -116, -31, -74, -73, -61, 84, -95, 105, -12, 34, -111, 16, 51, 94, -84, -64, 40, -106, 96, 99, -21, 29, -85, 108, -57, -77, -28, -109, -66, 38, -38, 63, -59, 73, -98, -58, 30, -115, 67, -82, 5, 95, -112, 69, -71, 94, 93, 25, -90, 11, 3, -48, 46, 32, 45, -37, -112, 76, -98, 115, 52, -54, -96, 109, -37, 4, 92, -20, 79, 94, -96, -28, 0, -115, -76, -77, -67, 35, 83, -61, -69, 109, -94, -111, 23, 57, 111, -104, -70, -96, 62, -68, -42, -10, -59, -108, -19, -49, 79, 105, -101, 11, -82, 109, -95, 5, 38, -5, -12, -116, -103, 90, 113, 61, -106, -84, 39, -109, -77, 106, 89, -46, -116, 22, -93, -79, 71, -33, -40, -102, -103, 91, -25, -76, 111, -68, -102, -49, -3, 13, 8, -9, -73, -30, 61, 118, 0, -91, 88, 99, 54, 106, -65, 58, -39, -51, -117, 96, 56, 22, 97, -17, 6, 77, 79, -111, -28, 50, -115, -91, 108, -7, 65, 9, -62, -68, 42, 109, 63, 6, 103, -98, 41, -116, -13, -9, -19, 81, 18, 19, 74, 93, -62, 57, 47, -54, 35, 83, 40, 17, -75, -63, 68, -39, 5, 103, -58, 6, 18, 36, -56, 116, 5, 115, 41, -90, -92, 108, -15, 7, 37, 30, -44, 86, 22, 61, -70, -4, -113, -69, 109, 96, 32, -109, -21, 22, 73, 64, 51, -50, 74, 106, 49, 34, -111, -83, -109, 90, -21, 96, 77, -95, -6, -96, 104, -68, 98, -95, -62, -76, 6, 97, 102, 116, -96, -41, 107, -12, -8, 64, -100, -40, -39, -5, 23, 99, 112, -31, -23, -16, -82, -36, -13, 36, -115, 3, 7, 78, -93, -108, -13, 53, 58, -80, -38, -118, -81, -37, -7, -30, -121, -121, 54, 61, -33, 20, -14, 36, -67, -79, -5, 85, -55, 86, 72, -27, -20, -108, 12, 62, -5, 50, 76, 15, -84, -82, -6, 49, -113, -118, -69, -15, -76, 73, 110, 111, -55, 37, -95, -22, 79, -40, -60, -74, 44, 36, 86, 33, 20, -38, -17, -109, 93, 89, 79, 89, 103, -85, -29, 25, -57, 80, -7, -3, 33, 98, 15, -98, -24, -20, 98, 29, -94, 83, -63, -37, 63, -15, 117, 47, -78, 81, 21, -35, -20, 76, 107, 118, -112, 11, -10, -99, -51, -38, -98, -84, -25, -99, -95, -72, -17, -111, -9, 25, -46, -45, 31, 11, 79, 41, 40, 105, 12, 69, -4, -120, -103, -20, 25, -63, -39, -96, -107, 102, 115, 101, 55, -116, 36, -96, -96, 65, -73, 76, 20, -40, -76, -120, 86, 55, 99, -8, 6, 97, 65, 3, -6, -37, 93, -109, -75, -30, 15, 57, -16, 4, -73, 120, 17, -72, 70, -72, 114, -71, -8, -35, -74, 40, 29, 33, 73, -119, 59, 115, 9, 76, 79, 30, -9, 102, 98, -49, -106, -41, -62, 10, -28, 81, -77, -119, -5, -57, 80, 30, 21, 79, -42, -117, -86, -90, -95, 107, -51, -91, 30, -76, -47, 47, -42, -47, -100, 47, 7, -7, -27, -5, -86, -84, 46, -96, 13, 69, 1, 92, 101, 115, -118, 99, -89, -71, -4, 0, 27, 69, -69, 53, 90, -35, 42, -71, -103, 86, -61, -115, 114, 106, -98, -68, 0, -117, -81, -3, -93, -115, 36, -96, -89, -71, -9, -99, -6, -22, 47, 20, 17, -25, -87, 86, 97, -22, 19, 81, -26, 71, -97, 27, 75, 89, 6, 107, -4, -13, 89, 120, -55, -55, -37, 36, -102, -17, 53, 92, 73, -112, -100, -32, -77, 80, -120, -121, -98, 106, -20, 80, -19, 94, 80, 47, 76, -111, 73, 38, 48, 47, 37, 69, 84, 75, 111, -104, -2, -95, 52, -36, 93, -92, 11, -110, -26, 89, -92, 27, -107, -66, -34, -112, -110, -97, 61, 6, -100, -71, 115, -64, -113, 99, 4, -63, 12, -3, -29, -86, -90, 68, 45, 102, 16, -95, 52, -69, -5, 94, -45, -92, -104, 33, 107, 23, 3, 2, 80, 13, 33, -98, 110, -58, -73, -33, 93, -6, -66, 103, -99, 71, 19, 5, 55, -23, 27, 88, -53, -9, -69, 74, -22, 65, 32, 73, -118, 7, 71, 96, 118, -55, 56, -26, -105, 85, 36, 48, -34, -37, -17, 56, -33, 109, -15, -42, -45, 51, -47, 81, 52, -98, -56, -82, 12, 31, -32, -50, -6, -108, -43, 56, 103, -100, 121, -45, 15, -17, 84, -25, -46, 94, 90, 71, -42, -116, 71, 1, 64, 35, 76, -30, -78, -11, -64, 111, -76, -1, 71, -66, -84, -58, 13, -16, 73, 84, -68, -17, 6, 11, -37, 91, 35, 58, -56, 40, -30, -59, -68, 109, 82, 71, 99, -42, 120, 56, 56, -40, -9, -12, -23, -13, 110, -68, 100, 25, 66, 96, 2, -57, -112, 71, 28, 29, -24, 38, 97, 56, 21, 74, -98, -103, 11, -113, 103, 54, 52, -16, 36, 62, -33, -96, 4, -48, 111, -61, -5, 42, 80, 37, -117, -104, -60, 4, -65, -105, -77, -9, 111, 85, 38, -42, -41, 21, -12, -18, 53, -113, 40, 58, 57, 30, 55, 32, 89, -48, -19, 91, -15, 12, -13, 118, -31, -31, -9, -71, -19, 117, -55, 94, -99, 42, -37, -79, -7, 67, 85, 44, -25, 13, 100, -39, -32, 64, -26, 84, 11, -70, 71, 18, -104, 119, -117, -92, -80, 51, -94, 15, -6, 116, 116, -14, -34, 59, -46, 31, 59, -90, -20, -63, -76, -73, 55, 60, 65, -70, 83, -29, -32, 112, 82, -21, -82, -110, -101, 11, -2, -55, 1, -1, 25, 55, -63, -54, 29, -53, 25, -59, 95, -45, -29, -57, 71, -21, -90, 64, 27, 0, -71, 83, 27, -17, -1, -84, -114, -3, 64, -93, -91, 97, -35, -109, -57, -112, -114, 48, 55, 41, 37, 49, 52, -68, 118, 105, -67, -65, 117, -11, 72, 111, -73, -96, -11, 89, -120, 64, 75, -65, -91, 69, -48, -116, -12, 26, 52, -34, 1, 117, -90, 1, 64, -54, -78, -10, 36, -55, 115, 107, 64, -68, 91, -14, 104, 66, -48, -36, 20, -8, -84, 59, -43, -107, 83, 111, -104, 94, -72, -8, 37, -46, -52, 41, -46, -96, -47, 79, -115, 72, -18, 37, -46, -23, -53, -33, 63, -31, 68, 74, 71, 70, -46, 73, 9, -90, 35, -29, -10, 46, -86, -45, -49, -68, 3, 7, -69, 10, -113, -5, 116, -55, -42, -16, -7, 57, -104, -11, 0, -35, -90, 34, -94, 108, 31, 99, 87, 95, 6, -21, -107, -52, 78, -97, -77, 29, 76, -11, -75, 87, -92, -25, -66, -34, -99, 114, -103, 39, -116, -114, 11, -108, -77, -53, 103, 36, -71, 9, -37, 99, -18, 17, -53, 46, -79, 42, 2, 82, -62, 69, 52, -43, 76, 77, -1, -99, -30, -97, 22, -8, -109, -26, 94, 53, 73, -4, -93, -74, -111, -25, 70, 10, -97, -67, 110, -37, -97, 66, -111, -90, -15, -112, 90, -103, -85, 37, -9, 103, 102, -60, -40, -119, -5, 9, 21, 59, 104, -92, -37, 90, 47, -120, 112, 108, 31, -68, 109, 22, -60, 80, 24, 103, 16, 64, 42, 102, -107, 9, 22, 25, 25, 10, -84, 43, -118, 72, 80, -7, -102, 97, -23, 7, -77, -46, -12, 32, -75, -73, 28, 92, 62, 83, 79, 27, 16, -42, 53, 112, -27, -58, -24, 19, -101, 27, 29, 116, -53, 98, -120, -89, -22, -4, -59, -89, -61, 34, 74, 66, -74, -58, 25, 49, -6, 99, 43, 106, -3, 35, 89, 114, 14, 76, -93, 17, 51, -19, -74, -99, -43, -39, -50, 23, -81, -52, -22, -8, -2, 19, -118, 91, 11, -106, 9, 79, 71, -82, -120, -108, 80, -109, 72, -99, -55, 21, 66, -62, 11, 2, -120, -51, 11, -83, -48, -2, 78, -28, 84, -11, 61, -58, 16, -17, 77, 34, 7, -82, 117, 8, 36, 111, 45, -68, 12, -40, 117, 103, 59, 25, 81, -62, 118, -15, -45, -9, 100, -113, 8, 93, -89, 46, 73, -9, -13, -70, 69, 105, 54, 78, 46, 2, 52, -10, 44, -75, -96, -29, -76, 84, 75, 81, -104, 93, 3, -46, -32, 94, -24, -61, -45, -66, -40, 114, -16, -18, -74, -27, 72, 28, 16, -65, -41, -32, 49, -99, -90, 78, -24, -29, 76, 6, 42, -61, -85, 93, 45, -53, 49, 21, -68, 38, -34, -113, -33, 100, -98, -72, -76, -3, -28, 116, 22, 114, -58, 77, -33, 18, 48, -13, -111, -25, 113, -77, 101, -31, 59, 69, 82, -87, -83, 13, 70, 31, 98, 39, 65, -19, -114, 68, 9, -44, -99, 118, -1, 102, -28, 39, -58, 42, 48, -1, 50, 89, -94, 1, 44, 81, 45, -113, 59, 16, 109, 77, -35, -104, 40, 54, -80, 120, -46, -75, -3, 45, 104, -41, 39, -93, 119, -82, 67, -85, 81, 49, -120, -4, 99, 23, 74, -102, 3, -6, 42, 92, -42, -57, -53, 1, 0, 53, -24, -113, 90, 113, -43, 80, -119, 5, 11, -58, 118, 15, -58, 76, -53, 103, 49, -45, -95, 28, -66, -49, 82, 35, 11, -77, 85, 68, 2, 5, 17, 46, -51, 88, -112, 44, 65, -83, -108, -2, -92, -38, 1, -119, 95, 102, -115, -17, 87, -37, -22, 10, -32, 15, 66, 56, -42, 66, -119, 85, 16, -90, 15, -39, 112, 114, -62, 30, 70, 45, 119, -83, -58, 64, -24, 53, 102, 61, -119, 28, 25, -22, -44, -29, -67, 21, 21, 64, -43, 75, -52, -79, 50, 20, 99, -36, 69, 35, 121, 58, -1, 29, -24, -49, -101, 118, -11, -46, -92, -41, -92, 100, -100, 105, 44, 39, 48, 81, 79, -75, 77, -101, 102, 82, 84, -118, -82, -45, -13, -81, -78, -59, 69, -52, 12, 67, -35, 36, 48, -110, 90, 92, 30, 58, -83, -51, -73, 48, 37, -113, -55, 15, 85, -40, -79, 117, 65, -90, -58, -113, -114, 39, -41, -101, 105, 118, 59, 51, -88, -102, -100, 102, 63, -38, -49, -48, 79, -78, 39, 95, -49, 23, 104, 60, 21, -72, 48, -88, 79, 16, 5, -93, 77, 119, 104, -57, 16, -61, 25, 61, -119, 72, -101, 75, 48, -39, -77, -66, 73, -107, 100, -31, 75, 43, -75, -38, -59, 25, 20, -85, -28, -76, 12, -21, -15, 83, 78, 37, 2, 23, -62, -9, 62, 48, 41, -44, 39, -108, 96, -9, 4, 66, -21, 96, -10, -66, -73, -10, 7, -18, 6, 18, -32, 105, 32, 70, 62, -83, -89, -59, 38, -72, -14, 39, 38, 16, -94, -22, -113, -99, -63, 32, 89, 76, -66, 17, 74, -56, -43, 29, 57, -111, -62, -33, -69, -69, -111, 19, 31, -27, -65, 81, -86, 29, -110, -103, -103, -66, -77, 120, 56, -81, -27, -53, 51, 82, -37, 76, -27, -96, 88, -117, -70, -41, -57, 4, 86, 94, 44, 52, -2, 6, -15, -19, -87, 54, 60, 78, -92, -76, 56, -55, 49, -66, -101, -44, -12, -53, -25, 116, -40, 40, 36, -67, 4, 71, -76, -54, -115, -50, 38, 0, 53, -23, 65, 64, 47, 93, -89, 29, 73, 70, 76, 58, 77, 74, -43, 118, -61, 90, 50, -100, -119, 45, 119, -103, 59, -26, 102, 115, -116, 32, 85, 104, 85, -71, -13, 104, 39, 13, -37, -28, 90, 11, -46, -29, -71, 82, -92, 44, -84, 49, -54, 26, -103, 26, -64, -8, -57, 95, 3, -20, 114, -22, 105, -121, 113, -73, -35, -91, -95, 83, 106, 61, 43, 76, -56, 55, -101, -98, 25, -91, 51, 60, 101, -18, 111, -67, 99, -114, 95, -60, -107, 61, 65, -34, -25, 28, -20, -58, 28, -110, -15, -116, -77, 90, 76, 115, -73, -116, -101, 19, 102, -98, 0, -60, -27, -74, -37, 116, -96, 105, 119, 34, -9, 18, 9, -102, 34, 54, 25, 119, 2, -76, 48, -95, -25, -15, -6, 84, -110, 72, 101, 89, -21, -37, -34, 119, 86, 70, -6, -16, 26, -6, -18, -71, -47, -70, 0, 68, 3, 16, -36, 30, 31, 56, 57, -47, -58, 34, 74, 55, 31, -18, -3, -50, -86, 44, 4, 111, -98, 111, 47, 29, -87, -10, 25, 76, -119, -18, 41, 31, 90, 67, 30, 120, -118, 73, -114, -58, 74, 46, -39, -3, 82, -11, -96, 77, 59, -103, -97, 25, -113, -19, 20, -52, -52, 118, 78, 16, -27, 65, -83, 0, 91, -24, 110, -25, -112, -35, -12, 26, -101, 116, 21, 28, 118, 109, -16, 33, 81, -11, 117, -58, 69, 35, 73, 89, 82, -36, 99, -46, -98, -79, -35, 88, 24, 87, 83, -92, 79, 40, -73, -12, -45, -1, 89, -58, 91, -103, 0, 47, 53, -13, -55, 108, -86, -92, 62, -89, 49, 91, 61, -46, -82, 92, 35, 93, 27, 77, 77, -76, -73, 0, -80, 61, 49, -75, -11, 74, 67, 88, -19, -4, 93, 58, -54, -19, -63, 91, 37, 1, 14, -21, 67, 43, -36, 117, 105, 39, 111, 55, -96, 92, 101, 65, 33, -75, -103, 120, -108, -60, -9, -68, -59, -105, -68, -53, 31, -34, 31, 111, -16, -98, -13, 115, -54, -103, -98, 0, -66, 29, -112, -100, -18, 102, 74, 72, -50, -8, 100, -41, -55, -74, -61, -7, -98, -12, -105, 119, 87, 51, 11, 8, -109, -21, -82, 91, -5, -109, 42, -51, -24, -10, 38, 32, -33, -100, 8, 40, -30, 52, 32, 110, 91, -30, -60, 120, 46, 116, 5, -7, 111, 45, 46, -80, -65, 24, -66, 93, -105, -22, 23, -96, 44, -86, 106, 33, 105, -57, 47, -41, 11, -76, -28, -19, -77, 83, 100, 12, -90, 45, -12, 78, 90, 105, 28, -9, -115, 104, 2, -7, 104, 43, 86, 74, 6, -40, 24, -95, 73, -94, 120, -26, 14, -70, 64, -61, 32, 119, 93, 50, 74, -93, 39, 82, 29, -52, 88, -116, -71, 54, -81, 27, -71, 5, -2, -25, 86, -52, -74, -49, -92, -62, 86, 79, -21, -3, 95, 111, -57, 72, -41, 58, 61, -112, 59, -57, 3, -70, -83, -105, -90, 103, -44, 49, 116, -66, -18, -105, -42, 81, -15, 14, -117, -55, 77, -51, 16, 106, 108, 31, 78, 85, -14, 90, 30, 47, -105, 118, 53, -67, 40, 111, 77, -109, 93, 97, 65, -15, 109, 26, -30, -52, -18, 97, 48, 50, 83, -117, 16, 56, -12, -3, 111, -79, -114, 120, 91, -47, -56, -4, 31, -115, 23, 53, -106, 87, 71, -27, 80, -59, -52, 36, 72, 96, -92, -58, 70, 10, -80, 35, 116, -47, 53, -111, 13, 10, -49, 93, 51, -64, -41, 58, 121, -31, -16, -40, 27, 110, -6, -109, -7, 50, -50, -22, 91, -60, 112, -62, -2, 116, 29, 43, -8, 29, 19, -33, 37, -67, 17, 30, 58, 32, 89, 73, -36, -67, -89, 44, -91, -8, -118, -100, -17, 57, 109, -52, -94, -67, -96, -76, -29, 51, 9, 64, 52, 93, -42, -79, -85, 85, -81, 77, -16, 27, -68, -98, 60, 67, 29, -94, -114, -99, 13, -107, -116, 85, 31, -80, -35, -24, -45, 69, -77, -36, 28, -69, -41, 66, 40, 72, 68, 8, 84, 92, 85, -82, 93, -111, 33, -113, 29, 54, -26, 67, -57, 64, 38, 19, -92, 47, 22, -13, -21, 94, -49, -66, -96, -15, -28, -70, 53, -106, -93, -12, -114, 14, -52, 4, -52, 52, -2, 110, -101, -106, 32, -2, -25, 47, 104, 120, -58, -45, -67, 97, 53, -37, -43, -101, -69, -43, -4, 23, 13, -22, 54, 118, 80, 110, 114, -107, 70, -38, 94, -92, 67, 57, -120, 91, -33, 31, 39, -60, -12, -103, -102, 69, -86, -13, 11, 38, 111, -84, -21, -11, -39, -81, -8, -10, 19, 36, -89, -94, -93, -118, 99, 100, 103, 55, -21, 94, 11, 44, -71, -91, 17, -74, 115, 92, 69, -75, -11, 11, 19, 76, 93, -19, 54, 116, 3, 9, -88, -81, 113, -28, -7, 82, 6, -12, -108, -36, 83, -91, -65, 19, 78, 78, -69, 43, 116, -118, 7, -26, -103, 113, 117, 45, 75, 8, -63, 57, 119, -92, 38, -104, 15, 42, 45, -51, -21, -78, -40, 39, -80, -85, -39, 50, 43, -113, 102, -71, -31, 14, -68, 73, -116, -57, -101, 59, -72, 97, 104, -71, 13, 50, 7, -33, 21, 8, 54, -55, -49, 25, 86, 105, 33, -102, -12, -84, -1, -27, 39, -51, 37, -65, -16, 87, 88, 71, -3, 58, -36, 38, -12, -28, 11, 19, -25, -53, 2, 33, 25, -18, -8, -70, 0, -65, 94, 4, -43, -76, 6, -6, -49, 76, -29, 91, -26, 13, 30, -23, -60, 70, -76, 73, 77, 88, 105, 41, -116, -52, -82, -50, 18, 55, 0, 13, -55, -30, -91, 77, 29, 60, 53, 84, 97, -13, 120, 45, -71, 46, 33, -8, 39, -96, 79, 54, 24, -42, 115, 49, -95, 120, -79, 86, -103, 62, 6, -80, -73, -21, -4, -40, -100, 100, -109, -3, 19, 39, 73, 112, 102, -40, -19, -109, 79, 35, 60, -22, 7, -23, -81, -107, -11, -65, -17, 16, -86, 118, -36, -120, 46, -39, 102, -114, -23, 32, 84, 44, 95, 3, 86, -48, -34, -94, -16, -51, 38, -44, 54, -8, 46, -102, -85, 48, 92, -119, -63, -110, -68, -67, -65, -100, -93, -1, -49, 45, 103, 58, -35, -47, 16, 15, 113, 105, -76, 87, -8, 105, -36, -11, 113, 3, 51, 115, 100, -24, -65, 103, -10, -80, -105, 85, 31, -94, -5, -41, -41, -60, -85, 17, -100, 28, 27, 23, 70, -63, -76, 7, 111, -59, 71, -90, -104, 58, -56, -54, 59, 67, -52, 92, -26, -21, 90, 12, -8, -95, 2, -66, -109, 13, -61, 48, 118, -109, -71, 54, -60, 63, 11, -33, 109, -32, -72, -35, -112, 13, 104, -14, -53, 68, 116, 94, 95, -99, -10, -76, -9, 30, 95, 36, 92, 112, -4, -103, -49, -78, 86, 5, 70, 51, -71, -26, -42, 94, 13, 91, -96, -40, -89, 100, 114, 89, 54, 29, 49, -76, 8, -82, 36, -121, -96, 9, 22, -6, 89, 97, 108, -68, -49, -71, 29, -43, -112, 54, 27, 95, 103, -84, 106, -58, 50, 93, 75, 100, -86, -63, 2, 104, 5, -115, 59, -81, 104, -99, 73, 89, -110, 90, 79, -26, 69, 63, 120, 26, 30, 46, 64, 117, -51, -65, -20, -37, -29, -118, 59, -49, 87, 100, -32, -65, 98, -74, 82, 58, 16, -93, -72, 96, 35, -109, 97, 0, 36, -55, 104, -17, 101, -17, 10, 27, 43, 3, -64, 94, 34, 78, -4, -89, 0, -103, -37, -35, -88, -78, 37, 59, 78, 20, 65, -109, -60, -76, 84, -31, 82, -109, -114, 13, 112, 7, -113, -96, -80, 99, 107, 8, 90, 84, 102, 95, 112, 40, 49, -97, 86, -106, -14, 20, -116, 79, -120, -75, 24, -96, -90, 108, -44, -88, 50, -34, 22, 36, -47, 100, 114, 10, -20, 23, 105, 6, -91, 62, 90, 2, -79, -83, 67, -87, 118, -26, -119, -6, 36, -96, 97, 28, -65, 36, 53, -59, 31, -18, 34, 3, 83, 18, -20, 26, -58, 104, 20, 116, -29, -10, 34, -1, -8, 9, -49, -19, -60, -93, 104, -104, 6, -17, 13, 47, 55, -91, 24, 28, -96, -64, 115, 27, 116, -57, 63, -114, 39, -119, -2, 72, 16, -102, -103, 76, 73, 45, 61, 15, 62, 38, 61, 0, -12, 75, -16, -50, -64, -5, 32, 68, -78, -57, 76, -118, -92, -3, -2, -32, -116, 81, 46, -9, 23, -17, -52, 105, -43, 109, 91, -74, -16, 50, 19, 76, -14, -114, 14, 75, -97, -44, 33, 7, 62, -9, 87, -82, 120, -1, -70, 31, 56, -79, -67, -84, 91, 51, -77, -100, 40, -117, 60, -49, 52, -88, -6, -97, -50, -56, -46, -2, -85, 25, 59, -34, -102, 34, 14, 104, 118, 31, -94, -111, -80, -9, -78, 32, -27, 27, -83, 32, 120, -72, -116, 16, -59, 5, 108, 100, 40, 28, 13, -21, -62, -60, 74, -41, 86, 97, -40, 78, 53, -9, 119, -29, 10, 12, -108, -11, 57, 103, -12, 86, 4, 76, -39, 95, -13, -61, 31, -12, 66, -113, 107, 101, -99, 78, -110, 31, -29, 54, 101, 1, -99, 116, -79, -62, -47, 114, 62, 96, -50, 74, 57, 37, 107, -115, -107, 11, 83, -79, -102, 96, -53, 5, -111, 57, -28, -115, 52, -42, -72, 48, 98, -87, 81, -13, -3, 15, -22, 3, -116, -5, 11, 23, 18, 35, -95, 109, -112, -24, -112, 116, -97, -49, 115, -26, -61, 12, -24, 111, -121, -99, 92, 49, -7, 97, 5, 86, 38, -37, 89, -70, -49, -99, -115, 13, 18, 47, 88, -33, 64, -116, -41, -96, -31, -97, 118, 27, -22, 56, -46, 42, 1, -45, 42, -61, -59, 0, 104, 77, -61, 74, 37, -72, 13, 22, -64, 54, 69, 79, 48, 1, -81, -29, -109, 11, 70, -7, -60, -61, -59, 74, 30, 106, 37, -113, -107, 45, -85, -51, 88, -82, 80, -18, -35, -110, -96, -87, -65, -26, -6, -2, 96, -25, 102, -113, -17, -21, 27, -50, 19, -16, 115, -22, -96, 42, 3, -79, -67, -15, -95, 96, -27, -1, -39, -43, 55, 95, -95, -67, -49, -21, 16, 63, 12, -77, -68, -59, -41, 113, -23, 32, 25, 2, -113, -90, -108, -56, 87, -22, 67, -54, 110, -110, 102, -28, -50, -2, -95, -95, 83, -5, -9, 83, 10, 55, 43, -108, 74, -42, 55, 75, -4, 51, -17, 117, 71, 67, -108, 8, -5, 119, 11, -88, -75, 30, -36, 40, -16, 38, -47, -102, 33, 7, 9, -52, -32, 44, -117, 25, -27, 22, -47, 66, -110, 13, 25, 118, -110, 63, -23, 109, 60, -109, 93, 62, -53, -81, 62, 12, -109, -65, -21, 10, 62, -62, 40, 116, 14, -104, 0, 91, 47, 15, -100, -86, -32, 32, 87, -81, 54, -78, -120, -17, -94, -16, -22, 107, 115, 73, -44, -106, -36, 62, 58, -110, 71, -94, -44, 50, -5, 51, 2, 120, -117, 58, 88, 60, 12, 86, 115, -88, 98, -23, -68, -33, -97, 63, -10, -19, -61, -22, 100, 95, 93, 118, 59, 67, -30, 32, -86, 84, -106, -26, 3, -16, 80, -91, 101, -31, -90, -78, 115, -5, 25, 76, -26, 30, -96, 64, -13, -6, -30, 113, -32, -94, -60, 55, -41, 41, 12, 65, 87, 51, -38, 3, -105, -69, 9, -64, 36, -67, -39, 23, 47, 36, -110, 81, 36, -8, -39, 5, -109, -31, 44, -19, -34, -22, 4, 73, 25, 111, -51, -82, 99, 26, -29, 75, 27, -49, -98, -23, 31, 13, 49, 117, -103, -115, 98, 40, 98, -120, 79, -4, -16, -20, -120, 82, -1, -15, 115, 63, -93, 82, -112, 10, -113, 71, 20, 64, 117, 73, -27, 83, 12, 106, -110, 11, -28, -118, -3, -30, -65, -3, 66, 31, 77, -33, 101, 54, 16, -4, 5, 31, 44, 22, -94, -37, 89, 82, 118, -99, 117, -92, -103, 119, 101, 15, -62, 3, 55, 21, 103, -31, -30, -23, 44, 106, 70, -39, -3, 57, 21, -91, -107, -27, -56, -109, -88, -17, -9, -33, 108, -85, 85, -43, -19, 25, -103, 110, 13, 0, 0, 10, -45, -83, 31, -74, -66, -62, -77, -28, -47, -93, -69, 40, 47, 43, 90, 27, 120, 74, 99, -83, 4, 9, 109, -13, -115, 94, -120, -50, -2, -57, -35, -54, 106, -93, 116, -43, 28, 94, -117, 0, 72, 102, -17, -9, 7, -104, -47, 50, -80, -56, 82, 13, 55, 59, -50, -55, 27, -13, -44, -20, 42, -62, 17, -22, 18, -22, 91, -5, 18, -81, 24, 63, -2, 97, 88, 82, -14, -92, -36, 116, -106, 32, 104, 14, -40, 99, 109, 8, 22, 86, -87, 91, -38, 112, 43, -22, 31, -74, 31, -64, 29, -95, 78, -79, -49, 107, 40, 95, -32, 116, 57, -116, -95, 28, 54, 53, 71, 21, -6, 97, 51, -89, 87, 106, 57, -26, -40, 11, 52, -84, 11, 101, 34, 109, -48, 20, -80, -13, -54, -102, 97, -20, -93, 68, 75, 23, 2, 76, 103, -1, 113, -90, 71, 22, 109, 84, 20, -35, -57, -56, 111, -110, -105, 75, 9, -34, -55, 41, 32, -12, 68, 94, 57, 19, 73, -49, -62, 58, 10, 103, -39, 98, 79, 43, 106, -78, 38, -100, -77, -1, 48, -113, 60, -92, -88, 105, 91, -95, -103, 12, 116, 39, -112, 23, 88, -111, -22, 99, -96, 1, 6, -64, -104, -24, -9, -92, 61, -100, 0, 38, 92, 110, 102, 38, 14, 111, 89, 93, 109, 104, -81, 5, -24, -28, -60, -42, 78, -9, 24, -4, -105, -76, 69, -51, -108, 38, 70, -120, -5, -9, 4, -29, 93, 16, -98, -110, -36, 35, 106, -55, 93, 24, -102, -78, 104, 114, 99, -7, 81, 99, -105, -84, 42, -106, 78, -113, 34, 73, -72, 115, 34, -54, -92, -48, 13, -109, -38, 109, 89, -98, -40, -65, 38, 105, -5, 118, 89, -14, -53, 69, -96, -108, 25, 68, -65, -104, 95, 64, -80, 34, 83, 76, 107, 82, -18, 67, 14, -104, 74, -83, -57, 79, 78, 79, 95, -48, 110, 53, -30, -72, -72, -56, -100, 67, -79, -3, -86, -76, -79, -14, 107, 34, -51, -61, 42, 119, 10, 89, -83, -108, -93, 93, 45, -8, -43, -39, -70, -64, 63, -80, 28, 17, 34, 117, -96, 59, 114, 120, -48, -105, 70, -5, 116, -23, -103, -94, 46, -103, -78, 25, -85, -15, 22, 64, -84, -54, -21, -95, 66, -100, 77, 82, 85, 53, 25, -61, -1, 19, 97, 3, 90, 112, -10, -111, 76, 17, 8, 60, -43, 48, -46, -37, 39, 118, 109, -100, -14, -65, -45, 103, 68, -119, -60, -46, 4, 111, -5, -35, 44, -39, -40, -103, -43, -37, -109, -98, 64, -19, 90, -71, -60, -110, -37, 71, 91, -6, -49, -73, 27, -21, 92, 15, 60, -3, -55, 118, -94, 89, -52, -104, -73, -22, 55, -61, -26, -61, 39, -97, 12, -111, -112, -43, -118, -9, 100, -27, 72, -38, -104, -20, -87, -20, 90, 36, 15, -42, 59, -11, -60, -3, -46, -114, 118, 21, -24, -119, 25, 64, 60, -55, 91, -55, -73, 87, -16, -21, 103, 94, -56, -38, -82, -58, 107, -49, 74, 75, 6, 88, 120, 21, 116, -91, 98, 5, -70, -114, 89, -58, -51, 50, 62, -110, -45, 23, -73, 108, 49, 88, -63, 55, -5, -82, -30, 10, 3, -100, -50, 71, 16, -95, 91, 27, -96, -24, 94, 84, 16, -28, 17, 88, 120, -110, -95, 53, -65, 51, 20, -55, 38, 58, -32, -107, -38, 117, 114, -80, 118, 114, -75, 38, -89, -21, -89, 53, 44, -65, 119, 108, -83, 42, -24, -95, 39, -60, -95, -107, -85, -41, -71, 30, 107, -6, 51, -118, 58, -106, -11, 105, -112, 28, 103, -39, -17, 90, 83, -39, 15, 81, -119, -54, -5, -15, 2, -38, 70, 37, 116, 78, -88, 61, 53, 43, 90, 39, 49, 36, 79, 106, -106, 3, -46, 8, 58, 92, -2, -73, -108, 94, -75, 60, -86, 101, -41, -115, 5, 73, 85, 107, 82, -81, -65, -38, 6, -61, 90, 120, 27, 98, -93, -59, 66, -113, 91, -76, -104, 43, 119, -2, -30, -20, 33, -74, 111, -75, 55, 59, -63, 39, -74, 98, 19, 29, -53, 76, -84, -112, -42, 4, -61, 38, -114, 101, -6, -10, -26, -11, -111, 79, -12, 40, -119, -20, 21, -100, 102, -25, -31, 5, -95, -76, -17, 40, -53, 59, 13, -47, 21, -60, 119, 91, -70, 35, 34, -115, -95, 38, -53, -32, -93, 94, -100, 59, 95, -92, -40, -113, 118, -30, -18, -112, -60, -33, -74, 39, 21, 28, -84, 65, 64, -76, 111, -95, -26, 40, -67, -18, 103, -38, 28, -116, -25, -12, 72, 19, 116, -2, -111, -34, -18, 43, 69, -24, 29, -108, 105, -96, 44, 83, 95, 119, 118, 69, -3, 66, -109, 110, 41, 98, -35, -62, 38, -75, 19, -95, 97, -7, 2, 1, -24, -118, 113, -64, 99, 29, 85, -24, 32, 72, 119, 73, 66, 32, 7, 30, -15, -106, -25, 11, -4, 76, 9, -18, 7, -22, 96, -75, 52, 47, 73, -44, 8, -102, -66, 11, -38, 14, -53, -118, -8, 96, -88, 20, 49, -46, 29, 118, 34, -53, 30, -33, -100, 10, -106, -66, -74, 2, -27, 27, -37, 43, 101, 52, -27, -47, 52, -35, 86, 103, 93, 92, 63, -59, 32, -72, -80, -4, -18, 69, -79, -102, -56, 86, -75, -25, -93, 80, 104, 16, -99, 3, 54, 16, -119, 57, -49, 54, 39, -53, 7, -26, -85, 65, 102, -87, 78, 74, -70, 108, 119, -62, 7, -52, 49, 40, 50, -32, 61, -9, -107, -61, -26, 100, 33, -51, 88, 91, -6, 93, 115, 12, 94, 106, -39, 76, 110, -59, 57, -36, -7, -63, -102, 3, 100, -102, -34, 16, 33, -52, 61, 120, -22, -50, 1, 53, 25, -104, 66, -73, 57, 35, 86, 109, 47, 90, -35, -75, -29, -97, -53, 91, 119, 63, -98, 79, -88, -81, -15, -69, -8, 55, -38, -47, -68, -84, -11, -39, 58, -10, 1, 79, -114, -54, 44, -87, 102, -108, 56, 29, 30, -110, 76, -69, 88, -7, -90, -17, 2, -112, -93, -87, 5, -55, -57, -12, -71, -53, -113, 119, -17, 104, -70, 10, 10, 70, 118, -18, 4, 42, 21, 45, 32, -52, -49, 105, 14, -26, 12, 28, -20, -98, -89, 103, -71, 116, -69, 3, -55, -7, -115, 25, 7, -83, -5, -94, -20, -96, -121, 77, -106, -106, -15, -27, 72, 31, 42, 29, -73, 85, 73, -5, 96, -82, 1, 51, 81, 118, 54, -63, 102, 1, -112, 68, 63, 36, 85, -7, -58, -70, 51, -75, 106, -39, 35, 27, -17, 97, -2, -103, -105, 109, 63, 33, 95, -10, 92, 79, 101, 7, 47, 92, -68, -71, -70, -21, -32, -90, 17, -57, 76, 91, -5, 117, 47, 89, 15, 73, 39, 28, 109, 81, -52, -72, -48, 70, -38, -78, -99, -79, -73, -92, 54, 38, -49, -26, -50, -51, 55, 111, -22, -2, 18, -35, -57, -37, -35, 19, 76, -52, 83, -76, 81, -57, -75, 47, 93, -96, 2, -66, 57, 1, -28, 101, -40, -13, -49, -108, 49, -55, 45, 72, -87, 8, 45, 4, -44, 3, 104, 33, -37, 28, -87, -24, 37, 29, 95, -82, 113, -118, 5, -74, 17, 105, -15, -86, 18, 56, 41, -94, 71, -35, 15, 112, -26, -17, 41, 104, 28, 44, -86, 68, 19, -8, 116, 13, -101, 68, 52, 116, 48, 17, 82, -28, -62, 88, -60, -2, -33, -30, 18, 21, 18, -48, 92, 56, 83, -65, 93, 96, 63, 92, 77, 1, 18, 4, 35, 50, -53, -20, 3, 115, 24, -78, 120, -76, -108, 27, 111, -101, -1, 108, 97, 102, -108, -91, -113, 24, 43, -57, 66, -9, 87, 39, -74, 39, -43, 88, -18, 37, 14, 6, -76, 96, 59, -2, -99, -99, -60, 1, 103, 86, -47, 98, 69, -14, 67, -38, 99, 38, 56, -22, 27, 69, 79, 96, 13, 109, 24, -8, 78, -116, 116, -116, 119, 48, -99, 76, 18, 116, -67, -110, 82, 12, -20, 83, -76, -118, 15, 94, -82, 8, -68, 53, -18, 34, -12, 87, 114, -92, 112, -42, -103, -43, -84, -88, -112, 83, -31, -46, -98, 20, 64, 68, 110, -113, 30, 69, 74, 74, 93, 111, 91, 89, 120, 95, 103, -77, 14, -110, 91, -61, 38, -46, 79, 83, -37, -83, -108, 50, 116, -85, -84, 19, -1, -69, -49, -114, -28, 92, -96, 32, 97, -38, 90, 37, -42, -100, 115, -7, -66, -39, 109, -21, 114, -101, -10, -72, -12, 45, 44, 68, -44, 115, -28, 78, 14, -45, -32, -58, 55, -22, 51, -80, 97, 65, 107, 64, 27, -117, -91, -63, 98, 28, -33, -68, -27, 13, -86, 21, 95, -99, -52, 95, -78, 61, -84, -80, 34, -2, -100, 10, -80, -96, 66, 85, 98, -65, -106, -49, -76, -111, 84, -112, 119, -101, 5, 109, -40, -7, 36, -38, -81, 61, 9, 84, -61, -62, -30, 106, -49, -115, 96, 3, -101, 86, 78, -46, 89, 34, -81, -11, -14, -87, -113, -31, -119, -110, -105, 82, -45, 2, 88, -96, 59, -54, -64, 99, 100, 16, 56, -97, 86, 30, -37, -19, 98, 73, 70, -69, -6, -16, 65, 8, -104, 51, -119, -48, -20, -23, 94, -44, 62, 11, -21, -102, 37, -105, 29, 107, 82, -101, -103, 111, -88, 68, -50, 18, -7, -64, -75, 5, -39, 64, -21, -56, -90, -89, -7, 61, -1, 1, -61, -5, 13, 9, -60, 107, 53, -111, -42, 110, -59, -64, -38, -24, 108, 56, -33, 96, 3, 79, -20, 120, -26, 37, -19, -59, 101, 64, 104, -111, 96, -39, -70, 92, -47, 93, -106, -34, -50, 101, -10, 55, -12, 63, -92, -80, -104, -68, 73, -118, -11, -84, -113, 106, -1, -50, -37, 80, -64, 26, 21, -105, -102, -33, 88, 59, -38, -40, 28, -13, -11, -101, 56, 57, 33, 106, 77, -17, -109, 59, -92, 37, 103, 26, -84, -9, 40, 57, 17, -102, 57, 42, 65, 19, -111, 56, -116, 61, -118, -95, -93, -48, 121, -75, -49, 66, 2, 76, 50, 27, 27, 115, -120, -71, 9, 81, -17, 93, -31, 97, 45, 17, 11, -50, -23, 57, -105, 59, 103, 94, 20, 55, -62, -32, 75, 109, 60, 114, -94, -35, 95, 116, -55, 42, 5, 74, 120, -68, 68, 106, -15, -22, -32, 58, 113, 30, -50, 61, -121, -93, -87, 103, -39, -61, 11, -4, 99, -28, 69, 40, -80, -25, -79, -52, 104, 77, 69, 116, 80, -18, 16, -93, 58, 76, -72, -86, -103, -48, 93, -51, 2, 86, -2, -10, 115, -13, -119, 9, -92, 41, 73, 80, -16, -29, 70, -116, -64, 72, 31, 59, 101, 35, -68, 28, 69, 31, 5, 6, -5, -111, 44, 74, -83, -56, 72, 4, -79, -86, 21, -116, -8, -26, -42, -18, 48, -3, 98, -98, -79, -71, 114, 5, 84, -49, 63, 42, 7, -71, -10, 54, -15, 5, 61, 20, 70, 4, -65, -93, 35, 94, 43, -9, -3, 93, 10, 93, -80, -30, -42, -30, 97, 47, -117, 59, -46, -117, -15, -59, -66, 60, -22, -94, -22, 57, 18, -100, 21, -99, 16, 70, -53, 66, -20, 8, 84, -16, -9, 37, -2, -5, 38, -95, 14, 9, -49, 2, 60, -42, -30, 97, 68, 94, -74, 108, 120, -78, 46, 70, -120, -48, -14, -56, 43, -18, -33, -110, -11, -78, -116, 107, 13, -93, 108, -30, -19, -13, -3, 112, -42, -2, -54, 6, -5, -72, -99, -112, 110, 28, -26, -8, -1, -86, 59, -108, -119, -74, -15, -1, -49, 69, -16, 69, -34, -70, 80, 47, -116, -117, 32, 84, 53, -9, 102, -32, 28, 102, 100, -90, -60, 34, 7, -113, -30, 60, 15, 96, 15, 7, -106, -29, 54, -7, -57, -90, 96, 45, -90, -103, 19, -40, -61, -3, -100, -114, -67, -45, 66, -49, -100, -78, 34, 42, -77, -64, -65, 107, 24, -59, -56, 43, 50, -33, 6, 39, -98, 22, 23, 50, 1, 87, -106, 107, -12, 88, -92, 65, 43, 47, -21, 54, -38, -36, -2, -18, 53, 73, -10, -50, -34, -31, 95, -75, -109, 116, 46, -19, 25, -36, 94, -50, 26, -22, 59, 82, 90, -97, -48, -64, -62, 47, 49, 5, 21, 59, 33, -95, -7, 27, 52, -27, 5, -9, 107, -82, -91, -29, -23, 83, -29, -115, 0, -32, -95, -29, -95, -67, -70, 62, -75, -53, -29, -58, 44, 71, -59, -33, -42, -27, -19, -65, -76, 64, 63, -18, 61, -111, 61, -10, -74, 18, 30, 77, 95, 26, -102, -29, -41, -57, -103, 1, -107, 26, -118, 86, 84, 69, 115, -71, -62, 112, -3, -62, 60, -19, 40, 58, 31, -33, 34, 89, -31, -24, 11, -68, 72, -60, 46, -44, 30, -9, 87, 0, 58, -65, 110, 118, -74, 6, -98, 44, -59, 103, -72, 5, 22, 115, 85, -48, 10, 29, -107, 117, 20, 87, -89, -24, -37, -19, -5, 63, -41, 56, 11, -82, 24, -26, 85, -1, 13, -52, -79, -45, -88, 87, 78, -100, 110, -45, 8, 87, 64, -8, -82, -82, 75, 15, -81, -121, -43, -65, -29, 50, 2, 116, -111, -90, 57, 85, 35, -1, 43, 17, 87, 0, -84, -6, 37, -75, -49, 12, 51, -3, 61, 59, 50, 65, 42, 86, 82, 13, -81, -51, -4, 54, 3, 44, 97, 26, -21, 10, -35, -118, -101, 94, 52, -33, -40, -109, -78, 118, 12, 3, 4, -8, -113, -62, 62, 118, -16, 106, -96, 93, -88, -86, -29, 95, -101, -96, 45, -12, -11, 111, -49, -108, 35, -26, 18, 48, 102, 108, -103, -41, 118, -29, -66, 82, -119, -20, -93, -32, 18, 38, -56, -102, 77, -22, -1, 64, -58, -85, -85, -37, -94, 45, -78, -15, 82, -101, 44, -38, 5, 113, -16, 0, 24, -13, -25, 113, 58, -7, -78, -18, 22, -117, -81, 85, 7, -94, 25, -1, -65, -39, -118, 5, -25, 0, 73, -8, -21, -84, -46, 91, 99, 6, -93, 9, 71, 30, 95, 86, -82, 54, -56, -111, -60, -2, 67, -100, -46, 23, -7, -49, -31, 101, -79, 50, 63, -41, 38, -44, 19, 99, 114, 24, -96, 49, 45, 90, -46, 32, 34, -101, -95, 19, -52, -60, -107, -57, -98, 12, -68, 40, 40, 49, -92, 81, -120, 78, 44, -92, -118, -79, -7, -81, -91, 57, -78, 97, 84, -5, -77, -105, 27, 112, -29, -78, 73, -58, 89, 27, -27, 30, 56, 87, 83, 56, -67, -96, 85, 20, -60, 77, -86, -69, -19, -99, -62, -71, -105, 102, -114, -34, -39, 33, 107, -10, 58, 21, 34, -28, 85, -97, 40, 104, -28, -65, -12, -29, -26, -99, 5, 116, 105, 85, 52, 39, 36, -80, 42, 39, 54, 118, 51, -51, -100, -32, -18, -113, 21, -68, 116, -9, -80, -88, -32, -79, 113, -54, -56, -25, 51, 30, -40, 63, 35, -28, 82, -2, -100, 9, 91, 75, 106, -106, 47, 77, 2, 50, 108, -116, -20, -19, 47, -71, 10, 29, 77, 117, -72, 114, -9, 83, 43, 98, 43, 74, -68, 21, 90, 7, 61, 44, 111, -12, -86, -25, -31, 1, -67, -75, -59, -116, 54, 49, -112, -112, -54, -78, -96, 30, -13, 18, 48, -10, 77, 45, -11, -50, -21, -3, 119, 118, -17, 78, -36, -62, 35, -6, 21, 9, -49, -29, 9, 35, -41, 110, -113, -109, 16, 115, -37, 38, 103, -37, -27, -105, -41, -92, -6, 88, -108, -99, 79, 3, 45, 41, 97, -100, -73, -34, -82, 99, -72, -58, -29, -42, -77, 100, -121, 3, -51, 16, -16, -9, -56, 20, -8, 66, 103, -44, 61, 24, -4, -61, 108, -38, -90, 26, 112, -29, 116, 72, 34, -75, -84, -52, 0, -69, 102, 40, 108, -121, 1, -58, -34, 78, 118, -89, -22, -22, 25, 40, -95, 102, -67, -109, 73, 87, -115, 83, 71, -99, 94, -47, -38, -36, 78, 84, -96, 12, -72, 100, 9, -19, -7, 96, -4, -97, 44, -100, -95, 71, 91, 121, -91, 117, 74, 52, 24, -63, -18, 68, 18, 93, -89, 13, 57, -63, -102, -44, -64, -44, 69, -66, -75, -62, 105, 30, -80, -10, -40, 21, 117, -11, 93, -17, -2, 89, 117, -81, -6, 98, 28, -92, -47, -120, -91, -50, -11, -109, 9, 23, 79, -31, -29, 80, 107, -2, 3, 56, 91, -49, -30, 63, 96, -91, -78, -45, -64, 69, -82, -8, -29, -6, 14, 53, -41, -10, 106, 12, 81, 60, 118, 32, -46, -112, -14, -31, 41, -39, -77, 38, -2, 9, 94, -78, -22, -53, -102, 74, -11, 80, 73, -104, 86, -40, 35, 106, 108, 104, 44, -31, -76, 25, 45, 120, -57, -93, -56, 105, 56, 25, 8, -76, 56, 41, 106, 26, 25, 27, -17, 2, 0, -107, 1, 112, 57, 23, -106, -41, 111, -66, 101, 15, -69, -97, 63, 7, 1, 66, -66, 44, 70, -80, 91, -119, 54, 29, -3, 3, -102, -51, -62, 48, -40, 8, 69, 119, -3, 50, 89, 66, 87, 25, -40, 80, 37, 116, 51, 77, 14, 40, 84, -81, 64, -42, 2, -119, -102, 55, 4, -94, -94, -78, -52, -115, -67, -76, -3, -44, -53, 83, 28, -83, 94, 33, -74, 96, -111, 64, 88, -34, -86, 6, -5, -67, -26, -73, 42, -20, 69, 84, -116, -103, 48, -102, 24, -6, -76, 56, -33, -42, 46, -47, 74, 107, 80, -49, -70, 99, -66, 60, 111, 83, -102, 73, 8, -113, -50, 30, -68, -80, 76, 117, 103, 5, -5, -79, 20, -79, 90, -57, -114, -67, -11, 45, -95, 7, -110, 70, 12, -93, -112, -34, -85, -6, -16, -8, -65, -59, -10, 60, 43, 8, 93, 68, -5, 2, 36, -90, 83, -92, -30, -79, -14, 10, -107, 74, 42, 9, 118, 53, -30, 26, 98, -70, 71, 55, 61, 102, -86, -39, 34, 51, 4, 65, 110, 8, 108, -38, 10, -65, 107, 6, 107, 82, 55, 5, 43, 34, 30, 117, 82, -119, 11, 50, -27, -19, 70, -79, -38, 102, 42, -68, -106, 4, 21, 65, -111, -91, 8, 52, 66, -105, 78, 77, 16, -50, 63, 26, 77, -55, -18, -34, 39, -63, 34, 39, 70, -83, 26, 32, 48, -56, -36, -26, 2, -6, -118, 3, 81, 99, -68, -81, -13, -45, -87, 39, 22, 96, 7, -70, 74, 85, 96, -109, -113, -33, 39, 98, -88, 99, -93, 71, 25, -52, 115, -24, -72, -8, -52, -13, 70, -21, -23, 25, -102, 105, -86, 116, -77, -8, -51, 51, 105, -7, -53, -109, -104, 95, -81, -58, -76, 16, -75, 2, 110, -78, 112, -118, 51, 108, -113, 90, -14, -63, -43, 4, 46, -118, -27, -27, -19, -71, 81, -55, -28, 84, 60, -47, 43, -75, 22, 10, 9, 10, -110, 49, -109, -88, 1, 105, -76, 19, -88, 118, -14, 76, 63, -10, -26, 69, 69, -31, -14, -49, 100, 53, -87, -61, 52, 28, 94, 73, -73, -1, -7, -97, -3, -26, -12, -102, -53, -8, 47, -114, 115, 72, 0, 44, -73, 37, -49, 40, -44, 40, 31, -45, 49, -16, -107, -22, 99, -66, 117, -8, 98, 13, -67, 41, 65, 38, 39, -80, -31, 116, -50, -91, -95, -86, 51, 93, -91, -9, -52, 81, -91, -29, -76, -113, 21, 50, 38, -46, 46, -111, 80, -100, -65, 54, 62, 92, 15, -59, -104, 106, 56, 118, -65, 43, 69, -1, -24, 2, 51, 121, 13, 10, 87, -88, 50, 73, 103, 9, -84, -37, -90, 97, -99, 36, -20, -29, -114, 43, -68, 120, -113, 100, 96, 15, -62, 50, 19, 34, -34, 12, -120, -71, 106, -96, 109, -116, -66, 15, -53, 49, 28, -93, 87, -2, 120, 10, -80, -21, -74, -111, -59, -48, 76, -87, 18, -38, 75, -29, 87, 74, 34, 90, -3, 8, 42, -47, 24, -30, 114, -49, -105, 79, 103, 79, -10, 17, -33, -74, -20, 95, 24, 69, -46, -90, -69, -25, -80, 74, -18, -94, 106, -103, -112, -80, -32, -65, -49, 28, -106, -50, -15, -48, 82, 57, 22, 66, -88, 121, 28, -106, -96, 33, 115, -58, -32, -13, 42, 101, 78, -106, 73, -101, 102, -111, -117, 21, 43, -55, 96, -8, -87, -59, 71, -64, -8, -104, 91, 119, 112, 63, -106, -7, -16, 67, -65, 87, -9, 13, 78, -65, 39, -13, -80, -53, -89, 120, -43, -56, -89, 53, 113, 99, 106, -45, -76, 1, -67, -12, 56, 83, 100, 100, 70, 16, -96, -58, -30, 4, -95, -26, 119, -16, 45, -23, 23, 70, 58, 18, -19, 33, -97, 118, -85, 87, -88, -29, 78, 114, -11, 104, 76, -99, -72, -49, 52, -65, 59, 0, 21, -98, 66, 95, 10, -66, -87, -105, 23, -114, -61, -84, -31, -62, 9, 87, 109, 86, -41, 78, 80, -100, 47, 106, -89, 47, -95, 111, 46, -115, 61, 52, 13, 98, 120, -5, -13, -119, 85, 79, -116, -22, 98, -86, 38, 92, -113, -107, 117, -85, -76, -2, 18, 65, 98, 21, -38, 44, -33, -6, 83, -14, -28, -97, -69, -102, 1, 67, -58, 56, 72, -58, -20, -47, -52, -9, -107, -21, -65, -109, 25, -2, -76, -86, 65, 37, 11, 84, -96, 47, 30, 66, -70, -5, 17, 42, 92, -79, 13, -108, 16, 63, -115, -10, 8, 35, -90, -73, 62, 8, -31, -15, 106, -41, 17, -60, 32, 70, 67, 10, -76, -50, -68, -51, 21, -93, 56, 9, 24, 4, 19, 18, 69, -80, 77, -9, -85, 60, -40, 112, 21, 42, 58, 106, -20, -1, -2, -86, 14, 54, -51, -117, -98, -60, -5, 16, 29, 6, 105, 54, 31, -23, 1, 66, -55, 22, 113, 43, -55, -120, -63, -2, 31, -23, -75, -82, 82, -32, -6, 92, 2, -34, -90, 109, -25, -8, 27, -104, 22, -65, -77, -88, 89, -86, 75, -48, -11, -95, -19, 70, -116, -93, -44, -109, -74, 13, -66, 38, -87, -80, -31, -69, 38, -90, -82, 84, 67, 81, -33, 95, 108, 4, -110, -112, 113, 33, -28, -111, 22, 91, 55, 2, -80, 4, -15, 55, 116, 43, -12, -65, 85, 3, -107, -101, -36, 62, -104, -71, 21, -46, 96, -7, -55, -5, -42, -48, 114, 98, -16, 52, -25, -105, -71, 107, 110, 16, 37, 4, -48, -119, 40, -27, -26, 43, -32, -83, 86, 6, 58, 98, -117, -90, 98, 59, -103, -14, 99, 64, -28, -107, -42, -81, -23, 116, -61, -21, 120, -109, -69, -95, -81, 105, -107, -15, -94, 99, -7, 14, 99, 106, 74, -20, 100, -43, 32, -23, -82, -119, 26, 92, 54, 3, 91, 94, 102, -74, -98, -47, 105, 47, 23, -32, 19, -15, 81, 7, -67, 6, 0, 91, -107, -27, 73, 34, -63, -31, 32, 30, 117, -30, 86, -85, -40, 0, 26, 62, -87, -65, -109, 74, -114, 96, 23, -62, -96, -31, -71, -96, -114, 10, -72, 116, 10, 49, -26, -77, 115, -4, 75, -116, 48, 4, 53, -28, -115, -101, 96, 35, -67, 57, 120, 94, 118, -8, -16, -108, -57, 33, 30, 114, 69, -117, -63, -86, -25, 65, -75, -16, 86, 114, 58, 29, -4, 32, -80, -21, -68, -2, 46, -69, 20, 72, -7, -41, 21, 75, 102, 24, 58, -41, -80, -115, -96, 63, -72, -30, 35, 36, 49, 42, 44, -95, -1, -28, -16, 68, -61, -102, 99, 57, -52, -79, -97, -119, -108, -33, -117, -32, 37, 4, 28, -3, 113, -66, -19, -86, -93, 71, 99, -114, -56, -12, 57, 23, -40, 72, 12, -92, 46, -113, 101, 7, -5, 31, 39, -30, -78, -6, 12, -23, -11, 32, -49, -50, -21, 110, 105, 21, -103, 23, 19, -103, 24, -54, -56, -55, -99, 78, 75, -30, -15, -4, 14, 23, -53, 117, 26, -87, 74, -103, -32, 45, -44, 37, -98, 108, 55, -39, 37, 68, 22, 98, -73, 102, -118, -91, -36, -98, -95, -7, 117, -30, 115, 18, 115, 64, 56, 100, -103, 33, -70, 87, -94, -100, -34, -28, -98, 64, 45, 0, -74, -33, 105, 52, 43, 18, 103, 92, -58, -119, 85, 111, 46, 20, -98, -79, 35, -40, -107, -119, 54, 45, -59, -107, 94, 18, -98, -107, -18, 90, -59, 51, -116, -27, -88, 47, -57, -27, -24, 114, 58, -42, -42, 32, 36, 64, 27, 53, -13, -89, -108, -11, 60, 35, -5, -34, -35, -98, 25, -15, 19, 70, -18, 4, 2, -80, 45, 106, -7, 86, -35, -108, -36, 67, -75, 30, -106, -60, 33, -69, -36, 96, -53, -97, -98, 15, -1, 76, -73, -12, 3, 27, -13, 111, 119, 97, -9, -45, -54, -59, 95, 59, -54, -91, 6, -112, -78, 97, -47, -34, -23, -48, -53, 96, -10, -19, -21, -112, -32, -73, -78, 118, -19, -83, 76, 116, 14, -32, 18, -54, -119, -95, 66, -48, -37, 53, -38, -48, 62, 102, 14, -61, 70, 22, 49, -65, 63, 112, 60, 23, -5, 25, -25, -95, 115, 57, 52, 53, 120, -100, 114, -79, 24, 39, -100, -114, 53, -79, -108, -83, -38, 77, 32, -49, -119, 5, -90, -79, -106, 37, -57, -76, 83, 88, -97, 7, -111, -87, -85, -36, -78, -103, -35, -104, -72, 23, -16, -15, 79, 87, 56, 79, 9, -17, 42, 12, 35, -75, -87, 34, 10, -87, -104, -53, -118, 86, -69, -7, 57, 65, -91, -10, 106, -30, -9, -66, 24, -91, 89, 56, 112, -111, 18, 23, -52, 95, -38, 88, 33, 93, 107, -44, 46, 23, 35, -9, 28, 26, 52, -21, -72, -33, 43, -102, -31, 43, 9, 115, -108, -37, -40, -6, -14, -4, 109, -53, 38, 45, -105, -120, 68, 82, -8, -51, 8, -15, 9, -72, 60, -43, 79, 52, -55, -86, -52, -75, -32, -56, -68, 76, -78, -24, -38, 111, -1, 98, 59, -105, -95, -84, 52, -75, -46, 47, -76, 74, -46, -114, 81, -64, -60, 49, 29, -56, -85, -47, 29, 64, -83, -42, 105, -20, 112, 89, -38, 27, -36, -28, 82, -30, -59, -32, 37, -38, -54, 41, -41, -11, -10, -34, -84, -16, -82, 108, -105, 69, -16, 8, 17, -2, 82, 107, -25, -102, -42, -86, -45, 84, -86, 97, 89, -51, 81, 55, 3, -71, -120, -20, -117, -43, -25, -115, -9, -80, 106, -39, 68, -107, 17, -86, 35, 99, -5, 9, -84, -87, -46, -95, -96, 65, 78, 9, -49, -103, 19, 69, 112, 68, -83, -37, -52, -77, 110, 120, 57, 33, 121, 29, -100, -29, 47, -83, 8, -12, -100, -77, -93, 26, 106, -84, -29, -32, -76, -118, 48, -104, 72, -111, -110, 48, 114, 25, 11, -69, -47, -59, -42, 24, 9, 5, 66, -39, 40, 13, -39, -76, -104, 47, -37, 120, -52, -57, -54, -112, -119, 105, -53, 30, 39, -59, -107, -13, 33, -121, -119, -119, 80, -110, 7, 17, 16, 105, -47, -30, -117, -6, 111, -106, 64, -81, -2, -28, -119, -18, 39, 82, -79, -45, 44, -8, -78, -73, -120, -46, -22, -35, 8, -84, -63, 14, -44, 55, -49, -50, -49, 27, 0, -28, -97, -36, 114, -31, -8, -103, -109, 91, 61, 110, 115, -99, 19, -56, 109, -104, -21, -3, 121, -25, 33, 120, 79, -13, -105, -27, 21, -65, 27, 78, 77, -89, -55, 85, -64, 2, -53, -53, 61, -117, 10, 76, 101, 97, -38, -20, 9, 32, 84, -91, 73, -52, -55, 78, 55, -104, -45, -118, -106, -112, -57, 12, -45, -114, -55, 16, -69, -21, 48, -40, 2, 70, 45, -74, -15, 108, 64, -71, -5, -110, -91, -22, 76, 33, 5, 74, 95, -68, -70, -76, -41, -34, 1, -64, 11, -74, 70, -110, 96, 86, -78, 101, 3, -61, 84, 119, 52, -16, 89, -111, 43, -10, 23, 1, 79, 116, -47, -42, -101, 31, -65, 28, -100, -53, 41, -74, 17, -35, -118, -17, -27, 6, 66, 41, 114, 105, -19, -78, 14, 84, 88, 22, 61, -43, 36, 12, -117, 88, -31, -63, -113, -97, 102, -53, 39, 78, -13, 49, 17, -79, -120, 28, 34, -18, -25, -3, 19, -109, -94, -37, 46, -54, -78, 29, -27, 71, 114, -32, 2, 4, 91, -18, 88, 58, 112, -62, -106, 52, 7, 0, 11, -2, -100, 66, 33, 67, -34, -37, -43, 73, -12, 33, 119, 73, -94, -16, -102, -72, 63, -39, 23, 74, 4, -109, 57, -35, -58, 102, 70, 7, -113, -102, -80, -14, 104, 108, -32, -57, 80, -116, -37, 21, -60, -62, -29, 29, 53, 46, 26, 23, 65, -97, 80, -93, -95, -5, 24, 66, -27, 0, -38, -46, -39, -22, 66, 95, -101, 23, -26, 101, 48, -9, -7, 120, -36, 13, 39, 97, 91, 105, 118, 106, -49, -115, 41, 13, 83, 54, 77, -116, 103, 64, -47, -54, 119, 23, -27, -2, -37, 30, -31, 19, 59, -88, -18, -55, -43, 115, 6, 21, 102, 57, 69, 59, -51, 11, 65, -76, 74, 22, -110, -34, 80, -98, -50, -9, 80, -64, 67, -104, 57, -37, -120, 100, -73, -86, 0, -44, -83, 29, 21, -12, 87, -26, -31, -119, 111, 73, 84, -65, 52, -20, 73, 45, -93, -38, 109, -98, -120, -18, -117, 5, 0, -86, 6, -111, -102, -58, 100, -6, -22, 101, -55, 25, 92, -5, 41, 41, -23, 42, 113, 28, 63, -21, 41, 37, -46, 37, 4, -64, 81, -116, 93, 8, -87, 29, -112, 58, -28, 54, 94, -16, -20, 66, -36, -12, 32, 21, 103, 44, -15, 74, -82, 99, -27, -69, 55, 90, -15, -24, 43, -46, 90, -30, 90, -17, 103, 21, 51, -113, -105, 44, 109, 15, 16, 39, 44, 78, -29, 5, -91, -50, 118, -101, 70, -19, 75, -19, -54, 25, -77, -104, -80, 45, -63, 9, 14, 119, -78, 64, 89, 16, -28, -34, -82, 66, 46, 12, -115, 8, 80, -90, -17, -35, -55, 36, 66, 89, 57, -64, -2, 36, 83, 40, -14, -46, -115, 22, 75, 29, 66, -83, -16, -20, -38, -6, 28, -58, -55, 67, 117, -109, -24, 99, 52, -54, -18, -15, 42, -101, 29, -28, 45, -105, 5, -41, 48, -89, -81, 94, -59, 47, 86, 61, 89, -32, -80, -61, 16, 6, 115, -111, 3, 70, 23, -17, -60, -79, -109, 118, 104, -33, -45, -105, 8, 35, 76, 6, -86, -116, 45, 61, -22, -88, 113, 56, -70, 24, 44, -68, -59, -23, -101, 50, -35, -117, -117, 42, 27, 73, 67, -77, 34, 72, 87, -68, 57, 99, 51, -75, -33, 80, 88, -17, -19, -119, 51, -95, -21, 25, 104, -62, 71, 100, 30, 30, 73, -63, 55, -89, 71, -64, -21, 45, 0, 27, -57, 92, 17, -55, -72, -75, 35, 3, -36, 22, 78, 64, -5, -55, -7, 48, 56, -62, 2, 41, 87, -45, -61, 103, -24, -7, 83, 56, 98, -89, -105, -61, 79, -58, 9, 77, -17, 11, 42, 10, 120, 106, 46, 31, -20, 38, -17, -44, 0, -98, -88, -30, -90, 38, -93, 5, 13, -89, 17, 117, -16, 76, -55, 76, 106, 34, -67, 65, 54, -59, -53, 64, 98, -32, -91, -21, -50, -46, -64, -103, 63, 18, 4, 96, 29, 56, 0, 70, -39, -92, -40, -58, -48, 74, 44, -77, -97, -116, 117, 6, -105, 111, 99, -66, -54, -7, -22, 62, -113, 93, -25, 113, 51, -17, -108, 7, 15, -42, -116, -16, -71, -63, 47, -12, 11, 118, -103, -13, 28, -1, -94, -24, 102, -34, 102, 18, 57, -36, -88, 67, 85, -28, -61, 94, 55, 49, 34, -68, -78, -63, 46, 93, -15, 113, 120, -2, 61, 68, -45, -11, -112, 87, 12, 8, 12, 20, -88, 70, 21, -21, 44, -9, 72, 120, -5, -103, -85, -72, 95, -106, 95, 11, 19, 20, 50, 108, -14, 80, -51, 8, 113, 36, 54, 79, 36, -105, -23, 105, 54, 75, -54, -75, -22, -100, -82, 79, 58, 19, 94, 65, 37, -37, -104, -93, 15, -84, -85, 14, 106, -34, -64, -24, -107, 104, -36, 43, 4, -37, -7, 68, -69, 115, -70, 35, 5, -99, -104, 42, -91, 27, -15, -73, 99, 51, -49, -57, -17, 99, 23, 68, -99, 56, 11, 44, -23, 55, -26, -31, 63, 96, -113, -58, -37, -115, -112, -51, 92, 38, 62, -111, -88, -35, 96, 48, 36, -52, 112, 9, -103, 58, 55, 114, 79, 53, 107, -8, 112, -45, 4, 120, -47, -68, 112, 24, 116, -118, 40, 83, 58, 74, 92, -94, 80, -25, -91, -89, -10, 70, -34, 44, -81, 68, 34, 9, -78, -34, 22, 104, -33, 52, -35, -111, -103, -18, 103, 80, -46, -13, -11, -75, 12, 81, 29, 91, -44, 91, -6, -22, 118, -4, -80, -55, -117, -16, -25, -29, -77, 21, 65, 111, -119, -115, 24, 8, -47, 10, 93, 103, -93, -81, -25, -64, -6, 66, 100, -44, 82, -116, 64, -68, -76, 26, 87, -72, 111, -40, -52, 3, -79, -94, 10, -45, 72, -119, 30, -33, -26, -65, 113, -2, 120, -77, -47, 19, -84, -89, -104, -85, -80, 96, -45, -90, 86, 116, 33, -27, 106, 103, 65, -7, -14, -39, 107, 109, -50, 77, -69, 63, -22, 29, -111, -39, 104, 49, -45, 41, -22, -86, 76, 50, -80, 94, 76, 63, -74, -24, 6, 77, -76, 51, -58, 86, 29, 106, -3, 97, -51, 81, 82, -59, -61, -109, 16, -56, -52, 13, 61, -46, 57, -94, -14, 114, -61, 112, -63, 102, -80, -82, 92, -20, 4, 47, -43, 99, -3, 27, 76, 52, 92, -120, -33, 85, -52, -85, -41, 116, 91, -47, -60, -76, -61, 69, -24, -43, 94, 16, -9, 5, 53, -69, 16, -36, 40, 20, -101, -41, -83, 1, 59, -98, -47, 119, -114, -115, 108, 54, 0, -8, 96, 32, 23, -85, -64, -12, 96, 4, 57, 113, 94, 17, -14, 34, -1, -93, -34, 6, -88, -14, -54, -13, 57, 39, -28, 84, 68, 12, -52, -15, 34, 58, 1, 80, -98, 71, 48, 53, -102, 19, 22, 93, -58, -35, -53, -53, -47, 42, 76, -110, -6, -37, 1, -48, 97, -31, -13, 101, 39, 14, 20, 64, -67, -113, 51, -73, -89, 97, 45, 99, 105, 0, -1, 46, 119, 47, 68, 61, -103, -81, -52, 14, 34, 109, 21, 34, -101, 106, -76, -95, -67, -106, 5, -101, -104, -79, 49, -59, -2, 20, 91, 0, -3, -88, -16, 83, 60, -48, 58, 66, 67, -44, 39, 119, -46, 74, -81, -114, -105, -47, 40, 34, -27, 30, 68, -112, -74, -114, -26, -98, -19, 36, -29, -60, 35, 56, -82, 53, -42, -64, 66, 94, 34, -61, -73, 37, -120, 99, 14, -4, -78, 53, -63, 26, -38, -21, -114, -33, 66, -46, -10, -91, 23, -25, 6, 111, -67, 96, 55, -83, -98, 8, -119, 115, -116, -103, 97, -10, -113, 48, 7, 63, 51, -65, -17, 21, 22, 39, 24, -102, -53, 94, 84, -79, 103, 76, 68, 80, 43, -6, -52, -19, 111, 85, -21, -74, 25, 74, -118, -101, -51, 1, 35, -32, -11, -13, 2, -79, -84, 80, -65, 31, -26, -10, 103, 37, 45, -19, 119, 14, 83, -51, 6, -91, 26, -18, 4, 51, 113, -60, -114, -102, -36, -28, 75, -101, 63, 113, -10, 21, 76, 67, -113, 18, -83, -79, -47, -93, -82, 75, -110, -26, 89, 21, -23, 106, 96, -97, 5, -102, -117, 10, -5, 108, -67, -68, 74, -84, 66, -82, -111, 64, 92, 3, -38, 120, -29, 41, -108, -35, 62, -37, -85, -21, 75, 98, -16, -103, 18, -28, -44, 119, -93, 20, -95, -97, 4, -31, 61, -65, 120, -62, -49, 10, 17, -43, -33, 114, -56, -50, -18, -11, 64, 60, -95, -105, -61, -49, 111, 51, 35, 96, 106, -28, -114, 110, -96, 16, -81, -65, 111, 85, -105, -49, 73, -81, 111, -1, -111, -88, -57, 121, 79, -72, -40, 2, 77, 12, -36, -50, 89, -30, -55, -117, 25, 52, -3, -100, 73, -90, -72, 74, 75, 89, -117, -10, -107, -111, -33, 8, 89, -84, -44, -88, 3, -119, -98, 101, -24, 16, -22, -107, -67, -44, 43, 67, -20, 116, 4, -54, 121, -49, -6, -80, -44, -108, 90, -85, -25, -30, -4, 18, -120, 95, -92, -68, -1, -85, 40, 37, -14, 36, -91, -82, -10, -28, -115, -95, 33, 82, -76, 32, 54, 82, -58, 86, 64, -80, -76, 17, 60, 28, 109, -14, -41, -23, 65, 59, -18, -56, -101, -1, -50, 31, -37, 50, -30, -113, -53, -72, -84, 109, 10, -20, 78, 84, -39, 17, 12, 55, 47, -70, -86, 20, 114, 50, 13, 36, 96, -112, 5, -50, -76, -79, -47, -68, 65, -7, 72, 74, -60, 42, -25, -25, 4, 5, 119, 97, 58, -89, 95, -92, 35, -106, 88, -12, -104, -58, 31, 95, -25, 39, 57, -35, 89, -83, 27, -111, -9, -27, -15, 68, 25, -37, -116, 96, 27, -119, -91, 68, 60, -28, 88, -105, -30, 63, 120, 81, 118, -58, -59, 18, 23, -115, -30, 5, 31, -14, -59, 86, 21, -116, 103, -97, 40, -22, -114, 118, -39, 29, -45, -102, 103, -13, 8, -91, -115, -66, -104, -93, 65, 90, 119, -63, 6, -85, -29, 67, 62, -90, 15, 57, 117, -70, -67, -59, -55, 51, -101, -42, -3, 100, -19, 19, -49, -87, 86, 8, -96, -83, -104, -66, 117, 51, 109, -70, -105, 84, -12, -13, 48, -66, 11, -113, -39, -2, 81, -48, 91, 91, -12, -48, -63, -77, 38, 31, 8, -69, -33, -13, -117, 13, 115, 116, -64, 9, -40, -22, 77, -7, -62, -17, 12, -51, 108, 14, 2, -76, -75, 20, 99, 55, -65, 101, 90, -46, 19, -66, -114, -36, 41, 83, -114, 117, 70, 92, -96, 117, -32, 26, -24, -79, -95, -73, 33, -100, -98, 33, -51, -89, -60, -51, 3, 119, 65, 36, -59, 95, 85, 48, -50, -43, -17, -58, 42, 69, 37, -29, 38, 69, 101, -49, 117, 16, -40, 114, 92, -68, 29, 104, -8, -45, -93, -99, 70, -19, 14, -35, -65, -94, -104, 33, -79, -110, 11, 29, 53, 21, -64, -50, 10, -27, -69, 53, 80, 87, -101, -93, 53, 109, -52, -54, 103, 4, 82, -32, -3, 58, 107, -93, 0, -9, 77, 86, 83, 67, -31, -92, -81, 25, 104, -91, 96, -92, 85, 11, -111, 120, -118, -99, -92, 48, -37, -60, 118, -92, 112, -99, -44, 48, 104, 38, 62, 113, -100, 50, 115, 51, -41, -47, 64, -95, 78, -14, -4, -111, -4, 83, -117, 84, 5, -71, -20, -116, 12, 99, -23, -57, -58, -94, -110, -10, -41, -48, -51, -108, 36, 5, 69, 89, 37, 14, 65, 8, -40, -47, 32, -69, -88, 110, 8, -106, 57, -118, -3, -54, 18, 46, -11, 118, -100, -86, 28, 64, 116, -117, 43, 75, -22, -49, 30, 41, -25, 45, -33, -63, 52, 13, -35, -10, -93, 79, -1, 2, 50, -13, 90, 46, -41, -89, 3, -117, -9, -79, 81, 28, 9, -92, -29, 58, -96, 16, 103, -92, 31, -85, -75, 41, -28, -95, 86, 49, -109, -120, 112, -80, 92, 2, -71, -57, 52, 65, 43, 65, 49, -103, 7, -29, -70, -29, 68, -82, -87, -33, 68, -38, -94, -80, 33, -47, 113, 19, 73, -47, -87, -119, 73, 8, 11, 20, 12, 53, 36, 40, -45, 66, -34, 112, -47, -50, -8, 44, -77, 82, 101, -33, 46, -15, 50, -11, 111, 32, -13, 11, 113, 65, -38, -80, 110, 57, 64, -56, -75, 58, -53, -65, 51, -110, 41, -13, 44, -50, -40, -72, -86, -105, 87, -31, 100, 79, -55, 38, 68, 53, 100, -72, -85, -24, -2, -103, -41, 40, 64, 63, 90, 28, 62, -69, 14, 36, 111, -43, 100, 97, 117, 74, 40, 20, -118, -104, -73, -33, -97, 118, -83, 106, -30, 55, -12, 77, -108, 4, -103, -36, -108, -99, 13, -102, 78, -31, -60, -18, -31, -100, 119, -46, 26, -67, 98, 32, -89, 25, -5, 33, -113, 37, -32, -49, -85, -54, -101, 68, -108, 54, 76, 100, -112, 4, 11, 104, 11, -14, 77, -98, 56, -34, 31, -69, 105, 32, -19, 67, 99, 91, -102, -8, -76, 67, -30, -48, 60, 4, -3, 33, 18, -80, -85, 72, -16, 103, -114, -113, 59, 77, 69, -12, 15, -39, 26, -113, 119, -20, 30, -77, -109, 56, -69, 7, 50, -111, 74, 20, -6, -15, 34, 49, 84, -66, -19, 11, -65, -95, 19, 77, -105, 10, -46, -4, -88, -81, 82, 49, -120, 83, 43, 63, -48, -67, -97, -71, -68, 8, -33, 69, -27, 46, 103, -102, 4, -102, -82, -51, 62, -87, 34, -104, -108, 28, 14, 42, 117, 43, -1, -54, -39, 36, -120, -76, 105, -70, 63, 74, 114, -8, -11, 117, -113, -45, -114, -40, 35, -120, 48, -9, 70, 98, -98, -117, -89, -2, -41, 97, 17, 95, 22, -39, -76, -74, -114, -61, -71, 120, -101, -17, 112, 31, 105, -104, 81, -98, 88, 4, 17, -53, 106, 24, 89, -65, 42, 112, -93, 17, -82, -44, 80, 78, -36, -71, 113, 23, -21, 86, 114, -66, -11, 81, 109, 42, 81, 42, 77, -88, -48, 99, 5, -44, -75, 36, -39, -79, 45, -103, -64, 22, -75, 16, 35, -84, 87, -118, -66, -105, 81, -83, -22, 101, 107, -55, 116, -41, -30, -31, 105, 81, 101, 26, 44, -64, -2, -27, 37, -23, -42, -26, 51, -107, -46, -102, 46, 15, -36, 94, -49, 54, -29, -95, 100, -15, -71, -46, 82, 36, -32, 13, -11, -74, 80, 15, 76, 70, -10, -74, -105, 107, -99, 97, 20, -65, 107, -103, 56, 0, 33, -31, -78, 119, -19, 99, 106, 54, 0, 30, -17, 61, -91, -93, 40, 35, -55, 74, -21, 52, -109, -19, -34, -104, 69, 102, -45, 2, 25, -29, -19, 71, 73, -7, -24, 58, -10, 104, 77, 38, 32, 112, -118, 25, 0, -1, -107, -22, 64, -56, 79, 74, 12, -70, -40, 65, 111, 81, 61, -103, 6, 0, 21, -32, -50, 81, -78, -93, 86, -119, -29, -10, 8, -93, 118, -48, 36, -12, 98, -48, 56, -42, 83, 112, -66, -119, 59, 114, 10, -81, 32, 92, -75, -97, 98, 16, -35, -36, -40, 4, 30, 35, 96, 74, 94, 95, -89, -41, 118, 52, -84, 48, 19, -41, 59, -1, -4, -96, -22, -98, 7, 13, -35, -77, 17, -14, 15, -27, 73, -72, -46, -43, 12, 102, -26, 38, -78, -69, 44, -38, 101, -90, 99, 50, 28, -32, -43, 49, -15, -57, 31, 18, 57, 108, 47, 71, -84, -58, -56, -95, 13, 93, -86, -115, 20, -26, 78, 18, -96, 30, 33, -112, 101, 5, -77, 44, 39, -29, 81, -66, -103, -45, -79, 45, -58, -75, 29, -47, -79, -78, -56, -18, -55, -7, 94, 83, -44, 51, 92, 20, 3, 71, -101, -10, 117, 111, -41, 66, -48, -64, 45, -60, 54, -112, 34, -84, -105, 36, -116, -98, -104, 101, 70, -101, 63, -119, 103, 77, 49, 110, -35, -101, -106, -7, -72, -12, -40, -48, 97, -31, -106, 5, 58, 73, 1, 20, 15, 82, 10, 17, 59, -99, -39, -13, 22, 58, -49, -81, -18, -7, -82, 112, 26, -47, 29, 11, -102, 35, 71, -54, -20, -90, 6, -40, 4, 47, 87, 46, 41, 60, -74, -96, 56, 16, -75, -83, 16, 17, 117, 94, -58, 13, -12, -88, 72, -87, -76, -58, -47, -114, 107, 45, -30, 81, -35, 119, 102, 42, 88, 86, 41, 73, -21, 89, 17, -87, 120, -113, 10, 23, -23, -74, -13, -30, -49, 83, 31, 0, -38, -28, -24, -54, -105, -85, 44, -87, 16, -106, 25, -30, -77, 29, -106, 31, -52, -44, -73, -82, -33, -26, 48, -88, 57, -109, 29, -35, 23, 69, -59, 107, 35, 111, -97, 87, 91, -32, 64, 6, 8, -112, 63, 57, 44, -7, 45, 74, -20, 106, 66, 55, -77, 93, 9, 5, -15, 51, 34, 19, 113, -112, 47, -21, -86, -40, 14, 111, -24, -18, 66, 108, -36, -29, -11, -57, 46, -59, 100, -48, -3, 104, -90, -94, -23, 54, -55, -94, -42, -96, -102, -110, -34, 43, 33, 17, -118, -118, 92, -58, -11, 82, -90, 77, -54, 8, -21, -41, 66, -74, 56, 94, 91, 79, -12, -49, 120, -33, 107, -62, 43, -69, -81, -86, 7, -4, -50, -35, -64, -54, 34, -24, -42, -62, -54, 6, -34, -72, -44, 39, -116, 42, -94, -117, 80, -68, 45, -54, -11, -108, 103, 68, 10, 106, -21, -102, 9, 53, -81, 41, 90, -80, 4, -73, -32, 93, 13, -73, 113, 54, -113, 56, 52, -33, -55, -1, -55, 29, 109, -7, -100, 72, -116, 102, 40, 32, -106, -100, -16, -51, -102, -89, 39, 39, 11, -8, -63, 54, -22, -48, 3, 112, 36, -49, -42, 49, -30, 66, 9, -78, -50, -52, 57, 56, -14, 109, 90, -18, 5, 102, -49, 86, 110, 85, -102, -63, 104, -8, 24, -105, -36, -119, 57, 74, -97, 82, -38, 36, -56, -47, 22, -48, 38, 49, -55, -89, 32, -83, 99, 4, 65, 15, 29, -7, 99, -97, 52, 64, -83, 118, -58, -65, 68, 55, -116, -10, 76, 113, 39, -78, -2, -110, -39, -71, 4, -4, 71, 17, 12, -16, -73, -61, 53, -92, 61, -13, 39, -85, 114, -59, -41, 114, -1, -58, 47, 97, -91, 26, -86, 68, -42, 74, 80, 53, 109, -93, -21, 109, -13, -80, -109, -107, 0, 92, -3, 81, -28, 79, 23, 35, 51, -16, -57, 102, -84, 106, -91, 117, 88, -71, 39, 10, 107, 70, -36, 36, 99, 55, 6, 88, 50, -97, -62, -60, -97, 70, -114, -51, -109, 108, -112, -99, 104, 41, 10, 10, -115, -56, 51, 23, -96, -2, -12, -91, -55, 103, 13, -94, -97, -119, -117, -83, 22, -100, 60, 60, 65, -53, -117, -82, -36, -103, -55, 102, -5, -74, -20, 40, -43, -5, 62, 78, -98, 52, 29, -25, 81, 47, -68, -26, 40, -26, 43, -81, 79, -75, -82, 1, -13, -59, -3, 46, 17, 35, 47, -103, -46, 32, -22, 6, 93, 14, 16, 22, -85, 116, 71, 86, -71, -11, -113, 53, -52, 112, -3, -19, 109, -83, 86, -76, 38, -118, -7, -42, -46, 27, 3, 30, -57, -106, 70, 45, -80, 84, -65, -72, -117, -93, -44, 3, -42, 40, -42, 105, 67, 119, -72, 71, 15, 76, -74, -65, -100, -54, 97, 77, 65, 77, -53, -89, 16, -97, 22, 48, -7, 105, 119, -10, 13, -1, -45, -14, -86, 97, -27, 14, -73, 73, 35, -31, 104, -21, -9, -15, -5, 78, 23, -27, -49, -100, -114, 4, -54, -62, -102, 70, -89, 10, -73, 109, 32, -51, -77, 21, -54, -22, -81, 39, 64, 102, -9, 103, -49, 28, 70, 47, 16, 95, 5, -56, -106, 87, -15, -84, -92, -8, 9, 31, 35, -98, -35, -48, -93, -29, -79, 43, 53, 40, 89, -20, -98, -109, -13, -76, -58, -41, 105, -32, 15, 94, 79, -38, -37, 5, -54, -116, 99, 100, -103, -79, 59, 95, -43, -107, -16, 13, 34, 86, -7, 0, -21, 18, 38, 52, 42, 90, -112, -60, 87, 76, -52, -27, 64, 17, -70, -35, 45, -85, -50, -75, -4, -54, 98, -16, 108, 21, -13, -94, -112, 68, 54, -42, 19, -24, 6, 71, 104, 54, -46, 1, 46, 4, 7, -19, -53, 102, -118, 42, 113, 89, 92, -72, 84, 27, -68, -119, -9, 72, -14, 108, -71, 29, -69, 40, -76, -48, 110, -26, -47, 107, 100, 92, -115, -63, -120, 58, 42, -33, -69, -64, -94, 88, 13, -58, -39, 48, 47, -59, 43, 23, -1, -31, -42, 116, -120, -60, 61, 37, 93, 109, 24, -34, 68, -15, -55, -108, 0, 71, 80, -97, -3, -99, -112, 57, -29, -60, -13, 54, 51, 83, -94, -75, -30, 56, -105, 12, -12, -18, 92, -75, -10, -7, 21, -67, -105, 15, -44, -108, 6, -105, -98, -78, -66, 42, 24, -35, 47, 15, 90, -23, -12, -60, -27, -21, -114, -41, -75, -44, 111, -13, -97, -94, 62, -14, 107, 32, 49, -33, 36, 71, 80, -55, 35, 7, 55, 59, 74, 113, 110, -8, -84, -102, 92, 73, -75, 115, 57, 29, -2, 58, 12, 67, -5, 30, -56, -11, -59, -58, 60, 75, -117, 20, 117, 104, 58, -18, 81, 61, -96, -80, -43, 96, -40, -103, 69, 57, -15, -41, -56, 97, -58, -47, 113, -7, 90, -82, -86, -12, -30, 2, -70, 72, 46, -71, 43, -88, -86, -89, -100, -100, -111, -39, 6, 120, 119, 4, 1, 13, 29, -77, -15, 64, -12, 63, 61, 79, -42, -41, -111, -104, -120, 72, -27, 68, -29, -45, 86, 110, 68, 77, 3, -84, -74, -115, -51, -56, 114, 43, 6, 42, 120, -106, -83, -33, 39, -9, -29, -67, -108, -86, 108, -103, -46, 69, 89, 117, -11, 35, -118, -81, -118, 26, -68, -67, -110, 98, 53, 58, -44, -64, -32, -38, 111, -100, -85, -63, 89, 26, -113, -9, -75, 14, 51, 117, -63, -64, 117, -111, -56, 29, -6, 83, 44, 109, 88, -115, 68, 45, 13, 108, -12, 1, -40, -19, 118, -21, 7, -57, -88, 77, -49, -114, -81, 37, 16, -82, 16, -78, 94, 91, -21, -29, -109, 51, -77, -26, 15, 35, 42, -78, -73, 108, -22, 12, 88, 64, 67, 78, -99, 95, -69, 106, 91, 117, 43, -23, -67, -51, -17, -83, 34, -87, 63, 57, 29, 117, -84, -109, 5, -18, 41, 66, 88, -101, -4, -34, 99, -112, 0, -57, 60, 62, 47, -97, 5, -88, -25, 111, 95, 88, -8, -3, -92, -82, -31, -120, -9, 118, -65, 50, -3, -8, -54, -120, 87, -86, -24, -87, -9, -52, -6, -26, -15, 18, 70, -29, -47, -8, 65, -106, 89, -10, 50, -96, 119, 67, -99, 120, 53, 105, 1, 16, -93, 102, 38, -20, 56, 82, -77, -20, 37, -20, -16, 51, 4, 120, 98, -42, -23, -36, -69, -102, -97, -117, 78, -90, -109, 107, -15, -70, -90, -18, 4, -62, 0, -94, 31, 60, -54, -103, 63, 34, -28, 96, 79, -97, 35, -44, -52, -72, 94, 57, 81, 31, 102, 93, -29, 75, 14, 26, -102, -50, 1, 7, -43, 108, 1, -88, -75, 12, -10, 99, -79, 117, -119, 111, 37, -69, 108, -41, -59, -56, -117, 10, 36, -79, -73, 28, -57, -11, 29, -117, -56, 94, -11, 71, 19, -92, -32, 29, 60, -34, -97, -38, -7, -33, 53, 62, -35, 77, -10, 6, -25, 31, 31, 100, 88, -20, -82, 45, -10, -38, -19, 29, 101, 89, -38, -58, -104, -61, 85, -40, 89, 47, -17, 44, 77, -89, -77, -86, -21, 83, -87, -25, -31, 50, 112, 26, -111, -18, 5, -91, -8, -33, 107, -38, 60, -56, -93, -100, -90, -76, 54, 73, 56, 85, 59, -30, -75, -17, -27, 67, 90, 43, 2, 72, 41, 61, -19, -105, 51, -72, -92, 54, 1, -73, 48, -68, -74, -35, 2, 82, 95, 83, 100, -47, -52, 109, -45, 21, 15, -7, 95, 81, -19, 107, 21, -26, 74, -47, -11, -23, -93, -54, -52, 14, -58, 44, 17, -40, 1, -99, 64, -113, 52, -107, -27, -73, 6, 93, 51, 72, 43, 21, -25, 85, 54, 98, 0, -86, 52, -43, 106, 62, -63, 13, -111, 75, -90, -32, 73, 50, 72, -39, -108, -50, -75, -97, -50, 4, -112, 51, 79, -46, -85, 61, -42, -75, 114, 119, 1, -12, 116, 10, 62, -11, -2, 109, -103, 5, 61, -63, 61, 63, -46, 96, -114, 105, -14, 31, 4, 101, 32, -6, -39, -66, 98, 110, 87, 119, 94, -100, 98, -8, 60, -100, -42, 101, 4, -13, -115, -33, 103, 70, 49, 17, -103, 112, -59, 27, 100, 15, 50, 105, -27, -83, 70, 70, -116, -66, -31, -80, -84, 77, -94, 10, 78, -11, 21, -19, 95, 63, 28, 79, 86, -78, -103, 66, 59, 96, -79, 20, -20, 13, -26, -87, -83, -113, 9, -113, -33, 27, -61, -119, 54, -22, 4, -79, -29, -84, 73, -64, -50, -115, -81, -78, 60, -41, 89, -24, -43, 5, 33, 56, -8, 70, -38, 96, -41, -81, -36, -104, -74, 56, 94, 118, 60, 78, -38, 40, 20, 65, 37, 15, -65, 35, 47, -69, 4, 112, 121, -60, 98, 4, 120, -77, -74, -96, -88, -68, -56, 111, 19, -35, -84, 35, 1, 74, 54, -11, -60, -38, -119, -8, -87, 74, -120, 116, 1, -78, 45, 49, 120, 19, 62, 80, -4, -104, -81, 5, -119, -13, 67, -18, -58, 45, 10, 39, -112, 64, 60, -32, 82, 18, -54, -80, 35, -80, 97, 44, 41, -83, 81, 92, -70, -37, 96, -71, 52, 41, -7, 45, 97, -64, 28, -1, -61, 94, -37, -83, 118, -102, 90, -94, -75, 103, -33, -81, -4, 22, -62, 19, -67, 59, 12, -80, -112, -65, 38, -98, 121, 13, -66, 11, -111, -13, -54, -40, 68, 26, 86, -23, -55, -11, -58, -101, -32, 108, 115, -1, 113, 75, 96, 21, -71, -72, -92, -64, 43, -61, 22, 34, -24, -33, -2, 11, 68, -31, -85, 72, 16, 99, 37, 21, -55, 1, -7, 9, 41, 77, 108, -113, 87, -10, -107, -59, -29, 6, 2, -82, 9, 107, -103, -116, -53, 80, -28, -46, -116, -48, 119, 8, 49, 106, 9, -71, -112, -94, -119, -97, 27, 13, 36, -52, 7, 29, 62, -94, 94, -18, 32, -33, 58, -17, 19, 28, -35, -110, -120, -34, 6, 50, 91, 119, 63, -89, 111, 54, 108, -12, 59, 59, 107, -56, 75, 62, -18, 105, 14, 91, -116, -92, -79, 98, -36, -16, -24, -75, 26, 82, 12, 112, -57, 75, -69, 6, 70, -79, -107, 65, 109, 5, -42, 46, -48, 18, -119, -113, -76, -116, 36, -101, 100, 48, -112, -15, 68, -59, -46, -22, -17, 72, 116, 94, -102, -29, -100, -28, 120, 92, -46, -98, -36, -61, -38, 112, 111, -41, -74, -83, 119, 45, -71, 62, 96, -103, 10, -5, 5, -15, 8, -35, -42, -33, -9, -31, -119, -117, -64, 69, 62, 100, 15, 29, 23, 111, -59, 101, -99, -27, -103, 112, 7, 44, 3, 118, 54, -119, 111, 57, 66, 30, -51, 36, 18, -61, -42, 114, 93, -10, 97, -60, 84, 90, 106, 51, 58, 66, 106, -53, -118, -65, -69, 6, -63, -70, 62, -99, 82, -67, 100, 82, 73, -89, 73, 70, 43, 103, -49, -20, 22, 115, -10, 52, -29, -94, -119, -4, -36, -61, 38, -37, 11, -7, -13, -40, -68, -31, -72, -42, -112, 77, -93, 59, 87, -26, 37, 33, -44, -70, 17, 95, 54, 102, -12, -119, -85, -94, -33, 88, 3, 107, 80, -27, 77, 78, -70, 99, 109, -64, -74, 71, -118, -69, -47, -115, -41, 14, 22, -111, -113, 118, -113, -26, -44, -95, -101, 17, 48, 74, 85, 115, -10, 113, -50, 66, 118, 54, 47, 100, 32, -66, 93, 25, 66, 118, -27, -11, 93, 52, 35, 90, 34, 68, 1, 111, -18, 20, 58, -41, -79, 3, -5, 118, -58, 94, 31, -62, -71, 38, 118, -38, 82, -71, -92, 2, -103, -50, 67, -23, 89, 11, -63, 38, -48, -59, 92, -87, 86, 111, -2, -58, 119, 103, -59, 64, -56, 89, -108, 51, 118, 0, -17, -5, -36, -1, -115, 30, -1, -105, -55, -12, 8, -81, -54, -87, -54, 105, 6, -98, -51, 54, 32, -78, 25, 48, -54, -42, -13, -41, -55, 98, 107, -82, -69, 114, 114, -104, 58, -5, -9, 89, 15, -100, 43, -12, -64, -98, -31, -4, 79, -86, -80, -51, -68, -44, 98, 109, 13, 90, 3, 97, -71, -77, -14, 104, -116, 106, 92, -61, 2, 84, 16, -7, -19, -32, 38, -60, 10, -65, 32, 120, 56, 41, 80, -1, 57, -80, 55, 19, 94, 83, 69, -86, 65, -5, 70, -102, 71, 98, -49, -61, 38, 69, -38, -30, 42, -63, -32, -49, 79, -54, 13, 49, -119, -60, 89, 27, 32, -112, 12, 13, 86, -113, 17, 21, 82, -40, -3, -58, 100, -111, 80, -17, 62, 100, -102, -66, 89, 10, 99, 70, -5, 34, -72, -31, -108, 102, 3, 29, -18, 19, -20, 115, -66, 6, -114, 32, -2, -109, -69, -46, 61, -58, 82, 77, 54, -5, -106, 60, -76, -61, 80, -13, -16, 51, -34, 10, 13, -16, 103, -51, 10, 115, -90, -38, 6, 12, -42, 79, -76, 54, -33, -10, -46, -117, 70, -110, 84, 101, -31, 41, 60, -40, -91, -38, 106, -70, 115, -82, 29, 63, -44, 90, -59, 115, -78, 111, -120, 25, -50, -59, 37, -86, 90, 77, -74, 23, 109, -19, -56, 88, -16, 64, 29, -90, 50, 50, 107, 67, -104, 10, 73, 46, -26, -3, 2, 97, -52, -38, 11, -107, 47, -82, -78, -96, -50, -79, 79, 17, -14, 54, -34, -47, -83, 94, 62, -63, 22, 35, 56, 83, -83, 111, -3, -21, -107, 53, -56, -34, 65, 30, 52, -100, 37, -120, 95, -119, 113, 53, -49, 25, -92, -71, -107, 115, 49, 113, -76, -116, 4, -32, -70, -109, -10, 118, 83, -54, 101, -54, 10, 91, 115, 95, -12, 40, 45, -80, 58, 75, 77, -96, 102, -6, 99, -35, 87, 9, 8, -76, 70, -83, 20, 17, -104, 61, 14, 10, 105, 81, -3, 66, 111, 15, 95, 99, 39, 11, 11, 18, -92, -101, -59, 57, 116, 91, 67, -57, 104, 55, 11, -113, 54, 61, 31, 90, 71, -113, 58, 107, 27, -78, -5, -89, 13, -93, -100, 6, 116, -33, 115, 16, -111, 114, 107, 109, -93, 27, -46, 63, 62, -94, 46, 92, -102, -120, 23, -54, -49, -73, -30, -86, 68, -108, -5, 78, -12, -47, -118, -25, -17, -17, 28, -29, -1, 37, 89, 57, -66, 116, 92, 94, 16, -85, 55, -44, 48, -56, 41, 116, 112, -108, 39, -24, -85, 74, 77, 47, 22, 71, -10, 75, -95, -35, 0, -35, 121, 89, -75, 13, -45, -23, 17, -56, -111, 104, 107, 97, 97, 1, 102, -113, -32, -51, 108, -16, -45, -100, -24, 51, 78, 19, -91, 60, -53, 34, -60, 67, 35, -32, 34, -112, 79, 39, 119, -79, 25, 47, -16, 78, 40, 54, 84, 72, -3, 119, 6, -106, 41, 11, 43, 103, 4, -31, -120, 43, -105, 66, -100, 101, -64, -111, 95, 117, -99, -113, -32, -72, 55, -109, -17, -62, -85, 24, 78, -104, -45, -107, 116, -67, -93, 113, 2, -18, -48, -59, 54, 82, 102, 119, 52, -115, 53, -102, 60, -104, 29, 105, -2, -99, 107, 32, 102, 19, 45, 108, -72, -4, 35, -48, -8, -86, 9, 121, 1, 64, -102, -4, -40, -10, -27, -14, 4, -17, 113, -62, 102, 45, -45, -110, 84, -38, 25, 54, 4, -52, -73, -2, -13, -15, -42, 58, 45, -59, -28, -41, 89, -28, -81, 15, 57, -107, 91, 50, -36, 23, -24, 56, 36, -63, -34, -62, -59, 117, -117, -102, 86, -35, 37, 56, 18, -95, 26, -71, -63, -107, 72, 87, 1, -91, 78, -36, 58, -87, -109, -44, 88, -26, 21, -99, -62, -23, -34, -103, -26, 39, 68, -3, 107, 112, 83, 0, -11, 11, 72, -63, 112, -46, 73, 70, -23, 116, -38, 95, -36, 31, -72, 67, 114, -74, 83, 115, 107, 27, 114, -89, 74, 7, -45, -120, 72, 53, 5, -45, -16, -69, 86, -107, -18, -50, 91, -120, -44, -17, 57, -87, 108, 27, -111, 29, -81, 13, 112, -36, -8, 47, -39, 91, 35, 25, 32, -118, 13, 41, -9, -106, 64, -69, 17, -29, -36, 108, -81, -34, -62, 117, 96, 119, 47, -74, -119, -95, 44, -40, -11, 96, -83, 86, -27, -38, 82, 38, -38, -8, 31, -100, 91, -120, 21, -28, -70, -29, 91, -37, 94, -118, 63, 99, 70, 41, -65, 70, 118, 112, 90, 99, 36, -106, 43, 0, 85, 101, 108, -92, 105, -53, 4, 107, -53, -66, -32, -30, -51, -35, -89, -93, 110, 12,