#include "nnom.h"

#define CONV2D_KERNEL_0 {20, 82, 32, -104, -107, -12, 15, 95, 91, -56, 37, 69, -93, -83, -98, -65, 108, 84, 91, -82, -85, 30, -28, -11, -25, 67, -99, 63, -19, 115, -5, 106, 120, -42, -43, 10, -31, 109, 85, -110, 56, 96, -72, -52, 60, -74, -63, 76, -100, 98, 59, -21, 100, -108, 6, -32, 69, -78, 93, -52, 1, -75, -19, -87, 84, -85, 28, 79, 10, -48, 90, -5, 59, 88, 20, -9, -71, -55, -78, 17, -86, -113, -36, -67, 74, 24, -111, -91, -54, 108, -12, -2, -9, -118, 9, 80, 107, -46, -27, -7, 14, -25, -35, -17, 100, -39, -99, 0, 86, -101, -53, -93, 108, -81, -13, -8, 111, -40, -34, -81, -80, 19, -67, 65, -99, -22, -19, -70, -6, 120, -84, -103, 37, 115, -81, -89, -56, -24, -24, 37, 60, 35, 88, 68, -93, -15, -81, -75, -108, 81, 61, -19, 120, -61, 95, -46, -82, -27, 108, 32, -116, -6, -54, -10, -42, 87, 94, 78, -33, 120, 116, 94, 1, -48, 6, 102, 85, -36, -8, -25, 17, 45, -21, 36, -53, -100, -102, 114, -67, 38, 93, 80, 108, -26, -117, 117, 80, -47, -26, 57, -22, 105, 86, 99, 64, -97, 36, -75, -31, 96, -36, -78, 118, 82, -28, 44, -48, 65, 78, -55, 109, -118, 32, 64, 80, 27, 22, 3, -26, -88, 109, 61, -77, 64, -70, 45, -98, 76, 37, 94, 84, -10, -73, -106, 31, 84, 93, -2, 23, -35, 71, -79, 98, 1, 9, 109, -16, 119, -68, 77, 90, -86, -93, -66, 104, 57, -33, 38, -121, -102, -49, -89, 10, -70, 28, -61, -97, -106, 104, 63, -90, -1, 37, -58, -119, 98, -52, 13, -49, -23, 32, -119, -107, 24, 69, -9, 109, 62, -67, 17, 8, 77, -8, 71, -42, -89, -61, -101, -6, -23, 56, -8, -57, 67, 9, 117, 116, -27, 110, -49, 45, -117, 47, -51, -104, 83, -90, 24, 7, -44, 116, -11, 116, -31, 14, -42, -9, -36, 109, -40, -22, -77, 33, -105, -63, 67, 19, 19, 42, -36, 109, 113, -72, 29, -15, 115, 88, 118, -42, -7, 34, 104, 41, -16, 13, -69, 109, 58, -83, 35, 68, 56, -99, -100, 114, -29, -36, 47, 26, -79, 9, 56, -60, 70, 119, 113, 60, -102, 70, 39, -83, -91, 13, 54, -26, 33, -84, 8, 13, 41, -101, -62, 8, 109, -34, -104, -98, 115, 19, -39, 69, -70, -76, -5, -43, 9, -41, -12, -36, 53, -78, 23, -60, 9, -12, 91, -32, 24, 30, -87, 104, 108, -12, 65, 81, 58, -106, -110, 69, 66, -18, -93, -36, 37, 117, -56, 11, 73, 13, -31, 7, 54, -16, 83, 78, 35, 59, -13, -34, 108, -1, -11, -98, 37, -73, 33, 72, -40, -92, -43, 65, -100, -118, 117, -105, -71, 55, -99, -23, 14, -96, -118, -2, 113, 43, 50, 102, -68, 92, 80, -42, -58, -25, -98, -92, -40, -98, 22, 40, 24, -101, -110, 89, 94, -43, -106, 82, -27, -67, -13, 41, 89, -35, -47, -42, 79, 62, 74, 40, 111, 20, 35, -5, -56, 28, -78, 62, 0, 58, 33, -24, 104, -39, -109, 2, -41, 1, 38, -14, -18, 31, 57, 36, -50, 85, 31, -48, -80, 25, -14, 28, 98, -8, -5, -36, 37, -94, 21, 66, 77, -11, -104, 96, -81, -97, -54, 52, -46, 60, -89, 7, 12, -94, 19, -42, 82, -102, 73, -35, 3, 31, -84, -1, 55, -91, -54, -83, -103, 28, -17, -106, 87, -103, -4, -84, -114, 1, -18, 48, 74, -59, -21, 100, -3, 113, 40, 114, 12, -108, -30, 90, -68, 46, 46, 90, 19, -95, -41, 77, -92, 28, 3, -116, 65, 14, 37, 17, 100, 75, 68, -112, 106, 24, -52, 47, 80, 66, -1, 23, 121, -70, -71, -62, -90, 116, -22, 94, 108, -113, 93, -115, 105, -118, -36, 8, 53, -109, 16, 17, -42, 65, -58, 39, 113, 4, 10, 99, 115, -9, -90, -71, -60, -42, 64, -112, -101, -114, 100, 39, 70, -46, -33, 2, 59, 56, -83, 10, 70, 71, 80, -29, 15, 12, -93, -51, 51, 114, -70, 117, -112, 113, -75, 50, -78, 27, 3, -101, -72, 101, -41, 114, 88, -109, -7, -84, 39, -85, 29, 3, 39, -119, -20, -32, -36, 108, -63, -107, 6, 103, 67, -58, 31, -18, 21, 100, 101, 21, -86, -15, -55, -86, -91, 70, -79, 28, 35, -86, 83, -81, -37, -5, 93, -28, 44, 0, -107, -119, -36, 102, -23, -79, 30, 96, 94, -80, -55, -71, -116, -75, 9, 72, 84, -1, 59, 17, 2, 81, -47, 37, -57, 114, -71, 28, 76, 15, 88, -42, 80, 73, 17, 67, -106, 48, -5, -47, -46, 107, -89, 111, 89, -44, 93, -10, -41, -86, -31, 45, -113, 112, 62, 92, 69, -68, -104, -77, 80, -20, 112, -94, 56, -47, -45, 55, 12, 49, -78, -54, 23, -116, 82, -91, -20, 31, 20, -28, 44, 91, 84, -8, -47, 88, -1, -120, 47, 36, 43, -13, -6, 88, 109, 29, -43, 112, 75, 94, 4, 113, -76, -20, 4, -77, 93, -63, -68, -89, -81, 112, -97, -70, -29, 116, -50, -27, -11, -59, 45, -54, -30, -5, -96, -56, 62, -72, 106, 116, -39, 118, -110, -98, 33, 88, 53, -17, -28, 59, 54, -49, 72, 38, 71, 26, 100, -24, 66, -42, 113, 12, -49, 57, 22, 34, -3, 84, 0, -17, 52, 10, -6, 26, 114, 1, -60, 110, 118, -120, 30, -6, -117, -107, -82, 102, -79, 82, -35, 75, -27, -40, 69, 53, -35, -28, -84, -63, 14, 118, -37, -56, -101, -65, 1, -67, -50, 34, 97, 80, -26, -49, -80, 48, -75, 22, -51, 29, -60, 11, 111, 66, 12, 34, -86, 74, 50, 38, -113, 33, -95, -2, -46, 90, -59, -87, 69, 69, 66, 84, 41, -4, 66, -75, 108, -67, 2, 105, 76, -14, -23, 88, -53, 41, -59, 91, 83, -50, -11, -72, -55, -51, -62, -46, 87, -53, 88, 99, 54, -38, -8, -112, 17, -91, -82, 47, 121, 44, 109, 46, 35, -17, 57, 113, 16, 38, -102, -18, -48, 40, -105, -3, -64, -63, -16, 96, -23, -59, -65, 54, 30, -80, -2, 4, 36, 74, 69, -98, -117, 65, -56, 56, -73, -64, 74, 78, -2, 33, -110, 23, -10, -13, 69, 39, -77, -76, -108, -91, -65, -41, 19, -4, -108, -31, -107, 93, -107, -91, 39, -47, 58, 38, 18, 83, 82, 66, 66, -113, -20, 105, -31, 16, -57, 19, -113, 43, -3, 27, 73, -95, 31, 30, -96, -80, -98, 52, -71, 19, -112, -40, 7, 85, -18, 68, -34, 11, -78, -72, -55, 8, -90, -5, -29, -12, 53, -63, 112, 80, -104, 77, 70, -107, 76, -115, 71, 115, -6, -19, 93, -37, 56, -95, 1, 24, 49, -76, -18, 46, -113, -48, -24, -14, 50, -57, 17, -75, -4, -19, 75, 69, 98, 40, -104, 84, -30, -109, -54, -44, -16, 29, 116, 104, 76, 8, -10, -58, 87, 27, -61, -64, -11, -16, -80, -20, -91, 69, 74, 105, -41, -89, 65, 67, -38, -110, -22, 79, -119, -120, 114, 63, -97, -98, -86, 78, -72, 60, -119, -7, -58, -12, -15, 26, -100, 60, 27, -70, 72, -57, -71, -11, 80, -107, 53, -20, -1, -46, 49, -42, -48, 33, 77, 114, 70, 110, -21, 101, 50, -70, -66, -15, -38, -69, -18, -71, 102, 27, 63, 116, -87, -51, -52, 52, 9, 106, 116, -23, 25, -109, 73, 111, 33, 102, 36, 63, -52, -68, -83, -74, -4, -54, -106, -14, 25, -48, 0, -118, -75, -77, 118, 120, -9, -78, 32, 69, -46, 69, 73, 72, 76, -49, -115, -44, 18, -62, -115, -99, 90, 17, -38, -76, -109, -82, -15, -40, -97, -71, 89, -104, -42, 45, 6, 110, 37, 83, -97, -14, 91, -41, -16, 20, 11, 26, -37, -27, -23, 98, 15, 70, -10, 115, 104, -52, 51, -120, -16, 24, -105, -14, 83, 115, 79, 105, -27, 114, -117, -77, -96, 13, 53, 57, -33, 24, 77, -78, 35, 38, 69, 59, -116, -24, 55, 22, -100, -85, -3, 82, 14, -87, -1, -3, -63, 69, 67, -14, -58, -84, -15, 28, 116, -66, 53, -34, 16, 51, -75, -95, 39, -6, -50, -80, -35, -93, -17, -22, 116, -115, -102, 70, 113, -74, -86, 98, 111, -97, -86, 65, 2, -67, -51, 106, 96, 29, 24, -116, -57, -83, -105, 59, 66, -95, -19, -38, -6, 113, 83, 21, -51, 71, -9, -5, -75, 54, 6, -24, -19, 3, -62, -26, 49, 22, 110, -107, 44, 80, 37, -67, -4, 34, 42, -70, 17, 3, -115, -106, 98, -73, -63, -90, -47, -118, -103, -100, -55, -111, 101, 112, 114, -30, 36, 100, -14, -79, -8, -90, 17, -57, 93, 42, -69, 62, 112, -34, 31, 91, 68, -7, 55, 98, -45, 52, -8, -3, -81, 57, -82, 33, -27, -16, 3, 86, 15, 119, 113, 35, 42, -4, -103, -25, -48, 96, 6, 101, 35, -102, 59, 40, -3, 82, -116, 71, 18, -52, 70, -100, -3, 26, 13, -54, 19, 3, -39, -65, 45, -60, 8, -7, 6, -18, 18, -109, 67, 6, 47, -116, -66, 30, 52, 20, -85, 57, 62, 45, 104, 93, -19, 46, -30, 118, -111, -22, -57, 30, -49, -107, -78, 50, -19, 108, -94, -86, -119, -102, 92, 93, 14, 118, 75, 15, -64, 113, 103, 114, -82, 38, -76, -30, 58, 19, -105, 8, -44, 96, -33, -11, 64, 60, -42, -107, 40, -13, -65, -59, 48, 43, -51, -93, 49, -64, -30, 7, 37, -43, 57, -94, 9, 20, -44, 53, -64, 91, -54, -79, 69, -85, -24, 50, -44, 91, -78, 106, -58, -119, -95, -84, -90, 67, 19, -10, 76, -59, 118, 49, -32, 85, 112, -69, 39, -67, -27, -88, -117, -34, 90, 68, -88, -112, 119, -36, 99, -87, -94, -84, -48, -91, 75, 113, 96, -38, 79, 59, 75, 90, 116, -111, -115, 12, -90, -23, -92, 110, -41, -114, -23, -19, -27, 63, 111, -63, 116, 2, 33, -83, -86, 106, -96, -99, 35, -66, 95, -34, -33, 7, 36, -36, -72, 93, 38, -1, 58, 73, -65, 23, -68, -114, -63, 17, -103, 35, -5, 102, -10, -57, 61, -85, 27, -14, 83, -100, 57, 38, 118, 107, -56, 87, 12, -61, -7, -85, 57, 19, -50, 37, 79, -103, 78, -77, 40, 0, 105, 71, -21, 94, -68, 18, 24, 78, -66, 66, 2, -54, 61, 67, 80, -4, 89, 45, 112, 109, -27, 92, 105, -86, 102, -39, -60, -85, -52, -64, -23, 67, -103, -27, -76, -37, -98, 40, -16, -111, -103, 44, -21, 101, 37, 57, -108, -34, -99, 94, 61, 42, 56, 104, 50, -86, 89, -102, -41, 40, 62, -94, -72, -94, -7, -53, 17, -74, 13, 32, -74, 81, 11, -46, -59, -53, 53, 52, -67, 90, 8, 26, -120, -6, 86, -114, 89, -100, 81, -60, 23, 9, -36, -83, 112, 100, 102, 118, 82, -86, -107, 79, 21, 90, -111, -71, 75, 112, -13, 29, -91, -11, -99, 15, -111, 63, 62, 60, 61, 8, 26, -102, 104, 49, 78, 105, -40, -68, -120, -64, 53, -33, -11, -92, -50, -58, -113, -21, -106, 35, 86, -103, 51, 48, 57, -24, -26, -31, 117, -90, 99, 11, 47, 49, -20, 14, -7, -2, -85, -8, -21, 111, -119, -60, 75, -67, 102, -115, 37, 101, -68, 64, 38, -25, -76, -84, -90, -58, -2, -90, 49, -119, 83, -115, -52, 65, -14, 59, 6, -22, -19, 48, -43, -21, 41, 96, 94, -16, 41, -8, 9, -69, -34, -93, 2, -52, -45, -47, -111, -100, -12, -49, 56, -82, 26, 100, -102, 95, -109, 94, -14, -75, -44, 79, 105, 43, 3, 0, 46, -58, -41, 14, -104, 11, 57, -88, -58, -5, 3, 82, 43, 101, -84, 53, -12, -37, 37, 90, 69, -76, 66, 32, -115, 37, 0, -6, 66, -79, 92, 54, -99, 98, -39, -57, 102, -29, 88, -17, -119, -84, 57, -15, -65, -22, 42, 72, -39, -26, 119, -84, 74, 36, 59, -77, -51, 6, -85, -72, -51, -12, 56, 29, -90, 40, 66, -46, 39, 101, 84, 72, 26, 111, 119, -109, 107, -119, 56, -58, 29, -16, 40, -20, 29, -40, 6, -65, -97, -63, -81, 85, -8, 20, -18, 70, 38, 35, 39, -14, 14, 18, -34, 79, 21, -64, -19, -38, -23, -3, -88, -114, -46, -92, 18, -94, -34, -16, -120, -117, -18, -64, -18, 113, 40, 49, -100, -91, 106, 89, 103, 56, -15, -51, 38, -56, -102, -35, -83, -41, 69, 101, -76, 116, -10, 59, -112, -23, -48, 68, 63, -58, 51, 2, 120, -59, -115, 111, 32, -71, -74, 43, 37, 65, -67, 43, 19, -14, 34, 13, -78, 27, 4, 85, -111, -77, 5, -14, -57, 105, 69, -48, -64, 53, -111, 116, 37, 62, 54, 20, -10, 92, -104, 91, -45, 72, 13, -38, 20, -120, -27, 85, -60, 58, -9, 6, 47, 50, 10, 59, 20, 79, 7, -34, -1, -77, 17, -98, -74, 104, 29, -42, -94, 19, 31, -55, 20, -115, -108, 41, 9, -29, -109, 47, 22, -101, 3, 65, -24, 18, 3, 49, 23, -30, -43, -108, 46, -33, 39, 51, 104, -52, 101, 119, -90, 16, -68, 30, 2, 36, 20, 69, -34, -82, 47, 23, -53, 31, 15, 88, 90, 1, 68, -65, -68, -98, 110, 114, -105, -20, 62, -55, -10, 67, -12, -18, 33, -94, 34, -75, -46, 93, 11, -20, -43, 4, 45, 60, -45, -48, -102, 26, 58, -64, 114, 6, 51, 12, 118, -66, 30, -66, 63, -20, 28, 87, 80, 72, -83, -96, -70, 71, -6, -65, 114, -101, 90, -47, -93, -91, 26, 63, -43, 44, -82, -36, -69, 23, -32, -88, -20, -89, -33, 13, 115, -16, -117, -40, 51, -108, -96, 83, -78, 48, -101, -93, -107, -12, -63, -81, -24, -78, 112, -4, 92, -88, 1, -99, 53, 96, 101, -27, 94, 19, -69, -33, 7, 12, 33, 102, -29, -105, -83, -98, 30, -67, -72, -58, 115, 75, 97, -9, 106, -24, 15, -67, 59, -104, -111, -91, -91, -77, -17, 18, -119, 60, 118, 103, -49, 89, -111, 50, 102, -95, -66, 23, -14, 53, 96, 42, 102, 108, 27, -109, 74, -101, -59, -53, 73, -62, -23, 44, -77, 96, -69, -23, -53, -106, 110, 120, 65, 56, 46, -83, 56, -13, -95, 57, -58, -88, -118, -83, 43, 80, 120, 62, -112, -22, 5, 76, 35, -105, 53, 33, 12, 92, -116, 51, -37, 60, 55, -72, -77, -99, 100, 22, -6, -18, 94, -34, 120, -31, 15, -106, 49, -76, 9, -82, -35, -8, 25, -76, 21, 118, 85, -106, 31, 28, 73, -86, 75, -90, 2, 23, -19, -78, -119, -13, -108, 94, -93, -67, -55, 10, 106, 78, -64, -97, -117, 76, -93, 59, -77, 1, 76, -51, -47, -78, 85, -100, -49, 99, -43, -59, 6, 101, 89, 79, 14, 11, 99, -36, -40, -63, 90, 22, 24, -107, -97, 79, -15, 119, 108, -80, -36, -66, -68, 82, 46, 0, 68, -57, 104, -68, 80, -117, 6, 11, -100, 59, -76, -56, 104, 25, -62, 16, -43, 89, 52, 113, -12, 73, -13, 120, -30, -104, 93, -44, -90, -9, -13, 26, -111, 25, -79, -69, 81, 42, -73, 19, 108, 112, 10, 6, 86, -31, -20, -30, -31, -88, 71, -55, 58, 118, 6, -51, 3, 48, 32, -16, 102, 101, 10, -6, -49, -17, 118, 94, -49, 95, 5, -26, 42, -84, 28, -84, -20, 16, 36, 24, 4, -71, -92, 91, -49, -54, 105, -10, 38, 44, 37, 119, -60, -77, 63, 49, 22, -35, -120, 5, 11, 39, -11, 8, -115, -58, 97, -27, 98, 38, -110, -69, -5, -51, 85, 91, 39, 44, -91, 23, 41, 15, -12, 63, -31, -35, 43, -6, -43, 74, 45, -69, -10, 86, 72, -81, 104, 10, -92, 59, 35, -107, 84, -9, -50, 25, -39, -27, 84, -111, -52, 89, -55, -66, 53, 100, 79, 75, 24, 52, 56, 92, -27, -35, -74, -16, -33, 98, 91, -96, -89, -13, -67, -40, -102, -102, -35, -21, 81, 7, 37, -101, 54, -51, 95, 119, -84, 5, -3, 80, -37, -112, -86, -84, -54, -14, -52, 77, 108, -78, 66, -73, -70, 64, 31, -52, 80, 39, -32, 72, 20, 13, -116, 70, 16, -41, -59, 27, 73, 60, -63, -76, -48, -53, 99, -117, 40, 84, 36, 59, 103, -61, -3, -95, -13, -117, -106, 111, -56, 45, -91, 109, -1, 49, 119, -48, 113, -84, -57, 17, 20, 84, 116, 95, 17, 113, -33, -63, 7, 104, 62, 106, -76, 20, -105, 85, -78, -114, 91, 87, 100, 1, 118, 93, 62, -44, -40, 96, 107, 42, -75, -68, 44, 49, 2, 12, 33, -7, 22, 33, 17, -44, 84, 89, 56, -93, 13, -81, 66, -118, 98, -105, -69, -121, 107, -94, 23, -53, -103, -94, -14, -54, -101, 107, -7, -41, -35, -115, 51, -95, 25, -78, 85, -117, 35, 86, 89, 113, -74, -111, 68, -4, 3, 119, 100, 67, 5, -80, -116, -2, 1, 32, 45, 9, -97, 104, -107, 114, 104, 43, 65, -2, 89, 52, -12, -12, 22, 108, -120, -13, 100, 98, -70, 71, 43, -85, 83, 83, 51, -73, 10, -80, 108, 86, -63, -116, 22, -81, 21, 43, -59, 19, -13, 82, 117, 13, 57, -11, -57, -80, 41, -27, 65, -80, 0, -106, 103, 111, 18, 23, -41, 117, -8, -12, 58, -44, 29, 84, -102, 25, -105, 46, -48, 95, 48, -2, -15, 2, -8, 85, -5, -9, 36, 41, 40, 114, -54, 5, 40, 86, 24, -3, -29, -18, -72, 0, 3, -44, 10, -40, -114, -68, -51, -38, 119, 53, 100, 37, -26, 18, 21, 59, 33, 114, -114, -55, -22, -56, 43, 19, 93, 39, -72, 43, 70, 24, 1, 22, -49, 86, 25, -17, -44, -58, -42, -1, -62, 43, 51, 99, -105, 47, 27, 97, -96, 4, -56, -7, 67, -110, -104, -95, 112, -40, -11, -50, -73, -116, -89, 72, 65, 27, 101, 60, 5, 17, -77, 20, -90, 20, 25, -84, 85, -82, 11, -118, 70, 42, -41, -117, -109, -29, -67, 74, 49, -30, 35, -104, 115, -68, 12, 41, 104, 21, 60, 15, -6, -54, -71, 63, 44, 86, -15, -81, -77, -111, -115, 55, -109, 89, 9, 22, 50, -7, -69, 66, 5, 117, 44, -31, -108, 110, 45, -45, 12, -41, -62, -90, -57, 111, -89, -25, 29, -59, 94, -58, 102, 106, 5, -80, 60, -60, 25, -24, -16, 87, -104, -12, 93, 26, 59, 31, -57, 65, 76, -34, -64, 60, 41, 0, 85, 51, 11, 6, 63, 73, -32, 51, -70, -72, 40, 29, 45, -89, 1, -72, 97, -53, 29, 3, 77, 85, -5, 5, 67, 74, -8, 80, -29, 83, -62, 3, -99, 74, 74, 28, -70, -65, 43, -61, -112, 102, -117, 85, 50, -63, -16, 106, -46, 80, -97, -84, 13, -115, 54, 82, 41, -36, -51, 44, -75, 86, -66, -88, 115, 83, 46, 78, 112, -15, -54, 74, -100, 39, 99, 88, -48, 14, 113, 2, 2, -113, 96, 110, -90, -34, 93, 72, 4, 4, 84, -53, -115, -118, 108, 21, 49, 29, 62, 82, 86, 67, 83, -11, -82, 51, 75, 60, -83, 42, -91, -4, 95, -58, 55, 21, 104, -81, -96, 66, -81, 4, -4, 80, -103, -47, -64, -40, -114, 0, 82, 102, -28, -109, -29, 20, -112, -54, -111, 67, 11, 50, -69, 40, -21, 78, 100, -109, 113, -67, -103, -78, -119, -110, -96, 65, -119, -67, 99, -114, 103, -15, 0, -45, 95, -68, 23, 69, -53, -80, 83, 0, 16, -74, 110, 61, 91, -8, 23, -39, 68, -89, 88, 42, 81, -104, 109, -101, -103, 76, -16, -99, -77, -2, -38, -90, 102, 89, 8, 26, -100, 77, -73, 116, 90, -98, -57, -79, -90, -75, -82, -50, -104, -54, 46, 94, 54, 27, -117, -116, -7, -14, -97, -102, 100, -79, 48, 120, -14, 105, 112, -23, 14, 106, 34, 108, 22, -8, -84, -30, -106, 99, -50, 43, -64, -75, -39, -116, 46, 118, 81, 78, 73, 49, 91, 118, -76, 119, -120, 60, -6, -63, -76, -21, -97, 112, -88, 104, 13, 0, 1, -96, 60, -115, -19, 48, 22, -85, 114, 120, 15, -44, 37, -71, 96, -22, 44, -7, -37, 46, 62, 6, -78, 48, 37, 4, -48, 66, 32, -34, -68, -75, 103, 57, 113, 91, -17, 59, 62, -18, 115, -81, 91, -9, 23, 84, 39, -96, 59, 14, -27, 118, -61, -24, 36, -22, 35, -71, -105, -115, 44, -52, -73, -99, 21, -93, -54, 1, -83, 81, -72, -79, 22, -53, -6, -83, 39, 60, 19, -90, -53, 32, -46, 37, -110, 54, 105, 51, -73, 87, 84, -66, 114, -71, 55, -102, 44, 73, -104, 32, -67, 41, -33, -21, 101, 50, -65, -85, 56, 28, -14, -67, 79, -120, -67, -89, 14, 72, -26, -101, -87, -108, 32, -39, 82, -44, 101, 56, 117, 33, -49, -115, -93, -85, 61, -58, 108, 42, 68, -39, -63, 6, -21, -7, -113, -62, 72, 26, 21, 47, 121, -38, 9, 3, 88, -23, -40, 45, -24, -90, -111, -61, 88, 100, -89, -24, -31, 83, -66, 7, 47, -60, 52, 76, 93, -1, -118, -102, -73, -111, 98, 70, 113, 14, -106, 101, -52, 33, 71, -67, -113, 15, 21, -114, -76, 38, 43, 85, 67, 96, 47, -109, 118, -80, -118, -66, -28, 30, 108, 80, 58, 15, 36, -104, 75, -101, 48, 93, 92, 40, 20, -35, -1, -48, 110, 98, 42, -18, -93, -57, 0, 43, 79, 45, -113, -39, -106, -21, -22, -52, 85, 114, -28, -102, -26, -35, 31, -63, -120, -2, -2, 16, -67, 65, -88, -1, 103, 104, 4, -9, -101, -111, -56, -12, -71, -25, -75, 88, 17, 108, -56, -88, -43, 82, 77, 21, 54, -63, 86, 56, -29, -74, -14, 55, -22, -25, -62, 35, -74, -105, -46, -15, 2, -84, -4, 0, 106, -69, -18, 95, 38, 45, 73, 82, 40, -99, -121, 71, -13, 108, -68, -39, 33, -89, -19, -12, 94, -15, 56, -80, -70, 114, -61, -67, 39, -10, 36, 22, 65, -50, 37, -33, 67, 49, 84, 118, -3, 62, -19, 60, 68, 59, -34, -88, -58, 51, -39, -74, -55, -50, 116, 26, -112, 4, -120, 43, -105, -48, 93, 56, -11, -56, -85, 93, 11, -57, 48, 64, -42, -107, 103, 62, -26, -28, -16, -111, -97, 24, 5, -106, 103, 90, 10, 96, -28, 41, -36, 102, 12, -73, 52, 97, -109, -28, 57, -112, -11, 16, 88, -71, 25, 61, 115, 82, 77, 23, 7, -30, -108, 81, 62, 115, -82, -117, -95, -62, 64, -67, 31, 120, -37, -96, 111, 119, 113, -11, 12, -44, 118, 66, 67, 99, 50, -99, -47, -27, -23, -89, 59, -101, -114, -101, -37, -98, 24, 11, -61, -33, 57, 52, 97, -81, -20, -104, -45, 86, 60, 100, 33, 89, -79, 40, -76, 94, -71, 98, -96, -99, 106, 18, -32, 70, 48, 107, -102, -75, -99, -93, -66, 82, 68, -67, -117, -63, -71, 50, -109, 85, -36, 78, 41, 116, 106, 94, 118, 103, 32, -17, -90, 95, -106, -68, -30, 94, -108, -111, -13, 42, 60, -110, -91, 81, -43, -29, 45, -63, -60, -89, -69, -54, -98, -73, 79, -119, -107, -30, -60, -61, -11, -111, 85, -84, -23, -42, -97, -34, -56, 10, -107, -91, 119, -89, -1, -114, 29, 55, -31, 87, 31, 16, 85, -22, 14, -38, 37, 64, 0, -16, 86, 28, 20, 51, 11, -107, -116, 58, -117, -79, 79, -23, 67, 5, 120, 60, 26, 54, -116, 39, -91, 51, -105, -102, -52, 4, 116, -95, -50, -90, -18, -82, -44, 9, -68, 113, -55, -2, 118, 97, 98, -94, 57, -47, -27, -64, -14, 70, 105, -9, -4, -16, -14, 43, 98, -107, -107, 12, 78, -119, 99, 12, -112, -56, -101, -15, -66, -104, -64, -112, -85, 33, 34, 34, -10, -36, -55, -84, -11, 108, 48, -68, 14, 93, -91, 89, 109, -113, -109, -29, -43, -1, 87, 16, -38, -35, -66, 22, -89, 114, -30, -92, 26, -50, 66, 11, -54, -34, 92, -68, 58, 81, 35, 12, -104, -79, -17, 104, 31, 86, -43, -118, 43, 118, -91, 42, -20, 14, -23, 80, 83, -65, 58, 50, -17, 85, -18, 74, -11, -102, 121, 25, -35, 75, -73, 103, 112, 81, -97, 70, 114, -26, 94, -26, 67, 27, 10, 100, 117, -56, 79, 104, 78, 42, 84, 9, 19, -85, 88, -63, 27, 10, 47, 2, -86, -117, 20, 11, -31, -80, 22, -46, 15, 13, 100, 103, 109, 25, 28, 21, 110, -76, 62, -51, 105, -24, -114, 30, 107, 53, 45, -15, 91, 84, -111, 75, 49, -118, 7, -36, -111, 63, 51, -81, 15, 69, 65, 2, 13, 88, 61, 67, 30, 24, 71, -118, -87, -64, -28, -92, 85, 65, -25, 99, -73, 57, -8, 76, 45, -109, -41, 100, 113, -53, -84, 115, -113, 82, 100, 14, -120, -29, 64, -98, 18, 83, 107, -35, -98, -99, -71, -103, -117, -82, -36, 53, 84, -22, 11, -39, -117, 54, 96, 21, 98, 5, 81, 110, 47, -12, 107, -62, -59, 49, -77, -33, 56, -35, 109, 108, -40, 105, -69, 42, -91, 107, -39, -92, -14, 63, -65, -72, -99, 91, 56, -10, 84, -15, -18, 55, 69, 33, 38, 10, -64, 8, 99, -48, 94, 30, -44, -83, -41, -2, -114, 14, -51, 94, -13, 97, -81, 5, 99, 76, 14, 116, 26, 95, 47, -30, -42, 78, 10, -70, 117, -50, 94, 94, 8, -26, -11, -22, 55, 85, -4, 83, 7, 116, -40, -33, -107, -93, 58, -12, -86, 93, -119, -64, 46, 104, 34, -1, 43, -8, 119, -74, 86, 18, 87, 69, -6, 95, 17, -17, -100, 13, 74, -73, -7, -92, -102, 108, -103, 27, -117, -32, 112, -81, -9, 54, -50, 68, 67, 21, 96, -49, -50, 83, 41, -41, -2, 91, 33, 16, -22, 88, -85, -52, 27, 110, -32, -105, -49, -10, 63, 12, -108, 7, 36, 74, 0, -75, 64, -87, 111, -28, -70, -10, 75, 85, -30, -110, -5, 44, -15, -53, -33, -52, 17, -82, -101, -103, 28, 114, 117, -66, 33, 69, -58, 80, 12, -44, -8, -64, 107, -35, 48, 66, 82, 96, -119, -10, 78, 101, -104, 47, 116, -54, -81, -101, -96, -78, -28, 105, 98, -64, -36, -95, -64, -11, -94, 35, 91, 109, 93, 41, -42, -36, 114, -91, 26, -28, 92, 119, -92, 27, -37, 58, 29, 66, -93, -86, 29, -10, 42, 26, 27, 101, 96, 43, -31, -108, -19, 35, 45, -24, 15, 76, 14, -121, 74, 0, 83, 26, 71, 88, 87, 120, -20, -75, 61, 42, 71, 19, 28, 4, 73, 2, 81, 100, 17, 71, 26, -58, 17, 8, -13, -61, 55, -62, -32, -114, 35, -84, -71, 107, -42, -100, -89, -56, -27, -107, -37, -48, -78, -13, -3, -26, 119, -107, -102, 70, -61, 19, -52, -118, 96, -106, 24, 38, 115, 98, -64, 79, 34, -79, 104, 116, 30, 91, 57, -105, 109, -17, 113, 97, -83, -90, -35, 75, -65, 78, -21, -2, 87, 55, -65, -75, -67, 93, -8, 3, -107, 47, -33, -67, 24, -80, 96, 109, 50, -118, -85, 111, -20, -64, 84, -119, 102}

#define CONV2D_KERNEL_0_SHIFT (10)

#define CONV2D_BIAS_0 {-9, 62, -1, -99, -69, 97, -72, -7, 87, 46, 31, -78, -87, 78, -29, -57}

#define CONV2D_BIAS_0_SHIFT (8)


/* output enconding for each layer */
#define INPUT_1_OUTPUT_SHIFT 7
#define CONV2D_OUTPUT_SHIFT 5

/* bias shift and output shift for each layer */
#define CONV2D_OUTPUT_RSHIFT (INPUT_1_OUTPUT_SHIFT+CONV2D_KERNEL_0_SHIFT-CONV2D_OUTPUT_SHIFT)
#define CONV2D_BIAS_LSHIFT   (INPUT_1_OUTPUT_SHIFT+CONV2D_KERNEL_0_SHIFT-CONV2D_BIAS_0_SHIFT)
#if CONV2D_OUTPUT_RSHIFT < 0
#error CONV2D_OUTPUT_RSHIFT must be bigger than 0
#endif
#if CONV2D_BIAS_LSHIFT < 0
#error CONV2D_BIAS_LSHIFT must be bigger than 0
#endif

/* weights for each layer */
static const int8_t conv2d_weights[] = CONV2D_KERNEL_0;
static const nnom_weight_t conv2d_w = { (const void*)conv2d_weights, CONV2D_OUTPUT_RSHIFT};
static const int8_t conv2d_bias[] = CONV2D_BIAS_0;
static const nnom_bias_t conv2d_b = { (const void*)conv2d_bias, CONV2D_BIAS_LSHIFT};

/* nnom model */
static int8_t nnom_input_data[32768];
static int8_t nnom_output_data[16384];
static nnom_model_t* nnom_model_create(void)
{
	static nnom_model_t model;
	nnom_layer_t* layer[3];

	new_model(&model);

	layer[0] = Input(shape(32, 32, 32), nnom_input_data);
	layer[1] = model.hook(Conv2D(16, kernel(3, 3), stride(1, 1), dilation(1, 1), PADDING_SAME, &conv2d_w, &conv2d_b), layer[0]);
	layer[2] = model.hook(Output(shape(32, 32, 16), nnom_output_data), layer[1]);
	model_compile(&model, layer[0], layer[2]);
	return &model;
}
