#include "nnom.h"

#define ADD_CONV2D_KERNEL_0 {62, 79, -9, -55, 52, -18, 87, 87, 101, 121, 33, 46, 46, 7, 75, 32, -125, 55, 122, -4, -115, -96, 120, 7, 117, 124, -32, 63, -47, 13, -99, -73, -7, 100, -42, 15, -10, 31, 102, 58, 124, 75, -62, -113, 60, 120, -24, 91, 90, 100, 15, 81, 114, 9, -117, -6, 97, -61, -38, -105, -120, 89, -97, -32, 34, -75, 16, -25, -14, -24, -74, 95, -18, -83, -93, 6, -75, 82, -101, -117, -81, 106, -108, -14, 102, -41, 28, -103, 111, -6, 68, 27, 88, -82, -105, 124, -87, 93, 98, 15, -58, -28, -2, 75, -20, 52, 60, -50, 107, 13, -90, -35, 46, -111, -59, -6, 6, 113, 36, 39, 1, -82, -37, -63, -33, -95, 94, -32, 48, 109, -39, 7, 7, -80, -24, -101, 56, 14, 108, -50, -10, 98, -68, 81, 72, 74, -99, 73, -74, -4, -75, -74, 26, 54, 75, -98, -35, -66, 118, 32, -120, -10, -42, -40, -34, -8, 54, -28, -9, -41, -41, -54, 36, -95, 31, 90, 40, 72, -47, 17, -94, 51, 5, -55, 59, 120, 68, -42, -104, -77, 9, -52, -108, -83, 112, 25, -124, 125, 0, -97, 94, 42, -33, -84, 14, -17, 1, -98, 50, 49, -17, 54, -12, 60, -54, 107, -44, -6, 82, -121, 32, -18, 114, 13, 41, -45, -27, 43, -122, 94, -110, -103, 15, -2, -35, -105, -64, 16, 11, 94, -64, 86, -10, 22, 70, -28, 103, 12, -52, 69, 34, -53, -42, -122, 48, 72, -22, -31, 117, 51, 64, -70, -3, -91, 111, -126, 80, 1, -92, -60, 15, 28, 52, -83, -45, -45, 45, -4, -5, -58, -85, 79, -46, -109, 101, -9, 9, -14, 12, 114, -114, -93, 31, -112, -72, -116, 119, 44, 73, 107, 79, 72, 45, 27, -32, -47, 70, 86, 44, 43, 43, -3, -1, 66, 78, -96, -18, -18, -66, -60, -26, -67, 55, 104, -51, -12, -93, 94, -11, 1, 118, -61, 107, -26, -86, 13, 74, -75, -60, 92, -111, -83, 23, -29, -41, 79, 123, 59, 51, 68, 8, 71, 47, -44, -110, -49, -1, 27, 97, -92, 13, 4, 100, -80, 57, 126, -52, 47, -102, -90, -32, -72, -113, -91, 93, -30, -92, 109, 12, -30, 95, 26, 28, -120, 50, -49, -97, -125, -68, 75, -25, 116, 9, 1, -22, -20, -14, -12, 96, -4, -99, -72, 45, 24, -37, 49, 21, -85, -61, 101, -62, 18, -16, -82, 73, 100, 56, 53, 57, 97, 20, 82, -100, -102, 18, -80, 100, -71, 26, -75, 68, 116, -49, 38, -75, 12, -73, 44, 65, -26, -61, -62, 48, -3, 57, -45, 43, 119, 95, 41, -108, 70, -98, -96, -75, -37, 91, 112, -99, -42, 24, 77, 72, 76, 10, -60, 76, 37, 99, 37, 52, -45, -73, 42, 68, 35, -124, 6, 9, 19, 58, 90, -39, 105, -96, 40, -31, 106, -24, 77, 7, -33, 65, 115, -23, 43, 46, 106, 51, 11, -85, 62, -99, -120, 11, 8, -126, -123, 82, -120, -61, -125, 44, -84, -17, -9, -58, -104, 83, -106, 108, 12, 124, -116, -4, -119, 47, -64, -76, -119, -102, -14, -39, 59, 17, -39, 112, 4, 119, -89, 43, -96, 63, 106, 111, -18, -68, -116, 4, -72, -35, 71, 70, -29, -33, 16, -51, 51, 35, 109, -6, -12, 12, 32, -41, 38, -14, -35, 87, -31, -38, -56, 102, -53, 24, 97, -11, 70, 66, 107, -31, -35, 34, -90, 27, -92, 8, 43, 63, -58, -82, -113, 103, 46, 5, -16, 44, -75, 64, 83, 110, -94, -116, -76, 40, 36, -83, 61, 17, -82, 45, 58, 84, 121, -96, -107, -63, -84, -61, -85, 2, -34, 37, -6, 78, -60, -116, 99, -32, -91, 112, -116, -116, 126, -111, -40, 64, 66, -109, -19, 109, -89, 36, 67, -12, 77, 19, 99, -16, -79, 71, -85, -75, 38, 74, 107, 89, 98, -29, 11, 93, 67, -32, -53, -91, 79, 66, -96, -30, 0, -60, 86, -4, 7, -38, -117, -121, 36, 2, -58, -44, -61, 108, -76, -126, -14, 49, -5, -78, 11, 66, 116, -37, 38, -38, 125, -21, 40, 14, 7, 6, -44, 48, -42, 110, -98, 51, 87, -125, 123, 79, -45, 68, -83, -86, 55, -23, 112, -18, -86, -64, 29, 101, 113, 90, 44, -116, 47, -35, -61, 74, 126, 116, -51, 14, 88, -121, -81, -59, 125, 59, -94, 48, 73, -29, 70, -12, -124, 111, 18, 84, -31, 67, 56, -92, 41, -81, -7, -67, 46, 31, -76, 63, -86, -89, -64, -76, -120, 91, 112, 38, -111, 20, -49, 116, 49, -48, -78, -72, 50, -45, -46, -114, -83, 37, -4, 114, -126, -55, 108, 11, 75, -81, 110, 81, -72, 118, -9, -102, 50, 5, 78, 111, 122, -109, 25, 122, -54, -64, -78, -92, -13, 3, 83, -99, 29, -89, 113, -109, -21, -43, 36, 111, -31, -86, -35, -44, -72, 105, 16, 69, 8, 42, -111, 26, -36, -82, -1, 112, 44, 78, 12, -99, -14, -18, 75, 98, 74, -5, 20, -33, -19, 11, -56, -67, -47, 41, -80, -17, -121, -25, -20, 28, 106, -13, 82, -125, -19, -5, -22, 20, 57, 46, 79, -32, 105, 2, -55, -107, 98, 116, 121, 89, 77, 88, -116, 37, 11, 60, -52, 67, 80, -36, 4, 28, -57, 83, -51, -43, 92, 7, 23, 30, -103, 71, -5, -41, 29, -90, -102, 108, 68, 3, 109, 113, -62, -73, 75, -12, -106, 107, -102, -90, -103, -66, -34, -123, 35, 107, 59, 71, 15, 63, 53, 16, 73, -121, -72, -73, 16, 73, -91, -25, -8, -22, 65, -27, -112, 25, 119, -112, -12, 122, -92, 82, 14, 39, 34, 22, -77, 28, -40, -117, 25, -99, 104, 121, -99, -102, 49, -12, -2, -53, 45, -117, 117, 12, 68, -63, 87, 75, 32, 55, -44, -110, 76, 11, -30, -2, 112, 32, -125, -101, -72, -26, 35, -5, -56, 70, -51, 118, -2, -110, 48, 6, -63, 55, -54, 97, 97, 26, 114, -117, -91, 84, 40, 37, -89, 109, -17, 0, -16, 52, -95, 1, 6, 50, 114, 56, 29, -83, -96, 84, 56, -123, 58, 108, 70, -100, 117, -62, 15, -22, -42, 117, -66, -89, 78, -63, -59, 100, -105, -99, -52, -64, -85, 92, -83, 8, -16, 21, 32, 10, 86, 86, 102, -3, -59, -71, -117, 56, 98, -78, -27, 81, 37, 9, 68, 38, -12, -126, 26, -39, 28, 86, 84, -59, 61, -8, 110, -12, 90, -4, 57, -118, -114, 84, 20, 116, -106, 69, -92, 114, -97, -97, -78, 15, -48, 116, 47, 111, 62, -9, 83, -98, -33, -118, 32, 110, -111, -68, 2, -42, 74, -4, 79, 11, 29, 50, 44, 26, -121, -31, 9, -62, -13, -80, 123, 3, -122, 40, -44, 75, -82, 85, 10, 64, 114, 106, -84, -125, -118, -108, -97, 2, -75, -22, -84, 6, -114, 123, 62, 110, -28, -49, -102, -41, 24, -121, -13, -20, -101, -121, 103, 86, -58, 99, 66, 6, -24, 17, -118, -65, 26, 74, 58, 26, -120, 37, 70, -116, 111, 119, 9, 16, 121, -27, 70, -82, -103, -90, -35, 108, -104, -40, 61, -81, 100, 94, -110, -23, 65, -84, 97, -100, -19, 91, -85, -39, 34, -69, 31, 36, -53, -48, -49, -98, -47, 47, -108, 84, 126, -53, -27, -82, 108, -18, 10, -10, 72, -84, 6, -111, -123, -1, 17, -59, 60, -96, 72, 33, 67, -73, 64, -71, -36, 64, -29, -105, -70, 39, -52, -54, 91, -12, -74, 121, -108, 88, 52, -72, 99, -91, -90, -45, 22, -96, -105, 10, -17, -77, 32, -32, 33, -125, 96, -10, 29, -3, -55, -41, -114, 74, -122, 56, 30, -5, 106, 15, 44, 22, 119, -14, -64, -120, -56, 93, -63, 60, -120, 0, -89, 118, -121, 1, -5, 27, -56, 37, 56, 10, -60, 42, -1, 103, -46, 30, 69, -22, -1, 34, 51, 0, -122, -34, -16, 79, -118, -61, -93, 34, 84, -65, -23, 100, -112, 74, 119, 98, 11, -46, 70, 80, 119, -123, -38, 87, 18, -78, 124, -94, -113, -42, 122, -111, -15, 104, 2, 64, 13, -44, -57, 93, 8, -45, 30, 34, -96, -44, 16, -121, -114, 101, 38, 118, 1, 79, 74, -36, 41, 121, -124, -74, -26, -50, 84, -103, -62, 32, 19, 104, 92, 84, -59, 115, 82, -31, 43, -122, 35, -29, 48, -122, 10, 80, 19, 118, 79, 42, -94, -45, 108, -46, -46, -83, 115, 45, 32, -80, 71, -68, -72, 59, -89, -28, -91, -87, -27, -79, 118, -58, 4, 119, 120, 58, 79, -112, -42, -60, 92, 19, 119, 105, -9, -74, 108, -110, -66, 2, 7, 111, 85, -15, 96, 98, 110, 65, 81, -30, -100, 53, -76, -33, 117, 106, -22, -38, 1, 73, 56, -111, 52, 48, 2, -72, 20, 77, -81, -81, 70, -26, 33, -117, -77, -88, 95, -100, 54, -113, -58, -89, -22, 49, 96, 90, 36, 57, -112, -62, 37, -104, -15, 77, -11, -71, -120, 19, -3, 96, 57, -25, 10, -109, 91, -102, -113, -41, 109, 42, -49, 91, -44, -26, -59, 63, 87, -83, -69, -55, -122, -113, -41, 61, 7, 66, 89, 96, -3, -46, -41, -14, -28, 2, 123, -38, -43, -94, -54, 10, -106, -54, 116, 31, -69, -20, 83, 40, -57, 104, -23, 50, -38, 12, -52, -125, -113, -14, -89, -97, -82, 32, -89, 23, -6, 115, 104, 37, 80, 86, -22, 93, 116, 35, 24, 37, 22, 55, -20, 107, 123, -97, 87, 92, 110, 78, 49, -26, 0, -127, 52, -75, 8, -90, -58, -125, -44, 79, -87, -17, 41, 72, 120, -45, -27, 53, 33, -55, 41, 76, 38, -93, -90, 87, 28, 6, -26, -47, -40, 66, -1, -51, 26, 19, -63, -93, -73, 49, -120, 25, 62, 18, 99, 1, -68, 37, -106, -108, 76, 16, -96, -22, 52, -45, 28, -122, 115, 70, -107, -36, -104, 58, -67, 19, 13, -10, 106, 110, 83, -14, 47, 42, 13, -15, -5, -75, -62, -88, 64, 26, 108, -67, 32, 24, -29, 42, 46, -49, 33, 42, 108, 101, -81, 58, -86, -28, 9, -106, 45, -99, -31, 57, 29, -78, 26, 16, 37, -62, 29, 71, -14, 33, -101, -89, -52, 18, -83, 48, -41, 14, -42, -33, 58, -122, 20, -123, -22, 18, 19, -66, 1, 85, 39, -127, -87, -99, 60, 37, -13, -56, -100, 6, 7, 8, 105, -70, -64, -43, 40, -17, 82, -17, -124, 49, -14, 60, 89, -43, -96, 18, -43, 6, 65, -111, 65, 73, 102, 71, -93, 39, -89, 96, 100, -22, 119, -116, 11, -28, -89, -25, -103, 56, 22, -55, -103, -34, -90, 64, 111, 66, -21, -125, 102, -106, 67, -38, 69, -37, 27, -72, -106, 18, 28, 53, -103, 75, -37, 0, -95, -80, 59, 18, -108, 42, 52, 44, 108, -60, 37, 77, 29, 12, 92, -35, -26, 124, 35, -76, 19, 106, -109, -12, 96, 47, 97, -123, 102, -106, -15, -41, -83, 10, -33, 79, -65, -68, 17, 3, 85, 83, 29, 95, -119, -80, 118, -103, -25, -29, 47, 122, 82, -95, -70, -19, -5, 120, -104, -80, -32, 77, -85, 104, 87, 78, -117, -79, 13, -68, 46, -86, -71, -52, -92, -38, -72, 74, 40, 121, 13, 86, -59, -19, 14, -98, -96, 16, -101, 30, 14, -58, 33, 45, -69, -13, -47, -7, -70, -61, -123, -108, -94, 65, 57, -38, -76, 8, -58, 27, 47, 100, 73, -72, -119, 46, 48, 6, 54, -48, 91, -35, -20, -114, -96, -14, 25, 79, 95, -110, -117, -101, -97, 9, -79, -45, -72, -73, 45, -39, -34, -10, -51, -66, -72, 1, -32, -124, -50, -42, -104, 42, -81, -75, -85, -66, -102, 108, 26, 106, -79, -40, -2, -54, 82, -105, 121, 65, 118, 113, -89, -75, -107, -46, 80, -67, 3, -92, 48, -76, -66, 67, 39, -56, -83, -47, -83, -86, 8, 88, -112, -124, 99, -37, -24, -61, 123, 59, 45, -2, -25, 71, -78, 34, 106, 92, 104, 73, 38, 79, 12, -15, -94, 26, 6, 126, 89, -121, 65, 13, 22, -94, 111, 77, -73, 121, -109, 50, -77, -29, -20, 62, 22, 120, 80, -58, 23, 57, 116, 54, -70, -106, -34, -96, 73, -19, 14, 36, 92, 96, 6, 29, 32, 106, 64, 122, 96, 92, 71, 16, 51, -35, -65, 26, 83, 125, -50, -85, 4, -119, -2, 102, -78, 76, -2, 60, -72, -7, 34, 98, -122, -32, -84, 11, 28, 126, 5, -7, 0, -114, 31, -7, 41, 9, -70, -34, -13, 58, 79, -90, 11, -67, -111, -75, 42, -39, 18, 95, 87, 103, 30, -46, 39, -77, -56, 120, 53, 42, 69, -79, -72, 123, 87, -91, -4, 2, -48, -59, 70, -102, 17, -59, 82, 57, -41, -10, 116, 43, 91, 19, -88, -15, -40, 91, 97, -2, 20, 78, -125, 2, -122, -52, -11, -10, -99, 119, 24, 18, -2, 104, 2, 31, 94, 43, -33, 63, -17, 47, 125, 97, 71, -22, 118, -126, 108, -86, -75, -67, -37, -21, 102, -7, 59, 49, 83, -32, -59, 57, 37, 30, 66, 9, 78, 90, 20, -99, -62, 14, 44, 17, 45, -57, 51, 83, 6, 69, 72, -48, 86, 50, -83, 102, 120, -17, -123, 55, -106, -9, -115, -124, -77, -88, -4, 57, 32, 87, 47, 110, 56, -98, 32, -35, -41, 97, -7, -53, -19, 65, 125, -30, 101, -43, 50, -5, -21, -56, 55, -119, -2, -71, 72, 35, 48, -24, -10, 12, 42, -126, -86, -20, -38, -92, 4, -23, -83, 111, -71, -97, 34, 88, -78, 97, -34, -40, 104, 45, 65, 17, -50, -49, -90, 116, -1, -83, 78, 110, 77, -63, -119, -111, 113, -82, 93, 65, 99, 21, 71, 54, -20, 109, 10, 70, -17, -63, -125, 63, -88, -13, -4, 3, -93, -63, -89, -124, -21, 74, 62, -70, -81, -46, 22, -16, -100, -74, -103, -34, -42, 93, 70, 19, 67, -7, -55, -105, 6, 120, 95, 103, 53, -71, -8, 30, 59, -114, 77, -37, -45, 9, 117, 44, -36, -118, -3, 122, 19, 61, -13, -95, -5, -81, -74, -32, 24, 43, -86, 108, -110, -53, -44, -54, -10, -25, 43, 126, 57, -82, 95, -55, 113, 3, 60, 95, -66, 5, 78, -95, -98, 50, -30, -45, 85, -118, 10, -72, 18, -35, -58, 31, -40, -102, 72, -28, -123, 38, -105, 60, 45, -82, 104, 33, 71, 55, -115, 65, 31, 23, -59, -80, -116, -48, 53, -33, 58, -14, -10, 105, -83, 67, -68, 18, -74, 85, 81, -115, -80, 57, -107, 122, 124, -63, 22, -71, -81, -59, 73, -57, 16, -32, 92, 51, -52, 89, 36, 16, -103, -44, 93, 73, -41, -74, 75, 114, 26, -17, 96, -20, -67, 92, -126, -110, 8, 91, -64, 124, 21, -111, 119, 28, -15, -17, 88, 71, 127, 100, -111, 106, -119, -117, -66, -96, -33, -25, 98, 90, -76, 90, -99, 99, -38, -30, 83, -76, 20, -55, 68, -68, -105, 12, -62, -56, 53, 34, -96, -110, -44, 40, 71, -21, -45, 11, 112, -5, -56, 79, -11, 118, -38, 93, 55, 14, -11, 41, 77, -101, 117, -80, 63, 30, 87, 57, 113, 95, 114, -70, 39, 3, 82, -57, 70, 5, 62, 94, -78, -126, 34, -79, -95, 49, 76, 26, 56, 64, -51, 118, -20, 70, -13, -56, 40, -126, -98, -115, -59, -67, -50, -6, -118, 117, 64, -98, 74, -1, 46, 118, 30, 41, -71, -118, 1, -107, 94, 83, 107, 58, 110, 55, 114, 68, -3, -92, 81, -118, 80, 90, -76, 117, -13, -50, -54, -83, 25, -46, -19, 37, -88, -86, -82, -101, 17, 55, 19, -20, 62, -125, 30, 74, 52, -44, -118, -98, -7, -123, 4, -49, 91, 70, 56, -68, -88, 96, -100, 126, -90, -38, -115, -108, 80, -63, -60, 77, 58, -38, -115, 4, 11, 54, 48, 42, 73, 34, 7, 118, -75, -23, 5, 108, -34, 64, 58, -36, -16, 17, 102, 71, 77, -112, -18, 60, 111, -63, -5, -26, 52, -43, 63, 42, 105, -40, 89, 0, -25, -97, -87, -55, 25, -75, 38, 28, -27, -55, -72, 100, -19, -105, 107, -20, 33, -116, 74, -11, 54, 11, -28, 34, -73, 89, 109, -58, -8, 76, 118, 62, -115, -9, 100, -31, -52, 35, 14, 63, 94, 42, 112, -24, -40, 9, -16, -65, -115, -109, -30, -14, -67, 108, -89, -3, 103, -122, 29, 4, -77, 18, -73, 126, 121, 64, 14, 77, 12, 76, -54, -115, 23, -72, -32, -45, -25, -46, 0, -71, 78, 40, 119, -31, 125, -81, -43, 26, -8, -40, -118, 68, -48, 125, -16, -2, -49, 24, -53, 12, 105, 78, 97, -69, 103, 2, -1, -86, -87, -79, 7, -86, -54, -113, -111, -93, 106, -76, 106, -118, 6, -103, -126, 8, 74, -96, -65, -22, -50, -73, 52, -115, -59, 55, -38, 91, 71, 63, -25, 26, -14, 73, -83, -58, 117, -101, 79, 41, 53, 68, -84, -7, -28, -110, -7, -92, 0, -85, -41, 86, 52, -123, 87, -32, -75, -100, 121, -78, -93, 22, 41, -107, 64, 37, -101, -2, 108, 39, 38, -38, -47, 59, 56, 66, 9, 34, 38, -22, -13, 61, -74, -75, -84, -101, -114, -123, 109, -70, 57, -114, 104, 114, 5, 47, -43, 99, -49, -49, -7, 42, 75, -29, 36, 3, -121, -68, 19, -92, -125, 78, -18, -50, 108, 27, 116, -52, 50, 58, -119, -110, -65, -72, -52, -88, -97, -108, 11, -29, -119, -57, 6, 126, 27, -46, -85, 109, 65, -30, -45, -108, 77, -48, 11, 123, -28, 60, -116, -91, 50, 89, 10, -22, 127, -20, 47, 3, -42, 122, -107, -81, -60, 18, -89, 48, -117, 68, -1, -109, 0, -111, -116, 52, -29, 116, 65, 111, 70, -87, 42, 50, -75, 72, 85, -88, -110, 75, -31, -105, 41, -52, -25, 107, -53, -35, -16, 21, 47, -100, -10, 125, -121, 43, -52, -54, 81, 94, 55, -117, 54, 59, -93, -27, -62, 12, 122, -68, 85, 87, -107, -7, -81, -59, 29, -35, 2, 125, 125, -77, 103, 102, -92, -52, -15, 106, -104, -125, 46, -62, 98, -80, 31, 104, 119, -124, -77, -80, 11, 55, 116, 85, -50, 82, 71, -13, -3, -124, 43, 108, -12, -83, 100, 100, 119, 37, 14, -124, -75, -11, -102, 6, 37, 61, 96, -60, -92, -99, 98, 123, -110, -106, -74, -14, -61, -24, -105, -19, -15, -22, 75, -8, 31, -107, 105, 43, 81, -96, -105, -80, -111, -22, -7, -97, -97, -64, -56, -61, -125, 23, 95, -104, -118, 64, 38, 103, -110, 101, -7, 109, 4, -83, -21, -23, 115, -105, 74, 14, -71, -2, 121, -93, -125, 32, 32, 94, -78, -8, -50, 93, 62, 94, 78, -101, 46, -119, -56, 114, -93, 110, 79, -61, -64, 14, 37, 97, -105, -10, -51, 77, 26, 23, 125, 103, 51, 17, -126, -15, -126, -122, 32, 99, -120, -116, -2, -47, -66, 61, 93, 26, 35, -113, -79, -16, 121, 98, -89, -34, 96, 15, 32, -33, 35, 109, -49, 116, 20, 63, 106, -36, -21, 105, -107, 90, 68, -120, -110, 17, 6, 16, 115, 94, -5, 78, 107, -49, 122, -96, -24, 101, -47, 67, -21, 117, 85, -54, 45, 86, -97, -123, -1, -98, -23, -91, -48, 57, 124, -96, 9, -50, -95, 40, -3, 63, -6, -69, 107, -104, 31, 107, -73, -74, 18, 85, 53, 51, 64, 45, -34, 62, -17, 85, -80, -73, 121, 46, -82, 16, -18, -38, 63, -12, -76, 10, 58, 60, -85, 127, -94, -19, 117, 64, 65, 90, -108, -25, 118, -31, 34, 105, -47, 12, 39, 91, -63, 63, -21, 25, -50, -72, 95, 109, -6, 75, -75, 73, -93, 49, -35, -102, 93, 68, 103, 2, 124, -117, 75, -95, 112, -112, 100, -83, -122, 123, -5, -68, 55, 43, -37, -84, 45, 45, -13, -32, -62, -60, 1, -53, 100, 55, 73, 62, 22, 74, 110, -14, 51, -6, -84, 98, 121, 10, 98, 120, 89, 87, 52, -6, 116, 111, -69, -16, 79, -93, 78, -73, -84, -75, -56, 64, 69, 34, 57, -34, 90, 119, -23, 66, 116, 119, -50, 71, -36, 107, -4, -22, -98, 29, -26, 72, -75, 41, -99, -103, 79, 62, -78, -28, 10, -43, 60, 63, 113, 5, -48, -67, 35, -19, -36, -14, 0, 12, 113, 109, 105, -99, -39, -66, 112, 110, 28, -67, -87, 100, -11, -60, 2, -79, -31, 42, 66, -30, 79, -81, -111, 110, 33, -74, -36, -11, 110, 77, 55, -124, 68, -56, -30, -40, -9, 65, 67, 19, -60, -12, 80, 91, -55, 47, 49, 113, 98, 77, 79, 81, 17, -55, 65, -58, -71, 90, -47, 96, 10, -91, -42, -15, 121, -43, -124, -66, -42, 116, -71, 25, -123, -71, -82, -112, 18, -10, 104, -119, 93, 68, 111, 97, 0, 52, -118, 32, -60, 107, 12, 76, -13, 78, 111, -22, 112, -47, 8, 118, 107, -38, 99, 42, 69, -80, -71, -69, -113, 103, -7, -111, 58, 15, 4, -65, -115, -5, -80, -95, -94, 99, 48, 84, -122, 97, -59, 94, -100, -90, 95, 104, 83, 103, -37, 29, -78, 88, 23, -84, 36, -28, -21, 55, 112, -108, -89, -35, 78, -73, 125, 118, -82, -79, -101, -89, -98, -88, -18, -31, -111, -81, 8, -43, -103, -15, 116, -91, 57, -14, 50, -14, 17, 34, -9, 12, -5, 100, -5, 121, 26, 5, 27, -81, 111, -125, -65, -6, 111, -17, -75, -109, 57, 101, -126, -83, -9, -81, -68, -123, -65, 74, -41, 106, 58, -119, 21, -78, -96, -18, 0, 65, -31, -6, -65, -114, -111, 10, 30, 102, 1, -111, 94, 118, 93, -80, 22, 26, -91, -46, 25, 125, -99, -29, -90, 10, 30, -77, 72, 20, -56, -8, 54, 115, -80, 84, -76, 51, -30, -36, 119, -97, 118, -91, -72, -99, 91, -48, -105, -78, -61, -10, 19, -32, -94, 30, 94, 57, 31, -33, -123, -13, -6, -27, 51, -97, 29, 34, 124, 111, -21, 29, 33, 28, -54, 14, -99, 108, -120, 111, 62, 39, 41, 50, -117, 25, -113, 31, -82, 69, -88, 120, -22, -21, 61, 39, -34, 101, -82, -58, 29, -7, 39, 23, 87, 120, 0, 17, 64, -60, 79, -18, -42, 56, -70, 37, 37, -85, -33, 74, -1, 111, -100, 9, 21, 67, 28, -31, -19, -96, -24, 79, 37, 17, -14, -106, 105, 97, -9, -113, 54, -110, 34, 114, -79, -40, -80, 120, 41, -91, -76, 100, 65, 89, 35, -55, -94, 119, 125, -77, 60, 35, -70, 82, 108, -77, -27, 66, 19, -44, 80, -36, -114, -102, 104, 33, 23, -11, -1, -67, -120, 37, 36, 72, 66, 106, -37, 61, -93, -123, 0, 55, 72, 75, -111, 83, 43, 6, -88, 53, -57, -57, 50, -90, 126, 22, 52, -79, 63, -55, -115, -63, 18, -1, 37, 77, -63, 22, 126, 92, -58, -6, -21, 21, -16, 69, 76, -52, -90, -57, -52, -11, 23, -121, 76, -81, 12, -126, -74, 13, 61, 14, -110, 109, -61, -19, -18, -48, 64, -101, -36, -95, -25, -62, 45, -62, 101, 97, -113, 111, -121, 82, 84, 22, -30, -38, 33, 21, -1, 2, 79, -3, -103, -51, 20, 19, -60, 73, -25, 108, -114, -60, -12, -20, -104, -117, 114, 58, 72, 122, 119, 107, -112, 90, 59, 77, 31, -50, -110, 110, -123, -79, 83, 10, -64, -21, -57, 95, -101, -73, -85, -64, 54, 75, 73, 15, 108, 86, 31, 33, -25, -16, -78, -61, 101, -109, 56, -28, -51, -58, 18, 45, 5, 33, 29, 92, -10, -15, 109, 26, -34, -96, -39, -23, 115, -123, 111, -26, 38, -32, -28, -95, -56, 109, 34, 32, -73, 68, -70, -7, -2, 119, -121, -28, -56, -26, -95, 81, -102, -64, -15, -110, 109, -93, -94, -124, -59, 46, -123, -37, -4, -101, 21, 30, -8, -87, 5, 34, 94, 45, -14, 3, -86, -126, 49, -61, -42, -35, -71, 87, -27, -72, 121, 57, -20, 17, -54, -113, 8, 40, 60, 53, -126, 4, 89, -120, 23, -40, 48, -12, -36, 18, 30, -20, -2, 39, 15, 24, -41, -104, 46, 45, -114, -111, 1, 56, 124, 61, -89, -81, -41, 87, 109, -37, 59, 102, -3, -99, 45, -35, -37, 45, -6, -85, -11, 7, 116, 23, -71, -50, 29, -53, -80, -85, 82, 8, -72, 112, -6, 71, 41, 83, -74, -34, 124, 1, 5, -65, 69, -114, -27, 121, -75, 20, -34, -32, 121, -102, 35, -86, -73, 54, 69, 44, -97, -72, 47, 91, 109, -119, -83, -95, -59, -60, 8, -2, -109, 62, -37, -77, -92, -117, 100, 67, -5, 59, -51, -126, -87, -57, 0, -84, 20, -48, -35, -3, 53, 92, 78, -96, 115, -74, -2, -36, -88, -35, 64, -93, -76, -54, 96, 68, 34, -79, -63, 108, 44, 60, -107, -79, -57, 97, -41, 23, 19, -45, 48, -94, 75, 97, -100, 118, -32, -41, -107, -46, -15, -55, -105, -44, 25, 52, 30, -81, 59, -106, -20, -115, -76, -57, -2, -59, -92, 5, -61, 35, -38, 34, 26, -109, -108, 65, -6, 117, -72, 83, 97, 15, 69, 51, 56, 124, -120, -114, 38, 12, -107, -34, -74, -4, 38, -89, 92, -92, 64, -11, -54, -41, 31, -8, -62, 70, 83, -103, 100, 111, 46, -70, 55, 48, 121, 57, 48, 34, 65, -67, -5, 98, 71, 60, -109, 57, -1, 81, -40, -116, -50, -91, -127, -12, 101, 7, 83, 83, 74, 101, -98, -90, 119, -89, 18, -66, -31, -70, 26, -33, 49, -27, -103, 55, 53, -45, 117, -115, 61, -109, 57, -113, -24, -30, -64, 111, -31, -7, 2, -93, 118, -80, -7, -83, 16, -27, 90, -96, 116, 26, 38, 92, 15, -40, -96, -68, 63, -31, 40, 50, -55, -19, -42, -83, -47, -98, 114, -78, 53, 112, -67, -84, -33, -12, 30, 113, -2, 71, -70, 101, -8, -21, 81, 41, -33, 48, 122, -103, -11, 43, 110, -121, -51, -89, -43, 34, 106, 62, 114, 100, -90, 107, 47, 42, -56, 39, 39, 107, 34, 81, -88, -96, -86, 64, -29, 73, 117, -28, 115, 41, 124, 46, -86, -20, 89, 117, -102, 111, -115, -55, -107, 57, -98, -77, -32, -111, -100, 48, -114, -122, 52, 72, 79, -101, 69, -8, 90, -54, -23, 24, -117, 118, -103, -6, 81, 53, 112, -84, 8, -8, -29, -107, 33, 84, -44, -124, -10, 114, -34, -37, -61, -29, -26, 100, -68, 47, -42, 26, 100, -53, 88, -37, -96, 58, -61, -72, 24, 79, 102, 126, -106, -39, 119, 11, 58, 98, 109, 42, 71, -14, 62, 100, -58, 89, -61, 75, -104, 30, -43, -113, 28, -35, -52, -45, 93, -73, -9, -68, -42, 17, -78, 101, -6, 71, -118, -118, 102, -20, 51, -27, 103, -81, -32, 43, -68, -41, 7, -74, -21, -23, -77, 77, -39, 50, 36, 72, 95, -121, -4, -87, 119, -118, -92, -17, 68, 98, 29, 3, 111, -14, 9, -57, 106, 52, 107, -111, 89, -48, -86, -8, 58, 6, 100, -84, 55, -38, -89, -119, 95, -116, 78, -39, 83, 37, 58, 116, 68, 107, -8, -98, 55, 111, 24, 65, -6, -32, 60, 68, -15, 22, -67, -8, -71, 92, -15, 69, -25, 75, -12, -3, -65, -87, -87, -86, 68, 94, 36, 117, 31, 66, -96, 52, 32, 98, 14, 59, -24, 117, 95, 60, -56, 106, 26, 120, 62, 32, -82, 9, 31, -12, -121, -108, 57, -20, -84, 20, 27, -17, 110, 110, 29, -13, -61, -6, 98, -34, -50, -66, 65, -73, 114, 15, 107, 36, 112, -86, 72, -56, -45, 10, -97, -25, 48, 125, -22, -61, -118, 65, -15, 6, -122, 101, 113, 27, 61, -37, 24, 40, -52, -22, 14, -1, -104, -117, -18, -78, -60, -99, 60, 16, 49, 6, -48, 105, -24, -5, -31, -25, 68, 54, 71, -54, -5, 94, -23, -41, 5, 71, -60, -121, 86, -106, -122, 120, 125, 62, -69, 44, -120, -3, -66, 4, -68, 53, -62, -73, -13, 24, 113, -41, 69, -38, -59, -64, -126, 80, -124, 81, -89, -96, -79, -117, 104, -7, 82, 27, 54, 110, 28, 14, 1, 0, 9, -116, -58, -76, -76, 13, -113, -21, 75, 73, 104, 71, 32, 88, -117, 122, 35, 8, -36, -67, 28, -11, 40, 12, -23, 122, -80, -29, -22, 7, -100, 29, 126, -34, 6, 91, -55, -51, -3, -108, -56, -36, 116, -118, -63, -81, -18, -73, -104, -85, 33, 118, -63, 86, 109, -100, -30, 97, 36, -120, -66, -109, -24, 13, 109, 9, -2, 17, -61, 61, -12, -89, 119, 109, 59, 39, -22, -1, 77, -9, -22, 45, 74, -76, -63, -53, 76, -83, 87, 40, 91, -103, 72, 61, 37, 11, -30, 32, 94, 25, 35, 8, 125, -13, -126, 11, 96, 66, 32, -67, 102, -51, 113, -16, 89, -101, 101, -36, 94, -115, 39, 105, -6, -120, -123, -84, 80, 22, 14, -93, -44, 43, 84, 68, -105, -87, -60, -7, 113, -38, -48, -123, 29, -51, -107, 119, 56, -24, 66, 11, 10, 23, 59, -2, -38, -104, 95, 47, -48, 53, 20, -111, 0, 70, 60, 37, 61, 49, 38, -101, 13, 92, 66, -64, 9, 42, 54, -121, 58, -80, 21, -62, -57, 70, 36, -67, -60, 8, -78, 47, -81, 90, -71, 75, 109, 110, 100, 82, -108, 89, 46, 37, 59, 107, -57, 109, -52, 115, 127, 57, -31, -7, -21, 107, -89, 17, -2, -117, 32, -53, -114, 31, -76, -40, 56, 33, 119, -20, -1, -77, 108, -102, 70, 80, 107, -14, 48, 41, 12, 79, -26, 5, -121, 46, -116, -56, -56, -78, -78, 27, 16, -35, -87, -16, -92, -105, 121, 68, -113, -64, -83, -117, 6, -49, -40, -90, -38, -58, -73, -70, -64, -70, 102, 39, -54, -56, -72, -55, 41, 30, 99, 94, -79, -14, 6, -117, 87, -115, 62, -78, 68, -20, 50, -51, -77, 44, 61, -22, -62, 52, 98, 47, 49, 45, 16, 110, -123, 115, 88, -93, 45, 65, -87, -33, -37, -95, 55, -100, 73, -58, 56, 31, 107, -68, 13, -62, -120, 62, 7, 26, -116, -47, -49, -15, 90, -61, -9, 111, -104, -38, -34, -14, 24, 37, 121, -109, 49, 34, 2, 97, 44, -61, 75, -120, 93, -99, 100, -50, -89, 74, 39, 126, -65, -112, 3, 40, 19, 77, 29, -50, 58, 99, -83, -21, 51, 23, 1, 105, -94, -126, 31, 90, -85, 95, 112, 115, 77, 1, -120, -87, 90, 108, -46, 76, -38, -10, -78, -32, -41, -106, 74, -27, 4, 48, -112, -70, 27, 73, 105, -79, -26, -93, 15, -56, -77, -9, 47, -120, 88, -93, 1, 36, -4, 106, 97, 1, 10, -108, -67, -43, 44, -86, 1, 101, 60, -5, 71, 6, 103, -1, -20, 124, 106, 26, 61, -86, 117, -120, -55, 29, -116, -7, 15, 104, 112, -32, -96, 120, -46, 22, -37, 31, -25, -49, -69, 25, 85, -6, 104, -71, 116, 12, -50, -58, -15, 60, -124, -53, -106, 83, -1, -121, -27, -40, 63, 80, 3, -113, 88, 9, 33, -89, -113, 85, 58, 81, 68, 126, -96, -86, -47, -30, 36, -34, 124, 79, 39, -51, -41, 46, 88, 73, 121, -28, 118, -12, -8, -124, -115, -20, -49, -54, -83, 116, -58, -1, 121, 68, 36, 125, 110, -52, 27, -126, -80, 111, -110, 97, 53, -104, -62, 34, -10, -73, 89, -77, 121, -17, 71, -91, 123, -71, 27, 21, 43, -25, -100, -117, -119, -13, -26, 87, -31, -56, -57, -125, -48, 118, -38, 35, -103, 96, -37, 104, -123, -52, -99, -29, 89, 110, 36, -60, 79, -29, 72, -107, 59, 82, 14, 47, 126, -14, 120, 3, -22, 59, 69, -73, 4, -26, -35, 25, 41, 10, -49, -11, -46, -5, 112, 93, -8, -52, 116, 11, -26, -90, -60, 83, -43, -125, -123, -74, 55, 101, -64, 42, 101, 13, 61, 3, 35, -19, -41, 31, -105, 54, -36, -123, 86, 65, 17, 28, 95, -62, 62, -71, -33, 75, -40, 95, 83, -17, 120, -42, 80, -23, -19, 8, -48, 122, 83, 31, -18, -105, -126, 100, -75, -117, 81, -123, -63, 4, 100, 55, 17, 53, 5, 4, 91, 3, 21, -11, -73, 20, -96, 7, 82, 84, -45, 80, 124, 99, 24, 13, 46, 75, 67, 46, 52, -85, -51, -109, 14, 56, -58, 79, -35, 33, -117, 86, -36, 31, -40, 16, 11, 20, 44, 52, -17, -70, 49, -4, 92, 53, -58, -65, 71, 28, -115, 17, -118, -64, -27, 90, 13, -51, -32, 122, 115, 127, -97, 58, 94, -55, 64, 41, 120, -35, -30, -113, -118, -91, 8, -52, -41, 19, 53, 110, -97, -43, -79, -20, -25, -25, -59, -100, 70, 18, 33, -116, -18, -78, 39, 49, -44, -8, -108, 10, -79, 42, -74, 2, -108, -42, 124, 107, -37, -83, -88, -79, 36, 91, -98, 98, 73, 13, -92, -94, 10, 64, 64, 5, 28, 31, 84, 19, -117, 11, -1, 1, 114, 94, 67, -15, 5, -63, -111, -57, -39, -98, 18, 87, -83, 104, -25, 1, 88, -88, -65, 5, 25, 43, -42, -4, -3, -122, 2, -70, 115, -27, -82, -122, 120, -115, 57, 11, -118, 27, -54, 87, -29, -26, 104, 28, -20, -113, 27, -42, 116, 29, 67, 46, -85, 13, 105, -22, 53, -119, -81, -8, 81, 45, 123, -114, 77, -9, 71, 68, 61, 21, 58, 46, 66, -39, 104, 13, 83, -41, 42, -63, -15, -72, 19, 49, 15, 43, -88, 104, 72, 93, -66, 99, 59, -63, 0, 79, 66, 79, -85, -94, 3, -55, -77, -55, -126, 62, -99, 71, -118, -2, 11, 35, 58, 0, 98, 34, 30, -113, 106, 63, 111, -51, -5, -112, -113, 14, 10, 55, 67, -54, 62, -69, -6, -109, -39, -14, 72, -16, 26, 17, 75, -37, 118, -118, -5, 36, -23, 58, -77, 73, -109, -125, -26, 86, -85, 83, -53, -5, -47, -15, 0, -32, -85, 19, -105, 57, 29, -39, 113, 73, -121, -124, -20, 37, 92, 30, 17, -44, 24, 84, -35, 113, -21, 42, 79, 82, 115, -86, 97, -92, -37, -34, -63, 63, -27, -20, -108, -97, -5, -64, -67, -120, -126, -99, -57, -31, 68, 62, 123, 114, -88, 48, 54, -84, -116, -115, -94, 27, -19, 101, -30, -60, 73, 67, 108, 68, -47, -117, 53, 91, 108, 85, -11, -38, -100, -84, -61, 81, 108, -70, -110, -1, -43, 22, -119, 17, 63, 6, 84, -96, -100, 102, -88, -87, -97, 104, 52, 13, 111, 105, 55, -118, -25, -85, -69, 118, -116, -26, -60, -113, 83, -94, 76, -58, -31, 26, 76, 92, 14, 40, -81, 97, -103, 7, -22, 59, -87, 112, 42, 15, -21, -119, -26, 109, -114, -51, 27, 95, 82, 119, 121, -27, -36, 84, -67, 76, -102, 33, -26, -45, 66, 91, -41, 32, 106, -28, 54, 66, 61, 26, -74, 111, 105, 75, -52, -35, -121, -113, 63, 31, -65, -12, 116, -63, 36, 122, -97, -73, -9, -28, 55, 55, 52, -116, 18, 0, 54, -74, -21, 66, -95, -79, -26, -109, 58, 42, -10, -91, 96, -95, -5, -37, -17, -48, -115, 84, -56, -94, -44, 74, -60, -76, 57, 61, 98, 39, -63, 114, 51, -103, 43, -17, 109, -86, 18, 10, -3, -51, 68, 115, -61, 47, 85, 83, 32, -90, -47, 66, 97, 86, 51, -23, -73, 96, -97, -12, 86, 45, -58, -32, 92, 65, -89, -60, -82, -71, -30, -21, 56, 80, 27, -52, 81, -54, 61, 48, -104, -18, -82, -22, 105, 3, 22, 17, -58, -44, -51, 4, 119, -67, -16, -26, -111, -54, -23, -59, 24, -98, -42, -91, -46, 37, -2, 122, 41, 120, -72, -109, -42, 113, -80, 37, -97, 94, 61, 92, 83, -88, -103, 49, 46, -42, 31, -36, -104, -8, -101, 39, 61, -21, -37, 46, -51, 124, 126, -87, 4, 16, 112, 47, 78, -61, -1, -84, -62, -112, -121, 84, -9, 125, 49, -51, 30, -13, -72, 39, -32, -110, 94, -47, 0, 5, -55, -112, -15, 104, 12, -94, 7, 32, 78, -124, -75, -121, 119, 28, 125, 102, -100, 61, 10, 55, 97, 5, -41, 37, 70, -25, 51, -119, -34, 59, 50, 2, -116, 124, -60, -85, 74, 36, 127, -104, 54, -65, 98, 83, 5, -124, -29, -24, 49, 29, -39, 109, -55, 20, -98, -1, 50, 48, 4, 63, 27, -56, -23, 42, -125, -86, 92, -126, -41, 49, 112, -31, -103, 105, 125, -78, 79, 39, -81, -55, 29, 1, -76, 97, -79, -17, 1, -71, -43, -30, 123, 53, 23, -81, -81, -33, 97, -79, -93, -97, -22, 70, 33, 78, -2, 33, -108, -54, -67, 27, 16, 77, -60, -97, -94, -125, 89, 123, 1, 122, 54, -5, -42, 55, -64, 114, 113, 9, 91, 23, -107, -81, -15, 121, 73, -120, -99, -56, 114, -96, -10, -16, -81, 73, 88, 47, -35, 98, 12, 92, -62, -16, -35, 42, 18, 11, -88, -50, -108, -113, -113, 19, 67, -59, 74, -12, -61, 45, 34, 59, 119, -108, -77, -114, -15, 49, 114, 40, -77, -46, 29, -105, -32, -11, -42, -40, 9, 51, -76, 35, 56, -75, 30, 62, 27, 4, -67, -60, -99, -116, -1, 21, 114, 80, -119, -112, 44, -95, -121, -24, -78, 50, 108, 75, -60, 61, -34, -83, 122, 83, -26, 95, 105, -108, 65, 91, 56, -123, 76, -125, 77, 17, 29, 82, 50, 77, -40, -89, -73, 121, -71, -13, -70, -78, 99, 107, -72, -58, -86, -46, 12, -50, 34, -12, -64, 40, -88, -12, -57, 69, 87, 87, 97, -23, 67, -33, -35, 94, -104, -53, -48, 117, 23, 91, -64, 62, 73, -4, 4, -95, -106, 81, -118, -20, -87, 62, -38, 50, 83, -5, 62, -90, -1, -27, -71, 124, -116, -95, 74, -88, 92, 107, 53, -109, -78, -125, -58, 8, 37, -73, -62, -123, -40, -44, 77, 97, -118, -12, 5, 27, 29, -14, -102, 69, -64, 75, 62, 74, -3, -79, -72, 9, 104, 16, 18, 8, 108, 34, 45, -112, -76, -36, 111, 4, 24, 112, -104, 23, 65, 72, -87, 92, 122, -38, -125, -39, 44, -6, 52, 32, -122, 122, 88, 93, -34, 81, -4, -19, -36, -103, -102, -24, -3, -64, -92, -12, 100, 100, 70, 18, -123, 101, 124, -53, -126, 35, -9, -22, -99, 4, 93, 104, 36, -82, -82, 50, 41, 43, 67, -48, -117, 21, 110, 125, -64, -8, -27, 19, -37, -40, 108, -86, 31, -83, 77, 27, 24, -113, 61, -98, -65, 53, 4, -116, 42, 97, -46, -89, -34, -123, 74, 103, -3, -58, 90, 83, -30, -117, -125, 103, -54, -18, -8, 109, -38, 108, -90, -65, 64, 121, 50, -3, -82, -94, 63, 103, -107, 40, 103, 124, 114, 113, -17, -105, -125, -33, 7, -110, 53, 91, -17, 65, 31, 98, -32, 1, -110, -1, 122, 44, 64, 116, -58, -51, 24, -49, 107, -9, -26, -46, -95, 59, -54, -6, -95, -83, -3, -51, 20, -31, 86, 23, -19, 31, -38, -14, -107, -71, 46, -37, -108, -87, 39, -115, -20, 7, 97, 29, 70, 0, -119, 118, -125, 54, 9, 112, 109, -93, -49, 115, -78, -1, 63, -90, -71, -27, 49, 60, -96, -102, 70, -123, 122, 12, 62, 101, -2, 56, 52, -51, 119, -10, -73, -116, 35, -26, -83, 116, -78, -126, -23, -113, -47, 73, -20, 122, 54, 17, 11, -103, 80, -26, 61, 30, 9, 57, -33, -124, 126, -48, 104, 59, -20, -77, 58, -44, 123, -73, 6, -88, 52, -75, -87, 64, 116, -98, -5, -39, 1, -88, -92, 40, 127, 116, 24, -24, -14, -97, 42, 70, -99, 13, 69, -14, 7, -74, -93, 101, -116, 9, 53, -117, 99, 6, 100, -108, -121, -104, 62, -22, -83, 43, -104, 121, 20, 5, -30, -14, 94, 68, -41, -100, -94, -98, -66, 58, -84, 54, 18, -92, -25, 11, -27, 97, 22, -124, -122, 122, 39, 37, 105, 77, -73, 49, -12, 35, 74, -24, 77, 56, 41, -12, -92, -21, -67, 118, -84, 95, -14, 81, -57, 92, -55, -81, -23, -94, -73, -105, 82, 66, -118, 28, -116, -12, -53, 97, -20, -82, -51, 109, -8, 15, 96, -80, -82, 103, -87, 114, 30, 84, 9, 83, 80, 45, 114, -103, 17, 97, -92, 105, 48, 102, 10, -46, 111, 15, -73, 43, -76, 29, 66, 4, 53, 110, -104, 71, -112, -63, -66, 112, -26, 15, -33, 88, 46, -74, 33, 38, 114, -44, -54, -111, -86, -21, 32, -85, 82, 111, 86, -120, 7, -67, -111, 124, 39, 87, 96, -83, 33, -11, -110, -52, -36, 63, 10, 104, 87, -33, -94, -111, 64, -107, -83, -125, -49, -49, 30, 0, 95, 5, -91, 34, 36, 91, 30, 61, 53, 98, 67, -27, 31, -73, 47, -69, -119, -123, 113, -33, -22, 61, 101, 86, -29, 6, 91, 80, 66, 25, 38, 80, 23, 109, -109, -99, 78, 95, -11, -109, 31, -29, 87, 66, -36, 89, -51, 15, -22, 80, 66, 22, 82, -123, 51, -108, -3, -72, -70, 106, 118, -75, 20, 66, -88, -87, 84, 42, -55, 16, -73, 83, -96, 73, 85, 68, -90, -20, -84, 102, 81, -32, -111, -11, 66, -76, -1, -2, 70, 24, -84, -55, -1, 106, -49, -92, -30, 9, -122, 96, 68, -81, 0, -7, -101, 88, -62, -111, -59, 55, -46, -111, 24, -62, -15, 117, -112, -8, -110, -54, 65, 5, -45, 31, -9, -95, -61, 68, -95, 9, -94, -60, -90, 84, 32, -125, 121, 123, 58, 58, 9, -105, -50, 53, -82, -84, -8, 73, 97, -57, -118, -66, -90, -99, -18, 95, 111, -54, 32, 67, -106, -77, 11, -43, -30, -61, 63, 83, 29, -6, 85, 63, -59, -96, -74, 75, 58, -62, -56, -54, 94, -32, 10, -14, 44, 36, 44, -98, 70, 8, 86, -23, -77, 89, 17, 110, -30, 69, 19, -53, -58, 47, -37, 125, 26, -31, -103, 94, 14, -78, -110, -60, -67, -27, -86, -39, 28, 116, 110, -28, 37, 82, -98, 95, 43, 37, 19, 7, -26, 19, 50, -62, -40, 126, -51, 7, -94, 30, -9, -94, 58, -119, 115, 85, -38, 39, -80, -16, -35, -37, 36, 68, 95, 84, -104, 39, -70, -97, -111, -9, 81, 62, -64, 88, 115, 6, 107, -21, 23, 71, -24, 124, 22, 64, 26, -61, 4, -101, -18, 97, 36, 124, -87, 118, 10, -44, 30, -86, 85, 75, -116, -45, -108, -55, -70, 91, 7, 104, 101, 31, -114, 8, 21, -50, 57, 34, 76, -5, 43, -99, 72, -123, -70, -51, -47, -98, -35, 47, 118, -66, -43, 111, -86, -94, -11, -67, 40, 119, 83, 51, 5, -78, 48, -7, 85, 24, -122, -61, 82, 113, -84, -30, 23, -17, 119, 16, 75, 80, 98, -32, 5, -96, -110, 85, 38, -19, -50, 91, 109, -31, 47, 120, 110, -34, -33, -80, 2, -77, -34, 125, -66, -81, -51, -8, 66, -59, -101, -16, 43, 68, -54, 96, 34, -29, -77, -36, 49, -55, -12, -59, 39, -35, -17, 67, 73, -38, -17, -116, -83, 49, 77, 76, 107, 41, 45, -33, -90, 26, -63, 112, -84, 61, -46, 29, -120, -66, 1, -74, -59, 40, -69, -89, -127, 57, 50, 100, -1, -43, 102, -41, 64, 44, 102, 52, 40, -46, 17, 61, 115, 71, -95, 34, -70, -43, -87, -96, -63, 65, 105, -22, 115, -12, 94, -38, 27, -83, -119, 67, 6, 73, -78, 116, 46, -32, -77, -69, 99, 103, -12, 96, 9, 122, 113, -53, -6, 21, -98, 69, -19, -36, -42, -67, 75, -59, 45, 108, 82, -47, -7, 14, -33, 92, 27, 97, 2, -72, 0, -70, -26, -53, 114, 124, -47, 86, 24, -23, 62, 125, 41, 3, 99, -52, -34, -54, -88, -89, -106, -62, -60, -46, 97, 72, 102, -124, -54, 70, -18, 70, -99, 41, 77, 104, 44, 79, 30, -61, 9, 98, 119, 80, 86, 69, -32, -31, 1, -100, -8, -56, 90, -34, 126, -67, -4, -14, -91, -36, 94, -29, 84, 41, 44, 72, -95, -44, -34, -126, 18, 99, 110, 65, -80, -60, -87, -117, -120, 85, -79, 109, -9, -13, 26, -102, 26, 124, 64, -49, -111, -119, -6, 28, 116, 87, 23, -84, 73, -75, -55, 80, -73, -38, -64, 90, -98, 32, -98, -54, 87, 68, 95, 120, 96, -105, 73, -84, -71, 29, 106, 19, 90, 14, 37, 20, 93, -32, -78, -2, -49, -38, -70, 74, -101, 53, -95, 71, -37, 113, 42, 37, 122, 74, 90, -93, -43, -81, 121, -95, -35, -114, -103, -36, -44, -97, -66, -61, 24, 94, -74, 76, 47, 30, 41, -27, -19, 86, 99, 110, -119, -43, 14, -20, -112, 77, 62, 25, 10, 29, -64, 14, -44, -119, 103, 10, 103, 100, -121, -84, 116, 81, -88, 116, 126, 26, -48, 73, 81, -3, 98, -18, 97, -37, 52, -70, -31, -2, -65, -116, 48, 92, 80, -60, 28, 123, 62, 75, 91, -100, 88, -87, 94, 84, -38, -33, -26, 28, -99, 100, 106, 6, -74, 8, -67, -28, -39, -7, 74, 106, -76, 37, -98, -25, 111, 59, 25, 117, 37, 116, 36, -28, 50, -93, -33, -127, 55, 84, -109, 31, -84, -107, -58, 87, -82, -12, 34, -36, -67, 126, 56, -65, 20, -46, 63, -120, 93, -31, -125, 107, -101, -73, -118, 18, 124, -61, -106, 91, -112, -88, 47, -50, -103, 38, -43, 22, 91, 37, 103, 12, -87, 109, 74, 78, 50, -54, -84, -41, 75, 122, 91, -119, -20, 38, -80, 24, -86, -70, 107, 85, -15, -6, -109, -82, 82, 121, 68, -55, -60, 60, 84, -70, -90, 60, -90, -111, -110, 43, 57, 0, 4, -4, 36, -52, -8, 40, 2, 66, -31, 97, -106, 77, -53, -64, -22, 120, -78, 83, -77, -8, -36, -59, -10, -61, -125, 21, 1, 84, 41, 24, 115, 104, 37, -71, 101, -38, -54, -115, 39, 38, 91, 69, -19, 96, -43, 77, 97, 59, -7, -100, -63, -123, -102, -82, -119, 10, 6, -29, -79, -60, 58, 78, 53, -5, -65, -111, 101, 9, -78, -3, -90, 100, 15, -96, 18, -3, -1, -106, 104, -29, -26, -24, -108, 5, -101, 27, -100, -41, -75, -3, 107, -88, -111, 64, -126, -49, -44, 47, 68, -61, 87, -110, -117, 121, 94, 89, -106, -113, 9, 14, 118, -37, 25, 83, -8, 24, -13, 36, -2, -50, 43, 118, -2, 35, -74, -91, 100, -126, 83, -13, -118, 43, 50, 55, -121, 76, -48, 106, -72, 15, -14, 71, -102, 26, 122, 105, 72, 52, -111, -47, -19, -77, 44, -95, -117, -122, 29, -66, 61, -69, 1, 65, 14, 47, 68, -78, -102, 122, -107, -120, 31, -53, 46, 81, 39, 79, -29, -43, -115, 118, -38, 70, 31, -106, 95, 78, 4, -74, 63, -99, -45, 54, -9, -73, 55, -108, 17, 60, -68, -12, -93, -55, 93, 93, 109, -62, -8, -53, 124, -59, 86, -51, 21, -82, 63, -63, 78, -50, -104, 81, -86, -82, 65, 30, -115, -99, -18, 125, -52, -102, -78, -36, 104, -82, 60, 94, 30, 105, -106, 104, -20, 51, 43, 106, 8, -119, 103, 23, 19, 86, -37, 99, 76, 80, -63, 45, -55, -65, 7, 85, 26, -5, -23, -40, 124, -111, 35, -94, 18, 40, -2, -58, 9, 102, 47, 98, 124, -25, -19, 30, -69, -75, -24, 86, 33, 3, -109, 115, -86, 6, 79, -2, 38, 61, -69, -36, 34, 87, 42, 21, -86, -47, -78, -49, -103, -99, -78, -42, 1, -66, -92, -63, -69, 105, -4, 99, 71, 60, 8, -43, -122, 67, 107, -56, -104, 108, -103, -29, -110, 42, 43, -58, 54, -45, 51, 53, 76, 106, -120, 9, -14, 47, 32, 46, 121, 45, 27, -23, -126, -101, -49, 114, 80, 79, -54, 115, 19, -31, 30, 98, -110, -14, -34, 20, -7, 40, 55, 79, 103, -8, -5, 24, 35, 67, -92, 83, 110, -118, 45, -91, -116, 20, 63, 45, 73, -65, -119, -32, -94, -30, -65, 31, -104, -119, -44, 88, 122, -119, -118, -104, 46, -67, -94, -126, -120, 116, 78, -89, -43, 89, 8, -104, 82, 3, -74, -55, -116, 21, 70, -43, -32, 98, -91, 7, 112, 33, 102, -112, 118, 42, -94, 74, -14, 54, -59, 104, -13, 4, 78, -21, -123, 101, 90, 118, -86, -110, 12, 105, -16, -101, 107, -97, 78, 70, -121, -95, -18, -70, 27, 62, 33, -67, -104, 100, -62, 107, -50, 57, 73, 58, 118, -12, -47, 47, 108, -49, -91, 7, 20, 54, -1, -48, 18, -19, -68, -97, 40, 19, -7, -19, -107, 97, -30, 5, 28, -77, 65, -57, 107, -54, -115, -26, 12, -4, 60, 1, -51, 121, 41, -94, 121, -96, -2, -63, -19, -103, 30, 67, 7, 61, -29, -103, 74, 44, 63, 0, 37, 114, 109, 71, -111, 9, 106, -2, 88, 91, 106, 91, -93, -76, 84, 51, 116, 85, 57, 107, 121, -48, -53, 49, -63, 36, -84, 113, 118, 107, 118, 55, 120, 1, 113, 52, 92, -123, -125, 84, 4, 98, -33, -42, -110, -65, -122, 126, -88, -113, 122, -61, 82, -96, -16, -4, 117, -20, -38, 12, 29, 12, 25, -64, -16, -14, 123, -7, 62, -34, -37, -25, -111, 2, 94, -16, 119, -42, 29, -35, 30, 96, 56, -15, 67, -43, -62, 55, 81, 63, 79, 9, -83, -52, 36, 36, -3, -63, 19, 89, 31, -6, -108, -84, -33, 38, 9, -24, -80, 87, 118, 3, 52, -94, -123, 41, -22, -115, 56, 57, 4, 58, -124, 102, -58, 112, 9, 123, -36, -82, 72, -40, -118, 21, 109, 13, -28, 107, -86, 39, -75, -12, -75, 112, 78, 98, -12, 5, 118, -120, 103, 125, 55, 93, -1, 118, -108, -108, -111, -84, 11, 57, -124, -24, 34, -66, -32, 24, 30, 28, 55, 10, 115, -98, 65, 47, 7, 83, 98, 124, 1, -57, 50, 32, -8, -69, -11, -38, -20, -12, -105, 36, -9, -22, -29, 65, 77, -70, 105, 92, -69, 124, 81, 118, -47, -2, 47, 46, 3, -28, 31, 108, 64, 29, 110, -99, 119, 92, 74, -7, -19, -90, 16, 84, 84, -10, -114, 35, -71, -89, 76, -19, 40, 2, -46, -116, 37, -8, 93, -21, -113, -19, 61, -88, 13, 10, -90, -75, -34, -120, 63, 24, -89, 43, -61, -118, 58, 102, 87, 47, -97, 22, -21, -78, 119, -108, 59, -10, -109, -104, -1, 30, -88, 113, 85, 92, -30, 93, 102, 92, 106, 11, 31, 58, -15, -18, -48, -117, 62, -62, 117, -113, 106, -32, 109, -55, 32, -71, -119, -4, -31, 87, 84, 21, -35, -91, 10, -9, -22, -4, 88, 86, -23, -37, -115, 16, 50, -64, 119, -39, 35, -30, 121, 41, 4, -73, -123, 64, -94, 51, 89, -47, 11, 30, 77, 83, -86, 120, 25, 65, -74, -28, 17, 82, 43, 19, 46, 5, 41, 88, 101, 96, -52, -3, -45, -91, 41, -35, 113, -93, -40, -99, -59, -54, -40, -18, 13, 125, 89, -58, 36, 37, 110, -101, 98, -73, -104, -22, -64, -60, 73, -66, 71, -23, 11, -48, -40, -37, 18, -67, 117, 60, -113, -97, -31, 26, -102, -72, 78, -42, -27, 92, -99, -54, 85, 54, 57, -65, -81, 11, -78, -33, 105, 22, 99, -120, -90, 11, 85, 91, 92, -111, 57, 86, -26, 117, 102, 92, 54, -51, 22, -96, -50, 52, 0, -15, -115, -105, -53, 31, 122, 50, -125, -59, 45, 24, 32, -118, -27, -9, 55, 33, -33, -27, 111, 59, -31, 102, -41, -104, 27, -77, -62, -46, -110, -32, -69, -92, -66, -44, -105, 23, 50, 115, -92, -63, -109, -104, -65, -83, 47, 8, 95, 64, -25, 26, -72, -90, 28, -109, -9, 105, -125, 84, -64, 10, -106, -119, -36, -52, 33, -16, 83, 24, 9, -76, -87, 115, -61, -40, -31, -29, 113, 90, 106, -38, -68, 64, 30, -19, -83, -83, 122, 34, 63, 36, -67, 105, -22, -45, -10, -81, 75, -45, 0, 125, 111, -31, 41, -116, 65, 83, 51, -6, -24, 99, -63, -15, -68, 7, 108, -110, -42, -88, 29, -17, 75, 118, 117, 11, 72, 51, 93, -11, -24, -70, 18, -80, -19, 8, -66, 121, 42, -113, 21, -47, 83, 19, -76, -33, -92, -4, 120, 56, -82, 33, -43, 57, -101, 49, 73, -86, 39, 21, 113, -99, -95, -111, -15, 49, 27, 61, 116, -93, 92, -39, 98, 65, -48, -102, 100, 45, -65, -30, 92, -86, -4, 19, -110, 96, -43, 92, -88, 1, -102, 76, 51, 6, 4, 27, -47, 72, -19, 20, 59, -80, 35, -91, -39, -31, -62, 53, 10, -56, 58, -68, -50, 49, -63, -92, 17, 95, -1, 91, -47, -123, -15, 10, 82, -123, -16, 99, 50, -75, 47, -29, 24, -40, -93, -82, -102, -14, 25, -57, 32, -37, 45, -105, -86, -61, -43, -39, 37, 113, -126, -33, -98, 28, -79, -85, -90, 4, -65, 35, -68, -116, -85, -126, 13, 42, -16, -19, 38, 10, -106, -11, 42, 22, 112, 39, 115, -122, -77, 40, 36, 100, 24, 69, -42, 32, 68, -75, 68, -108, 121, -5, -113, -39, -112, -31, -17, -98, 109, 36, -70, -118, -40, -103, -101, -127, -104, 112, -73, -99, -47, 71, 28, -127, 15, 51, -8, 111, 35, -26, 105, 67, 3, -96, -61, -15, 115, 41, -63, -4, -39, 102, 51, -24, -20, -63, 32, 80, 62, -38, -49, -115, 3, -65, -41, -6, -83, 65, -89, 16, 71, 24, -44, 10, -16, 106, 23, -83, -6, 121, -61, 14, 122, -99, 35, 32, 112, 59, 10, -83, -113, -26, 13, 94, 15, -91, -50, 109, -17, 114, -72, -11, -9, 22, 83, -28, -60, 98, -110, -24, 106, 50, -65, -44, 93, -65, 79, 43, -4, 102, -25, 92, 54, -46, -22, -42, -92, -16, -60, 83, -21, -84, 18, 119, 84, -73, -112, 90, 9, -91, 98, -37, 113, 102, 14, -29, -99, 120, -8, -85, -60, 105, -2, 83, 112, -11, -111, -43, -125, -76, -75, -116, -106, 11, 84, 16, 126, 25, 8, 124, 70, 51, 50, -6, -83, 102, 81, -100, -61, -42, 18, 86, -40, 85, -92, 80, -29, 92, -42, 6, -113, -73, -67, -8, -106, -9, -37, 97, 15, -75, -41, -40, -3, -86, -123, -124, -98, -14, -91, 39, 65, -58, -30, 37, 72, 40, -66, 29, -18, 88, -46, -72, -29, -79, 68, 15, -99, 25, 18, 32, -75, -42, 88, 42, 16, -55, 91, -123, -98, 36, 25, 54, -34, 26, 44, 35, 106, -24, -98, 26, -84, -111, 26, -32, -67, 30, -124, 35, -39, 17, 83, -57, 93, 16, -22, -119, 61, 10, 112, 13, 101, 82, 46, -58, -16, 71, -32, -77, -28, 70, -34, 6, 5, 90, 77, 103, -2, 46, -91, -80, -34, -30, 122, 13, 80, -91, -18, -79, -37, 68, -80, -48, 97, 125, -14, 86, 56, 73, 46, 39, 103, -54, -107, 55, -75, -45, 1, 75, -6, 26, -110, 6, -46, 64, 69, 48, -59, -48, 26, -27, -100, 20, -49, -106, -102, -5, 56, -60, -103, 51, 73, 107, -6, -50, -27, 71, 34, 88, 85, 90, 81, 120, -21, -101, 77, -126, 29, -74, 72, 88, -84, 88, -104, -39, 82, -48, -126, 80, -59, -18, 8, -23, 101, -35, 104, 8, -89, 81, -91, -76, 83, -107, -56, -94, -100, -97, 32, 25, -4, 94, 48, -104, 112, -101, -7, 105, 87, -98, 46, -114, -85, 4, 85, -12, 7, -82, 118, 93, -29, 54, 82, 103, 69, -113, 74, -47, -14, 16, 105, -1, -54, -118, -98, -65, 95, 124, 95, -9, -32, 80, 62, 95, 122, 56, -33, 33, -7, -104, -113, -81, -88, 90, 11, -122, -94, 54, 92, -21, -64, -96, 72, -84, 79, 39, -94, 106, -122, 89, 63, 59, 108, -59, -36, -55, 0, -98, -88, 70, 81, -19, 105, -41, -36, 65, -103, -119, 27, -115, -93, -69, 102, 7, 12, -81, -36, 7, -18, -35, -20, -4, 96, -86, -83, 3, 117, -2, 83, 74, 80, -42, 67, 110, 61, -68, -74, 85, 109, -66, -47, 72, 36, 91, -81, 74, -55, 64, -67, -44, 116, -48, -33, -48, 113, -111, -55, -87, -92, -126, 105, 55, -108, -90, -6, -9, -38, 68, -90, 18, 22, -32, -52, 4, 70, 115, -62, 123, 98, 33, -124, 65, 118, 37, 61, 119, -71, -10, 82, 13, -116, -62, -12, -14, -95, 8, 17, -94, -77, -91, 68, -79, -71, 25, 102, 72, -53, -32, 31, -40, -89, -52, -95, -15, 28, 39, -24, -52, -80, 30, -37, -7, -64, 60, -30, 64, -5, -117, 37, -58, 88, 98, 114, -86, -103, 120, 117, 38, 87, -113, 12, -39, 117, -33, -30, 20, -120, 126, -21, 67, 80, -96, -76, 86, 22, 2, 57, 57, 98, 52, 11, 108, 31, 110, -110, -67, -19, -39, -112, -42, 11, 74, 74, -34, 14, -93, -11, -13, -65, 121, -80, 88, 120, -28, -36, 21, -126, -6, 82, -83, -31, 3, 121, 113, 21, -99, 116, 68, 98, -112, -27, 86, -127, -62, 19, 38, -95, -15, -81, 63, -11, -59, 13, -22, -59, 16, 17, 41, 122, -6, 1, 105, -56, -101, 63, -6, 101, -10, -115, -3, -68, 72, -84, -115, 30, -54, 93, 72, 3, -8, -4, -115, -76, -121, 75, 69, 14, 42, -68, 28, 97, -40, 53, 119, 2, -22, -117, 68, 30, -51, -72, 106, 18, 74, -61, -88, 1, -25, 61, 78, -26, 67, -47, -40, -32, 66, -26, -117, 98, -26, -122, 111, 96, -97, -67, 49, -21, -25, 91, -34, 100, 113, 51, -99, 72, 105, 15, -89, 5, 101, -123, -73, 86, 71, -45, -30, -41, -25, -38, -45, -5, -58, -102, -10, -77, -76, -81, 80, -100, -50, -69, -75, -120, -52, 19, -8, 34, 47, -112, 47, 69, -18, -31, -86, 126, -87, 19, 84, 0, 40, -29, 7, 1, 95, 50, 81, -31, 2, 57, -25, 55, 122, -114, -74, -127, -38, -11, 12, 64, 121, 124, -51, 85, -56, -71, 42, 43, -59, -68, 73, -113, -113, -36, 104, -109, -26, -44, 52, -49, 37, 2, 55, -31, -22, 84, 75, -68, 19, 59, -25, -36, -53, -40, -71, -125, 32, 111, 59, 120, -61, -95, -82, -107, -99, -73, 125, 44, -76, -106, 39, 102, -20, -79, -27, -67, -109, -27, 39, -102, -23, -46, -76, -106, 47, 74, -29, 24, 44, -82, -85, 100, 37, -79, 46, -33, -65, -66, 120, -55, -39, -83, -120, -106, -89, 74, -28, 59, -106, 115, 12, -53, 101, -106, 41, -108, -3, -116, 121, 2, 107, -115, 68, 85, -18, 63, 49, 87, -76, 46, 97, -7, 52, 15, 39, 120, 105, -25, -102, 13, 25, 106, -97, 45, 20, 60, -71, 12, 84, 88, -120, -114, 111, 83, 36, 41, -114, -72, -10, -87, -26, -57, -85, -10, -38, -33, -124, -112, -32, 125, 57, -4, 70, 14, -19, -87, 64, -21, 46, -20, 72, -120, -16, -60, -52, 77, -71, -38, 77, -51, 108, -58, -58, 32, -109, -10, 114, 59, 125, 125, 89, -125, 127, 7, 55, 17, -119, -24, -78, -8, 63, -45, -2, -59, 2, 18, 101, -16, -110, 39, 6, 79, 22, 53, 120, 34, -83, -70, 34, -97, -63, -57, -111, 113, -46, 46, 1, 79, 3, -37, -122, 84, 108, -111, -38, 38, -118, 3, 21, -51, 58, 95, 22, 117, 9, 30, 39, 77, -59, -80, 49, -118, -103, 73, 77, -95, 64, 84, -115, -108, -120, 77, 50, -17, -117, -120, 108, -4, -94, 95, -37, -14, -11, 38, -99, 92, -85, -76, -112, -92, 8, -11, -77, 24, -12, -116, -9, 3, -51, 1, 98, -50, 95, 27, 8, -72, 43, 60, 57, 10, 15, -47, 68, -97, -46, 0, 29, -42, 75, -120, -5, 73, 59, -15, 101, 67, -42, 69, 95, -3, -92, -2, 103, 103, 63, 123, 23, -74, 61, -109, -53, -25, -83, -85, -50, 12, -65, -107, 73, 57, -96, -36, 31, -82, -110, 40, -91, 14, 64, -120, -5, 69, 90, -77, 100, -101, 75, 10, 55, -94, 97, 111, 52, -58, 40, 105, -57, -3, -54, 38, 77, 13, 23, -45, 87, 14, 12, 42, -22, -13, 124, 123, -89, -33, 97, -48, 92, -32, 83, -83, 61, -117, 54, 73, 18, -119, 41, 54, -94, -14, 92, 124, -37, -12, 45, 79, 118, -24, 46, -26, -30, -51, 41, -25, 97, -4, -41, -34, -31, -15, 122, 115, -70, -59, -84, 4, 111, -15, -33, 57, 103, -40, -8, -91, -108, 6, -100, -6, -38, 79, -36, -85, -64, -90, -117, 87, 100, 107, 44, -85, -100, 54, -46, 20, -82, 21, 87, 2, 50, -86, -87, 69, 20, -96, 108, 75, -77, 116, 46, -53, 6, 11, 68, -5, -22, -104, 38, 49, 34, 126, 116, -107, 15, 44, -85, -56, -29, 101, -109, -115, -53, -41, -21, 63, 94, -85, -51, -1, -122, 105, -28, -112, 17, 92, -98, 73, 6, -71, 51, 14, -53, 28, 12, 79, 122, 27, -53, -10, -45, -79, 12, -47, -47, 0, -37, -58, 51, -27, 45, 73, 66, 43, 59, -102, 12, 34, 108, 110, 47, 87, -40, -34, -81, 36, -115, -98, 79, -51, 82, -11, -68, 49, 8, -58, 42, 108, 41, 2, -14, 95, -27, 120, 69, 71, -117, 54, 21, 69, -71, 58, 5, 113, -109, 41, -61, 107, 107, -5, -121, 110, 64, 56, 122, 58, 54, -37, -34, 44, 82, -6, 125, 37, 59, -67, -122, 16, -67, 4, -88, -75, -2, 3, -54, 125, 47, -97, 29, 121, -35, -99, -48, -22, 93, 86, -100, -60, 29, 49, 37, -29, 51, 36, 0, -22, 25, 118, 31, 92, 55, -80, 9, -89, -17, -16, -69, -12, 51, 111, 34, -118, -58, -82, -75, -75, -103, -115, 98, -96, -51, 46, 38, 85, -95, -58, 25, 33, -5, 100, -69, -121, 116, 63, -2, -86, -25, -23, -64, 57, 83, 6, 123, -54, 17, -48, 105, -117, 80, 111, -108, 101, 95, 25, -54, 60, 107, -30, -105, 61, -15, -76, -11, 87, -8, 20, -47, 100, 15, -73, 46, -40, -54, 103, 44, 89, 19, -99, 28, 12, 72, -79, 123, 37, -16, -86, 91, -27, 73, -17, 31, 2, 64, -15, 48, -72, 102, -56, 102, -98, 15, -118, -85, -65, -37, 44, 8, 33, -99, -39, 27, -73, 23, 97, -23, -15, -74, 18, 47, -88, 4, 91, -15, 75, 110, 10, -124, -60, 19, 33, 75, -95, 0, -92, -73, 52, -59, -46, -69, -104, -52, -53, 125, 113, -91, -61, 4, -88, 42, 88, 80, 83, -45, -91, 46, -121, -1, 68, 77, 3, -126, 76, 57, -14, 119, 89, -76, -95, -102, -82, -108, 52, -100, 68, 33, -17, 120, -98, 117, 42, -53, 109, -5, 54, 38, 95, 14, 69, 55, 125, 1, 103, -97, -40, -8, 58, 18, -82, -66, 108, -48, -124, -118, -20, 125, 69, -77, -97, 22, 83, 125, -19, -111, -83, 85, 39, -4, 15, 100, 32, 90, -31, 79, -66, 126, 42, 111, -30, -82, -97, 104, -107, 21, 15, 29, -72, 31, -89, 83, 77, -95, -3, -57, 4, -83, 105, -13, 2, 102, 74, -45, 30, -40, -69, -59, 75, -60, 97, 99, -60, -10, 74, -94, -36, 74, 9, -36, -50, -81, -101, 61, -109, 25, 126, -21, 114, 66, -110, -47, 125, 18, -22, -44, 101, -88, -15, 0, 7, -16, -74, 122, 38, -47, -58, -5, 72, 11, -99, -105, 65, -28, -96, -74, -126, -23, -111, 23, -92, -11, 58, -113, -94, -33, -66, -48, -101, 105, 29, -119, -8, -109, 118, 63, -63, -99, -116, 20, -96, 7, -98, 43, 97, -97, -7, -120, -72, -96, -119, -73, 64, 40, -47, 102, 23, 86, -113, 44, 92, -56, 65, -107, 43, -57, -113, -49, 80, 0, -79, -99, -103, -75, 93, 26, -98, 2, 71, 0, -27, 70, 69, 103, 45, 8, 38, -46, -82, -78, -19, -68, 2, -31, -77, -14, 63, 116, 5, 60, -20, -23, -115, -17, -81, -76, -76, 107, 70, -79, 32, -69, 110, -107, 44, 22, 8, -119, 95, -31, 81, -4, 59, 99, 32, 121, 31, -94, -41, 122, -61, 109, 70, 87, 28, -65, -54, -51, -100, -114, -118, -39, -49, 36, -40, -43, -17, -29, -3, 111, 35, 79, -24, 63, 104, 126, 13, -60, -69, 103, 115, -124, -15, 5, 113, 90, 122, 32, 69, 105, 97, 6, 55, 71, 113, 2, 62, 43, -18, -47, -96, 12, -29, 58, 10, 26, 25, -4, 104, -90, 58, 62, 36, -75, 29, -113, -30, 60, 8, 65, -73, 118, -105, 92, 12, -78, 109, -31, -36, -1, -109, -108, -82, -124, 29, -43, 22, -106, 40, 69, -60, 99, -30, -15, 95, -111, 77, 49, 111, -34, 67, 0, -7, -114, 26, -121, 109, -8, -108, -49, 111, -60, -16, -91, 40, -49, -66, -68, 66, -87, 10, 12, -105, 45, -54, -59, -17, 83, 56, 35, 95, 94, -65, 31, -13, 6, 52, -109, 44, -91, 29, 65, 113, -48, 103, -37, 73, 64, -34, 103, -121, -123, 89, 48, -70, -123, 105, 14, 79, 105, 94, -19, -113, -9, -73, -86, -109, -60, 78, -21, 100, 62, -35, 61, -93, -10, 100, 117, 97, -94, -48, 102, 50, -26, -96, 24, 95, -121, 19, 69, -9, 114, -46, 15, 66, -125, -112, 52, 40, 0, -68, -98, -3, 50, -116, -29, 86, 114, 85, -51, 99, -31, -26, 34, 119, 113, -20, 115, -76, 70, 16, 4, -54, 23, 92, 15, -18, -15, 43, -89, -23, -76, 23, 61, 15, -125, 42, -52, 11, -109, -6, 28, -116, 88, -59, 21, 92, 57, -100, -70, 101, -45, -103, 87, -109, -104, -45, 40, 101, -23, 4, -6, -63, -124, 88, 92, -46, 124, 48, 68, -1, 78, 9, -54, 81, -112, -77, 38, 59, 41, -91, 125, -97, 103, -3, 38, -110, 126, -63, -73, -56, -90, 8, -5, -41, -63, 58, -25, -17, -63, -13, -113, -58, 8, 1, -48, -13, -118, 31, -20, -89, 9, 121, -112, 67, 34, -18, -59, -63, -4, 123, -126, -92, 48, 91, 10, -127, 75, -6, -117, 12, -104, -71, 23, -84, 1, 1, 44, 12, 81, -77, -10, -45, -5, -62, -109, 25, -71, -68, 57, 33, 112, 17, -6, 110, -121, 107, 112, -100, -19, -53, -27, 79, 4, 34, -60, -111, -103, 107, 48, 59, 81, -91, -29, 21, -66, 21, 107, 99, 82, 95, -30, -121, -26, 122, -15, -88, -44, 3, 70, -89, -36, -24, -118, 24, 28, 59, 101, 57, 112, 126, 88, 110, -110, 44, 67, -3, -54, 121, -68, 25, -97, 115, -28, -101, -107, -67, 44, 18, 100, -60, -12, -119, -16, -17, 98, -7, 75, 32, -101, 19, 97, 114, -60, -26, -94, -88, 72, -106, -73, 74, -40, 44, 104, 97, -118, 19, -36, -116, 114, -66, 59, -86, 44, -78, -83, -109, -77, -89, 64, 2, -71, 62, -7, -7, -118, 88, -2, 51, -100, -41, -13, -18, -119, -86, 53, 93, 106, 37, 9, 87, -83, 58, -112, 31, -98, 40, -34, 86, -74, 78, -105, 49, 20, 42, -74, -116, 77, -21, -56, 97, -8, 29, 55, 108, 116, -117, -39, -119, -46, 54, -6, 56, 67, -45, -57, 26, 26, -25, 12, -17, -97, 96, 37, 86, 37, 112, -73, -84, -71, -126, 38, 125, -85, 108, 13, 0, 43, -24, -2, 117, -104, -67, 50, 16, 120, 3, -85, 36, 66, -39, 121, -19, 122, -102, 46, -76, -87, -81, -2, -60, -94, 47, 47, 36, 101, -40, 45, -91, 107, -35, 20, 50, 110, 40, 88, 16, -25, -14, 42, -42, -7, -123, 82, 66, 89, 116, -86, 80, -122, 30, 51, -48, -88, 23, 61, 109, -73, 82, -24, -78, -104, 90, -10, -25, 98, -22, 39, 122, -8, -48, -23, 61, -72, -85, 48, -118, 121, 65, -10, 25, -40, -23, 105, 73, -4, -119, -124, -65, -14, 58, -26, -42, 81, 24, -56, -31, -23, -53, 56, -81, 103, 11, -34, 23, 98, -81, 80, -110, 44, -94, 74, 61, -110, 70, 126, 51, -95, 65, 73, 90, -50, -76, 71, 5, 41, -22, 75, -1, 88, -124, -22, -117, -44, -126, -121, -18, 52, -73, 94, 76, -31, -81, -39, -63, 104, -86, 13, -61, 3, 43, -41, 57, -36, -125, 112, 65, -74, 42, 86, -4, 20, -62, -92, 40, 92, -62, -20, 87, -54, -78, -99, 75, 30, -84, 51, 85, 52, 61, 28, 36, 118, -79, -15, -107, 14, -61, -122, 26, -6, 28, 78, -75, 26, -35, 27, 14, 119, 67, -66, 42, -114, 37, -70, -25, -100, 41, 65, -87, -27, -10, 60, 126, 74, -121, 124, 19, -14, 62, 101, 92, -109, -110, -16, 12, 52, 7, -31, -114, 20, -96, -88, 90, -47, -8, 70, -126, -75, -20, 119, -52, 39, -13, 28, -14, 106, -93, -72, -89, 52, -108, -25, -78, 14, -35, 55, -23, -40, -48, 8, -119, -42, -7, 99, -100, 125, -39, -21, 111, -64, -34, 69, 64, 41, 89, 115, 87, 37, -64, -36, -72, 86, -79, 88, -96, 11, 15, 94, 91, 33, -12, 95, -48, -83, 93, -3, -112, 110, -113, 25, 45, -12, 59, -108, -58, -22, -15, -41, -44, -120, -66, -20, -98, 81, -49, 104, -92, 48, 100, -49, 76, -110, -50, -26, -114, 83, -24, 60, -15, 117, 110, -92, 40, 102, 21, -102, -69, -71, 58, 10, 65, 8, -14, -89, 126, 5, -24, -35, -50, 104, 79, 103, 13, -85, -51, 91, 35, -109, -2, 19, -70, -54, -4, -97, -81, -90, 44, 45, 120, -97, 17, 94, -33, 42, 116, -116, 52, -117, 58, -77, -69, -127, -81, -64, -106, 2, 54, -19, -96, -67, 59, 71, -39, 70, -85, 56, 118, 10, -103, 107, -47, -65, 7, -96, -40, 42, -83, 14, 37, -57, -123, 90, 98, 109, -42, 47, -8, 90, -31, 22, -12, -126, 21, 100, -94, 21, -76, 64, 28, -108, 88, 118, 48, -34, 18, -87, 35, 51, -1, 127, 78, -38, -57, 53, -54, 106, -106, 2, -43, -24, -48, -79, 122, -17, 81, 23, 25, -25, 74, -11, 100, 26, 72, 116, 61, 1, -24, 6, -39, -95, -39, 74, 11, 99, 36, -48, 0, 12, -95, -64, 9, 22, -60, -2, -96, -18, 80, -100, 46, -102, 3, -73, 124, -124, 31, -95, 24, 115, -33, 31, 11, 100, -27, -71, 94, -20, 10, 77, 67, 68, -109, -79, -27, 27, -60, 76, -61, -53, 62, -1, -24, -74, 87, -34, 80, 28, 89, 76, -110, -79, -100, 36, -99, -77, 109, 33, -125, -52, -96, 95, 91, 113, -83, 45, -6, 111, 51, -28, -56, 73, 83, -118, -15, -57, 38, -60, 117, -104, 62, -40, -92, -15, 91, -125, -63, 91, 44, 122, -39, -44, -24, 9, -60, -105, 91, 77, -87, -83, 58, -80, -61, -115, 125, 114, -120, -33, 100, -86, 5, 103, 32, 10, -34, 70, 83, 126, 64, -3, 67, -69, 111, 89, -26, 56, -101, -83, -60, 110, -11, -110, 52, -20, -105, -108, -58, -2, -70, -27, -99, -114, 71, -8, 26, -36, 100, -64, -114, 19, -56, -97, -12, 98, 36, 34, -111, -37, -68, -65, 50, -29, 84, 77, 23, 118, 98, -46, -65, 43, 110, -120, 11, 26, 48, 37, -1, 68, -122, 67, 29, -113, -86, 29, -74, -117, 20, -6, 31, 37, -113, 78, 113, 35, -73, -99, -25, -16, 84, 61, -64, -50, 125, 37, 125, -76, -67, -34, 107, -62, 83, 11, 120, -81, -7, -68, -116, -61, 64, -92, 30, 123, 11, 29, -79, -121, -113, 52, 110, -78, -35, -19, 103, 32, -2, 15, -103, -28, -48, 72, -125, 4, -65, -43, -34, 10, 58, -57, -10, -58, -12, -72, 87, -121, -30, -64, 81, 103, 102, 48, 47, -13, 55, 39, 94, -66, -29, -101, -33, -52, 116, -15, -45, -18, -107, -57, -16, 14, -15, 36, -51, 57, -97, 86, 83, -94, -115, 80, 62, 91, -81, 22, 73, 19, -115, 98, -14, -14, -5, 91, -49, -50, -15, -92, 11, 14, 109, -6, 21, -68, -2, 116, -14, -2, 79, -118, 56, 75, 80, 85, -100, 105, -26, -99, -104, -87, 119, 10, -87, 28, 26, 87, -9, 118, -19, -78, 111, -15, 53, 15, 30, 37, -68, 15, -52, -105, -86, -44, 92, 79, 89, -98, -98, 56, 38, 28, 69, -39, 77, -87, 66, -122, 71, -72, -70, 92, -11, -74, -3, 73, 11, 118, -78, 99, 57, -118, 119, -71, -23, -83, -123, 15, -15, -123, 120, 62, 60, -104, 25, 5, 61, 81, -39, -43, 41, 123, 58, 44, 73, -49, -106, 78, -8, 107, -81, -98, -65, 82, 21, -84, -19, 44, 27, 69, -81, 104, -70, 127, -92, 122, 110, 51, 48, -97, -122, 120, -80, -104, -36, 53, 106, 33, 97, 105, 44, 63, -123, -120, 74, 5, -125, -3, 24, -2, 48, 50, -71, 98, -75, 107, -33, 108, -109, 48, 97, 104, -57, -118, -24, 19, 62, 117, -37, 26, 114, -120, -80, 102, 42, 102, -107, -3, -33, 110, -36, 111, -63, -106, -120, -125, -71, -19, -78, 64, 60, 83, -90, 45, 81, -63, -30, 20, 75, -51, 34, -33, 67, 47, -91, -50, 38, 111, 15, 123, -5, 15, -119, -127, 119, 98, -18, 85, 17, -111, 29, 43, -85, 111, 109, -14, -40, 113, -47, -36, -69, 37, -119, -53, 89, -121, 96, 68, -49, 93, -103, 118, -102, -117, -24, 38, -23, 107, 21, 34, 24, -26, -49, 22, 75, -71, -88, -28, -53, 79, -5, -113, 81, -78, 126, 10, 21, 72, 10, -73, -4, 124, 38, -112, -79, -1, 38, -62, 1, 60, -85, 67, 85, 126, 33, -79, -5, 32, 91, -109, -105, 22, -35, -71, -97, 42, -74, 100, -44, 39, -25, -9, 105, 80, 112, 12, 107, 22, 111, -112, 32, -48, 62, 64, -52, -3, -6, -44, -114, 101, 44, -94, -53, 108, 27, -15, 31, 10, -6, 18, 97, 27, 55, -11, 54, 98, 82, -81, 39, -114, 14, 11, 87, -28, -109, 23, -112, 27, 69, -58, 61, 107, 28, -49, -65, -33, -104, 35, -116, 20, -118, -34, -60, 116, 65, 80, 69, -22, 110, -84, -51, -81, 91, -96, -35, -54, 42, -101, -109, 103, -15, -12, -44, 117, -25, 63, -110, 67, -50, -106, 114, 42, -37, 34, -81, 25, 104, -86, -36, 19, -118, -76, -115, 67, 17, 54, 2, -116, -74, -42, -92, 108, 25, -25, -4, 4, 80, -105, -47, 48, 0, -61, 104, 122, 106, 19, -79, -69, 65, -109, -95, 120, 66, 72, -95, 50, 23, -14, -109}

#define ADD_CONV2D_KERNEL_0_SHIFT (11)

#define ADD_CONV2D_BIAS_0 {-80, -79, 101, -74, 77, 42, -109, 67, -59, 34, 98, -17, -3, 24, 98, 17}

#define ADD_CONV2D_BIAS_0_SHIFT (8)

#define BATCH_NORMALIZATION_KERNEL_0 {83, 83, 83, 83, 83, 83, 83, 83, 83, 83, 83, 83, 83, 83, 83, 83}

#define BATCH_NORMALIZATION_KERNEL_0_SHIFT (9)

#define BATCH_NORMALIZATION_BIAS_0 {86, 86, 86, 86, 86, 86, 86, 86, 86, 86, 86, 86, 86, 86, 86, 86}

#define BATCH_NORMALIZATION_BIAS_0_SHIFT (7)


/* output enconding for each layer */
#define INPUT_1_OUTPUT_SHIFT 7
#define ADD_CONV2D_OUTPUT_SHIFT -2
#define BATCH_NORMALIZATION_OUTPUT_SHIFT 0

/* bias shift and output shift for each layer */
#define ADD_CONV2D_INPUT_LSHIFT (ADD_CONV2D_KERNEL_0_SHIFT-INPUT_1_OUTPUT_SHIFT)
#if ADD_CONV2D_INPUT_LSHIFT > 0
#define ADD_CONV2D_MODE 1
#define ADD_CONV2D_INTER_SHIFT ADD_CONV2D_KERNEL_0_SHIFT
#define ADD_CONV2D_INTER_LSHIFT (ADD_CONV2D_KERNEL_0_SHIFT-INPUT_1_OUTPUT_SHIFT)
#elif ADD_CONV2D_INPUT_LSHIFT < 0
#define ADD_CONV2D_MODE 2
#define ADD_CONV2D_INTER_SHIFT INPUT_1_OUTPUT_SHIFT
#define ADD_CONV2D_INTER_LSHIFT (INPUT_1_OUTPUT_SHIFT-ADD_CONV2D_KERNEL_0_SHIFT)
#else
#define ADD_CONV2D_MODE 0
#define ADD_CONV2D_INTER_SHIFT ADD_CONV2D_KERNEL_0_SHIFT
#define ADD_CONV2D_INTER_LSHIFT 0
#endif
#define ADD_CONV2D_OUTPUT_RSHIFT   (ADD_CONV2D_INTER_SHIFT-ADD_CONV2D_OUTPUT_SHIFT)
#define ADD_CONV2D_BIAS_LSHIFT   (ADD_CONV2D_INTER_SHIFT-ADD_CONV2D_BIAS_0_SHIFT)
#if ADD_CONV2D_OUTPUT_RSHIFT < 0
#error ADD_CONV2D_OUTPUT_RSHIFT must be bigger than 0
#endif
#if ADD_CONV2D_BIAS_LSHIFT < 0
#error ADD_CONV2D_BIAS_LSHIFT must be bigger than 0
#endif
#define BATCH_NORMALIZATION_OUTPUT_RSHIFT (ADD_CONV2D_OUTPUT_SHIFT+BATCH_NORMALIZATION_KERNEL_0_SHIFT-BATCH_NORMALIZATION_OUTPUT_SHIFT)
#define BATCH_NORMALIZATION_BIAS_LSHIFT   (ADD_CONV2D_OUTPUT_SHIFT+BATCH_NORMALIZATION_KERNEL_0_SHIFT-BATCH_NORMALIZATION_BIAS_0_SHIFT)
#if BATCH_NORMALIZATION_OUTPUT_RSHIFT < 0
#error BATCH_NORMALIZATION_OUTPUT_RSHIFT must be bigger than 0
#endif
#if BATCH_NORMALIZATION_BIAS_LSHIFT < 0
#error BATCH_NORMALIZATION_BIAS_LSHIFT must be bigger than 0
#endif

/* weights for each layer */
static const int8_t add_conv2d_weights[] = ADD_CONV2D_KERNEL_0;
static const nnom_weight_t add_conv2d_w = { (const void*)add_conv2d_weights, ADD_CONV2D_OUTPUT_RSHIFT};
static const int8_t add_conv2d_bias[] = ADD_CONV2D_BIAS_0;
static const nnom_bias_t add_conv2d_b = { (const void*)add_conv2d_bias, ADD_CONV2D_BIAS_LSHIFT};
static const nnom_addconv_parameter_t add_conv2d_parameter = { (const void*)NULL, ADD_CONV2D_MODE, ADD_CONV2D_INTER_LSHIFT};
static const int8_t batch_normalization_weights[] = BATCH_NORMALIZATION_KERNEL_0;
static const nnom_weight_t batch_normalization_w = { (const void*)batch_normalization_weights, BATCH_NORMALIZATION_OUTPUT_RSHIFT};
static const int8_t batch_normalization_bias[] = BATCH_NORMALIZATION_BIAS_0;
static const nnom_bias_t batch_normalization_b = { (const void*)batch_normalization_bias, BATCH_NORMALIZATION_BIAS_LSHIFT};

/* nnom model */
static int8_t nnom_input_data[16384];
static int8_t nnom_output_data[16384];
static nnom_model_t* nnom_model_create(void)
{
	static nnom_model_t model;
	nnom_layer_t* layer[4];

	new_model(&model);

	layer[0] = Input(shape(32, 32, 16), nnom_input_data);
	layer[1] = model.hook(AddConv2D(16, kernel(7, 7), stride(1, 1), dilation(1, 1), PADDING_SAME, &add_conv2d_w, &add_conv2d_b, &add_conv2d_parameter), layer[0]);
	layer[2] = model.hook(BatchNormalization(16, &batch_normalization_w, &batch_normalization_b), layer[1]);
	layer[3] = model.hook(Output(shape(32, 32, 16), nnom_output_data), layer[2]);
	model_compile(&model, layer[0], layer[3]);
	return &model;
}
