#include "nnom.h"

#define CONV2D_KERNEL_0 {69, 80, 100, 31, 92, 91, 111, -37, -98, -69, 114, 114, 10, -81, -49, 114, -107, -115, 1, -112, -122, 68, -14, -20, 126, -100, 68, -99, -119, -41, 117, 88, 31, 3, 46, 10, -75, 18, -97, 74, 19, 28, 30, -41, -74, 96, 88, -9, -65, 42, -65, 29, -71, -90, 64, -103, 9, 120, 3, -89, 12, 104, -96, 82, -18, 116, -104, 20, -78, -26, 4, -25, -94, -115, 124, -69, 24, -72, -83, -43, -14, 110, 48, 7, 69, -11, 6, 52, 34, 109, -84, -55, 112, -10, 39, -34, 3, 120, 38, -115, -27, -11, -82, -126, -55, -24, -17, 4, 41, -57, 93, -8, 29, -67, 44, 122, 8, -67, -39, 119, -21, -27, 95, 123, -3, -59, -72, 79, -65, -99, 48, 76, -111, 46, -8, 127, -100, 42, -123, 90, -35, -5, 51, -4, 64, -69, 115, -21, 54, -83, -91, 85, -27, 116, -16, 85, 113, 110, -13, -16, -61, 96, -101, -30, 98, -111, 72, -75, 3, 19, -106, 87, -118, -82, 6, 86, -125, 17, 25, -126, -48, -80, -99, 24, 70, -58, -110, -56, -120, 111, -69, 68, 26, -118, -118, 120, 99, 95, -36, 118, -84, -118, -10, -45, 27, 104, -13, -101, -114, 38, -61, -49, 121, 19, 32, -33, -85, -54, 11, 71, 115, -117, -117, 53, 7, -89, 93, 21, -59, -72, -72, -122, 16, 81, 103, 48, -64, -42, -37, -98, -120, -48, -76, -69, 2, 85, 28, 18, -118, -47, -86, -53, -21, 53, 112, 102, 113, 56, 36, -28, 108, 15, 95, 26, -78, -53, 20, -86, -37, 2, 28, -32, -47, -22, 61, -75, 17, -81, -30, 118, 102, -37, -110, 36, -87, 34, -106, -111, 6, 125, 48, 85, -82, -77, -19, -88, 98, 93, -73, 110, -85, 106, -106, 87, 37, -125, -61, 69, 27, 5, -107, 60, -35, 43, -10, 124, -14, -67, 71, -102, 125, -96, 115, 66, 85, -64, 90, 36, -56, -66, 19, -59, 57, -124, 8, -32, -25, 109, 6, -33, -13, -7, -14, -25, -78, 103, 123, 58, 1, -1, 52, -91, 48, -82, 76, 125, -41, -23, -57, 74, -89, 37, -124, 122, 66, -62, 62, -39, -69, 114, -72, 94, -60, -77, -37, 80, -85, 68, -42, 80, 115, 49, 4, -56, -30, 97, 122, 6, -111, 8, 50, 63, 16, -85, 106, 26, -91, -96, -3, 74, 93, 28, 127, -65, -20, 94, 5, 91, -13, 48, 81, -44, 16, -22, -68, -125, -10, -68, 87, -88, 37, 71, -35, 122, -51, 93, 46, 27, -77, -55, 53, 118, -71, -115, 74, -66, 45, 71, -93, -74, -83, -19, 14, 18, -71, 12, -114, -2, 47, -86, -121, 8, 90, 29, 0, -94, -76, 100, -63, 8, -53, -72, -91, 28, -61, -66, 96, -103, -53, 98, -78, 126, 59, -101, 22, 43, 48, 67, 47, 96, 120, 49, 95, 36, 22, -9, 6, 98, 98, -75, -83, 37, 11, 118, 55, -111, -28, 64, 72, 40, -35, 107, 53, 70, -34, -118, -92, 30, -110, 53, 10, 2, -119, -58, 62, -19, 44, -3, 57, 112, -105, -88, -19, -33, 124, -46, -55, -41, 67, -87, -8, -27, -107, -79, 108, -39, 38, 42, 46, -7, 90, 29, 20, -34, 8, 79, 49, -74, -23, -67, 124, -35, -90, -24, 104, -80, -84, -39, 84, 42, 79, 71, -16, 19, 83, 123, -63, -77, 46, 66, 12, -126, -91, 50, -73, 61, -1, 62, 53, 17, -45, 117, 60, 124, 36, 24, -5, 104, -54, 23, 35, 119, 114, 59, 12, 63, 67, 94, 55, -125, -120, 29, -82, -109, 98, -23, -49, 13, 23, 97, 59, 66, 36, -17, 106, 33, -80, 1, -1, -111, 84, 120, -46, 120, -81, 25, 62, 39, -73, -118, -83, -4, 44, -87, -99, -43, 65, 14, -67, -18, 49, 34, -84, 57, 35, 110, 17, -65, -6, -105, 103, 87, -78, 32, -114, -62, 109, 121, 100, -1, -102, 8, -62, 86, -21, 39, -124, 87, -99, 25, 11, -47, -108, 104, -127, 1, -100, -75, 98, 46, -113, 119, 40, -9, 96, -11, 101, 22, -101, 106, -116, 53, 117, 99, -26, -23, -110, 99, -4, 56, -126, -74, -103, 75, -63, 110, 104, -42, 38, 93, 74, 93, 122, -36, -24, -86, 55, -124, -46, -87, 113, -75, 52, 65, -31, 21, -120, -57, 23, 22, 77, -114, 55, -75, 75, -19, -106, 124, 45, 103, 22, 110, -119, 84, -93, 98, 126, 52, -109, 5, -16, -40, -62, -82, 101, -77, -55, 111, -61, -36, -73, -85, 36, 57, 28, 104, -98, -10, 124, -112, 47, 21, -110, -16, -19, -94, -126, 90, 15, -65, 89, -125, 23, -62, 105, 87, 33, 9, 97, 15, -39, -107, 63, -122, 5, -82, 7, 9, -59, 109, -1, -118, 81, -76, -26, 10, -95, -31, 86, 37, 81, 41, 119, -29, 102, 56, 110, -49, -4, 74, -45, 14, 63, -98, -36, -102, 4, -55, -73, 112, -74, 10, -39, 57, 62, 94, -54, -72, -21, 56, 83, -112, 46, 75, -57, -123, 118, -9, 81, -122, -98, -122, 114, 74, -62, 77, -85, 0, -9, -67, 48, -116, 40, -86, -42, 70, -7, 72, 64, -76, -19, -113, 73, 30, 113, -46, 72, -82, 101, 26, -87, -81, 6, 38, -108, -116, -123, 57, -98, -5, 48, -20, 35, -9, 97, -107, -30, -69, -22, -3, 0, -10, -59, -24, 4, -80, 45, 111, -78, -99, 40, -82, -96, 121, 18, 109, -105, -4, -53, -21, -7, -120, -43, 57, -120, -84, 6, 46, 39, -106, 38, -18, -97, -82, -57, 30, -71, 18, 23, -31, 105, -109, -32, 71, -84, -75, -80, -127, -104, -85, 99, 20, -48, -16, -19, 47, 80, 23, 36, -55, -90, 101, 69, 88, 94, 74, -48, -97, 115, 64, -58, -73, 34, 69, -30, -14, 75, 113, 124, 97, 16, -122, 20, 81, 124, 43, 0, -123, -123, -2, -11, -103, 0, 77, -79, 7, 76, 90, -84, 62, 48, -78, 75, 28, -100, -28, -7, -64, -1, -75, -105, -123, -15, -73, -31, -116, 74, 0, 97, 48, 1, 58, 1, -46, 25, 6, -119, -70, 38, -15, 82, 62, 4, -121, -68, -58, 94, 90, -78, 30, 111, 48, -17, 60, -110, -71, -86, 40, 52, 31, -86, -100, -7, 34, 80, -125, -56, -61, -83, 41, 40, 110, 61, -100, -13, 58, 68, 105, 102, -71, -7, 48, -59, -70, -35, -73, 20, 1, -87, 122, 121, -42, -19, -7, -48, -35, 99, -7, -11, -77, -35, -61, 19, 95, -75, -45, 75, 125, -20, 83, -86, -48, -72, 7, -63, 71, 122, -53, 78, 77, 29, -37, -41, -32, 51, 112, -30, 56, 58, 3, 71, -63, -99, -106, 61, -4, -30, -119, 19, -100, 67, 10, 121, -125, -1, -27, 36, -124, -45, 109, 121, -43, -68, 92, 47, -65, -91, -110, 9, -19, -77, -55, -45, 9, -107, 121, 62, -98, 87, -94, -56, 31, -116, -49, 36, 68, -14, -45, 76, -23, -67, 119, -70, 61, -110, 32, -65, 98, -87, -88, -11, 115, -6, -96, -99, 86, 0, 89, -46, 45, 5, 32, -85, 104, -59, -118, 103, -27, -29, -61, -27, 46, -89, -111, 18, -72, 51, 121, -77, -102, 109, 126, 95, 100, 124, 39, 66, -81, 46, 20, -27, -82, -105, -107, -99, -48, -7, -97, 58, 71, -86, -105, 106, 122, 99, -73, 103, 15, 119, 112, -22, -61, 14, 6, -49, -110, 90, 104, -104, 6, -32, -95, 79, 90, 4, 70, -61, -52, -28, -100, 90, 91, -66, 100, -47, -58, 87, -91, 29, 124, -15, -67, 41, -10, -80, -107, 112, -92, -88, 24, -2, 79, -114, 52, -91, -3, 87, -121, 92, -119, 36, 95, 107, -47, -28, 67, -63, -11, 30, -25, -82, 67, 84, 124, 89, -62, 61, 48, -122, -2, 21, -86, 56, 115, 108, 16, 41, 67, -121, 113, 62, 112, -42, 9, -83, -60, -69, -92, 94, -26, -42, 71, -113, -55, 9, -8, -89, -104, 52, -70, 10, -23, 74, -46, 35, -92, 123, -94, 28, 19, -49, -51, -1, 25, 81, 127, 29, -36, 41, -50, 70, 76, -28, 120, -76, -13, 34, -35, 13, 56, -100, -1, 23, -39, 49, 23, -111, 54, -26, 106, -103, -28, -79, 113, -99, -40, 12, 121, -73, 98, 11, -53, 112, -33, 101, -57, 74, 28, 98, -90, -41, 10, -61, -29, 55, -42, -103, -65, -119, 27, 60, 111, -67, 12, 83, 106, 27, 115, -12, 114, 117, -55, 117, 119, 13, 89, 93, 59, -101, 92, 1, -65, 28, 51, -4, 15, 17, 64, 91, 8, -93, 95, 117, 6, -14, -40, 116, -19, -35, 11, -32, -73, -107, 18, 114, 7, -118, -58, -27, 83, -6, -2, 80, 14, 101, 95, -78, 104, 99, 57, -46, 96, 49, 123, -14, -66, -81, -56, -115, -77, -32, 14, -102, 109, -66, 4, -120, -69, 82, -87, 99, 54, -58, -89, 80, 77, 76, 107, 59, 101, -79, -7, -1, -119, 47, 112, -119, -93, 18, 21, -109, 77, -68, 93, -60, -67, 76, -66, -13, 27, 94, 68, 48, -21, 100, 57, -73, -3, 124, -89, 81, -88, 41, -109, 33, 76, 122, 55, -69, -83, 13, -32, -11, 48, -88, -15, -27, -6, 52, -70, 51, 67, 58, 40, 42, 54, -103, -64, 3, 104, 103, 65, 90, 114, 110, 5, 103, 19, -66, 117, -23, 28, 48, -53, -73, -13, -89, -60, -110, -121, -46, 9, -55, -122, 116, 0, -112, 49, -65, 14, 112, 112, 77, 68, -65, 120, 17, -82, -45, 97, -102, 84, -93, 10, -79, -36, -8, -79, 61, -48, -26, -7, 13, -47, -117, 50, 112, 104, 90, -27, -22, -83, 99, -86, 69, 121, 90, 49, -76, 0, -45, -24, -45, 111, -89, 56, 109, 111, 53, -121, 1, -123, -114, 78, -51, -50, 16, 59, 99, -40, 63, -13, 23, 20, 115, 30, 69, -48, 41, 32, 71, -56, -35, -16, 118, 51, 17, 10, 18, -2, 9, 70, -26, -8, 59, -12, -8, 105, -85, 88, 4, 100, 17, 119, 0, 108, -63, -72, -117, -47, 32, -90, -75, -116, -58, 100, -60, 76, -108, -98, 95, -100, -61, -124, -86, -61, -123, 64, 30, 65, 43, -77, 97, -61, -4, -35, 77, -18, -59, -32, -12, 77, 74, 62, 36, -34, -73, 76, -89, 49, -81, -45, -4, -62, -47, -126, 76, 77, 0, -97, -97, -15, -57, 105, -59, 109, 35, 19, 93, 111, -10, 87, 45, 109, -55, -64, 94, 101, -83, 66, -30, 104, 77, -15, 82, 6, -24, -69, -68, -27, 47, -79, -56, -60, 25, 19, 53, -14, -64, -22, 71, -83, 79, 67, -67, -32, 115, -34, -118, -125, 71, -111, -73, 110, -10, -7, -88, -113, 0, 83, 45, -85, -62, 85, -22, -98, 29, 54, -35, 105, -63, 51, -78, -28, -91, -74, 69, -85, -82, -69, -85, 90, 18, -62, 60, 82, -76, 44, 54, 99, -35, -35, 91, 92, -8, 21, -74, -7, 15, 66, 70, 19, -16, 53, -88, -62, -19, 67, -36, -55, -50, -61, -77, -91, 81, -1, -89, 104, -16, 91, -119, 57, -36, 66, -38, 86, 49, -62, -101, 14, 50, 9, 27, 97, -14, -46, -63, -107, 89, -109, 6, 109, -13, -55, 50, 23, -29, -125, 45, 17, -31, 35, 2, 90, -68, -41, 79, -72, 116, -35, -38, -10, 122, -89, 73, 34, -96, 24, 33, 49, 89, -106, 69, 98, 18, -13, 83, -14, -59, 39, 108, 50, -31, 106, 68, 75, -83, -119, -92, -106, 61, -93, -14, -70, 76, -96, 112, -19, -117, -90, -3, -53, -83, -109, 80, -6, -80, 23, 111, 64, 118, 39, 28, 6, -57, -38, 68, 32, 2, 41, -71, -43, 31, 34, 103, -120, -74, -6, 39, -19, 120, 6, -17, -112, -113, -117, -3, 47, -118, -71, 23, -38, 80, -43, 25, -26, 109, -92, 29, -123, -97, -70, -69, 86, 69, -119, -92, 104, 9, 126, 70, -107, -111, 83, 105, -99, -42, -60, 79, -107, 29, -9, -52, 58, -27, -107, -95, 16, 54, 53, -91, -92, 116, 89, 12, -83, -114, 85, 44, 123, 108, -35, 89, -29, 109, 67, -119, 78, -19, 93, 24, 31, -121, -85, 23, -118, -44, -91, -112, -14, 61, 119, 80, -52, -66, 56, 121, 92, 52, 98, 110, -90, 20, 24, 12, 65, 39, -48, 56, 12, -17, -102, -85, -106, 36, 69, 25, 41, -93, -59, -98, -125, -10, 121, 65, 105, 109, -30, -80, -99, -49, 75, -84, -117, 121, -94, -35, -27, 1, 15, 61, -37, 120, 57, -46, -15, 92, -35, 77, 61, -40, -33, 111, 23, -11, -14, -22, -78, -35, 125, -76, 56, -8, -3, 53, 116, 49, 36, 37, 89, -71, -115, -50, 46, 41, -120, -89, -84, -76, -9, 42, -8, -18, -108, 12, 77, -69, -88, 48, -122, -39, -3, -114, 56, 47, 36, -10, -21, -7, -109, -91, 95, 111, 70, 110, -69, 103, 120, -31, 59, 60, -9, 21, -7, 10, -53, -79, 10, 25, 125, 113, 126, -74, 48, 42, -23, -56, -14, -21, 50, 39, 33, -115, -34, 103, 54, -46, -18, 39, -121, -82, 74, -40, 84, -111, -106, 56, -29, 104, -95, 47, -49, 92, 75, 39, 76, -58, 120, 105, -119, 80, 36, -123, -27, 95, 64, -117, -36, -103, 102, -71, 24, -52, -96, -26, -48, 59, 65, 122, 56, -64, -17, -83, -17, 46, -25, 22, -121, -89, 15, 110, 108, 113, 32, 17, -95, -114, -56, 76, 61, -104, 10, 16, -34, 28, 7, -117, 15, -33, 52, -15, 12, -34, 61, 59, 24, -59, 55, -12, 64, 5, -79, 87, -120, -94, -49, -125, -36, -115, 34, 17, 59, -70, 67, 106, 88, -73, 63, -17, 81, -33, 72, -14, -42, -14, -46, 80, 18, -49, -92, -54, 11, 21, 121, -38, -24, -46, 68, 124, 14, 17, -21, -38, -97, 46, 63, -68, 65, 87, 112, 59, 120, -18, -3, -10, -87, -55, 23, -11, 47, -111, -11, 39, 82, -106, -17, 91, 23, 96, -28, 95, 52, -90, 20, -46, -93, -50, -89, -28, 61, 60, 75, -92, -121, 79, 18, 44, -117, -26, 17, -36, -66, 47, 96, -116, 100, 74, -104, -24, 9, -19, 125, 121, 111, -59, -65, 41, -16, -57, -53, -112, 93, 39, -53, 10, 7, -92, 106, 119, -51, 89, 124, -52, 30, 70, -7, 16, -19, -42, 9, -82, 94, 66, -125, -56, -102, -26, 117, 94, -64, -11, -108, 31, -126, -5, -52, 2, -8, 62, -93, -102, 78, -101, 19, 36, 100, -71, -57, -21, 30, -30, 89, 29, 38, 42, -48, -57, -14, 44, -99, -110, -101, -47, -44, -63, -92, 30, 85, -17, -99, -30, 50, 35, 54, -6, -64, -65, -67, 51, 81, 60, -37, -5, 23, -98, 7, -60, 108, -99, 19, -102, -37, -77, 56, -125, -85, 95, 60, 105, -52, 3, -68, -24, 123, 83, 60, 64, 40, -42, -110, -21, -124, 2, 40, 50, -96, -58, -104, -79, -69, -33, 31, -14, -60, 30, -123, -26, 1, -68, -122, 43, -103, -40, -63, -91, 8, 94, -6, -110, 35, -60, -61, 52, -41, -41, -38, -98, 7, 51, 32, 78, -102, -125, 67, 69, -122, -37, 54, -46, 53, -93, -4, 83, -120, 17, 95, -45, 82, -103, -90, -17, -90, 5, 25, 26, -88, 56, -84, 127, 6, 58, -33, -49, 78, 120, -117, -45, 75, 38, 52, 69, -82, 22, -107, -27, -22, -5, 54, 93, -58, 7, -46, -74, -38, -52, 27, -101, -36, 7, 27, -99, 9, -107, 95, 98, 39, 39, 54, -44, 71, 127, 101, 73, -40, 7, -111, 112, 42, -52, 39, 123, 67, 47, 59, 59, 81, -12, 4, -75, 12, 58, 95, -17, -40, -121, -10, -79, -113, -45, -88, -69, 94, -27, -46, -61, 87, 85, 90, -84, 20, -59, 87, -92, -100, -85, 95, 126, 44, 121, 111, -15, -124, -96, -110, 111, 60, -44, 103, 88, -47, 64, 92, 58, 91, 100, -63, 124, -63, 101, 69, 52, 89, -120, -37, -70, -3, -38, -38, 1, -105, -100, -17, -103, 90, 106, -13, 34, 60, 57, 11, -5, 10, 98, -44, 76, -14, -76, 39, 47, -54, -33, -48, 88, 76, -81, 30, 70, 126, 83, -81, 38, 106, 105, 97, -110, -108, 36, -94, -19, -22, -87, -23, -77, -64, 13, 57, -124, 37, 51, 82, -56, 100, -77, -52, -88, -43, -49, -50, 0, -120, -38, 30, -42, -38, -105, 4, 3, -72, 9, 47, 100, 91, -77, -107, 30, 61, 38, -78, 68, -107, 6, 99, 83, 114, 58, -3, 75, -104, 107, -61, -34, -5, -116, -5, -109, 15, 58, -50, -52, -32, -3, -118, 93, 85, 26, 104, -94, -53, -24, 126, -53, -24, -80, -85, -120, 15, 14, 69, 65, 82, 3, 83, 90, -97, -21, 92, 52, -88, -32, 113, -73, 88, -22, 37, -59, 85, 9, -58, 73, 33, -65, -59, 72, -83, -3, 77, -75, -43, -94, -23, -125, -17, -58, 13, -3, 38, 51, 27, -94, -119, 48, 113, -91, -123, -110, -6, 66, 0, -50, 24, 41, 40, -34, -100, -88, 43, -108, -99, 61, 58, 101, -121, 116, -116, 66, 33, 107, 23, -8, 101, -74, -68, 73, 38, -121, 87, -41, 52, -107, 81, 32, 109, 54, -8, 7, 72, 30, 31, -37, -37, -56, 82, -110, 64, 122, 57, -15, 2, 98, -120, 66, -91, 85, -64, 59, 50, 95, 35, -15, -24, 47, -67, 21, -72, -48, -101, -120, 116, 82, 113, 102, -9, 71, 59, 109, -43, 86, -90, 98, -35, 46, 46, -121, 96, 115, -47, 71, 93, -119, 111, -63, 50, 53, 122, 49, -107, 63, 100, 107, 58, 121, -107, 99, 93, 124, -97, 86, -121, 1, 87, -111, 114, 125, -24, 47, -39, 102, 15, 88, -50, -62, 3, -82, 104, -83, 9, -73, 62, 87, 33, 33, -59, 50, -43, 22, -77, -112, 7, -111, -14, -65, -8, -118, 77, -92, 119, 101, -68, 26, 3, -72, -97, 12, -22, 51, -29, 88, -24, 21, 72, -23, 58, 77, -108, 8, 45, 114, -21, -79, -105, 5, 57, -112, -77, 120, 120, 92, -80, -104, 106, 68, 5, 52, -53, -78, -100, -66, 74, -38, 70, -111, -123, 39, -66, -53, 89, 47, -52, 24, 8, 106, -107, 77, 82, -91, -90, 106, -3, -6, -81, -69, -103, -61, -47, -82, 4, 49, 3, 18, -26, -102, -40, -25, 15, 37, 87, -99, -3, -40, 96, -109, -26, 120, -1, -28, -124, 75, 17, 68, 82, 47, -6, -39, 46, 0, -37, -98, -69, 55, 21, -34, 92, -2, -67, 23, -106, 42, -56, -74, 49, -25, -94, 98, 66, 122, 32, -107, -72, -110, -5, 93, 91, -62, -60, -96, 95, 26, 117, 10, -15, -46, -16, 125, -46, 52, -60, -28, 45, -45, 104, -30, -72, 15, 43, 114, -60, 90, 5, 15, -75, -53, -68, 121, -21, 108, 63, -13, 23, 63, -76, -93, -23, -106, 26, -68, 5, 35, -116, -64, 109, -88, 90, -39, 72, 72, 124, -38, -56, 75, 57, 103, -2, 92, 79, -11, -108, 49, -123, 111, -52, 56, -92, -110, 80, -33, 97, 14, 81, 59, -77, 96, -119, 67, -51, 33, 62, -99, 27, -103, -1, 6, -11, -109, 13, -80, -82, 60, 26, -7, -34, -83, -4, 23, -113, -86, 90, 49, 86, -122, 14, -23, -123, 22, -53, 117, 31, -126, -95, 34, -75, -39, 39, -33, 109, 85, 87, 4, 116, 30, -70, -48, 73, 21, -80, -57, -47, 117, 116, -83, -94, 83, 28, -59, 123, 124, 84, -71, 51, -19, 53, 58, 59, -111, 112, 43, -38, -89, 7, -8, -11, 80, 122, 74, 8, 58, 78, -92, -99, -7, 59, 118, -119, 31, 18, 59, -54, 23, -11, 1, -28, -95, -126, -35, -80, 62, -97, -97, -11, -113, 42, 91, 26, -79, 15, 65, -3, -35, -50, 79, -125, 118, 75, -35, 70, 100, 86, 26, -36, -120, 102, 42, 6, 63, 91, 44, -72, -10, -57, 102, -68, 63, -53, 24, 60, -51, -57, 110, 89, 109, -108, 34, 60, -28, -112, -79, -103, -33, -104, -124, -50, 94, -92, 83, -102, -100, -38, -122, 117, 17, 6, -55, -59, -96, -92, -93, 68, -101, -20, -102, -1, 59, -7, 113, 34, 74, -116, 98, 118, 81, -90, -124, -114, 105, -12, 14, -106, -17, -102, 20, -86, 16, 20, -88, -11, -14, 74, 99, 109, -84, -83, 119, -73, 50, 57, 8, 31, -27, 105, -119, -1, -51, -125, -58, 76, -45, -126, 63, 45, 62, 93, -63, 72, 80, -45, 67, 55, -41, 23, -16, -51, 67, -105, -38, -3, 12, 25, -54, 40, 110, -114, 76, 25, 88, 25, -71, 119, 54, 33, 80, 91, 56, -96, 100, 93, -69, 112, -88, -123, -56, 64, 30, -18, -15, -64, 24, -32, -43, -10, -6, 123, 93, -60, -10, -93, 14, -107, 30, -109, -48, 108, 83, 84, -53, 35, -32, -18, 68, -121, 93, 51, 76, -4, 54, -42, 108, 62, 119, -39, 19, -3, 108, 83, -48, 60, -101, 111, -107, 89, 56, -33, -110, 48, 58, 96, 9, -20, 102, -100, 93, 98, -38, -65, -44, 89, 10, -33, 104, 43, -124, -18, 117, -32, -18, 98, -38, -55, -89, -107, -59, 67, -29, 37, 124, 109, 53, 69, 74, 35, -6, -70, -56, -14, -42, 21, -62, 111, -82, -58, 23, -89, 47, 115, -35, -4, -92, -19, 82, -116, -86, 106, 34, -8, 116, -47, -4, -103, -74, -32, -62, 65, -35, -40, 27, 22, -100, 77, -94, -31, 71, -36, 30, 28, 20, -34, -46, 35, 112, 76, 19, 20, 7, -75, -119, -55, 3, 120, 114, -62, 45, 59, -88, -19, 56, 59, -73, -54, -74, 45, -53, 20, -8, 72, -113, 121, 74, 99, 10, 104, 101, 86, -90, -7, 38, -44, 66, -40, 119, 70, -54, 104, 52, -68, 69, 21, -108, 24, -77, 16, -34, -20, 44, -10, -36, 26, 52, 107, 77, 91, -48, -116, 59, -11, 76, 66, 37, -23, 24, -71, 125, 127, -53, 114, -127, -43, 56, 19, 39, -101, 55, -79, -107, -29, 9, -13, -13, 28, -5, 42, 34, -36, 10, 93, -60, 7, 36, 21, -102, 13, 21, -38, 34, -52, -64, -118, 64, -50, -18, 101, 123, -115, 7, -18, 79, -63, -35, 111, -50, 109, -113, 53, -61, -56, 79, 125, -107, 3, -47, -54, 115, 84, 21, 64, -58, -2, -59, -113, 32, 62, -5, -88, -87, -116, 92, -112, -27, -64, -35, -33, -2, -46, 57, -99, -74, 115, -43, 24, -54, -107, 64, -68, -24, 83, 28, 19, 1, 55, -95, -18, -45, 17, -85, -39, 89, -82, -113, 47, 25, 78, -23, 114, 40, -126, 74, 32, 23, 102, 98, 49, -101, 30, 125, 119, 34, 52, -41, -2, -17, -46, 36, 126, 25, -64, -97, -36, -7, -120, -11, -35, -90, -35, -74, -81, 20, -118, -7, -103, -77, -120, 67, 11, -66, 95, 77, 67, 54, 56, 66, -106, 108, 9, 80, 122, 70, 109, -95, 41, -119, 95, -98, -68, 14, 3, -70, -108, 21, 125, 48, -9, -73, 115, -19, 34, -106, -71, 74, -87, 91, 62, -34, -45, -18, 114, -115, 94, 86, -55, 6, 38, 10, 59, 57, -92, 23, -50, 54, 113, 97, 43, 73, -83, -107, -65, -20, 111, 8, 47, 9, 46, -52, -97, -65, 17, 78, 115, 126, -14, -83, 105, -79, -91, -98, -121, -44, 40, 49, -37, -72, 37, -88, 91, 79, -99, 16, 21, 35, 16, -97, 36, 124, -123, 93, 13, 97, -25, 89, 63, 36, 63, 52, -56, 116, -71, 12, -76, 31, -125, -75, -121, -85, 107, -33, 121, 49, 41, 14, -119, -21, -60, -96, -71, 22, -26, 68, 106, 17, 3, -91, 91, -12, 46, -122, 26, 40, 20, -88, 35, -2, -71, 48, 5, -79, 124, 90, -119, -82, -40, -117, 62, -69, 56, -84, -54, 4, -78, 112, -72, -99, -49, 25, -31, 39, 4, -23, 22, -18, -54, -44, 106, -25, 117, -47, -84, 115, -117, -9, 9, -27, 53, -109, -109, -46, -42, 44, 29, 41, -107, 13, -116, -44, 18, 52, -9, -61, 43, 78, 122, 78, 101, -98, 105, 57, -68, 40, -92, 9, -110, -98, 44, -19, -102, -18, 74, -31, 37, -127, 16, 97, 7, 1, 90, 90, -60, -37, -119, 43, 121, -17, -39, -20, 100, 50, -6, 72, -85, 112, -24, -121, 5, -79, 65, -18, -45, 31, -92, -115, -81, -98, 69, -10, -79, 58, -1, -94, 89, 60, 122, 84, -52, -30, -98, -106, -58, -55, 10, -70, -13, -98, 108, -58, -99, 70, -86, 76, 98, -79, -79, -46, -73, 86, -39, -96, -94, -89, 77, -57, 107, 89, 17, 29, 53, -28, -42, 22, -61, 18, 112, 124, 91, 44, -48, -23, 8, -34, -56, -31, -15, -15, -57, 103, 79, -39, 1, -26, -54, 55, -69, 18, -87, 56, 26, 59, -119, 105, -45, -99, -31, -41, 7, -122, -75, 34, 78, 116, 34, -82, -67, 15, -89, -116, -21, -30, -108, -123, -74, -107, -121, 40, -24, -106, 113, -84, 0, 114, -67, -99, -125, 59, -7, 89, 47, 96, -67, -120, -37, 71, -124, -79, 60, 0, -55, 71, -91, 63, -40, -92, -13, 95, -40, 12, -7, -22, -10, -69, 104, -13, -52, -18, -20, 102, -57, 87, 67, 78, -71, 63, 45, 62, 60, 60, 113, -53, -123, 115, -69, 117, 124, 5, 20, -69, -113, -70, 2, 81, -97, 35, -58, -11, 40, -79, 51, 76, 87, -70, -107, -106, -32, 70, -82, 50, 1, -69, 115, -91, -103, -80, -123, 102, -53, -48, -43, -115, -118, -54, -52, -94, -56, 21, -34, 26, 74, 115, -120, -77, 8, 22, 109, 59, -24, -91, 88, 56, 120, -99, 25, 3, 64, -92, -2, 117, -104, 20, 40, -63, -3, 9, -35, 17, 6, -33, 57, 0, 91, 52, 119, -75, 37, 116, 2, -110, 64, 38, -64, -49, 120, -3, -37, -104, 67, 89, 78, 81, -7, 76, -80, -56, 102, 54, -61, -7, 77, -35, -6, -109, -81, -110, -58, 40, 34, -43, 102, 30, 123, 113, -62, -121, 1, -23, 89, -58, -5, 41, -97, 117, 15, 62, -100, -113, -89, -89, -62, -107, 120, 31, 88, 105, 75, 4, -37, 34, -44, 25, 123, 39, -94, 61, -116, 100, 46, 52, -34, -40, 27, -106, 39, 11, -76, 72, -32, 104, -55, 0, 23, 104, -4, 104, -20, -97, -126, 114, 61, 32, -41, 8, 36, -101, 47, 67, 83, -65, -103, 89, 112, -88, 46, 67, 71, -17, 79, -1, 25, 75, -118, -36, 39, -40, 64, -104, 78, 49, -41, -17, -11, -66, 85, -6, -59, 19, 121, -91, -46, 25, 70, 114, -102, 4, -38, 23, 0, 0, -88, -71, -15, 55, 73, 105, -71, 73, -98, -22, 71, 92, 68, 23, 106, -53, -87, 35, 1, -109, -35, -34, -72, 67, -7, -61, 99, 49, -124, -112, -82, 74, 3, -115, -1, 97, -52, 37, 112, -54, -48, -49, -71, 5, -90, 49, -62, 52, 65, -58, 79, 87, 26, 64, 50, 50, -66, 122, -126, 102, -80, 70, -29, 106, -19, 104, -117, -98, -117, 63, 11, -120, 85, 99, -5, 40, -22, -30, 91, -102, 29, -5, 3, -85, 76, -75, 107, -34, 50, 20, -70, 70, -52, 75, 12, -15, -106, -118, 17, -51, 0, -109, 62, 48, -55, 55, 64, -90, 101, -53, -33, -44, 59, -89, -86, -117, 81, -43, -3, -7, 41, -76, 12, 81, 119, -75, -86, -21, 125, -123, -89, 16, -16, 40, -55, -106, 92, -113, 30, 7, 17, -104, 84, 98, 22, 36, 109, 126, -119, -32, -124, -103, 24, 97, 10, -121, 56, -70, -40, 115, 65, 117, 41, -96, -51, -52, 89, -20, -22, -5, -80, 93, 79, 29, -29, -115, -33, -112, 57, 62, -91, -50, -76, -24, 92, 12, -53, 48, -67, -53, 14, 13, -4, -93, -57, 107, -54, 13, 80, 121, 79, 24, 27, 96, 77, 116, 37, 62, -22, 67, -112, 117, -36, -48, -105, -122, -14, -121, -36, 104, -56, -14, -76, 88, -70, -75, 5, 61, -43, -29, 79, -85, -23, -39, 116, -14, 82, -121, 111, -83, 1, -3, -45, 84, 34, 17, 52, 2, 36, 62, 6, 37, 44, -106, -111, -116, 56, -64, 58, 124, 111, -108, -24, -46, -73, 92, -61, -112, -77, -28, 13, -12, 7, -63, 45, 26, -9, -10, -112, 57, 77, -119, -37, 76, 100, 42, 117, 90, -11, -89, 30, 37, -64, -32, 82, -69, -107, -105, -122, -2, 108, -53, 19, -75, 126, -90, 68, -118, -113, 2, 109, -85, 105, -70, 12, 63, -26, 48, -101, -95, -65, 115, 111, 106, -22, -4, -17, -72, -72, -4, -81, -32, 8, -123, 3, -114, 80, -28, -107, 79, 126, 115, -117, 13, 49, -125, 24, -108, 121, 83, -62, -119, -65, 81, 29, -61, 99, -33, -71, -10, 64, -119, -21, -19, -67, -86, 25, 23, -124, 80, 124, 119, -39, -2, 101, -27, 95, 46, -94, -120, -49, 67, -63, -17, 11, 112, 97, 39, 108, -87, 65, 29, 5, 78, -27, 90, -109, 1, -33, 73, 8, 99, 83, -10, 9, -39, 78, -88, -68, -61, 58, -12, 113, 57, -86, 56, -79, 90, -83, 56, -27, 85, 55, -66, 2, -46, -9, -3, -125, -11, -69, -35, 63, 120, -36, 28, 16, 87, -20, 9, -105, 1, -5, 92, 123, 90, 21, -28, 1, 13, -111, 49, 20, 126, 80, -55, -55, 104, -1, -111, 64, -35, 34, 53, 15, -106, 79, 102, -30, -3, -14, -50, 4, -117, 15, -46, 52, 64, 80, 100, -25, 47, 106, -30, 14, -83, -106, 74, -15, 42, -92, 5, 74, 2, -51, -118, 111, -9, -99, 57, 118, -106, 98, -3, 97, -33, -85, -65, -86, -26, -65, 107, -28, -94, 69, -36, 33, -94, 11, -14, -57, -30, 92, -59, 4, 18, -46, 81, 2, -74, -112, -29, -5, -44, -28, -65, -118, 13, 87, 96, -110, 107, -62, -43, -20, -40, -8, 30, -10, -8, -16, 50, 121, -86, 47, 37, -104, -28, 68, 71, 109, 124, 91, 105, 47, 34, 90, -124, 11, -64, 89, 1, 69, 58, -70, 75, 13, 96, -89, 33, -40, 11, -96, 38, 73, -46, 31, 58, 124, -102, -4, 68, 6, 16, -113, -86, 125, 126, -16, 16, 4, 17, -115, 37, -56, 75, 25, -31, 0, -11, -93, -124, 61, -57, 25, 59, -24, -46, 26, -71, -126, -120, 64, 14, 111, 43, -71, 120, 57, 33, -18, -12, 75, 68, 66, 69, 66, -59, -13, -50, -46, -5, 14, 28, -72, -7, -92, -123, -89, 0, -101, 58, -1, 13, -20, -107, 61, 29, -78, -95, 32, -72, -116, 11, 39, 55, -86, -113, -112, -49, -79, -32, 27, 80, 13, 33, -119, -53, -62, 125, 117, 73, -112, 109, -117, -115, 120, 34, -60, 85, -22, -67, -69, 60, -98, -107, 60, 37, 120, 20, -59, -122, 33, 125, -42, 49, -84, -34, -54, -11, -41, -92, 37, 72, 21, -91, 53, 119, 9, -42, 6, -52, -4, 15, -56, -70, -60, -86, 68, 63, -22, 127, -18, 36, 101, -99, 102, 32, -3, -39, 62, 66, 66, 29, 126, 34, 67, -7, -106, -9, -103, 16, 9, -88, 69, 60, 40, -120, -64, 107, 56, 121, -28, 59, -119, 74, -103, -95, 3, -81, -30, -118, -104, -117, 110, 78, 40, 21, 6, -122, -122, -97, -55, 83, 6, 0, 122, -85, -88, -5, 64, -92, 54, -89, 12, -95, 123, 82, 94, -90, 51, -42, 12, 63, -36, 5, -36, -102, 79, -48, 2, 96, -82, -59, 79, -32, 94, -105, 12, -66, -36, -76, -58, 31, -119, -70, 86, 19, -124, -62, 53, 48, -32, -65, -4, 115, 98, -31, -14, 90, -120, -76, -16, 75, 42, -102, -65, -119, -12, 64, 92, 110, 126, 115, -125, -41, 24, 60, 34, 60, -69, -50, 87, -67, -106, 3, -41, -81, -108, 74, 73, -105, 2, -43, 117, -33, 105, -117, 32, 13, 115, -55, -39, -98, 4, 41, -122, -93, 54, 74, -124, -47, -41, -46, 38, -108, 42, 6, -102, -12, 55, -28, 127, 15, -66, 114, -12, 60, -105, 122, -34, -46, -108, -35, -96, 117, -4, 110, -30, -21, 111, -5, 79, -2, -95, -50, 51, -86, -1, -33, 29, 64, 55, 75, 24, -8, -126, 100, -25, -110, 3, -30, -40, 99, -49, 51, 59, -42, 73, 78, 6, 4, 82, -37, -30, -7, -114, 59, 44, 11, -75, -4, -105, -39, 15, 6, 63, 94, -93, 23, -126, -117, -45, -105, 54, -43, 70, 112, 52, 62, 2, -74, 14, 0, -117, -24, 122, 33, -55, -112, 71, -39, -112, 67, 13, 108, -24, -87, 51, -50, -5, 55, -14, 10, 15, 42, -85, -85, 7, 24, -69, 124, 100, -56, 15, 47, 119, -89, 82, 30, -71, 28, -47, -34, -125, -21, 87, -55, 57, 27, 63, 107, -44, 9, -109, -113, -71, 47, 0, 100, 93, 26, 122, 34, 49, 125, -10, 73, -30, -68, 95, 112, -39, -99, -93, 70, -121, 50, 102, -63, -80, -119, -121, 1, -121, 97, -60, -66, -64, 125, 123, -65, -104, 125, -35, 69, -118, 114, 98, 112, -37, 70, 67, -72, 70, 58, 123, 113, -91, 41, 75, 41, -46, 58, -104, 15, -64, 60, 87, -126, -68, -31, -26, -119, 15, 105, 126, -86, -97, -76, -97, -61, 60, -125, 112, -27, -47, 9, 57, 79, 109, 73, 22, 104, 38, -50, 47, -4, 107, 40, 10, -39, -76, 22, 74, -32, 126, -84, -12, 53, 27, -7, 6, -44, 14, 110, 95, 123, -72, -85, -79, -35, 117, 53, -119, -120, 74, -63, 22, 62, -84, 46, -90, 19, -84, 54, 0, 110, -38, -103, -14, 53, 125, 82, -31, -73, -109, -6, -74, 44, -110, 116, 56, 56, -54, -69, 110, -67, -69, 23, -65, 22, -45, 86, 2, -113, 17, 77, 95, -119, -51, -105, 79, -8, -124, 54, -1, 102, 90, -34, 90, 57, -52, 98, 61, -12, 97, -115, 117, -116, 83, 55, -57, 22, -112, -77, 34, 24, 124, 112, 44, 26, 77, 36, 44, 48, -34, -11, -71, -96, 114, 121, -95, -26, 110, 108, -93, 68, 122, 49, -20, 50, -75, 39, -27, -40, -25, 77, -38, 6, 2, -92, -53, 43, -123, 109, -113, -37, -77, -96, 22, 59, 11, 50, 83, 1, -76, -127, 100, -62, 40, 107, -119, 15, 5, -116, 17, 17, 42, 96, -74, 45, 39, 37, -44, -124, 39, -113, 65, -68, -9, -120, -76, 83, -119, -118, -3, 19, -16, 113, -36, -41, 89, 2, -122, -47, -120, 60, -31, 108, -19, -43, 6, 28, 14, -97, 42, 47, 79, -44, 57, -75, -5, 47, 102, 119, -3, -43, -77, 29, -76, -54, 40, 125, -37, 44, -106, 14, -45, -8, -27, -83, -66, -101, 94, -59, -14, -31, -13, -76, 58, 105, 4, -35, 60, 43, 116, 26, -105, 18, -96, 40, -10, -75, -44, -109, 54, -12, 36, 41, 5, 120, 59, 41, -4, 51, 68, 26, -27, 65, 124, -48, -107, -38, -81, 58, -57, -21, 113, 112, -50, 5, -109, -107, 125, -13, -37, -33, 81, -55, -38, -103, 32, 24, -15, 2, 99, -19, 42, 78, -74, -111, 20, 80, -79, 111, 70, 110, -66, 42, -78, -74, 18, -53, -54, -47, -47, -77, -35, 14, 85, 8, -84, -68, 91, 104, -63, -7, -55, -66, -59, -64, 69, 88, 77, -26, -92, -86, 48, 126, -9, -49, -77, 86, 1, 121, -41, 45, -110, 59, 108, -110, 52, 46, -6, -78, -35, -28, -101, 125, 41, -74, -41, 100, 32, -50, -111, -12, 95, -102, 77, -125, 78, 123, -12, 116, 95, -5, -17, 43, 31, -22, -76, 48, 34, -60, -42, 48, 101, -73, 3, -89, -4, -57, 119, -126, 4, 18, -93, 55, 3, 7, -97, -113, -83, -126, 49, -24, -124, 82, 32, 114, -86, -115, 125, -41, 93, -112, -55, -33, 65, -33, 68, -3, 18, -1, -22, 105, 119, 41, -83, 13, 38, -32, -60, -92, -71, 58, -6, -71, 12, 37, -33, 6, 40, 36, -93, -18, 21, 11, 82, -105, 2, 32, -18, 0, 43, -63, -3, -109, -42, 103, 18, 25, -20, -119, 46, -74, -34, -40, -35, -16, 106, -49, -69, -37, 35, -31, 41, 2, 39, -65, 88, -40, -85, -27, 117, 92, 23, -29, 11, 101, -110, 90, -39, 65, 119, -108, 68, -37, -88, 125, 34, 89, -3, -74, -114, -84, -97, 11, 17, -28, 45, -37, -94, -36, -91, 102, -16, -123, 54, 78, 10, -14, 91, -47, -98, 21, -17, -119, 80, -74, -28, 37, -39, -114, -42, 3, -2, 42, 76, 25, -105, -50, 126, -109, 97, 18, -101, 69, 97, -80, -70, -57, 26, 41, 41, 58, 118, 12, 37, -11, -19, 126, 92, 67, 60, -32, 126, 100, 98, -2, 72, -77, -93, 53, 94, -90, -112, -35, 6, 95, 55, 125, 96, -107, 81, 35, 39, 124, -94, 64, 105, 15, -121, -109, 111, 127, -83, -25, -62, 70, 86, -90, -80, -28, -17, -39, 2, -44, 12, 97, 107, 62, 93, -12, -56, 111, 4, -38, 107, -34, 12, -40, 25, -75, 59, -54, 59, 86, 29, 91, -31, 74, 94, 39, -97, 87, 111, 15, -98, -86, 115, 7, -20, -32, -19, -52, 121, -32, -23, 100, 75, 45, 81, -52, -77, 0, 93, 114, -4, 76, 9, -126, -58, 30, 21, 3, 90, 109, -122, -51, 26, -29, -38, 48, 22, 18, -59, -62, -61, 43, -63, 91, 85, 45, -79, 77, 58, -80, -45, -77, -119, 81, 28, -105, -121, -72, -83, 77, -86, -121, -123, -94, 5, 121, -54, 75, 75, -59, -48, -103, -18, -123, -73, 121, 43, 15, 34, -69, 69, -109, -47, 31, -62, 125, -126, 33, -78, -95, -78, 58, -100, -103, -92, 63, -77, -38, 61, -98, 11, -113, 6, -3, 34, 9, -92, 115, -67, -90, 48, -69, 111, -89, 73, 36, -117, -91, -81, 87, 82, 10, 113, 116, 82, -93, 72, -42, 119, 66, 103, -41, -96, -99, 47, -19, -8, 91, 10, -123, -9, -82, -99, -34, -99, 98, 53, -95, -30, -49, -101, -80, -84, -89, 37, -35, -72, -65, 49, -31, -106, -89, -37, 22, -120, -20, 80, -13, 49, 47, -3, -110, -82, 30, -40, 110, 82, -50, 95, 50, 18, 38, -114, -66, 68, 80, -124, -110, -70, -119, 29, 64, 22, -123, 36, 4, 4, -61, -95, 97, 115, -37, 81, -21, -78, -85, -66, 36, -79, 51, 75, 72, 1, 52, -17, 104, 88, -98, -46, -4, -126, 64, -31, 79, -76, -74, -31, 33, 112, 28, 111, 32, 126, 79, 34, -69, 81, -108, 92, -78, -74, -84, 51, 29, 42, 2, -30, 25, -69, -57, 65, 26, -109, 57, 126, 13, -17, -101, 44, 100, -31, -14, 18, 1, -82, 113, 85, -19, 90, 41, -66, 115, -123, 26, -110, -59, -78, 75, -100, -90, -99, -29, -5, 112, -45, 18, -111, 18, -96, -74, 119, 50, -51, -89, 75, 73, 81, -3, 28, 117, -15, 70, 11, 95, 61, -52, -96, -96, -36, -42, -18, 113, 116, -83, -87, -21, 119, 13, -10, 37, 101, 40, 37, -69, 8, 61, 78, -44, 104, -91, 72, -87, 3, -29, -105, -25, -8, -106, -37, -88, 40, 5, 93, -97, 30, 61, -94, 79, -121, 68, -59, 46, -93, 99, -100, 111, -76, -94, -84, 12, 8, 118, 9, 36, -53, -110, -69, 69, 106, 94, 16, -85, -108, -122, -118, -16, 51, -66, 12, 84, 119, -26, -14, 12, 96, -74, 26, -34, 59, 124, 81, -31, 43, -101, -52, 55, -19, 12, -108, 80, -41, -26, -109, -70, -50, -62, 59, 32, -103, 63, 68, -97, -76, 122, 96, -12, -126, 6, -16, -81, -87, -23, -30, -43, 12, 11, 77, 108, 2, -102, 88, -78, 126, 86, 90, 6, 23, -54, 117, 117, 52, 33, -61, 23, -7, -118, 67, -98, 74, 62, -19, 78, 105, 108, -104, 114, 63, 67, 42, -86, 53, 8, -93, -63, -19, 33, -59, -45, -61, 32, 112, -32, 3, -85, 116, 4, -94, 60, -13, -19, 98, 11, 46, 94, 17, 67, 71, -21, 80, -46, -98, -110, 89, -1, -117, -6, -109, -65, -92, -68, 83, 82, -19, -127, -94, -78, -49, -56, -12, -109, 74, -121, -33, -100, 115, -80, 106, 55, 37, -20, 117, 70, 36, -15, -35, -48, -87, 73, 93, -51, -79, -73, -76, 111, 47, -43, -126, -94, 7, 117, -94, 110, -72, -96, 118, -71, -104, 46, 108, 5, -62, -111, 33, -4, 21, -25, -13, 74, -91, 88, 36, 37, 6, 43, 102, 55, -125, 77, 2, -91, -77, 23, 22, -47, -126, -110, -10, 93, -119, 33, -119, 50, 81, -115, 59, -41, 27, 19, 40, -94, 42, -98, -106, -60, -85, 92, -48, -19, 71, -37, -120, -30, -86, -69, -12, -83, 57, -105, 19, -101, 71, -60, 111, -61, 91, -58, 44, 99, -75, -121, 52, 2, -74, -88, 85, -121, -17, -39, 111, 24, 102, -23, 50, 43, 89, 46, 37, 123, -74, -59, -114, 106, -98, 10, -102, 45, -28, 119, -64, 105, -122, 3, -120, -36, -101, 76, -106, -23, 33, 17, -39, 32, -113, -3, -27, -46, -81, 29, -82, 2, 92, -69, -118, -54, 123, 103, -109, -102, -115, 125, -43, -3, -72, -28, -115, -17, -105, 6, 73, 0, 67, 2, 122, -37, -55, -109, 60, -32, -47, 95, -13, -107, 2, 86, -94, 37, 71, 96, 46, 65, -119, -94, -36, -48, 111, 21, -125, -4, 39, 51, -108, -105, 39, 13, -20, -101, 85, 106, 43, -30, -98, 25, -18, 50, -5, -20, -5, 21, -1, -40, -60, -24, -85, 64, 56, -39, -115, -31, -51, 60, 103, 116, 14, -57, -100, -92, 93, 8, 1, 69, 34, 78, -66, -83, 126, -115, 121, -51, -10, -86, -93, -12, -39, 86, -122, -98, 31, -59, 76, 76, -74, 13, 65, 30, -124, 17, -124, -85, 58, -110, 33, -37, 121, -17, -89, 90, 41, -113, -19, -5, -107, 101, -51, 11, 77, 113, -77, 103, 43, -29, 73, -16, 75, -113, -85, 55, -22, -67, 28, -106, -31, -5, 6, 104, -84, -104, 121, 14, 31, -32, 24, 69, 2, -43, 26, -103, -31, -109, -62, -24, 47, 46, -54, -90, 46, -117, -76, 38, 78, 19, -116, -21, 64, 48, 112, 46, 88, -6, 102, 55, 103, -84, 115, 73, -17, 53, -29, 64, -19, -80, 27, -34, -28, -67, -30, 59, 94, 2, -32, 14, -63, -116, -28, -78, -13, 1, 23, -103, 89, 34, -19, -79, 94, -16, -107, -91, -62, -50, 117, -24, -96, -15, -66, -36, 56, -124, 10, -63, 12, 38, 39, 24, 49, 28, -86, 83, 73, -99, 49, -87, 101, 79, 65, -16, -10, 77, -10, 3, 58, 14, 121, 54, -91, -48, -86, 41, 34, -87, -40, 52, -1, -8, 123, 25, 65, -80, -43, -120, 104, -121, 77, -84, -10, -66, -24, 99, 112, -50, -37, 58, -19, -29, 51, -6, -39, -119, 13, 91, 67, -120, -92, 61, 68, 41, 107, -120, 33, 52, 120, 77, 87, 36, -20, -99, 119, -21, -44, 42, 19, 55, 19, 50, 125, 118, -94, 105, -65, -93, 66, 95, -68, 108, -14, -111, 102, 124, 63, -90, 82, -3, 35, 80, -16, -20, -37, 102, -86, 9, -62, -71, -18, 90, 31, 111, 99, -74, -95, 54, -46, 60, 47, -117, -52, -111, -84, 66, -61, 44, 76, 102, -74, 115, 100, 103, -85, 0, 65, -79, 122, -52, -54, -25, 91, 75, -85, -56, 24, -83, 62, 55, 23, -9, 47, 21, 0, -35, -77, -31, 5, 34, -4, 112, 13, 66, 95, -9, -3, 118, 16, 11, -98, 42, -82, 50, 19, -59, -48, -16, -16, 114, 74, -115, 66, -98, -95, 21, 26, 39, 20, 49, 124, 120, -108, -93, 44, 65, -75, -120, -26, 74, -123, -9, 15, -40, 107, -94, -91, -11, 71, 82, -99, 0, 54, 107, 120, 74, 56, -12, -38, 46, 41, -10, -51, -125, 110, -54, 90, 92, 17, -63, 49, -37, -18, 84, -98, 60, 64, 91, 99, 56, -37, -86, 22, -23, 103, 4, -27, 13, 47, 122, 38, -107, 78, -66, -120, 10, -68, 64, 25, 87, -29, -112, -1, -40, 26, 61, -56, -37, -45, 44, -47, -81, 121, -85, 107, 25, 1, -112, 112, 95, 66, -45, -81, -90, 67, -114, -90, -116, 108, -114, 112, -71, -106, 31, -103, 28, -35, -100, -112, 61, 71, 64, 63, -106, -71, -16, -121, 105, -124, 62, -66, -4, 32, 106, 109, 0, -8, 59, -102, -7, -59, -18, 73, 72, 67, 24, -123, -25, -32, -95, -5, 81, 22, 125, -15, -18, 80, 88, 106, -114, 6, 80, -12, -25, 102, -13, -120, -37, 11, -106, -46, 90, -64, -116, 121, -79, 121, 37, -21, -93, 90, 96, -88, -28, -36, 76, 34, 32, -74, 124, -94, 51, -89, -60, 58, 66, 126, -63, 87, -25, -46, 111, 37, 25, 52, -88, 122, -27, 68, 59, -38, -6, 16, -73, -10, -50, -22, 1, 70, -5, 46, -75, 119, 70, 99, -86, 37, 125, 27, -50, -82, 20, -74, 35, 16, -126, 42, -94, 59, 90, -58, 42, -47, -13, -77, 28, 77, 78, -21, 92, 52, 91, 52, -69, 105, 59, 90, 52, -45, 96, -72, 65, 63, -36, 81, 19, 0, 22, 36, 86, -112, -46, 2, 30, 87, 26, -28, 40, -49, -98, -92, 26, -63, -96, 76, 16, -54, 63, 93, -41, -107, -10, -73, -35, 81, 1, -27, -64, -83, 98, -123, -120, 36, 91, -32, -2, 17, -106, -12, -116, 73, -116, -95, 26, -27, 116, 40, -105, -38, -18, 118, 119, -83, -108, -19, 94, 120, 92, -111, 10, 19, 17, 74, 27, -21, 24, 1, -44, 14, 105, -61, 98, -12, -82, 55, -74, -16, -91, -59, -73, -51, -11, 105, 3, 1, 107, 43, 15, 28, -86, -101, -71, 31, 49, -9, -103, -121, -61, 48, 30, 37, -95, -103, 54, -74, -55, -91, 68, -126, -76, -33, -27, -93, -122, 94, 58, -123, -3, -29, -89, -98, 34, 89, -107, 40, 114, 86, 15, -61, -82, 26, 70, -6, -110, 61, 62, -78, 99, -106, 5, -48, -35, -102, 118, 114, -34, -49, -120, 84, 108, -123, 42, -64, -124, 49, 63, -109, 52, 55, -64, -78, -25, 34, -41, -69, -92, 98, 15, 94, -81, 49, 56, 46, -10, 108, -2, -72, -116, 21, 19, -84, 19, 8, 54, 121, 114, -28, -52, -3, -12, -33, 100, 18, -106, -113, -58, -32, -105, 29, -25, 27, 126, -1, -51, -11, -73, -118, 63, -93, 83, -102, -102, 9, 76, -58, 106, -61, -77, -89, 30, 71, 112, -87, -122, -92, -34, -91, -52, 57, -58, -26, -36, -126, 118, 122, -110, -41, -55, 86, 28, 103, -38, -4, -64, -2, 92, -118, -122, -6, -65, 100, 80, -108, -53, -59, -61, 41, 111, 38, -7, 56, 28, 77, 72, -35, 109, 97, -26, 104, 121, 6, 104, -101, -36, 84, 109, -110, 11, -103, 100, -63, 50, -43, 26, -47, -51, -62, -64, 127, 28, -69, -112, 3, -97, 86, -61, 48, 51, -68, 119, 51, -122, 32, -29, -49, -115, -84, 87, 83, 50, 102, 32, 40, -20, -124, -67, 79, -120, -105, -1, -56, -120, 36, -25, 44, 38, -30, -92, 53, 27, -115, 22, -71, -22, -10, 15, 22, -78, -35, -37, -101, -18, -53, 64, -125, 13, 12, 70, 38, 46, 25, 91, 70, -87, 3, -64, -18, 15, 16, -32, -15, 26, 86, -75, -12, 3, -88, -7, 11, 30, -47, 61, -17, 109, -5, -32, 39, 34, 29, -75, 94, 1, -38, 101, -124, -33, 11, 101, 13, -63, 52, 77, 59, 42, 7, -105, -22, 5, 7, -52, 33, 18, -123, -107, -12, -93, -75, 23, -79, -44, -71, -72, -70, -110, -1, 21, -47, 52, 84, -99, 21, 119, -88, -83, 76, -20, 25, 67, -96, -22, 117, 39, -69, 20, -100, 110, -12, 66, -38, 81, -115, 93, -20, -94, -103, -19, -4, 35, -17, -118, 49, -77, -50, -118, 88, -96, 22, 76, 46, -74, 11, 101, -6, 73, 18, -89, 46, 62, -111, -6, -107, 31, -108, -33, -72, 101, -42, 111, 92, -90, -20, -88, -89, -42, -107, 66, 75, 10, -21, -11, -5, -58, 27, -96, 117, 27, -121, -49, -23, 8, -23, -105, -44, 72, 110, 53, -126, -3, 126, -120, -48, -119, 43, 126, 7, -9, 101, 67, 58, -31, -28, -7, -11, 113, 24, -20, -73, -14, 27, -64, 102, 6, 88, 60, 98, 11, 70, 31, -45, 41, -114, -118, -94, 68, -78, 94, -18, -40, 76, 124, 68, -109, 115, 96, 121, -6, 72, -56, -70, -43, -84, -118, -25, -31, 57, -55, 113, -67, 85, 68, -53, -36, -9, 6, -14, -6, -62, 91, 32, -47, 59, -50, 115, -16, -113, 37, -111, 98, 33, -65, -4, 22, -76, -55, -74, 15, -110, 113, -71, 77, -51, -91, -81, -25, -51, 9, 125, -20, -64, -23, -112, 14, 71, -61, 100, -36, -44, 25, -125, -41, 7, -83, -27, 91, -98, -43, -24, 67, -93, -15, -7, -108, -43, -74, 124, 109, -74, -68, -122, -58, 125, -103, -17, -59, 81, 125, 33, -74, 83, 126, -42, -4, -1, -94, 66, -33, 78, -117, -58, -51, 115, 101, 57, -111, 7, -59, -96, 95, -13, -10, 7, 103, 42, 113, -85, 63, -32, 51, -76, -96, -103, -98, 80, -41, -1, 29, 47, 39, 110, 80, 4, 68, 77, -35, -98, -81, 9, -88, 65, 21, 0, 60, 120, 83, 95, 52, 117, 34, 121, 76, -100, 21, -5, 126, -108, -48, -15, 81, -1, 84, -38, 40, -93, -47, 2, -44, 110, -2, 101, -5, 40, -1, -96, -14, -71, 35, 87, -48, 63, -110, -32, -120, 82, -48, -34, 21, -125, 96, 54, -89, -10, 79, 74, 4, 32, 67, -85, 53, -56, 37, 44, 70, 76, -95, 75, 44, 67, 30, 38, 113, -122, 71, -117, 49, -43, -60, 29, -109, 9, 35, -110, 22, 35, -121, 100, 38, -125, -54, 115, 108, -48, 98, 36, 83, 74, -19, 32, 11, -116, 14, -77, 126, 117, -118, -34, 106, 11, -97, 36, 62, 45, 38, 0, -2, -46, 77, 11, 86, -38, -85, -26, -56, 109, 97, 7, -3, -77, -65, -60, -116, 88, -46, 1, -80, 64, 1, 20, 64, 31, 96, 67, 79, -22, 95, 52, -126, -11, -50, -126, -53, 43, -10, -50, -105, 41, -9, -45, 103, -45, -122, -99, -5, -64, -95, 40, -20, -94, 17, -17, 103, -104, 97, -87, 119, 50, 27, -57, 58, -10, 106, -87, 81, -84, -38, 112, -109, 8, -84, -115, -108, -82, -32, 85, 44, 73, -69, 91, -69, 124, -48, -57, -29, -14, 126, -68, -57, 93, 1, 67, 119, 115, -40, -109, 87, 62, 46, 78, -118, 111, 99, 87, -66, -92, -34, -2, 109, 124, -65, 43, 110, 54, 6, -32, -53, -92, 14, -4, 68, 74, -20, -57, 85, 80, -15, 117, -87, 15, 11, 17, -113, 12, 39, -52, -48, -113, 103, -91, 88, -38, 43, -81, -33, -51, 93, -117, 3, -14, -41, -124, -101, -32, 112, -114, -68, -10, -33, 111, 68, -39, 7, 3, 18, -37, 124, 37, -16, -19, -73, 124, -97, 108, 0, 45, -4, 8, -3, -86, -105, 14, 18, 72, -85, 86, -20, 19, -63, 16, -90, 48, -31, -5, 23, -77, -117, -72, 28, 48, 12, 9, 78, 87, 112, 35, -19, 80, -11, 96, -25, 22, -31, -81, 114, 109, 98, 38, -45, 19, -39, 56, 81, -113, 26, -41, 60, -60, -114, -39, -39, 20, -45, 116, 97, -99, 94, -9, -40, -85, -58, -126, 92, -32, -55, -125, 0, 115, 72, -19, -8, -33, -121, 127, -99, -10, 26, 22, -40, 18, 19, -84, 111, 83, 84, -104, -95, -98, 32, -36, -14, -98, 120, 117, 40, 39, 80, -77, -35, 112, -51, 39, -87, 85, 25, 100, 15, -13, -17, -106, -62, 41, -5, -93, 42, -57, 104, -16, 34, 60, 11, -110, -45, 78, -30, 57, 11, -124, 19, -79, 51, 81, 59, 91, 44, -45, 94, -46, -53, -2, 103, -18, 103, 123, 94, 105, -107, -73, 3, -111, -11, -79, 89, 30, 60, 116, 77, 106, 35, -53, -118, 92, -119, 99, -125, 92, -96, 37, 111, 52, 66, -38, 28, -53, 2, 55, -13, -37, -42, 78, 55, 80, -90, -2, 44, -39, 69, 59, -3, 31, 69, 111, -48, 53, 65, -44, 48, -115, 81, -73, 28, 57, 55, 95, 44, 123, -124, 12, -80, -121, 37, -116, 108, -24, -106, 11, 7, -65, 57, 112, 23, -47, 24, 123, -49, -80, -64, 20, 38, 83, 69, -101, 29, -20, -78, 80, -23, 19, -90, 106, -111, -75, -88, -86, 82, 122, 107, -38, 5, -32, 116, 87, 23, 48, -35, 69, 112, -18, 122, -89, -95, 51, -19, -121, 84, 118, -22, -73, -118, -18, 59, 50, 72, -23, -111, 36, -27, -25, 53, 63, -38, 90, -53, -39, -103, -114, -5, 21, -117, -73, -59, 42, 0, 36, 95, -16, 113, -71, -44, -3, 70, -72, -101, -123, -88, -71, 28, -102, -86, 95, 29, -8, 57, -67, 123, -5, 73, 72, 88, -115, -15, 44, -63, -120, 121, 3, 80, -68, -32, -39, 27, -54, -114, 66, 14, 99, 100, 18, -71, 114, -23, -109, -53, -91, 37, 55, -28, 70, 81, -28, 92, 57, -103, -85, -21, -107, -90, -70, -118, -46, 123, -86, -118, 69, 28, -116, 53, -78, -124, -70, 85, 64, -7, 59, -22, 63, -75, 78, -25, -45, 69, -62, 29, -16, 106, -67, -69, -39, -2, 93, -103, -121, -26, -6, 58, 86, -45, -29, -48, -28, -122, 51, 15, -86, -10, -14, 76, -63, -98, -62, -31, 103, 40, -63, 82, 1, -67, -110, 101, 61, -63, -90, -71, -18, -39, -103, -105, -91, -41, 102, 115, 80, 8, -118, 106, -30, 90, 62, 122, 109, 39, 22, -20, 69, -40, -65, 49, -87, 16, -7, -55, -34, -11, 30, 70, 30, -41, 51, -54, 0, -36, 4, 34, 1, 35, 3, -52, 40, -127, -12, 80, -65, -19, 24, -88, -121, 5, -66, 41, 83, 115, -105, 37, 38, -31, -11, 93, -83, 28, 57, 46, -2, 44, -2, -2, 17, -106, 7, 107, 59, -29, 101, -121, 4, 88, -125, 105, 69, 35, -2, 89, -123, -125, 16, -58, -89, -62, 121, 59, 35, 66, 116, 64, 51, -21, 89, 115, -86, 99, 69, -98, 44, -88, 111, 51, -58, -124, 93, 34, -102, 22, 124, -76, 84, 34, 95, -68, -120, -29, -18, 86, -89, 69, 118, 30, -63, 36, 71, -97, -29, -68, -6, -18, 29, -48, -13, 43, 91, 70, 105, -10, 17, -91, -17, -109, 65, -35, 94, 49, -54, -9, -60, -105, -74, -17, 70, 30, 55, 22, 44, 3, 117, 8, 57, 124, 31, -111, 48, -1, -68, -64, -88, -3, -23, -112, -34, -80, 38, 103, -104, -117, 76, -27, 120, -47, -111, 118, 83, -17, -64, 107, 92, 37, 82, -109, -13, -35, 2, 31, 120, 97, -103, 43, 43, 107, 94, 30, 30, 11, -97, -81, -18, 75, 86, -15, -124, -90, 25, -120, 112, -80, 37, -33, 51, -18, 109, -15, 47, -108, -4, -99, 111, -29, 80, -81, 28, -107, -40, -127, -7, 6, -80, 83, 71, 64, -22, -49, 83, 109, 119, 122, 81, -82, 86, 22, -93, -69, -81, 98, -21, 86, 1, -59, 102, -125, 78, 37, -9, 44, 63, -92, -9, -7, 56, -48, 44, -86, -122, -4, -108, -75, -87, 118, -81, 28, 87, 54, 27, 49, -37, 17, 117, 123, -25, 19, 49, -102, 116, 97, -17, -41, -12, 102, -107, 19, 78, -3, 82, -47, -43, -111, 79, 109, -66, 111, -91, 27, -116, 67, 85, -104, 68, -55, 98, -35, -65, -18, -61, -35, 1, 52, -100, 92, -53, 107, -77, 55, 76, 105, 26, -6, -103, -108, 47, 69, -125, 50, 75, 98, -91, -11, 96, 106, 88, -57, -7, 114, -7, 113, -87, -50, 62, 9, 60, 105, -125, 35, -49, -9, 11, -75, -102, -106, 120, 2, -82, -72, -1, 110, -67, -102, 10, -51, 63, -89, 97, 56, 60, -53, 52, 21, 38, -1, -35, 111, -21, 54, -70, -82, 77, 82, 57, 75, 117, -36, 117, -41, -22, -66, 121, -119, 96, -9, 41, -61, 54, -93, -86, 108, 115, -27, 15, -97, 76, 48, -81, -23, -115, -32, -38, -123, 100, -14, -66, -49, -65, -29, 126, -103, 57, 46, 52, -44, 5, 63, -88, 51, -105, -92, 24, -76, 25, 68, -122, -78, -67, 42, 60, -68, -33, -17, -6, 91, -111, 32, 74, 53, -100, 12, -93, 13, 68, -81, 35, 20, 80, -81, 42, 64, -76, -81, 48, -61, 32, -29, -80, 110, -26, -41, -72, 69, -116, 87, 102, -123, -84, 105, -104, 46, 115, -80, 17, 44, 100, 43, -121, 45, -32, 4, -85, -29, -100, 27, -87, 101, -5, -73, -46, -39, -107, -92, -65, 36, -79, -100, -86, 45, -46, -125, -53, -46, 67, -104, 36, -14, 55, -22, 1, -2, -54, -13, -40, -76, 76, 55, -120, 115, -107, 12, 11, -43, 26, 40, 24, -109, 109, 37, 54, -47, -107, -75, -71, 26, -96, -35, 51, -107, -37, 56, -10, 40, -120, 27, 47, 37, -115, 106, -82, -91, -35, -35, -84, -5, 23, 90, -116, 78, 108, 78, 107, -82, -36, -50, -73, 14, -123, 27, 74, 102, -92, 3, -124, -34, 113, -21, 42, 8, 35, -56, -11, -2, -24, -99, -7, 26, 71, -117, 4, 92, -85, -70, -67, 45, -26, -123, -23, -79, -61, 33, -28, -76, 113, 5, -124, 84, -51, -16, 21, -118, 55, 72, -15, -120, 82, -19, -32, -92, 33, 11, -30, -51, 11, 92, 45, -109, -100, -45, -18, -91, 126, -29, -3, -49, -19, 98, -52, -78, 11, 37, -123, 18, -83, -24, -94, 99, 62, -49, -81, -125, 24, -104, 48, 11, -5, 97, 17, 13, 44, -9, -17, 77, -1, 7, 118, -83, -8, -88, -122, -105, 73, 92, -102, 93, -41, 3, 102, -98, 39, 72, -58, -87, 46, 28, -41, -38, -2, 31, -106, -1, -123, 88, 66, 33, -11, -40, -99, -39, -14, 16, -47, 123, 29, -71, -11, -13, 96, -86, 119, -70, 72, -74, 29, 17, 80, -119, 83, 42, -18, -63, -4, 50, -43, -96, 32, 37, 71, 56, -76, -74, -120, 117, -29, 80, 42, 48, 49, -85, 77, 49, -13, 116, -28, 46, -62, 81, -2, 118, 15, -41, 43, -77, -52, -29, -62, 30, -120, -9, 84, -120, 58, -22, 96, -81, 35, 42, 68, 89, 5, 4, -71, -102, 70, -32, -46, 88, 120, 24, 50, -111, 65, 48, 23, 107, -51, -111, -43, 26, -73, 45, 125, -1, -77, -106, -126, 90, 40, -123, 35, -16, -50, -56, -105, 119, 17, -29, -112, -13, 124, 23, 6, -100, 27, -32, -67, 46, -27, -27, 106, -48, 81, 10, -114, 6, 96, 16, -124, 118, 55, 95, -56, -29, 77, 52, -92, 54, 94, 82, 116, -31, 32, -18, 60, -39, 86, 87, 123, -3, -39, -52, 73, -4, -108, 96, -50, -47, -1, -63, -16, 52, 58, -84, -20, 76, -30, 22, -14, -89, -110, 102, -69, -112, -13, 66, -26, -113, -26, 55, 19, 35, -36, 67, 50, -101, 96, 63, 122, 125, -123, -30, -77, 123, -69, 88, -105, 85, -72, 49, -59, 113, -3, -9, 9, -12, 7, 85, -20, -3, 14, 85, 55, 72, -27, -80, 105, -119, 106, 71, 22, 64, 14, -101, -8, -61, 89, -13, -15, 20, 48, 120, -114, -8, 122, -71, -6, 54, 8, 43, -28, 33, -82, 95, 61, 116, 64, -125, 67, -27, 23, 41, -54, -76, 25, -71, -57, -110, 52, -87, -69, 35, -102, -121, -17, 69, 126, -108, -70, -93, 94, -113, 106, 109, -71, 86, -49, -57, 50, -48, 47, -95, -74, 122, -23, -112, -66, -13, 69, -76, 78, 28, -57, 78, 102, -50, 118, 66, -34, -15, 6, -68, -90, -41, -18, -63, 40, 35, 93, 50, 22, -6, 46, -66, -112, -124, -98, -62, -55, 114, -78, -36, -116, 117, 124, 11, -20, -29, 59, 55, -65, -11, 43, -103, -40, 5, 19, -74, 20, 22, -111, -73, -115, 37, 81, -15, -52, 113, 121, 1, -101, 101, -82, 1, 103, 48, 120, -106, -91, 62, -29, 34, -118, 82, 3, -80, -88, -9, 112, 125, -16, -45, -2, 66, -123, 49, -35, -124, 81, -101, -29, 31, -71, 94, 24, 92, 50, -7, 117, -22, -116, -62, 93, -37, 37, 14, 104, -111, -76, -77, 54, -79, -104, -41, -93, 36, -42, 99, -61, -108, -34, -7, -64, 121, 73, -19, 123, -51, -121, 21, -68, -125, -31, -49, -94, 76, -85, 32, -109, 55, 25, 49, 123, -7, -104, 103, 25, 85, 75, -61, 24, -42, 106, -79, -32, -78, -34, 100, -62, -89, -65, 40, 90, 27, 77, -26, 11, -34, 16, -82, -106, -116, 61, -59, -21, 29, 6, 36, 42, 70, 82, -68, -81, -3, 117, 93, -54, -13, -111, 41, 62, -68, -6, -65, -83, -24, 101, -57, 119, 94, 44, 25, -49, 97, -66, -68, -41, 105, -53, -127, 36, -20, 56, -73, -67, 88, 117, -67, -54, -32, 15, 46, -94, 118, -116, -4, 45, 125, -125, -86, 61, 41, 86, 28, 52, -72, -85, -73, 114, -62, 59, -17, 115, -44, 37, -6, 108, -78, -1, -21, 27, 26, -9, 123, -19, 113, 53, -53, -111, -73, 72, 107, 9, 50, 25, 41, -120, -6, -41, 58, -55, -47, -51, 87, -46, 83, -119, -7, 86, 41, 68, -21, -109, 91, 20, 55, -108, 25, -107, -79, -51, 65, 82, -103, 16, 46, -114, -26, 21, 90, -114, 49, 115, -109, 94, 24, -36, 2, 112, -70, 47, -82, 64, -48, 94, -103, 102, -35, -76, 93, -70, 68, 105, 46, 115, -10, 120, 1, 22, 26, -27, 47, -12, -52, -102, 96, -8, 6, -16, 3, -73, 98, -39, 13, 94, 126, 42, -82, 27, 42, 90, 42, -116, 8, 81, 121, -19, 92, 25, 34, -28, -123, -120, -73, 66, -13, 109, 5, -80, 37, 64, -18, -70, 77, 121, 8, 44, 73, -52, -113, 66, -94, -93, -110, 68, 34, 63, -9, -94, -96, 61, -116, -6, 81, -110, 18, -12, 1, -105, -120, -13, 105, 60, -96, 65, -53, 32, -94, 90, 16, -19, 117, 98, 84, 56, 48, 13, -65, -95, -8, -108, -116, -5, -93, -5, 104, 102, -98, -6, -99, -86, -90, 78, 15, 15, 93, 59, 81, 22, 87, -32, -88, 126, 95, -85, 88, 8, -105, -72, 116, -9, 5, 92, -15, 50, 10, -112, -72, 7, -93, -87, -15, 55, -95, -24, -69, -98, -104, 19, 101, 75, 6, -41, -96, -76, 108, 91, -1, -38, -121, 71, -27, 104, 88, 112, 41, -79, -44, 87, -61, -1, -119, 17, 121, -85, -89, 16, -60, 23, 45, 54, -64, -55, -28, -37, -124, -103, -121, -33, 80, 63, 68, -9, -66, -52, 76, 71, -114, -29, -99, 104, -107, 114, 45, 37, 66, 77, -108, 45, -94, -40, 80, -78, -110, -51, 74, -51, 81, -53, -90, 94, -94, -104, 109, 75, 19, 0, 45, 66, 122, 23, 6, -55, -94, 93, 8, -57, 66, 95, 15, -74, 98, 8, 54, -91, -36, 21, 14, -9, -29, -123, -48, -54, -125, 23, -5, -55, 25, 45, -51, 0, 16, 34, -92, 122, 83, 32, 36, 115, 92, 118, -5, 65, -6, 111, 103, -115, -75, 104, -51, -93, -82, 10, 82, 12, -125, 68, -17, 61, 107, -63, -33, 75, -11, -34, 39, 10, 94, 33, 15, 125, 71, -28, -10, -126, 99, 75, -15, 78, 75, 17, 96, -12, -86, -72, -106, -48, -51, 46, -75, -31, -63, -121, -123, -40, -59, 77, 34, 36, 63, 95, 52, -72, 46, 108, 89, 15, -63, -13, 39, 60, -104, 44, -112, 38, -33, 78, 118, -94, 4, -111, -54, 105, -32, 8, 65, -126, -126, 0, 25, -119, 98, 102, -4, -11, 44, -123, 88, 121, -92, 43, -100, -41, 98, -110, 45, -110, 91, 23, 36, 109, 29, -68, 32, -95, 1, -61, -49, 1, -120, 54, -105, -69, 26, -118, 49, -61, 46, 4, -87, 102, 65, -45, -106, -68, 42, 96, 77, -119, -7, -60, -6, -17, 9, -91, -33, -111, -59, 16, -96, -55, 93, 59, -122, -88, -115, 49, 28, -3, -70, 71, 88, -63, -72, -81, -52, -110, 72, 89, 92, -52, -120, 35, -60, -58, 109, -24, 81, 71, 94, -44, -5, -73, 93, 43, -71, -87, -10, 10, 3, 92, 104, -122, 124, 116, 8, -52, 80, -7, -38, 69, -53, -26, -110, -10, -7, -124, -82, -49, -6, -88, 29, -9, 98, 84, 70, 113, 39, -79, -112, -120, 28, 85, 7, 84, 56, 1, 96, 76, 32, 4, -64, -127, 51, -118, 119, -30, 105, -101, 12, 89, 96, -79, 1, 108, 91, -126, -104, 79, 33, 39, 39, 69, 47, 1, -100, 109, 54, 84, -118, 109, 127, -84, -24, -31, 69, -26, 32, 40, -48, -32, 7, -32, -43, 103, 33, -47, -30, 8, 73, 9, -36, 119, -23, 63, -125, -43, -103, 75, 40, -35, -30, -112, -106, 12, 106, 30, 43, -125, -27, 84, 118, -18, 1, 82, -90, -117, -54, -13, 29, 64, -37, 38, 38, -25, -70, -101, -72, 65, -44, -9, 28, -61, 105, -24, 107, -53, 34, 110, 125, 38, 108, 35, -26, 98, -74, -87, 78, -62, 62, -11, 13, -24, 112, -67, 1, 66, -77, 9, -127, -55, -50, -34, -17, 37, 59, 41, 3, 5, -69, 63, -52, 106, 101, 87, 66, -98, -121, -32, -66, -124, 99, -56, -46, 68, -6, -36, -85, 95, 1, 38, -89, 20, 1, 106, -47, -70, 53, 103, 6, -57, 60, 34, -39, 126, 50, 95, 6, 3, -89, 84, 96, -7, -57, -73, -71, -28, -44, 22, 76, -75, -106, -99, 82, 72, -55, -94, -77, -121, 85, -29, 90, 6, 83, -102, -21, 91, 72, 52, 11, -66, -66, 59, 80, -116, -82, 81, 67, -4, 82, -71, -126, -112, 58, 94, -38, -45, 100, 117, 107, -100, -16, -83, -89, -102, 75, 9, 39, -53, 71, 10, -48, 122, -125, -77, -21, -122, -72, 86, -62, 89, 29, -59, -22, 49, 93, -111, 94, -31, 38, -97, 124, -83, 63, 99, 9, 100, -92, -26, -21, -80, 4, -122, -35, -112, -112, -4, -114, -120, 106, -1, 9, -63, -42, 95, -63, -125, -107, -14, -40, 28, -29, 114, 121, 53, 14, 123, -11, 7, 121, -88, 74, -101, -23, 86, -98, -113, -90, 79, 70, 69, 0, 10, -108, -114, -109, 118, 85, -105, -16, 63, -102, -74, 42, -27, 34, -57, 123, -11, 52, 89, 48, 13, -14, 81, 103, -73, 38, -98, -96, 36, -48, 58, -105, -97, 62, -95, 104, -110, -105, -59, 9, 65, 37, 70, 10, -64, 28, 51, -37, -89, -40, 4, 14, -79, 3, -114, -62, -102, -69, 16, 12, 115, -122, -10, -36, 0, -73, -3, 107, -111, 79, -98, -82, 90, 39, 31, -5, 39, 116, 109, -99, 24, 113, -49, 85, -46, -106, 4, -73, 68, 124, -39, 39, 13, -21, -40, 70, -6, -72, 48, 38, 35, 43, -65, 91, 72, -14, 83, -75, 4, 10, 22, -84, -78, -120, -71, -86, 21, 118, -119, 106, 33, -19, 24, -29, 61, 99, 25, 31, -54, 13, 26, 72, -45, 89, 110, -53, -104, -36, -36, -5, 13, 33, -21, 61, -48, -121, -16, -107, 83, 74, -57, -68, 3, 113, -11, -19, -99, -112, -70, -94, 105, -7, 96, 76, -39, -44, 23, 44, 65, 34, -75, -96, -33, 51, 60, 0, -54, 125, -103, 66, -62, -15, 124, 81, 20, -98, -21, 48, -90, -64, 120, -60, 124, 59, 111, 94, -45, -16, 125, -123, -82, 51, 112, 112, -8, 88, 105, 46, -45, 70, -26, -105, -21, -29, -40, -34, 10, 42, -16, 123, -4, 4, 18, -105, 93, 54, 49, 104, 100, -4, -22, 110, -93, -111, -108, -77, -71, -14, 55, -12, -124, -106, -126, -125, 121, 46, -62, 84, 21, 36, -20, 0, -101, 97, -19, -50, -3, -126, -28, 122, -20, -62, -37, 13, 47, 23, 88, -16, -120, 19, 115, 97, -66, -35, -76, 117, -84, -40, -19, -40, -29, 56, 48, 73, -32, -12, 55, -49, 91, 40, 20, -47, 126, -119, 27, -101, 7, -87, -125, -21, 57, 103, -124, -101, 69, -40, -39, -59, -31, 32, 119, 65, -18, 45, -78, 94, 14, -45, 126, -90, 102, -60, 61, -17, 19, 76, 28, -117, 101, 94, 90, 122, 117, -51, 65, 12, -111, -74, 81, -12, -33, -92, -41, -118, -70, -120, 13, 36, 99, -109, -120, 45, 125, 55, 102, -86, 70, 107, -39, -79, 116, -114, -30, 120, -54, 28, 55, -14, 45, 25, 65, -121, -54, 24, -118, -29, -70, -97, 42, 19, -50, 11, 80, -74, 44, 47, 12, -49, -54, -39, 79, -50, -24, -40, -87, 46, -82, -64, 22, 3, -15, 12, -41, 113, 100, 22, -29, -65, 71, -66, 94, 2, 74, -81, 87, -27, 114, 69, -127, 18, -42, -63, -39, -89, -85, 3, -106, 73, -84, 82, 121, -19, -45, -122, 64, -23, -82, 80, -78, -49, -30, -105, -44, 8, 97, -120, 24, -57, -108, 47, 75, 87, -92, 119, 70, -33, 126, -119, -60, -62, 48, 36, 32, -67, 3, 104, 117, 31, -34, -33, 90, -117, 113, -123, -43, -76, -106, -89, 99, -26, -55, -62, 19, 126, 2, 54, -4, 11, -76, 101, -55, 4, -65, 116, -27, -118, -52, 96, 40, -53, -53, -112, 15, -50, 115, -16, -108, 115, -119, 61, 83, -29, -121, -22, 71, 87, 41, -105, -124, -33, 2, 57, -90, 7, -20, -65, 60, -91, 35, -4, 73, 61, -13, 1, 32, -62, 77, -41, 68, -42, 26, 47, -115, 111, 4, 100, 57, -26, -34, -86, 49, -35, -64, 81, 16, 105, -104, 30, 117, 49, -27, -64, 70, 93, 93, 78, 79, -18, -87, 34, -119, -65, -39, -116, 27, -72, 72, 74, 105, 112, 77, 52, -112, 16, -70, -123, 112, -93, 1, -48, -32, 104, 116, -64, -120, -28, -121, -15, -8, -57, -85, -51, 118, -118, 19, -77, 52, -57, -91, 79, 94, 112, 13, 120, 47, -56, -30, -118, 105, -48, -26, 103, 109, -28, -64, -99, -9, -8, -14, 12, 62, -88, 100, -123, -96, -61, -60, 59, 57, 13, -26, 88, -100, -113, 55, 1, 10, -12, -31, -117, -53, -107, 73, -8, 15, -21, 101, 78, 32, 24, 78, -107, 6, -60, -77, 99, -126, -119, 105, 60, 51, 61, 89, 36, -120, 102, 107, -65, 22, 119, -70, 27, 95, 71, -71, -120, 47, 60, -72, -71, 65, -68, 61, -13, -86, 34, -48, -33, 31, 121, 89, -53, 54, -97, -104, -70, -94, 60, 55, -119, -11, -35, 56, -122, -112, 81, -76, -93, -93, -76, 126, 61, 37, 102, -44, 4, 95, -16, -116, -83, 11, 27, -90, 29, 89, -113, 82, 16, 15, 118, 86, -11, 5, 68, -122, -36, -125, -21, -17, 52, 124, 65, 69, -59, -22, 69, 21, 29, 110, -113, -123, -68, 96, 61, -13, 117, -26, 62, -96, 34, 95, 38, 79, -64, -48, -75, 4, -17, 40, -42, 45, -12, -14, 82, 56, 109, 102, -18, 82, 0, 118, 64, 4, 66, 67, -24, -110, -30, -98, 54, 63, -19, -101, -61, 33, -73, -123, 76, -90, 43, -102, 67, -17, -123, -87, -46, 37, 51, -46, 35, -20, 117, -81, 58, -74, -115, 61, 124, -106, -6, 80, -71, 49, 43, 92, 35, 26, -117, 60, -90, 50, -114, 25, -123, 115, -125, -114, 46, -85, -18, 90, 11, 79, 49, 110, -101, -16, 36, -106, 66, -51, 31, 20, 123, -87, 10, 85, 62, 26, -126, -86, 5, -23, -89, -59, 18, -15, -35, -50, 117, -18, -32, 121, 125, 55, 4, 82, 45, -41, 44, -5, 45, -104, -85, -17, 107, 41, -15, -100, 100, 92, 91, -50, -56, -79, 26, -25, 49, -30, -8, 17, -110, -13, 55, 14, -41, 23, -65, 0, -75, 49, 108, 52, -65, -117, -74, -22, 52, 39, 94, -90, -23, -19, 122, -120, 30, 95, 66, -115, 30, -10, -50, 125, -29, 99, 94, -3, -39, 84, -101, -125, 99, -45, 14, 127, -117, 61, 46, -69, -121, -49, -74, 64, 31, 124, 78, 107, -76, 92, 42, -72, 30, -98, 23, -50, 125, -1, -29, 2, -18, -89, -26, 28, -117, -31, -86, 37, -31, -88, -116, -2, 38, -116, 83, 60, 80, 119, -74, 67, 17, 23, 116, 19, -59, 120, 106, -41, -45, 4, -58, 49, -36, -112, -125, -22, 29, 113, 82, 68, -110, 19, 47, 45, -6, 96, 31, -81, 1, -107, 6, -102, 22, 72, 73, -35, -97, -26, 37, -70, -82, 35, 67, -60, 101, 66, -31, -75, 18, -22, 117, 24, -38, 93, -69, 58, -60, 2, -60, -41, -69, -39, 71, 117, 118, -79, 66, -120, -64, -54, 72, 80, -89, -90, 111, 112, 20, -74, 103, 25, -96, -6, 6, -31, 71, 126, 56, -1, 40, 12, 11, 88, 43, -40, -56, -96, -89, 96, -27, 21, 21, 108, 33, 117, -57, 37, 30, 13, -112, 25, 117, -21, -11, -78, -22, -69, 1, 18, 39, 30, -83, -35, -14, -123, -83, 83, -24, 115, -125, -49, -89, 76, 39, 126, 38, 124, 83, -63, 60, 110, 78, -78, 97, -95, 103, 110, 27, -27, 17, 29, 11, -48, 31, -108, 110, -97, -101, -83, 10, -36, 33, 89, -14, -54, 103, -118, 93, -107, 35, -62, -66, 89, -83, -32, -22, 102, 107, -80, 31, -10, -4, 122, 124, -34, 51, -80, -98, -59, 74, 125, 28, 40, 76, -28, 67, -92, -107, -62, -14, 65, 85, -95, -37, -69, -35, 3, 15, -89, 83, -105, 12, -51, -119, -105, 71, 30, 1, -36, 45, 84, 38, -47, -117, 54, -54, 64, 5, 9, -100, 79, -24, -58, -127, 13, 103, 36, 91, 117, 61, 115, 25, 114, 96, -87, -89, 43, 2, -76, -26, -56, -104, 94, 102, 50, -107, 116, -104, -18, 6, 12, 39, 16, -10, 18, -38, -66, 17, -50, 83, 125, -53, -99, -89, 110, -88, -87, 32, -29, 16, 113, -83, -22, -16, 43, 35, -124, -40, 52, 32, -61, -38, -7, 71, -95, 110, -112, -7, 38, 60, -59, 49, 104, 58, 48, 51, -66, -58, 109, -13, -104, 115, -116, -69, -101, -58, 86, 60, -55, -12, -23, -83, 5, -10, 20, 87, 27, -10, 4, -54, -97, -90, -70, -84, -62, -80, 30, 79, -30, 70, -14, 46, 6, -116, 105, 48, 114, -26, -104, 78, 22, 80, 57, 71, -72, 75, -5, -115, -105, -28, -120, 67, 50, 12, -34, -101, 71, -101, 24, 6, -25, -119, 101, -32, 30, 5, -60, -2, -91, 114, -41}

#define CONV2D_KERNEL_0_SHIFT (11)

#define CONV2D_BIAS_0 {52, -105, 61, -40, -4, 91, 99, -38, -92, -26, -64, -62, 9, -106, 15, 1}

#define CONV2D_BIAS_0_SHIFT (8)


/* output enconding for each layer */
#define INPUT_1_OUTPUT_SHIFT 7
#define CONV2D_OUTPUT_SHIFT 5

/* bias shift and output shift for each layer */
#define CONV2D_OUTPUT_RSHIFT (INPUT_1_OUTPUT_SHIFT+CONV2D_KERNEL_0_SHIFT-CONV2D_OUTPUT_SHIFT)
#define CONV2D_BIAS_LSHIFT   (INPUT_1_OUTPUT_SHIFT+CONV2D_KERNEL_0_SHIFT-CONV2D_BIAS_0_SHIFT)
#if CONV2D_OUTPUT_RSHIFT < 0
#error CONV2D_OUTPUT_RSHIFT must be bigger than 0
#endif
#if CONV2D_BIAS_LSHIFT < 0
#error CONV2D_BIAS_LSHIFT must be bigger than 0
#endif

/* weights for each layer */
static const int8_t conv2d_weights[] = CONV2D_KERNEL_0;
static const nnom_weight_t conv2d_w = { (const void*)conv2d_weights, CONV2D_OUTPUT_RSHIFT};
static const int8_t conv2d_bias[] = CONV2D_BIAS_0;
static const nnom_bias_t conv2d_b = { (const void*)conv2d_bias, CONV2D_BIAS_LSHIFT};

/* nnom model */
static int8_t nnom_input_data[16384];
static int8_t nnom_output_data[16384];
static nnom_model_t* nnom_model_create(void)
{
	static nnom_model_t model;
	nnom_layer_t* layer[3];

	new_model(&model);

	layer[0] = Input(shape(32, 32, 16), nnom_input_data);
	layer[1] = model.hook(Conv2D(16, kernel(7, 7), stride(1, 1), dilation(1, 1), PADDING_SAME, &conv2d_w, &conv2d_b), layer[0]);
	layer[2] = model.hook(Output(shape(32, 32, 16), nnom_output_data), layer[1]);
	model_compile(&model, layer[0], layer[2]);
	return &model;
}
