#include "nnom.h"

#define CONV2D_KERNEL_0 {-10, -52, 66, 91, -83, 114, 98, -30, -92, 41, 57, 96, -58, 10, 64, 27, -38, 24, -56, -2, 27, 99, -1, -54, -120, 65, 62, 67, 11, 46, 74, 105, 39, 0, 43, -89, -96, -25, -52, 92, -98, 11, -63, 45, 38, -60, -24, -114, -78, -28, 57, -13, 77, 100, -65, -75, -6, -77, -19, -99, 1, -89, 95, 51, 60, -106, -26, -118, -35, 65, 108, -16, 93, -12, 82, 108, 85, -17, -74, 61, -110, 57, -69, 106, -103, -77, 40, -105, -96, -9, -40, 116, -3, -91, -71, -5, 83, 114, 114, -31, -82, 70, -36, -28, -32, 6, 112, 98, -27, 80, -71, -78, 43, 106, -78, -77, 64, 8, 26, 49, 106, -62, 64, 4, -37, 29, 56, 41, 69, -39, 76, -113, -28, 89, -17, 80, 17, -81, 77, 11, 43, -44, -3, 32, 45, -110, 40, -45, 73, -84, 29, 50, 80, -46, -108, -79, -103, -73, -35, 26, -34, -104, 10, -61, -67, -73, -36, -5, 117, -41, 93, -79, -29, -120, 19, 32, 33, -28, 47, -5, -61, -33, 69, -13, -86, 27, 22, 63, -38, 29, 96, -23, -79, 70, -76, 4, -74, -57, -10, -61, -30, -32, 113, 102, -32, -29, -93, 62, -11, 55, -56, 22, 3, 31, 73, 30, -99, 110, -15, -10, 5, -65, 73, 57, -48, 113, 12, 29, -35, -43, 42, -3, -56, 84, 14, -108, 35, -24, 41, -93, -23, 20, -9, -105, -69, -101, 20, 34, -75, -88, 61, -87, 56, -63, 117, -34, 14, -80, -99, -43, 0, -111, -43, -100, -72, -108, 36, 109, 57, 22, 3, -55, -103, -4, 107, 86, 13, 19, -3, -15, 12, -59, -9, -68, 93, 55, -7, 37, -16, -4, 113, -34, -72, 5, -72, -81, 27, 84, 116, 81, 37, 101, -71, -6, 99, 48, -114, 43, -33, -33, 109, -59, -69, -59, 82, 74, 14, -23, -11, -79, -96, 49, 42, 86, 116, 21, 88, -109, 118, 78, 6, -103, -105, -59, -71, -15, 29, -96, 89, 97, 117, -49, 77, -11, -29, 31, -8, -22, -75, -12, 27, 32, -68, -101, -118, -11, -117, -76, 33, -55, -54, -65, 117, 46, 61, 108, -49, -15, 16, 18, 36, 78, 98, 67, 14, -92, 17, 5, 82, 102, 62, -23, -90, -61, 10, -90, 109, -2, -110, 46, 83, 36, -87, -85, 118, -76, 22, -42, 32, 38, 87, 26, -2, -40, -62, 0, -68, 21, -88, -40, -59, 57, 59, -112, 0, -68, 82, -51, -3, 73, -106, -9, -26, -113, 115, 79, 83, -56, -43, -19, -110, 25, -99, -76, -16, 30, -76, 46, -81, 37, 111, 119, -51, 70, -15, 92, 109, 64, 41, 19, -91, -13, -48, 21, -16, -120, 114, 29, -109, 79, 58, 78, -42, 66, -69, 110, -58, -36, -17, -75, 80, -69, 32, -57, 93, -104, -78, -13, -56, -27, -69, 110, -78, 17, -107, 115, -108, -120, 99, -81, 62, 27, 115, -14, 67, 113, 24, -110, -99, 92, 32, -101, -12, 64, 86, 5, -38, -62, -73, 3, 18, -95, 2, 71, -19, 80, 107, -61, -22, -120, -118, 113, 77, -23, -113, -4, -114, -24, 87, 68, 26, -111, 11, 20, 69, -58, -50, -74, 41, -48, 9, 35, 29, -119, 113, 82, 79, 51, 5, 96, -5, -15, -33, 44, 44, 13, -61, -39, 3, 95, 23, 25, -55, -17, -57, 37, 12, -8, 35, -3, 95, 58, -9, 16, -116, 18, 48, -111, 73, 116, -36, -34, -24, 42, 16, -94, -45, -32, -67, -90, -44, -70, 94, -78, -67, 27, 86, -102, 44, -31, 68, 27, -102, 13, -106, 119, 114, 10, 38, 61, -19, 57, -12, 87, 35, 9, 106, 114, 7, 58, 60, 7, 70, -116, 48, 46, -76, 43, 90, -22, -57, -64, 50, 78, 67, -21, 74, -52, -35, -86, -46, 101, 63, -27, -33, -55, 23, -33, 87, -65, 73, 63, 59, -33, -69, 17, 22, 35, 110, 50, -101, -57, -38, -117, -64, -79, 106, -36, -41, -77, 14, 3, -31, -14, 30, 22, 106, 3, 71, -102, -62, 4, 13, -4, -52, -52, 16, 37, -79, 117, -108, 18, -68, -61, -2, -90, -46, 74, 110, -101, -21, -113, -91, 114, 3, 58, -90, -69, -89, -8, -10, 65, 45, 118, -79, 118, 46, 39, -111, -76, -6, -12, 20, -70, 66, 21, -24, -54, -87, 34, -96, -48, -90, -66, 27, -87, -20, -77, -66, -24, -39, 46, -36, -105, 112, 32, 65, 71, 118, -101, 6, -10, -83, -92, -103, -22, -64, 103, 102, 46, -55, 29, 94, 105, 83, 54, 23, 120, 112, -10, 39, 41, -83, 64, 62, 62, 9, 2, -16, -68, 70, -60, -59, 95, 83, 11, -13, 29, -117, -54, -92, -62, 67, -75, -104, 48, -111, 115, -9, -52, 19, -98, 67, -100, 14, -60, -117, -28, -56, 8, 27, -8, -3, -81, -85, 94, -32, 7, -25, 27, 97, -40, 121, 57, 23, 54, 85, 32, -116, 10, -19, -61, -25, -44, -39, -67, 34, 20, 64, 0, 16, 75, 32, -58, 109, -120, 86, -82, -77, -3, -79, 51, 115, 77, -18, 90, 44, -120, 61, 2, -79, -77, -84, -22, 39, -108, 101, -8, -52, -34, -90, 84, -104, -72, 27, 18, -69, 55, -47, -30, 10, -42, 98, 26, 10, -114, -77, 27, -38, 108, -68, -100, 108, -26, 81, -97, 71, -41, 118, 24, 38, 13, 49, -12, -59, 7, 115, -17, 75, 88, 105, 48, -110, 70, -104, 119, 89, -9, 118, 108, -48, -6, -94, -78, 103, -93, -9, 97, 76, -70, -105, -79, 37, -44, -92, 90, -51, 120, 15, 61, -87, -87, -45, 22, -107, 32, 1, 111, -52, 107, -38, 45, -57, -85, 66, -69, 50, -108, 67, 31, -28, 107, -22, -71, -73, 113, -88, 26, 90, 99, -96, -90, -14, 77, -80, -113, -20, -106, 19, -114, 91, -100, 28, -26, 80, 43, -7, -113, -111, -8, -65, 112, 36, -73, 102, -109, 82, 15, -94, 50, -76, 54, 11, 71, -29, -107, 11, -30, -16, 116, 33, -104, -93, 103, 104, -43, -120, 3, 66, -14, -100, -72, -4, 20, -108, 62, 67, -48, -63, 0, 2, -12, -102, 49, -74, 66, 95, -75, 73, -25, -105, 16, -2, 71, 31, 13, 5, 78, 10, -72, -51, -63, 110, -101, 42, -90, 39, 98, -78, -28, 44, 6, -92, -106, 85, 21, 119, -59, -17, 50, 2, 46, 61, 60, 110, 110, 76, 59, 107, -110, -50, 8, 64, -9, 30, -115, -4, -38, -6, 115, 11, -115, 118, 38, -43, -120, 14, -89, -103, 53, 86, -8, -102, 65, -30, 67, 52, -10, -95, 3, 30, -5, 77, -43, 90, -52, -47, 96, 32, -81, 14, -1, 80, 14, -102, -105, -114, 0, 92, 113, -24, 78, 9, 79, -119, 65, 4, -74, 63, -29, 91, 57, 18, 5, 58, -29, -79, 54, -50, -111, -112, -39, 89, -112, -43, -100, 20, 6, 80, -88, -101, 24, 36, -13, -71, -99, -79, -25, -91, -17, -69, -57, 46, 107, 46, -55, -85, -4, 94, 13, 57, 37, 116, -60, -40, 7, -120, -80, -65, 34, -52, 27, 31, -55, 57, 117, -84, -93, -76, 32, -82, 45, -86, 16, 88, 62, -10, 11, 6, -53, 36, 78, 62, 91, -17, 94, -100, 15, -83, -110, -79, 60, -15, -12, 86, 114, -80, -92, -111, -104, 115, 103, -83, 25, -95, -48, -55, -73, 77, 83, 63, -43, -82, 94, -54, 12, -31, 58, -75, -46, 74, 78, 94, -67, -84, 88, 4, 70, -3, -112, 39, 9, 104, -112, 9, -30, -49, -13, 98, 41, 106, -93, 7, 101, -81, -39, -18, -112, 70, -79, 64, 32, 97, -121, -117, -100, -20, -40, -93, -90, 47, 77, 39, 50, 40, 32, -31, 72, 119, 33, -81, 53, -32, -102, -117, -117, -57, -55, 46, 61, 50, 41, -34, -87, 11, -115, -71, -56, -88, -97, 39, -9, 92, 22, 92, 24, -65, 107, -84, -48, 27, 48, 61, -25, 49, 17, -29, 80, 64, -52, 39, -58, -1, 33, 75, 99, 5, 116, 7, -95, 14, 21, -21, -9, 80, -96, 109, 104, 27, 104, -82, 18, 33, 21, -18, 70, -3, 109, -94, -45, 49, -34, -90, 103, 112, -24, -49, 106, 77, -40, -116, 77, -22, 35, -60, -108, 72, 114, 3, 48, -34, 107, 61, 67, -17, 116, 115, 37, 96, -48, 82, 61, -65, -16, -32, 67, 30, -8, -100, 36, 77, 91, 1, -96, 75, 121, -34, 39, -93, 105, -79, -110, 92, -94, 66, -26, -15, -37, 93, 55, 46, 102, 83, -56, -90, 32, 69, 89, 0, 110, 79, -80, -58, -58, 112, 61, 42, -26, -51, -25, 92, -12, -63, 60, 77, 47, -101, -99, -48, 103, -2, 55, -69, -36, -76, 47, 64, 87, 119, -6, -10, 105, 50, -4, -44, 74, 19, 76, -20, 116, -19, 84, 107, 100, 51, -38, 71, 41, -95, -81, 31, -26, 28, 26, -63, -101, 40, 4, -25, -52, -92, -65, 47, 105, 86, -108, -14, -4, -96, -103, 25, 3, 44, -55, 15, -93, -34, -91, 85, 85, -29, 75, -61, 77, 26, 67, 93, -74, 95, -44, 44, -99, -31, -97, 108, 44, 65, -105, -46, -65, 103, -104, -13, 104, -89, 103, -37, -95, 46, -7, 101, -26, 83, -70, 40, -98, 76, 42, -106, -98, 27, -85, -32, -33, -57, 9, -37, -58, 71, -62, -65, 22, 10, -25, -114, -34, -53, -117, -77, 3, -57, 41, 85, -82, 19, 88, -101, 99, 94, 109, -37, 14, -77, 71, 27, -59, 8, 105, 29, -99, -90, 24, -77, -75, -49, -64, -46, -99, 51, -36, 33, -94, -86, -109, 70, 10, -11, 0, -61, -50, -36, -107, -8, -10, -70, -61, 71, -87, -79, 87, -4, 43, -102, -93, -55, 106, -54, 89, 66, 41, 89, -34, 113, -66, -2, 84, 86, 32, 64, 46, -29, 18, -16, 40, -118, -107, 78, 64, 7, -70, 46, 62, 85, -84, -10, -13, 91, -115, 112, 61, 43, -5, 64, -65, -95, 76, 94, -9, 76, -106, 21, 116, 56, 74, -44, -48, 67, -65, -114, 101, 106, -102, -116, 27, 115, -86, -106, -76, 26, -80, 99, -25, 26, 5, -114, -94, 67, -35, -35, 84, 64, 102, 111, -108, 56, -120, 81, 37, -7, -114, -31, -15, 10, 83, -31, 107, -26, 96, -101, -1, 111, -61, 111, 87, -65, 46, 10, -80, 26, -103, -102, -66, 52, -104, -28, -97, 1, 36, 72, -6, -59, 1, -105, 54, -2, 100, 106, -15, 32, 44, -119, -30, 40, 49, 99, 62, -71, 118, 104, 120, 34, -12, 116, -112, 0, -108, 44, -81, 62, 14, 100, -79, -25, 38, -58, 29, 112, -104, -30, 74, -38, -118, 59, 106, -101, 33, -112, -24, -60, 41, 106, 6, 92, 4, 99, 106, 113, 93, -10, -103, -49, 32, 4, 0, -104, 120, -38, 89, 68, 110, -68, -73, 13, -39, 117, -10, 16, -22, 22, 113, 46, 0, -24, 77, 82, 53, -50, 89, 89, 4, 39, -70, 9, 58, 34, -29, 7, 25, -28, 12, 101, 88, -61, 37, 25, -92, -42, 86, -21, 0, -38, 59, 43, -108, 39, 53, 0, -119, -98, -16, -87, -36, 23, 96, 96, -106, -95, -116, 47, 27, 95, 68, 59, -18, -75, 53, -61, -10, 50, -73, -57, 84, -81, -16, 98, 11, 34, 7, -45, -47, 50, 52, -20, 42, -99, -34, 65, 52, 25, 44, -23, 67, -111, 50, -25, -28, 91, 22, 7, 26, 55, 27, -103, -94, -75, -59, -104, -83, -56, 18, 36, -56, 42, 11, 99, -40, 38, -30, 101, -50, 57, 2, -30, 28, -35, 73, -5, 0, -87, 19, 19, 50, -53, -68, 69, -38, -116, -82, 120, -42, 30, -16, -26, 72, 44, -17, 11, -48, 18, -78, 12, 25, -117, -18, 63, -20, -98, -26, -93, -19, -43, 107, -43, 54, 36, -74, -72, 41, 83, -119, 40, 24, 71, 81, 1, 44, -92, -83, -51, 108, 56, -48, -100, -82, 62, -61, -2, -27, 9, 5, 5, -69, 29, -86, -10, 65, -76, -73, -16, 15, 19, -96, 74, -116, -102, 13, -102, 105, 31, 22, 5, 115, 84, -81, -102, -118, -83, 1, 24, -30, -84, 91, -102, -63, -69, -119, 62, 98, 5, 33, 49, -47, -42, 50, 39, 48, -10, 60, 107, 80, 114, -111, -109, 96, 50, 7, -66, -25, -42, 2, 105, 83, 9, 72, 15, -98, -9, -67, 109, -96, -71, 97, -57, 85, 50, -79, -23, -107, 5, 7, -57, 87, -59, -55, 6, -107, 33, -12, 109, -75, -21, 32, 69, -49, -60, -10, 64, -57, 90, -3, 60, 89, -95, -104, 92, 79, 82, -27, 103, 17, 90, -112, 111, 106, 107, 68, -44, -115, 86, 79, 98, 108, 65, 110, 115, -12, -30, 76, -73, 96, -67, 119, 77, 57, 2, -67, -39, 47, 114, -66, 1, -56, -14, -4, 100, -11, -68, 62, 42, -67, -29, -4, -50, 117, 15, 11, 12, 37, 52, 53, -85, -6, 1, 66, 40, -14, 34, 2, -106, 83, 69, 66, -70, -42, 24, -92, 39, 81, 78, 23, 36, -105, -40, -91, -8, -71, -35, 91, -88, 73, 71, 75, 14, 0, 27, 117, -101, -99, 105, -15, 46, 39, -45, -38, -86, -38, -13, 112, -109, 40, 91, -102, -18, -39, 33, -6, -45, 64, 49, -71, -22, -85, 106, 15, -67, -41, 74, -108, -89, -72, -104, -118, 29, 54, 101, 6, -120, 20, -46, -25, -110, -104, 40, 108, 1, -22, 29, -36, 55, -67, -2, -31, -110, -82, -95, -120, 53, 103, -41, 97, -46, -99, -16, -13, 85, 49, 28, 67, 49, 92, -37, 99, -65, 107, 66, -1, -95, 35, 47, -45, 14, -41, 23, 94, 79, 17, -91, 94, 37, -91, 16, -119, 119, -26, -30, -78, -37, -90, 33, -58, 0, 69, 57, 0, -63, 19, -48, 52, 43, 65, -82, 111, -92, -43, 22, 88, -73, -8, -47, 73, -78, 54, -57, 34, -102, -40, 79, 21, -102, 78, 48, 9, -33, -12, -36, 84, 89, 109, -93, -70, -11, -53, -45, 19, 64, -109, 74, 119, -44, 78, 41, 6, 62, -14, -103, -85, 92, 42, 81, 15, 28, 38, -10, 83, 11, 84, 4, -108, -46, -105, 92, 8, 34, -51, -54, -48, 0, 63, 105, 24, 65, -58, -94, 46, 86, -45, 16, -26, 103, -77, 109, 59, -16, 75, -91, -45, -74, -109, 55, 101, 32, -80, -50, 21, 29, -88, 48, 51, -54, -98, 3, 51, 36, 3, 16, -77, -74, -19, 3, -85, -71, -6, 67, 103, -62, 93, 50, 72, 31, 77, 31, -41, -87, -76, -55, 37, 13, 59, -90, 29, 104, 44, 65, -95, -4, -36, 38, 72, 79, -4, 35, -103, -108, 113, -107, 76, -22, 73, 72, 68, 51, -13, -81, 57, -43, -114, -48, -64, 110, 0, 119, 23, 111, -66, 13, -73, 38, -28, -25, -12, -86, 109, 43, -23, 5, 64, -93, 18, 104, 101, 58, -2, -2, -31, -117, 27, -86, 75, -81, -110, 27, 109, 108, -87, -10, 95, 91, 119, 74, -57, 104, 78, 93, -46, -28, 45, 18, -37, -30, -6, 19, -47, 76, 91, -59, -78, 105, -45, -54, -106, 17, 121, 10, 76, 84, 39, -12, -108, 115, 116, 83, 79, -59, -28, -30, 89, -97, 93, 4, -45, 90, -78, -100, -15, -23, 15, -53, 80, 72, -88, -57, -16, -28, -10, -102, 112, -29, -60, 116, 107, 68, 15, -62, -1, -47, -112, 17, 28, -83, 88, -74, -111, -87, 45, 25, -1, 51, 81, -116, 42, 20, 97, 32, -9, -98, -35, 41, 39, -94, -31, -26, 29, -18, -110, -10, 56, 119, -92, 38, -99, -16, 55, -46, 4, 61, -79, 58, -60, -48, -16, -72, -74, 18, 106, -118, -51, 49, 60, 3, 108, 64, 62, -78, -101, -99, -106, 89, 115, -80, -65, -41, -114, -91, 58, 53, 115, -34, 44, 61, -76, 81, 54, 48, -25, 10, -87, 7, -82, 47, -9, -85, -6, 51, -1, -15, -103, 71, 71, -107, -103, -72, 91, 21, -68, -11, -2, 10, 10, -35, 16, -40, -48, 40, 119, 8, 114, 38, 20, 6, 86, -53, -54, -17, 1, 7, 51, -47, -36, 2, -62, -72, -70, -12, -113, -33, -42, 42, 37, 92, 21, 39, -95, -90, 55, 65, -112, -76, -104, -65, -13, -70, -33, -51, 117, -87, 5, 51, 104, 35, 51, 97, 32, 75, -5, -62, 16, -104, -3, 91, -69, -17, -53, 94, -30, -57, 49, -65, 120, -113, -18, -71, -29, 87, 13, -3, -7, -82, -79, 27, 83, 4, -13, -45, -39, -14, -23, -32, 19, -85, 93, 113, -31, 103, 109, 102, -65, 31, -107, 88, -119, 106, 91, 8, -89, 4, 84, 118, 113, -69, -4, 106, -26, -108, -32, -1, -12, -45, 117, 112, 101, -9, 6, 114, -99, -32, -100, -109, 104, -66, -93, 105, 92, -57, -77, -88, -120, -120, -56, 7, -71, 30, -99, -84, 77, -49, 0, 85, 42, -10, -2, -90, 94, -87, -34, 109, 59, -80, -35, -30, 90, 37, -2, 83, 54, -100, 42, 110, -27, -65, 109, 108, 110, -118, 30, 114, -76, 29, -2, -94, 71, 16, 111, -89, -2, 62, -56, 34, 57, 105, -23, 3, 109, -56, -54, -37, 58, 85, -88, 76, 107, 100, -50, -100, -21, -86, -111, 87, -69, -72, 40, -36, 100, -12, 35, -34, 25, -50, -70, -70, 70, -78, -18, -105, -5, 66, -19, -99, 55, 73, -109, -7, -9, -52, -101, -110, -1, -40, 22, 55, -58, 57, -14, -22, -2, 107, -64, -15, -98, 3, 8, -2, 59, 43, -15, -20, -62, 2, 119, 4, 16, 4, -4, -6, 85, -33, -94, -13, 108, -66, -91, 16, -36, -15, 91, -68, 49, -96, -59, -109, -71, -3, -2, -13, 24, -101, 25, -54, -69, 31, -21, 79, 99, 92, -67, -58, -75, -84, 51, -96, -108, -21, -74, 109, 99, -6, -66, 8, -88, 65, -28, 17, 10, -83, 85, 80, 109, 18, -91, -15, 30, -43, -86, -63, 62, 14, -2, 70, 101, -82, -30, -45, -73, 112, -39, 86, -81, -82, 102, 10, 70, 121, 108, -113, 39, -116, 82, 67, -58, 115, 97, 88, 24, 7, 28, 0, -22, -4, -46, 96, -39, 43, -32, 88, 94, 8, 91, 21, -37, -87, 26, -47, -88, 9, 106, 1, 39, 51, 20, -105, -20, -59, -58, 120, 81, 68, -56, 87, 32, 83, -23, -39, 92, 57, -41, -50, 86, -74, 60, -31, 61, 58, 84, -76, 10, 89, 72, -42, 23, -55, -68, -110, -101, 57, 26, -120, 95, -60, 82, -65, -40, -52, -12, 61, 87, -43, 47, 65, 65, -97, -36, 56, 20, 0, 118, -107, -66, 76, 8, -117, 53, -85, -68, 27, 19, 24, -10, -101, 43, 83, -85, 44, 97, 11, -68, 114, 118, 34, -119, -26, -21, -99, 21, -29, -22, -10, 96, 23, -20, 104, 68, 8, -119, 45, 99, 60, 90, -74, 35, 112, 28, 35, 19, -104, -86, 104, -96, -41, -22, -44, 3, 12, -119, -42, -118, 12, -38, 46, 92, 3, -85, 35, 89, 12, 81, -78, -90, -113, -10, 104, 84, 45, 120, 31, 16, 39, -15, 81, -67, -95, 64, -47, 11, 22, -113, -26, 12, 115, -16, 0, -37, 108, 20, -77, -84, 29, -107, -10, -84, -107, -98, -7, 82, 101, 44, -47, -68, 15, 77, -118, 43, -74, -119, -45, 84, 35, -60, -79, 27, -67, 105, 63, -43, -77, -66, -68, -109, -25, -103, 103, 66, -5, -20, -115, -46, -51, -36, -76, 59, 22, -93, 118, -27, -52, -101, -82, 105, 40, -93, 44, -21, -11, 58, 82, -55, -32, -60, -47, -106, 70, -111, 0, 72, -20, -39, -101, 46, 119, -43, 49, 30, -93, 12, 120, -57, -10, -18, -111, -64, 29, -19, 11, -70, -52, -53, -120, -76, -55, -36, 20, -53, 25, 111, -57, -62, 89, 73, 40, -49, -98, 47, 3, 0, 31, 113, -31, -21, -87, -107, -2, -89, 31, -111, -55, -35, -103, -13, -42, 76, -5, 68, 3, 58, 121, -29, 30, 62, 113, -52, -6, -19, -79, 72, 2, 26, -35, -56, -95, -37, -53, -116, -4, -61, -16, -61, -51, -57, 75, -50, -4, 21, 94, 118, 55, -24, 103, -44, 96, -102, -64, 93, 64, 43, 111, 108, -3, 75, 54, 15, 20, 108, 11, 85, 69, 112, -29, -50, 23, -47, 81, 100, 76, -49, 44, 93, 114, 81, 49, -23, -98, -27, 14, -75, 90, 47, 44, -91, 26, -28, -61, -5, -14, 107, 48, 79, -62, -28, -37, -54, -70, -103, 52, 114, 45, -56, 24, -73, 9, -89, -89, 22, -15, 3, 24, 92, -120, 113, 45, 74, 43, -55, -97, 33, 105, 90, -99, 80, 47, -98, 65, -10, -14, -13, 114, -81, -40, 15, 30, 104, 23, 21, 97, -3, -28, -114, -107, 18, 45, -58, -60, 87, 31, 3, -65, 18, -92, 4, -38, 7, -21, -58, -60, 62, -4, -21, -16, 20, -94, -40, -76, -23, 25, -107, -4, -36, 20, -47, 78, -40, -51, -86, -33, -53, -34, -43, 24, 111, 50, 42, 41, -4, -68, -82, -50, -58, -29, -75, -77, 36, 35, -81, 33, -51, -22, -73, 71, -33, 43, -76, -118, 41, 93, -24, 83, 79, 13, -40, 38, 58, 23, -55, -35, 84, -4, -115, -89, 35, -102, -54, 74, 103, 59, -18, 51, 114, -61, 28, 77, 10, 103, 10, -99, 28, -44, -29, 72, 50, -54, 1, 80, 13, 4, 15, 12, -10, -90, 25, 98, -105, -10, 93, 51, -7, 63, -26, 58, -47, -58, -32, -16, -96, -7, 54, -60, 105, 12, -116, 80, -97, 59, 38, 101, -63, 86, 46, 5, 78, 44, 72, 40, 30, -34, 12, -42, -9, -102, -21, 91, 113, -97, 20, -97, -18, 74, -23, -99, -21, 73, -114, 48, 61, 31, 10, 61, 95, 50, -108, 33, 120, -91, 66, 7, -103, 21, 105, 70, -43, -20, -62, -109, 99, 40, 102, 0, -40, 13, -8, -49, -64, -90, -49, 45, 39, 106, 16, 86, 42, -73, 47, 50, 3, 64, 80, 45, 41, 54, 28, 60, 30, -62, -69, -30, 114, 1, 3, -66, 46, 36, -86, 32, -121, 44, 24, 8, 15, -52, 91, -12, 2, 37, -26, -5, -91, -24, -24, 53, -87, 0, 42, -43, 68, 2, -62, -52, 110, -100, 6, 17, 27, -47, 80, -109, 63, -59, -88, -27, -23, -32, -107, -89, 25, 34, 100, -77, -21, 82, -88, -37, 117, -38, 40, 50, -78, 63, -25, 47, 23, 68, 68, 10, -71, 33, 90, 42, -33, 9, -64, 115, 32, 94, -120, 52, 100, 77, -53, 54, -40, 2, -5, 71, 11, 83, -47, -68, -13, -5, -41, 20, -41, 69, 113, -74, 3, -114, -90, 45, 1, 34, 104, -7, 10, -99, -48, -53, -118, -47, 106, -32, -22, 53, 39, -17, -11, 25, 115, -84, 112, 52, 0, -21, -59, -102, 43, -17, -53, 47, -21, 23, -27, 81, 0, -19, 38, 89, 46, 58, 9, -119, 29, -45, -92, -88, -33, 102, 15, -8, -63, -5, -99, 32, -38, -71, -33, -62, 70, 76, 62, 2, 64, 105, 96, 53, 120, 84, 113, 118, -104, 4, 99, 76, 22, 113, -19, 103, -117, -102, 53, -113, 119, 44, 69, 111, -43, 115, 100, -84, -67, 61, 48, 86, -18, 51, 51, -40, 56, -50, -19, -85, -2, -117, 103, -73, 35, 86, -116, 109, -90, 55, -113, -90, 83, -105, -48, 76, 14, -43, -40, 80, -55, 101, 97, 35, 29, 112, 115, 89, 38, -45, -107, -1, 70, 66, -67, -63, -74, -105, 81, 42, 64, -66, 107, 111, 25, -73, -50, -79, 92, -66, -41, -83, 56, 55, -82, 39, 13, -35, -5, -48, 11, 20, 45, -12, 63, 64, -69, -39, -58, -72, -104, -27, -56, 86, 111, -53, -37, 6, 31, -24, -54, -59, -72, -52, -79, -14, 86, 14, -30, -88, -96, 70, 50, -48, 67, -37, 6, 68, 115, 84, 74, 91, -89, -64, -118, 92, -73, 23, -25, -91, 69, 40, -96, -77, -27, 54, -116, -27, -108, -82, -18, 72, 120, 110, 37, -83, 63, 120, 106, -8, -101, -51, -2, -58, 112, 44, -8, 55, -112, 69, 94, 44, -114, 18, 68, 48, 33, -105, -119, -25, -36, 58, -67, -45, -53, -95, -96, -57, 35, 96, 38, -101, -71, -24, -23, -28, -45, 39, -35, 94, -102, 96, -119, 48, -19, 0, 74, 30, 15, -35, -94, -38, 93, -18, 115, -17, -105, 97, 84, 113, 101, 35, 88, -110, 120, -80, 63, -69, 68, 73, -92, 103, -33, 9, -24, -36, -37, -80, 50, -44, 41, -28, -1, 22, -77, 38, 31, -60, 0, 75, -116, 83, 58, 65, 58, 107, 86, 9, 19, -68, 10, -79, 20, -115, -15, -20, -23, 68, -45, 84, -43, 67, -30, -49, -108, 52, 62, -12, 82, -18, -18, -60, -67, 117, -72, 119, 31, -27, 19, 25, -39, 92, -110, -35, -18, 84, 100, 109, 86, 97, -80, 2, 35, 7, 75, 83, -51, -106, -60, -116, 36, 71, 81, 25, -64, -23, 112, -22, -59, -108, 65, 118, -80, -108, 111, 96, -15, 83, 16, -103, -73, -61, -60, 66, -75, 12, -107, 17, -73, -63, 74, 34, -38, 91, -94, 93, 87, 106, 113, -39, 53, -18, -39, -66, 6, -14, -111, 27, 13, -119, -108, -9, -75, -44, -15, -53, 54, 51, -1, 93, 73, 99, 1, -36, 56, -33, -37, -35, 110, 15, 89, -27, -99, -47, -10, 54, -18, -74, 11, -34, -49, -92, -101, 81, -114, -62, 38, -26, 93, 101, -31, -41, -41, 60, -78, 86, 32, -37, 99, 94, -62, 66, 27, -18, 88, -74, -5, -75, 68, -98, 76, -92, -21, -68, 56, 96, -99, 79, 16, 85, -117, 3, -6, 65, 90, 26, -29, -39, -31, -13, 61, -92, 110, -51, -25, 21, 57, -77, 28, -54, 77, 100, 17, 8, -42, 18, 87, -11, 109, -115, 23, -70, 14, -100, -15, -101, 106, -29, -102, 65, -72, 101, -35, 103, 11, 46, 51, 87, -6, 53, 41, -42, -107, -86, -61, -97, -55, -86, 75, 56, -84, -88, 92, 33, 30, 19, -30, 62, -10, -119, -47, -31, -11, -83, -112, 48, -105, 58, -119, 41, 105, -84, -99, -48, -113, 57, -106, -51, -32, -80, -80, 15, -98, -42, 7, -63, 60, -37, 104, 113, -108, 88, 31, -73, 15, 62, 102, -6, 111, 63, -32, 48, -29, -99, 36, -44, 48, 92, -87, 41, 104, 72, -29, 77, -90, 46, 97, 8, -64, -29, -54, 26, -101, 27, 103, -55, 113, -102, -9, -97, -83, 16, -105, -55, -30, 65, -32, -120, 29, 85, -116, -108, -12, -23, 103, 26, -116, -49, -99, -71, 39, -1, 49, 9, -18, -88, -110, 15, 120, 79, 49, -106, -3, 80, 43, -113, 4, -31, 72, -6, 41, 117, -108, -72, 64, 118, -3, 2, 85, 65, 80, -87, -73, -115, -92, -40, -26, 81, -84, 96, 62, 106, 34, 26, -45, 96, -11, -13, -100, -34, 93, 26, 32, -55, -10, 38, 40, 92, -102, -43, 61, 94, -90, -104, 67, -76, 47, -58, 47, -56, 65, 101, -91, -29, -48, 37, -86, 78, 63, 72, 87, -21, -75, 99, 54, 50, -72, 62, -21, -107, -117, -88, 25, 60, -5, -55, 93, 111, 68, 60, -31, -105, -45, 31, -110, -73, -13, 67, -71, -59, -53, 109, -15, -112, 96, -50, 80, -65, 58, 104, 76, 81, -11, -100, 3, 36, 20, -35, 44, 68, -53, 29, 71, 65, 69, 66, 90, 76, 106, -23, 14}

#define CONV2D_KERNEL_0_SHIFT (10)

#define CONV2D_BIAS_0 {45, 23, -51, -21, 62, -76, -6, -11, 41, -77, 78, 72, 32, 51, 75, 76, 9, 71, -31, 10, 19, -75, -41, -30, -18, 12, 40, -37, -60, 29, -59, 35}

#define CONV2D_BIAS_0_SHIFT (8)


/* output enconding for each layer */
#define INPUT_1_OUTPUT_SHIFT 7
#define CONV2D_OUTPUT_SHIFT 5

/* bias shift and output shift for each layer */
#define CONV2D_OUTPUT_RSHIFT (INPUT_1_OUTPUT_SHIFT+CONV2D_KERNEL_0_SHIFT-CONV2D_OUTPUT_SHIFT)
#define CONV2D_BIAS_LSHIFT   (INPUT_1_OUTPUT_SHIFT+CONV2D_KERNEL_0_SHIFT-CONV2D_BIAS_0_SHIFT)
#if CONV2D_OUTPUT_RSHIFT < 0
#error CONV2D_OUTPUT_RSHIFT must be bigger than 0
#endif
#if CONV2D_BIAS_LSHIFT < 0
#error CONV2D_BIAS_LSHIFT must be bigger than 0
#endif

/* weights for each layer */
static const int8_t conv2d_weights[] = CONV2D_KERNEL_0;
static const nnom_weight_t conv2d_w = { (const void*)conv2d_weights, CONV2D_OUTPUT_RSHIFT};
static const int8_t conv2d_bias[] = CONV2D_BIAS_0;
static const nnom_bias_t conv2d_b = { (const void*)conv2d_bias, CONV2D_BIAS_LSHIFT};

/* nnom model */
static int8_t nnom_input_data[16384];
static int8_t nnom_output_data[32768];
static nnom_model_t* nnom_model_create(void)
{
	static nnom_model_t model;
	nnom_layer_t* layer[3];

	new_model(&model);

	layer[0] = Input(shape(32, 32, 16), nnom_input_data);
	layer[1] = model.hook(Conv2D(32, kernel(3, 3), stride(1, 1), dilation(1, 1), PADDING_SAME, &conv2d_w, &conv2d_b), layer[0]);
	layer[2] = model.hook(Output(shape(32, 32, 32), nnom_output_data), layer[1]);
	model_compile(&model, layer[0], layer[2]);
	return &model;
}
