#include "nnom.h"

#define CONV2D_KERNEL_0 {-56, -15, -69, -64, -47, 59, 71, 86, -47, -82, 80, -37, 74, -90, -41, 45, 4, 8, -40, 98, -76, 6, 56, -25, -82, -7, 30, 25, 96, 63, 26, -27, 82, -37, 21, 84, 88, 57, 69, -16, 22, 1, 50, -22, -81, -19, -30, 79, 58, 94, -17, -57, 79, -61, 75, -22, 8, 42, -43, 58, -96, 11, 76, -9, -39, 77, -27, -37, -37, 76, 75, -14, -63, 62, 14, -66, 96, -42, -82, -91, -92, 76, 7, -65, 29, 23, 5, -40, 19, 65, 36, 72, 35, 25, 83, -1, -37, -54, -66, -26, 39, 79, -41, 38, 95, 43, 10, -80, -31, 49, 32, 39, -5, -60, 40, -63, 63, -25, -17, -8, -81, 17, -92, 73, -60, 5, 41, -33, -13, -15, -77, -58, -24, 95, 75, 42, 55, -82, 94, -34, -37, -49, -85, -23, 71, 7, -94, 82, -10, -40, 26, 10, 35, -42, 5, 84, -92, -18, -60, 69, -53, -47, 88, -64, 80, -58, -81, -23, 68, 54, -2, -40, 68, 22, -62, -78, -73, 18, -77, -94, -93, 7, -93, 44, -35, -14, 47, -96, 93, 5, -89, 16, -42, -42, -32, -73, 82, 46, -36, 17, -59, -53, -8, -61, -15, -47, -35, 28, 86, 43, -12, 4, -33, -46, -20, -19, 65, 68, 15, 38, -31, 71, -11, 59, 81, 2, -12, -18, -85, 9, -64, -59, -30, 9, 46, -20, -55, 64, -67, 38, 31, 21, 63, -11, 36, 14, -50, -34, 30, 74, 41, 47, 85, 14, 18, 73, -94, 3, -78, -65, -14, -37, 6, -60, 75, 6, 79, -11, 32, -65, 83, 8, 6, 30, -85, -4, 54, 8, 93, -66, 12, 25, 79, 34, 30, -96, -28, 35, -52, -47, -44, 87, 50, 61, 9, -22, -96, -93, 40, -27, -25, -57, 16, 25, 61, 4, -20, 14, -52, 83, -56, 13, -68, 27, -6, -45, 84, 18, -5, 6, -76, -64, -46, -27, 46, -48, -58, -96, -25, -33, 10, -72, 76, 82, 74, 47, 12, 90, -28, 30, 47, 21, -76, -71, -57, 75, -70, -20, -49, 32, -87, -93, -53, 15, -79, -89, -29, 18, -77, 65, -43, -77, 49, 42, -46, 10, -49, 84, -84, -61, -6, 12, 15, 72, -2, -91, -55, -10, -2, -48, 25, 11, 62, 19, 37, 78, 23, -11, -3, -9, -41, 82, -51, 0, 81, -81, 43, 89, 3, -42, -2, 81, -42, 26, -10, 88, -90, 43, 46, 30, -25, -51, -32, 12, -79, -16, 56, 22, -94, 44, 40, 84, -54, -67, 13, -18, -60, -60, -7, 45, -56, -49, 3, 61, -56, -81, 68, 89, -81, 96, -95, 83, 78, 35, 38, 95, 20, 6, -95, 44, 90, -12, 41, 59, -16, 31, -63, -40, 51, -17, -13, -56, 3, -86, 41, 80, -80, -78, 25, 79, -63, 8, -24, -84, -87, 27, 52, 39, 50, -33, -76, -88, 22, -46, 68, 68, -76, -55, -22, 77, -12, -35, -61, -52, -17, -33, -39, -76, 55, -47, 17, -92, 62, -72, -90, -13, 94, -98, 19, -62, 32, 36, 40, 71, 82, -49, 93, 5, 10, 43, 42, -12, 81, -37, 52, 8, -66, -96, -15, 81, -66, -54, 48, 22, -59, 34, -53, -59, 55, 41, -14, 7, 77, -74, 6, 64, 24, 86, -71, -91, 87, 22, 70, -83, 77, 94, -76, 60, 62, 81, 2, -62, 57, -72, 40, -35, -56, -60, -74, -6, 23, -8, 71, 21, -80, 97, 1, 72, -78, 17, -2, 78, 55, -46, -15, -27, -50, -32, 36, -15, -80, 21, -7, -95, -94, 80, -77, -31, -30, 54, -65, -46, -58, 53, 79, -80, -89, 5, -39, -2, -78, -72, 20, 35, -30, -72, 15, -98, 36, 48, 81, 93, -37, -43, -1, -7, -2, -49, -33, -83, 49, 40, 25, 74, 70, -32, 12, 57, -76, 98, 21, 89, 64, 39, -29, -26, -92, 2, 38, 45, -8, -5, -72, -35, 54, -12, 42, -72, 11, 70, 89, -45, -74, 51, 4, -7, 82, 45, 31, -80, 60, -83, 18, 64, -81, 23, -32, -61, -64, -48, -2, -77, -88, -7, 1, -87, -20, 44, -80, 8, 20, 87, -63, -18, -2, -48, 13, 41, 70, 81, 69, 53, 79, -88, -67, -90, -66, 68, -97, -44, -23, -85, 87, 95, 71, -36, 77, 16, -91, 4, -60, 81, 30, -41, 19, 98, 94, -18, 7, 11, -9, 85, 12, 35, -52, -23, -1, 94, 63, -54, 26, 4, 14, 65, -15, -25, -81, 50, -12, -48, -49, -80, -73, -83, -37, -97, -91, -18, 81, -9, 64, -13, -28, 95, -20, 38, -14, 69, 18, 65, 47, 50, -55, 90, 63, 44, -55, 80, -45, -51, 23, -82, 13, -70, 77, -87, -16, -44, -57, -17, 12, 37, -78, 45, 70, -85, -28, -63, 37, -47, 17, -68, -84, 25, 65, -83, -92, 36, -51, 27, 29, -2, -88, 73, -70, -14, -87, 65, -79, -40, 47, -2, -10, 63, -40, 2, 21, -58, 76, 50, 45, 73, 62, 39, 6, -85, 49, 1, -36, -76, -79, 32, -37, 75, 33, 29, 25, -5, 45, 76, -86, 68, -9, 0, 43, -93, 61, -91, 8, -33, -48, 68, 77, 4, -79, -80, 49, -75, 39, -66, -92, -50, -79, 39, 24, -80, -29, 81, 38, -68, -74, 45, 40, 81, -18, -87, -61, -17, 24, -15, -96, -48, 47, -44, 56, -30, 72, 17, 60, -69, -94, -87, 79, -58, -53, -76, -53, -92, 52, 58, 73, 14, -40, 45, -68, -40, -22, 82, 89, -35, 79, -74, -85, 51, 71, 36, -20, 65, 56, -23, -89, -54, -24, -63, 46, -34, -9, 41, 22, -82, -62, -78, -20, 73, 21, 85, -69, 2, -74, 18, 26, 94, 15, -73, -17, -6, 98, -4, -79, 18, -79, 13, -21, -66, 60, 73, 86, 66, 18, -82, 5, 58, -98, -27, -56, 98, 4, 87, -34, 61, 95, -27, 44, 44, 81, 86, 25, 97, -26, 96, 42, 52, -96, 84, 97, 47, -83, -59, 76, 52, 31, -70, -36, -76, -81, -85, -77, -84, 60, -10, 11, 56, -19, 25, -24, 78, 62, 44, 74, 19, -54, 35, 40, 60, -93, 24, -37, 77, -18, 28, 98, -1, -87, -48, 31, -49, -19, 82, 95, 10, -15, 86, 77, 65, -26, 34, 62, -78, -60, 21, 11, -91, -59, -6, 6, 75, -26, -95, 64, -20, 73, 21, 97, 73, 64, -30, -90, 80, -57, 70, -57, 4, -79, 24, 68, 48, 26, 0, -34, -2, -69, 96, 76, -69, 1, -60, 73, 1, 94, -45, 30, 90, -54, -43, -92, -19, 5, -30, -42, 93, 2, -31, 33, 12, -98, 32, 57, -80, 11, 11, 28, 79, -7, 49, -69, -30, 91, -81, 36, -56, -39, 5, -13, 63, 14, -81, -76, -40, -27, -86, -31, -69, 44, -29, -10, 61, -96, -17, 28, 32, -15, 8, 26, 39, -93, -30, -21, 68, 47, -66, 16, 22, 49, -69, -61, -96, -69, -22, -11, -59, -89, 66, 29, -32, -83, 84, 66, 2, 65, 47, 34, 41, -7, -86, -46, 44, 83, -66, -95, 94, -2, 1, 53, 64, -28, 83, 69, 8, 23, 96, 68, 13, -60, 22, 54, -49, 16, 63, -73, -9, -79, -58, 2, 78, -62, -88, -51, -97, 47, -40, -97, -62, 85, 71, 33, -85, -7, -84, -63, -41, 70, -19, -23, -11, 87, 78, 69, -16, -20, 50, 34, 65, 70, -95, 74, 36, 66, 23, -17, 59, -61, 13, 60, 83, -97, -19, -94, 34, 86, 14, -19, -60, 80, -28, -74, 19, 7, -61, 48, -74, 63, 57, -42, -66, -69, -54, -97, 63, 2, -49, 28, -42, -95, 38, -91, -3, -21, 97, -55, 17, 5, -21, -38, -5, 88, -76, -51, -23, -35, -6, -32, 94, 50, -95, 19, -21, 15, 50, 39, 36, -24, -61, 29, -24, 15, 12, 41, 45, -36, 80, 50, -24, -7, -77, -8, -90, -41, -98, 12, 93, -87, -97, -85, -34, -20, 28, 72, 52, -8, -82, 62, -9, -69, 49, 8, -14, -30, -2, 42, 25, -64, -33, -45, 20, -91, -5, -7, 20, 71, -25, -51, 97, 31, 40, -77, 23, 87, 44, -19, -39, -97, -11, -77, -24, -43, -57, -21, 78, 77, 76, -37, 33, 50, -28, 92, -41, 26, 2, -41, -58, -68, -41, 87, -35, -46, -36, 7, -89, 23, 15, 14, 57, -41, -76, 46, 68, 42, 36, -47, -62, -24, 78, 1, 34, -56, 61, 86, 1, 63, 33, -51, -74, 57, 85, 30, 15, -1, 8, 28, -18, -35, 57, -96, 12, -63, 8, 7, 73, -88, -28, 75, 43, 39, -69, 34, -24, -71, 24, -45, -32, 37, -6, -97, -66, -9, -92, -88, 56, 65, -71, 89, 55, -62, -76, 83, 60, 62, 95, 42, 0, 1, -98, 26, -22, -70, 57, -58, 28, 44, -50, 64, -6, -18, -78, 62, -42, 39, 67, -19, -16, 81, -88, -38, 5, -94, -45, -13, 0, -80, -66, 69, -90, 62, 64, 75, 86, 43, -82, -98, 26, -50, 61, -27, 26, 56, -27, -32, -50, -71, -86, -65, -68, -43, 12, -12, -69, -78, -66, 0, -19, 95, 5, 46, 85, 65, 72, 2, 14, -53, 7, 20, 75, -49, -49, -79, 27, -52, 60, 74, 35, 30, -48, -15, 54, 33, 47, 22, -52, 69, -85, 3, 72, 61, 35, -37, -92, -75, 5, -76, 53, -95, 95, -37, 95, 14, -18, 68, 7, 67, -55, 72, 19, -81, -83, 51, 52, 63, 98, -43, -8, 96, 9, -19, 33, 49, 87, -51, -94, 47, -98, 27, -94, -62, -22, -67, -39, 26, 50, -22, 69, -82, 46, -19, -27, -11, 84, -87, 95, 90, 61, 24, 67, -44, -55, -65, -15, -15, 32, -51, 50, 8, -39, -60, -6, 1, 54, 13, 90, 31, 65, 66, 38, -36, -20, -15, 10, -92, 65, 80, -84, -45, -80, 54, 92, 87, 43, -22, -1, -82, -58, 66, 6, -26, 74, -90, 24, -21, 7, 12, 15, -96, -44, 51, 97, 62, 43, 89, -7, 35, -67, 64, -51, 88, 47, 18, 19, -14, 8, -73, 76, -83, -51, 20, -23, -20, 89, 20, -55, 72, 86, 23, 98, 11, -2, -88, -53, 78, -48, 31, 78, 80, -52, 26, 50, 4, 84, 80, 82, -60, -18, -72, 31, -90, 56, -46, -55, 60, -60, 12, 71, 3, -4, -62, -91, -58, 68, 1, -7, -1, -28, -52, -6, 24, -65, -6, 41, 67, -58, 34, 32, -49, -67, -71, 3, -3, -62, 42, 24, 68, -14, -56, -50, 0, 35, -74, -28, 73, 46, -74, 57, 86, -64, -56, 83, 60, -47, -46, 28, 27, -6, -98, -73, -41, 7, -32, 44, 56, -41, -39, -40, -28, -8, -4, -6, -71, -96, 26, -70, 79, -34, 13, 68, 67, 26, -5, 1, 55, -43, 32, -87, 83, -22, -88, 48, 93, 36, 98, 79, 59, 77, -37, 3, -97, 87, 44, -32, -72, -56, -47, -41, -38, -32, 12, -64, -68, -45, 59, 96, 17, -14, -78, -15, 47, -78, 6, -32, 64, 3, -39, 53, 0, -81, 14, -7, -20, -75, -14, -20, -33, 26, 73, 6, -28, -54, -24, -69, 22, 21, -12, -94, 94, 67, 97, -22, -28, 11, -13, 74, 78, 1, 60, 54, -35, -53, 50, 74, 11, -5, 83, -41, 57, 4, 2, -85, -26, 30, -3, -83, 92, -19, -95, 10, -74, -18, 80, -61, 71, 28, 22, 41, 45, -2, -1, 2, -39, 59, -78, -4, 48, -98, -21, -12, -96, 88, 15, 45, 10, 16, -25, -35, 43, -88, -38, 52, -29, 67, -28, 83, -67, 7, 9, 56, 41, -98, -90, 88, -63, 33, -97, 43, -14, 5, 92, -89, -44, -91, -86, 47, -86, 19, -26, -51, 29, -25, -84, -68, -70, 53, 10, -3, -95, -72, -36, 64, 79, -46, -43, 66, 6, 67, 85, 11, -84, -36, 29, 47, -32, -55, 96, -56, -30, 1, 1, -77, -46, 72, 67, 58, -62, 68, 13, -21, -38, -9, -88, -57, 13, -97, -45, -54, 41, -53, -78, -43, -93, -91, -12, 77, 27, 72, -89, -26, 40, 1, 13, -66, 14, -3, -78, -73, -55, 14, 6, -47, 47, -88, 25, 76, -85, 84, -48, -87, 29, 84, 72, -29, 72, 89, -49, -34, -3, 42, -57, 48, -21, -10, 33, -85, -75, -97, 0, 73, 94, 9, -76, -28, 1, -80, -17, 91, 85, -73, -80, 34, -1, 3, -62, 57, -36, 91, -6, -94, -65, -95, 82, 55, -43, -74, 26, 25, 82, 34, -58, 85, 43, -29, 63, -3, -80, 21, 43, 95, -97, -65, -74, 6, -3, -1, -27, 46, -26, 73, -1, -31, -94, -20, 1, 85, -75, 12, 60, -82, 26, -64, 93, 95, -16, -22, 40, 9, 23, 87, -93, 76, -79, 61, -48, -92, -29, -70, 92, -75, -37, 37, 58, 75, -4, -32, 83, 20, 82, 97, -70, 32, -9, -1, -88, -75, -44, -81, 76, -81, 61, -69, -78, -91, 57, -65, -20, 47, -63, -35, -53, 23, -73, 79, 86, -3, 0, -88, 94, -64, 93, 56, 92, 6, -62, -84, 59, -27, 50, 76, -48, -87, 41, -83, -3, -64, 38, 59, -76, 15, 21, -2, 9, 9, 23, 57, 2, -16, -12, 49, -69, 71, 27, 49, -26, -36, -88, -81, 83, 46, 84, -16, 59, 65, 68, -64, -61, 45, 4, 86, 70, 93, 76, -15, -72, -54, 97, 7, 9, 79, 52, 18, 0, -31, 13, -92, 81, 80, -74, -28, -39, -38, -93, -91, -5, 66, 17, -49, -23, -59, 26, -16, 60, -12, -10, 68, 77, -18, -13, -63, 53, 57, -23, 94, -33, -90, -18, -76, 72, 97, -49, -42, 14, 96, 27, -32, -36, 44, -76, -28, 32, 89, -96, -30, 36, 18, 6, 87, 83, -33, -9, 75, 52, -13, -15, 18, -42, -88, 31, 54, 81, 92, 61, -87, 2, -62, -47, 34, 82, 73, -39, 51, 15, -26, -65, -42, -46, 5, -18, 9, -86, -60, -70, -21, 73, 74, -3, -70, -90, -97, -53, 12, 88, -73, 58, -92, 0, 91, -90, -93, -4, -16, -55, 6, -62, -49, -12, 95, 29, 8, 61, -90, -72, -34, 95, -92, -26, 16, 4, -85, -77, -68, -73, 37, 10, -75, 34, -44, 90, 93, -69, -34, -55, -7, 34, 72, 95, -12, 69, -74, -11, -78, 97, -49, 36, 72, -5, 28, 64, -17, -9, -70, 4, -5, 37, -18, -93, 10, 94, 68, 8, 19, 54, 40, -89, 96, 81, 97, -91, -31, -50, 64, -16, -89, 73, 38, 38, 48, -67, 26, 69, -10, -56, 21, -37, 35, 4, 20, -32, -93, -32, 9, -17, 97, -14, -44, -85, -76, 41, 74, 76, -23, 14, 44, -82, -93, 38, -13, -45, 41, 69, 29, -67, 62, 39, 49, 43, -59, 31, -81, 14, -74, 24, 12, 11, 34, 23, -24, -93, -46, 15, -6, -50, -12, 38, -88, 27, -41, 3, 10, 70, -3, 30, -47, -86, -53, 27, -58, 62, -30, 74, 51, 96, 81, 81, 58, -96, 70, 22, -75, 60, 34, 45, -7, -84, -11, 85, 41, -32, -34, 98, 49, 86, 95, 50, 50, -33, 1, 28, 72, 98, -89, 7, 73, 75, 42, -24, 6, -75, -1, -93, 72, 55, 86, -26, 49, 0, -51, 35, 38, -27, 98, -40, -75, 32, 77, 93, 70, -30, 60, 34, 79, 61, -48, 89, 28, -16, -36, -32, 21, -91, -19, 15, -32, -66, 53, -19, -18, -62, -38, 67, 17, 88, -68, 57, -24, -43, 89, -54, 27, -72, 39, -96, -46, -22, 79, 90, -30, -48, -38, -83, -90, -23, 14, 62, -83, -80, -59, 93, 76, -94, -95, -12, 36, 83, -78, 86, 29, 75, -69, 9, 85, 56, 57, 46, -96, 31, 39, -68, 15, -27, -63, -72, -19, 39, 58, 52, 46, 52, -39, 32, 1, 98, -30, 76, 8, 91, -67, 66, -29, 85, -58, 80, 87, -70, -7, -65, -55, 86, -98, 78, -97, 98, 17, 81, 89, 84, -68, -48, 26, 94, -25, 67, 36, 57, 64, -54, -74, -31, -93, 67, 38, -20, 30, 63, 21, 87, 38, -12, -78, 8, -45, -71, 39, 33, -81, 43, -77, -72, 59, 57, 45, -49, 37, 45, -23, -82, 7, -93, 34, 46, -51, -7, -87, 93, -60, 65, 92, 52, -47, -78, 47, -59, -77, 41, -41, -6, 16, -54, 25, -17, 92, 68, -45, 77, 15, 77, 34, 81, 69, 7, -75, -54, 68, -40, 43, 37, 60, -22, -10, -13, -27, 37, 42, 62, 74, -33, 82, 21, 92, 38, 20, 1, -73, -35, -71, 88, 34, 90, 78, -89, 42, -81, 78, -73, -4, -56, 6, -67, 32, 98, 84, -22, 25, 41, -87, -47, 85, -19, -61, 22, -85, 53, 87, 55, -71, -28, 47, 66, 38, 27, 95, 52, 3, 30, 43, 20, 1, -22, 53, -48, 47, 30, 67, 72, -65, 22, 65, -3, -5, -52, -55, -64, 52, -24, 81, -53, -63, -39, -83, 58, 2, 50, 45, -5, -57, -54, 23, -58, -55, -8, -57, -63, 4, 44, -33, -79, -53, 44, 83, 18, 85, 87, 11, 86, -85, 61, -88, -34, 50, 84, 83, 81, -31, -5, -12, -11, 50, 19, -11, -6, -29, -85, -87, 61, -25, 75, 54, -23, -65, -95, -90, -43, -4, 25, -9, 49, 34, -54, 15, -13, 10, 68, 93, 28, -36, 84, -44, -93, -4, 10, -68, 65, 86, -69, 39, -95, 2, -63, 97, 82, -16, 70, 43, 60, 18, 24, -67, -59, 83, 11, 89, 51, 77, -7, 94, -54, -62, 51, 22, -21, -54, -67, 17, -82, 37, -25, 86, -63, -74, -81, 24, 96, -39, 76, -87, 66, -38, -94, -60, -57, -18, 69, 89, 92, 93, -16, -49, -37, 17, 46, -60, 71, -12, 22, 2, -61, -64, -82, 11, 68, 54, -84, 61, 93, -50, -18, -41, -94, 20, 78, -76, -41, 64, -82, -26, 92, 97, 55, 52, -48, -73, 21, -10, -42, -59, 70, -94, 23, 57, -79, 86, -80, -15, 49, -36, 75, 51, -37, -25, 45, -36, 93, 40, 53, 15, -49, 27, -62, 4, -82, 48, 72, -41, -26, 79, -56, 7, -40, 3, 54, 10, -85, -90, -25, 20, 61, 85, 37, 17, -28, -24, -98, -85, 92, -72, 65, 44, -53, 63, -69, -5, 48, -79, -37, -89, -42, -69, 83, 82, 40, -41, -57, -23, -65, -62, 70, -49, -56, -38, 15, 38, -10, -4, -87, -7, 35, -34, 74, -92, 30, -63, -32, -49, -4, 68, -1, 34, 56, -86, -7, 54, -8, 32, -42, -52, 50, -56, 70, -82, -2, -55, 43, 63, -64, 42, -24, -83, -13, 58, -88, 66, -53, -21, -7, 64, 85, -41, 26, -89, -65, 98, 35, -76, -83, 92, 78, -81, -86, 22, 50, 49, 42, -30, 94, 56, -60, -2, 50, 67, 48, -35, -54, -66, -9, -26, 15, -51, -14, -9, -60, -57, -8, 54, -67, 10, 77, 95, -32, -55, 89, -77, -67, -41, 1, -91, 52, 85, 2, -49, 55, 58, -83, -45, 72, -87, 9, 90, 32, 15, 79, 45, 29, -64, -75, 97, -69, 44, -21, -5, 0, -83, 45, -35, 72, -59, 78, 59, -94, 54, -20, 12, -4, -20, 73, 11, 4, 59, 62, 11, -75, 93, -47, 75, -30, 52, -45, -69, 75, -70, 79, 66, -30, 50, -50, -44, -80, -91, 78, -38, -50, 69, -51, -21, -66, 77, 28, -83, -7, 32, -26, -80, 41, 25, -31, -35, -59, 96, 28, 22, -68, 39, 1, -80, -66, 21, -72, 22, -62, -53, 90, 14, -59, 28, 91, -94, -25, -97, -29, 52, -4, -10, -56, 52, 45, 96, 88, 78, -54, 65, -65, -69, 84, 29, -89, -33, 81, 44, 9, 73, 82, 4, 26, -4, -31, -93, 52, -47, 37, 48, 73, -9, 85, -36, -11, 80, 53, -13, 69, 18, -92, -49, 64, -15, 65, -90, -28, 75, -86, -41, -48, -93, -16, 80, -93, -62, -76, -20, -42, -52, -56, 68, 98, -77, 35, 68, 74, -71, 45, -47, -46, -63, 92, 19, -59, 93, 55, -51, -95, 60, 82, 80, 49, -12, -24, -35, 14, -92, -65, 22, 16, -93, -73, -12, -1, -96, -54, -82, -94, 25, 54, 6, 72, -63, 4, -48, -92, -59, -1, -85, 46, -27, -29, -71, -14, -29, -77, -34, -54, 34, -74, -40, -37, -80, 96, 36, 6, -29, 20, -50, 94, -4, -36, 90, 20, 63, -77, -71, 5, 83, -50, 91, -3, 92, -56, 39, -53, 45, -9, 64, -24, 66, 51, 91, -95, 78, -3, 98, -35, 60, 40, -93, -94, -6, 51, -38, 60, -34, 85, 81, -23, 70, 46, 23, 95, 75, 58, -54, -27, -72, 11, -59, -54, 86, 4, -28, 92, 40, 17, -80, 12, 59, 65, 17, -41, 9, -15, 12, 64, -3, 1, 63, -69, 12, -80, -10, 0, -58, -68, -25, -26, -82, 81, 31, 75, -70, 32, -57, -50, -70, 98, -85, -62, 59, -4, -78, -25, 82, -96, 33, 85, -29, 55, -25, -67, 90, -3, -88, 92, 35, -19, -55, 31, 13, 84, 9, 51, 72, -51, -38, -32, -6, -96, 28, -81, -95, -56, -91, 81, -27, -90, 42, 77, -74, 28, -78, 86, 57, 19, 69, 85, -86, 60, 79, -93, 60, -65, 41, -62, 68, -74, -78, 29, 12, 97, 87, -36, 14, -40, 86, 74, 29, 85, 64, 87, -57, -57, 30, 2, -12, -72, -65, 49, -69, 59, 79, 45, 6, 13, -64, 21, -29, -19, -15, -16, 71, 26, -52, -70, -79, -13, -44, 2, -20, -13, 72, 4, -77, 33, 46, 40, 54, -89, 94, 97, 13, -50, 9, -48, 24, 46, 61, 78, 68, -13, -33, -87, 15, -16, -81, -60, 86, 18, -15, -97, 74, -59, 70, -53, 43, 76, -2, 54, -41, -36, -38, -28, -8, 93, -93, -48, 63, -71, 57, 23, -35, 98, -1, 84, 4, -39, -65, -94, -35, 24, 36, -32, -88, 48, 73, 72, 13, 84, 41, 52, -9, -42, -89, -52, 38, -58, 7, -98, 50, 0, 88, 93, -84, -14, -76, 20, 48, 66, 7, -24, -84, -91, 88, -16, 78, -38, 16, -83, 19, 75, -84, 18, 4, 75, 34, 86, -51, -68, 56, -32, -4, 10, 62, 72, 64, -50, 50, -70, -10, -38, 78, 59, -15, -24, 52, -65, -68, -29, -58, -36, 32, -31, 50, 96, 0, -27, 85, -68, 30, 15, 45, 57, 12, 26, -43, 35, -61, -87, 50, -1, 67, 96, 71, -64, 77, 61, 96, -72, -77, -85, 13, -66, 25, -15, 12, -73, 23, -53, -26, 89, 32, -65, 39, 9, 61, 80, -66, 44, -13, 1, -60, 36, -1, 18, -84, -43, 78, -68, -86, -65, 74, -72, 71, 46, 28, -27, 90, 10, -2, 68, 48, -16, 13, 47, 83, 43, -23, 68, -12, 84, 87, -65, -62, 72, -34, -69, -67, 3, -78, 76, -24, -1, -68, -74, 32, -56, -31, -98, -14, 2, -71, -67, 85, -47, 38, 20, -71, -35, -72, 27, -77, -96, -22, 85, 93, 54, 51, -68, 49, 32, -60, 15, 69, -28, 94, 88, 81, -88, 79, 52, -48, 72, 98, 32, -63, 59, -35, 58, 46, -60, -61, -42, -67, 69, 7, 79, -7, -8, -13, 86, -81, -5, -7, 34, -64, -26, -3, -92, -34, -16, 40, -84, 38, -29, -89, 53, 51, 65, 70, 13, 75, -5, -8, -56, 14, 55, -10, -51, 83, -68, -88, -53, -47, 54, -15, 49, 10, 85, -60, 0, -2, 98, -78, 18, -5, -70, -68, -10, 41, -55, 64, -1, -48, 0, 65, -27, 4, -22, -42, 35, -14, -71, -58, -15, 59, -6, 73, -62, -10, -44, 83, 55, 54, -74, 63, 62, -38, -10, -90, -53, 34, 50, -73, -9, 48, -2, 44, -62, -1, 0, -80, -39, -54, 22, -27, -97, 68, -49, 69, -21, -97, -84, -2, 57, -57, 86, -2, -33, -64, -39, -16, 97, 24, 19, -10, 97, 17, 65, -23, -25, 73, 83, -90, 30, 83, -98, -71, -63, 29, 21, 3, -15, -94, -17, -43, 19, 70, 57, 50, -78, 9, -27, -24, 72, 57, -56, -50, 0, 37, 8, 6, 41, 35, -49, 7, 36, -63, 9, 88, -8, -28, -30, -55, 5, 68, 89, 22, 65, 6, -61, -30, -15, 95, -20, -18, -42, 81, -18, 41, -25, -1, -80, 13, 39, 29, 8, 32, 86, -87, -39, 85, -35, 6, -66, 2, -41, 15, 48, -66, -10, -2, 52, 62, 13, -77, -51, -53, 38, -51, -1, -7, 55, -43, -24, -44, 15, 22, 60, -39, 8, -85, -82, 67, -47, 75, 94, -97, -16, 31, 35, -37, 0, 28, 28, 19, -85, 62, 71, 42, 43, 32, -97, -24, -50, 21, 94, 31, -12, -44, 24, 4, 30, 28, 20, -1, -44, 85, 94, -56, 60, -47, -11, -59, -95, 18, -35, -13, 52, 74, -36, 74, 11, -48, -65, 92, 7, -91, 50, 83, 59, -86, -31, 67, 6, 97, -80, -58, 5, -90, 36, 10, -15, 92, 52, 28, 83, 17, 29, 60, -95, -87, -61, -82, 30, -15, 48, 11, -68, -10, 91, -96, 89, 18, -14, -3, 58, 92, 7, -49, 43, -72, 55, 72, -96, 17, 74, -2, 19, -44, -75, 60, -17, 93, 36, -89, -21, 10, 60, 87, -35, -40, 24, -63, 30, -75, -84, 57, -93, 86, 8, -84, -95, 26, -74, 6, -83, 22, 27, -37, 34, 27, 70, 65, 31, 40, 44, -87, -45, -34, -68, 22, 28, 6, -29, 42, -17, 13, -38, -32, 92, -23, 52, 70, -74, 69, 21, 54, -11, -86, -23, -45, -95, 27, -67, 71, 79, 46, 13, 28, 18, -21, 54, -83, -62, -20, -80, -96, 5, -34, -32, 43, -41, -71, 43, 13, 63, 58, -76, 34, -13, 45, 62, -16, -33, -4, 53, 60, -64, -84, -41, 7, -16, -57, 2, 56, 3, 51, -59, 33, -41, -15, -54, 5, 51, 36, -68, 55, -27, 45, -80, -16, 36, -86, 28, -24, -96, 21, -95, 75, -9, 3, -87, -95, -12, 87, -10, -15, 90, 58, -63, -5, -65, 59, 10, 84, -57, -91, 41, 67, -61, -91, -10, -9, -87, 55, -91, 82, -69, -39, 93, 68, -69, -10, 76, 89, -92, 39, -87, 38, 4, 37, 26, 87, -55, -13, -9, 85, 58, -30, -48, 52, 41, -84, 12, 86, -32, -85, 83, 76, -89, -29, -18, -53, -95, 39, 30, -65, 62, 73, -49, 96, 77, 60, -36, -46, -59, 48, 86, -82, 3, -80, -98, -7, -41, 95, 44, -25, -9, 90, 11, 58, -14, 65, -76, -35, -54, -69, -70, -59, 21, 11, -66, -90, 23, -18, -92, -34, -95, -20, 38, 76, 6, -90, -68, 85, -47, -22, 45, -83, 29, -24, 66, -16, -1, -1, 56, 44, -39, -78, -60, 41, -39, 38, 80, -24, 41, 51, 28, -88, -8, 33, 12, -91, -36, -15, -16, -62, 10, 2, 21, 52, -65, 72, 88, -89, 84, 47, 98, 41, -74, 33, 9, 8, 24, -89, 34, -89, -24, -42, -70, 81, 89, 72, 62, -31, -19, 79, 44, -97, -14, -29, -59, -45, -29, 42, 39, -13, 4, 41, -5, 63, 20, -93, -95, -64, 96, 10, 58, -53, 27, -97, 53, 48, -66, -74, 39, 41, 2, 68, 80, 27, 88, 83, -74, -93, -75, -30, -83, 44, 64, -53, -22, 47, 99, 60, -23, -40, 65, -61, -70, -32, 80, 77, -6, -52, -6, -79, -23, -7, -79, -46, -80, -48, 31, 45, 11, 25, 65, -76, 89, -32, 93, -30, -32, -7, 90, -71, 11, 93, -69, -10, 73, -25, -49, 9, -27, -23, -82, 44, 46, -7, -18, -1, -47, -50, -64, 73, -21, -92, 62, 61, 19, -17, -77, 84, -40, 46, 15, 3, -78, 42, 75, -63, -61, -68, -33, 52, 17, 8, 90, 39, -33, -16, 52, -11, -10, -54, -42, 40, 37, 93, -69, -76, 64, 24, -37, 49, 64, -93, 13, 33, -57, 55, 33, -11, -64, 43, -84, -86, 89, -24, 46, 82, 33, -50, -91, 23, 70, 17, 90, 81, 24, 17, 25, 65, 4, -57, 47, -63, -59, 94, -51, 38, -14, -58, 3, -11, -36, -70, 46, -9, -39, -60, -13, 73, -52, -60, -8, 35, -50, -12, 20, -72, 25, 16, -94, 13, -76, -50, -95, -43, 84, 30, -83, -47, 56, -60, -40, -60, -61, 64, 98, 71, -16, -61, 4, 98, -5, -47, -33, 98, -56, -73, 86, 8, -43, -7, 44, -43, -62, -87, 74, 58, 12, -35, 5, -62, -51, -89, 68, -97, -15, 62, -59, -66, 67, 79, 11, 41, 76, -33, -80, 81, -19, -48, 23, 47, 44, 94, -38, -9, 35, -76, 29, 88, -71, -78, -52, -92, 61, 98, -61, 31, 3, -60, 82, -48, 74, -13, 79, 36, -62, -75, -91, 81, -68, 88, -95, -92, 40, 93, -49, 50, 93, 87, 79, -58, -86, 77, -62, 95, 44, 28, -23, 82, 19, -39, -37, -61, -7, -19, -11, -93, 73, 34, -79, 69, -11, -61, -62, -70, -32, -90, 88, 28, -60, -95, 76, -17, -91, -52, 7, -36, -44, -6, 28, -88, 60, -62, 64, 7, 66, -62, -20, -58, 75, -62, 41, 37, 57, -15, 31, -68, 82, -40, 29, 80, -97, -57, 39, 7, -60, 10, -8, 45, 30, 32, -60, 61, 79, -52, -75, -3, 33, 0, -10, 16, 88, 20, -39, 63, 0, 81, 84, 62, 15, 73, 88, -20, -10, 38, 14, 48, 24, 10, -12, -6, 64, 19, -76, -3, -64, 41, 54, 30, 19, -93, 98, 72, -35, -75, 88, -21, 68, 51, 69, 73, -48, 64, 32, -2, 37, -46, -95, 23, 43, -65, 89, -28, -71, -15, -85, -91, 89, 44, 1, 18, 5, -3, 7, 90, -43, -24, 79, 58, -23, 52, -46, 83, -29, 17, -14, -48, -27, 17, 42, 90, 65, -35, 67, 17, -57, 16, 94, -63, -22, -12, -52, -52, -48, 32, -19, 74, -77, -82, 71, 2, 27, -59, 69, -9, 6, 81, -2, -44, 13, 51, 92, 48, -72, -71, 36, -42, -6, -71, 19, -85, 41, -44, -26, -62, 91, -44, -22, 32, -45, -94, -48, -70, -84, -45, -43, 53, -31, 42, 19, 65, 33, -18, -45, -15, -27, -56, -91, -98, -12, -31, 71, 3, 73, 70, 98, -54, 92, -18, -76, -90, 82, -54, -65, -62, 96, -39, -29, 26, 87, -6, 34, 8, 46, 0, 93, -90, 84, 2, -42, -19, -85, -41, -49, 10, 85, -34, -4, 5, -47, -38, -37, -82, 95, 65, 81, 31, -65, -18, 81, 13, 52, -8, -44, 75, 6, 2, 45, 61, 4, 46, -63, -48, 75, -80, 6, -73, 49, 12, -77, 89, -89, 5, -3, 28, -96, 41, -81, -5, -74, -86, 82, 5, -49, 72, 26, -59, -37, -48, -70, 97, -70, -12, -16, 24, -80, -66, -89, -84, 65, -46, -33, -98, 32, 19, -22, -40, 72, -91, 8, 24, 10, 64, -21, -73, -55, -8, -81, 80, 71, -98, 14, 60, -1, -53, -23, 97, 46, 60, 59, -30, -39, 28, 85, 84, -25, 65, -58, 10, 18, 77, 10, -38, -86, 55, -28, 16, 46, 48, -60, -76, -77, 1, 78, 2, -59, 48, 66, 6, -3, 6, 5, 56, 37, -61, -56, -67, 19, 41, -85, -81, -94, -30, -44, -32, 49, 88, 35, 43, -2, 77, 60, 87, 95, -58, -51, -58, 27, 42, 18, 81, -55, -5, 82, -62, -7, -72, 36, 9, -6, 20, 36, 28, 77, -67, 3, 89, 15, -16, 15, 14, -39, 63, 89, -67, -39, 10, 16, 3, -77, 69, -3, 2, 74, 64, 43, -72, 48, -91, -46, 79, -25, 81, 97, 19, -23, 54, -28, 29, -58, 51, -48, -49, 19, -22, -13, 87, -35, 39, -1, 79, 24, 67, 17, -6, 22, 72, -74, 38, -53, 36, -86, -10, 52, 26, 53, 94, -88, 28, 72, -88, 63, -76, -19, -34, -49, 5, -79, 48, 70, -66, -23, -79, 98, -21, 38, 25, 69, 22, -70, -85, -72, 52, 90, -3, 15, 63, 62, -10, 95, 68, -87, 98, 15, 87, -31, -67, 2, 30, -70, 39, 36, -82, -40, 98, 91, -76, 96, -52, -7, -86, 70, -60, -84, -95, -11, 22, 49, 34, 71, 76, -17, 48, 42, -91, -37, 22, -21, 63, -58, -21, 53, -3, 77, -28, 45, 26, -79, -48, -39, -49, 53, 35, 3, 72, -4, -90, -4, 12, 13, -81, -12, 73, 34, 77, 40, 3, -89, -70, 57, 13, 90, -27, 3, -46, 29, 79, 48, 64, -97, 44, 43, -23, 29, 2, -25, -54, 2, 56, 78, 94, 86, -83, -65, 18, -86, 19, -35, -58, 37, -68, 80, 4, -4, 70, 79, 93, -16, 34, 51, -87, -28, -45, 11, -22, -55, -35, -3, -28, 24, -6, 20, -6, -61, -85, -35, 1, 16, 53, -38, -23, 40, -31, -56, 54, 24, -22, -88, 54, 91, 41, -23, -39, -10, -53, 97, -8, -22, -37, 67, 16, 27, 10, 45, 91, -68, 18, -86, 83, 80, -72, 77, 46, 89, 67, -73, -26, 33, 73, 91, -2, -30, 87, -30, 50, -14, -57, -75, -29, -67, -28, 33, -45, -43, -36, 12, 3, -89, -86, -19, 64, 6, -59, 26, -56, 78, -92, 84, 12, -27, 4, -24, -65, -11, 2, 53, 39, -62, -4, -40, 18, -97, -2, -9, 90, -7, 33, 53, 36, -32, -21, 97, -36, 21, -6, 85, 72, 27, -56, 4, 26, -9, 73, -81, -38, 93, -36, -34, -94, -68, 10, 39, -91, 35, 74, -50, 39, -71, -39, -6, 79, 34, -55, 54, 49, -52, 21, -96, -72, -98, -7, 32, -27, -96, 63, 31, 70, -64, 92, 50, -60, 27, 19, -46, 43, 89, 91, -75, 9, 3, -42, -98, 78, 20, 15, -81, -9, 89, -77, -84, 8, -51, 1, 24, 30, 20, 36, 83, -49, -26, -45, -85, -16, -25, -61, 23, -87, -46, -4, 41, -57, -49, 1, 13, -72, -50, 44, 63, 93, -11, 20, 74, 29, -20, -13, 1, -72, -29, 50, 44, -93, -57, -88, -98, 69, -4, -3, 27, -75, -62, -35, -95, 50, 95, -92, 62, -22, -22, -53, -90, -95, 93, 31, 10, 66, -46, 37, -35, -14, -74, -64, -17, -1, -53, 24, 76, 92, -75, 11, 75, -15, 0, 82, 67, 72, 82, -46, -79, 58, -97, -23, 86, -46, -32, -86, -24, -80, 77, 34, -96, -72, -83, 22, -15, -69, -71, 50, 28, -41, 22, 95, -66, 12, -25, 15, -46, -83, 83, 3, -20, -50, -16, -5, -90, -83, -43, -46, -17, 23, 82, 38, -82, 6, 56, 2, -68, -22, -94, -66, 62, -31, -62, -74, -48, -48, -89, -18, 32, 7, -63, 24, 58, 67, -6, 32, 69, 74, 96, 44, -18, -93, -19, 16, 77, -76, 55, 95, -82, -77, -92, -35, 76, -89, -72, -98, -56, 66, -1, 63, 45, -9, -69, 82, -96, -92, 77, 92, -73, -72, -65, -74, 36, -48, -87, -58, 67, 42, -67, -57, -9, 28, -9, 97, -18, 32, 92, -45, 30, 61, -38, -54, -86, -15, -50, 95, -98, -67, -21, -63, -84, -4, -59, -26, 23, 18, 28, -88, -58, -72, 56, -44, 84, 96, 41, 50, -35, 21, -82, 94, 28, 44, 48, 64, 1, 54, -17, 51, -8, -86, 74, 14, -12, -84, -57, 21, 72, 9, 2, 62, -17, 97, -83, 41, -18, 61, -87, 37, -6, 87, 3, 93, -69, 98, -38, 65, -97, -68, 80, 52, -72, 4, 83, -92, -44, -80, 40, -6, -2, -21, 52, -68, 62, -84, 16, 83, -74, 48, 13, 76, -87, -78, 5, 48, 91, 10, 87, 45, -73, -8, 84, 92, 94, 85, 75, -92, 0, -86, 42, -24, 91, 34, 85, 54, -24, 21, -90, -72, -94, -24, 84, 65, -75, 47, 50, -95, -68, -22, 80, 49, 48, 66, -35, -77, -48, 20, 55, 60, 14, -57, -16, -69, -43, -81, 15, -75, -47, 10, 10, 87, 53, 43, 47, 18, 48, 98, -88, -58, 84, 69, 36, 25, -37, 3, 76, 67, -82, -32, 68, -6, -46, 24, -68, 1, -97, -51, 23, 47, 54, -22, 97, -80, -79, 37, 4, 80, 2, 15, 99, -75, 61, -39, -32, -47, -18, 62, 54, -7, 84, -76, 50, -59, -47, 68, 51, -44, -45, -20, 43, -30, 18, 72, 54, 94, -8, 32, -68, 2, 5, 38, -9, -97, -85, -92, 26, -7, -11, -36, 61, -3, -68, 32, 54, 86, 55, 54, 77, 54, 58, -94, 47, -87, 46, 67, 74, 58, -84, 1, 26, -83, 66, -4, -25, 82, 42, -18, 44, -6, 67, 2, 5, -45, 36, -40, 18, -1, -77, 17, -48, 67, -74, 55, 0, 83, 26, 3, 9, 8, -45, -95, 5, 65, -26, -33, -29, 45, -70, 45, 90, -27, 0, 6, -50, -10, -16, 60, -3, -49, -42, -49, 72, 63, 92, 64, 69, -6, -73, 14, -92, -20, 79, 25, -68, -91, 45, 94, 18, 89, -64, -37, 47, -61, -27, 85, -61, -94, 2, 1, -41, 90, 49, -54, 43, -15, 53, -82, -33, 36, 22, 29, 76, 6, 28, 78, 37, 20, 4, -29, 17, -11, 66, -45, -46, -11, 9, 11, 75, 21, -84, 77, 67, -8, 58, 77, 46, 21, -88, -13, 12, -16, 72, -39, -3, 17, 60, 71, 92, -15, 53, -33, 9, -50, -37, -72, -57, 88, 6, -97, 58, -82, -14, 30, 59, -59, -91, 62, 29, 18, 8, 78, -18, 47, 87, -24, 84, 55, -31, -86, 19, 61, 15, 89, -24, -96, 59, -83, -59, 64, 45, 37, -64, -61, -76, 77, -96, -66, -56, -94, -71, -76, 95, -63, 48, 24, -17, 91, -81, 42, 84, 82, 67, 49, -53, -52, 84, -4, 38, 57, 66, -53, -77, -35, -31, 63, 91, -88, 63, -71, -11, -26, -82, 69, 43, 87, -32, 96, -93, 84, -83, 3, 78, -64, -44, 23, -2, 16, 78, -33, 30, 30, -8, 20, -88, 86, -66, -54, 58, -64, -56, -82, -97, -53, -91, 94, 50, -30, 39, 60, 69, 96, 11, 82, -56, -28, 33, 36, -6, -70, -27, -34, -74, 25, -61, 35, 36, -77, 29, -43, -48, 12, -32, 32, -32, -66, -97, 54, -82, 78, -51, -98, -31, 49, 85, -64, -80, -20, 92, 0, 76, 33, 78, 52, -13, 81, 86, -14, -96, -44, 90, 48, 5, 49, 29, -74, -89, 80, -94, -69, -86, 69, -49, 71, -53, 52, -2, -44, -23, -38, 90, -2, 66, -11, 13, 95, 23, 64, 82, -79, -53, -25, -72, -67, 80, 27, -49, 32, -98, 40, 63, -43, -89, 66, -2, 42, -56, -3, -2, -2, 68, 25, -13, 15, -53, -11, 23, 19, -33, -10, 28, 73, 52, -69, 92, 82, 51, 92, 13, -83, 18, 17, 63, 57, -13, 11, 29, 5, 85, -90, 54, 77, -54, 84, 60, 15, 36, -48, 4, -24, -65, -32, -4, -45, 82, 89, -67, 24, 58, -55, 83, 39, -63, -15, 5, -87, -92, -1, 0, 27, 15, 85, 10, -46, -80, 8, 6, 38, 33, -41, -25, 49, -47, -69, -23, -52, -4, -49, 43, 78, 91, -10, -45, 15, 16, -16, -98, 30, 26, 51, -53, 16, 50, -36, -32, -25, -64, -11, 64, -4, -71, -50, -30, 41, -32, 88, 68, -92, -69, -85, -22, 43, 37, -25, 47, 41, 15, -53, 72, -47, -73, -19, -54, 53, -54, -84, -65, 16, -26, 31, 40, 56, -68, -79, 20, -66, -10, -18, -20, 28, 29, -33, -44, 56, 95, 5, -65, 50, -47, -63, -47, -87, -9, -72, -80, -80, -59, -47, -5, -1, 47, 55, 97, 50, 0, 40, -80, 7, -15, 46, 44, 24, 94, 67, 71, -58, 30, -24, 25, -25, -37, 3, -37, 56, 30, -79, 22, -14, -29, 36, -98, -62, 55, -44, 71, 27, -72, 97, 49, -71, 14, 89, -3, 8, 49, 60, 27, -57, 23, -15, 86, 8, 36, 65, 6, 40, 30, 7, -61, -7, 70, -67, 19, -51, 0, 66, 53, -23, -11, -73, -65, 20, 85, 37, -66, -32, 99, 46, -51, 26, 9, -76, 11, 60, 92, -93, 28, -7, -98, -50, 48, -15, -30, 82, -43, -47, -46, -60, 64, -91, -42, -66, 67, -1, 94, -11, 67, 47, 34, 83, -15, 91, 46, 61, -13, 44, 42, 7, -30, 20, 74, -25, -27, 93, -78, -76, 76, 69, 90, 70, 21, -12, 56, 52, -38, -75, -94, 73, -50, 38, -67, 22, 59, 83, -90, -81, -79, 0, 27, -32, 36, -39, 75, 89, -36, -82, 14, 56, -70, 21, -64, -65, 60, -96, -73, 85, -76, -76, 12, -4, -31, 70, -11, -46, -1, 38, -6, 13, -41, -12, -44, 20, -2, -78, 34, -79, 43, -12, -92, -44, 3, -33, -72, 54, -61, -53, -37, -39, 11, 46, -37, 66, 3, 21, 65, -5, -3, 2, 25, 64, 76, -41, 22, 51, 20, -53, -94, 40, 36, 92, 25, 28, 8, 85, 59, -67, -51, 34, 23, -49, -79, -74, 59, -94, -85, 26, 6, -97, 5, 59, -2, -5, -94, 26, -40, 25, 40, 80, 21, -16, -81, 25, -25, -29, 70, -35, 98, -12, -37, 43, 63, 76, 23, -78, -89, 23, -55, -90, 51, 88, -59, -17, -20, 57, -76, 9, -83, -73, -22, 4, -32, -1, 12, -1, 62, 63, 19, 37, 57, -37, 91, 45, -35, -45, -39, -64, -50, 85, -9, 28, 19, 19, -63, 40, -74, -74, 95, -11, -10, -97, -7, -31, -75, -43, -87, -1, -85, 55, -54, -18, -80, 65, -89, -83, -51, -55, 80, -43, 88, 96, -33, -85, 3, -43, 94, -21, 82, 47, -81, 71, -65, -25, -25, -89, -37, 6, -49, -83, 23, -56, -30, 92, -58, -55, 5, 25, -67, 61, -49, 10, 96, 11, 63, -55, -17, -37, 40, 55, 51, 85, -3, 67, -98, -27, 1, -33, 72, 35, 35, -45, 47, 84, -98, 8, 10, 22, -45, 60, -21, 58, -33, -47, -61, 7, 85, -78, 97, -52, -20, -82, -17, -32, 76, -96, -64, -24, -90, -55, 33, -18, -79, -96, 88, -65, -82, -93, 3, 34, 73, -83, 98, 93, -10, -30, 29, -98, 25, -80, 64, -49, 74, -58, -11, -21, 56, 49, -55, 35, 95, -31, -71, 32, 70, -93, -95, 30, -82, -98, -84, 87, -30, -2, -78, 5, 83, 38, 27, -98, -54, -87, 7, 60, -8, 45, 81, 50, 12, 90, 5, -78, 46, -24, 18, -25, 23, 7, -19, 50, 78, -33, -13, 20, -90, 67, -74, 90, -51, 43, 16, -44, 85, -69, -66, -43, -57, 66, 17, 40, -91, 41, -11, 28, 41, -41, -28, -55, -66, 6, 62, -41, -47, 71, -50, 83, -13, 98, -3, -76, 86, -26, -43, 28, 93, 13, 78, -37, -1, -6, -87, -66, -74, 97, -88, -83, 89, 43, -60, -87, -43, 97, 72, 54, 60, -47, -76, 14, 2, 40, -91, 86, 64, 41, -15, 81, -2, -10, 85, 25, -23, 66, -91, -58, 61, -54, 27, 53, -81, 35, 26, -85, 76, -5, 39, -87, -70, 1, 40, 21, -94, 79, -34, -7, -45, -88, 80, -66, 37, 94, 46, 89, -57, -18, 49, 27, -33, 76, -40, -62, 55, -46, 41, -3, 4, 92, 83, -47, 9, -39, -74, -32, -10, -88, -11, 57, -86, -91, 50, 94, -42, 23, -44, -52, 29, 50, -79, 57, 39, 78, -61, -50, -14, -21, 14, 84, -45, 95, -68, -86, 19, -64, 85, -70, -75, 11, -63, 64, 29, -28, 56, -15, -12, -43, 80, 47, -80, -21, 44, -22, 73, 89, -86, -96, -24, -29, -52, -55, 82, -33, -62, 96, -23, 32, -10, -35, 48, -71, -28, 79, -24, 92, 17, -62, -81, 88, -46, -48, -60, 13, -95, -73, -46, 94, -86, 79, 43, 12, -19, 55, -71, 39, -78, 50, 87, -17, 13, -88, -30, -25, 41, -18, -3, 89, -4, 63, 48, -75, -35, -57, -29, 98, 19, -12, -50, -34, -11, 65, 22, -42, 39, 42, -19, -55, 65, -24, 89, -79, -45, 51, -87, -87, 40, 7, -90, -89, -26, -56, 55, -11, -3, -33, 72, 31, 66, -14, -20, 30, 59, -34, 7, 4, -71, -82, 34, -26, 90, -9, -72, 98, -31, -25, 59, 31, 22, 72, 45, 24, 51, -21, -51, -32, -23, -91, 28, 95, -49, -31, -88, 28, -26, 69, 10, -55, 31, 51, -28, -45, 71, 5, 80, 70, 25, 93, -23, -9, -51, 70, 17, -5, -30, -61, 1, -42, 34, -56, -31, -2, -8, -22, -27, 91, 77, 44, 25, -37, 51, 91, -98, 53, 3, -63, -33, 84, 70, -92, 0, 92, -66, 95, -37, -48, -3, 10, 4, -60, -96, 28, 88, 77, 46, 76, 38, -41, -28, 63, 74, -49, 53, -68, -70, 25, -44, 28, 51, 82, -96, -26, 22, 3, 80, 61, 44, 94, -21, -55, -9, 69, -23, -19, 44, 67, -38, 46, 44, 44, 95, -2, -41, 15, -27, 43, 39, -71, 32, -39, -32, -75, -57, 50, 81, 50, 81, -97, 79, -8, 30, -81, -75, -33, 10, -4, 3, -84, -29, -51, -57, 17, -9, 63, 47, -36, 72, 83, -78, -66, -54, -80, -14, -21, 31, -61, -11, 12, -89, -12, -72, 31, 54, -34, -19, -1, -68, 33, 80, 75, 14, -2, -41, 28, -44, -36, -32, 20, -3, -15, -15, 0, -93, -88, 77, -39, 22, -94, 98, -5, 95, -96, -20, 36, 55, 93, 54, 63, 90, 22, -26, -3, 77, -88, -13, -41, 83, -2, -92, 8, 58, -16, 60, 44, 88, 16, 4, 36, 55, 2, -21, 75, 20, 41, 36, 81, -96, -16, 31, -79, 5, -31, 74, 94, 42, 82, 66, -63, 5, -14, 93, -20, -82, 46, 94, -33, -88, -48, -64, -65, -20, -77, 17, -49, 17, 11, 62, -51, -16, 53, -51, 43, -9, -82, 69, 1, -38, 1, 52, 60, -24, 49, -20, 19, -10, 80, -44, -47, 76, 70, 68, 26, 62, -94, -56, 5, -28, -41, -95, 79, 63, 71, 10, -41, 53, -52, 86, 51, -47, -88, -90, 23, 18, 60, 59, 72, -78, -40, -81, 24, 74, 16, 56, -8, -1, 22, 14, -16, 19, 81, 58, 68, -2, 32, -44, 57, -76, 73, -54, 10, 8, 71, -67, 1, -2, 22, 56, 41, 76, 54, -34, -7, -29, -53, 47, -93, 98, 46, -32, -33, 67, 36, 11, 14, -98, -97, 2, -24, -70, 6, -83, 36, 42, 93, -58, -53, -92, 81, -96, 76, -95, -81, -82, 70, -66, -87, -59, -46, 61, 18, 92, -96, 20, -28, 95, 78, -94, 13, 90, 73, -1, 15, 69, 17, 76, -98, 45, 98, -89, 52, -89, -3, -57, -56, 9, 18, 37, -36, 94, 68, 85, -42, 91, -28, -27, 44, 98, 6, 32, 86, 6, -55, 19, 30, 10, -59, -97, -97, -13, 53, 3, -5, 17, 59, -82, -58, 18, 32, 18, -44, 44, 11, -78, 57, 44, 79, 66, 90, -30, 5, -91, -38, 94, -60, -17, -11, 42, -86, -7, -61, 56, 32, 28, 96, 98, 46, -88, -72, -34, 41, 73, -31, -89, -23, -14, -97, 45, -35, -83, -40, 4, -31, -62, 20, -10, 80, -30, 15, 9, 3, -44, -23, -93, -98, 98, -9, 19, -4, -12, 21, -32, -41, 74, 88, 78, 48, -95, -90, 36, 35, 83, 6, -26, 75, 87, 74, -6, 60, 85, 84, 67, -16, 5, 52, 73, -33, -42, -89, 20, -26, -75, -14, -86, 59, -12, 63, -74, 56, 49, 5, 19, 28, 90, 35, -8, 95, -64, 17, 10, -35, 45, 28, -73, 5, -32, 12, 2, -8, -2, 17, 11, -43, 57, 24, -11, -77, 18, -50, 90, -92, -25, -70, -75, 63, 56, 65, 41, -62, 10, 68, 69, -87, -83, 26, 90, -88, -10, 89, 96, -51, 52, 31, 39, 88, 33, 33, -96, 43, 22, 21, -67, 58, -56, -86, 52, -46, 66, -41, 80, 19, 48, 66, 17, -72, -84, -25, -97, 42, 0, -35, 15, 51, -95, 21, -32, -90, -20, 30, -23, -67, 9, -13, -12, 94, -91, 82, -72, -10, -54, 32, 80, -85, 1, -79, 85, 43, -35, 78, -64, -48, -53, -84, -51, 41, -64, 24, -11, -29, -75, 74, 67, -20, -40, -15, -11, -40, 50, 60, -84, 94, 43, -88, 92, 68, 56, 3, 75, 38, 61, -19, 76, 3, -37, -75, -27, -43, -83, -88, -10, -93, 78, -55, 14, -73, 75, 67, 35, -14, 38, 45, -63, -12, -58, 31, 28, -54, 45, -55, 79, -56, -63, -40, -83, -65, 60, 38, 73, 84, 47, -32, 53, 68, -2, 27, 60, -13, -73, 62, -94, 70, 40, -23, -73, -40, 6, 88, -18, -79, 5, 67, 56, -20, 12, 94, -97, 67, -85, 88, -17, 25, -81, 47, -47, -73, -86, -30, -21, -7, 33, 18, -79, 81, 89, -30, -94, 50, 84, 21, 19, 21, 3, 2, 5, -62, 11, 50, -58, 63, -96, 54, -80, -36, 17, -95, -24, 21, -1, -55, 14, -85, 62, 63, -62, 40, 40, 1, 49, 39, -44, 2, 97, -96, -19, -95, -80, -14, -3, -65, 48, -83, -41, -52, 5, -62, 86, -46, -53, -38, -29, 57, -92, 88, 54, 63, 71, 32, 41, 25, 72, 29, 35, 34, 42, 74, 84, 84, -78, 40, 45, -41, -98, -84, -45, 60, -69, 44, -87, 58, -1, 78, 6, -38, -93, 50, -59, 7, -98, -97, 72, -61, -73, 49, 46, 51, 40, 53, 69, -24, -5, 24, 31, -85, 63, 17, 21, 3, -34, 40, -77, 92, -10, -20, 64, 36, -52, 79, -85, -47, -7, -4, -9, 1, -83, -37, -38, 22, -66, 42, -70, -83, -75, 48, -21, -41, -38, -26, -13, 96, 92, -74, 23, -15, 30, -55, -20, -16, 34, -73, 80, 80, -90, 68, -90, -4, 22, -46, 58, -21, 48, -97, 85, -28, 25, 36, -54, -24, -74, 58, 28, 37, 5, 20, -27, 36, -32, -64, -33, 65, 44, 20, -17, 40, -47, 97, 17, 60, -67, 66, 50, -48, -22, -83, -24, 44, -7, -56, 71, 69, 45, -72, -82, 34, 38, -92, 11, 70, -26, -93, 50, -64, 4, 2, -79, 85, 78, -16, 22, -36, 27, 43, -27, -33, -3, 7, -23, 21, -54, -65, 73, -10, 10, -40, 35, -31, -35, -93, -50, -92, -74, 73, 20, -71, 11, 50, 37, -46, -1, 8, -84, -66, 95, -64, 26, -79, -22, -65, -43, 21, -10, 89, 88, 44, 37, -74, 83, -66, -86, 57, -76, 24, 80, -63, 25, -75, -31, -52, 25, 29, 23, -17, 73, 26, -85, 38, 65, -98, -52, -79, 76, -41, 14, -31, 58, 28, -30, -94, 33, -49, 51, -25, -17, 50, 89, -88, 27, 57, 92, -36, -80, 30, -57, -61, 61, 18, 31, 47, 85, -43, -21, 40, 46, 9, 94, -81, 10, 79, -7, 72, 87, -25, -16, -43, 36, 8, 55, -23, 10, 30, 31, 49, 56, 36, -22, 4, -73, -45, 34, 61, 75, -4, 78, 90, -41, -41, 97, -84, -77, 82, -88, 59, 70, -72, 71, -63, 5, 39, 3, 85, 61, 20, 97, 79, 84, -56, -24, 65, -77, -1, -20, -90, -64, 97, -87, 36, 83, 85, -54, -61, 57, -97, -55, 71, 59, -36, -2, 75, -92, -70, 67, 12, 26, -81, 30, 10, 37, 28, 16, 4, -10, 70, 72, 22, -23, -86, -34, -68, 13, 10, 8, -82, 51, -70, -56, -20, 98, 55, 93, 6, 5, -85, 0, -14, -38, 0, -6, -72, 50, -46, -98, 53, -1, 22, -73, -8, -72, 98, 96, -25, 86, 14, 64, 67, -94, -95, -56, 27, -5, -33, -37, 59, -41, 82, -51, -41, -69, -97, -88, 78, -44, 57, 47, 67, 74, -8, -9, -67, -41, -79, -83, -7, 59, 78, 27, -84, -58, 1, 40, 37, 86, -3, -55, 8, 81, 94, 75, -46, 17, -78, 15, 71, -52, -3, -92, 63, 4, -29, 57, 1, -59, 65, 1, 55, 44, -9, 11, -36, 32, 36, 93, 18, -33, -27, 59, 67, -65, 88, -92, -9, 88, 38, -47, 89, -32, 78, -10, -53, 58, 60, -77, -18, -77, -55, 56, -56, -21, 24, -5, -2, -2, 43, 31, -65, 38, 57, 94, 98, -89, 97, 76, -70, -79, 38, 90, -31, -61, 77, 14, -18, -25, 62, -28, -27, 71, -32, 71, 68, -8, 66, 39, 53, 38, -33, 8, -82, -80, 76, 44, 11, -65, -40, -28, -49, 58, -80, 38, 96, -97, -31, -33, 4, 50, -95, -38, -67, 39, -73, -68, 11, -29, -22, 54, -41, 43, -45, 28, 53, 26, 1, 69, 65, 95, -89, 66, 22, 57, -60, -60, 81, -59, 1, -36, -49, -75, -2, 31, -36, 3, 2, -3, 92, 49, -9, 77, 25, 52, -11, 49, -24, -95, -41, 24, 16, -40, -96, 37, -40, -95, 67, -1, 49, 49, -26, -12, -59, 40, 87, -90, -64, -12, -46, -19, -49, 39, 59, 15, 24, 38, -6, -18, -97, 6, 27, -68, 34, 28, 45, -15, 46, 33, -36, 96, 92, -85, 16, 51, -17, -42, 61, 17, 86, -48, -86, -61, -74, -24, -57, 2, -41, 9, -97, 93, 34, 85, 25, -33, 71, 21, -52, 81, 34, 29, -19, 67, 49, -75, -53, 63, -65, -70, 82, 6, -27, -67, 50, -10, 21, -80, -60, 89, -36, 37, -83, 67, 67, -88, 22, 81, 68, -36, -55, 5, -74, 44, 3, 50, 14, 37, -82, -95, -97, 90, 85, 27, 98, 25, -35, 24, 29, -91, 98, -32, 17, -79, -15, -75, 7, -67, -25, 10, -35, -94, 37, -58, 98, 18, -70, -94, 3, -50, 73, 86, -24, 20, 12, -35, 4, 90, -23, 15, -78, 35, -9, 91, 89, -45, 9, -96, -6, 14, -47, 32, 43, -27, -65, -92, 32, 72, -69, -60, -54, 86, 36, 15, -73, 30, -89, -77, -91, 49, -75, -61, -93, -47, 50, 77, 84, -93, 76, -45, 60, -34, 33, -79, -35, 62, -21, 68, 3, 8, -80, -8, 91, -14, -51, -83, -45, 70, -83, 45, 88, 33, 79, 43, 57, 42, -30, 69, 38, 93, -67, -90, 38, -41, -32, 41, -59, -7, -11, 37, 21, -11, -35, -17, 27, -89, -70, 97, -28, -14, 73, 39, -20, 73, -22, -72, -43, -4, 11, -1, 69, -22, -80, 3, -72, 51, -74, -25, 36, 43, 69, 62, 88, 35, 84, 6, -73, 19, -11, -9, -57, -91, -66, -21, 69, -61, -8, -32, 8, 2, 25, 83, -48, 50, 33, 10, -87, 91, -69, 80, -97, -2, 50, 64, -14, 55, 64, 5, 88, -70, -4, -63, -46, 54, -53, 30, 85, -91, -30, -9, 3, 54, -91, 75, -81, 53, -49, 4, -33, -4, 36, 45, -56, -34, 17, 10, 71, -63, 22, -2, -40, -71, 90, -81, 80, -62, 76, -70, 15, -25, -48, 88, -7, -40, 65, 17, -45, 37, -82, 98, -57, 40, -3, 90, 87, -11, -81, 45, 27, 67, -11, -38, -14, 21, -39, -79, -52, 36, -69, -87, -44, -30, -42, -41, 32, -25, 57, 67, -6, -91, -7, -65, -83, 51, -93, -32, -68, 33, 14, -65, -79, 48, 88, -93, -12, 46, 59, -27, 82, 74, 21, 59, 46, 50, -85, -61, 71, 75, 29, 96, -41, 87, 85, 20, -38, 70, 87, 52, -77, 38, -39, 97, 77, 12, 38, 80, 11, -28, 80, -72, -62, 0, 21, 48, 7, -80, -25, -89, 96, -33, 52, -40, 85, 50, -54, 55, 55, 66, 13, 44, 48, -98, -58, 14, -22, 19, 78, -35, -44, 59, 17, 35, 77, 23, -92, -61, 98, 41, 57, -59, 5, 15, -38, 88, 19, 82, -8, 41, 74, -71, 6, 87, -19, -87, 6, 80, -35, -96, 58, -84, 59, 29, -82, -38, -39, -83, -73, -83, 24, -85, -63, -39, -12, 8, -51, 75, 66, 96, 91, 42, 28, 6, -27, -33, -88, -9, -62, 50, -53, 64, -71, -61, -83, -47, -66, -35, 13, 23, 15, 79, -90, -89, -10, 87, -3, -15, -94, -87, 82, -24, -78, -29, 21, 33, 89, -16, -7, 13, 74, 54, 36, 26, -87, -47, 37, -58, -93, -47, -83, -16, 84, -20, -12, -66, -85, 65, 46, 14, 60, -27, 64, 79, -61, 13, 80, -23, 79, 79, -49, 10, 91, 43, -9, -81, -4, -17, 7, -6, 13, 71, -71, -74, -88, -73, 16, -60, 35, -94, 17, 68, 12, 38, -36, 50, 78, -71, 30, -46, 20, 1, 91, 17, 70, 30, -53, -9, 85, -88, -49, -80, -93, 14, -36, -88, 84, 50, -35, 95, -27, -35, 24, 96, 82, 33, -20, 17, -45, -76, 83, 67, 88, -41, -40, -86, 37, 33, 77, -98, -11, -31, -44, -83, -24, 86, -83, -59, -8, 19, 35, -6, -45, -20, -10, 37, 19, 67, 31, 1, -6, 43, -62, -8, -52, -39, -31, -19, 46, 28, 54, 84, 82, -36, 48, -46, -90, 83, -39, 18, -91, 52, 24, 82, 62, -34, -98, -26, -68, -85, -32, -87, -4, 1, 44, 6, 28, -67, 84, 84, 60, -75, -35, 43, 11, -69, 84, 60, -96, 48, -56, -52, -4, -76, -11, 90, -66, -93, 29, -97, 82, 73, 62, -80, -40, 53, 81, 16, 32, 25, 49, 30, -20, 47, -62, 2, 28, -26, -54, -1, 81, 82, 56, 59, 36, -9, -14, 4, 91, 51, -10, -40, 70, -71, 10, 65, -50, 41, 45, 63, 56, -14, -37, -52, 46, 12, -81, -12, 46, 5, -74, 77, 54, 94, -4, 47, 58, 18, -88, -59, 46, -73, 79, -74, -67, -6, 71, 38, 65, -13, -5, 1, -41, 51, 24, -66, -70, 81, -81, -63, -88, 9, 59, 72, -37, 64, 84, -6, 58, 7, 14, 24, 95, -25, 70, -75, 2, -58, 70, 35, 21, 81, -71, 10, -66, -56, -24, -30, 84, 59, 69, -41, -74, 2, -63, 72, -40, -10, -59, -22, -50, 68, -14, -9, -45, 89, 13, 47, -91, -71, -79, -4, -86, -79, -38, -72, -83, 86, 60, 37, -9, -7, -37, 40, -1, -88, 10, 66, 42, -33, 58, 60, -1, 46, -11, -19, 21, 24, -51, -95, 19, -24, -6, -97, 33, 21, 63, -95, 68, 5, 7, -21, 21, -94, 94, 88, -62, -41, 83, 16, -7, 85, 24, 54, 10, -7, -99, 63, -78, 73, 69, -54, -95, 60, -11, -74, -63, 20, -37, -62, 0, -96, 57, 22, 6, -76, 53, -70, 86, -26, -37, 50, -62, 28, -27, -81, 49, -20, -76, -28, 93, 52, 54, 43, -81, 26, 12, -91, 16, -6, -82, 86, -96, -45, -7, -70, -40, 60, 54, -3, 89, -78, -29, 0, 88, -46, 71, -25, 80, 22, -59, -58, 3, 98, -43, 64, 62, -6, -38, -60, -6, 88, 35, 7, -67, 77, -7, -26, 44, -78, -4, -16, 60, -92, -2, -48, 79, 59, 1, 43, -61, -88, 15, 42, -98, 6, 38, 77, 47, -39, -25, 14, -71, 94, -29, -28, 72, 1, 78, -5, 21, -98, 6, -1, -13, -40, 23, 37, -53, -31, -40, -72, -19, -35, -90, 69, -51, 98, -78, -32, -31, -33, 11, 95, 66, -85, -92, -66, -37, 97, -94, -89, 24, -27, 90, -54, -61, 16, -16, -65, -69, 52, -60, 70, -42, -86, -57, -7, 39, 33, -12, -55, 53, 45, 79, 89, 94, -8, -10, -98, -28, 9, 97, -1, 23, -50, -25, 90, 72, -77, -88, 89, -54, -39, -31, -64, 49, -26, 63, -51, -52, -55, -42, -60, 3, -27, 62, 53, -83, -25, -8, -47, 23, 42, -30, -30, 54, -77, 58, -46, -78, -48, 52, -67, -15, -52, -42, 70, -42, 5, -41, -16, -5, 59, -76, 38, -86, -13, 60, -94, -57, 80, 30, 95, -45, -45, 9, -88, 94, -50, -63, 87, 37, 31, 52, -87, -29, -90, 60, 54, -43, 88, 4, 14, -24, -7, 27, 36, 20, -26, -35, 8, 10, 68, 76, 37, 39, -64, -73, -19, 57, 37, 37, 84, 9, -72, -55, 0, 48, 57, 35, 42, -90, -51, -29, -65, -97, -51, -72, 4, -58, -15, 29, -46, 50, -15, -79, -87, 88, 22, -65, -23, -34, -63, -17, -50, 3, -33, 93, 10, -95, -35, -92, 22, 49, 58, 61, -45, -47, 84, 86, 11, -95, 87, -98, -22, -15, -83, -15, -31, 83, 72, -86, -85, 74, 16, 65, -57, 30, 17, 39, 36, -84, 7, -95, -4, -89, 85, -28, 17, -20, -11, -77, -15, -76, 36, 43, -48, -6, -28, 83, 38, -93, -45, 89, -16, -93, -45, 57, -80, -88, 21, 26, -16, -63, 22, 75, -70, 64, 97, 87, 37, -29, -80, 7, 3, -6, -81, -75, 71, 30, -23, 0, -1, -18, -77, 75, 18, 31, 82, 65, 39, 79, -12, -53, -52, -52, 66, -26, 37, -68, 50, -86, -30, -63, -40, -78, 25, 15, -79, 90, 16, 29, 1, 46, -5, 98, -23, -98, -51, -82, -2, -84, 31, 79, -49, 15, -13, 86, 17, 75, 48, 50, 98, -42, -98, 92, 58, -27, 49, -69, -1, -2, -80, -75, -2, -43, 22, 58, -32, 74, -76, 62, 82, -27, 12, 12, 54, 32, -65, 88, -93, 53, -35, 18, 51, 18, -13, 28, -48, 68, -45, -91, -8, -83, 34, -66, 65, 43, -34, 92, -5, 30, -83, 3, -57, 65, -26, 42, -78, 47, -79, -79, -55, 84, -38, -71, 90, 9, -52, -10, -61, 51, -10, -76, 27, 97, -85, 30, 3, -1, 52, 34, -16, 56, -1, 69, 58, 93, -86, -93, -73, 87, 32, -80, 17, 90, 1, -95, -64, -87, 80, -70, 93, 97, 92, 16, -15, 92, -71, 57, -95, -98, -59, -7, -98, -74, 68, -38, 24, -37, -6, -29, -57, -3, 16, 62, -87, -87, 24, 45, 8, -87, -15, -91, 44, -72, 48, -77, -75, -24, 34, -64, -43, -44, -62, 25, -66, 1, 12, 51, 28, -20, 5, 10, -27, 24, 2, 90, -64, 20, -11, 86, -97, -98, 27, -6, -29, 80, 39, -58, -94, 72, -27, 32, -49, 39, -91, 71, 62, 25, 33, -93, -73, -53, -53, 68, 34, 15, -32, 30, 43, 61, 60, 1, 58, -65, -17, 96, 1, 1, -41, -52, 9, 39, 8, 76, 32, 93, -1, -53, -44, -38, -29, -71, 97, -95, -9, -92, -82, 15, 66, -80, -7, -65, 79, 55, 78, 94, 21, 49, 67, 55, -42, -90, -31, -56, -84, 7, -63, -58, -25, 32, 31, 14, 34, 27, -93, 5, 87, -10, -75, 95, -26, -52, 34, 60, 82, -46, -48, -4, -62, -67, -14, -95, 74, -9, -40, 70, 65, -58, -55, 86, 73, -39, 22, -91, -63, 22, 69, -55, -69, -98, 82, -71, 84, 74, 18, 2, -64, -60, 53, 73, 1, 85, -94, -50, -3, 36, -87, -28, 61, -18, 9, -97, -59, -17, -16, -50, 3, -30, 26, -2, 71, 46, -96, 69, 51, 7, 6, 41, -58, -31, -1, -5, 42, 90, -36, 76, -62, 57, -3, 16, 34, -74, -33, -79, -82, -20, 95, -88, 72, 35, 4, 80, -12, -75, -19, 81, -45, 81, 85, 66, 2, 4, 70, 96, 14, 16, 70, 63, -43, -28, -74, 51, 54, 65, 42, 67, 86, -9, -89, 89, 92, 89, -33, 58, 81, 84, 9, -18, 39, -55, 34, -38, 52, -35, 46, -1, -32, 7, -75, 7, 8, -38, -8, 66, -8, 85, 49, 57, -90, -81, -41, 42, 33, -38, -33, 78, 72, 81, -92, 84, -50, 65, 12, -17, 89, -29, -85, -16, 28, 44, -17, 21, -52, 6, -86, -1, 23, 19, 18, -96, 24, -8, 21, 16, -85, 20, 74, 7, -19, -14, -97, 64, 45, -26, -82, -80, -69, 12, 11, 5, 12, 36, -96, -94, -60, 22, -98, -84, 17, -85, 2, 37, 31, 45, 62, 35, 0, 0, -45, 7, -82, 35, -50, -59, -45, 14, 97, 92, -12, 29, -75, -58, -69, 15, -61, -40, 21, 40, 95, 75, -2, 76, 43, 79, 46, -16, 78, 26, -6, 52, -86, 45, -36, 95, 2, -73, 53, -86, -9, -88, -8, -46, -7, -16, -11, 41, 93, -93, 96, -39, -30, 19, 11, 67, 9, 32, 62, -51, 45, -4, 39, 46, 55, -77, 72, -56, -59, 79, 75, -29, -31, 26, -54, 42, 37, 16, -51, -46, -3, -29, -45, -20, -55, 61, 62, 60, -39, 49, 5, -58, 43, -63, 34, -7, 98, 67, -72, 57, -36, 61, -87, -26, 91, 53, -84, -5, 42, -27, 55, 45, -55, -76, 72, -55, 29, -67, -16, -91, 75, 33, 38, -28, 5, -72, -52, 32, 95, 21, 78, 69, 94, -44, 35, -83, -89, 80, -27, 84, 35, 21, 78, 44, 90, 73, -94, -95, 74, 5, -51, 75, -11, -44, -8, 87, 45, 48, -97, 9, 84, -77, 84, 4, 38, 87, -17, 68, -46, -58, -1, -22, -13, 40, 43, -89, 79, 20, -94, -21, 58, 40, -30, -11, 21, 85, 2, 75, -7, -82, -15, -37, -69, -74, -73, 88, -11, -41, -15, 20, 84, -91, -21, 37, -57, 16, -60, -25, -6, 67, 91, 69, 9, -1, 44, -12, 85, -17, -80, -16, -35, -77, 59, 39, 2, -81, 32, -11, 49, -89, 43, -74, 18, -89, -98, 73, 94, -52, -28, 14, 48, -65, 26, -82, 70, -98, -22, -96, -71, 30, 4, 33, -44, -71, -69, -93, 33, -63, 80, -64, -52, -93, -39, 51, 95, 33, 67, -91, -40, 28, 54, -75, -34, -38, -90, 2, 53, -51, -44, -1, 18, -91, 77, 92, -67, 14, -90, -12, 48, -34, -3, -7, 5, -54, 72, -78, -70, 97, -6, 13, -57, -33, -84, 69, -64, 14, -89, -35, 21, 12, 66, 34, 23, -6, -97, -94, -24, 5, 85, 21, -59, -3, -28, -22, 44, -13, 60, 84, -21, 70, -9, -33, -12, -16, -78, -35, 38, 65, 67, 73, 55, -48, 65, 7, -40, -28, -29, -75, 92, 40, 35, 77, -68, -12, -47, 24, 42, 58, 27, 23, -78, -5, -35, 32, 48, 12, -97, -46, 27, -44, 25, 89, 73, 81, -42, -18, -9, -29, -80, -84, 16, 9, -74, 83, -7, -70, 55, 66, 89, -26, 95, -96, 16, 91, -55, -58, 7, 52, 30, 24, -54, 14, -29, -43, -15, 75, -20, 6, -90, 90, 24, 46, -25, 88, -41, -22, -37, 38, -3, -93, -82, -25, 75, 60, -17, -65, -86, 34, 57, 9, 64, 27, 59, 21, -3, 30, 0, -61, -29, -5, 42, -44, 69, 11, 23, -92, 59, -25, 14, -92, -72, -8, 56, -57, 0, -18, -55, -66, 42, 56, -69, -22, 13, 41, 30, 50, -83, -52, 21, 59, -24, -65, -81, 84, 48, -83, -57, -49, -45, -51, 41, 72, 72, 5, -60, 62, 61, -27, -29, 5, 76, -52, 3, -58, -47, 92, -46, 40, -59, 5, -83, 13, -76, -76, -78, -86, 88, 14, -70, -35, 76, 80, -54, 92, 3, -53, -80, 24, -59, 96, 96, -36, -1, 79, -81, 49, -75, 9, 95, -85, -21, -36, 18, -98, -14, 8, -2, 44, 73, 6, -53, 34, 59, -39, 18, -58, -6, -14, -76, -25, 52, -9, 85, 56, 29, 32, -94, 5, -45, 37, -90, -70, -20, -71, -15, -2, 88, 57, 71, 14, -15, -80, -90, -87, -12, -1, 51, -80, -60, 43, 42, -16, 60, -29, -27, 75, -46, -40, 67, -96, -34, 64, -66, 26, 94, 87, -84, 19, -45, 35, -12, 50, -53, 24, 65, 67, -13, -65, 95, 40, 95, -15, -58, -29, 63, 18, -77, -9, -50, 13, -44, -57, 28, 30, 46, 13, 32, 64, 37, -97, -18, 31, -76, 70, -62, -86, 26, 49, 51, 30, -73, -93, 65, -58, 76, -63, 16, 47, -23, -12, -76, 10, -38, 66, -73, 49, 74, -17, 50, 19, 24, 29, 74, -21, 41, 58, 51, -13, 94, 17, 40, -42, 12, -94, -46, 79, 68, 7, -13, -80, 56, 2, -86, -40, 40, -42, 76, 12, -48, -84, -42, -24, -32, -40, -69, 73, -93, 49, 88, 5, -97, 9, -63, -36, -14, -54, 73, 65, 93, 63, 33, 91, -1, -31, 85, 60, 97, 1, 41, -18, 62, 61, -53, 61, 17, 36, -91, 94, -30, 83, 68, -96, -11, -54, 24, -87, 89, 0, 28, 25, -7, 49, -53, -29, -96, 98, 22, 82, 95, -5, 95, -7, 24, -86, 76, 48, 29, 13, 37, -34, -83, -83, -90, 60, 34, 27, 89, 35, 23, -25, -90, 32, 86, -79, -80, 80, 9, 62, 86, 3, 9, -59, -6, 6, -75, 84, -96, 45, 2, 71, -57, 64, 68, -90, 49, 5, 96, 48, 35, 48, 9, -42, -19, -43, -24, 47, 87, 15, -1, -37, 97, 12, 75, 50, -11, 80, 61, -18, -73, 70, -29, 1, -6, -69, 90, 42, 50, -72, 4, 35, 23, -42, 49, -97, -47, 18, 17, 87, -32, 6, -26, -70, -92, -41, 48, 39, -7, -51, -79, 80, 69, 28, 9, 36, -95, 83, -13, -8, 31, 92, 19, 18, 32, 3, -67, -45, 70, 36, 71, 47, -26, 87, 34, 79, 7, 77, -80, 57, 70, -16, 84, 4, -12, 61, -23, -33, 76, -85, 2, -20, 73, 60, 6, 92, -42, 37, 36, -59, 57, -62, 87, 13, 11, 98, -24, 67, -7, 54, -41, -46, -60, -35, 10, -42, -74, -57, 3, -96, -44, -55, -4, -37, -29, -6, 10, 31, -61, -17, -85, -85, -79, -23, -27, 73, -17, -22, -7, -30, 94, -39, 59, -49, 68, -85, 24, -44, 89, -37, 50, -60, -36, 66, -17, -93, -72, 41, 6, -11, -19, -29, -85, 86, -14, 16, -6, 90, -7, -92, -30, -68, 87, -62, -11, -70, 9, -98, -17, 40, 56, -29, -79, 89, -92, -43, 79, 92, -75, 10, 60, 84, 60, -42, -1, 97, -91, -22, 4, 38, -74, -74, 55, 41, -96, 20, -50, 44, 82, 49, 10, 51, -60, 36, 66, 74, -56, -96, 92, -45, 34, -92, -13, -91, -86, -73, 78, 69, -63, -17, 78, -69, 68, 68, 91, -42, 43, 45, -79, -37, 61, 24, -65, 28, -15, -25, 75, -55, -63, 35, -34, 46, -66, 20, 49, 12, -79, 41, -18, -22, 70, 95, -24, -42, -16, -8, -28, 7, -76, -43, 18, -12, -25, -9, -69, 87, 91, 85, 25, -74, 87, 64, -32, 94, -73, 74, -14, 92, -31, 58, -59, 84, 29, -30, -11, 63, 95, -85, 32, -15, 63, -40, 91, 31, -7, -75, 41, -46, 77, -50, 77, -57, 50, -2, -8, -44, -44, -87, -94, -69, 36, -14, -83, -58, -67, -48, -67, 87, -58, -10, -50, 69, -87, 79, 89, -25, -87, -1, 0, -50, 61, -78, 69, 14, 46, -47, 1, -23, -75, -29, 82, -57, 38, -89, -39, -28, 13, 13, -62, -68, 87, -17, 27, -19, 68, 79, 14, -94, 36, -50, 79, -24, 73, 90, 83, 13, -13, 50, 50, 52, -23, 59, -65, 85, 84, -26, 29, -54, -46, -64, 72, 93, -6, -14, -12, -16, -64, -34, -76, 3, -47, -3, -23, -84, -23, -75, 45, 96, -68, 66, 84, -25, -38, -3, 95, 11, -95, -44, -81, 22, 71, -86, -69, 31, 88, 43, -11, 71, -32, 79, -82, 76, -30, -68, 5, -98, 91, 5, -43, -26, 74, -24, 29, 69, 49, -78, 7, -28, -36, -61, 93, 45, 82, 86, -27, -72, -49, 83, 80, -86, -70, 31, 8, 79, -26, 43, -32, 98, -71, 20, 76, -80, -9, -82, -41, 82, 66, 77, 1, -25, -1, -44, 66, -59, -58, 83, 85, 87, -71, -13, 28, 82, -98, 47, -62, -68, -94, -29, -22, 31, 98, -37, 62, -84, 65, -80, 26, -33, 1, 98, 17, 46, 32, 26, 2, -76, 68, 63, 80, -38, -3, -48, 55, 3, -92, -46, 18, -98, 22, -85, 22, 62, -43, 52, -4, 58, 86, -91, 69, -82, 96, -68, 65, -93, 85, -5, 26, 53, -48, 1, 82, 51, -83, -41, -95, 36, -44, 60, -86, 47, 88, 67, 46, 81, 14, 45, 86, -85, -2, 75, 80, 19, 58, -52, 11, 53, 55, 16, -86, 64, -6, 84, 96, 95, 52, -34, 49, 85, -38, -35, -26, -97, 28, -26, 9, -65, -69, 63, 9, 97, 58, 58, 64, -18, 20, -30, 51, -70, 63, 24, 67, -52, -85, -33, -55, -80, 80, -40, -49, -96, 77, -49, -54, 17, 29, -10, -48, -64, 95, 60, -9, -91, 33, 35, -56, -85, -45, 80, -34, -71, 54, 87, 92, 46, 63, 14, 48, 51, 45, 6, -10, 90, -83, -16, -7, 55, 17, 32, -64, 72, -39, 76, 83, -38, -26, 26, 38, 85, -20, 88, -73, -31, -50, 54, 3, -4, 46, -39, 84, 55, 58, -19, -29, -71, -68, -43, -84, 2, -32, -48, -89, 41, 73, -90, -92, 88, 86, 56, 90, 29, 12, 10, 93, 89, -25, 49, -43, -57, 7, -43, 32, 8, -53, 62, -21, 8, 71, 66, -43, -15, 63, 14, 53, -24, 20, -1, -44, -47, -90, -78, 36, -76, -22, 5, -53, 93, 73, 67, -6, -36, -45, 46, -10, -68, -61, 4, 98, 43, 90, -46, -73, 90, 5, -6, -98, 6, 95, -94, 7, 51, 42, -42, 85, 1, 2, 34, 55, -97, 20, -89, 35, 28, -49, 35, 76, 72, 65, 98, -41, -79, -8, -56, -33, -91, -92, 97, -14, 71, 63, -39, -50, 6, -80, 37, 61, 7, -66, 58, 26, 51, 90, 90, 79, 45, 98, 27, 58, 14, -63, -41, -38, 49, 45, 17, 57, -97, 10, 28, 44, -22, -2, 76, -87, 92, 29, 24, -52, -65, -88, 5, -27, 98, -29, 93, 23, 69, -64, 24, -70, 68, -27, -28, 73, 29, -18, 1, 96, -63, 90, 35, 30, -50, 32, -8, -46, 6, -15, -49, -66, -71, 74, 84, 89, 84, -6, 36, -31, -84, 39, -73, -6, -83, -45, -67, -82, -66, -77, 84, 87, -86, -31, -71, -90, 79, -3, -1, 29, 68, 30, -90, -50, 85, -11, -97, -49, 27, 91, -74, 3, -24, -96, 32, 5, 34, 75, 47, 80, -88, 55, 87, -65, -58, 47, -17, 60, 0, 39, -79, -67, -54, -27, -28, 98, 15, -81, -32, -13, -37, 35, -98, 21, 14, -80, -81, 20, -60, -67, 67, -93, 33, -72, 71, 10, 78, -98, -60, -37, 49, -33, -97, -48, 51, -48, -73, 39, 44, 38, -21, 9, 91, 62, -18, 60, 40, 49, -12, 79, -14, 81, -85, -33, 65, 46, -9, -64, 97, -34, 36, -44, -31, -22, 54, -41, -6, -37, 24, 32, -66, -23, 60, 91, 33, 90, -75, -93, -59, 69, 59, 42, 62, 42, 84, 95, -30, -84, 15, -25, 12, 63, 89, -63, 26, -13, -12, 94, -14, -11, 87, -42, -12, -63, 14, -84, -59, 77, 17, -34, -41, -79, 20, -78, 29, 64, 29, 78, -26, -58, -77, 69, -71, 24, -97, -95, -92, -39, 12, -16, -37, 59, -35, -48, 57, -58, -26, -56, -44, -69, -76, 54, -42, -35, -98, 62, -54, 72, 7, -19, 29, 75, 64, -72, 96, 17, 55, 66, 42, 30, 15, -50, -33, -78, 84, 79, 6, 18, 57, 24, -96, 45, 55, -2, -44, 51, 71, -24, -52, -68, -34, 88, -7, 57, 45, -25, -14, -53, -81, -76, 82, -50, -22, 86, 13, 43, -96, 57, 0, -69, -91, 21, -38, 68, -25, 75, 34, -1, 46, -47, 86, -39, -20, -98, 28, 63, -83, -14, -3, 45, -69, -3, -79, 52, 82, 0, -40, -77, 11, -46, 71, -53, 7, 56, -75, 50, -64, 21, -27, -97, -25, -53, 33, 69, 46, -24, 3, -59, 68, -13, 62, -55, -93, -20, 90, -2, -53, 32, 80, -78, -66, -79, 56, 32, -97, -78, 26, 3, 65, 15, 43, -2, -4, 71, -55, 91, -76, -12, -76, 60, -23, 93, -19, -61, -33, -85, 42, 30, -89, -52, -34, 15, 48, -12, -13, 65, 11, -58, 80, 69, 83, 2, 71, -15, 29, -54, 81, -85, 18, 7, 8, 7, 76, -46, -86, 0, 10, 11, -24, 23, -40, 35, -91, 33, -72, -44, -59, -2, -20, 23, -31, 49, 63, -36, -66, 59, 95, -35, -47, -62, 94, -90, -97, -57, 31, 3, -50, 27, 35, 12, 60, 45, -91, 39, 78, -76, 10, -56, -36, -1, -32, -83, 0, 12, -37, -96, -23, -58, -2, -80, 88, -14, 66, 78, -86, -51, 16, -80, 39, 31, 21, -62, 94, -31, -88, -2, 32, -93, -26, -75, -72, 80, -22, 71, 8, -1, 25, 45, 55, 19, -8, 11, 34, 92, -30, -80, 24, 3, 17, 42, 86, -40, 70, 35, 16, 53, 75, -62, -62, -72, 37, 10, -62, -77, 32, -10, -76, -18, -48, 84, -91, -65, -26, -40, 51, -77, -75, 30, -56, -79, -5, 15, 48, 93, -5, 15, 30, 49, 3, -69, 44, 9, 57, -39, -76, 22, 6, -13, 27, -70, -39, 2, 35, 95, 71, -47, 93, -38, 84, -89, 80, -48, -97, 80, -41, -49, -97, 82, -68, 48, -30, 49, -59, -96, 67, 83, 62, 35, -79, 8, 64, 83, 60, -56, -12, 89, -36, -30, 37, -91, 34, -47, -74, 43, -60, -7, 39, -8, 60, -28, -88, -25, -13, 65, 26, -18, -44, 69, 60, 46, 67, 23, -26, -26, 23, -15, -7, -49, -23, -96, 60, -31, -19, 45, -53, 68, -3, -1, 73, -11, 30, -84, 65, 34, 60, 29, 30, 54, 62, -19, -12, 78, 52, -2, -73, -86, 89, 76, 37, -23, 48, 88, -3, -7, -39, 51, 41, 52, 2, 27, 97, -8, 18, 79, 27, -89, 44, 70, 30, -4, -30, -5, -6, 54, -17, 90, -4, 15, -59, -83, -49, -21, -49, 39, -11, -81, 57, -40, -54, -55, 70, -75, -22, -30, 30, -18, 88, -1, -70, -37, 62, 78, -74, -58, 91, 1, 24, -27, 69, 14, 51, 51, 26, 64, -61, 90, -43, -64, -50, -18, -66, -3, 96, -10, 88, -20, -60, 80, 50, 15, 83, -78, 97, 66, -38, -51, -20, 11, -86, -59, -96, -75, 65, 45, 42, -43, 33, 71, 65, -13, 79, 7, 61, 57, -36, -24, 74, -14, -21, 36, -36, -91, 47, -8, 23, 16, 28, -96, -24, -35, -6, -24, 56, 29, 26, 86, -49, -96, -37, 68, -98, 97, 85, -73, 94, -24, 81, 37, 81, 24, 60, -45, -86, 48, 79, 93, 74, 28, -31, 53, -97, 60, 28, -91, -66, -48, 57, -85, -46, 71, 86, 1, 12, 83, 71, -85, -24, -87, 68, -79, -85, 44, 64, 63, 62, -60, -83, 66, -37, 66, 81, -84, -5, -3, -34, 22, -5, -87, 84, -42, -7, 19, 30, -52, -16, 63, 95, 58, -70, 42, 14, 12, 45, -4, -91, -46, 94, -70, 77, 92, 63, -12, -73, -25, -44, -68, -65, -64, 3, -82, 61, 97, -69, -89, -94, 51, -58, 77, -81, -12, 83, -74, -50, -92, -82, 27, 12, -72, 13, -16, 64, -20, 4, -52, 12, 39, -11, 4, 20, -63, 18, -89, -24, -45, 45, 54, 95, -45, -14, 36, -89, 79, 63, 8, 45, 76, -24, -23, 74, 21, -75, 14, 47, -41, 46, 25, 78, 29, 36, -6, 61, 41, -22, -64, -65, 38, -81, 3, 46, -90, -7, 14, -8, 87, -36, 35, 56, -31, -25, -42, -68, -65, 64, 76, -97, 4, 85, 86, -68, -11, -38, 90, 91, 43, 90, 23, 35, -14, 52, -50, 67, -27, 57, -52, 8, -72, 43, 56, -31, -69, 4, -6, 17, 90, 36, 90, 52, -2, 11, 56, -59, -78, 13, -50, 36, -22, 83, -33, -70, 12, -14, -21, -27, -6, -33, -37, 2, 97, -64, 11, 67, -4, -85, 77, 33, -96, -24, 27, 30, -64, -81, -34, 42, -58, -85, -12, -59, 14, -50, 39, -60, 13, -5, -2, 25, -26, -86, -1, -22, 59, 90, -44, -78, 22, -48, 8, -17, -96, 65, -14, -92, 14, 12, 34, -14, 79, 41, -20, 80, 23, -76, -71, 19, -44, 13, -93, 47, 40, 11, 74, -17, -19, 10, 34, 27, 68, -85, -81, -50, 12, -30, 28, 62, 39, -40, -18, -32, -49, -33, -88, -53, -66, 89, -94, -90, -45, -4, 85, 25, -57, 32, 1, 42, 5, 86, -18, -70, 41, -92, -18, -40, 42, 9, -21, 65, -89, -86, 52, -79, -30, 49, 45, 78, 66, 41, 14, 41, -36, 49, 73, 35, -70, -40, 91, -13, -55, -54, 90, -78, -74, 0, -45, 72, 26, -70, -74, 31, -67, -79, 83, -40, -39, 28, -14, -86, 17, -64, -66, 38, -85, -44, -23, -23, 48, -33, 59, -37, -90, 91, 19, 16, -33, 54, 24, -47, -4, -35, 26, 90, -1, 65, -30, -18, -45, -43, -55, 25, -60, 9, -75, 95, -97, -8, 32, 85, 44, -26, 42, -57, 78, -5, -20, -59, 45, 48, 18, 95, -29, -97, 45, 95, -73, -83, 91, 35, 35, 50, 87, 80, 82, -41, -3, -98, 67, 35, -18, 65, -68, 92, -85, -87, -59, -18, -41, 43, -63, -54, 53, 47, 5, -5, 56, -33, -56, 86, -7, 18, 9, 32, -88, 57, -51, 83, 44, -45, 56, 6, 65, -50, -1, 88, 18, -8, 10, 47, -28, -40, 74, -13, 85, -27, -93, -20, 60, 94, -60, -46, -83, -91, 49, 72, -61, -87, -38, -82, 16, -87, 27, 32, -82, -76, 36, -13, -1, -9, 63, 44, -11, -69, -25, -31, 57, -80, 16, -52, -89, 57, 54, 76, 30, -17, 21, -50, 4, -83, 57, -62, -9, -11, -31, -10, 1, 15, -32, 19, 76, 30, -74, -72, 57, -31, 65, -33, 43, -50, 31, 57, -20, 14, -66, -76, 9, 72, 4, 44, -50, 20, 8, 66, 56, -63, -32, 8, 18, -56, 68, 35, 39, 87, 72, 97, -16, 24, 10, -51, 56, -86, 55, 8, -93, -53, -61, 50, 0, -43, 11, -98, -6, 17, -85, -4, 35, 13, 54, -83, 13, 76, 16, -88, -61, 77, 48, -39, -29, -23, -32, 45, 40, 91, -75, -78, -20, -57, 87, -36, 57, -19, 82, 91, -93, -35, -51, -71, -78, -72, -2, 29, 72, 56, -26, 32, -50, 81, 65, -86, 63, -44, -86, 1, -87, -50, -82, -72, -77, -55, -62, -32, -83, 62, -71, 68, 96, 16, -87, -34, -30, -45, -93, -42, -72, -8, -94, 78, 38, -75, 18, -37, -69, -42, -59, 66, -6, -54, -81, 94, -43, 1, 33, -57, -70, -66, 6, 14, 2, 15, -27, 61, -15, -83, -42, 53, -93, 80, 31, -80, 54, -89, -75, -47, 91, -74, 54, 3, -73, -37, -10, -56, 64, 89, 97, 36, -81, -67, -6, -11, -23, -7, -15, 98, 38, -12, 40, 49, 10, -21, 84, 2, 73, -6, -29, 39, 50, -63, -88, 68, -3, -4, -1, 87, 70, -4, -24, -49, 14, -2, 87, -86, 18, 97, 48, 76, -89, 88, -3, 69, -18, -83, -24, -4, 90, -86, 88, -96, 6, -96, 94, -26, 28, 48, -16, -49, -82, 32, 7, -71, -9, -81, 77, -45, -37, 38, -95, -39, -52, 40, -11, -24, -15, 84, -55, 49, -55, -25, -27, 4, 38, 53, 22, -77, 92, -9, 50, -12, 10, 9, -47, 84, 65, 76, -90, 45, 47, 51, -69, 96, -64, 53, -85, -43, -2, -82, 46, 82, -24, -91, -29, -8, 32, 84, -31, 48, 14, -65, 73, -76, 38, 61, 76, -85, -59, -41, 19, 6, 51, -77, -90, -8, 15, 36, -89, -20, 46, -25, 17, 94, 42, 75, -31, 65, 61, -75, 2, -9, -42, 61, 37, 90, -47, -23, 46, 29, 8, 61, -13, 87, -57, -55, -33, 79, -55, 79, -42, 25, -41, 38, 97, -6, -2, 0, 29, -45, -11, -95, 16, 62, -15, -12, 4, 75, 71, 20, -81, -77, 34, -11, 29, -89, 14, 79, -39, 89, 0, 41, 95, -59, -1, -25, -90, 78, -77, 45, 60, 26, -94, -5, 77, 66, -7, -87, 40, 55, 74, -61, 96, 84, 88, -64, 25, 51, -73, -21, 48, 47, 72, -31, -38, 90, 16, -65, 37, 64, -46, 13, 22, 82, -52, 49, -82, -78, -14, 89, -14, -39, 31, 4, 94, 85, -17, -68, -5, -35, 89, 24, -83, 41, -14, 71, -54, -91, 50, 80, -43, -44, -92, -9, 68, 37, -35, -49, 94, -28, 92, 43, -61, 91, -60, -72, 82, 30, -37, 42, 36, 23, -71, -86, -66, -13, 49, 55, 86, 51, 33, -39, 13, -81, 37, 56, 64, 49, -93, -8, 52, -58, -86, -21, -38, 54, 36, 10, 2, -68, -65, 79, 7, 92, -66, 64, -76, -4, 16, -87, 68, -80, 89, 69, 74, 16, -88, 95, 31, -61, 72, -50, 41, -50, -83, 86, 91, 86, 48, -64, 72, -64, -46, 98, -69, -92, 46, 89, 78, 7, -47, -96, 23, 7, 33, -77, 37, -84, -14, 20, 60, 69, -4, -12, 78, -63, -79, 42, -59, -67, 59, -50, -56, 64, -15, 22, -70, 36, 93, 11, -70, -43, 23, -32, 52, -87, 47, -25, 50, 50, -21, -52, 61, 1, 6, 72, -87, -89, -5, 3, -97, -17, 0, 22, -44, 11, -26, -22, 6, -46, 67, -21, 84, -6, 18, 2, 83, 11, -89, 65, 21, 51, 41, -9, 14, -79, -58, -3, 64, -98, -28, -15, -98, 92, -34, 8, -16, 40, -57, 71, 75, -29, 22, -11, 30, -37, 58, -80, 71, 83, 68, -30, 95, -59, -87, -57, 80, 91, 68, -84, 94, 87, 36, 37, -70, 49, -98, -77, -93, -16, 14, 15, -75, 70, -3, -69, -55, 92, 91, 19, 47, -47, 27, 91, -58, 56, -51, 90, 28, 69, -71, -15, -36, 22, -94, -77, -79, 44, 21, 19, -33, 14, 87, 90, -94, 66, 34, -11, -28, -87, -90, -85, 17, 95, 31, 49, -36, -41, 3, -86, 0, -11, -3, -5, -4, -21, -51, -1, -51, 15, 37, 39, 72, 0, 94, -51, 92, -79, 15, -64, -85, -88, -43, -35, 5, -85, 96, -38, 43, 54, -97, 59, 45, -12, -70, 90, -76, -46, 66, 84, -24, 43, -17, -77, 32, 33, 3, 13, 94, -4, 92, 90, -32, -93, 20, 44, -81, -25, 14, -6, 5, 60, -7, -39, -46, 91, 29, 73, -28, -14, 57, 24, -55, 89, 72, -31, 14, -5, 52, -5, 33, -40, -63, 63, -35, 94, -12, 92, -84, -91, 35, -67, -38, -85, -12, 9, -22, -52, -92, -8, 15, 87, -77, -60, 62, -43, -18, 7, -9, 96, 62, -92, 48, 72, 2, -59, -44, 70, -53, 74, 78, -41, 29, -8, -63, 26, -91, -51, -7, -15, -41, 78, -79, 5, 70, -6, -71, 80, 72, 70, -12, -62, 64, 62, 38, 71, -75, 10, -93, 71, 76, -94, -56, -17, -14, 91, 9, -80, 7, 24, -74, -23, 35, -92, -60, 69, 62, 39, 96, 97, -71, 51, -61, -13, 2, -93, 36, 37, -55, 90, 83, -41, -98, 10, -36, 54, -91, -43, 17, 95, -42, 7, 69, -62, 69, 90, -26, -66, -49, 4, 14, -73, 39, -26, -2, -78, 34, -59, 83, -11, -15, 1, 76, -42, -32, 69, -78, 88, -4, 86, -43, -27, 68, 30, -45, 98, 23, 75, -94, -7, -83, 76, 4, -20, -94, -59, 97, 36, -8, 68, -68, -79, 54, -70, -41, 14, 55, -67, -79, 92, -36, 56, 17, -8, 93, 33, 47, -10, -28, 63, -64, 27, 61, -67, -78, 9, 19, -18, -95, -60, -21, -78, 87, 93, -86, 42, 8, -82, -14, 29, -30, 73, -40, -94, -47, -47, 50, -38, 90, 30, 17, 77, 52, 78, 38, 70, -47, 37, 15, -72, -32, 92, 96, -53, 51, -51, 30, 63, 2, 57, -46, 56, 4, -68, 47, -14, 15, -24, 70, 25, 11, -28, 68, 84, 59, 44, -64, -50, -81, -47, 61, 1, -43, -75, 66, 75, 12, -32, 47, -52, 42, 41, -4, -84, -81, 8, 41, 53, -4, -24, 46, -18, -3, -9, 71, -40, -93, 15, 86, 19, 10, 75, -70, -9, -10, -16, 76, 52, 91, 72, -77, 78, 38, 41, 88, -10, -86, -70, 45, -49, -62, 12, -28, -33, -44, -22, 95, 96, -65, -43, 5, -96, 23, 62, -82, -66, 74, 70, 39, -14, 85, -1, 49, 12, -51, -16, 44, -5, -73, 97, -9, -9, 10, -24, 46, 16, 82, -13, -75, 95, -3, 37, -34, 77, -2, 31, -56, -5, 0, -39, 67, -17, 84, -33, 76, 54, 50, -21, 67, 78, 55, 15, -4, -14, -87, -24, 41, 41, 63, -41, 51, 37, -61, 12, 95, -24, -37, -49, -58, 42, 9, -52, -57, -36, -7, -92, -20, -13, -93, 6, 67, -67, -74, 49, 38, 80, -3, -31, -25, 14, -39, 45, 65, 49, 30, 2, 40, 60, -92, -96, 73, 70, 6, -39, -45, -83, 10, -55, 83, 66, -97, -8, 56, -22, 74, 43, 22, 2, 2, 55, -51, 69, -79, -13, 12, 24, 25, 90, -14, 89, 76, -48, 33, -79, -8, 71, -69, 88, 4, 62, -29, 4, -19, -67, -19, 14, 68, -75, 77, -49, 74, 95, -23, 84, 81, 43, 47, -48, -17, 84, 14, 5, 1, 57, 72, -11, 70, 57, 37, 74, 93, 71, -41, 57, 1, 89, 2, 37, 4, -17, -21, 72, 94, 87, -78, 56, -95, 33, -77, 5, 61, 17, 54, 83, 86, 70, 25, -15, -34, 45, 15, -41, 16, 97, 87, 43, -32, -56, 80, -59, 37, -25, -66, -82, -61, 77, 57, -50, 85, -67, -84, -22, -61, -62, 0, 95, -18, 9, 62, -39, 92, 51, -95, 70, -20, -90, 11, 69, 71, 24, -59, 20, -13, -21, -67, 94, 7, -27, -32, 73, 9, -28, -7, -66, 75, -78, 59, -26, 47, -49, 68, 57, -26, 29, 71, 96, 20, -37, -93, 30, 0, 46, -66, 30, -34, 4, 34, -69, -70, -12, -34, -69, -16, -59, -66, -37, -25, 40, -79, 94, 38, -67, 79, -41, 62, 81, 73, -72, -92, 88, 73, 33, -20, -34, 87, -19, -64, -89, 51, 79, -94, -5, 62, 4, 43, 84, -52, -92, 72, 48, -98, -32, 2, -65, 11, -54, -83, 97, -91, -60, 19, 90, -11, 73, -55, -92, 17, -12, -97, 34, 2, -83, 80, -61, 4, 42, -34, 96, -62, 75, 23, -54, -59, 36, 32, -82, 64, 90, -65, -59, 65, 84, 12, -56, -43, 54, 4, 0, -8, -21, 41, 4, -34, 96, -64, -34, -39, 79, -27, 12, 14, -82, -71, -15, -29, 27, 75, -30, -26, -3, -68, -18, -57, -96, 45, 61, 68, 61, 35, 29, 37, -8, -42, 43, -40, 24, 2, 13, -40, 67, 62, -71, -74, 5, -5, 55, 66, -75, 14, 12, 52, -64, 38, 21, -75, 2, 69, -43, 30, -37, -8, 89, 64, 41, 39, -49, 54, 54, 69, -9, 67, -34, -10, 76, 22, 48, 59, -24, -65, 93, -72, -42, -67, 62, 74, 75, -70, -46, 77, -1, 20, -58, 35, 31, -89, 91, 79, 74, 27, -68, 44, 30, 22, -57, 22, -24, 78, -67, -80, 54, 9, -74, -62, 28, 86, 78, -24, -91, -36, -79, -66, 68, 39, -2, 77, -44, -73, 33, 19, 48, -14, -17, -22, 85, -91, -94, -19, -6, -82, -97, -31, -67, 80, -6, -73, 27, -14, 27, 30, 5, 7, 81, 5, -32, -32, 90, -34, 64, 28, 38, 19, -42, 18, -75, -32, -25, -23, -21, -47, -36, 4, 96, -78, 35, -95, -26, 91, -62, -30, 46, 13, 26, 98, -17, 98, -21, 12, -30, -96, 91, 5, -71, -79, 82, 47, 94, -22, -52, -61, -26, -57, -30, -21, 35, -76, -70, -98, 62, 41, -86, -69, 66, -58, -58, 80, 57, 73, 78, 63, 66, -97, -13, 36, 39, -96, -76, -1, -12, 13, -44, -47, -1, 16, 8, -93, 55, -43, 69, -75, 11, 25, 50, 73, 44, 27, -24, 65, -60, 88, 91, -57, 29, -72, 23, 69, 17, 74, 50, 36, -3, -66, -54, -3, 55, 83, -4, 31, 60, -28, 87, 29, -17, 96, -85, 18, 32, 42, -7, -33, 10, -3, 94, -8, -79, -36, -91, 76, -45, 37, 68, 55, -55, 92, 73, 77, -44, -52, -45, -69, -4, -60, -92, 42, -51, -98, -84, -24, -35, 12, -11, -17, -99, -24, -20, 11, 69, 91, 11, -25, 32, -73, 56, 72, 26, -18, -20, -66, -98, 72, 62, 52, -47, 42, -76, -63, 2, -23, -27, 79, -51, -48, 46, 9, 81, 50, 79, 65, -27, -65, 36, -54, -33, -33, -29, -16, 2, 79, -6, 45, 26, 45, 31, -41, 11, -33, -3, -43, -41, 5, 88, 25, -72, -60, 31, -45, 95, -23, 35, -7, 36, 34, 63, -46, -17, 87, -28, -61, 17, 9, -66, 91, -83, -1, 68, 69, 82, -61, 48, 36, 85, 48, -81, -16, 86, 48, 65, 63, 18, 16, -45, -2, 64, -23, -57, 90, 55, -28, 17, -25, 42, 38, 35, -25, 21, 67, 58, -21, -77, -15, 8, -52, -58, -56, -97, 45, 97, 73, 25, -1, 45, 8, 47, 79, 10, 87, 60, -25, -14, -52, 62, -97, -51, 45, 1, -5, 63, -81, -73, 0, 63, 48, 74, 26, 33, -59, 59, -12, 23, -88, -94, -95, -34, -47, -69, 45, -62, -5, 61, -10, 57, -56, 90, 40, -30, -2, 72, -45, -79, -17, 19, -89, -43, -43, -15, 54, -63, -89, 21, 40, 98, 16, -47, 47, -42, -62, 23, 56, 30, 86, -56, -24, 71, -40, 96, -26, -84, 23, -21, 83, 79, 35, -68, 44, 65, -76, 60, -5, -88, -59, 40, 16, -57, 47, -72, 42, 51, -40, -38, 44, -28, -72, -97, 22, 48, -40, -92, -13, -82, -45, 9, 70, 92, 74, 71, -88, 41, 65, -7, -61, -87, 59, -27, -53, -22, 70, 33, 34, -17, -38, -53, -9, -51, -31, -87, 98, -1, 64, -3, -8, -24, -66, -36, -8, 12, 65, 57, -7, 51, -17, -58, 65, -23, -63, -19, -85, -1, -23, -23, 68, 93, -30, -45, -73, -84, 76, -26, -29, 95, -44, -43, -83, -91, 23, -42, -26, 9, 70, 86, -68, 18, 7, -41, -41, 25, -23, -34, 27, 78, 36, 30, 2, -10, 92, -11, -47, 68, 64, -95, -58, 37, 20, -31, -82, 29, -86, 22, 9, -72, 50, 3, 0, 46, 30, -30, -56, 89, -50, 11, -15, 65, 92, 5, 4, -78, -17, -10, -72, 23, 52, 66, 22, -55, 56, -2, 7, -3, 34, 1, -94, 97, 3, 14, 82, -43, -31, -70, -42, -25, -7, 77, -92, -11, -42, 60, 96, -37, -80, 21, 95, 7, -82, -46, 71, -23, -61, -56, 15, -32, -17, 85, -20, 27, -21, 20, -18, 33, 61, -42, 10, -71, 1, 35, 83, 81, -41, 2, -67, -20, 11, -15, -54, -17, 15, -28, 9, -37, -91, 44, -11, -18, 9, 12, 61, -89, -59, 47, -73, 28, 84, 1, 23, -80, 53, 64, -25, -98, -49, -9, 1, -80, 39, -41, -18, 83, -75, 34, -4, -12, 4, 93, -7, 17, 96, -59, 45, 52, 48, -67, -26, 51, -63, -85, -61, 92, -10, -58, 34, 88, -43, -57, -86, -67, -29, -54, -11, -98, -13, -70, 27, 6, 94, -19, -94, -26, -64, -85, 59, 93, -54, -11, -89, -9, 80, -58, -28, -60, 77, -25, 63, 95, 88, -96, -52, 78, 40, 64, -89, 92, -17, -44, -66, 81, 14, 2, 69, -28, -50, 20, -55, 41, 13, -35, -38, 38, 91, -57, -3, -12, -78, -30, 9, 73, 17, -22, -93, -25, 96, -73, -20, 60, 2, -17, -1, 85, -46, 96, 93, -68, 51, -62, -92, 26, 79, -79, 49, -20, 34, -85, -45, -63, 16, 61, 34, 78, 2, 16, -87, -15, -26, -71, -84, 6, 4, 46, 17, 61, -56, 35, 77, -49, 28, -57, 16, 48, -75, -6, 41, -46, 78, -18, -8, -66, 1, 37, -5, 49, 5, 7, -2, -70, -14, -87, -35, 48, -2, 69, 58, 68, 39, 33, -34, -51, -64, 31, -28, -28, -76, -20, 17, -36, 22, -87, 44, 49, -54, -55, 39, 28, -95, 63, 58, -81, 98, 53, 7, -46, 28, 33, 48, 23, -66, 39, -98, -34, -66, -22, -36, 81, -15, 69, 40, 82, 42, -77, -42, 89, -39, 20, 89, -58, 14, -28, -13, 28, -19, 90, 30, 18, 40, -53, 31, 38, 91, 28, 77, 55, -50, -81, -88, -56, 19, -59, -51, 47, 2, -91, -89, 20, -56, 68, -94, 74, 9, 52, -72, -53, -40, -28, 52, -38, 93, -58, -33, -28, -9, 85, -65, 87, 65, -26, 58, 6, -9, 11, 89, 91, 13, -75, 93, 88, 59, -88, 43, 7, -56, -1, 2, -70, -93, 24, -84, -29, 57, -90, 86, -38, -67, -50, -16, 60, 63, 6, 3, 21, 40, 91, 59, -73, 53, 5, -63, 67, 27, -82, 1, -34, 58, -48, 10, -24, -7, -45, 11, -44, 82, 53, -29, 46, -81, -40, -42, -54, -17, 64, 10, -31, 42, 67, 28, -60, 44, -72, 73, -32, -68, 96, 52, 95, -30, -72, 82, -14, 76, -90, 74, 64, -64, 80, -66, 4, 70, -27, -81, -46, -62, 66, -41, -19, 72, -20, 17, 53, -87, 67, 19, -87, 0, -94, -59, -90, 58, -94, -61, -79, -94, 84, -4, 1, -96, -5, 6, 78, 15, -94, 0, 38, -10, -64, -31, 98, -33, 78, -55, -47, 48, -87, -73, 9, -12, -15, -12, -18, 47, 41, -89, 32, 76, -77, 80, 43, -57, 11, -21, -7, 31, 11, 44, -2, -97, 75, -83, 21, 79, 90, 70, -42, 65, -31, -85, -96, -29, -48, -32, 68, 93, -37, -91, -2, 19, -60, 24, 11, 47, 73, -7, -3, 54, 14, -30, 2, -11, -33, 31, -14, 37, 82, -39, 27, -29, -78, 64, -62, -69, 77, -58, 1, -83, -73, -3, 11, 96, 76, 56, 51, -23, -37, -38, 35, 1, -52, 75, 3, -79, 59, -96, -21, -29, 95, -94, -77, 29, -95, 19, 98, 27, -12, 1, -15, 90, 88, 33, 50, 11, 89, -7, -55, -14, -34, -95, -71, -81, 22, 28, -59, 44, 1, -40, 52, -1, -89, -98, 12, 74, 17, 10, 88, 83, 54, -78, 75, 17, -94, 48, 12, 63, -19, -36, 29, -15, -43, -65, 10, 69, -4, -45, 58, 36, -86, 6, 91, -95, -66, 35, -39, -87, -53, 32, -20, 44, 20, -40, -40, -26, 98, -41, -91, -93, 30, 78, 15, 7, 31, -2, 19, -60, -16, 17, 79, 2, 80, 0, -47, -24, 29, 36, 65, 8, -59, -51, -67, 64, 2, 91, 93, -47, -21, 45, 21, 91, 66, 51, -55, -28, -61, 32, 51, 65, 7, 58, -63, -81, -49, 67, 73, 70, -38, 10, -24, 0, -94, 34, 62, 53, -81, -70, -8, 54, 63, -55, -18, 74, 80, -64, 28, -94, -87, -8, 37, -62, 33, -58, 64, 59, -43, 54, -90, -97, 61, 13, -87, -91, -13, 27, 96, 24, -59, -67, 11, -39, -20, -98, -48, -90, -39, 54, 44, -45, -65, -81, 13, -69, 93, -12, -61, -89, -86, 61, -45, 83, -19, -13, -3, -95, -71, 6, 69, -55, -72, 75, -92, 4, 97, -31, 71, 51, -40, 22, -1, 16, -40, 43, 77, 2, 35, 5, -88, -15, -45, -65, 12, -94, -18, -10, 39, 97, 36, -42, 91, -71, -13, 66, 25, 79, -31, 22, 76, -16, 14, 94, 52, 77, -88, -43, 1, -53, -18, -53, -66, 34, -3, 52, -31, 43, -14, -42, -83, 8, 47, 93, 62, 88, -48, -10, 36, -18, -8, -82, -88, -79, 3, 94, -36, -26, 71, 22, 18, -75, 5, 42, 72, 67, 30, -35, 39, 54, 69, 70, 9, -91, 43, -52, -59, -56, -70, 52, -62, 22, 76, -28, -63, -3, -89, -63, -95, -73, -36, 55, -82, 58, 14, 13, -50, 80, -23, 91, 64, 25, 51, -29, -17, -62, -54, 47, 80, -19, 34, 11, 68, -89, -90, 89, 87, -63, 29, 60, -70, 36, 65, 68, 58, -12, 42, -45, 75, 84, 14, -20, 22, 77, -15, -93, -75, -16, -30, -81, -4, -57, 54, -34, -54, -43, -2, 26, -95, 37, -30, 41, 84, -3, 93, 11, 97, 30, -48, 87, -79, 0, 87, -27, 13, 29, -32, -84, 5, 36, -69, 23, 88, 87, -65, 42, 20, 48, 33, -62, 37, 35, -12, -10, -10, -34, 13, -51, -38, -53, -4, -37, -52, -58, -56, -21, 53, -45, -43, -56, -34, 4, 3, 11, 8, 61, 71, 87, 45, -48, -65, 75, 57, 18, 58, 0, 9, -14, -16, -31, -71, 90, 17, 8, -80, 45, 13, -11, -44, 1, -41, -18, 68, 37, 26, 88, -28, -82, 84, -16, -55, -23, 90, -26, -79, 23, -62, 82, -56, -80, 74, 0, 31, -86, -21, 56, -62, -11, 42, 25, 62, 85, 4, -21, -52, 2, 93, 76, -87, -69, -68, 41, -55, -58, 30, 84, -20, -32, -42, 41, -52, -96, 50, -60, 85, 37, -65, 11, -24, -82, 8, -65, 90, 12, 81, 55, 48, -61, -70, 52, 9, 47, -37, 96, -97, -97, 93, 63, 31, -86, 7, -41, 58, -33, -68, 66, 54, 1, 93, -9, -73, -59, 35, 7, 21, 52, 39, -16, 47, -38, -26, 18, -42, 79, 56, 11, 92, 9, 91, -98, 87, 75, 16, -1, -87, -1, -58, 46, -68, -41, 48, 26, 47, 54, -69, 11, 48, -25, 25, -2, 35, 2, 9, -11, -1, -67, -20, 68, -45, -40, 20, -25, -43, 71, 9, 1, -71, 54, 37, 5, 69, -78, 37, 26, 56, -69, 20, -68, -5, -95, 86, -34, 76, 69, 38, 30, 40, 79, -53, 13, -68, -73, -8, -60, -75, -89, -5, -70, -19, -10, -83, 74, -71, 14, 15, -9, -75, -12, 19, 35, -91, -35, 81, -76, 27, 43, 57, -4, 81, -73, -59, 88, -79, 20, 97, 53, 54, 45, -92, -35, 2, -60, 58, -62, -81, -73, 47, 59, -8, -81, 89, 24, 79, -59, -17, -39, 19, -62, 23, 87, 80, -57, -25, 64, -69, 15, -98, 86, -54, 14, -51, -63, -38, -83, 46, -43, -34, -93, -64, 74, 49, -35, 6, 73, 83, -98, 35, -72, -96, -28, 1, -40, -94, 39, -42, -19, -87, -36, 53, -32, -86, 53, -64, 84, 55, -20, -46, 27, 20, -49, 11, 5, -62, 51, -76, -80, 20, -19, 64, -88, 89, -11, -76, -22, 18, -4, -31, 78, 23, 93, -13, 35, -14, 57, -21, 33, 55, 19, -93, 19, -49, -73, -43, -47, 12, -91, 37, 67, -46, 85, -30, 42, 77, -27, -8, 65, 80, 76, 32, -55, 48, -25, 16, -82, 1, 49, -78, 81, 56, 75, -74, 30, 93, -96, -66, 53, -44, -24, 70, -70, -21, -56, -1, -38, 3, 65, 11, -11, 39, 3, 47, -29, -36, -85, -20, 36, -2, 37, -5, -87, 27, 44, 86, 47, 68, -20, 39, -94, 30, 30, -62, 52, -8, 32, -37, 4, 54, -45, 79, 62, -84, -70, -38, -45, -4, 56, -17, -51, 8, 57, 62, -39, -43, -62, -51, -25, -78, -38, 54, 51, 37, -78, 38, -59, 16, -80, 29, -17, -2, -3, 37, -7, 24, 65, -3, -71, -93, 2, 88, -2, 62, -29, -30, -38, 94, -10, -53, 55, -87, 19, -29, -30, -19, 13, -31, -10, 34, -69, -14, -34, -20, 4, 12, -91, -51, 24, -54, -77, 67, 7, -89, 12, -21, -6, 13, 77, -26, 66, -32, 84, 64, -53, -80, -52, -86, -98, 53, 6, -6, -39, -28, -48, -52, -64, -52, 78, 74, -98, 84, -10, -67, -86, -7, 17, -50, 88, 79, -79, 77, -49, 22, 33, 60, 27, 30, -44, -20, -98, -24, 56, -94, 2, -2, 1, 8, 69, -60, -54, 79, -23, 93, 70, -11, -39, 78, 22, -1, 78, 34, 8, 46, -87, 70, 94, 2, -64, -17, 57, 42, -65, -94, -23, 0, 88, -50, -19, 78, 54, -87, -80, -15, 65, -88, -58, -22, -72, 0, 42, 46, -12, 71, 91, -58, -23, -11, -65, 24, 39, -17, -8, 45, 29, 98, 0, 14, 96, 32, -61, -40, 94, 90, 47, -6, 65, 38, 49, 84, 76, -40, 75, 66, 56, -96, 72, -84, 18, 69, 42, -44, -23, -16, -4, -55, -14, 38, 83, 35, -67, -73, -40, -17, -68, -95, -75, -85, -19, 63, 41, -15, 55, 45, 1, 28, -43, -8, -49, -69, -55, 76, 28, -78, 29, -34, 3, 56, -15, 76, -44, 92, -58, 36, 75, -34, 12, -83, -91, 54, 85, -79, -87, -5, 51, -95, -96, 61, 5, 22, 91, -45, -67, 97, -12, -95, -64, -43, -29, -2, -6, -1, -98, -31, -37, -51, -68, -26, 37, -80, 64, 4, -10, 77, 53, 10, -85, -60, -12, 90, -60, 69, -19, 20, 74, 92, -17, 94, 8, 57, 59, -2, -51, 10, 93, 46, 72, 39, -84, 34, -67, -41, 29, 69, 4, -74, 34, 29, 86, -80, -93, -38, 16, 83, 57, -94, -53, -33, -5, -82, -60, 28, 86, -63, -75, 94, 29, -73, 37, 87, -82, 65, -6, 90, 64, 16, 67, -64, 42, -15, -68, -82, 51, 49, 73, -34, -75, 64, -24, -28, 59, -20, -95, 18, -58, 48, -74, 98, 20, 83, 60, 89, 42, 7, 86, 47, 35, 45, -43, 36, 44, -91, 64, 84, 27, 19, -58, -11, 34, -78, -41, -76, 14, -70, -61, -95, -53, -45, 38, -93, -24, 87, -23, -93, 67, 13, -12, 84, -68, -50, -12, -3, 62, 77, -90, -29, -89, -89, -82, -65, -30, -15, 65, -18, 68, 81, -21, -34, 15, 11, -52, 31, 1, 16, -13, 11, -22, 47, 63, 87, 48, 19, -63, -60, 72, 12, -46, 0, -31, 1, 89, 56, 66, 25, 88, -65, -6, 31, -34, 29, -2, 24, -93, 33, -33, -60, 91, -28, 80, -90, -98, -19, 80, -84, 60, 45, -21, 90, 75, -34, 89, 83, -87, 3, 80, 8, 31, -79, -66, 12, 3, -39, 88, -76, 51, 8, -85, 97, 10, -92, 75, 38, -82, -50, -9, 90, -20, 47, -31, 41, 58, -62, -11, -3, 65, -8, 35, -20, 62, 35, -55, -45, -84, -75, 38, 51, 12, 44, -13, 91, -67, 18, -23, 84, 89, -48, 48, 15, 76, -4, 33, 20, -4, -81, -20, 77, 34, 49, 8, -74, -6, -74, 55, 30, -64, -15, -92, -27, -60, 50, -24, 26, 77, 88, -82, -49, 13, 66, -97, -49, 93, -40, -48, 76, -34, 48, -8, 23, 68, 52, 47, 72, 33, 79, -88, -88, 52, -4, 96, -59, 23, 45, 82, -51, -67, 66, -66, 6, 3, -78, 34, 72, -50, -85, 14, 49, -33, -6, -27, -14, 82, -97, -22, 84, 45, 9, -29, 69, -16, 47, -3, 37, -78, 43, -38, 91, 45, -1, 97, -62, 41, 78, 28, -50, 25, 42, 84, 61, -39, 48, 42, -11, 24, 40, 95, -96, -86, -71, 41, 97, -85, 5, -31, 21, -4, 6, 75, -70, -27, -60, 52, -82, -72, -33, 95, -96, 64, -22, -73, 92, -70, 72, -37, 8, -11, 74, 94, -28, -17, 37, 86, 55, 84, 36, 38, -76, 23, 38, -14, 88, 70, -7, 11, 47, -78, -90, -34, -13, -70, -46, -88, 48, 6, 65, -31, -61, -67, 7, -20, 1, -93, 17, 2, -65, -54, -20, -98, 28, -63, -89, -14, 59, 88, 57, -25, -6, 26, 14, 93, -87, 82, -16, -54, 30, 81, -16, -93, -11, 67, -56, 55, 42, -90, 74, -66, 97, -91, 40, -98, -82, -88, -66, -28, -56, 29, -27, -6, -4, -71, -94, -38, -18, 15, -55, -37, 14, 43, -86, -70, 56, -28, 15, 55, -6, -61, -14, -26, 67, 74, 67, -21, -72, 58, -36, -66, -67, -10, 15, 65, 4, 93, 1, 50, 5, 26, 63, -21, -91, 15, 35, 19, -69, -76, -35, 0, -9, 26, -74, -42, -40, 80, 33, 61, 72, -16, -5, -13, -18, -44, -95, -68, 90, -82, 64, -48, -66, -64, 75, -82, 43, 59, 16, 48, -73, -72, 98, 38, -87, 62, -14, 75, 28, -10, 74, -55, -21, -80, 16, 15, -31, 78, 94, 32, 93, -78, -44, -8, -56, 73, 5, 14, -93, -65, 9, -54, -60, 49, 29, -30, -79, 79, 34, 88, 58, -94, -84, 42, 14, 53, 56, 29, -54, -87, 73, -35, -18, 82, -24, -61, 10, -9, -52, 39, -78, 94, 86, 69, -91, -76, -41, -84, 64, 0, 32, -53, 78, 49, -83, 8, -23, -16, 44, -84, -38, -56, -36, 90, 57, 39, 11, -29, -96, -30, 26, -10, -41, 43, 58, -2, 85, 94, -16, 58, -81, 2, 81, 21, 68, 14, -61, 0, -80, 41, -95, -71, 80, -66, -69, 90, -11, -38, 85, -44, -73, -9, 5, -82, -57, 12, -19, 85, -26, -64, -79, -3, 18, 26, 12, -74, 14, -59, 71, -16, -8, -81, 43, -30, -69, -49, -70, -24, -92, -1, -95, 96, -61, -64, 38, 40, 18, 24, -81, 20, 77, 41, 90, 42, 29, 1, 70, -83, -82, 47, -4, 8, 70, 39, 6, 20, 68, -34, 27, 12, 68, -77, 81, -49, -5, -22, 73, 40, -35, -53, -37, 52, 40, 85, 32, -23, -10, 81, 83, -96, 41, -93, 59, -4, -70, -92, 2, 17, -34, 11, 33, -68, -27, 51, 67, 43, 3, 49, -98, 48, -32, 78, 32, -81, 48, 26, 10, -17, -81, 19, -87, -62, 73, -18, 28, -46, -85, -76, -97, 20, -24, -87, -35, 47, 4, 98, 1, 32, 28, -50, -27, 47, -55, 33, 3, 82, -49, 85, 63, -60, 34, -52, -77, 79, 73, -52, 54, 25, 77, -66, 85, 56, -45, 76, -20, -87, -81, -86, -86, 23, -60, 24, -30, 52, -89, -76, -63, -83, -60, -32, 89, -22, 45, -40, -3, -95, -12, 36, 2, -27, 2, 41, -90, -40, 60, 13, 38, 10, 11, 37, 94, 15, 24, 45, 73, -61, 48, -39, 38, -83, -77, -88, 31, 46, 13, -50, 40, -84, -84, -39, -27, 19, -22, -61, 65, 52, -1, 52, -15, -61, -12, 43, 25, 63, 33, 8, -13, 21, 29, -59, -4, 44, -97, -6, -86, 64, -43, 52, -1, 81, 44, -42, -18, 83, 3, 76, 3, 96, -21, -24, 70, -46, -86, 2, 94, 97, -51, -67, -14, -31, -3, -56, -82, -23, 36, -58, 65, 69, -85, 74, 56, 14, -22, 94, -13, -91, -6, 60, -88, 89, -18, 12, 72, -64, -5, -84, 28, -33, -29, -42, -44, -91, -69, -38, -5, 56, -66, 77, 74, -4, -9, -47, -1, -21, -83, -91, -90, 38, -67, 10, 74, 36, 37, -76, -13, -55, -47, 2, 95, 23, -90, -17, 48, 83, -21, -34, 8, 28, 34, 64, 70, 53, -57, -34, -10, -71, 18, -68, 85, -73, 11, -13, -54, -49, 14, 24, 73, 37, -88, -60, -98, 21, -49, 11, -16, -24, 88, 74, 27, 47, 28, -5, -77, -36, -37, 14, -97, 32, 65, 84, -45, 56, 73, 27, -24, -47, 9, 37, -66, -43, 98, -92, -34, 59, -54, -50, 14, -94, 28, 60, 35, -17, -5, 46, 33, -45, 51, 25, 29, -47, 11, 17, -30, -19, -31, -90, -86, -84, -88, -71, -60, 41, -77, -43, -3, 30, -1, 39, 12, 72, 78, -1, 32, -23, -53, 53, -4, -68, 53, 22, -24, 10, -40, 76, 17, -45, -50, 39, -16, 51, 54, 31, 3, 24, -93, -73, -84, -20, -73, -46, 45, -65, 49, -79, -30, -67, -27, -16, 94, 85, -81, -47, 17, -64, 89, -17, 76, 76, 15, 48, -61, 35, 18, 9, -22, 43, 12, -71, 54, -86, 48, -20, -74, 38, -66, 25, 45, 92, -34, -30, -67, 70, 9, 9, -20, -85, 75, 29, 73, 55, -66, 39, 33, 75, -91, 59, 26, -32, -68, 74, -28, -59, 7, 75, 54, -53, 24, 37, 91, 28, -33, 46, 8, -98, -77, 69, -59, -32, -48, -16, 2, 76, -75, 29, -35, 34, -21, -29, 88, -44, 38, -82, 89, -81, -49, 71, 38, 52, -66, -93, 74, 77, 95, 94, -34, 49, -20, -7, -42, 41, 6, 73, 71, -11, -22, 23, -34, 54, 80, 82, 35, -71, -39, 51, 73, 69, -5, -24, -60, -50, 90, -33, 76, 25, 97, -93, 49, 10, -60, 82, 82, -43, -19, 37, 73, 28, -62, -45, 50, 75, 65, 21, -62, 88, -7, 49, 79, 56, -73, -21, -4, -45, 44, -76, -20, 98, -84, 1, 86, -58, 13, 48, 69, -68, -76, 90, 90, -65, -12, -1, 92, -40, -87, 98, -1, -18, 47, -58, 84, -5, 1, -14, 92, -87, 71, 5, 27, -69, 71, 5, -27, -75, -14, -98, 11, -89, 91, -23, 37, -9, 65, -23, 57, 77, -67, 17, -98, 81, -18, 64, 29, 6, -47, 39, 74, 35, 49, 54, -81, -65, 21, -44, 87, -90, -57, 67, -26, -48, 39, 65, -79, 95, -89, 81, -19, -9, 39, -12, 41, -83, 44, 0, 82, -80, -21, -48, -57, 98, -10, -35, 19, 88, 96, 34, 44, 30, -59, 65, 33, -25, 89, -29, 6, -50, 2, 18, 84, -86, -38, 52, 3, -69, 27, 52, -60, -12, 79, 54, 23, -42, 80, -34, 78, -17, 31, -91, -59, -4, -6, -74, 66, 26, -92, -85, 28, 8, -25, 75, 58, 39, -60, 96, 40, 73, 88, 90, 56, -46, -31, 60, -98, -87, -21, 40, 75, -71, 48, -63, -20, 59, 41, -81, -59, 23, 20, 79, 92, -96, -43, -31, 98, 59, 14, -46, -81, -36, 19, 44, 53, 84, 87, -92, 21, 95, 35, 73, -56, -66, -72, -18, 61, -92, 43, 53, 36, 53, 92, -17, 63, -61, 27, -75, 67, 76, 26, -63, -13, -75, 4, -46, 70, 44, 44, 1, 50, -54, 4, 39, 40, -10, -66, 19, -57, 51, 2, -25, -59, -30, -81, 96, 65, 19, -58, -87, -85, -25, 28, 11, -94, 15, 56, 66, -89, 77, -5, 25, -91, 50, 33, 98, 71, 9, 74, 6, 23, -53, -9, -81, 58, 91, 96, 73, -79, -78, -19, -2, -23, -72, -30, 90, 35, -46, 11, 86, 85, 73, 41, 56, -27, -29, 27, 30, -93, 69, -49, -63, -26, 17, 37, 10, 24, 11, 73, 52, -50, -49, -34, -97, -27, 60, -86, -97, 44, -57, 1, 92, -76, -67, -62, -64, -38, 72, -55, -25, -69, 31, 25, -33, 11, -48, -77, 31, -72, 2, 84, -91, -93, -10, -80, 66, 94, -65, 90, -76, -75, -4, 75, 51, -7, -14, 37, 16, -13, -58, 37, -17, -23, -31, 51, -47, -45, 21, 53, 37, -17, 33, 64, 11, -24, -50, 6, 72, 42, 70, -69, 29, 84, 44, 85, 79, 4, -82, -62, -22, 76, 20, 96, 0, 47, -95, -32, 35, 0, -87, 39, -84, -91, -53, -82, 62, 52, -34, -1, 32, 3, -77, 23, 8, 39, 14, 13, -76, -9, 32, 23, -23, 33, -19, 48, 67, 56, 51, -81, 92, -79, -25, -56, -3, 34, -37, -40, 90, 76, 46, -35, 13, -46, 57, 29, -68, -35, -61, -91, 94, -60, -28, -2, -12, -73, -25, 8, -84, -51, -51, 51, -55, -73, 6, -48, -20, -75, 77, 16, 6, 84, -78, -29, -21, 54, -8, 10, -58, -24, -24, -86, 57, -24, 96, -61, 79, 84, 96, -58, 19, 21, 37, 74, -18, 23, 95, -62, 68, -80, -74, -37, -14, -49, 32, 90, 24, -98, -97, -96, 16, 89, -59, 92, -51, 44, 89, -98, -16, -76, -17, 29, 58, 84, 48, 50, -76, 56, 78, -36, -18, 85, 64, 61, -84, -83, 94, 77, 2, 68, -39, -87, -50, 78, -82, -15, 2, 38, -39, 77, -48, 82, -98, 32, -43, 68, 64, -76, -46, -94, 21, 51, 32, -86, -77, -39, -23, 49, 61, -22, 22, -74, 84, -31, -31, 63, -53, 45, -60, -78, 21, 67, 57, 14, 86, -74, 42, -94, 45, 57, 44, 43, -16, -44, -89, -83, 31, -63, 37, -42, -20, -1, 22, -59, 32, 56, 17, 20, -73, 12, -86, -61, 37, 28, 63, -89, -72, 92, -75, -1, -11, -71, -37, 21, -96, 56, 51, 15, 67, -13, 14, -7, 45, 16, -53, 47, 62, 54, -85, 49, -19, 21, -19, -49, -56, -76, -37, -41, 70, 40, 65, 29, 53, -24, 52, -93, 78, 61, -43, -44, -60, 51, -23, -15, -25, 98, 91, -23, 13, -41, -22, 52, 39, -15, -4, -64, -12, -33, 55, 20, 83, -10, 9, 26, 7, -77, -79, -53, -46, -80, 55, 25, 73, -70, 1, 78, -51, -55, 7, 1, 5, -95, -54, 65, -69, 48, -44, 98, 64, -65, -64, 80, -28, -12, 49, 96, -14, -54, -86, 58, 15, 82, -89, 60, -77, -54, -45, -12, -53, 65, -94, -44, 61, -18, -66, 43, 42, 65, -34, -49, 48, 10, -23, -36, 70, 22, -33, 31, -47, -90, 84, -48, 23, 34, 12, 59, -84, 93, -16, -86, -85, 83, 79, 60, 58, 22, 94, 70, 30, -51, 92, -3, 65, -80, 26, 40, 69, -40, 59, 39, -90, 75, -75, -31, -70, 32, 41, 67, 91, 56, 10, -7, 76, 30, 43, 16, -20, 79, -20, -92, -93, -17, -19, -11, -83, 96, -93, 25, -40, 88, 41, 51, -98, 48, -40, 48, 81, -57, -44, -54, -36, -32, -70, 6, 89, -15, 32, 43, 51, 96, -74, -9, 37, 64, 10, -19, -3, 82, 43, -49, -18, -20, 80, -30, -16, -76, -73, 8, -26, -14, -98, 21, -95, 26, 13, -56, 6, 74, 90, -36, 3, -20, 76, 34, -18, 48, 6, -24, -20, -17, 47, 9, -34, -98, 20, -71, -49, 79, 16, 20, -24, -60, -77, 21, 49, 5, -80, 85, -67, -91, 25, -10, 59, -46, 49, -36, -78, 41, 44, -49, -39, 95, 96, -59, -57, -35, 10, -84, -83, -70, -72, -37, -81, -7, -4, -35, 7, -24, -29, 35, -15, 11, -81, 98, 30, -19, -28, 86, 76, -41, -13, 85, 80, 19, 60, -59, 82, 42, -24, 45, 50, -90, -76, 74, -14, -27, -32, -7, 17, 78, -63, -80, -96, 96, -51, 17, -36, -75, 81, 83, 15, -54, -4, -60, 0, -45, 37, -39, 40, 22, 6, -44, -5, -43, 70, 71, 49, 19, -22, -88, -64, -68, -64, 71, -83, -64, 1, 49, -21, -19, 9, 29, -89, -14, 86, -81, 34, -20, -7, -10, 12, 73, 71, -17, -80, 73, -7, 73, -61, -62, 53, 14, -69, -45, 36, -71, 52, 83, 50, -71, -42, -23, 50, 10, -87, 1, 27, 85, 25, 55, 58, 81, 92, -76, 72, 29, 96, 65, 74, -31, 2, -82, 24, -14, 98, 95, -2, -19, -58, 92, 17, 62, -13, -36, 59, 8, 64, -43, 65, 23, 40, 76, 92, -95, 79, 64, -83, -37, 43, -97, 71, -68, 96, -95, 0, -28, -22, 55, -90, 53, -14, -49, 8, -67, -30, 68, -87, 4, 88, -34, 66, -45, -31, -77, 65, -37, -58, -29, -59, -22, -84, -78, 97, -96, 51, 93, 79, 59, -21, 4, -67, -73, 68, 75, 65, -24, 68, -59, 48, -96, -55, -34, 33, -42, -93, 39, -7, 37, -33, 43, 31, -45, 16, 24, -48, -5, -88, -18, -33, 89, 65, 1, -91, 97, 20, 53, 76, 66, 7, -7, 41, -63, -28, 59, -88, 53, -24, -67, 49, 4, -47, 23, -63, 45, 76, 65, 52, -10, -94, -1, -8, -46, 4, 77, -80, -9, -57, 3, 40, -36, 91, 3, -32, 49, 94, -85, -61, 74, -96, 18, 76, 6, 98, 13, -34, -57, 35, 9, -83, 75, -86, -93, -94, -41, 91, 45, 62, -37, 19, -18, 38, 49, -66, -20, 36, 80, -34, 60, -25, -44, -73, 18, 10, 78, 96, 19, 76, -66, -65, 93, 79, -69, 54, -23, 91, -38, 70, 82, -47, 69, 97, 15, 38, 24, -80, 38, -94, -40, -21, 2, -90, 19, 97, -51, -70, 85, -2, -35, 51, -88, 37, 56, -20, -55, 13, 48, -17, 58, -59, -62, -50, -86, -27, -2, -76, -91, 71, 70, 27, 41, 35, 6, 0, -8, 42, -96, 83, -70, 65, -44, 57, -5, -4, 21, 75, -29, -43, -51, 85, -29, 44, -85, 0, 94, 91, -74, -6, -35, -88, -22, -50, 72, -8, -18, 69, -3, -76, 91, -4, -50, -10, 25, -58, -36, 43, 38, -91, -98, 52, 66, 80, 0, -3, -80, 40, 47, -31, -9, 72, -73, -5, -73, -31, -60, -27, 83, -95, -67, -68, -39, -28, -41, 86, -19, 15, -89, -34, 31, 25, -24, 73, 88, -82, 53, 57, -86, -66, -33, 22, -44, -68, -6, -11, -90, 20, -72, 29, 13, 64, -80, 94, 16, 94, 42, -91, 79, 65, 8, -64, -18, -16, 17, 43, -82, 18, -84, 14, -56, -23, -5, 21, -72, -23, 48, 26, -62, -53, -9, 22, -63, -16, 24, 41, 11, -2, 43, -70, -10, -16, -95, -84, -33, -74, 46, 55, 56, -12, 8, 21, -25, -51, -51, -59, 35, 65, 46, -51, -67, 10, 56, 68, 93, -1, -88, -58, 64, 65, 16, 8, -59, -27, 66, 74, 21, 34, -69, -78, -61, 78, -73, -35, 62, 69, -53, 90, 32, 12, 78, 24, -29, 24, -95, -89, -64, 36, -97, 55, 82, -17, 43, -86, -6, 67, 98, 26, -36, 78, -58, -53, 36, -25, 68, -41, -9, 49, -68, 72, -47, 34, -20, -27, 45, 9, 25, -96, 40, 28, -3, -82, -97, 1, -95, -17, 0, -13, 60, -3, 33, -62, 20, 95, -31, -84, -56, -91, -22, 1, 70, 74, -33, -19, -45, 46, -49, 23, 95, -91, -32, -25, -75, -47, -36, -76, -17, 43, -65, -63, -10, -80, 74, 65, 47, -57, -71, 57, -75, -66, 27, -97, -72, 73, -11, -60, -13, 75, -56, 19, -65, 85, 39, 81, -24, -82, 14, 53, -61, 95, 62, -16, -15, -28, -53, -64, 93, 19, 55, -46, 88, -60, 58, 81, -25, 18, 94, -91, 15, 45, -83, 70, -91, -90, -28, -56, -24, -58, 8, 27, 36, -46, 30, 83, -79, -15, -40, -16, 80, -34, -35, 15, 32, -38, -72, 65, -15, -33, -66, 89, 25, -8, -84, -4, 25, 78, -75, 44, 54, 57, -5, -26, 94, -95, 80, -50, 76, -39, 25, 17, -60, 0, 78, 75, -84, -74, -93, -90, 87, 57, 17, 10, -28, -10, -14, 74, 63, -22, 43, -54, 31, 61, -31, -34, 29, -14, -84, 66, -22, -88, 66, 27, -82, 98, -49, 72, -95, -2, -60, 48, 93, -3, 36, 3, 47, 18, -91, -60, 53, 70, 47, -35, 47, -44, 95, 21, -90, -5, 64, 39, 26, 58, 9, 96, 47, 97, -6, -13, 44, 92, 64, -5, -20, 84, 62, -87, 64, -47, 22, -74, -28, -49, -10, 64, 36, -73, 43, -83, 92, 41, -38, -17, 90, 1, 72, 69, -46, -73, 91, -10, -70, 71, -52, 4, -34, -33, 44, 94, -75, -57, -62, 69, -27, 13, 83, -5, -88, 34, -69, 43, 26, 38, -16, -79, 46, -90, -16, -28, 75, -74, 94, -5, 75, 69, 62, 62, 88, 32, -50, -56, -90, 96, 81, -93, 85, -45, 65, -8, -96, 9, 91, 69, 77, -46, 80, 9, 88, -77, -74, 93, -68, 1, -69, 70, -53, -49, -91, 44, -82, -53, -58, -78, -82, -74, -89, 1, -65, 87, 84, 50, 18, -52, -5, 77, -22, 69, 41, -49, 21, -29, 67, -14, -94, 91, 12, -16, -31, 34, 7, -98, -82, -44, 85, -40, 2, -93, -39, -54, 41, -97, 97, -67, -33, 4, 62, 22, 20, -15, -67, 26, -55, -57, -46, 32, 30, 42, -39, 98, 31, 3, -85, -81, 33, 24, -56, -68, 50, 63, 1, 98, -2, 20, -57, -34, 46, 93, 7, -22, 26, -95, -64, 69, 67, 81, -91, -34, 50, -26, -36, -3, 28, 80, 60, 34, 67, 14, 27, -26, 71, -47, -22, -21, 64, 33, -35, -91, 10, -62, 94, -48, -71, 13, 57, -36, -58, 60, 27, -39, -37, -67, -10, 60, 48, 36, -21, -93, -29, 49, 59, 30, 18, 31, 9, -80, -25, -82, 40, -17, 78, -23, -75, 98, -72, -4, 96, -55, 13, 24, 60, 91, 74, 54, -61, -60, 34, -47, -27, 69, -33, -78, -31, -95, 73, 31, 7, -17, 96, 79, -5, -2, -26, 57, 32, -17, -73, -1, 24, 43, 29, 2, -75, -88, -14, 24, 37, -94, 58, -67, -15, -85, -70, 24, 41, -55, -21, -26, -43, 29, -40, 67, -88, -58, 20, 52, -25, 31, 96, -93, 32, -59, -56, -66, -76, -30, 16, -21, -64, -63, 22, 82, 94, 57, 57, 49, 98, 65, 44, 90, 98, -56, 12, -94, -33}

#define CONV2D_KERNEL_0_SHIFT (11)

#define CONV2D_BIAS_0 {-22, -62, 5, -24, -99, 94, 7, -5, -25, 41, 30, 94, 56, -84, 77, 27}

#define CONV2D_BIAS_0_SHIFT (8)


/* output enconding for each layer */
#define INPUT_1_OUTPUT_SHIFT 7
#define CONV2D_OUTPUT_SHIFT 5

/* bias shift and output shift for each layer */
#define CONV2D_OUTPUT_RSHIFT (INPUT_1_OUTPUT_SHIFT+CONV2D_KERNEL_0_SHIFT-CONV2D_OUTPUT_SHIFT)
#define CONV2D_BIAS_LSHIFT   (INPUT_1_OUTPUT_SHIFT+CONV2D_KERNEL_0_SHIFT-CONV2D_BIAS_0_SHIFT)
#if CONV2D_OUTPUT_RSHIFT < 0
#error CONV2D_OUTPUT_RSHIFT must be bigger than 0
#endif
#if CONV2D_BIAS_LSHIFT < 0
#error CONV2D_BIAS_LSHIFT must be bigger than 0
#endif

/* weights for each layer */
static const int8_t conv2d_weights[] = CONV2D_KERNEL_0;
static const nnom_weight_t conv2d_w = { (const void*)conv2d_weights, CONV2D_OUTPUT_RSHIFT};
static const int8_t conv2d_bias[] = CONV2D_BIAS_0;
static const nnom_bias_t conv2d_b = { (const void*)conv2d_bias, CONV2D_BIAS_LSHIFT};

/* nnom model */
static int8_t nnom_input_data[16384];
static int8_t nnom_output_data[16384];
static nnom_model_t* nnom_model_create(void)
{
	static nnom_model_t model;
	nnom_layer_t* layer[3];

	new_model(&model);

	layer[0] = Input(shape(32, 32, 16), nnom_input_data);
	layer[1] = model.hook(Conv2D(16, kernel(9, 9), stride(1, 1), dilation(1, 1), PADDING_SAME, &conv2d_w, &conv2d_b), layer[0]);
	layer[2] = model.hook(Output(shape(32, 32, 16), nnom_output_data), layer[1]);
	model_compile(&model, layer[0], layer[2]);
	return &model;
}
