#include "nnom.h"

#define GROUP_CONV2D_KERNEL_0 {-84, -89, -78, -93, -46, 36, 0, 2, -62, 114, 25, -102, -18, 101, 53, 76, -109, 6, -83, -37, -80, -39, -85, -58, 44, -16, -5, 30, 72, -112, -41, -79, -7, -1, -21, 67, 39, -37, -48, -23, 104, 9, -88, -19, 22, 13, -112, 62, -7, 19, 10, 71, 53, -99, 38, -60, 12, -51, 79, -52, -4, -85, 114, 46, -78, 108, 93, -87, -31, -89, -110, -68, 91, 106, -93, 8, -34, -71, -13, -61, -49, 75, 29, 52, 107, 7, 58, -34, -26, 8, 46, 26, 25, 70, -9, -106, -107, 19, 80, -64, -43, 27, 101, -95, -21, -54, -111, 79, -70, 107, -10, 36, -23, -7, 113, -34, 0, -25, 40, 40, -81, -112, -47, 102, -29, 2, 38, 88, -47, -61, -92, 113, -87, 44, 33, -54, 94, 28, 45, 61, -70, -44, 107, 114, 91, -43, -10, -105, -57, 43, -48, 80, -25, -41, 58, 73, -96, 38, 38, 45, 95, 27, -36, -33, 48, -45, 27, -110, 52, 53, -2, -78, 51, 106, 31, -30, 72, 55, 44, 40, -113, 11, -9, 2, -63, 14, 13, -28, 34, 85, 111, -77, -82, -1, -31, 50, 24, -18, 23, 106, 79, 55, 65, -7, -45, -77, 47, -21, -78, -38, 34, 83, -64, -90, 68, -30, -21, 83, -3, 76, 4, -92, -98, 101, -108, -82, 50, 4, 29, -90, -60, 5, 10, -36, -17, 12, 98, 16, 72, 17, -56, -63, 56, -69, -15, -106, -26, 25, -45, 102, 83, 38, -13, 97, 55, 81, -101, -23, -30, -53, -9, -6, 1, -84, -106, -74, 16, -68, 3, -20, -13, 37, -102, 105, 104, -36, -57, 8, -81, 2, 7, -63, -42, 86, -5, 24, 48, -32, 22, -113, 35, 73, -45, -108, 83, 100, 101, -8, -41, -63, -108, 112, -63, 69, 89, 78, -82, 61, 102, -2, -84, 41, 104, -75, 72, 1, 4, 50, 59, 110, 29, -49, 30, 33, -4, 37, -5, 91, 14, 40, 31, -57, 34, 69, 111, -1, 28, -94, -32, -50, -41, 3, -49, 76, -58, 95, -90, -15, -99, 94, -10, -78, -50, -17, -90, 105, -53, 9, 10, -50, -5, 78, -55, -23, -72, 61, 70, 27, 73, -106, 62, -14, -19, 57, -64, -87, -74, 62, 82, 50, 25, -88, 89, -3, 53, -83, 7, -53, -4, -66, 17, -53, 44, -75, -73, 92, 39, 33, -100, -82, 27, 22, -14, 92, 112, -77, -40, -46, 36, 101, 32, 12, 20, 66, -112, -14, -70, 68, 86, 86, 44, -105, -8, 37, -93, 76, -50, 105, -53, -64, -42, 90, -34, 14, 102, 47, 92, 65, -87, 82, -63, 114, 73, 49, 101, -97, 33, 20, 56, -95, -89, 84, -47, 71, -77, 15, 104, -18, -103, -98, 98, 19, -59, 63, -28, -93, 79, -66, -106, 12, -44, 69, 22, -7, 39, -79, -12, 104, -54, 42, -23, -45, 28, 0, 95, 104, -93, -43, 10, 15, -110, -69, 18, 66, 47, 110, 3, 98, 27, 49, -88, 46, 26, 68, -104, 55, -35, -23, -89, -44, -50, 41, 63, -37, 111, -89, -61, -70, 77, -97, -30, -108, 88, -39, 92, -15, 48, 63, -62, 10, -59, 39, 50, -34, 83, 23, -77, 11, -61, -111, -10, 2, 103, -9, -30, 85, 93, 66, -8, 12, -50, -54, 95, 78, -94, 69, 9, 63, -34, -79, 102, -26, -74, 86, -1, -71, 67, 98, 64, -108, -34, 39, -54, 21, 50, -99, -102, 15, -21, -20, 32, -66, -61, 19, 1, -100, -112, 112, -93, 89, 59, -19, -87, 79, 0, 55, 2, -103, -39, -10, -27, 8, -79, 19, 88, -97, 83, -48, -23, 17, -70, -83, -89, -93, 43, 83, -63, -110, -30, 23, 22, 95, 86, -1, -9, 29, 80, 27, -112, 4, 113, -66, -105, -105, 8, -40, 48, -6, -2, 10, -25, 71, -35, 38, 17, 5, -23, 66, -66, 102, 82, -63, 55, 17, -57, -3, -76, -107, -80, 104, 92, 4, -64, 8, 69, -74, -101, 32, -86, -14, 50, 41, 59, -29, -93, -110, -100, 4, 88, -13, 81, -19, -108, -16, -103, 79, -79, -62, 24, -12, -10, 45, -105, 51, -49, 17, 10, -45, -50, -92, 96, 34, 108, 55, -57, 33, 72, -22, 80, -22, 112, 83, 35, -1, -15, 35, -108, 87, 100, -3, -4, -5, -55, 85, 16, -33, -105, 26, 44, -21, -16, 65, -20, 2, 12, 57, -79, 28, -14, -84, -16, 2, -74, 82, 29, 53, -14, 88, -61, -43, 55, -80, 53, -30, 26, 84, -31, -71, 30, 73, 51, -64, 12, 10, -16, 79, 39, -44, -9, -69, -51, -69, -67, -78, -90, 106, -100, -64, 19, -59, 66, -69, -30, -72, -51, -49, 29, -34, 39, -68, -15, -64, 78, -23, -109, 66, 41, 55, -65, -77, 88, 84, -17, 6, -52, 89, 76, 76, -57, -87, -105, -8, 40, -74, -22, 107, 111, 27, 45, -16, 80, 78, 5, 97, -95, -74, -27, -85, 88, 54, 35, 96, -5, -25, 76, 104, -16, -96, 73, -56, 99, 95, -6, 54, 23, 80, -84, -8, -36, -19, -30, 99, -21, 111, 78, 65, 26, -58, 9, 88, -1, -12, 113, 101, -88, -26, -97, 10, 69, -13, 12, -61, -46, -80, -22, -41, 25, -71, -103, 34, -44, -73, -30, -39, 71, 76, 93, 88, -59, -28, 38, -7, -13, 101, -2, 2, -69, -108, -80, 109, -93, 106, -44, 88, -61, 36, -66, 85, 17, 7, -109, 97, 46, -67, -67, 96, -15, 28, 20, 59, 63, 81, -72, 18, 93, 64, 101, 57, -75, 89, -36, 107, 67, 27, -14, -96, -46, 57, 32, 95, -5, -24, -77, 21, 26, -26, 39, -86, -78, -32, 79, 104, -102, -60, -49, 34, -8, 19, -75, 114, 101, -82, 90, -61, -12, -84, 54, 73, -34, 69, 81, 89, 36, 27, -8, 60, 71, 3, -64, 69, 43, -92, -94, -32, 65, 7, 84, -105, -101, 72, -107, -98, 37, -74, 77, -22, 70, 29, -83, -1, -80, -64, 35, 98, -63, 66, 14, -89, 35, 72, -91, 66, -43, 28, 100, 47, 69, -65, -95, -89, 63, -103, -20, -32, 84, -33, 40, 63, 67, -24, 55, 57, 43, 96, 93, 3, 106, 6, -8, 64, -2, 79, 78, 107, 101, 72, 105, 75, -61, 111, -11, -107, 97, -19, -112, 7, 1, -74, 16, -83, 108, 95, -56, 13, -16, -97, 29, -2, 57, 80, -54, 63, 10, 104, -27, -61, 54, -21, -76, -79, -83, -63, 37, -87, 90, -105, 84, -28, -15, -101, 44, 25, -70, -70, 77, 106, 79, 96, -80, -39, -108, 106, 92, 93, 110, -69, -91, -34, 113, 26, -55, -60, 109, -106, 37, -66, -56, -1, -73, 16, 80, -70, 47, -93, -95, -39, 104, 113, 104, -50, 112, 56, 85, 78, -23, 3, 13, -36, -20, -103, -111, -6, 49, 99, -94, -75, -68, -82, -46, 40, -91, -52, 94, -40, 106, 102, 31, 63, 30, 75, -57, -28, 37, 84, 89, 67, -67, -91, -58, 39, -49, 47, 26, -84, 97, -20, -37, -75, 80, -70, 105, -94, 74, -2, -72, 68, -74, -95, 28, -79, -9, 69, 83, 102, 89, 45, 10, -21, 31, 79, 108, 30, 7, 98, -81, -106, -63, 26, 3, 47, 85, 19, -9, -38, -16, 54, 26, 47, 50, -95, 101, 74, 89, 46, -95, -52, -85, 75, -83, 98, 100, -91, 95, -95, -47, 70, -87, -90, 87, -36, 6, 111, 107, 9, -84, -85, 104, -19, 21, 32, -33, -56, 56, 85, 9, -21, -29, -4, 32, -31, 33, 66, -88, 46, 52, 81, 90, -113, -19, 4, 88, -103, -44, -36, -87, -70, -19, -87, 99, 61, 84, 78, 82, -112, -35, -69, -53, -18, -58, 18, -68, 97, -84, 91, -17, -80, 89, 22, 2, -105, -21, -33, -95, -4, 103, -9, -88, 5, 93, 38, 81, -42, 69, 13, 106, 15, 12, 71, -112, -8, -8, -10, -87, 111, 59, -49, 84, 29, 40, -77, -46, 112, -113, -79, 5, -34, 46, 108, -107, -61, -96, -54, -36, 23, 66, -8, 113, -61, 2, -71, 3, -55, -5, 91, -89, 98, -48, 10, -98, 78, 80, -107, -30, 5, 18, 20, 90, 49, 99, 108, 107, 36, 53, -10, 85, -64, -103, -64, 11, -74, -32, 95, 88, 22, 14, 11, 24, 96, 5, -84, -45, -25, -109, -92, -7, -92, 39, -112, -81, 92, -29, -49, -95, 0, 38, 57, -11, 43, 80, 16, -36, -22, 19, -99, 43, -56, 33, 7, 4, -83, -39, 76, -17, -1, 96, 45, -41, -88, 108, 35, -7, -56, 111, -25, -71, 36, 87, -20, -101, 103, -37, 70, -25, -16, 35, 80, -84, -73, -41, 72, 12, 76, -110, -10, 53, 27, -87, -100, -57, -88, 76, -57, 89, 68, -40, 6, -22, -35, 107, -70, 32, 65, -91, 97, 90, 37, -28, 22, -50, 91, 112, -85, -77, 11, 55, 109, -4, 6, 39, 108, -25, -58, 55, 69, -60, -101, 95, -73, 98, -42, 23, 18, 37, 91, -68, 3, -84, -4, -87, 1, -3, 57, 48, 64, -72, 71, -14, -21, 86, 39, -3, -63, 5, 4, -12, -40, 25, -90, 5, -18, -31, -50, 97, -46, -3, -17, -36, 48, 45, -89, 58, 97, 23, -23, 103, 46, 105, -48, 67, 33, -72, 15, -98, -93, 102, 36, 2, -65, -63, 28, 43, -97, -51, 54, -12, 85, -92, 64, -107, -58, 22, 35, 105, 41, -80, 94, -36, 114, -51, -51, 104, 40, -13, 13, 19, 67, -86, -83, -22, 39, -97, -85, 13, 46, 93, 85, 6, -15, -96, 31, 16, -72, -79, 26, 86, -71, -78, -37, 9, -62, -4, 41, -50, -48, -109, 24, 37, 34, 61, 20, -76, -24, -15, -32, 54, 75, -40, 89, 93, -80, 71, -51, -3, -83, -34, 47, 79, -69, -45, 59, 100, 56, 34, -40, -85, -25, -58, 81, 64, 25, 48, 101, -76, -85, -78, 6, -60, 20, 50, -47, -94, -28, 14, -109, -13, 60, -83, -61, -17, 50, -83, -96, -77, 113, 97, 44, 36, -9, -77, -89, 14, -69, 78, 22, -46, 85, 89, -105, -21, -58, 77, 75, 35, -103, 112, -84, -89, -80, 100, -110, 41, 32, -114, 19, 55, 96, -50, 32, -73, -17, 18, 102, 44, -54, 112, 81, -2, 0, 53, -51, -51, 60, -106, 91, -84, -19, -16, 51, -20, 75, 6, 65, 64, 56, -99, 96, -14, -60, -7, -35, -30, -42, -16, 85, 99, 13, 87, 82, 108, 48, 89, 47, -92, 105, 4, -105, -54, -70, 37, -5, 93, -12, -62, 12, -73, -113, -77, 112, -79, 72, -38, 39, 5, 34, 30, -100, -19, -58, -20, -57, 54, -26, 44, -7, -111, -4, -79, -80, 104, 101, 5, 56, 57, -48, -22, -54, 54, -109, 69, -99, -47, 111, 21, -58, -85, -92, -8, 47, 22, -89, 15, 65, 17, 91, -105, 15, -29, 11, -78, 96, -17, 103, -24, 66, -47, -88, 52, -16, 112, 28, -34, -18, 93, -65, -98, -109, 61, 20, 90, 68, 90, -51, 25, -61, -49, -112, 113, -84, 18, 95, -103, -102, 51, 51, -5, -101, 19, -83, -81, 58, 31, -59, -105, 19, -8, 9, 104, -71, 98, -9, 44, 62, 57, -109, -40, -75, 72, 40, 12, 103, -87, 98, 73, -49, -110, 51, 103, 111, -35, -77, 97, -75, 2, -112, -87, -23, 78, 83, -52, 52, 99, 65, -29, -23, -113, -88, 103, 54, -90, -26, -12, -53, -98, -65, 73, 48, 49, -23, -83, 61, -70, 72, 89, -80, 48, -63, -91, 29, -103, 43, -77, 98, -8, -55, 69, 52, -22, -113, -66, -35, -74, -2, 110, -5, -34, -45, 45, -90, -73, 22, -98, -89, -109, 59, 47, 31, 110, -55, 97, -37, -56, -82, -52, -38, -36, 28, -78, 103, 38, -76, 96, 18, -61, 36, -46, -32, -56, -44, -87, 113, 65, -69, -69, 79, -24, 30, 92, -56, -5, 20, -65, -68, -111, -32, -52, -81, -32, -94, 49, -100, -28, 71, 85, -5, 95, 33, 3, -29, -11, 39, -35, 82, 64, 4, 107, -87, -100, -45, -69, -36, 26, -50, 29, 38, -9, 20, 62, -100, 48, 64, 7, 95, -65, 29, -75, 85, -65, 73, 83, -110, 45, 96, 97, 66, -12, -29, -93, 3, -43, -44, 13, 43, -52, -106, -32, -41, -94, 49, 60, -68, -96, 96, -48, -92, -77, 88, 90, -1, 2, 66, -20, -25, -86, -28, -109, -74, -11, -28, -78, 1, 42, -62, 82, -87, 113, -12, -71, 22, 26, -15, -91, 22, -3, -40, 35, -114, -64, -36, -37, -61, 10, -46, -97, -98, 22, -40, -66, 57, 64, 109, -101, -11, 101, 6, -20, 42, -64, 72, -41, 27, -63, 80, 87, -24, 3, 94, -55, -29, -70, -84, 11, -86, -21, 8, -33, -52, 82, 108, 59, -46, 12, -38, -46, 32, 90, 79, -72, -4, 102, -63, -52, 36, -86, 92, 93, 34, -3, -62, 45, -19, 108, 81, -32, -84, 71, 111, 106, -40, 94, 5, -92, -54, -98, 112, 6, -102, -94, -79, 92, 82, 89, -34, 91, 107, 95, -32, -36, -63, 108, 24, 13, -83, 42, 85, -91, 30, 62, 83, 99, 30, -49, 15, 111, 82, 53, -108, 70, -62, 92, -92, 59, -56, 95, 4, 66, -21, 12, 33, -21, -53, 97, 93, -57, 28, 32, 4, 97, 39, -84, 36, -7, -15, 36, 29, -97, 91, -77, -61, -108, -107, 32, 16, -48, -28, -67, -45, -42, -33, -63, -76, 99, -80, -58, -37, -77, 40, -8, -77, 101, -98, 93, 36, 98, -60, -72, 46, 22, 87, 5, 38, -17, 110, 77, 33, -102, -18, -54, -13, -70, -48, 40, -112, -31, 33, 69, 104, 55, 35, 15, 107, 57, -31, 2, 53, -44, 83, -78, 103, -70, -59, -50, -18, -68, -9, 57, -55, 106, -108, 68, -78, -56, 90, -25, -49, -110, 44, 104, -89, 12, 35, 38, -68, 95, -1, -113, 24, -41, 84, -98, 31, -78, 63, 107, 45, 11, 12, -109, 24, -33, -28, -93, -26, -58, -100, -57, -112, -78, 63, 25, 29, -63, 66, -15, -100, -77, -113, -13, -38, 79, 100, -87, -112, 69, -79, -62, -93, -45, 12, 44, -48, 66, -76, 11, -27, 5, 61, 95, 50, 7, -74, 105, -100, -21, 28, -83, 55, 80, -51, -78, 17, -51, -72, 10, 22, 108, -30, 111, 68, 74, -32, -51, 12, 74, 29, 81, -14, 21, 0, 61, 71, -43, 5, 26, -6, 75, -76, -1, -20, 102, 65, -24, -104, 83, -66, -91, -18, 59, 33, -43, -26, 32, 107, 104, 98, 48, -12, 40, -45, 90, -84, 3, 101, -72, -41, 59, 48, -49, -68, -90, 107, 76, 40, 92, 103, -22, 67, 19, 29, 75, 49, 16, 101, -73, 75, 14, 25, 79, 45, -100, -5, 16, -101, 84, 110, 109, 106, -106, -113, -9, 55, 34, -89, 111, -97, 31, -26, 17, 6, 85, -70, -97, -3, -104, 96, -110, -105, 94, 49, 42, 106, -21, -35, -69, -25, 20, 4, 67, -42, -57, 47, -110, 9, 75, 35, 48, 38, 65, 25, -5, 38, 18, -108, 97, 89, -14, -17, -64, 90, 78, -100, -45, -56, -92, -113, 63, 80, 32, -75, -32, 112, 54, -41, -94, 16, 1, -110, 45, -96, 109, -45, -112, 96, 104, 33, 90, 113, -56, -9, -70, -5, 2, -62, -33, 36, -70, 29, 54, -64, -40, 13, -17, 15, -89, -90, -61, 94, -106, 48, 83, -100, 69, 14, 0, 87, -88, -3, -75, -13, -26, -50, 48, 8, 2, 12, 97, 89, 85, -66, -36, -69, 93, 106, 2, -107, 87, 0, -33, -105, -108, -100, -88, -103, -81, 95, -70, 29, 41, 39, -34, -86, -11, -97, -84, -58, 28, 55, 9, -73, 60, 18, -42, 108, -5, 92, -40, -85, 49, 51, 102, 81, -57, -83, -114, -22, -17, 35, -98, -107, -50, 90, -52, 46, -93, -58, -5, 36, -46, 42, -48, -76, 72, -11, 32, 41, -45, 56, -60, 69, -84, -87, 99, 33, -28, -44, -61, 45, -100, -55, -33, 3, -85, -105, 56, -36, 86, 56, -21, -73, -75, 99, -12, 113, -16, 100, -105, 95, -47, -90, 103, -50, -82, 71, -76, 84, -85, -79, -61, 97, -86, 84, 48, -91, -81, 81, 21, -39, 109, -18, 47, -67, -108, -10, 113, 4, 51, -55, 93, -21, 24, 48, 80, 44, -95, 90, -95, -93, -7, -67, -19, 65, 55, 35, -60, 14, -11, -5, -12, 113, -66, -79, 35, 112, -112, -57, 84, -65, 95, -37, -113, -80, -13, -6, 82, -89, 109, -91, -74, 105, -46, 114, -12, -84, 8, 20, -44, -62, 44, -45, 4, -25, -72, -88, 58, -5, 50, 46, 94, -88, 54, 99, -32, 71, -25, -66, -103, 105, 2, -108, -30, -63, 36, -44, 25, 38, -105, 39, -107, -67, 85, -65, 35, 88, 42, -74, 98, 87, -71, 76, 6, -37, 52, -84, 24, 55, 80, 18, 46, -111, -87, 33, 81, -51, 73, -54, -16, 14, -81, 31, 15, -56, -103, -86, 85, -70, -21, 98, 69, -61, -93, 93, -18, 89, -32, 7, -93, -84, -84, 107, -4, 16, 99, 89, 9, 104, -13, 37, -26, -69, 111, 89, -104, -65, -36, -3, 4, -41, 42, -36, -61, -75, 102, -31, 41, -93, 41, -23, -90, -59, 107, 112, 61, 30, 66, 82, -81, 101, -86, -20, 29, 36, -102, 2, -55, 51, 86, 42, -36, 78, -33, -99, 49, -18, 63, 54, 3, 86, -35, 6, -73, -17, 48, -28, 88, 77, -108, 24, -32, -113, -64, 47, 29, -7, -27, 9, -71, -65, -10, -114, 101, 13, -19, 83, 83, 14, 17, -83, 59, 20, -43, -59, -68, -100, 99, 99, -112, 95, -81, 10, -72, -16, -25, 50, 28, -25, -91, 9, -88, 22, 34, -35, -111, 38, 112, 65, 109, 0, -63, 37, 76, -42, -59, -50, 27, -95, 6, -36, 19, -43, -36, 17, 33, 100, -99, 67, 43, 73, -40, 17, -6, 37, 63, 27, 71, -113, 82, -113, 45, 57, 25, 39, 66, 35, -12, -53, -88, 8, 111, -72, -99, -18, 90, -40, 59, -87, 44, 29, 40, 81, 34, 31, -81, -18, -106, 82, 88, -84, 60, -30, -88, -106, 72, 18, -25, -78, 108, -87, 12, 70, -8, 98, -35, -41, -91, 84, 110, 109, 67, -42, 18, -48, -72, -50, 106, -55, -17, -93, -67, -32, -70, -83, -61, -90, 18, -20, 99, -87, 78, 100, 33, 80, 24, 11, -24, -103, 76, 100, -85, -46, 5, -111, 1, 98, -55, 63, 56, 101, 82, 72, 59, 69, -21, -36, 76, -82, -90, -48, -46, -50, -86, -57, 101, 85, 64, 64, 13, 13, 61, -111, -35, -42, -1, -17, 110, -67, -58, 43, -31, -47, -108, 53, 76, -21, 71, 29, -104, -77, -84, -31, -9, 73, -34, 93, 81, -29, -53, 89, 91, 20, 108, -69, 72, -35, 95, 31, 12, -106, -108, -94, -66, 15, 15, -89, 91, 17, 63, 102, -19, -3, -49, -56, -4, -31, 91, 4, -6, -37, -101, -37, 41, -3, 67, -29, 108, 20, 92, -66, 22, -98, -77, 83, -68, 3, -101, -8, 65, -7, -19, 37, 23, -13, 40, 59, -36, 19, -94, 69, -113, -43, 99, -44, 49, -81, 66, -77, 48, -25, 93, 78, -7, 77, -101, 80, 22, -6, -58, 2, 1, 86, -110, -1, -2, 102, 3, 111, 54, -91, -58, 14, -95, 50, -27, -26, 83, -11, 52, -9, 51, -49, -29, 7, 76, 62, 22, -68, 93, 62, 76, -104, -15, 59, -60, -38, 21, -68, 61, 101, -110, -39, 15, -83, -14, -95, -98, -25, 68, -59, 82, -86, -41, 24, 18, -61, -103, -62, 106, 43, 57, 3, 23, -85, 30, 19, -93, 80, 79, -40, 75, 108, 102, 15, 27, -28, 107, -65, -14, 91, -105, 41, -26, 15, 84, 40, 92, -9, -104, 91, -87, 0, -101, -82, -35, 29, -20, 70, -57, -104, 19, 44, -8, -4, 73, 54, -48, 45, -85, -85, 44, -89, 55, 72, -75, -4, 101, -65, -14, 31, -96, 79, -108, 71, -20, 32, -87, 89, 33, -3, 66, 85, 31, -9, 98, 28, -71, 102, 85, -18, -95, -78, 64, -97, 63, 80, 60, -107, 94, -2, -60, -68, -30, -42, 93, 22, 2, -41, 21, -30, -73, -91, 65, 77, -103, 21, 84, 9, -12, 5, -86, -55, 69, -37, 5, -71, -106, 13, 90, 35, -88, 14, 80, -12, -87, 83, -7, 5, -37, -89, -83, -77, 59, 101, -106, 102, 43, -69, 113, -65, 16, -79, 47, 30, 75, 80, 25, -73, 74, -58, -32, 101, 100, 32, 70, 8, 1, -11, -41, 54, 23, -80, -53, -18, 24, -39, 102, 84, -75, -13, 22, 96, -73, -44, -43, -86, 42, -99, 94, 104, 92, 64, -56, -31, -36, -103, -11, 93, 96, -113, 36, -78, 10, -97, -37, 29, -37, 37, -108, 70, -77, 104, 21, 77, 100, 23, -21, 28, -76, 112, 25, -26, 105, 1, 83, -31, 65, 40, -18, -36, -113, 8, -25, -88, 92, 89, 110, 3, -56, -2, -112, -95, -36, 62, 97, -45, -43, -56, 86, 23, -91, -54, 12, -112, -50, 13, -39, -45, 41, -9, 27, 107, 52, -32, -64, -61, -113, 81, 60, -74, 90, 89, -104, -46, -10, 56, 98, -41, 78, -103, -5, -71, 40, -61, 9, -42, 16, 42, 60, 23, -92, 32, 50, -20, 68, 32, 89, -7, -80, 87, -108, 60, 66, 96, 78, -50, -31, -98, -18, 103, -93, 61, 95, -56, -91, 65, 45, -63, -82, -50, 80, 72, 76, 87, 64, 42, -77, -111, 74, -66, -88, 113, 8, -20, 87, 58, -43, 68, -111, -46, 28, 68, -31, 87, -86, 94, 97, 79, 43, 108, 58, 110, -72, -83, -32, -93, -30, -24, -85, -35, -32, 58, -88, -85, -7, -90, 21, 109, -10, -92, 62, 20, 20, 17, 29, -88, 67, 84, -39, 17, 107, -59, 54, -97, 2, -112, 89, 21, -108, -105, -72, 42, 14, -71, -92, -80, 62, 15, -5, 80, -9, -57, 30, -7, -32, -11, -97, 77, 105, -94, 84, -105, 52, 104, 82, -88, 80, 78, -28, -33, -97, -30, 94, -72, -36, 19, -98, -48, -108, 56, 87, 2, -69, -97, -42, -95, 80, 60, -85, -68, -32, 94, 19, -47, -61, 106, 112, 92, -63, -105, -52, 21, -109, -17, 96, -69, 23, 5, 23, -27, -61, 109, 94, 110, 78, 90, 49, -22, -46, -31, -34, -5, -86, 15, 37, -40, 54, -74, 17, -82, 96, -104, -110, 6, -20, 73, -66, -98, -57, -100, 10, -67, -98, 53, -44, 51, 63, 9, 56, -27, 37, -114, 37, -67, 35, -20, -100, 78, -20, 38, -100, 4, 109, -31, 72, 78, 82, -18, 17, -28, 98, -85, -34, -73, 44, 7, -52, -104, -84, 23, -60, -16, -79, -102, -74, -109, -55, 7, -36, -70, -47, 109, 75, -23, 70, 19, -99, 110, -66, 112, 62, -104, -101, 51, 111, 111, 95, -15, -34, -12, 75, -43, -81, -17, -79, 80, -40, 50, -12, 72, -79, 8, 91, 32, 25, -14, -66, -21, -59, 80, -40, 23, -66, -79, 104, 108, -31, 18, -44, 41, -68, -53, 96, 110, -17, 0, 46, 94, -18, -88, 45, -69, -31, 4, 11, 7, 15, -56, 110, -9, 44, -26, -46, 75, 100, 42, -101, 16, -113, 22, 57, 60, 0, -94, 77, -8, -63, -65, -10, -28, -32, -105, -107, 43, -69, -9, -13, 15, 5, -20, 19, -22, 113, -33, -1, -45, -32, -109, 27, 64, -77, 83, 71, 87, 7, 68, -12, -96, -95, 33, -88, -21, -89, -42, -58, 90, -71, -103, -78, 105, -83, 1, -5, 58, -51, 42, 93, -92, -62, 32, -86, -62, -53, 98, 102, -5, 8, 7, 114, -5, -105, -48, -92, -62, 43, 98, -6, 110, 55, 21, -33, 53, 2, -109, 57, 1, -64, 79, 82, -64, -91, -82, -33, 27, 80, 68, 42, 97, 45, 70, 46, -86, -11, 48, 113, -98, -102, -17, 27, -10, 91, -105, 96, -112, -75, -8, 93, -81, 1, -88, -87, -44, -69, 86, -66, -102, 113, -46, -76, -52, 1, -12, 2, 27, 3, 12, -68, -1, 43, 77, 39, 72, 48, 85, -57, -101, 76, -102, 67, 58, 43, 8, 108, 89, -94, 83, -70, 97, -55, 89, -114, 73, 103, -114, 18, -62, -82, 7, -95, 73, -17, -2, 23, 3, 1, -78, -51, 24, -113, 21, -54, 11, -110, 24, -103, -54, -11, 9, -50, 81, -4, -57, -91, 30, -57, -6, -41, -69, 108, 29, 51, 69, 24, -86, -108, 12, -28, 84, 45, 49, 60, 93, 99, 73, 103, 13, -47, 50, 86, 39, 44, -19, -44, 51, -56, 40, -74, -49, -59, 8, -5, -85, 26, 76, -53, 75, -98, -47, 93, 83, 88, -87, 87, 64, 83, 7, -34, -76, 72, -51, 53, -96, 80, 18, -26, -48, 16, 109, -107, -55, -99, 43, -19, 70, 59, 5, -77, 79, 38, -79, -65, 26, 23, 9, -68, 18, -95, 8, 38, -53, -54, -29, -3, -18, 110, 12, 35, 16, -67, 114, -71, -60, -98, 102, -78, 72, 85, -96, 57, -85, 44, -26, -66, -104, -73, -14, -55, -24, -112, 9, -102, -91, 95, 31, -27, 64, 69, -79, 3, -97, -66, 111, 113, -9, -79, 32, 30, -34, -63, 21, -110, 95, -44, -101, 69, 0, 70, 56, -9, -5, 73, 64, -77, 23, 76, 36, 1, -25, -15, 85, 45, -65, -85, 85, -1, -97, -83, -66, -62, 9, -4, 86, -113, 62, -109, 93, 73, 51, -29, -86, -22, -68, 58, 71, 62, -79, -60, 39, -74, -4, -54, -2, 6, 7, -111, 90, -35, 70, -22, 31, 50, 74, -41, 28, 77, 22, 55, -23, -29, 87, -87, 90, -54, 12, -84, -83, 16, -57, -35, 37, -87, -22, 85, -31, 105, 29, -112, -24, -57, 59, -17, 54, -89, -2, 104, 16, -108, -35, -45, -107, 79, -22, -93, 70, 90, 52, 70, -5, 92, 60, -81, 88, 73, 21, 76, -17, 8, 109, 105, -41, 6, -13, -92, -98, -50, -47, -50, 54, 106, -72, 4, -26, 33, 8, 12, 55, -22, -25, 24, 105, -3, -19, -45, 111, 62, 54, -32, 4, -57, 96, 98, 59, -2, 17, -59, 26, 100, -81, -28, -68, 41, 10, -53, 75, 104, 72, -2, -35, 78, -110, 57, 64, -82, 14, 9, 1, 96, -57, -11, -18, 56, 112, -106, 109, -52, 85, 39, 24, -56, -104, 59, -107, -17, 58, -2, -76, -24, 97, -44, -75, -107, 51, -113, -91, -53, 89, -60, -78, 23, -67, 69, -58, -109, 90, -24, 105, -54, 35, -31, 3, 74, 55, -43, 46, 23, 46, 82, -83, 64, -51, -59, 27, -57, 37, 73, 71, -49, -16, -64, 71, -96, -102, 39, 22, -104, 80, 99, 75, 30, 88, 103, -16, -100, 109, -45, 75, 51, 35, 36, -58, -14, -102, -32, 25, -99, 19, -99, -71, -23, -32, -52, -59, -96, 9, -93, -58, 13, 19, -97, 7, 52, -89, -42, 90, -99, -110, -32, -78, -68, -83, -42, 41, -7, -36, 12, -25, -57, 26, 54, 27, -90, 55, 45, 66, 18, -35, 19, -81, -112, -106, -84, -93, 105, -47, 17, -85, 79, 96, -93, -46, -42, -4, 55, 47, -49, 51, -99, 45, -97, -29, 98, 42, -94, 38, -72, 67, 91, -20, -21, -73, 20, 17, 113, 97, -112, 12, 71, -17, -7, -81, 82, -44, 110, -17, -56, 95, 39, 24, 69, 63, 49, -42, 34, -91, -11, 83, 15, 36, -103, -28, -19, 39, 68, -63, 55, 43, -57, -87, 20, 33, -87, -98, -111, -63, -79, 99, 14, -82, 37, -5, 39, 12, 98, 45, 45, -95, -94, 33, 97, 81, -69, 14, 1, -28, -110, 106, 37, -57, 20, -51, 97, -3, 102, 113, 19, 40, 57, 4, 23, 55, 3, -14, -77, 1, 30, 9, 6, -109, -61, 113, -69, 11, 12, 28, 28, -111, -47, 104, 51, -21, -35, -50, 92, -76, 13, 91, 47, 9, 52, 84, 83, -57, -80, 11, -111, -77, -7, 40, -22, 50, -18, -81, -93, -51, -57, 112, 19, 79, 24, 25, 76, -68, 93, 87, 55, 102, -103, 47, 27, 34, 78, -110, 0, -103, -34, 57, 3, 74, -55, -84, -35, 23, 108, 29, -91, -12, -12, -42, -12, -95, 90, -41, -6, 5, -10, 54, 29, 13, -18, -81, -49, 38, 79, 87, 27, -30, 70, -16, -77, -105, 90, -9, -63, 112, 23, 37, -56, -71, 54, 49, -54, 88, 112, 29, 22, -52, 83, 36, 60, 6, -101, 70, 4, -99, 60, 4, 64, 46, 18, -111, 59, 3, -1, 18, 29, 105, -26, 100, -73, 83, 68, 40, -11, 40, -105, -36, -68, -73, 23, 104, -78, -44, 55, 96, 99, -82, 4, 69, 4, -38, -63, 19, 54, -44, -110, -85, 80, 97, 100, 0, 81, -87, -74, 9, -74, -74, -97, -6, 2, 105, -109, 76, -18, -45, -51, 97, -5, -72, -5, -91, 53, -57, -96, 98, -89, -93, -20, 53, 75, 51, -55, -40, -89, -28, 94, -101, -70, 4, -63, -95, 56, -55, 72, 74, 39, -81, -85, -71, 101, 95, 58, 90, -20, 113, -45, -74, 3, 90, 94, 92, 48, 27, -19, 76, -36, -70, 67, -40, -11, 32, -32, 113, -14, 72, -33, 76, -51, 84, 22, 95, -13, -36, 97, 83, 33, 30, -77, -59, 48, 81, -85, 70, 90, -1, 24, -73, -35, -74, 74, -79, -12, 31, -3, 30, -32, -67, 39, -7, -65, -69, -22, 71, 75, -86, 112, -58, 75, 62, -6, 23, 71, -111, -96, 64, 82, 10, 21, 24, 109, -3, 11, -36, 39, 87, -1, -45, 44, 104, 92, -40, 99, -17, -87, 107, -56, -39, 93, -97, -29, -55, 109, 111, 73, 72, 44, -13, 17, 8, 9, 78, -34, 10, -28, 63, 66, -27, 112, 46, 82, 79, 5, -94, -3, -62, -2, -113, -28, -75, -110, 104, -98, 28, -96, -7, 82, -106, 61, 2, 38, -42, 70, -68, -37, 38, 52, -111, 68, 43, -31, -30, 14, -108, 19, 39, 24, 107, 71, -66, 68, -93, -9, 45, -7, -77, -108, -30, 60, -54, -80, -77, -36, 55, 60, 59, -29, 100, -66, -99, -35, -86, -13, -75, 16, 69, -19, 4, -102, -36, -112, -49, -29, -78, 102, 54, -5, 44, 79, 101, -41, -106, -33, -95, 34, 79, -108, -85, -90, -46, 67, -5, -70, 62, 107, -44, -79, 83, -69, -29, 94, -10, -31, -44, -37, 67, 9, -3, -73, -20, 49, 90, -99, -3, -7, 106, 64, 44, 80, -40, 57, -64, -103, 26, -75, 20, 73, -25, -90, -43, -74, -112, 4, -28, 4, -105, -31, 80, -24, -23, -93, 54, 70, -109, 70, 60, -34, 15, -60, 76, -16, 109, 63, -12, -49, -109, 27, 87, 5, 19, 42, 7, -24, -65, -110, 111, 94, 32, 54, -100, 92, -47, 30, 28, 35, 71, -48, -7, -20, -22, 71, 5, -44, 84, 6, 34, -78, 104, -35, 26, -106, -15, 8, 91, 98, 31, 34, 17, -75, 107, 7, 113, -54, -61, -65, 78, -104, -28, 10, 108, 13, -71, 104, -97, -32, 111, 33, -81, 60, 93, -87, 22, 17, 42, -77, 44, -58, 113, 20, -44, 35, -81, -27, -20, -53, 101, -17, 14, -34, -105, -37, -56, 75, -98, -101, -72, -50, 11, 101, 72, 58, 1, -69, 36, -58, -101, 35, 24, 76, 40, -103, -9, -66, 48, 48, 35, -5, -75, 74, 39, 9, 32, 35, -72, 103, 101, -38, -70, 70, 84, 106, -93, 33, -111, -10, -32, 83, 58, 101, 41, 87, -105, 114, 33, -63, -60, 25, -43, 29, 93, 95, 102, -96, 48, -101, -61, 62, 31, -33, 102, 37, 80, -47, 31, 95, 65, -23, -95, -72, 26, -62, -112, -35, 58, 40, 93, 19, 56, 54, -45, 24, 44, 65, -63, 54, -7, -8, 43, 77, 6, -42, -60, -39, 34, -6, 66, -94, -81, 92, -24, 2, -7, 72, -52, 64, -54, -22, -9, 96, 48, -41, -104, 18, 4, -61, -24, -15, 68, 13, -74, -36, 111, -81, 106, -59, 60, -45, 89, 83, -29, 50, -15, 41, 85, 101, 93, 45, 28, 57, -108, 53, 109, -110, -106, -30, 109, -112, 46, 102, 38, 63, -89, -20, 87, 8, -94, 97, -5, -101, 70, -98, -93, -91, 62, -112, -67, 84, 5, 9, -21, 26, 23, -87, -69, 49, -48, -7, 52, 18, -23, -14, -60, 86, -90, 55, -108, 6, -92, 48, 61, 77, -55, 107, 3, -90, -14, 23, -105, 87, -38, -59, 113, 106, -29, -82, 11, -63, -29, -16, 93, -67, -59, -75, 48, -44, -6, -27, -80, 82, -19, 17, 7, 93, -99, -109, 49, -98, -114, -93, 25, -103, -41, 21, 77, 40, 13, -50, 20, -73, -9, 58, 42, -107, 73, -7, 30, 45, 72, 14, 51, 64, 113, -48, -26, -37, -47, 102, -35, 30, -72, 80, 88, -8, 81, 53, -103, 112, -76, -64, -54, 74, 89, 50, -65, 90, -71, 63, 80, 22, -22, 29, -15, -104, -39, 57, -55, -31, 60, 27, 90, 113, 36, -72, 76, -9, -7, 60, 28, 36, -84, -86, 12, 47, 20, 9, 58, 113, 79, -29, 21, -90, -49, 43, -24, 32, -42, 6, 34, 36, 72, -104, 25, 68, -48, -59, 51, 31, -20, 7, -77, -112, -50, 1, 81, -52, -49, -113, 108, -3, 83, -86, 46, 58, -92, 35, 15, -56, -78, 28, -92, 3, 52, -69, -60, 77, -11, -73, 88, 3, 36, -107, 31, 79, 11, 90, 5, -101, 109, 108, -100, 107, 101, 26, -14, -95, 17, -27, -113, 10, 62, -95, -32, 86, -98, 37, -68, -107, -65, 57, -31, 104, -25, 88, 104, -96, 16, 58, 41, 99, -62, 4, 82, -60, 108, -100, -9, -10, -19, 95, -26, -5, 9, -45, -86, 88, -5, -35, 34, -92, -113, -24, 75, 39, 27, 23, -45, -97, -1, -18, 74, -4, 2, -61, 87, -51, 102, 95, 14, -74, 52, 95, 61, -2, 51, 65, -64, 12, -99, -3, -84, 66, -67, -12, 15, -64, -91, -88, -5, 64, -73, -26, 85, -14, 1, 90, -47, -56, 99, 13, -42, -50, 103, 42, -4, -10, -41, 87, 98, -94, 85, 45, -30, 80, -59, 99, 1, 111, 93, 100, 21, -62, -53, -65, 81, -50, -83, -3, 85, 27, -57, -11, 14, 7, -104, -37, -74, 79, 0, -13, 28, -110, 9, -23, 70, 99, -65, -27, -96, 105, 105, -35, -106, 70, 44, 99, -100, 42, 26, 95, 104, -63, 27, -20, 62, -24, -96, 64, 88, 85, 0, -109, 79, 44, 40, 18, 104, 97, 11, -98, 66, 60, -82, -52, 25, 109, -72, 70, -111, -113, 112, -75, -100, -16, 32, -62, -5, 29, 44, 5, -38, -20, 83, 2, 65, 64, 9, -67, 59, -57, -73, -13, 73, -84, -64, -72, 77, -8, -94, 0, -22, 99, 52, 111, 109, 56, -109, -21, -79, -14, -91, -81, 73, -22, 68, -85, -103, 33, 79, 77, -85, 87, 40, -21, 54, -3, -26, -91, 113, -18, -50, 50, -37, -25, 67, -87, -42, -67, -108, -98, -62, 42, -24, -94, -99, -102, 35, 15, -11, -37, -69, 68, -76, -13, -1, 62, -1, -100, 20, 113, -102, 10, -31, 99, 84, 90, 97, -109, -84, -63, -92, -69, 50, 33, -88, 26, -1, -112, 73, 58, -52, -83, -6, 19, 40, -112, 66, -9, -37, 101, 16, -11, 103, 54, 79, 65, 86, -76, -40, 11, 41, -96, 100, -48, -53, -11, 81, -89, -30, 107, 85, -45, 11, 45, 97, -41, -77, 29, -79, -85, -29, -107, -1, 5, 26, 45, -46, -87, -43, -33, 7, 40, -46, 56, -34, -102, 67, -48, 81, 87, -12, 18, -31, -105, 66, 13, -104, -37, 30, -75, -37, -62, -60, -38, 65, 72, 1, -26, 33, -49, -84, 36, 19, 39, 7, -2, -3, -92, 97, 110, 68, 17, 57, -38, -7, -57, -53, 55, -24, 76, -58, -66, -82, -104, 18, 20, 86, -42, -72, -42, 65, 7, 28, 73, -111, -70, 61, -109, 32, -43, -16, -68, 37, -14, 11, -14, 74, 25, 112, -51, 104, -9, 77, 96, 59, 98, -63, 58, -104, -32, 66, 110, -30, 42, -56, -69, -38, 91, -19, -105, 55, 24, -95, -98, 99, 30, 77, -41, 106, 94, 68, 6, 60, 34, 102, -8, 4, -47, 21, -84, -52, -52, 2, -105, 52, -71, 2, -9, -5, 14, 43, 5, 90, 55, -105, -96, -104, 32, -80, -32, 45, -53, -52, 103, -112, 101, -7, -13, 31, -48, -64, -75, 8, 13, -48, 66, 79, -74, 46, -78, -24, 31, 54, 22, 27, -48, 17, 41, -64, -107, 88, 45, -24, -4, -73, -43, 59, 63, 103, -70, -86, 24, -29, 85, -22, 92, -41, -63, -97, 61, -7, 31, -107, -72, 91, 16, -84, 89, 100, 15, 97, 102, 51, 12, -65, 59, 68, 56, -104, -100, 52, 101, -56, -9, 109, -104, 49, -90, 44, 35, 68, 3, -97, -77, 5, -25, 68, -2, 63, -35, 46, 87, -68, 0, 113, 2, 39, -77, -46, 76, -108, 103, 84, -75, -37, -2, -11, -91, 38, -12, -50, -26, 20, 95, 65, 10, 65, 91, -81, -77, 18, -20, -32, 112, 59, 113, -22, -54, 39, 61, -10, 63, 90, -36, 2, -106, 64, -48, -95, -109, -94, 63, 83, -93, 21, -45, 100, 24, -13, 68, -110, 66, -38, -27, -92, 57, -105, -71, 86, -39, 18, -78, 76, 48, -34, -100, 18, -54, -83, 73, 59, 15, 34, 13, 14, -33, -109, 99, -12, 77, 33, 80, -58, 61, -25, -46, -12, -46, 100, 6, 54, -3, 82, 7, -68, -68, 56, -76, -24, 67, -79, -52, 96, -18, 86, 52, -36, 56, 19, -83, 91, 104, 58, -11, 2, 60, 46, 57, -73, -34, -1, -68, 49, -28, 95, -92, -58, 77, 88, 38, -35, -11, 7, 107, 95, 47, 40, 22, 66, 87, -30, -44, 14, 98, -95, -26, -18, 0, -42, 80, 82, 60, 96, 58, -77, 93, -83, -75, -93, -16, 8, 109, 39, -65, 79, 55, -37, -20, -87, 113, -80, 91, 109, -74, -74, -111, 26, 90, -19, -98, 45, 9, -68, 95, 62, 36, -60, -53, 39, 110, 36, -63, -97, -36, -67, 39, 44, -56, 87, 68, 36, 112, -43, -27, 44, -58, -40, 62, -75, -16, -55, 99, -43, 1, -32, 52, -83, 50, 5, 90, 59, -18, -2, -86, -1, -80, -97, -21, -21, -2, 71, 42, -73, 34, -113, 21, 101, -64, -102, -15, -21, 17, 6, -99, 48, 22, 105, 110, -22, -22, -108, 45, -106, 22, -112, -14, 75, -109, -87, -28, -96, -46, -95, -28, 17, 105, 77, -84, 54, 105, 3, -53, -2, -102, 31, 37, -7, -89, 64, -75, 46, 105, -58, -51, 60, -16, 51, 18, -84, 82, -8, -75, 84, -68, -12, -14, -31, -62, 32, 60, 112, -8, -77, -55, 70, 70, -98, -6, 38, 19, -17, -96, -38, 35, 82, 14, 34, 84, 87, -63, -48, -40, -33, 30, 35, -81, -94, 97, 16, 13, 3, 50, 44, 28, -36, 81, 57, 44, -3, -109, 59, 110, -82, 75, -71, 49, 44, -27, 107, 58, -67, -20, 70, -17, 76, 72, 14, 77, 100, -83, -87, -11, -65, 0, 37, -102, -56, -18, 61, -27, -23, -98, -94, -32, -74, 64, -63, -72, -36, 73, -29, 33, -64, -96, 15, 95, 4, 90, -47, 70, -21, 52, -9, 82, 54, -98, -87, 24, -70, 22, -91, -47, -61, -54, 62, -5, -98, -39, 64, 106, 22, 34, -14, -26, 75, -41, -2, 110, 66, -60, 98, -81, -47, 51, 26, -31, -61, 94, 49, 49, -100, -93, 71, -6, 46, 57, -94, -63, 104, -35, -8, -21, 23, -5, -27, -46, -43, 57, 61, -82, -20, -68, 66, -31, 11, -97, -43, 32, -67, 64, 77, -22, -9, 0, 40, -51, 67, 81, -84, 106, 105, 0, -60, -41, 88, 64, -30, 41, 26, 52, -40, 17, -21, -95, -2, -7, -98, 41, -75, -58, -78, -48, 1, -38, 77, -5, -52, -17, 19, 95, 95, -38, 98, 83, -16, 68, 102, -91, 58, 80, -78, 80, 68, -11, -70, 28, -71, 92, 106, 40, 18, 21, 26, -110, 22, 67, 33, -24, -102, 32, -16, -92, -20, 64, 82, 84, -65, -46, 88, 63, -62, 103, -87, 11, 28, 33, -51, 39, 75, -1, 104, 3, -101, -30, 47, -60, 35, -30, -55, -3, -72, -60, -86, -77, -78, 77, -95, 45, -49, -93, -112, 113, 74, -61, 19, -49, -110, -113, -89, -64, -13, -69, -60, 110, 60, -18, 2, -26, -75, 62, -81, 67, -35, 23, -41, 29, -3, -77, -35, 96, 82, 53, 107, -31, -56, 72, -75, 96, -42, 78, -85, 95, 38, 47, -25, -47, -101, 39, 10, 16, 70, 19, -36, 84, -24, -46, -4, 60, -55, 12, -83, -56, -3, -49, -10, 36, 69, -86, -40, -35, 2, -7, 10, 54, -1, 18, -94, 81, -107, 37, -2, 12, -71, 61, -20, 46, -67, 109, 99, 14, -76, -74, 66, 62, -14, -41, 44, 29, -81, 104, -27, -91, 53, 76, 60, 40, 111, 21, 102, 67, -84, 91, 61, 72, 56, 110, 57, 112, -81, -17, 3, 36, -38, -14, -36, 17, 90, -65, -101, -71, 106, 15, 91, 45, 29, 33, 49, 68, -72, 97, -88, -44, 99, 72, -45, -20, 81, -18, -44, 53, 95, -89, -26, 84, -26, -106, 10, -43, 110, -86, -102, -72, -30, 7, 73, -37, 109, -9, -2, 92, 73, -3, -38, -111, -91, -83, -112, 82, 103, -113, 4, 6, 98, -76, 31, -17, -2, -68, -33, 47, 23, 102, 54, 102, 59, 62, -64, 28, -69, 19, 97, 67, -9, -71, -75, 4, -112, 111, 2, 94, -30, 111, -84, 101, 45, -59, -81, -4, -38, -17, 36, 38, 43, -69, -64, -85, 82, -45, 72, -2, 76, 97, -36, -102, 35, 12, 94, 40, -33, -44, -62, 28, 80, -4, 40, 78, 100, 39, -22, 9, -31, 9, 93, 35, 67, 64, 26, -92, 92, -109, 112, 47, 14, -63, -102, -17, 41, 19, 44, 34, 15, 97, 102, -113, -8, -25, 56, 31, -113, -29, 29, 111, -37, -18, 27, -59, 97, -18, 18, -13, -43, -59, 24, -97, -62, 6, 70, 74, 44, 62, -8, -12, -65, -88, -112, 5, 26, 99, -54, -73, 95, 23, -14, 17, -103, -58, -64, 47, 75, -78, -85, -96, 14, 74, -40, -14, 43, -37, 50, -109, -40, -19, 68, 80, -107, -56, -83, -85, 51, 85, 110, -92, 23, 85, -114, -98, 11, 20, -100, -106, 112, 39, 81, 40, -21, 68, -54, -18, 42, 102, -72, -111, 15, 63, 53, -27, -36, -71, -79, -5, -52, -104, 113, -16, 43, 75, 7, 18, 53, 95, 19, -100, 59, 0, 14, 48, 74, 62, -107, 6, 59, 99, -112, 58, 65, -5, -104, -62, -49, -42, 84, 91, 85, -88, -80, -87, 19, 53, -26, -86, -64, -71, 71, -28, 16, 87, 68, -14, -92, -75, 101, 0, -41, -109, -28, -92, 53, -74, -15, -35, 102, -108, 81, 20, -97, 49, 76, -72, -17, -17, 30, 4, 35, 34, -7, -2, 101, 60, -38, -18, 96, -67, -103, 44, 95, -25, 110, 61, 42, 103, -44, -106, -47, -82, -46, -23, -94, -11, 45, -54, 48, -12, -34, 84, 40, -50, 16, 19, 39, -46, -97, 65, 68, -35, 62, -83, -112, 91, 114, -20, 88, 52, -92, -54, 79, -97, 2, 90, -55, 85, 48, 91, -97, -69, -39, -98, 61, -93, 78, 42, -89, -31, 96, -19, 91, -39, -57, 29, -105, 8, 108, 98, 21, 81, 54, -81, -38, 28, -5, -39, -79, 41, 8, -110, 53, -58, -17, 78, 82, 18, 24, 62, 72, -15, 43, -72, 75, -67, 13, -41, 53, 63, 3, -4, -86, -23, 15, 58, -61, -83, 93, -70, -41, -25, 45, -74, 67, 74, -40, -45, -81, -41, 51, 55, -42, -8, -66, 0, 61, 103, -19, 7, -103, -103, 101, 113, -99, -97, -87, -45, -81, -75, 1, -96, 21, -85, 39, -42, 111, -71, -85, -108, 45, 82, 64, -6, -65, 60, 45, 49, 25, -47, -82, 100, 4, 95, 89, 86, 50, -32, -70, 46, 64, 63, -106, -2, -27, 109, -97, 51, 67, 108, -4, -21, -37, -11, 27, 101, 67, 17, -49, 107, 56, -26, 57, 87, -38, 22, 80, 99, -2, 97, 72, 2, -57, 85, -97, -37, -13, -66, 109, -13, 16, -6, 14, -38, -4, 42, -44, -108, -71, -114, 82, -101, -51, -40, -18, -69, -28, -61, 64, 88, 92, -77, 5, -103, -106, 103, 36, -12, -99, 10, 108, -93, 94, -60, -51, 101, 112, -85, 69, -9, -24, -26, 68, -92, 53, 68, 104, 29, 25, -18, -25, 100, 60, 64, 101, 22, -44, -95, 18, 15, -90, -48, 33, -11, 62, 85, 55, 101, -101, -112, -13, 42, -13, 21, 78, -3, 103, 92, -13, -113, -8, 95, -23, -20, -90, 112, 60, 99, 89, 24, -27, 54, 4, -20, -98, 102, -31, 40, 67, 73, -78, -16, -78, 43, 14, 49, 22, -26, 75, 49, -103, 82, -7, -60, 105, 103, 5, 36, -3, -21, 86, 6, 13, 75, 17, -85, -21, -86, 82, 37, 4, -104, -41, 100, -56, 94, -37, 4, 63, -3, 93, -68, 45, -86, -80, -1, -44, -21, -61, -83, 62, -87, 58, 35, 83, -67, -18, -77, -98, -44, 63, -58, 6, 11, 0, -104, -35, 5, -70, -17, -109, 28, 38, 75, -8, -50, 84, -107, -45, 61, 86, -83, -19, -41, 79, 97, 7, -23, 91, 47, 26, -87, 70, -6, -85, 16, -45, 63, -86, 26, -98, 12, 89, -1, 0, -106, -18, 26, 21, -114, 22, 72, -105, 26, 48, 33, -55, -20, 58, -58, 60, 55, 83, 27, 18, 109, -42, -16, 29, -9, -22, -21, 20, -91, -90, -28, 19, -72, -96, 105, 34, -90, 38, 91, 81, -49, -95, 76, 67, -37, 99, -43, -69, 78, -28, 9, -82, -43, 104, -21, -35, 78, -4, 72, -41, 85, 48, -33, -110, -74, -75, 18, -96, -81, 72, -26, 94, 69, -97, 91, -25, -54, 60, -5, 58, 4, 6, -61, 21, 80, 27, -85, -95, 30, 44, -52, 54, -101, -25, 58, 65, -6, 105, 72, 64, 26, 56, 106, -103, 22, -97, -68, 22, -18, -55, 72, 5, -83, -102, -24, -63, -109, 74, -91, 45, -59, 34, -31, 9, -36, -105, -55, 4, 35, -64, -23, 60, -33, -54, 9, -24, -30, -97, 72, -78, 76, 22, -5, -76, 29, -58, -105, 83, -54, -40, 76, 14, -110, 22, -102, 89, -90, 92, -36, -112, 65, 27, -28, -23, 52, -96, -9, 103, -22, 9, -71, -111, -57, -49, 61, 60, 52, -77, -48, 30, -79, -72, -77, -11, -11, 68, -31, 88, -27, -22, -61, 37, 14, -111, -5, 107, -42, 24, -60, -74, -69, 41, -13, -41, -87, 111, -104, -52, -65, 109, -10, -77, 62, 43, -113, 30, -65, -3, 73, -81, -34, -94, -76, -76, -11, -110, 8, -94, 54, 24, 75, 29, 107, -23, 36, 77, -17, -98, 47, -41, -1, 41, 82, 52, 42, -10, 10, 29, 18, -69, 106, -16, 45, -60, 18, -72, 5, -106, -16, 91, 105, 33, 99, -89, 48, -17, 56, -15, 36, -53, 48, -91, -32, -40, -20, 76, -3, 12, 25, -22, 61, 61, 69, 0, -20, 51, 110, -82, 19, 51, -40, 94, -57, 6, 101, 64, 9, -40, -23, -61, -14, -80, 81, 83, 90, -87, -66, 112, 44, -44, 23, 35, 68, 108, -92, -10, -105, -93, 19, -94, -38, -36, -75, -97, 30, 12, 69, -46, -2, 8, 3, -31, -41, 93, -9, 90, -10, 3, -56, 104, -95, 93, -2, -19, 87, -56, 107, -95, -15, -3, 14, 99, 14, -39, 25, 35, -104, -12, -41, -56, 73, -47, 31, -47, -58, -27, 13, 45, -84, -34, -45, 24, 51, 77, -99, -76, 33, -52, 42, 61, 81, -31, 27, 38, 73, -71, 20, 50, 70, 77, -29, -3, -7, 1, -110, -87, 42, -69, -16, -18, 19, 111, 109, 18, -73, -23, 90, 23, 67, 93, -24, 83, -100, -16, 90, 61, -48, 27, 15, -90, 13, -104, 100, -37, 103, 48, 23, -66, 52, -21, 33, -108, -94, -41, -111, 75, 102, -29, 75, -96, -8, -4, -97, 6, -56, -71, 40, -85, -102, 21, -33, 96, 26, 46, -14, -21, 113, 101, -54, -110, 44, 5, -97, 26, -76, -90, -69, 58, -4, -89, 82, 94, 11, 73, -69, -13, 22, 96, 8, -37, 19, 25, -41, -32, -20, -71, -107, 89, -113, 109, 106, 41, 49, -99, -20, -59, -82, -73, 99, -45, 49, -94, 91, 82, -68, 70, -112, -98, -15, 89, 108, -65, -47, -13, 85, -109, 24, 78, -61, 55, -20, 111, 101, -9, 81, 9, 54, 22, -99, 2, 13, -54, -97, 61, 52, -55, 80, 42, 27, 0, 83, 63, -92, 106, -102, 1, 73, -52, -17, 1, -8, -113, -95, -41, 13, -8, -50, 70, -2, -2, -38, 93, 14, 14, -1, 112, 40, -26, 10, -69, 83, -74, 59, -3, 78, -38, -13, -22, -75, 84, 55, -13, 86, -100, -44, -34, -23, -96, 112, -110, 28, 71, -96, -10, -19, -38, 80, 62, 82, 43, 80, -104, -10, -85, 74, 96, 52, -60, 104, -63, 15, 71, -33, 82, 78, 26, -98, 55, -79, 72, -9, -105, 63, 10, -78, -7, -64, 100, -70, 9, -13, -40, -73, 100, -85, 26, 25, 37, -50, -109, 55, 21, -50, 103, -105, -38, -17, -110, -55, 55, 104, 12, -21, -36, 71, 112, -103, -86, -41, -11, -67, -59, 38, 88, 17, 59, -79, 78, -34, 63, -77, 107, -60, 96, -91, 42, -15, -16, -85, 104, 5, -62, 2, -77, -93, 59, -59, -54, 74, -54, -10, -98, -18, -90, -6, -51, -104, 6, -14, 98, -79, -102, -76, 67, -47, -79, -19, -18, 9, -26, 2, 94, -94, -77, 58, 102, 40, 13, 101, -90, -41, -13, 114, 48, -28, 74, 13, -69, -47, 44, -11, -34, -1, -93, 61, -12, -102, 64, 18, 99, -67, 10, -41, -110, -79, 112, 109, -93, -106, -49, -77, -103, 39, 13, -22, 103, -36, -53, 82, 73, -48, 71, -50, 86, -86, 12, -75, -72, 24, 68, 108, 94, 12, -36, -112, -84, 38, 37, 39, -99, 79, 112, -93, -13, 65, -62, -24, 62, -5, 76, -31, 6, 0, 27, -28, 29, -88, -11, -54, 86, 99, 96, -34, -101, -30, 28, -32, -83, -83, -21, 17, -48, -104, -110, 18, -2, 83, -25, -102, 62, 48, -31, 56, -10, 6, 97, 77, 69, -48, 71, 1, -49, 54, 7, 0, 90, 100, 34, 76, 82, -35, -84, 66, -37, 4, 13, 93, 16, -5, 3, -16, -39, -78, -46, 19, -93, -3, 18, -42, -109, 5, -88, -104, 111, 24, 10, 36, -68, -52, -16, 105, 106, 72, 9, 42, 98, 111, 11, -30, -93, -64, 10, -4, -93, 20, -89, -81, 92, 62, 72, 24, 72, -3, 101, -104, -52, -14, 77, -95, 8, 69, -69, 110, -22, -20, 107, 33, 30, -40, -83, 15, 7, 103, 89, -45, -79, -1, 104, 48, 64, 24, -72, -39, -80, 42, -73, -11, -89, 47, -88, 48, -50, -89, 102, -75, 88, -32, -76, 7, 108, -53, 89, -32, -13, 106, -59, 27, 107, -88, -12, 36, 70, 87, -50, -114, -93, 16, -101, -79, 102, -107, 109, 4, -81, -13, -22, 7, 100, -15, -57, 36, -48, -102, 74, -38, -76, -67, 104, -45, -72, 72, -12, -50, 67, -19, 58, 18, 107, 53, -12, -67, 106, 77, -105, 2, 79, 83, 40, 39, -22, -39, 6, -14, -7, 5, -50, -11, 75, -16, -66, -5, -27, -79, -76, -27, 85, -32, 87, -68, -18, -69, 63, 58, -38, 36, 26, 41, -22, -105, -32, 40, -22, -4, -83, 71, -98, -4, 66, -43, -33, -25, -53, -72, 49, -2, -59, -21, -43, 83, -31, -54, -60, -22, -34, -50, 30, -62, 14, 40, -45, -78, 65, 84, 56, -80, -65, -46, 114, -78, -114, 23, -56, 33, -5, -111, 41, 86, -96, 17, -103, -2, 71, 14, 71, 66, -20, -87, 53, 110, -79, 6, 67, 28, -84, 40, -102, -42, 79, 10, -55, 111, 86, -100, -46, 24, -103, 39, -95, -4, 73, -54, 41, -62, -33, -45, 2, -24, -96, 85, -28, 71, -48, 113, -15, -82, -39, 81, -83, -26, -57, 88, 27, 98, 4, -67, 64, -95, -10, -56, 28, -71, 103, -17, 49, 77, -37, -64, 52, 11, -43, -29, 29, -76, -40, 89, 34, -62, -69, -72, 21, 13, -55, 101, -84, 4, -41, 98, 16, -73, 10, 100, 113, -97, -30, 64, 61, -31, -104, -89, 3, 96, 111, 72, 65, 94, 92, -76, -87, 5, 66, 74, -90, 96, -113, -86, 77, 11, -14, 86, -65, 113, -90, -76, -77, -6, -101, -75, 28, -30, 22, -84, -58, -63, 37, 108, -108, 98, 44, 17, -23, 111, -27, 111, 60, 7, -10, 59, -34, 39, 46, 107, 92, -95, -59, -72, 106, -19, -98, 7, -39, 113, 74, -77, 101, 8, -103, -38, 50, 56, -17, -103, -84, 39, 79, 38, 89, 65, 81, 84, -12, 70, 62, 44, -66, -44, -107, -48, -58, -35, 12, -114, -53, -47, 100, -81, -51, -100, -5, -89, -60, 57, 50, -93, -87, -84, -15, 91, 10, -110, -87, 68, 63, -63, -45, 72, 8, -49, 110, 62, -82, 100, 19, 20, -49, 3, -84, 24, -19, 32, 80, 73, -30, 3, 70, -51, 30, 35, 21, 82, 89, 48, -105, -60, -66, -46, -35, 109, 89, -26, -24, 51, 43, 75, -22, 111, 76, -16, -63, 13, -29, -28, -57, -18, 4, -70, 47, 13, -29, 82, -71, -113, 25, -19, -31, -109, 12, 76, 3, 56, 106, -42, -7, -44, 0, 51, -54, 48, 28, 80, -53, 82, -29, -101, -64, 71, 58, -94, -98, 63, 111, -45, 104, 3, -4, 68, -44, -8, -101, 103, 91, 90, -91, 23, 38, -112, -105, 111, 95, -70, -68, -112, -70, -112, 32, -96, 8, 43, 32, 31, 76, 111, -20, -113, 54, -92, 67, -83, -77, 49, -37, -43, -72, -110, 91, -10, 103, 41, -48, 21, 89, 114, 112, 80, 99, -98, -81, -57, -101, -49, -12, -60, -106, 36, 23, 96, 10, -50, 91, 74, -102, -1, -31, -36, 112, 54, 92, -38, 60, 1, -43, -16, -94, -92, 48, -4, 18, -106, -100, -15, -109, 1, -40, 55, -22, 69, 68, 28, -108, -94, -27, -77, 97, -49, -20, -32, 85, -3, 48, 102, 18, 29, 50, 102, 11, 31, -51, -15, -94, 108, -39, 10, 102, 34, -112, 85, -45, -20, 52, -51, 110, -74, -70, -47, -39, -105, 28, -18, 106, -22, 51, -2, -91, -102, -111, 94, 18, 57, -80, -100, 62, 48, 29, 46, 91, 90, -3, -56, -97, 109, -100, 72, 111, -108, -2, -66, -39, -63, -40, 21, 43, -11, -95, -62, -78, -6, -1, 21, 18, 3, 71, -55, 100, -84, -18, 12, 0, -78, 28, 1, 93, 46, -4, -1, 41, 48, -17, 88, 76, -85, -15, -85, 102, 1, 37, -38, 28, 62, -23, 91, -98, -101, 101, -112, -22, -52, 90, -15, -27, -24, 111, 101, -113, 36, -43, 64, 106, -105, 107, 92, 61, -65, -84, -34, 103, 68, -35, -1, 45, -42, -92, -46, -9, 50, 78, 107, 89, 64, -64, 10, -2, -85, 8, 1, -71, -45, 53, 58, 78, 90, 11, -90, 83, -28, -48, 21, 49, 98, -66, -20, 35, -13, 89, -92, -89, -61, -49, 31, 46, 43, -32, -83, -109, 51, -5, 61, -18, -45, -86, -52, -97, -102, 13, 94, -91, -100, 83, -41, -93, 46, -46, 78, 50, -7, 74, 101, 62, -90, 102, 85, 111, -38, 26, 52, 69, -16, -86, -104, -71, -98, -86, -92, 88, -11, 102, -43, -50, -50, -66, 41, -19, -92, 80, 95, 38, -64, 41, 81, -20, 29, 38, -65, -52, 25, -66, -46, -100, -26, -84, 73, -35, 68, -41, 11, -28, 69, -90, 101, 6, -57, 35, -30, 45, 30, -52, -98, -106, -51, -103, 1, 102, 108, 11, -82, -40, -42, -66, 60, 105, -101, -36, -89, 51, -60, 3, 45, 76, 79, 5, -20, -15, -13, 52, 72, -98, -48, -91, 106, 111, -9, -19, -98, 87, -5, 32, 97, -100, -37, -67, 47, 45, 30, 55, 98, 59, -44, 62, 53, -81, 47, 55, -80, 71, 31, -35, 23, 69, -79, -103, 95, 61, 99, 5, -39, 107, 29, 22, 94, -111, -93, 83, 16, 50, -62, 38, -2, -88, 33, -20, 7, 14, 62, -113, 67, -74, 35, 97, 31, 61, 55, 4, 1, 42, -27, -107, 112, 77, 1, 32, -105, 103, -51, 105, -47, -112, 15, -13, 84, -80, -21, -36, -75, -35, 3, 13, -57, -50, -29, -88, -77, -59, 40, 11, 98, 54, 31, -7, -44, 97, 21, -63, 96, 105, 42, 61, 91, 51, -24, 59, 45, -30, -17, 51, 83, 83, -111, -91, 47, 21, 82, -21, 7, -32, -92, 38, 76, 24, 41, 97, 82, -66, -101, 26, 36, 105, 82, 87, 27, -23, 38, 38, 48, -28, 81, 58, 81, 9, -44, -72, 103, 100, 1, 32, -67, -74, -21, -76, 44, 10, -84, -26, -78, -41, -101, 109, -105, -6, -85, 86, 58, 28, 82, -57, 86, -4, -101, 52, -68, 104, 23, 26, -82, -38, 87, -92, -15, 46, 63, 24, 106, -108, 20, 7, -69, -67, 93, 102, 39, 44, -44, 77, 34, -75, -84, -78, 27, 42, 49, -3, -30, 99, -86, 63, 23, 2, 64, -101, 61, 12, -41, 93, -114, 94, 92, -17, -112, -49, 91, 16, -59, -97, 37, -106, -63, 111, 67, 84, 102, -80, 44, 44, 105, 44, -10, 106, 98, -94, 71, -30, -31, -67, -105, 14, -50, 54, -19, 39, -49, -96, 11, -39, 51, 76, 12, 93, -77, -70, -100, -95, -26, -73, -112, 108, 81, 67, -62, -65, 79, -4, 8, -53, 58, -103, 27, -108, -7, -50, 61, -68, 48, -45, 51, 10, 36, 60, 106, 62, 78, -64, 21, 1, -25, 51, 108, 42, 97, 47, 27, 56, -107, 2, 84, 83, 67, 41, 54, -53, -10, -82, -21, -98, 13, 43, 52, 107, 43, 57, -18, -21, -109, -34, -110, 42, -109, 58, 104, -44, 45, 34, 97, -43, 43, -12, -50, -106, -43, -18, 104, -33, -27, 50, -101, -71, 42, 16, -108, 45, 27, 110, -99, -67, -28, -78, -47, 6, -8, -36, -82, 65, -1, -60, -107, 79, 16, 30, 95, -9, 54, -106, 56, 102, -80, -16, 78, 103, -100, -17, -25, 49, -99, 80, 24, -51, 19, -40, 37, -85, 50, 83, -24, -88, -51, 32, 70, -45, -69, -74, 49, -102, -93, 29, -103, -74, -41, -49, 60, -16, -43, 103, -55, -90, 112, 44, 6, 95, 94, 0, -99, 67, 82, 20, 82, -5, 52, -65, -64, 13, 55, 112, -103, -112, 29, -26, -106, -103, 6, -34, -13, -114, -82, -29, -48, -68, -4, 72, 8, 87, 32, -79, -113, -7, -10, 80, 101, 97, -84, -7, -2, 102, 9, 77, -51, 83, -14, -112, -24, 79, 66, -86, -32, 89, 81, 22, 85, 77, -57, -25, 50, -82, 97, 88, 1, -83, -22, -101, -48, 47, -35, -105, 1, 65, 18, -60, -55, 91, 5, -76, -11, 41, 112, 102, 7, 104, -86, -63, 5, 90, 63, -83, -26, 53, 111, -25, -62, 63, 89, -5, -38, 40, 70, -34, -43, 109, -73, 103, -81, -8, 0, 68, -40, 111, 95, -1, -41, 70, 100, -89, -15, 26, -43, -55, 9, 92, -18, 113, 76, 77, 109, -16, -43, -93, 36, 80, 80, 74, -113, -49, -106, -109, 6, 45, 14, -9, -33, -20, 69, -62, -67, -14, -64, -3, 19, -92, 107, 30, -77, -21, 10, 101, 69, -71, -20, -8, -1, -18, 71, -104, 106, 37, -60, -45, 3, 48, -28, 52, -71, 48, -94, -42, -27, -24, 50, 63, 38, 104, -24, 32, -58, 18, 97, 105, 30, -18, 101, 23, -23, 81, -101, -53, 79, 75, 96, -26, 11, 103, 74, -48, 23, 58, 100, 48, 48, -62, 60, -49, -101, 93, -4, 94, -9, 7, 5, 31, -81, -109, 94, -69, -67, -74, -85, 0, 8, -46, -15, -79, 3, -43, -38, 95, 54, -74, 44, -48, 69, 16, -39, 45, 46, 8, -64, -47, 32, 57, -51, 97, 91, 28, -82, -4, -106, 61, 27, -46, -105, -40, 53, -33, -97, -14, -58, 70, 22, -61, -50, 101, -31, 30, -89, -67, -60, -24, -83, -26, -1, 65, -66, 7, 5, -95, 2, -51, -31, -16, -102, -43, -51, -21, -9, 28, -96, 87, 29, 56, -34, -8, -97, -54, -32, 103, -13, 59, -83, -43, 31, 29, -46, 16, -50, -74, 66, -62, 106, -94, 103, -23, -66, -86, -54, -44, -81, 39, -91, -38, 58, -36, 48, -17, 62, 97, -12, 31, -1, -54, -21, -25, -27, 103, -98, 82, -110, 13, 68, -53, -108, -81, -89, 89, 86, 44, 41, 47, -12, 88, -48, 70, 75, 88, 110, -59, 94, 48, 77, -17, -93, 111, 29, 41, 92, 17, 97, -5, 75, -100, -22, 109, 95, 66, 71, 109, 37, 98, 60, -93, 109, -38, -97, 77, 64, 32, -49, 26, 104, -48, -77, -19, -7, -28, -84, 98, 11, -51, -92, 39, 82, -55, 75, 27, 111, -1, 62, -67, 1, -37, 90, -57, 48, 19, 95, 41, -80, 100, -17, -63, -72, 16, 60, -113, -35, 74, -100, 39, -44, 59, -103, -14, -61, -82, -77, 22, -2, -39, -22, 85, 55, 112, 105, 17, -65, 44, -96, -12, 103, 0, -7, -91, 74, 26, -105, -95, 111, -103, -107, -60, 12, 100, 1, 107, 0, -58, -68, -12, -102, 7, 55, -80, 19, 93, 109, -100, 89, 45, 26, 11, 104, 53, 20, 87, -55, 44, 76, -72, 105, 4, 35, 8, -34, -84, 53, 101, 16, 35, -106, -69, -108, -25, 2, 56, 12, 71, -42, 82, -83, -35, -97, -1, 106, 11, 68, 22}

#define GROUP_CONV2D_KERNEL_0_SHIFT (11)

#define GROUP_CONV2D_BIAS_0 {-26, 59, -58, 10, -107, -79, -30, 45, -103, 91, 103, -14, -43, -57, -103, -38}

#define GROUP_CONV2D_BIAS_0_SHIFT (8)


/* output enconding for each layer */
#define INPUT_1_OUTPUT_SHIFT 7
#define GROUP_CONV2D_OUTPUT_SHIFT 5

/* bias shift and output shift for each layer */
#define GROUP_CONV2D_OUTPUT_RSHIFT (INPUT_1_OUTPUT_SHIFT+GROUP_CONV2D_KERNEL_0_SHIFT-GROUP_CONV2D_OUTPUT_SHIFT)
#define GROUP_CONV2D_BIAS_LSHIFT   (INPUT_1_OUTPUT_SHIFT+GROUP_CONV2D_KERNEL_0_SHIFT-GROUP_CONV2D_BIAS_0_SHIFT)
#if GROUP_CONV2D_OUTPUT_RSHIFT < 0
#error GROUP_CONV2D_OUTPUT_RSHIFT must be bigger than 0
#endif
#if GROUP_CONV2D_BIAS_LSHIFT < 0
#error GROUP_CONV2D_BIAS_LSHIFT must be bigger than 0
#endif

/* weights for each layer */
static const int8_t group_conv2d_weights[] = GROUP_CONV2D_KERNEL_0;
static const nnom_weight_t group_conv2d_w = { (const void*)group_conv2d_weights, GROUP_CONV2D_OUTPUT_RSHIFT};
static const int8_t group_conv2d_bias[] = GROUP_CONV2D_BIAS_0;
static const nnom_bias_t group_conv2d_b = { (const void*)group_conv2d_bias, GROUP_CONV2D_BIAS_LSHIFT};

/* nnom model */
static int8_t nnom_input_data[16384];
static int8_t nnom_output_data[16384];
static nnom_model_t* nnom_model_create(void)
{
	static nnom_model_t model;
	nnom_layer_t* layer[3];

	new_model(&model);

	layer[0] = Input(shape(32, 32, 16), nnom_input_data);
	layer[1] = model.hook(GroupConv2D(16, 2, kernel(9, 9), stride(1, 1), dilation(1, 1), PADDING_SAME, &group_conv2d_w, &group_conv2d_b), layer[0]);
	layer[2] = model.hook(Output(shape(32, 32, 16), nnom_output_data), layer[1]);
	model_compile(&model, layer[0], layer[2]);
	return &model;
}
