#include "nnom.h"

#define ADD_CONV2D_KERNEL_0 {-101, -118, 42, -120, 9, 83, -42, 6, 78, 55, 94, 62, 57, 1, -93, 61, 20, 86, -37, -7, -70, 103, -8, 102, 0, -109, 63, -22, 52, 21, 34, 4, -62, -110, 45, -44, 67, 0, 84, 8, -33, -46, 119, -11, -116, 73, 89, -37, 11, -67, 12, 99, 107, 16, -70, -71, 74, -81, -52, 99, 29, 3, -11, 25, -103, 50, 85, 59, -79, -56, -64, 6, -94, 26, -40, -94, -41, 60, -8, -107, -120, 14, 14, -57, 1, 104, -59, 116, 49, -115, 41, 90, 35, 37, -88, -12, 25, -93, 26, -59, 73, 10, 68, -37, 74, 114, -92, 77, -25, 1, -108, -121, 103, -38, 89, 109, 42, 96, 103, -30, 106, -9, -61, -33, -37, -8, 41, 30, -69, -64, -111, 118, -28, 78, -32, 92, -51, -75, 103, -63, 71, -41, -33, -41, 64, -48, -92, 100, -41, -87, 113, 9, -109, 42, -27, 58, 99, 22, -71, 10, 7, 60, -50, -89, 95, -106, -82, 36, -50, 48, 19, 103, -106, 6, -35, -83, -82, -82, -58, -108, -38, 2, 120, -105, -71, -87, -12, -109, -76, 88, 40, 45, -44, -2, -35, 69, 43, 18, -37, 29, -72, 117, 92, -46, 75, -22, -57, -48, 19, 70, 6, 82, -29, -88, -40, -76, -105, -90, -14, -58, 46, 92, 45, -119, -113, -102, -52, -39, 107, -14, 1, -56, -120, 28, 39, -35, -90, 33, 23, -18, -69, 34, 9, -22, 1, 59, -38, 54, 77, 119, 72, -44, -104, 113, 41, 89, -7, 92, 60, -55, 25, 6, -113, -93, -101, 64, -93, -9, -65, -61, -50, 91, -67, -106, -18, -85, -85, 6, 88, 65, -47, 116, -66, -55, 110, 51, 45, -77, -55, 44, -76, 48, 19, 81, -2, -15, -105, 17, -14, 36, 66, 113, 51, -9, -116, 99, -104, 10, 68, -98, -85, 19, -5, 103, -86, -9, -68, -66, -59, -113, -114, 114, -35, -64, -51, -85, -53, 81, -94, 85, -44, -117, -53, -55, 107, -75, 22, 31, -84, -110, 90, 34, -107, 51, -35, 100, -119, -106, -106, -14, 17, 57, -15, -113, 16, 4, 40, -76, -120, -15, 105, -110, 112, 91, -97, 104, 4, -72, 86, 109, 9, 37, -69, 21, 77, 2, -8, -36, 120, -119, -39, 12, 86, 41, 115, -95, 65, -42, 59, -25, -102, 79, -114, -119, -116, -75, -43, -14, 56, -116, -93, -114, -38, 43, 10, 40, 104, 100, 74, -17, -68, -108, 24, 88, -30, 113, 76, 95, 47, 108, -32, 113, -45, -119, 29, 82, -49, 36, 66, 43, 33, -83, 53, 83, 117, 45, -97, 47, -8, 86, -77, -28, 113, 118, 86, -114, 46, -19, -96, 100, -48, 60, -61, 115, 89, 98, 6, 65, -14, 113, 109, 99, 3, 84, -81, 102, -18, -115, -118, 120, 108, 15, -53, -23, 7, -75, 94, 58, -60, -50, -9, 79, -13, -63, -117, -96, -19, -67, -4, 42, -90, 74, -40, 106, 56, -17, -90, -24, 64, -7, 120, -74, -56, -46, -94, -39, 57, -53, 21, 35, 10, 4, 6, -6, 45, -11, -42, 18, 51, 96, 120, 96, 97, -29, 40, -55, 114, 91, 113, -82, 41, 71, 9, -82, 4, 32, 16, 33, 85, 50, -25, 26, -3, -94, 62, -3, -2, -3, 112, -49, 59, 97, -3, -89, 44, 102, 95, 116, -65, 84, 93, 45, -44, 83, 54, -7, 16, -20, -42, 17, -51, 104, 65, -98, -106, 58, 20, -21, -65, -102, 111, 38, 61, 61, -81, 102, -65, -28, 58, 18, 28, -65, 110, -115, -2, 58, 31, 34, 107, 51, 39, -80, 80, 96, -40, -79, -85, -77, 53, -4, 117, -58, -94, 115, 7, 66, -74, -82, -41, 68, 98, 26, -111, -33, -43, 49, 77, -98, 15, -37, -107, -70, 103, -54, 74, -107, -47, -62, -81, -80, -12, 22, 33, 15, 81, 65, -2, 49, 100, -78, 61, 101, 49, 94, -24, -14, -91, -41, 7, 21, -44, -14, -107, -8, 110, 53, -40, -120, -104, 12, 117, 89, -7, 95, -5, 109, -19, 10, 3, 70, 105, 101, -79, 88, 91, 9, -35, -39, 12, -106, -36, -84, 58, 29, -98, 58, 32, -2, -65, 112, 72, -70, 105, 97, -33, -76, 20, 86, 117, -111, 31, 12, 59, 101, -39, 42, -62, -37, -105, -97, 99, -115, 54, 47, -38, 54, -60, -1, 54, 59, 38, -29, 110, -8, 7, 15, -34, -15, -92, 3, -18, -2, -112, 70, -107, 119, -13, -45, -116, 22, 93, 104, 40, -26, 71, 77, 1, -58, -82, -84, 118, 10, 48, 58, -91, 117, -110, -17, -25, 115, -1, 86, -11, -41, -72, -33, -49, -18, 28, 57, -53, -104, -52, -91, 69, -6, 101, -74, 107, 111, 53, 78, -52, 18, 44, 89, -119, -71, -4, 110, 31, -102, -59, -51, -15, 55, -84, 36, 112, -67, 118, 43, 117, -6, -20, -12, 109, -41, -38, -9, -85, -64, -34, -119, -103, 13, 41, 64, -21, -82, 2, 107, 66, -85, -74, 23, -100, -52, -96, -39, -86, 64, 72, 112, 59, 84, 62, 68, -32, 70, 17, -119, -20, -32, 47, 9, -75, 44, 55, -35, 55, -82, 100, 1, 64, 102, -70, -15, 0, 7, 13, -38, -102, -15, -40, 41, 45, 17, -93, 81, 74, -96, 77, 6, -69, -34, -92, 56, -51, -99, 67, -34, 23, -120, 70, 64, -67, -101, -72, -57, 46, 93, 36, -63, 114, 68, -113, 72, 11, 68, -52, -35, 94, -101, -118, -17, -117, -47, 31, -79, -66, 62, 39, 98, 105, -75, -109, 24, 50, -83, 79, 98, -88, 78, -30, 105, 90, -53, -2, -13, -29, 8, -3, -30, 111, 119, -91, 13, 91, -93, 49, -68, -31, 99, 97, -59, -54, 7, 17, -96, -41, 1, 57, 111, -23, 75, 119, 20, 33, -28, -45, 2, 93, 20, 12, -31, 57, 28, -65, 95, -76, 34, 67, -96, -62, -64, -111, 98, -38, 41, 79, -86, -30, 34, -57, -95, -94, -33, 83, 92, 31, -95, -82, -81, -59, 68, -78, -21, -10, 94, 72, 45, 93, -70, -103, 15, -84, -1, 119, -5, 43, 112, -28, 110, -33, -19, -25, -5, -103, 55, -70, -63, 62, 81, -67, -62, 3, -7, -52, 102, -3, 44, 99, 67, -120, -88, -29, 55, -3, -120, -57, -27, 68, 31, 69, -73, -51, 37, 98, -5, -52, 86, 82, -13, 4, -91, 113, 85, 11, 44, -57, -80, -103, 64, 47, -21, 26, -62, 81, -53, -11, 59, 12, -34, -10, -73, 1, -113, 4, -90, 117, 22, 79, 91, 21, -110, -23, -15, -95, 48, -58, 51, -103, 109, -69, 108, 81, -56, 29, -44, 111, 30, -6, -48, 79, 17, -85, 49, -110, -102, 55, -105, 1, 71, -7, 23, -92, 72, 40, 92, 86, -13, -113, 74, -12, -60, -9, 112, 21, 79, -68, -109, 97, 73, 19, -86, 112, -20, -37, 80, 86, 88, 106, 68, 4, -18, -19, -17, 45, -30, 13, 98, -53, -60, -96, 60, 18, -67, -108, -37, 88, -62, -110, -64, 113, -36, 16, 42, -43, 45, 62, 2, 50, -75, -8, 86, -64, -96, 61, -86, -17, 107, 50, 116, 69, -60, -58, -13, 61, 67, 61, 65, 11, -43, -12, -101, 84, -45, -4, 80, -60, 19, 85, -77, 62, 17, -50, 84, -25, -95, 26, -81, -79, -91, -2, -83, 44, -33, -111, -108, 88, 93, -40, 64, 30, 69, -35, -48, 34, 102, -60, -107, -35, 19, -28, 25, 60, 110, -16, 116, -108, 22, 48, -87, 44, -37, -72, 0, 75, 71, -95, 8, -46, -31, 74, -31, -107, -14, 106, 12, 3, 15, -82, -67, -117, -48, 29, -111, 104, 49, -56, -21, 111, -72, -75, 100, 71, 27, -5, 37, -109, 39, -98, -17, 102, 120, 18, 119, 44, 101, -29, 0, 87, -87, -14, 34, -92, -29, 81, 64, -67, -38, -94, 41, -16, 65, 107, -56, 60, 58, 62, -53, 117, -50, 32, -6, 87, 49, 113, 39, 97, -82, -33, 86, -80, -104, -19, 105, 7, 41, -64, 118, 10, 17, -98, 1, 51, -81, -66, -118, -59, -102, -81, 83, 53, 118, -94, 96, 61, 64, 107, -73, -48, -107, 111, -73, 27, -46, -71, 106, 53, 15, -101, 23, -14, 76, 26, 37, -53, 84, -43, 21, -38, 67, -116, 111, -63, -21, 54, -51, -116, 32, 10, 21, -106, -54, 117, -57, -20, -21, 7, 111, 104, -15, -56, -69, 21, -70, -73, 35, -36, 103, -115, -110, 29, 120, -55, 59, 66, -24, 62, 99, 15, 3, 65, -23, 3, -36, -29, 5, 102, 41, -99, 116, 9, 13, 103, -56, 17, -111, 28, -119, 32, 116, 51, 51, -53, 118, 9, 19, -83, 49, 40, -90, 105, -64, 109, -119, -35, -26, 69, -83, 26, -38, -17, 79, -101, 50, 27, -74, -12, 107, 9, 66, -81, -109, 41, 7, 120, 87, 31, -74, -51, -47, -113, 80, 61, 17, -114, -53, 90, -55, 46, -11, -13, -23, 16, -44, 71, -81, 50, 74, -97, -120, -60, -77, -49, 52, -58, -28, 64, -58, 113, -10, -75, 30, -87, 22, 11, 5, -26, 0, 78, 87, 38, -117, 74, 23, -15, 60, 6, 106, -65, 28, 116, -67, -67, 6, -65, 67, 27, 64, 60, -108, 16, -102, -81, 103, 101, -117, -55, -94, -91, -64, 44, 24, -51, -24, -119, -93, 61, 35, -3, 21, 50, -113, 47, 78, 96, 43, 25, 4, 24, 5, -43, 21, 29, 73, 82, -107, 89, 66, -114, 33, -43, 55, 9, -6, -119, 110, -60, -80, 91, -114, 89, -75, -93, 52, -20, 91, 53, -102, -81, 95, -50, -101, -109, 47, 25, -93, -42, -75, 120, -28, -115, -100, 98, 63, -47, -107, -110, -56, -43, -43, 46, -73, 90, -3, 13, -51, -46, -68, -112, -67, -16, -72, -88, 57, 103, 39, -104, -33, 38, 66, 75, -62, -25, 93, -23, 56, -4, 66, 13, -6, 17, 68, -22, 37, -111, -52, 19, 53, 9, -41, 47, -69, -62, 69, -56, -79, 101, -20, -29, -57, -53, -90, -73, 69, 58, 16, 98, -118, -56, -12, 75, -117, -70, 84, 119, -20, 51, -2, 61, -6, 114, 43, -14, 32, -55, -5, 106, -105, -63, 62, -120, 83, 27, 71, 13, 95, 115, 79, -74, -40, 75, -63, -31, 30, 24, 113, -51, -101, -50, 85, 54, 120, -106, 82, -95, 60, -95, 119, -1, 29, -66, 46, -83, 66, -7, 104, 77, -32, -73, 74, 81, 90, -56, 25, -42, 100, -83, 8, -112, -113, -11, 33, 101, 69, -50, 111, 9, -24, 52, 111, -55, 20, -25, -107, 106, 34, 60, -52, -114, -87, 16, 36, 42, -56, -20, -110, -43, 73, -87, -86, 102, 14, 90, -97, 85, 97, -96, -70, -100, -70, 11, 87, -90, -58, 8, 9, 100, 99, -89, -14, -76, -18, -36, -5, -5, -106, -61, 54, -60, -48, 87, -11, -91, -35, -7, -73, 84, 67, -56, 26, -37, 37, 97, 19, 16, -32, -56, -47, 61, -110, -19, -34, -91, 83, 109, -109, 14, -77, 6, -100, 60, 28, 88, 64, 97, 18, -89, 57, 117, 2, -81, -60, 48, -36, -79, 25, 14, -5, 46, -112, -96, 116, 40, 12, 61, 10, -10, 50, -104, -7, -57, -32, 94, -103, 90, -81, -39, 7, -81, 69, 58, -77, -85, 36, -67, -34, -36, 92, -114, -80, -34, -9, 95, -118, -11, -43, -64, 25, -32, 100, -56, 111, 15, 16, -16, 106, -84, 28, 90, 83, 115, -8, 98, 26, -8, -39, 92, 86, 14, 91, -110, 79, 36, -95, -91, 56, -34, -28, 104, 112, -70, -31, 116, -49, 85, 38, -90, 84, 64, -117, 24, 107, -31, -113, 57, -33, -22, 107, -81, 58, 32, 34, 84, -69, -93, 51, -63, -39, -6, 111, -48, -22, 67, 110, -27, 86, -54, -48, 63, -44, 62, -87, -32, -2, -36, -108, -97, -101, 101, -97, -23, 37, 72, -86, 19, -58, 90, 3, 85, 67, -90, 81, 35, -18, 72, 68, 49, 2, 16, -88, -51, 49, -24, 84, -6, 110, 104, -52, 110, 94, 10, -4, 39, -60, 1, -16, 18, 39, -41, -70, -89, -59, 4, -114, 107, 115, -67, 107, -23, 62, -31, 8, -51, 62, 10, 21, 50, -96, 109, 14, 114, 43, 44, -100, 0, -13, 40, -57, -116, -8, 115, 87, -92, 54, 83, -21, 42, 31, 0, 27, -12, 5, 49, 93, -90, 93, -81, -34, 72, 40, -70, -21, 2, -101, 69, 37, 111, -95, 60, 91, -99, 93, 27, -94, 60, 102, 44, 23, -105, 79, 16, 108, 86, 8, 79, -110, -116, 88, 76, 96, 42, 20, 24, 34, -61, 28, 91, 113, -72, 81, 14, 90, -71, -55, -40, 19, 112, -105, -83, -73, 59, -88, 34, -21, 24, 75, -19, 94, -27, -4, -94, -94, -73, 14, 56, 90, 45, 11, 44, 44, 28, 116, 44, 73, -94, -85, -42, -81, -53, 45, 82, 60, -69, -40, 62, -20, -17, 52, -76, 96, 93, -109, -8, 71, -23, 11, 37, -5, 115, -47, -53, 96, -80, 38, 69, -89, 89, 39, 71, 37, -95, 73, 27, -111, 93, 8, 20, -50, -76, 20, -45, 80, 63, -84, -114, 87, 95, 97, -57, 61, -76, -39, 53, 116, -8, 101, -71, -43, -114, 119, -36, -21, 78, -107, -96, -116, -113, 47, -10, 63, 89, -39, 66, -57, 75, -77, 52, 11, -23, 83, 38, -104, -45, -29, 46, 33, 53, -52, 100, -52, -93, 104, 104, 118, 115, 78, -24, 16, 54, -44, 16, 92, -37, 66, -56, -77, 4, -27, -24, -5, -13, -16, -84, 31, -109, -81, -117, 102, -24, 6, -20, 63, -75, 50, 26, 24, 68, -40, 21, 120, -115, 92, -55, 109, 0, -85, 98, -101, -60, 66, 91, 67, -106, 77, 95, -72, 22, 48, -43, 47, 50, -5, 41, 31, -68, 26, -17, 97, 120, 19, 73, 106, -119, -55, 33, 114, 74, -67, -44, -72, -108, 114, -9, 56, -40, 85, -10, -69, 57, 87, -20, 7, -8, 29, 37, -59, -55, 14, 33, 50, 29, 56, 50, 96, 35, -11, 44, 59, 8, 4, 44, -69, 112, -27, 19, -113, 2, 65, 65, -98, -91, 28, 81, -112, -119, 84, -20, -16, 33, 32, -84, -70, 80, 70, -18, -4, 44, 63, -94, -2, 80, -52, -20, -103, 62, -84, 0, 3, 39, -96, -27, -59, 16, -65, 99, -51, -73, 115, -29, 46, 45, 17, -90, 53, 121, -116, -113, -49, -20, 15, 78, 93, -6, 96, -61, 30, 80, 11, 0, 79, -19, 30, -87, -48, -92, 114, -44, -67, 30, -66, -37, 106, 72, 91, 112, 41, -92, 26, 29, 92, -33, 58, 72, -63, 63, -17, -87, -24, -47, 47, -113, -75, -108, -25, 20, 20, 49, 63, -27, 89, 34, 78, -18, -77, -74, 47, 66, 93, -60, 46, 77, -15, 115, 115, 31, -56, -36, 53, -22, 27, -75, -11, 34, 21, -5, -36, -9, -77, 3, 31, 78, 113, 43, -24, -118, 92, 28, -108, 12, 14, -52, -7, -104, 21, -112, -76, -79, 10, 92, 46, -9, 113, -59, 72, 34, 120, 86, -91, -38, 27, -7, 6, -42, 102, -57, 12, 1, -14, -21, -2, 26, -40, -12, -107, 114, -120, 45, -50, -85, -26, 10, -97, 117, -53, 28, -48, 57, -94, -11, -111, 17, 120, 104, 66, 114, -25, 40, 39, -96, -18, -9, -27, 93, 22, 96, 18, 97, -119, -118, -6, 48, 56, -8, 55, 120, -27, 40, 7, 0, -13, 36, 45, -39, 66, 103, 93, -115, 70, -86, 81, -79, -8, 34, -40, 15, -78, -44, -95, -60, -58, -45, 22, -111, 6, 74, -60, -110, -107, -20, 90, -22, -26, -51, 24, -56, 9, -5, 91, -88, 52, 66, -33, 68, 51, 31, 82, 44, -68, 100, -56, 2, -107, 50, 117, -25, -33, 30, -53, 32, 103, 78, 45, -67, 121, -90, -112, -116, 48, -119, -94, 40, -12, -54, 114, -22, 114, -118, 48, -59, 84, -40, -14, 45, 73, -73, 91, 30, -38, 33, 93, 92, -35, 107, -103, 3, -67, 27, 59, -23, 78, -64, 109, -66, 114, -102, -77, -46, 116, 50, -11, 11, -57, 110, 52, -76, 119, 103, -40, 106, 42, 110, 43, -53, 86, -44, 60, -1, 82, -52, 93, 109, 29, -92, -35, -78, -79, 17, 93, -57, 78, -41, -43, 90, 9, -83, 23, -71, -60, -67, 120, -83, 58, -98, -84, -75, 67, -81, 108, 25, 3, -70, 39, 42, -83, 68, -45, -48, 117, -49, 77, 7, 45, 110, 48, 52, -45, -119, 7, -79, 2, -27, 25, -86, 18, 26, -32, 63, 116, -113, 102, -14, -84, -33, -36, -53, 96, -2, -83, 105, -73, -26, -63, -95, 16, -52, -27, 80, -103, 96, 117, -93, 46, 104, 110, -51, -85, -9, -119, 47, -34, -57, 47, 14, 115, -10, 36, 87, -37, -109, 106, -106, 60, -91, -75, 104, 40, -105, 63, -80, 107, 42, -30, 102, -103, -92, -65, 85, -58, -50, 116, -33, 42, -47, 104, -37, -46, 80, 116, 120, -104, -33, -53, 105, -53, 43, -37, 62, -102, 42, 54, 71, 36, -57, 81, -79, -92, 23, 96, 68, -66, -9, 56, -71, -44, -45, -14, -113, -108, 42, -90, -17, 75, -24, -57, -23, 52, -8, 75, -13, -104, 45, 98, -50, 82, -24, -85, 44, -87, 61, -86, 35, -5, -97, -29, -20, -55, 97, 111, -76, 63, -13, -3, -45, -75, -28, -120, -109, 99, 45, -79, -11, -12, -57, -18, 14, -119, 57, -101, 8, 22, 108, 62, -49, 97, 3, 117, 14, -18, -38, -36, 51, -119, 40, -67, -93, 100, -84, -100, 28, -18, -103, 4, 72, -55, 96, -60, -96, -70, -47, -32, -115, 11, -70, 67, 101, -5, 118, 14, -119, 113, -46, -120, 4, 14, 115, -51, -56, 42, 94, 2, -69, -34, 91, 27, -71, 20, 75, -35, -5, -6, -64, 17, 6, -86, 72, 0, 74, 61, -40, -70, -50, 3, -115, 49, 86, -9, 115, -100, 8, 15, 91, -66, -83, 53, 22, 59, -15, 110, -108, -51, 56, -84, -47, 62, -109, 17, -28, -78, 5, 87, 99, 65, 55, 64, 41, -110, 23, -8, -27, 9, -6, -2, -88, -77, 109, -31, -37, -19, 117, 10, -117, 57, 18, 27, -110, 71, -112, 22, 73, -99, -51, -80, -35, -31, 55, 106, 84, 88, -10, -84, -10, -101, 3, 10, 43, -104, 19, 98, -57, -38, 79, 72, 92, 84, -78, 68, 47, 102, -71, -105, 59, 53, 90, -66, 96, -96, -105, -119, -34, 42, 28, 68, 59, 96, -109, -55, 111, 10, -119, -54, 65, -40, -21, -99, -8, 101, 61, -19, -114, 42, -37, -10, -105, -18, 93, 88, -44, -25, -93, 41, 17, 57, 23, 75, -89, -24, -85, -30, -96, 18, 119, 90, 42, -66, 113, 116, 103, -96, 57, 109, -58, 16, 107, 37, -84, 34, 5, -24, -49, -78, -82, 93, -48, 44, 99, 15, -33, 25, 104, -68, 2, -87, 116, 35, -79, -112, 13, 54, 88, -88, 13, -79, -28, 8, -120, 14, -46, -52, -17, 79, -42, -40, 116, 38, -118, -40, 94, -101, -107, 70, 88, -45, -72, -16, -60, -10, -9, -54, 108, 2, 54, -41, -68, 2, 26, 100, 40, -60, -108, 84, -15, 77, -118, 19, 77, 70, 112, 104, 64, -76, 77, 41, 50, -49, -40, -88, 31, 105, -97, 31, -33, -112, 13, 76, -30, 42, 79, -70, 88, -67, -52, -110, 8, -19, 39, -87, 105, 2, -102, 45, -79, -32, 11, 92, 16, -109, -60, 78, 112, -1, 40, -72, -103, -31, 39, 65, 47, -86, -35, 42, -33, 43, -98, 29, 100, 106, 67, 99, -50, -51, 17, 110, -53, 65, 84, -96, 57, 14, 79, -89, -67, -58, 21, 83, 28, 72, 114, 29, -79, 102, 48, -80, -5, -18, 24, -120, -19, -62, 60, 107, -20, -63, 103, -15, -9, 84, -24, -109, -103, 119, -44, 37, 35, -44, -88, 38, -90, 64, 67, 8, -11, -5, -57, 78, -67, -113, -44, -38, -110, -51, -101, 45, 54, 39, 24, 68, -56, 75, -72, -117, 38, -119, -83, 48, -85, 94, 82, -80, -42, -103, 55, 79, -120, -101, -94, -29, 36, -45, 37, 44, 24, -111, 64, 118, 101, -78, -15, 105, -104, 70, 25, -91, -66, 31, -119, 75, -37, -85, -97, 109, 112, -49, 4, -72, 42, -98, -46, -55, 97, 45, -22, -88, -47, -113, 82, 0, -92, -63, -115, -114, 77, 78, -44, 25, -18, 73, 5, -62, -86, -27, 4, -4, 119, 79, -62, 117, -34, -92, 62, -15, 84, -93, -84, -81, -55, -112, -76, 116, -113, 44, 58, -121, 94, 2, -56, 6, 106, -11, -15, 1, -80, -61, 51, 96, -26, -100, -102, 76, -66, -30, -46, 16, 1, 25, 105, -68, -77, 44, -60, 97, -72, -102, -7, 3, 119, -33, 101, 119, -80, 33, -119, -8, 75, 38, 28, -46, -59, 112, 116, 78, 36, 30, -22, 10, -97, 21, -110, 66, 58, -5, 21, -47, 63, 81, -34, -19, -15, -68, -31, -115, 84, -66, -56, -88, 107, -70, -33, 21, 87, 27, 57, -100, -95, -44, 50, -114, 4, 7, 86, -48, 69, -107, 63, 119, 51, 11, 20, -43, -1, 43, 89, -54, 20, -112, -1, -63, 78, 52, -91, -23, 34, 11, 88, 101, 22, -42, -102, 4, -64, 19, 119, 11, 35, -70, 73, 52, 16, 105, 112, 76, -21, 87, -29, -3, 77, 30, 7, 27, 73, -99, -2, -14, 110, -106, -54, 64, 54, 117, -28, -18, 74, 99, -58, 117, -72, -16, 70, 8, 14, 31, 77, 90, -88, -86, 70, 30, 95, 118, 73, -114, -55, 67, 62, 78, 83, -12, -84, 78, -94, 47, 101, 82, -113, -66, 106, 28, 53, -107, -101, -14, -12, -18, 49, -106, 67, 33, -119, 107, 77, 42, 63, -44, -7, 87, -92, 40, 31, 22, 70, 38, 90, -11, 72, 15, -118, -113, -81, -62, -117, -112, -33, -87, -60, -67, 29, -94, -30, 29, 68, -3, 63, -6, 10, 17, -26, -3, -36, -59, 13, 112, 66, 3, 55, -56, -35, 79, 39, 14, 48, -21, 42, 48, 57, 69, -60, -30, -40, -58, -37, -112, -65, -115, 99, 5, -69, 17, -38, -19, 3, 118, -65, -116, -12, 28, 3, 15, -33, 42, -66, -31, 102, -82, -58, -14, -51, 15, 66, 38, -98, 74, -116, -92, 22, -51, 24, 66, 32, 70, 64, 11, 51, -60, 5, 97, 99, -14, 18, -59, 89, 49, -73, -105, 3, 48, 86, -7, 4, -51, 19, -50, 70, 1, -13, 99, 14, -52, -119, -15, -68, -74, -61, -25, 111, -50, -13, 2, -94, 77, -18, -4, 46, -61, -112, 54, -115, 67, -74, -100, 33, -43, 49, 12, 7, -26, 79, 108, 4, 59, -80, -81, 42, -74, 77, -68, 45, -67, -89, -28, 33, -111, 7, 1, -36, 48, 70, -88, -18, 29, -57, -30, 83, 119, 47, 117, 14, -95, -114, -1, 118, -11, 81, -42, 27, 102, 96, -67, 37, 116, 39, 70, -53, 120, -103, 116, 62, -106, 7, 90, -66, 18, 57, 99, -76, 86, 41, -6, 45, -115, -4, 40, 116, -71, 26, 62, 114, 83, 10, -100, 72, 77, 87, -42, 70, 120, 31, -17, -82, -110, -16, 27, 84, 91, 20, 42, -82, 16, 1, -37, -105, -78, 89, 34, -54, -70, 27, -97, 88, -7, 110, 65, -118, -39, 84, -57, 54, -85, 105, -50, 103, -105, -95, -37, 19, 114, 4, 10, -89, 44, 67, 44, 101, 76, -83, 27, -101, 12, 78, 39, 112, 116, -19, -82, 94, -60, -108, -77, -101, -75, 48, -49, 92, 94, -55, 34, -95, -6, 28, -98, 49, -106, -34, 4, 48, -8, 43, 110, 14, -106, 110, -23, -11, 53, 39, -104, 17, -101, -113, -47, 105, -77, 77, -84, 120, -96, -111, 20, 36, 10, -68, -102, 94, 102, -78, -82, -61, 25, -94, -5, -10, 2, -6, -109, -88, -110, 93, 24, -34, 41, -108, 95, 46, -59, -31, 106, 62, 88, -76, 56, 36, 24, -97, 88, 104, -20, 104, -31, 101, -16, -90, -55, 10, 115, -18, 9, 15, -8, 16, -83, 108, -82, -89, 95, -93, 104, 19, 16, 66, 3, -33, 81, -6, -69, 60, -80, 80, -14, 98, -75, 84, 76, 64, -64, 117, 3, -61, 1, -37, -68, -119, -100, 11, -30, -65, 112, -100, -101, 90, 79, 46, -102, -55, 58, 47, 120, -63, -8, 66, 48, 10, 17, 1, -60, 87, -97, -14, -66, 52, -70, 72, -52, -27, 11, 36, -28, -30, 99, 99, 108, -94, 63, 81, -72, 26, -93, 102, -75, 72, 73, 41, 46, -46, 78, -82, -94, -22, 42, -65, 26, 118, 29, 82, 19, 119, -30, 10, -42, -47, -120, -94, 101, -85, -46, -14, -42, 93, -72, -40, 6, -104, -61, -68, 96, 30, -55, 89, -110, -38, -33, 4, 117, -56, -119, 3, -58, -24, 42, -31, 110, -91, 67, 51, -115, 81, -70, 61, 119, 104, -11, 14, 97, -29, 88, -46, -112, -48, 105, 34, -93, -113, 1, 19, 61, -66, -119, 42, -6, -37, 4, -107, -57, 101, 30, 94, 86, -34, -40, 30, -5, -111, -72, 77, 26, -109, 64, 40, 111, -60, -54, 98, -45, -105, -113, 41, -10, 48, -11, 54, 6, -9, 91, -121, 118, -114, 82, -90, 38, 92, 118, -23, -52, 77, 76, 110, 59, 69, -29, -38, 67, 35, 119, -66, 26, 72, 91, -56, -67, 92, -19, 120, 29, -81, -69, -116, 19, 14, 39, 35, -71, 97, -108, -48, 29, 104, 1, 111, 78, 80, -94, 68, -117, 8, 14, 25, 56, -31, 99, -68, -97, -55, 7, -32, -65, -120, -13, -60, -70, -113, 34, 46, 107, 58, -69, 58, -104, -50, 51, -76, 69, -93, -32, -118, -17, -6, 78, -4, -75, -35, 78, 83, 40, 0, -60, -40, 111, 22, -8, 87, -98, 97, 102, -72, 53, -78, 81, -66, 14, -71, -59, 6, -117, 14, -81, -17, 72, -102, 51, 11, 35, 74, -100, -119, 67, 22, -103, 82, -40, -71, -71, 33, 102, -86, -74, -4, -28, -74, 21, -98, -6, 66, -74, 39, -34, 61, 100, 39, 30, 4, -15, -66, -66, 90, -49, 74, 107, -34, 27, 79, 88, -69, -22, 1, -94, 119, -48, 29, 12, -26, 116, 97, 21, -102, 117, -117, 102, 77, 39, -89, -113, -78, 29, -37, -53, -67, 107, -27, -62, -73, -76, 37, 0, -65, 75, -65, -44, 88, -12, 116, 43, -15, 19, 106, 97, -30, -28, -4, -105, 101, 92, -85, 87, -60, -11, -62, 1, -15, -59, -48, -77, -50, 0, 16, -38, -119, 107, 80, 31, -20, 45, -116, -21, 10, 88, 47, -39, 117, 3, 29, -98, -41, -60, -14, -77, -119, 15, -49, -4, 47, 116, -5, -120, 110, -56, -67, -94, 32, 73, 28, 92, -98, -24, 91, 16, 69, -35, 96, -85, 45, 48, -80, -95, -32, -12, -115, -17, -102, -35, 95, -49, -90, 4, 93, 115, -29, 2, -39, 62, 72, -81, 83, -60, 33, 35, -61, 109, -21, -37, -73, -4, 53, -78, -71, -29, 13, -31, -13, 3, 71, 86, -83, 112, 101, 78, -109, 2, 118, 54, -38, -4, -62, 76, -59, -99, 69, -92, 77, 17, -40, 26, -120, -56, -70, -32, -95, 107, -22, 32, -56, -23, 106, -7, -23, -97, 105, 55, 30, -87, -83, -70, -49, 110, -86, 101, 85, -27, 88, -37, -113, -43, -38, 96, -70, 52, -58, -20, -94, 83, 45, -4, -20, 41, -81, -11, -106, 66, 108, -96, 32, -9, -29, 111, 57, 79, -73, -65}

#define ADD_CONV2D_KERNEL_0_SHIFT (10)

#define ADD_CONV2D_BIAS_0 {94, -96, 15, -15, 4, -36, -30, 2, -18, -48, -51, 78, 107, 101, 29, 64}

#define ADD_CONV2D_BIAS_0_SHIFT (8)

#define BATCH_NORMALIZATION_KERNEL_0 {70, 71, 71, 71, 71, 71, 71, 72, 71, 71, 71, 70, 70, 71, 71, 71}

#define BATCH_NORMALIZATION_KERNEL_0_SHIFT (7)

#define BATCH_NORMALIZATION_BIAS_0 {111, 111, 111, 112, 111, 112, 112, 111, 110, 112, 112, 112, 110, 111, 112, 112}

#define BATCH_NORMALIZATION_BIAS_0_SHIFT (7)


/* output enconding for each layer */
#define INPUT_1_OUTPUT_SHIFT 7
#define ADD_CONV2D_OUTPUT_SHIFT -1
#define BATCH_NORMALIZATION_OUTPUT_SHIFT 0

/* bias shift and output shift for each layer */
#define ADD_CONV2D_INPUT_LSHIFT (ADD_CONV2D_KERNEL_0_SHIFT-INPUT_1_OUTPUT_SHIFT)
#if ADD_CONV2D_INPUT_LSHIFT > 0
#define ADD_CONV2D_MODE 1
#define ADD_CONV2D_INTER_SHIFT ADD_CONV2D_KERNEL_0_SHIFT
#define ADD_CONV2D_INTER_LSHIFT (ADD_CONV2D_KERNEL_0_SHIFT-INPUT_1_OUTPUT_SHIFT)
#elif ADD_CONV2D_INPUT_LSHIFT < 0
#define ADD_CONV2D_MODE 2
#define ADD_CONV2D_INTER_SHIFT INPUT_1_OUTPUT_SHIFT
#define ADD_CONV2D_INTER_LSHIFT (INPUT_1_OUTPUT_SHIFT-ADD_CONV2D_KERNEL_0_SHIFT)
#else
#define ADD_CONV2D_MODE 0
#define ADD_CONV2D_INTER_SHIFT ADD_CONV2D_KERNEL_0_SHIFT
#define ADD_CONV2D_INTER_LSHIFT 0
#endif
#define ADD_CONV2D_OUTPUT_RSHIFT   (ADD_CONV2D_INTER_SHIFT-ADD_CONV2D_OUTPUT_SHIFT)
#define ADD_CONV2D_BIAS_LSHIFT   (ADD_CONV2D_INTER_SHIFT-ADD_CONV2D_BIAS_0_SHIFT)
#if ADD_CONV2D_OUTPUT_RSHIFT < 0
#error ADD_CONV2D_OUTPUT_RSHIFT must be bigger than 0
#endif
#if ADD_CONV2D_BIAS_LSHIFT < 0
#error ADD_CONV2D_BIAS_LSHIFT must be bigger than 0
#endif
#define BATCH_NORMALIZATION_OUTPUT_RSHIFT (ADD_CONV2D_OUTPUT_SHIFT+BATCH_NORMALIZATION_KERNEL_0_SHIFT-BATCH_NORMALIZATION_OUTPUT_SHIFT)
#define BATCH_NORMALIZATION_BIAS_LSHIFT   (ADD_CONV2D_OUTPUT_SHIFT+BATCH_NORMALIZATION_KERNEL_0_SHIFT-BATCH_NORMALIZATION_BIAS_0_SHIFT)
#if BATCH_NORMALIZATION_OUTPUT_RSHIFT < 0
#error BATCH_NORMALIZATION_OUTPUT_RSHIFT must be bigger than 0
#endif
#if BATCH_NORMALIZATION_BIAS_LSHIFT < 0
#error BATCH_NORMALIZATION_BIAS_LSHIFT must be bigger than 0
#endif

/* weights for each layer */
static const int8_t add_conv2d_weights[] = ADD_CONV2D_KERNEL_0;
static const nnom_weight_t add_conv2d_w = { (const void*)add_conv2d_weights, ADD_CONV2D_OUTPUT_RSHIFT};
static const int8_t add_conv2d_bias[] = ADD_CONV2D_BIAS_0;
static const nnom_bias_t add_conv2d_b = { (const void*)add_conv2d_bias, ADD_CONV2D_BIAS_LSHIFT};
static const nnom_addconv_parameter_t add_conv2d_parameter = { (const void*)NULL, ADD_CONV2D_MODE, ADD_CONV2D_INTER_LSHIFT};
static const int8_t batch_normalization_weights[] = BATCH_NORMALIZATION_KERNEL_0;
static const nnom_weight_t batch_normalization_w = { (const void*)batch_normalization_weights, BATCH_NORMALIZATION_OUTPUT_RSHIFT};
static const int8_t batch_normalization_bias[] = BATCH_NORMALIZATION_BIAS_0;
static const nnom_bias_t batch_normalization_b = { (const void*)batch_normalization_bias, BATCH_NORMALIZATION_BIAS_LSHIFT};

/* nnom model */
static int8_t nnom_input_data[32768];
static int8_t nnom_output_data[16384];
static nnom_model_t* nnom_model_create(void)
{
	static nnom_model_t model;
	nnom_layer_t* layer[4];

	new_model(&model);

	layer[0] = Input(shape(32, 32, 32), nnom_input_data);
	layer[1] = model.hook(AddConv2D(16, kernel(3, 3), stride(1, 1), dilation(1, 1), PADDING_SAME, &add_conv2d_w, &add_conv2d_b, &add_conv2d_parameter), layer[0]);
	layer[2] = model.hook(BatchNormalization(16, &batch_normalization_w, &batch_normalization_b), layer[1]);
	layer[3] = model.hook(Output(shape(32, 32, 16), nnom_output_data), layer[2]);
	model_compile(&model, layer[0], layer[3]);
	return &model;
}
