#include "nnom.h"

#define GROUP_CONV2D_KERNEL_0 {-68, -62, -17, 87, -34, 74, 71, 89, 31, 34, -80, 64, -36, -36, -71, -17, 93, 92, 83, -17, -52, -7, 77, 50, -16, -47, 58, -46, -27, 28, -37, -43, -51, -27, 20, -67, 76, 6, 53, 9, 60, -3, 34, -16, 77, 61, 16, 53, 37, 75, -35, 55, -69, 78, -43, 24, 11, 12, -15, -29, 98, -21, -24, 19, 28, 69, -77, 13, -37, 55, 68, 67, -82, 54, -68, 59, 57, 58, -80, 14, -91, -17, 44, -14, 9, -42, 52, 20, 92, -48, 80, 1, 5, -86, 86, 7, -17, -94, -13, -32, -56, -28, -98, -90, 19, -83, 77, 18, 89, 54, -7, 7, -24, -30, 46, 94, -69, -57, -73, 16, -81, 83, 86, 47, 50, -23, -23, 8, -75, 17, 51, 77, 94, 51, 27, 97, 9, -64, -1, 80, -45, -22, -24, 6, 95, -95, 9, -58, -71, 51, -67, 80, -30, 40, 75, 54, 28, -67, -71, 43, -50, 63, 19, -88, 31, 74, -63, 24, -43, -62, -85, -60, 96, -28, 66, -70, -68, 97, 16, 31, 4, 96, -47, 61, 42, -30, -69, -52, 88, -24, 44, -43, -54, 80, 6, -78, 72, 41, 54, -18, -22, -68, 1, -60, -41, -29, -33, -23, -18, 51, 50, -58, -69, -94, -19, -51, 19, 88, 56, -68, 7, 22, 37, -33, 58, -16, 70, -59, 30, 13, 67, 97, 40, -66, 13, -40, -59, 68, -6, -64, 3, -21, -18, 45, -86, -53, 67, -45, 42, -56, -81, -6, 42, 81, -17, -29, 38, 70, -11, -10, 94, 46, -19, -52, -10, -86, -95, 43, -68, -62, -86, -69, 49, -45, -57, -4, 33, -74, -57, -53, -4, 43, 53, 4, -34, 58, -14, 88, 62, 67, 49, -56, 41, 59, -97, -73, 81, -59, -3, 9, -49, 47, 46, 1, 70, 24, -90, -51, -36, -60, -68, 70, 13, -33, 8, -34, -73, 3, -71, 89, 65, -47, 92, -2, -13, 13, -26, -50, 0, -65, -69, 74, -48, 4, -24, 6, 80, 68, -22, 48, 38, 60, -51, -98, 38, 14, -14, 22, -45, 58, -27, -24, 98, 83, -94, 73, 1, 40, -20, -2, 89, 80, 52, 46, -66, 81, -7, 59, 7, 5, 5, -18, 93, 21, -80, -21, 79, 80, -81, -42, -2, -52, -95, 85, 71, -96, -98, -37, 23, 42, -53, 87, -16, -63, -24, 84, -86, 79, 22, -33, -67, -79, -5, 43, 94, 96, -77, -58, -97, -40, 89, 2, -14, -7, -56, -35, 14, -50, 58, 45, -90, -72, 71, -1, 32, -68, 21, -69, 46, 64, 62, 78, -92, 16, -89, 23, -44, 15, -59, 84, -69, -34, 64, 69, 25, -68, 88, 48, 0, 78, 90, 76, -37, -22, -65, -16, -72, 66, 25, -65, -24, -85, -63, 54, 94, 76, 17, -10, 65, 6, -21, -88, -70, 69, -65, -54, 60, 40, 53, -96, 1, -85, 5, 38, -93, 72, -75, 55, 38, 38, 25, 50, -53, -51, -68, 53, 68, 51, -17, -13, 94, 55, -86, 74, 41, -16, 3, 33, -49, -22, -98, 94, 96, -9, 35, -73, 90, 0, -16, -61, -12, -97, 56, 75, 86, 9, -87, -72, 97, 92, -86, 15, 66, -24, -36, 44, -83, 53, -33, 15, -68, -86, 54, 80, -31, 6, -90, -91, 28, 69, -26, 41, 47, -91, -50, -5, 34, -40, -85, 39, 28, -49, 94, -38, -11, 68, -23, -19, 33, -3, -39, -63, 62, -43, 80, 83, -65, 77, 96, -79, 42, -7, -34, 46, -78, 77, -64, 39, -18, 52, 15, -53, 91, 9, 42, 56, 1, -79, 66, -48, -7, -45, -25, -67, -65, 36, -54, 66, -83, -11, -44, -98, -80, -18, -90, -54, 82, 45, -28, 70, -67, -55, 88, 44, 31, 43, -62, -3, 14, 23, -71, -25, 3, 1, -39, 53, 6, -34, 74, -38, 62, 19, -37, 62, 46, 74, 92, 12, 78, 63, 83, -13, 41, -29, -76, 14, 88, 11, -50, -86, 78, -79, -76, -79, 90, 1, -95, 59, -21, -38, 80, 16, -14, 50, -96, 47, -75, -37, 3, 44, -7, -9, 28, -21, -53, 49, -14, -24, 2, -73, -19, 80, -85, 67, -92, -26, -1, -44, -89, -26, 20, -76, 5, 50, 25, 97, 53, -41, 91, 12, 64, -73, -30, 68, 95, -31, -88, -43, -61, 21, 79, 26, -22, -86, -89, 51, 85, 50, -88, -44, -26, -18, -82, -45, 23, 25, 5, -77, -74, 62, 4, 95, 88, -53, 24, -13, 72, 87, -96, -48, -65, -63, -85, -19, -59, -8, -1, -18, 92, -46, -6, -64, 73, 14, -39, 39, 2, 10, 48, 60, 35, -17, -12, 53, 55, -74, -28, 41, -62, -32, 15, 7, -75, -13, -46, 45, 59, -33, -90, -82, -55, -19, -72, 27, -31, 77, 85, 54, 12, -52, -6, -88, -68, 71, -87, -41, -89, 68, 71, -31, 76, 56, 48, -3, -24, -8, 75, 13, 52, -68, 7, -36, 34, 26, 50, -1, -87, 1, 13, 44, 7, -84, 34, 0, -35, 43, -13, 28, 92, 68, -6, -15, -13, -26, 49, -71, 36, -86, 13, 57, 57, -55, 53, -5, -76, 83, -98, 81, 76, 16, -62, -42, 80, 45, 88, -83, -12, 47, 28, -11, -51, -25, -56, -96, 88, -66, 56, 66, 2, -49, -46, -8, 28, 73, 10, 85, -24, 0, -97, 51, 2, 45, -79, 80, -35, 56, 12, 73, -42, 47, -54, 24, 13, -6, -27, 73, -9, -35, 14, 96, -19, -16, 24, -27, 52, 51, -14, 60, -19, -54, -30, 36, -73, 45, -39, -51, 98, 98, 10, -31, -67, 91, 41, 50, 77, -79, 75, -7, -87, 23, 94, 46, 50, 65, -24, -27, -20, -21, -43, -42, -73, 42, -83, 53, 56, -4, 71, -2, 46, -38, -73, 23, -1, -23, -57, -16, 15, -61, 5, 98, 29, 8, -8, 62, -39, 71, 51, -95, 11, -21, -96, 46, 7, 74, 30, 20, 48, -18, -86, -91, -90, -11, 63, -92, 75, -32, -79, -6, -73, 41, -96, 70, -53, 1, 26, 2, 84, 23, 57, -54, -10, -12, 97, 71, 20, -25, 26, -82, -17, -38, 56, -49, -37, 37, -43, 26, 2, -37, 43, -54, 18, -18, 31, 17, 75, 67, -56, 39, 13, 40, -57, -79, 60, 4, 82, 74, -32, -82, -68, 83, 58, 98, -55, -34, 28, 93, 12, 50, -68, -79, 6, 93, 78, 40, -90, 21, -61, 22, 42, -17, 7, -21, 18, 75, -17, 27, 80, -95, 82, -61, 74, -43, -9, -34, -10, -53, -77, 10, -38, -90, 78, -14, 89, 68, 65, 37, -85, 14, 9, 43, 82, 77, 1, -8, 70, 46, 51, 22, -75, 58, -89, -60, -68, -60, -20, 88, -18, 49, -13, -31, 6, -9, -27, -12, -53, -48, 27, -44, 62, -78, 50, 33, -7, 75, -97, 52, -49, -47, -65, 50, -76, -67, 73, 7, 42, 43, -60, -95, 5, -66, -64, -65, -61, -85, -35, -86, 61, -60, 13, -11, 51, -22, 64, -61, -38, 48, 47, 33, -39, 70, 61, 36, 97, -17, -11, -3, 24, -48, 12, -50, -9, 83, 76, -98, -6, -6, -85, -48, -72, 55, 64, -1, -36, -37, -89, 29, -66, -60, -54, -92, 60, 74, -9, -57, -22, -69, 37, 9, -41, -61, 4, -82, -40, -42, -38, -59, -84, -73, 86, 75, 42, -77, -77, -3, 30, 36, -48, -70, -24, -15, 79, -6, 70, 19, -38, 66, -98, -45, 65, 91, -56, -8, 6, 82, 23, -48, 15, -23, -4, -83, 83, 32, -52, 68, 10, 60, 34, 44, -87, -57, 6, -12, 92, -7, 63, 95, 2, 48, 6, -35, 53, -20, 8, 91, 7, 30, -42, 40, -79, 85, -82, -46, -50, -61, 1, -84, -63, 35, 73, 13, 24, 38, -15, 49, -57, 87, 86, -62, 45, -70, 2, 8, 40, -18, -3, -78, 95, -34, -78, -52, -10, -84, 73, -60, 21, 86, -89, -3, -64, 1, 38, -8, 37, -40, -27, -40, -49, -1, -69, -69, 37, 57, 92, -66, -84, -89, 8, -69, -43, -43, -6, 91, -9, 90, 71, -21, 21, 66, 33, 49, -95, 70, 38, 84, 92, -14, 66, 7, 51, 16, -71, -33, -70, -37, -97, -6, 98, -83, -57, 10, -21, -62, -26, 97, -22, -78, -57, -67, -91, 9, -13, 30, -66, 3, 91, 13, 60, -62, -56, -22, -4, 42, 10, 56, 7, -66, 66, 78, -79, -80, -48, 12, -14, 58, 10, 56, 97, 30, -28, 70, -58, -55, 19, -76, 10, -76, -50, 52, -51, -33, -29, 94, -78, 53, 86, 60, -97, -30, 2, -14, -32, -42, -58, 23, 6, -42, 15, 44, -54, 8, 72, -19, -42, -2, -68, -70, 57, 46, 38, 19, -55, -29, 56, -90, -5, -95, 6, 89, 35, -52, -73, -57, 20, 51, 58, 71, 14, -13, -93, -53, -12, -29, 64, 85, 68, -51, 86, 1, -71, 42, -64, 46, -35, -94, -89, -33, 77, -85, 41, 98, -56, -78, 27, -29, 56, 82, 37, 75, 97, 61, -11, 5, 83, 91, 45, 25, 66, -28, -37, -46, 33, 26, 79, 18, -53, 92, -39, 52, -57, -9, -71, 29, 14, -39, -75, 31, -73, 87, 30, 36, -23, -38, -67, -82, -43, 89, 36, -63, 92, -15, 73, -66, -3, -18, 95, 45, -22, -88, -71, -69, 27, -9, -45, -45, 74, 68, 45, -94, 97, 20, 29, -28, 21, -30, 40, 67, 37, -44, -92, 18, -90, 34, 8, 5, -30, 90, 8, -79, -42, 47, 15, 40, -15, 67, -63, 58, 94, -49, -6, 59, 19, -13, -9, -50, 4, 14, 7, 67, 71, 21, -89, 91, -46, -58, 58, 58, -3, 98, -81, -10, -14, -36, 17, -15, 27, 80, -18, 53, 80, -51, -7, 55, -22, 76, 97, 89, -66, 60, -36, 53, -75, 85, 32, -59, 95, 48, 56, -38, -38, 27, -76, 32, 50, 80, 88, 41, 54, 38, 33, 61, -57, -38, 38, 61, -63, -15, 47, -67, -67, -16, -83, 67, -63, -92, 77, -83, -30, -16, -44, 41, 92, 66, 35, 45, 28, -93, -15, -48, -97, 96, 24, 24, 23, -31, -90, 42, -41, 29, 46, 87, -55, -62, -71, -71, -31, 3, -37, 96, -33, -53, 36, 52, 83, 4, -86, -93, -74, 40, 37, -16, -38, -29, 93, 34, 9, 43, 3, 2, -18, -68, -93, 13, -29, 27, -40, -30, 89, -77, -57, -64, -21, 57, 5, 97, 39, 28, 96, 86, 12, 3, 89, -21, 71, -53, 19, -13, 47, 85, 79, -6, 63, 63, -92, -46, 48, 68, 80, -34, -72, 14, 23, 62, -47, 51, -55, -91, -12, -76, 92, -36, -52, -93, 92, 71, -32, 13, -42, 60, -29, 39, -67, -57, 30, 23, -19, -46, 19, -29, -13, -32, 88, -53, -78, -62, 23, -62, 97, 54, -61, -58, -35, -29, 33, 82, -50, -58, -4, 13, 31, 92, 57, -93, -74, 89, -45, 16, -5, 47, 46, -84, -83, -98, 26, 80, -41, -69, -55, -87, 14, -33, 32, -5, 85, 8, 93, -6, -47, -50, -81, 29, 36, -5, -5, -36, 93, 93, 38, -56, 41, 22, -26, 58, -13, 61, -70, -62, 3, -11, -77, -31, 84, -87, -31, -12, 13, 12, -11, 5, -83, -96, 3, -31, 25, -60, 76, 6, 39, -27, 86, 11, 29, -88, -55, -49, -8, 26, 39, 88, -68, 6, -39, 95, 78, -82, 38, 38, -81, -40, 91, 92, 3, -72, 50, -12, -20, -76, 0, 91, 55, 82, -75, -71, -36, 31, -27, 88, -35, 68, -39, 65, -98, 90, 75, 82, -97, -48, -56, 9, 92, 19, -72, 58, 93, -27, 52, 8, -35, 32, 68, 36, 83, -40, -69, -16, 15, 68, 37, 23, -37, -18, -8, -65, 73, 7, -22, -36, 19, 81, 93, -64, 98, -18, -46, 11, 68, -98, -73, 16, 82, 44, -77, -34, -88, -7, 33, -55, -55, 70, -90, -66, -80, 64, -74, -23, 12, 75, 36, 39, 92, 16, -84, 25, -66, -84, -35, 42, 33, 21, 7, -12, 92, -61, 5, 39, 45, 18, 94, 79, 84, -37, 67, -69, 46, -12, -2, -66, -2, 81, 31, 51, -36, 15, 26, -64, -77, 17, -56, -96, 48, -37, 88, -48, 70, -4, -61, -73, 40, 60, 18, 63, -33, 21, -83, 73, 98, 6, 62, 43, -15, 34, 79, -82, -80, -53, -13, -32, -60, -98, 32, 10, 31, -87, -5, 62, 80, 19, 9, 75, 32, -47, 75, -92, 1, -59, -16, 92, -29, -44, 67, 35, 78, 47, 65, 39, -30, -85, 13, -8, -27, 94, 6, 8, 7, -5, -8, -14, -23, -30, -23, 58, 49, 32, -22, 69, 3, 89, -16, -48, 90, -8, -52, -57, -3, -36, -25, 70, 98, -29, 31, 64, -28, 52, 43, 63, -5, 28, 41, 14, -12, -76, -68, -10, -42, 98, 60, -49, -47, 92, -2, -41, 40, -77, -61, 62, 32, 32, -29, -84, 88, -26, 68, 98, -43, -64, 43, 6, 97, 21, -6, 68, 90, -66, 45, -2, 3, -30, -38, 80, -28, 55, -66, -27, -15, -56, 60, -3, 67, 56, 89, 97, 9, -68, 69, -75, -85, -88, 45, 49, 13, 72, 4, -4, -90, -85, 75, 84, -58, 3, 38, -34, -66, 71, 66, 15, -34, -45, -75, 97, -94, -53, 79, 71, 40, 37, -18, -25, -67, 84, -76, 27, 40, -33, -66, -2, -22, -27, -10, -80, 28, -53, 31, 88, 37, -54, 80, -30, 21, -41, 11, 84, -5, 72, -32, 76, -34, -21, 46, 86, 98, -86, 98, 17, 81, -38, 89, 98, -25, 90, 77, 41, 71, -84, 82, -22, -81, -61, 68, 69, 82, 94, 44, 95, -14, -76, 21, 53, -85, 88, -64, 86, 60, 60, 79, 88, -14, -47, -3, -75, 40, 1, 4, 51, -37, -9, 98, 38, 75, -48, -7, -67, 48, -61, 90, -98, -53, 52, 76, -55, -36, 98, -50, 34, -8, 96, 8, -63, 91, 95, 16, -65, -57, -88, 56, 51, -16, 93, -10, -88, 12, 56, -39, 35, -31, 76, 30, -14, 59, 65, 66, 23, -52, 40, -58, 6, -50, -88, 96, -47, -94, -87, 86, -33, -16, 11, 52, -38, 36, -92, 8, -45, 66, -76, -56, 75, 15, 36, -97, 87, -55, -97, -52, 9, -42, 59, -78, 20, 23, -26, 75, 80, -66, 59, -42, -14, -42, 69, -48, 77, -25, -14, -96, -56, 91, -45, 44, 5, 4, 7, -48, 85, 67, -72, 23, 90, -36, -88, -69, 76, -74, 12, 49, 9, -77, -15, -74, -71, -3, 31, -87, 84, -7, -22, 7, -34, -39, 46, 94, -78, -50, -10, -93, -95, -98, 90, 23, -54, -1, -8, 23, -9, 21, -63, 25, 49, 83, -92, -67, 67, 47, 58, 95, 65, 83, -16, 80, -75, -5, -40, -25, 77, 68, -79, -90, -20, -1, 38, -30, 66, 72, 63, 2, -72, -12, -29, -83, -78, -35, 45, -41, 86, -47, -34, -94, 8, 49, -98, 4, 20, -38, -73, 31, 25, -68, 54, -38, -95, 18, 27, -25, 19, -11, -76, -90, 1, 9, 17, -97, -27, 4, 90, 61, 31, -30, -9, -8, 0, -60, 5, -8, -53, -9, -22, -44, 21, -47, -89, 31, -24, 33, 29, -52, 82, -52, -2, -49, -13, -5, -57, -12, -78, -6, -28, 72, -60, -15, 94, 43, -2, -70, -47, -5, 36, 55, -28, -65, 77, 77, 12, -58, -10, -22, -73, 58, 39, -84, -55, -59, 17, -44, -75, -30, -69, -86, -23, 71, -74, -69, -45, 86, 75, 34, -26, 31, -60, -86, -14, 94, -74, -67, -82, 18, -65, -89, 9, -64, -64, 90, 78, 38, 30, 8, 98, 63, -45, -78, 75, -37, -20, -43, 77, -75, -54, 45, 24, -74, -66, 97, 22, 50, -14, -71, 4, 46, -5, -96, -16, 79, -98, -21, 22, -51, -86, -51, 94, 40, -18, 92, 84, -27, 41, 88, 47, -91, -91, 74, 94, -3, 15, 13, 82, -95, -56, -38, 48, 2, -18, 83, -61, 96, -19, -10, -25, -11, -85, -45, -65, -67, 18, 69, 59, 3, 68, 67, -26, -92, -7, 33, 86, 32, 73, 0, 54, 11, -14, -44, 85, 78, 72, 54, 70, -95, -83, -98, -69, -68, -64, 49, 17, -75, -14, 33, -68, -72, -60, -83, 70, 73, 42, 3, -28, 10, 81, 10, 72, 3, -69, 87, 50, 18, -16, -37, 97, -42, -96, 54, -36, -37, 0, -88, -81, -19, 40, -93, -32, -80, 6, 3, 65, -63, 55, -61, 47, -37, -45, -55, 25, 31, -81, -80, 88, 51, -95, 26, 93, 16, -18, 56, 30, 49, 48, 26, 92, -78, -76, 81, -10, 96, 61, 31, -3, 67, -25, -96, -13, 35, -7, -12, -49, 78, -16, -81, 78, -24, 43, 98, -63, -28, 45, 79, 11, -22, 25, 62, 91, 30, -10, -36, -1, 94, -90, 85, 83, 69, 24, 62, -11, -46, -52, -16, -5, 77, -8, 63, 55, -17, 86, -19, 18, 38, 60, -72, 32, 60, -18, 54, -45, -36, -55, -69, -21, -52, 96, 34, -56, -52, 21, 87, 19, 69, 26, -54, -29, 31, -68, -49, 5, -32, -79, -44, 1, 63, 31, 96, -16, 12, -43, 67, -20, 25, 2, -26, -11, 5, 75, -54, -48, 72, -37, 77, -58, 92, 46, -25, -4, -84, -94, 29, -14, 88, 34, 49, 26, -79, -55, 45, 59, -39, -52, 36, -70, -73, -81, 31, 98, -45, 60, 56, 17, 3, -63, 51, 86, -20, -24, -96, 79, 6, 32, 62, 95, -84, 92, 33, -71, -74, 88, 95, -5, -8, 52, 85, -32, -37, 7, 96, 54, 57, 19, -16, 84, -59, -70, 39, -42, -81, -45, -32, -37, -54, -65, 53, -31, 40, 93, -4, 46, -27, -10, -95, 34, -16, 6, -81, 82, -76, -82, -65, 59, -69, 45, 89, -1, -64, -58, 56, 41, 10, -18, -91, 87, 76, -45, -82, -10, -72, -46, -83, 62, -57, -54, 66, -30, 53, 31, -34, 61, 29, 22, 48, -60, 56, 64, 63, -58, -21, 19, -39, 82, 30, -44, 15, -77, -46, 60, 57, 18, -67, -27, -23, -45, -70, 61, 96, -66, -17, 21, 42, 35, 93, -48, 35, 38, -26, -56, -10, -53, -84, 56, -90, -13, 38, -18, -77, -28, 39, -77, 96, 38, -85, -59, 50, 33, -1, 62, -6, 26, -22, -22, -65, 0, 97, -91, 67, -62, 85, 15, 15, -80, 34, -78, 47, 13, -44, -37, -41, 21, 24, -53, 87, -27, -75, 37, -20, 33, 32, -87, 36, -31, 18, -51, -56, -12, 76, -96, 90, -69, 67, 59, -85, -1, -63, -35, -73, -53, -83, 67, -37, 43, 56, 84, 36, -89, 20, 93, 53, -94, 31, 59, 16, 50, -15, 57, 58, -38, -13, 78, -55, 47, -21, 3, 23, 36, 25, -65, 12, 59, 43, 3, -81, -74, -38, 45, -23, 1, 94, 30, 34, 45, 36, 83, 68, -84, 26, 44, -83, 52, 55, -36, 22, 25, -62, 37, -24, 10, 42, 88, -51, 1, 13, -5, 65, 82, -97, -39, -20, -95, -80, 38, -60, 55, -66, 70, 54, -53, 42, -82, -97, 63, -47, -42, 10, 61, -74, 47, -5, -62, 59, -6, 57, -25, -37, -67, -85, 7, 38, 20, -74, -77, 69, -46, 5, -38, 8, -85, 83, 67, 2, 55, -11, 65, -45, 19, 4, 81, -69, 11, -36, 3, -80, 85, -33, 14, 93, -30, -32, 84, 48, -98, 68, -46, 31, 29, -52, 82, -33, 5, 68, 70, 10, -47, 23, -16, -66, -64, 16, 84, -36, 56, 52, -47, 53, -70, 74, -24, -25, -37, 71, 77, -26, 21, 78, 34, -92, -95, -38, -86, -41, -35, 96, -76, -65, 76, -54, -63, -95, 25, 89, -53, 12, 98, -76, -71, -69, 96, -56, 38, -17, 38, 78, -59, -1, 75, -67, -41, -54, -77, -49, -42, -2, -10, 28, 9, -22, -35, -38, -11, -41, -51, -26, 49, 21, -3, -28, -72, -92, -78, 6, 22, -64, 77, -23, 0, -93, 86, 60, -63, 8, 37, 33, 56, 35, 78, -20, -53, -62, 79, -44, -48, -80, -20, -35, -45, 85, 86, -70, 66, 46, 1, -54, 42, -30, -98, -5, -50, -67, 35, 93, 21, -37, -15, -76, 27, -72, -68, 2, 44, 18, -41, -68, -22, 19, 37, 16, 6, -51, -37, -68, 14, -51, 32, -3, 70, 78, -81, 37, -44, -26, 10, -11, 85, -1, -53, -62, -69, -36, -89, 68, 96, -21, 30, 92, -29, 14, -81, -6, 73, 1, -5, -38, 21, 38, 58, -1, 75, 39, 31, -6, -27, 82, 8, -1, 87, 8, -17, -14, 54, 39, -29, 79, 42, -98, 63, 47, -86, -58, -46, -48, 73, -97, 38, -44, -74, -38, 61, -54, -76, -44, 77, -51, 38, 71, -45, 90, -15, -31, -5, -1, 11, -4, -97, -69, 92, 5, 77, 15, 1, 21, -20, -37, -92, -72, -24, 72, -2, 76, -70, 13, 60, 41, 74, -76, 13, 73, -28, -34, 16, -28, -61, -49, 82, -33, -19, -32, 86, -49, -81, -52, -83, -45, 22, 17, 45, 29, -16, -60, -39, -30, 1, 47, 70, -3, -39, 81, 58, -42, 37, 46, 43, -5, 87, -51, -13, 70, -98, -67, -12, -38, 11, 7, 3, -93, -53, -90, 90, 89, 9, 36, -83, -18, 69, -63, -6, -1, -54, 37, 12, 77, -18, -95, -80, 63, -41, -3, -36, 42, 62, -23, -8, 83, 12, 45, -58, 95, 86, -24, -36, 3, -62, -53, 9, -55, -32, -58, -20, 85, -44, 54, 73, -49, -86, 24, 6, 15, -63, -35, -20, -9, -56, -3, 48, 35, 65, -62, 45, -51, -73, 14, 51, -78, -46, -49, 88, 52, 87, 8, -86, 64, -70, 93, -58, 15, 73, -77, 32, -30, 52, 49, 50, -11, 15, -84, -2, -47, -9, 84, -53, 63, 30, -63, -85, 20, 81, -44, -73, 60, 97, 19, -67, -54, -86, -12, 6, 90, 45, 37, -15, 74, 10, 70, -81, -28, -51, -16, 9, -49, -13, 56, -97, 63, -77, -52, 27, -78, 89, 90, 30, -32, -49, 68, 69, -62, -97, -25, -62, 52, -97, -33, 20, 89, 84, 94, 75, 46, 97, 8, 87, 62, 52, 32, -77, 31, -26, -3, -48, -82, 16, -21, 38, -87, -57, 60, 3, 34, 94, -71, -17, -5, 25, -33, 96, 25, -3, -36, -35, 50, 28, -83, -59, 6, 57, 46, 27, 96, 52, -24, 77, 53, -47, 5, 16, -48, -11, -37, 3, -49, -74, 13, 37, -25, 77, -2, -46, 37, 76, 41, -80, -20, 3, 12, 18, -23, -55, -61, 51, -47, 42, 64, -83, 52, 17, 36, 72, -63, 85, -96, -93, 39, -32, 78, -33, -33, 26, -54, -50, 39, -34, -32, 3, -85, -66, 13, -82, -7, 34, 11, -42, -98, -91, -51, 47, 13, -57, -25, 24, 16, -63, -67, -37, -79, -78, 67, -55, -84, 19, 43, -5, -74, 42, -49, -39, 76, 58, 57, 72, 29, 54, 11, 82, -38, 65, 66, -91, -58, -5, 54, -63, 0, -46, -69, 56, -91, -16, 69, 51, -31, 5, 10, -7, 53, -46, -22, -3, -94, -95, 55, -17, 29, -23, 11, 79, -67, 34, -82, -36, -42, 40, -31, 13, 53, 84, 2, 23, 46, -13, 42, 94, -64, 37, -80, -40, 21, 21, 50, -8, 95, -26, 59, 1, 44, 62, -44, 32, -38, 79, -70, 74, 95, -77, 17, -29, 30, 54, -93, -76, -6, 4, 13, -16, 49, -51, 22, -62, -76, -67, -22, 2, 82, 65, 65, -20, 26, -77, -27, 46, -36, -62, -23, -9, 48, 44, -23, -61, -72, 95, -90, 65, 24, 25, -78, 33, 52, 40, 12, 13, 81, 84, 85, 97, 27, -83, -44, 63, 63, 30, 85, -24, -96, 32, -61, -58, 92, -15, -86, 43, 51, -53, 21, -24, -64, -16, 53, -53, -77, 49, -13, 5, -32, -68, -23, -87, -16, -77, 17, 98, 12, 43, 29, -56, 49, 42, -48, 62, -55, 39, 39, 56, -15, 8, 6, 1, -63, -43, -66, -38, 84, -46, -98, 60, 87, -59, -29, -49, 36, 81, -1, 92, 66, -54, -44, 7, -71, -83, -37, -60, -89, 49, 59, 43, 21, 81, 74, 39, -35, 99, -92, 50, -69, -15, -68, 8, 59, 5, -36, 88, 90, 92, 95, 75, -83, -68, 37, 13, 68, -27, -30, -2, 21, -80, 15, 63, 56, 68, -59, -70, 72, 64, 31, -53, -71, -93, 8, 97, 67, -23, -56, -22, 89, -96, 62, -57, -23, 39, -72, -14, 66, 47, 78, 83, 3, 98, -56, -79, 92, -19, -27, -68, 3, 97, 35, -22, 96, 75, 98, -87, 26, -73, -53, -19, 75, -92, -84, -97, -61, 87, -14, 57, 89, 86, -7, -61, 15, -58, 4, -8, 89, -30, -22, -11, -45, -30, 62, -29, 30, 13, 31, -37, -29, -81, -80, 18, -27, 15, 81, 12, -70, -80, -52, 5, -54, -93, -58, -70, 89, 20, 5, -72, -77, -92, -26, -44, 76, -73, -96, 51, 41, 86, 36, 76, 71, 74, -95, -42, 85, -32, -31, 49, -4, -3, -57, -54, -7, -72, 22, -40, 29, 38, 72, -12, -60, -41, 87, -46, 13, 79, -79, -47, -57, 61, -53, 72, -23, 16, 33, 97, -80, 45, -30, 97, 6, -58, 38, -5, 4, -17, -21, 21, 69, 68, 71, -42, 70, -82, 60, -52, 46, -29, 53, -42, -38, 81, -25, 79, -61, -61, 33, -82, -60, 19, -85, -36, -61, 63, -86, -43, 68, -26, 77, -50, 7, 76, -3, -89, 80, 43, -5, 85, 43, -57, -1, 55, -11, 78, 77, -52, 88, 48, -56, -62, 71, -8, 86, 13, -93, -37, 66, 4, -14, -71, -13, -17, 3, 31, 17, 33, -40, -59, 26, -35, 42, -97, 5, -28, 58, 4, -20, -36, 84, -49, -1, 36, -10, -57, 88, 37, 59, -83, -53, -19, -23, -8, -34, -38, -94, 88, 1, -24, -85, 38, 53, -55, 18, 77, 34, 15, 40, -18, -27, -58, 0, -68, 5, -72, -73, -91, 22, -93, 42, 53, -44, 31, 67, -42, 31, -73, -47, -94, 28, -86, 5, 93, -52, 6, -56, 37, 7, 33, -94, 3, -63, 37, 13, -26, 79, -10, 60, -52, -68, -54, 22, 8, -9, 17, 22, -77, 11, 40, -5, -27, -76, 10, 98, -59, -49, 79, 44, 9, 14, -39, 47, -56, -52, 5, 41, -55, -13, -90, -50, 27, 76, 0, 55, 58, 53, 86, -27, 73, -11, 47, 68, 67, -84, 35, 34, 56, 7, 50, 89, 2, 47, -60, 63, -60, -87, 30, -30, -64, -53, -25, -54, 9, -73, 87, 8, 10, -29, 10, 40, -47, 27, 3, -5, -78, -87, 61, 58, -83, 38, 31, 71, 60, 62, 94, -98, 97, -65, -74, -39, 26, -86, -24, -94, -66, 51, -30, 56, 24, -10, -27, -93, -51, 89, -16, 30, 71, 30, 30, 38, 8, 72, 79, -45, 67, 20, -21, 79, 8, -10, 61, 87, 39, 75, -69, 92, 63, -18, -80, -69, -39, -73, 33, 80, -40, -44, 49, 72, 85, -77, 93, -74, -96, -55, -45, 94, -16, 92, 23, -62, 34, -8, 54, -9, -73, 65, 95, 40, 28, -67, -37, -84, 18, -36, 80, -52, 46, 98, -3, -33, -43, -24, 12, -25, 42, -95, 66, 59, -98, 31, -43, 83, 7, 82, -57, 61, -7, 45, -60, 67, 87, -29, -22, -55, -25, 61, -41, -53, -25, 10, 1, -43, -62, -1, -36, 52, -18, -67, 11, 72, -13, 33, 80, -24, -63, -5, 36, -88, -65, 17, 98, -29, -68, -61, 1, -94, -29, 75, -82, 14, 35, 44, 16, -54, 79, -84, 67, -33, 57, -94, 34, 43, -45, -45, 8, -58, -76, -76, 23, -88, -98}

#define GROUP_CONV2D_KERNEL_0_SHIFT (10)

#define GROUP_CONV2D_BIAS_0 {-12, -67, 71, -2, 62, -12, -51, 25, -46, -104, -91, 79, -2, -49, -51, -90, 6, 68, -25, 78, -59, 73, -82, -104, -102, -60, 90, 2, 107, -38, 50, 83, 29, -18, 40, -30, -30, 69, -12, 33, 21, 57, -54, 10, -30, -76, 82, -2, 92, 1, 33, -43, 32, 22, -42, -10, -99, 50, 60, 35, 5, 103, -46, -1}

#define GROUP_CONV2D_BIAS_0_SHIFT (9)


/* output enconding for each layer */
#define INPUT_1_OUTPUT_SHIFT 7
#define GROUP_CONV2D_OUTPUT_SHIFT 6

/* bias shift and output shift for each layer */
#define GROUP_CONV2D_OUTPUT_RSHIFT (INPUT_1_OUTPUT_SHIFT+GROUP_CONV2D_KERNEL_0_SHIFT-GROUP_CONV2D_OUTPUT_SHIFT)
#define GROUP_CONV2D_BIAS_LSHIFT   (INPUT_1_OUTPUT_SHIFT+GROUP_CONV2D_KERNEL_0_SHIFT-GROUP_CONV2D_BIAS_0_SHIFT)
#if GROUP_CONV2D_OUTPUT_RSHIFT < 0
#error GROUP_CONV2D_OUTPUT_RSHIFT must be bigger than 0
#endif
#if GROUP_CONV2D_BIAS_LSHIFT < 0
#error GROUP_CONV2D_BIAS_LSHIFT must be bigger than 0
#endif

/* weights for each layer */
static const int8_t group_conv2d_weights[] = GROUP_CONV2D_KERNEL_0;
static const nnom_weight_t group_conv2d_w = { (const void*)group_conv2d_weights, GROUP_CONV2D_OUTPUT_RSHIFT};
static const int8_t group_conv2d_bias[] = GROUP_CONV2D_BIAS_0;
static const nnom_bias_t group_conv2d_b = { (const void*)group_conv2d_bias, GROUP_CONV2D_BIAS_LSHIFT};

/* nnom model */
static int8_t nnom_input_data[12800];
static int8_t nnom_output_data[6400];
static nnom_model_t* nnom_model_create(void)
{
	static nnom_model_t model;
	nnom_layer_t* layer[3];

	new_model(&model);

	layer[0] = Input(shape(10, 10, 128), nnom_input_data);
	layer[1] = model.hook(GroupConv2D(64, 16, kernel(3, 3), stride(1, 1), dilation(1, 1), PADDING_SAME, &group_conv2d_w, &group_conv2d_b), layer[0]);
	layer[2] = model.hook(Output(shape(10, 10, 64), nnom_output_data), layer[1]);
	model_compile(&model, layer[0], layer[2]);
	return &model;
}
