#include "nnom.h"

#define GROUP_CONV2D_KERNEL_0 {-41, 78, 30, 3, 32, 47, -21, -64, -45, 38, -81, -9, 82, 34, -27, -81, 35, -38, 14, 59, 19, 30, -45, 52, -74, 30, 11, -37, -51, -1, 9, 36, -24, -81, -41, -51, 61, -77, -39, 68, 67, -9, 73, 25, -22, 32, 51, 72, -75, 39, 30, 75, -18, 67, -39, -70, 11, -40, -1, 14, 77, 20, 63, -82, 8, -53, -69, 71, 22, 32, -85, -44, -66, -5, -32, -32, 42, 83, 40, -69, 24, -16, 47, -48, -11, 6, -61, 30, -83, -27, 78, -23, 80, -54, 66, -6, 57, -38, 15, 60, 71, 47, -74, 80, 13, -85, -27, -64, -73, 45, 5, -65, -71, 27, -43, 53, -23, 50, -52, -14, 2, -33, 69, -71, 1, -9, 31, -4, -80, -70, 56, -42, -48, 28, 69, -19, -3, 20, -43, 80, 77, -60, 61, -4, -61, -83, 7, -80, -52, -65, -51, -82, -33, 49, 28, 20, -73, 43, 19, 79, 52, 31, 15, -17, 50, 21, -1, 3, 66, -69, 46, 67, 59, 22, 31, -2, -49, -56, 37, 55, -78, 57, 54, -39, 10, 34, -75, 65, -57, -51, -58, -17, 77, -61, -79, -22, -29, -24, 27, -19, -79, -6, 25, 36, -73, 17, -8, 27, 80, -44, -22, -76, -17, 16, 20, -7, -50, 51, -32, 12, -77, 41, -84, 21, -13, 12, -7, -53, -60, -57, 59, 38, -78, 66, 18, 49, -19, -52, -18, 67, -57, -54, -59, 11, -11, -54, -80, 26, 45, 25, -45, -6, 49, -72, -63, -49, -7, 15, -5, -41, 2, -57, 72, 7, 63, 62, 47, -11, 61, -44, 61, 29, -60, -84, -59, -25, -24, 85, -36, -45, -65, 52, 14, 5, 66, -14, 5, 25, 2, -56, -47, 43, 6, 57, -29, 76, -11, 15, -76, -18, 61, -9, 48, 26, -46, 5, -37, -12, 27, 50, -19, 78, 11, 79, 8, -51, 79, 79, -45, 70, 14, 45, -71, 54, 34, 45, -46, 57, 44, 43, 70, -52, -51, 20, 6, 26, -20, -2, 43, -11, 34, 11, 30, 58, 2, 79, -29, 83, 46, 20, -6, 44, 72, -85, 56, -10, -61, 1, 75, 74, 50, 37, -64, 38, 23, 49, 22, -72, -83, 25, -14, 36, 37, 16, 31, 77, -38, -10, 66, -52, -55, -49, -35, -81, -60, 10, 57, 73, -58, -72, -52, 52, 58, 23, -16, 52, 15, -60, 37, 76, -7, -82, 55, 59, 29, 80, -49, 67, -11, 55, 67, -80, 58, 45, -46, -50, -58, -77, 4, -62, 63, -69, -7, -1, 21, 72, -63, 71, 78, 12, 1, -29, -58, 75, -42, -9, 29, -11, 49, -26, 62, 68, -48, 68, -41, -40, -9, 27, 31, 74, 70, -45, 11, 44, 34, -5, -83, -69, 1, 83, -60, -73, 25, 0, -34, -2, 71, 15, 16, -29, -16, 76, -54, 44, 75, 13, -37, -30, -7, 30, 74, -10, 69, 63, 17, 78, 61, 69, 1, -33, -57, -16, -7, 0, -81, 50, 12, -46, 15, -43, -56, 28, 47, 48, -82, -56, -47, -45, -16, -67, -78, 59, 13, 73, -76, -81, -48, 33, -61, 81, 38, -68, -7, 57, 49, -42, -5, -44, -66, 37, 42, 66, 26, -42, -36, -73, 42, -37, -63, -58, -30, -69, 39, -80, 17, 6, 43, -16, 8, -41, -65, 65, 7, 30, -14, 20, -48, -60, 36, -79, 30, -20, -57, -56, -25, 71, -19, -73, 62, 43, -82, -70, -81, -5, 45, 5, -5, -4, 77, 47, 4, -66, 21, -27, 77, -30, 60, 14, -81, -50, 70, 35, -11, -37, -31, -53, 72, 31, 62, 9, -59, 36, 8, 35, -43, 3, -46, 67, -76, 5, 26, -56, -76, -41, -5, -16, -63, 21, 22, -58, -62, 75, -56, -12, -34, 62, 68, -61, -38, -28, -19, -39, -50, 22, 41, 70, -18, -31, -81, 23, 17, -22, -78, 65, -41, 6, 11, -8, -57, 10, 45, 59, 48, 4, -16, -40, -10, 3, 22, 4, -16, -14, -13, 22, 21, -11, 34, 1, -12, -26, -34, 27, 60, 44, 54, 1, -68, -17, -24, 33, 82, -51, 48, 83, -75, 47, -26, 77, -37, -82, 7, 51, 33, -22, -32, 62, -43, -33, 69, 8, 48, 38, 68, 50, 23, 79, -16, 12, 58, -8, -9, 58, -48, -2, 10, 81, 16, 13, 13, -31, -23, -18, 22, -68, 60, 74, 37, -27, -35, 65, -61, 4, -81, 13, -10, -65, 33, -49, 38, 19, -12, 78, 38, -56, -36, -24, 23, 51, 63, 68, 10, 36, -65, 14, 44, 47, -31, -46, 46, 56, 55, -10, 77, 39, 45, 23, -79, 79, -84, -10, 78, 19, -81, 43, 77, -57, -59, 36, -75, 63, 17, 54, 55, -29, 76, 55, 69, 74, -78, 10, 83, -10, -5, 29, -7, -15, 53, 37, 7, -10, -29, 61, 16, -6, 8, 17, -73, -73, -14, 23, -1, -33, -60, 11, 27, 53, -10, -36, 52, -16, 14, -9, -32, -82, -29, -73, 35, 31, 18, 36, -60, 85, 36, 51, 12, -59, -58, 49, -31, 31, 62, -71, -37, -52, 32, -59, 11, 16, 15, 74, -49, 13, 56, -56, 18, 59, 26, -16, 64, 85, 11, -57, 52, 79, 81, 17, 0, 42, -32, 59, -47, 7, 71, 83, 20, 3, -12, 15, -7, 65, 47, -69, -74, 67, -16, -20, -44, 39, -37, 70, -21, -33, 72, 29, 82, -43, 78, -5, -75, -3, 73, 49, -4, 9, -44, 31, -78, -57, -84, -20, -54, -42, -75, -74, 63, 32, 18, 23, 52, 57, -2, -16, 69, 22, -23, -80, 47, 14, -19, 54, 53, -19, 38, -15, 33, 13, 79, 26, -43, 52, 15, 12, 14, 67, -72, -23, 25, 21, -63, 27, 44, -37, 17, 41, 42, 34, -34, 56, -26, 68, -41, 18, 47, -42, -34, -25, -21, -5, 12, -7, -24, 23, -38, -42, -34, -18, -50, -84, -5, 74, -75, 77, 70, 81, 77, 32, -7, -63, 67, 23, -52, -40, -30, -48, 57, -45, -57, -72, 30, 48, 63, 21, -41, -57, -15, 20, 57, 50, 20, -8, -51, -68, 32, 55, -52, -52, -44, 10, -76, 49, 85, -49, -12, -8, -56, 48, 6, 49, -76, -39, 44, 0, -51, -14, 81, 58, 66, -12, -23, -62, 7, 59, -77, -59, -70, -53, -2, -8, -27, 8, 74, -21, 32, 63, 33, -32, 30, 17, -4, -6, 70, -13, 32, 9, 44, 24, 29, -62, 78, -53, 30, -59, 56, -19, -71, -3, 64, -39, -79, -25, 12, 15, -32, 48, 22, 83, 7, -73, 81, -3, 19, 84, -60, -22, -26, 73, -51, -46, 83, 77, -27, 12, -18, -32, 82, -15, -2, -3, 43, -61, -79, 6, 18, 79, -71, -16, 79, -21, -64, 22, -69, -77, -36, 73, 57, -1, -39, 15, -61, 79, 13, -16, 2, -62, 1, -77, 35, -45, 35, 37, 31, 81, 51, 21, 85, -32, 83, 17, 85, -43, -70, 82, 16, -35, -38, -36, 65, -66, 27, -59, -34, 40, -85, -53, 18, -3, 40, 22, 70, 15, 59, -44, 23, -73, 11, -19, -41, -37, 24, 38, 11, 30, -1, -8, 12, 43, 9, 58, -25, 31, 13, -44, 20, 75, -84, 79, 81, -55, -21, 83, 14, 64, 18, -85, -38, -24, 22, 51, 52, 18, -62, -37, -78, 47, -63, 71, -13, -9, -44, 79, 16, 18, 76, 78, 7, 21, 25, 15, -66, -69, -38, 40, -61, -36, -32, -83, -5, 30, -55, 61, 21, 53, -18, -23, -21, -56, 16, -52, 42, 13, 50, -84, -19, -84, -57, -72, -68, -82, 21, -50, -46, -82, -66, 20, -39, 42, 70, -60, -61, -85, -49, 85, 81, 24, 26, 27, -43, 28, -61, 37, -41, -74, 45, -21, -6, -79, 0, 66, 56, -19, -57, -15, -26, 39, 13, 21, 14, 1, 2, 36, -5, -3, -71, 61, -29, -76, 83, 67, -44, -31, -29, -79, 65, 32, -69, 56, -18, -52, -50, -61, 78, 13, 54, 40, -20, -3, 10, 59, 15, -15, -77, -17, -11, 30, -57, -12, 8, 16, -21, -48, -14, -47, 75, -45, -81, -57, 77, -80, -48, -75, -71, -18, -68, -12, -84, -35, -27, -26, 27, -66, 40, 36, -83, -40, -37, -44, 60, 30, -65, 23, 50, 25, 11, -68, 77, -76, 75, -56, 30, -56, 54, -12, -4, 20, 17, 69, -66, -71, 50, 34, -65, 73, 52, -11, -52, 47, 8, -58, -54, 15, 20, 60, -10, 29, -85, -31, 28, -21, -76, 50, 1, 49, -77, 18, 58, 55, -48, 42, 40, -74, -66, 8, 4, 57, 28, -2, 28, -38, 43, 35, 11, -52, -35, -32, 24, -30, 14, -75, -58, 24, -24, 53, -60, 62, -83, -9, -81, -72, -11, -39, 43, 58, 2, -65, -55, -9, 12, 23, 0, -80, -39, 47, 36, 39, 69, -6, 18, -59, -41, 27, 70, -47, 81, 55, -31, 21, -82, -72, 17, 64, 13, -51, -47, 25, -57, -43, 68, -38, 31, 9, -44, 72, -79, -25, 68, 72, -78, 36, -49, -41, 16, -31, 5, 17, 30, -71, 40, 69, 27, -36, -33, 56, -46, -80, -61, -6, 22, 26, 54, 43, -72, 10, 82, 70, 76, -14, -51, 53, 25, -60, -75, -74, -37, -63, -41, 25, -36, 39, -26, 62, 53, 39, 78, 4, 15, 38, -73, -71, 6, -80, -42, 29, -18, 12, 60, 65, 65, -60, -19, 40, 82, 63, 55, -44, 26, -57, 12, -11, 28, 3, -68, 45, -13, -63, 45, 72, -60, 2, -44, -42, 20, 8, -56, 75, -47, 77, 67, 11, -12, -41, -58, -35, 21, -28, 45, -46, -81, 33, -83, 82, -18, -15, 18, -80, 16, -77, -83, -37, 40, -2, 58, -69, 13, -1, 41, 33, -19, 2, 54, -34, -36, -45, 52, -58, -80, 13, 43, -68, 29, -62, 75, -84, 46, 37, -56, 64, -83, 81, -53, -31, -2, -67, 31, 50, -64, 4, 62, 10, 47, -24, 77, 2, 13, -77, -5, -65, 5, -43, -42, -5, 31, 58, 75, -46, -14, -44, 35, -63, -20, -12, 69, 1, -19, 50, -24, 13, -85, -59, 10, -7, -2, -50, -73, -75, 79, -73, 81, 35, 44, 54, -57, 62, 49, -56, -66, -62, 52, 83, 1, 42, 46, -28, -59, 53, 62, -60, -33, 36, 27, 51, -43, 6, -75, -37, -80, -75, -3, -69, 58, -34, 45, 25, -17, 4, 34, 22, 32, -45, -75, -15, 75, 64, -47, 63, -84, -4, -27, 18, 40, -39, 20, 74, -72, 40, 2, -75, 37, 54, 42, 75, -28, 8, 58, 0, 18, -4, -53, -37, 32, -66, -5, -23, -49, -83, -38, 58, 12, 60, 55, -15, -66, -27, -45, -7, 53, -10, 14, -34, 84, -38, 74, 67, -8, 32, -54, -7, 37, 46, 45, -9, -23, -25, -27, 84, 37, 72, 50, 84, -69, 12, 13, -62, -48, 21, 65, -75, 17, -50, -46, -13, 78, -24, 3, 23, 3, 1, -78, 29, 58, 43, 6, -11, 19, -35, 81, -36, -29, -18, -61, -22, 67, 29, 17, 82, 76, -46, 44, -75, -14, -72, 18, 48, 24, 56, -22, 44, -33, -3, -62, -14, 5, 68, -47, 39, -54, 39, -23, -68, 36, 53, -7, 21, -71, 32, 13, -58, 11, 61, 74, -8, 34, 74, 6, 28, 24, 59, 7, -71, 7, -42, -19, 80, 70, 49, 34, -56, 58, 53, -18, -42, 81, 55, 82, -24, 59, -3, -22, 4, -43, -36, 11, 34, 32, -84, -10, -63, 7, 72, -2, -85, 3, -70, -47, 15, 83, -11, 71, -11, -55, -31, 8, 34, 81, 78, 18, 15, -29, 64, -50, 77, 32, -23, -23, -74, -8, -17, 63, -60, -74, -30, 73, 2, 63, 19, -73, -50, -20, 25, -45, -28, -28, 8, 79, -17, 81, 15, -81, 74, -35, -24, -80, 0, -1, 84, -57, -4, -40, -62, 19, -38, -25, 43, -17, 12, 17, 52, 52, 3, 49, -5, 5, -72, -82, -9, 11, 80, 73, 1, 60, -58, -12, 21, 15, 55, -67, 50, 38, 73, -25, 14, 48, -83, -23, 31, 25, -8, 77, -38, 47, 35, 33, -53, 38, 7, -50, 2, 16, -52, 56, -2, -61, -28, -73, -85, 22, -84, 43, -29, -73, 61, 85, -27, 10, 13, 63, 73, -37, 22, 21, 1, 70, 18, 28, -39, -46, -21, -23, 36, 61, 60, -30, -70, -43, 26, -51, -71, 76, -31, -15, -52, 16, -80, -22, 30, -40, -10, -38, -63, 34, 75, 4, -37, -14, 70, -68, 16, -38, -20, -37, 31, 46, -7, -68, 65, 30, 42, -83, -20, 58, -64, -1, -58, -60, -54, 12, 25, -25, 68, 38, 50, -54, -46, -39, -72, 70, -36, 41, 62, 17, -58, -3, -26, -55, -35, -67, 35, -78, -23, -70, -83, 7, 45, 52, 17, 10, 23, 30, 34, -46, 65, 5, 44, 46, -68, 54, -16, 8, -56, -41, 61, 20, 85, -38, -54, -14, -44, 16, -39, -37, -54, -29, -3, 82, 55, 80, -24, -28, 34, 66, 74, -67, 11, 41, -26, 78, -13, 40, 43, -74, -22, -74, 45, 43, 4, 26, -21, 61, -4, -31, 57, 78, 73, 35, -49, 10, 54, -64, 27, -76, -58, -57, 74, 52, -13, 63, -30, 49, -9, 41, 16, -48, 36, 21, 82, -5, -13, 16, 9, 67, 82, 4, 14, -57, 64, 82, -18, 33, 15, 60, -82, 28, -23, 27, -39, -39, -81, -69, -20, 68, -45, 68, -70, -77, -80, -26, 41, 58, 14, -68, 48, 16, 40, -19, 33, -5, 77, -83, 28, 41, 59, 41, -49, -4, -85, -36, -14, -37, -40, 25, 63, -3, 79, -24, 15, 66, -57, 54, 57, -30, 75, -48, -76, 30, -28, 60, -43, -76, -50, 6, -36, 2, 45, 33, -51, 77, 18, 22, -55, 8, 77, -56, -69, 74, -13, 51, 6, 19, 65, 30, -40, 11, 42, 70, 73, 44, -84, -9, 38, 70, -67, 19, 22, -7, 40, -28, 17, 65, -82, -14, -66, 19, 24, -84, -11, 59, 50, 74, -53, 81, -8, -61, -19, 1, -54, -74, 38, -58, -39, 57, -74, -2, -20, 65, -15, -21, 7, -57, 51, -4, 9, 71, 37, 67, -83, -44, -58, -29, 40, 29, 13, -37, -38, 36, -18, 17, 24, 63, -20, -83, -79, -61, -73, -70, 41, -28, 84, -84, -36, 74, 53, -35, 36, 75, 63, -38, -47, 80, -55, -69, 68, 81, 0, -54, -71, -8, 76, 72, 56, -71, 22, -19, -61, 63, 50, -34, 38, 8, 26, 59, 75, 53, 59, -2, 8, -46, 41, -85, -55, 59, -79, -30, -7, 34, -25, -12, -41, -4, -67, -8, 63, 20, 35, -27, -15, -59, 65, -26, -28, 34, -5, -10, 75, 76, -44, 83, -12, -66, -3, 18, -40, -62, 42, 25, 19, 61, -29, -79, 59, 84, -62, -67, -55, 62, -43, 4, 27, -50, -47, 32, 63, -71, -79, -50, 14, 52, 59, -9, -80, 9, 79, 59, 10, -65, 13, -64, -76, -66, 20, 12, -37, -23, 60, -53, 53, 46, -84, 65, 80, 66, 58, 76, 77, -23, -8, 22, -53, -5, 52, 11, -19, 69, 83, 51, -35, -66, -50, -27, 7, -26, -52, 53, -74, 21, 72, 24, 1, 65, 20, -45, -29, -49, -52, -80, -26, -56, -74, -2, -63, 46, -40, -70, 15, -47, -1, 61, 22, 28, 27, -72, 74, -69, -32, -27, -50, 85, -50, 35, -69, -69, 33, -31, -49, -69, 52, 50, 65, -39, 44, 56, 64, -77, -60, -41, 11, -68, 74, 5, -10, -20, -7, 43, -54, -13, 35, 43, -6, 84, 55, -58, -1, -36, 66, 0, 13, -16, 45, -41, -6, 27, 83, 42, 11, 11, 55, -50, 37, -36, -69, -75, 43, -71, 28, -24, 9, -44, 5, 76, -46, 27, 79, 36, -44, 35, -52, 16, 28, 12, 80, -44, 13, 57, 6, 64, 57, -62, 31, -3, -67, -76, -69, -27, -27, -63, 73, -26, 44, 3, 85, -22, 18, 17, -12, 54, -67, -69, -4, -42, 66, -56, 83, 8, -73, 69, -47, 31, 54, -34, 76, -81, -54, 74, -17, -30, -46, 11, 25, -19, 63, -47, 30, -21, -13, 22, -47, 48, 4, -10, -41, 25, -65, 33, -80, 29, 58, 30, 25, -16, 49, -44, 7, -64, -26, 55, 20, -8, 34, -12, 19, -50, -22, -70, -17, -26, 31, -75, 64, 29, 32, 78, -26, -66, 29, -83, 51, 33, -56, 72, -69, 4, -52, 84, -61, 3, -32, 84, -66, 38, -83, -67, -6, -12, -50, -65, -84, 67, -37, -76, 54, -69, 66, 39, 24, -6, 53, 15, 43, -43, 52, -15, -60, 58, 37, 0, 79, 71, 11, -22, 64, 9, 31, -37, 59, 77, 30, 59, -40, 22, 71, 48, -1, -49, 5, 16, 38, 48, -8, 14, -20, 11, -26, 45, 35, -43, -42, -83, 0, 3, 48, -19, 25, 61, 33, -61, 34, -55, 64, 41, 22, -58, 7, 18, 32, -69, 57, 54, -84, 45, -1, 70, -45, -62, 28, -64, -35, 60, 62, -19, -21, 8, 24, -73, -26, 7, -81, -35, -3, -16, -82, -26, -12, 79, -3, -79, 57, 7, -8, -40, 46, -82, 66, 51, 7, -74, 2, 16, -54, -7, 47, 53, 39, -9, -35, -73, 24, -62, -65, 25, -85, -85, -52, 0, -71, -34, 82, 40, -62, 36, 54, 71, 40, -41, 44, -37, -6, -59, -33, 26, 50, -84, 28, -7, -45, -58, 46, -80, 35, -16, 56, -74, 59, -84, -17, 16, 50, -56, 37, -53, -82, -56, 52, -71, -5, 57, -83, 26, -15, 50, -63, -36, 30, -34, -15, -82, -48, -81, 41, -22, -72, 57, -12, -76, 4, 6, -13, -41, 71, -13, -80, 76, 49, -8, 51, -17, 9, 40, -42, -15, 83, -75, -2, 67, -47, -79, -7, -82, 74, -37, 66, 76, 52, -48, 21, 53, -3, 84, 45, -60, 35, -15, -21, -66, -54, 73, 43, -55, 48, -33, -46, -34, -50, 64, -37, -58, 62, 12, -6, -26, 81, 69, 59, -14, 28, -51, -43, -77, 52, 68, 62, 67, -79, 33, 21, 24, -18, -57, -38, -64, -11, 61, -35, 48, -22, 47, 28, -79, 57, 21, -15, 52, -13, 18, 3, 63, 52, 2, -23, -58, -67, 7, 80, 69, -48, 62, 32, -8, 40, -70, 36, -70, -47, 48, 79, -51, -57, -23, -34, 51, -17, 15, 36, 65, -5, 8, 70, -19, 9, -64, 35, 13, -57, 9, 72, -12, 3, 27, 0, 47, -65, 30, -38, 42, -24, -45, -56, 77, -66, -53, -38, -6, 3, 39, -79, 31, -27, -31, 42, -48, -79, 10, -79, 25, -72, 76, -6, -13, -32, 35, 82, -30, 78, 33, -83, -47, -48, -2, 5, -36, -61, -57, -63, -21, 42, 33, -4, -4, -6, -59, -16, 23, -10, 44, 57, 55, 48, 30, -14, -21, 84, 23, -69, 41, -10, -80, -40, 58, 14, -18, -37, 33, -34, -33, -72, -2, -73, 5, 41, -29, 55, 44, 61, -74, 22, -11, -79, -26, 81, -52, -28, 7, 66, -53, 22, -6, -67, -50, -82, -70, 30, -62, 49, 54, 50, 21, 41, -78, -70, -14, 69, 32, -70, 62, -72, 64, -5, -68, 9, 37, 4, 11, 25, 60, 41, 59, 32, 37, -62, 75, -27, -49, -60, -68, -32, 47, -48, -42, 6, 47, -81, -80, 51, -45, 43, -62, 31, 30, -33, -6, 44, 62, 40, 78, 45, -49, 45, 38, 28, -28, 38, -67, 42, -62, 75, -1, -6, 18, -75, 4, 36, -3, 63, -75, 56, -11, 24, 18, -72, 14, 8, 79, 10, -53, -13, 66, 73, -75, 26, 50, 76, 64, 18, 66, 44, -80, 10, -38, -12, 46, 48, -53, 58, -29, 66, 10, -72, -4, -5, -80, -11, -26, -38, -43, 47, -61, -51, -56, -8, -68, 7, -80, 27, -53, 42, -44, -40, -52, -11, 79, 66, -23, -66, -68, -34, -26, 67, -43, 12, -23, 82, 3, -71, 9, -15, 6, 18, -44, 78, -20, 9, -67, -24, 35, 64, -79, -68, 75, -45, 7, 83, -17, 81, -83, 30, 52, 7, 27, -16, -36, 13, 3, -8, -39, 12, -65, -3, -5, 23, 23, 28, 6, -7, 25, -15, 67, -63, -19, 36, -44, 6, 65, 59, -25, -3, 31, -1, 5, -35, -32, 35, 40, -5, -64, 8, 42, -21, 2, 19, 38, 67, 45, -2, 9, -6, 16, 2, -32, -43, 37, 67, 61, 69, -79, 30, 59, -77, 10, 4, 31, 69, -62, -57, 21, 25, 78, -45, 39, 20, 38, 25, -77, -43, -48, 73, 12, 53, 61, -68, 46, 1, -85, 80, -52, 25, 29, 50, -62, -39, -30, -8, -69, 31, 60, 40, -76, 36, 43, 20, -25, -69, 61, 57, -74, 85, -70, -50, 55, 57, -59, 40, 71, -48, 70, -61, 33, -5, -48, -77, -59, -57, -79, -72, -76, 66, 73, -18, 25, -34, -16, 54, 73, 27, -76, -17, -2, -40, 13, 33, 0, 29, 7, -25, 69, 32, -5, 81, 84, -63, -58, -70, 63, -81, -49, -21, 5, -75, 19, -49, -74, -49, -49, 17, 56, -71, 63, -11, -63, -39, -70, 67, -29, 46, -84, -77, -73, 0, -47, -78, -82, 45, -23, 74, -53, -46, 54, 54, -46, 51, 62, -26, 10, 59, 2, -57, 81, 75, -70, -57, 21, -6, 3, -8, -49, -33, 36, 20, 62, -77, -27, -36, 79, 66, 18, -58, -7, 20, 58, -77, 33, 7, 25, -7, 6, -34, -9, -73, -79, 14, 59, 82, -18, -61, -10, -85, -26, 75, -48, 22, -50, 85, -61, -1, -6, -78, 73, -28, 1, 71, -19, -63, 8, 57, -83, -22, 72, 49, 3, 9, -53, -66, -7, 54, 76, 15, -63, -1, -69, -30, -37, 28, -55, 47, -46, -11, -14, 80, -12, -73, -65, -83, -32, -61, 33, -78, 25, 75, -38, 22, -74, -74, 43, 76, -10, 20, 22, -78, -68, 52, 64, -39, 54, -73, -29, -19, -50, 79, 79, 34, -56, -48, -52, -64, 9, 21, 62, -73, 23, -49, -9, 64, -61, -4, 62, -15, -59, -17, 74, -21, -34, -78, -3, -61, 84, -49, -55, 28, -66, -7, -25, -38, -82, -45, 78, 34, 25, 30, 61, -15, -56, -52, 32, -15, -23, -53, -29, 10, -19, 32, 2, -37, 61, -22, 74, 28, -84, -8, -32, 55, -12, -30, -23, -62, 29, -67, 5, -47, 30, -54, 58, -4, 48, 46, -38, 41, 64, -60, 45, -2, 65, 77, 57, -68, 12, -3, 64, -67, -2, -52, -11, 35, -62, -49, 5, -13, 18, -46, -29, 27, -46, 19, -83, -40, -67, 11, 48, 17, 51, 52, -37, -29, -8, 19, 62, 31, 35, -51, -28, -55, -81, 50, 33, 66, 8, 31, 10, -37, -1, 44, -4, -7, 60, 79, 64, 45, -33, -74, 51, 75, 28, 81, -83, -75, 66, 66, -8, 46, -74, -84, -74, 51, 43, -23, 82, -67, 33, -64, 12, -31, 72, -50, -70, 83, 66, 75, -6, -24, 56, -52, -2, 51, 42, -79, 18, -40, 20, 76, -75, -48, 32, -36, 45, -29, -44, -44, -51, -48, 70, -52, 37, 48, -51, -44, -46, -63, -41, -25, -56, -36, -36, -22, 10, 25, -82, -80, 41, 85, 28, 49, 84, 45, -36, -58, -5, 11, 44, -18, -24, -81, -77, -53, -3, 23, -58, -56, -5, 63, 36, 2, -16, -40, 7, -5, 69, -39, 37, -83, 66, -55, -51, -57, -12, -44, -67, 44, -32, -79, 40, -38, -6, -36, 80, -3, -30, -28, 27, 11, -62, 15, 4, 23, -65, 54, 9, -53, -31, -50, 85, 20, -40, -9, -73, -31, 55, 37, 32, -75, -54, 31, -43, -68, -62, 26, 47, 68, 56, -64, 14, 62, 59, 1, 19, 64, 83, 51, 69, -56, -64, 45, -6, -30, -67, 10, -60, -20, -77, 33, -9, 81, 18, -21, -54, -21, 42, -19, 6, 85, -26, 38, 59, 12, -8, 74, 73, -38, 55, 54, 0, -33, 1, 7, 69, 31, -70, 71, -75, -80, -79, 81, 20, -80, -3, -18, -68, -2, -47, 81, 77, 8, 60, -47, -11, 8, -1, 30, 2, -28, 74, 27, 63, 49, -64, 57, 79, -2, -34, 5, 71, -45, 2, -23, 54, -44, 66, -20, 79, -72, -37, -62, -24, -46, -56, 18, 83, 70, -22, -50, -75, 42, 62, -44, -74, -81, 54, -3, 71, 48, -65, -13, -37, -47, 46, 34, 2, 14, -74, 74, -77, 64, 45, 10, 47, -30, 15, -50, 34, 14, -6, -11, -54, 33, 61, 63, -73, -2, 71, 24, -31, -62, 6, 69, -30, -12, -19, -31, -65, 29, -34, 32, -13, -28, -62, 10, -79, 19, -10, 11, -68, -58, 15, 40, -82, 68, -34, -40, -49, 34, -79, 53, -75, -6, 53, -57, -3, 7, 74, -7, 68, -61, -18, 7, 35, 6, 34, 11, 18, -22, 76, -42, 84, -74, -68, -62, 26, 70, -65, 74, 23, 3, -4, -33, 73, 81, -26, -45, -15, -5, 51, -77, -53, 71, -13, 34, -21, 17, 3, 79, -45, -32, 6, -5, -46, 68, -55, -51, -64, 33, -68, -74, -84, 50, 5, 45, 16, 24, 17, -34, 36, 56, 26, -50, -58, 38, 40, 64, 19, 85, 41, -56, 10, 36, 8, -40, 14, 56, -73, -26, -2, 48, 33, 44, -47, 50, 66, -39, 62, -67, -41, -13, 68, -68, -49, -78, 46, -6, -45, 1, -28, 83, -27, 72, 1, 50, 17, -13, -18, 45, -38, 73, -1, -15, 6, -40, 78, -64, -68, 2, -35, -18, 29, -8, 72, 47, 18, -60, 65, 77, 60, 26, 50, 55, -43, 38, 34, -58, 79, -23, 67, -41, -64, 38, -62, -39, -44, -82, -62, -67, -74, -12, 80, -45, 49, -83, 85, -62, 31, -54, 30, 54, -31, -77, 0, 51, -21, 26, -6, -84, 1, 48, -23, 74, -84, -40, -71, -41, -16, -29, -16, 76, -59, 1, -14, -63, -41, -62, -84, -48, -36, -8, 13, 59, 4, -56, -84, 29, 3, -83, 30, -77, 70, 28, 42, 53, -39, -83, 17, -28, 8, 35, -53, 56, 28, 36, -70, 55, 12, 34, -18, -21, -2, 66, 85, -29, -53, -35, 5, -50, -78, 0, -4, -8, 82, 55, -59, 15, -49, -69, 70, -76, -49, 60, 20, 22, -75, 84, 26, -51, 39, 79, -34, -12, 68, -26, -40, 17, -72, 25, 23, -66, -22, -24, -80, 69, 65, 76, -22, 8, -60, 35, -27, -2, -45, 70, -69, 27, 49, -72, 14, -58, -46, 58, 10, -72, 73, 29, 33, -18, 67, -34, -29, -6, 6, 42, 26, 77, -78, -37, 61, 63, 12, 19, -20, -9, -38, -35, 52, -72, 79, 25, -12, -72, -51, 52, 5, 1, -44, -85, 17, -34, -30, -64, -77, 35, -52, -16, -84, -37, -67, -11, 23, -6, 62, -2, 63, 6, -22, 14, -47, 12, -72, -66, 61, 59, 79, 68, -50, 29, -25, -41, 14, 76, -23, -61, -59, 7, 30, -84, 11, 71, -12, 34, 81, -85, 72, -11, -53, -24, 40, 38, 81, 74, -9, -48, -8, -54, 63, -52, 26, 20, -67, -47, 72, -2, -4, 32, 20, 18, -4, 76, -71, -62, -52, 36, -14, -49, -53, 45, 59, -20, 32, 82, 45, 22, -13, 42, 35, -22, -26, 25, -21, 66, -52, -4, 81, -12, 51, -22, 73, -7, -36, 84, 46, -9, -46, -78, 55, -28, 76, 44, -51, 38, -72, -69, 31, -72, -27, -47, 54, -5, -48, 38, -20, 30, 10, 63, -83, 48, -20, -53, -66, 49, -33, 56, -10, -41, 46, -24, -42, 11, -45, 19, 5, -40, -16, 82, -81, -77, 19, -38, -1, 74, -50, 70, 20, -41, -51, -18, 60, 38, -49, 30, -59, -61, 60, 73, -69, -36, 14, 10, -78, 79, 65, 55, 27, -12, 47, 52, 60, -61, -30, -6, -4, 32, 27, 33, -49, 19, 26, 42, -56, 20, -9, 51, 58, -36, 80, -15, 26, -55, -20, 13, -44, 0, -70, -56, -40, -40, -59, -61, 81, -74, -10, 17, -43, -50, -37, 74, 65, 74, -84, -2, -76, 63, -72, 11, 32, -38, -1, -76, -65, -2, 12, 70, -68, -6, 14, -23, -50, 63, 36, 71, 38, -57, -24, 45, -69, 47, 31, 58, 8, -45, -33, -13, 80, 65, -33, -69, -77, 76, 16, 32, -58, 35, 55, -48, -81, -72, -46, -34, -84, 52, 26, -72, 70, -73, -42, -42, -79, 69, -50, 57, 24, -80, 2, -56, -23, 15, 36, 48, -85, 63, -36, -65, 66, -56, 10, -15, 83, 37, -59, -50, 18, -76, -83, 67, -33, -35, -55, 9, 71, -59, -49, -52, -60, 31, 10, -7, -32, -33, 59, 78, 10, 31, -83, 16, -52, -3, -52, 59, 17, -84, -17, -48, -42, -24, -34, -20, -4, 32, -65, 5, -18, -47, 0, 55, 67, -41, 54, 36, 13, 15, -20, 20, -57, -33, -58, -26, -50, -79, -33, -79, -47, -75, -32, -27, 67, -9, -52, -19, -75, 53, 28, -8, 47, -36, 52, -15, 4, 72, 36, -68, -37, 55, -34, -34, -51, -15, -22, 9, 70, 48, 13, -59, -67, 7, 46, -38, 68, -53, -7, 2, -55, 25, -71, -18, 16, 81, -64, -80, -45, -78, 58, 14, 4, 42, 20, -54, -38, 18, 12, 12, 49, 78, 12, 5, -35, 32, -57, -57, 37, -29, -72, 4, 48, -10, 51, -9, 6, -75, 61, 66, 3, 44, -47, -72, -64, 84, 70, -58, -2, 35, 27, -11, -66, -30, 63, 63, 68, -11, 50, 63, -76, 44, 49, -66, -74, 67, -45, -61, 68, 33, 12, 78, -22, 11, 47, 15, 7, -6, -65, -25, -8, 72, -36, -39, 32, -24, 10, 19, -85, 58, -29, 76, 64, -36, -57, -5, -60, -61, 34, -54, 14, 34, 46, -74, -85, -12, -61, 82, -17, 7, -55, -45, 36, 6, -27, 75, 25, 55, 43, -36, -8, 45, -48, -36, 9, -37, -70, -26, -84, 35, 23, -50, 49, -20, 10, 5, 13, -45, -50, 18, -72, 70, -41, -47, -38, 19, 10, 19, -22, -21, 11, -65, -44, 48, -67, -53, 47, -52, 81, 12, 49, -9, -47, -9, 27, 30, 39, 3, -3, -9, -78, -25, -22, 80, 78, -23, 21, -17, 49, 20, 84, 80, 59, 34, -68, -80, 54, -21, 51, 66, 28, -17, 32, -11, 49, -12, -1, -25, 27, -41, -65, -67, 52, 64, -19, 10, 75, 51, 62, 55, 16, -42, -21, 56, 31, 67, -14, -85, -42, 56, 27, 53, -79, 36, 70, 80, 16, 37, -68, -58, -75, -4, -63, 63, -45, 57, -46, 66, 3, -20, 50, 68, -37, -50, -53, -65, -35, -70, 59, 4, -36, -17, 32, -5, 31, -30, 55, 24, 63, 16, 84, 32, 29, -84, -21, -57, -44, -2, 50, 60, -44, -47, -69, 8, 55, -62, -56, -49, -5, -84, 72, -27, -34, -68, 49, 44, 72, -62, -69, -27, -57, 35, 49, 5, 21, -20, 52, 17, -73, -56, -5, -13, -38, 7, 67, -61, -70, -15, 35, 50, -42, 68, 83, -2, -73, -41, -43, 2, 42, -37, 18, -16, -60, -73, 60, 17, -8, -5, -63, -14, -51, 74, -6, -28, -32, -30, -31, -47, 74, -11, -56, 31, -8, -79, 28, 24, -17, 79, 74, 45, 51, -36, -48, 44, -63, 62, -47, -69, 50, -51, 72, -23, -39, 70, -51, 41, -26, 69, 40, -68, -84, -55, 41, -42, 79, -60, 67, 17, 27, 78, -25, -61, 22, -13, -65, 77, 62, 34, -49, 47, 15, -44, 25, -32, 42, 68, -69, 0, 3, 43, -23, 79, 85, 49, 59, 44, -22, -9, -73, 23, 20, -82, 0, -27, 66, -83, -50, 34, 53, 32, 8, 33, -27, 5, -64, -40, 0, 22, -5, 15, -6, -7, -24, -64, 54, -41, 37, 60, -18, 23, 82, -70, -29, 55, -84, 24, -16, -68, 57, 0, -26, -80, 63, 0, 12, 30, 75, -47, -30, 1, -55, 35, -18, -77, 50, 30, 78, -52, 69, -85, 13, 60, 41, -48, -19, 55, -76, -27, 33, 58, -60, -83, -20, 83, 79, -34, -2, 68, -47, 12, -81, -17, 37, 0, -53, -18, 85, 19, -33, 85, 81, -15, 7, -75, 30, -74, -19, 62, -79, -18, 20, 4, -26, 42, 22, 23, 37, -78, -67, -14, 62, 82, 27, 24, 48, -51, -23, -5, 11, -22, -75, -4, -36, 13, -61, -41, -57, 29, 42, 84, 13, 30, 6, -53, -64, -56, -44, -49, 70, 36, -49, -13, -4, 53, 46, -32, 78, -5, 0, -49, 75, 29, -26, -38, -63, 57, -1, -38, 82, -81, 53, 53, 67, 13, -34, 17, -65, -32, -36, 58, 44, 38, 32, -18, -32, -61, -7, 85, -20, -10, -48, -80, 47, 34, 39, 46, 66, -60, 61, 25, -18, 3, 57, 18, -30, 67, 4, -23, 25, 57, -43, 8, 47, -43, -44, 4, -13, 74, 68, 26, -22, 47, -59, 4, 4, 26, -71, 71, 26, -27, 74, -38, 31, 63, -12, -82, 72, -6, -44, -23, 80, 27, -18, 11, 9, 48, -76, -65, 23, 32, -66, -26, 22, 42, -43, -11, -12, -44, 14, 7, -81, 17, 28, -56, 24, -17, 67, 38, 0, 20, -16, 26, -68, 70, -27, 68, 76, -73, 30, 31, -7, 84, -83, 84, 55, -85, 59, 25, -7, 48, 4, 36, 70, 26, 78, 56, 38, -80, -42, -78, 24, 12, 59, -17, -42, 59, 3, 6, 63, -78, 18, 0, 2, 82, -16, 20, 30, 41, 18, -61, 82, 12, 19, 37, 45, 76, 3, 28, 49, 14, -21, -37, 76, 31, 43, -3, 72, -63, 36, 56, -26, 84, -39, 8, -83, 26, -25, 11, 20, 83, 43, -18, -71, 66, 5, 69, -21, 14, 45, -68, -10, 83, -45, 62, -25, 41, 84, -84, -8, 4, 81, -7, -85, -20, 20, -16, -47, -8, 79, 66, -7, 35, 1, -65, -23, -13, 19, -26, -58, -37, -41, -55, -10, 74, 50, 65, 63, 58, 33, 0, 49, -77, 9, 48, 68, -53, -63, 58, -42, -78, 21, 55, -32, -49, 29, 40, -26, -45, -40, -39, 27, -20, -79, 70, -79, -40, -46, 74, 77, 8, -14, -85, -83, -53, 10, -40, 71, -78, -16, 26, -41, -78, -40, -37, 12, -48, 80, 54, 35, 3, -58, -28, -80, 48, -84, -24, -80, -73, -52, 51, -6, 15, -15, -21, 8, -45, 19, -69, 52, -48, -42, -29, 80, -69, -56, 73, 78, -43, -24, 78, -25, 47, -56, 12, 37, -64, 52, 82, 13, 56, 55, -31, -23, 13, 79, 59, -83, -65, -7, 67, -76, -46, -56, -82, 42, 39, -70, 20, -27, 27, -28, -21, 5, -6, -67, 43, -15, -63, 3, -41, -71, -69, -59, -79, -51, -14, 33, 59, -40, -30, 46, 74, 0, -81, -85, -77, -41, 35, 77, -55, -82, 44, 4, 63, -56, -78, -57, 70, 53, 3, -6, -84, 71, -17, -65, 23, 10, 70, -35, 65, 19, 6, 7, 85, 48, 81, -19, -28, -48, -60, 34, 73, 12, -19, -62, -43, 40, -83, 11, -59, -26, 45, 35, 38, -39, 1, -73, -27, 48, -5, 4, 6, 45, 39, -38, 6, 10, 60, 51, -65, 0, 82, 25, 32, -41, 4, 40, 33, -30, 57, -7, 25, -15, -27, 38, 4, -31, -17, -9, -38, 48, -19, -48, 38, 61, -60, -45, 49, 64, 58, -62, 31, -1, -81, 40, -52, -15, -80, -35, 74, 35, -41, 60, 33, 75, -66, 11, -26, -59, -29, -1, -73, -30, -83, -38, 48, -43, 18, 74, -3, 74, 37, 30, -39, 61, -8, -17, -13, -29, 32, 65, 27, 78, -19, 18, -53, -51, 73, -43, 13, 2, 69, -18, -6, 4, 70, 4, -85, -27, -29, -5, 81, -55, 14, 67, 71, 84, 47, 41, -46, 24, -23, -6, -60, -84, -31, 24, -39, -30, 30, 2, -56, 54, 60, -14, 26, 76, -3, -85, 43, -10, 69, 57, -56, -37, -7, -32, -15, 21, 34, 45, -28, -23, -50, 50, 48, 17, 72, -3, 26, -64, 55, 38, -24, 45, 66, -10, 16, 40, 25, -71, 28, -76, 44, 15, 27, -33, -63, 22, 76, -64, -42, -30, -52, -35, 30, 32, 26, 58, -15, -68, -52, -23, 4, 5, -33, -71, 41, -12, 32, 9, 83, 11, -61, 19, 84, 56, -24, 24, -36, -9, -74, -84, 42, -67, -43, 22, -63, 48, 39, 2, -34, 23, 50, 13, -22, 28, 34, -23, 75, -69, 71, 66, 7, -33, 63, -63, -54, -43, -40, 45, 29, -60, -44, -53, -47, 15, -34, -82, -16, 4, -50, 70, -26, 78, 44, 54, 22, -54, 57, -59, -40, -31, -26, 31, -55, 36, -2, -57, -60, 57, 27, -58, 45, -10, -60, -66, 56, -27, -71, 15, -56, -73, -22, 61, -40, 80, 42, 35, -67, -37, -26, 25, -16, -17, 5, -75, -18, -28, 0, -47, 77, -21, 72, 22, 8, 37, 62, -28, 26, 0, 35, -62, -15, -22, 4, 71, -81, -1, 81, 51, -30, -48, 33, -62, 7, 55, -49, -60, -21, -77, 45, 17, 60, -34, 21, -8, 82, 14, -20, -62, -16, 47, 0, -43, 11, -19, -57, -22, -28, -24, 51, -80, -30, -24, -52, 31, -31, 20, -17, -60, -23, -9, -52, 82, -60, 46, -80, -14, -43, 16, -61, 26, -38, -53, -8, -6, 48, 25, 82, 23, 17, 62, -35, -1, -85, 23, -4, 51, 47, 13, -8, -26, -50, 55, 11, 65, 69, -85, -67, -42, -54, 50, -36, -75, 41, 69, 11, -16, -1, 64, 80, 20, 13, -68, -82, 21, -35, -17, 62, -52, -37, 82, 44, 30, 18, 7, -7, 61, -22, 38, -66, 78, 0, -18, 59, 21, -41, -6, -55, 46, -59, -71, 51, -6, 72, 12, 40, 62, 69, -17, 75, 71, 73, 7, 63, 60, -29, 36, 5, 79, 5, -24, -60, 2, -18, 37, 4, 29, 37, 68, 54, -33, -68, -32, 48, -19, -85, 59, -5, 4, 47, 8, -45, -10, 15, 48, -75, -36, -76, 66, -16, 64, -13, 32, -71, -64, 67, 24, -11, -26, 68, -30, -75, 20, -55, 79, 41, 5, 85, -54, -26, -73, -44, 9, 76, 22, 17, 16, -23, 46, 62, 6, 72, 56, -37, -52, 80, 40, 73, -7, -73, 8, -28, 26, -18, -80, -45, 15, -55, -2, 46, -2, 72, -3, 42, 1, 61, -85, 8, 51, -9, 21, -40, -55, 15, -14, 13, 29, 81, 44, 58, -25, -20, -41, -29, 5, -7, -29, -68, -47, 67, -26, 83, -8, 28, -44, 13, 62, 60, 82, 23, 66, -72, -60, 79, -52, -63, 3, 80, -24, -65, 42, -64, -77, -55, -20, 14, 66, 55, 28, 57, -22, 70, -43, 8, -60, 39, -27, 62, 11, 64, 41, 27, 16, -72, 84, 84, -41, 53, 67, -12, -8, -35, -23, 60, -50, 53, -47, 73, 19, 15, -70, -73, -53, -7, 63, 34, 0, 24, -39, -44, 47, 38, 20, 69, -7, -85, -33, 78, 17, -60, 82, -42, 79, -76, 85, -6, -20, -1, 21, -41, 24, 84, 53, 43, -73, -24, 26, 64, 82, -56, 81, -77, -45, 34, -12, 44, 2, 3, -82, -29, -76, 16, -26, 72, 66, -81, -40, 60, 80, 25, 61, 20, 61, 43, 42, 68, 14, -34, -65, 22, -52, -55, -58, -50, 14, -59, -55, 38, 43, 22, -12, 52, 79, -20, 32, 8, -12, -48, -12, -57, -41, 29, 67, 43, 58, 58, -5, 20, -55, -78, 28, 32, 15, -66, 38, -43, -37, 17, -63, -49, 64, 16, -62, -75, -10, -12, -9, -25, -14, -18, 2, -41, 70, -16, 64, -71, 11, -27, 73, 29, 48, -32, 10, -60, 34, -57, 43, -2, 79, 40, -79, 21, -27, -38, 11, 85, -8, -4, -25, 77, 1, 54, 1, -25, -67, 17, 28, -26, -61, 35, 31, 81, -75, 12, -60, -16, -60, -10, 78, 64, -38, 73, -21, 38, 41, -85, -61, -82, -2, 59, 68, 0, 41, 21, -71, -37, -75, 48, -71, -18, 31, -18, 10, 81, -15, 76, -8, 63, 58, -46, -37, 14, -55, 51, 39, 70, 28, -13, -73, 66, -2, -46, 76, 43, 28, -46, 63, 59, -1, -17, 0, -42, 0, 35, -62, -41, -65, 80, -56, 13, 23, 5, -44, -30, 49, 39, -8, -14, 63, 69, -83, -51, -38, 26, 62, -80, 70, 71, -68, -20, 37, 68, 46, -19, -58, -37, 61, 72, -54, 18, -72, -75, 84, 0, -54, 54, -5, 46, -81, 73, -38, -10, -50, 82, -36, 35, 21, -49, 21, 28, -26, -85, -6, 63, 69, -24, -81, -59, 66, 24, 10, 47, -19, -52, -57, -52, 50, -25, 51, -74, -20, 65, 58, -77, 66, 7, 58, 53, 9, -25, 5, -25, -25, 24, 2, -29, 10, 24, 56, 55, -52, -55, -58, 17, -47, 18, -78, 39, 10, 80, -50, -30, 51, 40, 26, -63, 79, 12, -59, -18, 68, 24, -38, 3, -24, 4, -83, 85, -40, 14, -3, 74, 31, 27, -11, -1, 41, -22, 22, 14, -72, -67, -32, -6, -79, -82, 9, 19, -66, 82, -82, -50, -13, -20, -40, 84, -79, -52, -58, 56, 27, 85, -81, -43, -19, -60, 68, 82, 10, 5, -46, 8, -46, -56, 6, -72, -35, -19, -8, 31, -56, 79, -61, 22, -43, -57, 49, 23, 78, -17, 85, -22, -76, -29, -27, -52, 52, -50, -33, -32, -33, -6, 78, -6, -7, 15, -18, 20, 7, 63, -60, -33, 62, -41, 71, -61, -83, 43, -12, -44, 56, -9, 19, -22, 77, -72, -25, -43, 71, -73, -12, 85, 19, -84, -4, -82, 9, 7, 55, -48, 64, 21, -44, -48, -45, 51, -27, -80, 27, -59, 47, -41, 63, -22, -5, -37, -7, -14, 15, 66, -16, -73, 47, 78, -66, 68, 46, -25, 30, 47, -29, 4, 32, -84, -64, 8, 48, 52, 49, -73, -24, 73, -79, -61, -53, -40, -39, -2, 27, -83, 51, -25, 83, -17, 73, 49, -4, 36, -56, 30, -35, 61, 47, -81, -79, 53, -59, 38, 17, 64, 6, -10, 60, 0, -22, -76, -59, 61, 81, 6, -74, -25, -65, -46, -58, -45, 82, -14, -47, 47, 57, -38, 45, 63, -40, 84, -25, -15, 57, 76, -60, 4, -65, 31, -60, -18, 55, -78, 5, 23, 34, -33, 4, 60, 15, -27, 5, 56, 3, 25, 6, 75, -39, -52, 43, 56, 27, 5, 40, 81, -83, 45, -66, -48, 26, -52, 10, 56, -3, 18, -3, -56, 2, -44, -9, -32, -63, 20, 40, 75, -82, -55, -9, 45, -6, 54, -34, 49, 82, -5, -13, -60, -55, 8, -8, -59, 9, 3, -8, -49, 66, 7, -43, -20, -13, -31, 85, -77, 78, 10, -63, 19, 22, 49, -3, -38, 64, 28, 30, 63, -33, 10, -56, -8, 26, 69, 25, 48, 28, -54, -22, -2, 82, -51, 73, 43, 12, 70, 38, 61, 34, -58, 37, -33, 73, -83, 61, -46, 82, 79, -5, 55, -28, -5, 4, 74, 21, -4, -5, 25, -38, -56, 30, 16, 29, 55, 34, -71, -39, 77, -9, -75, -82, -65, 15, -64, -55, 10, 73, 44, 16, -58, -8, 72, -2, 3, -32, 71, -83, -28, -4, 45, -68, -37, -82, -44, 46, 11, -45, -6, 30, 0, 21, 38, -39, -5, -70, 30, 83, 80, -41, -43, 21, -46, 84, -6, -75, 3, -62, -44, -16, -2, -52, -57, 69, 48, 72, -43, -4, -81, 31, 73, -50, -69, 46, -11, 77, -79, -19, -34, 2, 26, 36, 33, -83, -28, 12, 26, -76, -2, 48, -29, -71, 10, 35, 83, -44, 31, -57, -47, -30, 52, -17, -12, -7, 4, -14, -67, -24, -62, -5, -47, 69, -44, -79, -83, -55, 15, -52, 79, -54, 63, 80, -47, 48, -80, 26, 10, -8, -23, -65, 35, 40, -42, 15, 82, -67, 74, 31, 6, 58, 21, -75, 39, 84, 29, 23, 45, -12, 37, 78, 0, -43, 73, -19, -85, -25, 69, 50, -28, -57, -71, -8, -29, 82, 12, 67, -6, 47, -45, -83, -4, -55, -74, 10, -1, 16, -59, -78, -21, -53, -83, -36, -7, -47, 84, 26, 21, -17, 19, 64, -16, 24, 17, 36, -77, 49, 66, -74, -28, -55, 65, 19, 24, -29, 23, -22, 56, 41, 47, 70, 76, 62, -62, -20, 37, 19, -82, 47, 44, 74, -79, 23, 83, 32, -75, -39, -37, 66, -31, 31, -8, 11, 69, -73, 79, -27, -47, 40, 4, 55, -69, 66, 32, -8, 0, -8, 36, 82, -50, 68, -64, 55, -81, 50, -35, -13, -42, 30, -34, 38, -59, 56, 3, 31, 73, 47, -18, 85, -33, 36, 2, 15, -45, 84, 80, 47, -35, -72, -33, -80, -22, -1, -3, -53, -31, 29, 72, 4, 74, -48, 37, -12, -71, -54, 71, 69, -43, 71, 0, -11, -30, -79, 39, 33, 68, -39, -60, 22, -51, 62, 48, -29, 59, 73, 72, -46, 47, 6, 69, -58, -52, -53, -2, 18, 54, 49, 49, 57, -85, -28, 5, 56, 78, -62, 55, 73, 40, 48, -64, -44, -44, -36, 26, -54, -81, 55, -13, 48, -58, 57, 61, 82, -26, -67, 12, 34, 16, -22, 39, -46, -22, -15, 73, -58, -6, -8, -7, 7, -41, -47, 54, 44, 3, -2, -81, 76, -62, 12, -2, -8, 26, -19, -39, -53, -44, 10, -29, 46, -39, -11, -20, 41, -46, -51, 66, -80, -11, 32, 47, 23, -25, 73, -37, 36, 29, 78, -20, 27, -20, -61, -72, 46, 9, -27, -68, 45, -2, 75, -16, 30, 4, -17, -25, -32, -29, -11, 16, 48, 3, -57, 4, 52, 65, -6, 53, -25, -82, -40, -10, 66, -23, -85, -17, 54, 84, 1, -46, -41, -79, -62, 83, -76, 54, 48, 22, -58, -64, 68, -57, 82, 76, -76, -40, -52, -28, 70, -53, 4, -18, 28, -1, 72, -20, 40, 50, 77, 62, -9, 78, 59, -61, 38, -32, 84, -46, -63, -33, -56, -46, -2, -77, -3, 18, -69, 25, -9, -58, -18, 85, 64, -84, 12, 8, 17, -14, -80, -16, -41, 66, -40, 85, 80, 19, 64, -1, 44, -16, 72, 79, 34, -51, -29, -64, -58, 18, -71, -67, 38, 13, 73, 8, 39, 68, -31, -59, 70, 33, -33, 22, 34, 30, 5, 46, -37, -62, 6, -32, 43, -43, -48, -49, 72, 0, -61, 27, 72, -68, 45, -28, 15, -60, -40, 12, 28, 74, -28, -82, 60, 14, -40, -21, 31, -51, 41, -76, 12, 30, -62, -75, 25, 85, 63, -22, 79, 83, 58, 51, -33, -39, -70, -4, 45, 69, 22, -10, 43, 33, -63, 81, -45, 65, 27, 50, 56, 73, 82, 39, 73, -33, 25, 12, -62, 69, -31, -25, 50, -24, 16, 71, 38, -28, -20, -19, 46, 0, 75, -38, -14, -8, 17, -60, 37, 75, -64, 15, -40, 26, -32, 50, 30, 7, 14, 30, 44, 70, -54, -55, 38, -61, -33, -4, -58, 16, -84, 3, -35, 16, 38, -47, 58, -1, 7, -31, -10, 68, 75, -84, -43, -55, 27, 35, 22, 57, 43, -69, -75, -14, 56, -58, 53, 66, -4, -45, -85, 32, -60, 3, -65, 18, 53, 56, 11, -10, -51, 28, -16, 23, -71, -50, -48, 21, -38, -9, -30, 56, -63, 32, -72, 9, 80, -47, 74, -84, 61, -10, 65, 65, 15, 22, -62, 83, -7, 55, -65, 24, -60, 2, -27, 85, 32, 9, -58, 83, 53, 48, -37, -59, -16, 31, 28, 37, 64, 80, -12, 77, 3, 78, 54, -12, -23, 73, -14, 33, 32, -58, 19, 48, -15, -65, -1, -36, -37, 75, 29, 63, 8, -81, -72, 85, 63, -60, 40, -58, -73, -2, -12, 41, 15, -82, 7, -21, 65, -29, -46, 37, 72, -32, -33, -81, -31, -31, 0, 40, -26, 68, 4, 63, -29, -46, -35, 9, 57, 60, 51, -46, 59, 15, 62, 58, 43, -69, -35, -65, -22, -10, -24, -79, 16, -26, 39, 6, 73, -73, -38, 6, -7, 8, -48, 6, -7, -69, -37, -41, 58, 30, 50, 8, -40, -55, -34, -11, -36, 43, -53, 14, 49, 73, 35, -31, -35, 53, 36, 47, 15, 78, -59, 57, 75, -56, -45, 61, -56, 40, -13, 80, -20, -5, 61, -46, -38, -52, 69, -46, 47, 7, -8, -2, -75, -18, 35, 72, -10, -59, 49, -57, 84, -22, -62, 58, 6, 65, -20, -4, -19, 25, 34, 30, 31, -29, 30, -84, 75, 82, -83, 21, 56, -70, 67, 38, 23, 12, -49, -71, -49, -38, 20, 39, 3, -81, 25, 62, -14, 22, -1, -45, 78, 19, -2, -2, -62, 34, 72, -19, 43, 57, -43, -38, -7, -27, 29, 25, 1, 39, -66, 40, 21, 4, -25, 43, -49, -37, 83, -25, 46, 54, -44, 80, -22, 45, -51, 63, 24, 72, -42, 17, 70, 14, -73, -54, 40, 52, 43, 45, 27, 1, 0, -1, -71, -33, -81, -58, -80, -12, -42, 52, -80, 58, -80, -41, 16, 7, 81, -53, 36, 59, 77, -21, -71, -77, -68, 75, 57, -56, -32, -20, -13, 20, -80, -40, -74, -71, -20, -69, -46, 52, -65, -82, 63, 63, 21, 36, 72, 24, -48, 51, 44, 18, 29, 52, 62, 51, 39, 83, 66, 17, -65, -77, -71, -68, 77, 57, 61, 7, -48, -59, 72, 16, 38, -42, 57, -51, -50, 35, 27, -61, 21, 84, 17, 66, 56, -16, 82, -67, 24, -39, 21, -53, -47, -47, -26, 9, 75, 27, 29, 69, 81, -70, 79, -34, -35, 79, 37, 73, -36, 50, 63, 58, -41, -40, -78, 40, -85, 22, 50, 81, -11, -28, 78, -11, -45, 50, -50, 16, -67, 10, -39, 71, -1, 13, 17, 37, -83, 58, -58, 72, 32, 76, 15, 15, 25, -29, -83, 52, -84, -42, 5, 59, 79, -82, 71, 27, -37, 71, 59, 54, 30, -78, 3, -5, -69, 22, -31, -6, -43, -85, -57, 15, 43, -16, -82, 27, 38, 53, -7, 29, 47, 81, -81, 33, -78, -43, 48, -40, -33, 44, -75, 85, -36, -74, -79, -13, -52, -3, 11, -28, 76, -34, 50, -10, -59, 66, -68, -17, 0, 81, -49, 14, -11, 7, -34, 13, 55, 30, -37, -66, -30, 41, 57, 81, -20, 47, 54, -61, 71, 77, 66, 56, 41, -31, 61, 42, 0, -24, -6, 12, 54, -18, 79, -5, 64, -74, -39, 61, 23, 47, 68, 8, -26, -4, -20, 14, -78, 9, 22, -65, -65, -34, -61, -82, 42, -72, -63, -58, 56, 74, 56, -51, 74, -66, 17, 8, 20, 30, -58, 13, -9, -66, -40, -5, -42, -81, -3, -56, 38, -59, 40, 12, 23, 26, -20, -75, 65, -7, 19, 76, 18, 75, 52, -64, -61, -28, -35, 81, 0, 37, -37, 39, 29, 24, 23, 66, -74, -78, 45, 34, 9, 25, -63, 8, -24, -77, 36, 37, 10, -17, -48, 62, 42, 14, -12, -56, 1, -54, -17, -71, -1, -1, 20, 83, -9, -4, -11, -48, 48, 59, -14, 13, 53, 75, 34, -50, -62, -4, 14, -66, 56, 22, 13, 9, 44, 57, -38, 85, -60, 3, 78, 37, -27, -32, 19, 20, -61, 6, 70, -23, 34, 55, -78, -35, 72, 53, 85, -68, 32, 56, 71, -36, 22, 55, 5, -85, 46, 69, 2, 0, 59, -74, -21, 8, -69, 7, 10, -76, 23, 80, -48, 33, 52, -16, -16, 38, -69, 49, -2, 66, -60, 33, -53, -21, 41, 77, 9, 2, -48, 4, 44, 75, -49, -34, -32, -2, 16, 32, -41, -23, 84, -21, -38, -16, 53, -76, -44, -67, 83, -20, 45, -44, -1, -83, -60, -56, 64, 66, 81, 58, -17, -13, 38, -4, 18, 37, -27, 49, -64, 0, 16, -24, -60, -61, 34, 37, -24, -6, -72, 67, 10, 27, -4, 49, -24, -13, -71, -43, 32, -65, -38, 66, -38, 70, -34, 61, -24, -46, -65, -22, -22, -1, -67, 27, -69, 42, -76, 5, -14, -75, 68, 74, -8, 41, -4, 75, -63, -42, -11, 36, -79, 53, -31, -34, -6, -56, -29, -74, 1, 52, 44, 11, -68, -36, -29, 14, 7, -7, -61, 67, 26, 0, -69, -11, 19, 85, -18, -17, -50, -46, -10, 6, 11, 17, 77, -19, -19, 40, 17, 38, 74, 75, 24, 12, 76, 62, -68, -14, 36, 30, 34, 46, 55, 9, 22, -49, 9, -63, -78, 21, -85, 42, -27, 78, -64, -23, 13, 32, 54, -13, -52, 61, -60, 68, 54, -37, 58, 78, -11, 54, -78, 38, -72, 54, 30, -22, -82, -33, 62, 77, -16, 23, -73, 43, -16, -48, 46, 77, -31, 45, 84, 77, 66, 59, -70, -84, 32, 9, -10, 80, 11, 72, -71, -66, -37, 77, -38, -7, 14, 5, -22, 70, -34, -14, 44, -3, 27, -3, -39, -66, 14, -37, 16, 61, 42, -83, -25, -21, -63, -70, 1, 14, -12, 85, -80, 34, -38, -28, 64, -10, 15, -34, 9, -34, 30, -11, -25, -7, 79, 83, 18, -32, 27, 51, -80, 63, -55, 81, 30, 14, -72, 25, 63, 67, 44, 5, 15, -28, 50, -18, 12, 84, -58, -32, -80, -40, -39, -9, -74, -72, -32, 55, -60, -74, 54, -10, 67, -63, 12, 51, 60, -1, 63, 72, 80, 5, -41, -4, -31, 10, 67, -18, 7, -82, 58, 3, 51, -19, 78, -47, -18, 76, -82, 49, -18, -36, -33, -79, -46, 26, -84, 5, -30, -72, 53, -29, -60, 80, 82, -12, -83, -26, 25, -67, 13, -16, 49, -77, -21, 3, -78, -76, 74, 55, -68, 65, 2, -19, -41, 43, 8, 72, 60, 4, -3, 53, 25, -44, 32, -49, 47, 23, 70, 48, -9, 81, -85, 71, 60, -42, 37, 81, -1, 78, 84, -60, -28, 55, -53, -45, -41, 84, 44, -1, 76, 37, -23, 35, -1, 0, 59, 45, 23, -78, 40, -4, 16, 58, -33, 33, 29, 49, -83, 76, -46, -24, 45, 4, 58, -15, 20, 76, -6, 70, -75, -32, 84, 21, 30, -34, 33, -45, 65, 10, -29, -60, 31, -54, -8, 63, 12, -8, -20, -74, 80, -70, 12, -4, 70, 40, -50, -54, -60, 58, 47, 66, -74, 16, -55, -45, -14, -19, 9, 84, 27, -56, 34, -44, 38, 40, 12, 63, -63, 11, -77, 59, 61, 53, 48, 26, 71, 32, -71, 62, -54, -14, -51, -85, -6, -7, 82, -36, 85, -60, 23, -78, 13, -14, 50, 43, 40, 32, 63, 53, -24, -21, 62, -30, 82, -15, -71, 70, 72, 51, -59, 80, -73, -62, -76, 61, -8, -74, -46, 8, -70, 70, -55, -64, 23, -64, -27, 45, 56, -74, 67, 0, -70, -80, -48, 80, 82, 50, -23, -45, -64, -34, -49, 59, 41, 52, 79, 70, -83, -11, -77, 73, -69, -55, -37, 12, -7, -73, -80, 79, -20, 13, 12, -47, 79, 39, 40, 22, 18, 75, -49, -31, 48, -44, 81, 76, -66, 18, 56, -79, 26, 74, -76, -70, 41, 0, -46, 38, 60, 18, 60, 6, -6, 18, 76, -18, 65, -24, -83, -36, -74, 38, -70, 66, -28, -29, 22, -56, 37, 31, -82, -39, 69, 19, 77, -84, -3, -52, -34, -67, 21, 10, -1, 51, -3, 70, -18, 35, -83, 67, 12, -45, 46, 51, 55, 70, 68, 70, 66, 44, 67, 24, -30, 41, 78, -73, 25, -2, -85, -84, 40, 0, -24, -68, -40, 77, 60, 53, 41, 66, -9, 83, -31, -62, -49, 85, -55, 12, 42, -37, -15, 16, -25, -66, -18, 41, -45, 13, 51, -80, -23, 44, -11, -45, 32, -15, 50, -75, 84, 7, 47, -32, 75, 72, -25, -21, -54, 70, -22, 83, 84, 18, 50, 23, 71, 75, 25, 81, -67, 36, -52, 31, -73, -16, -32, -37, -26, -8, -23, -1, 8, -39, 45, -79, 29, -38, 58, 48, -4, 70, -20, 23, 4, 84, 4, 32, -58, 38, 17, 15, 66, -55, -3, 74, 31, 68, -19, 6, 34, 83, 35, 51, 20, -64, 44, -62, -34, -49, -10, -42, -77, 7, 30, 67, 67, 40, 28, 22, 65, -31, -7, 41, 64, 76, 33, 58, -35, -53, -42, 35, 44, -12, 2, -38, -39, 63, 11, 0, 51, -47, 65, 71, 19, -25, -5, 34, -57, -54, -16, -77, -76, 65, -2, -3, -50, 14, 9, -3, -79, 49, 16, 15, 42, 16, 81, -21, -9, -31, 66, -66, 11, 17, -8, 7, -20, -64, -82, -11, 2, 26, 69, 37, 49, -17, 76, 84, -9, 82, -68, 26, -10, 18, -35, -84, 22, 56, -52, 14, 62, -10, 29, 26, -44, 56, 29, 25, 82, -58, -58, 44, 24, 50, 53, 81, 74, 38, -1, 13, 60, -17, 21, -34, 35, 30, -12, 11, -19, 3, -46, -33, -46, -53, -1, 14, -15, 40, 70, -68, -84, -85, -44, 1, -60, -62, 0, -82, -2, 82, 30, -68, -56, 65, 64, 34, 75, 3, -64, 53, -23, 54, 57, 26, 31, -48, 29, 24, 33, -46, -2, -12, 46, -76, 1, -67, 5, -85, 37, -27, -10, -36, -79, -54, 47, 52, 63, 77, -74, 13, 12, -51, -34, 2, -24, 10, -22, -64, -1, -14, -48, 65, 23, -43, 62, -43, -61, 54, 69, 36, -55, -41, -37, -65, -2, -70, -44, 77, -56, -41, -4, -15, 29, -25, 52, -15, 84, 1, 55, -59, 3, -74, 14, -62, -73, 69, 3, 68, 6, -85, 21, -33, 72, -74, 47, -42, -15, 50, -70, -3, -35, -52, -6, 65, -78, 6, -18, -48, -25, 61, 23, 15, -60, 49, -78, 20, 17, -33, -9, 31, 0, -77, -45, -40, 83, -83, 68, 23, 36, -50, -11, 40, 59, -65, -23, -54, -77, 77, 37, 0, -38, 20, -43, -69, -40, -22, 15, 28, -80, -36, 55, 24, -83, 37, -45, -11, 8, 36, -55, 51, -10, 56, 71, 33, 13, 63, -38, -29, 4, 80, -82, -54, 13, 6, -31, 44, -5, 26, 66, 68, -25, -65, 67, -76, 37, 14, 23, -26, 52, -29, -24, -31, 17, 6, -24, -54, -51, -50, 68, 6, 28, -41, -23, -46, 21, 69, 4, -16, -12, -58, 36, -53, 32, 45, 56, -21, 46, 23, -15, -35, -72, -27, 73, 67, 78, 8, 0, -52, 16, -83, 70, -59, 73, -14, -52, 50, 32, 24, -26, 77, -6, -78, 2, 51, 64, 82, -17, 69, 45, 45, 55, 21, -11, -60, -20, 63, 83, -52, 55, 8, 50, -45, -16, 25, 30, 58, -67, -41, -72, 30, 58, -32, 62, 48, -43, -7, -54, 21, -48, -8, 37, -38, 32, -10, 12, -32, -19, -17, -77, 79, 6, 8, -57, -75, 80, 81, -8, -75, 2, 24, -59, -14, 0, 0, -30, 28, 51, -42, 61, -24, 43, 64, 25, 7, -13, 7, 73, 28, 42, 26, -7, -44, -34, -42, -11, -65, 75, 19, 81, 3, 59, 69, 44, 77, -61, -7, -61, -8, -61, -60, -85, 27, 16, 65, -12, -61, 23, 12, -11, -55, 33, 69, 62, -49, 63, 2, 7, -43, -43, 74, 79, 41, 6, 5, -58, -10, 32, 80, -15, 79, -76, 81, 43, -36, 36, -36, -18, 83, -85, -24, -39, -11, 10, 82, -72, 81, -43, 76, 33, 43, 47, -29, 17, -77, -75, -20, 7, -64, -81, -75, 72, -74, 66, 42, 35, -60, -29, -17, 44, -4, -70, 63, -31, -66, -12, -18, -36, -33, 36, 27, -37, -24, 35, 62, -13, 20, 50, 37, -78, 43, -17, 6, -38, 57, -34, -17, -84, -63, -48, -68, -2, -80, 59, -55, -43, 41, 39, 9, -35, -18, -47, -16, 35, 4, -53, 60, 21, -10, 35, -23, -72, -1, -66, 80, -34, 12, -22, 80, 31, -8, -40, 38, -74, -84, 67, 21, 44, 28, 73, 46, -33, -27, 28, -12, -38, -50, 27, -14, -81, 3, -57, -44, -41, 75, -31, 23, -42, 43, 27, 73, 2, -45, -46, -73, 71, 5, -38, 72, -36, 34, 65, 84, -23, 63, -50, -48, -23, 63, -22, -42, 3, -1, 35, -6, 49, -65, -61, -26, 68, -63, 13, 11, 25, 13, -35, -61, -32, -9, 15, -76, 80, -3, 15, 84, 56, -36, 69, -32, -85, -56, -65, 19, 68, 59, 20, -40, -47, -73, 59, 33, -16, 40, -57, -6, -80, -68, 71, 66, 52, 85, 20, 1, 69, 36, 59, 80, 28, -75, -52, -48, 78, 4, -30, 49, -3, -68, -8, 83, -23, -58, -14, 54, 67, 21, -8, -27, -18, -77, 51, 41, 84, 39, 25, -27, -14, 61, -77, -46, -16, 69, 61, -11, 49, 27, 72, -30, 42, 11, -41, 19, -53, -68, -59, -8, -24, 42, -12, 79, 65, -52, 52, -55, 60, -1, 33, -6, 63, -61, 71, 81, 42, 52, 10, -80, 1, -42, 63, 83, -37, -72, -53, -3, -10, -56, -45, 44, 64, -7, -63, 46, 17, 47, -31, 49, -85, 20, 13, 6, -27, 21, 6, 76, -29, 25, -83, -40, -40, -56, -75, -64, 21, 58, -55, -28, -43, -57, 65, -8, 23, 20, -16, 61, -23, 66, -41, -53, 1, -14, 24, 50, -3, 60, 32, 46, 15, 34, 70, 81, -77, -84, 18, -33, -45, -47, 21, -34, 75, 40, -5, 25, -42, -24, 15, -80, 9, -52, -59, 62, -5, 57, -62, -12, -11, 77, -81, 12, -40, -65, -64, -62, 62, -79, -3, 10, -33, -80, -21, 79, 64, 23, 28, 62, 6, -24, 4, -19, -73, 84, -73, -78, -79, 76, -80, 41, 7, 82, 23, 78, -35, -56, -50, -31, 55, 72, -27, 12, -25, -83, -64, -82, -54, 39, 32, 1, 78, 26, -66, -81, 52, 31, 66, -40, 44, 13, 63, 25, -19, -18, 45, -40, -14, 75, 45, 50, 57, -35, -77, 71, 75, 30, 64, -14, 51, 70, 41, 25, 51, -19, -39, -57, 80, -74, -40, -26, -49, -5, -82, -61, 73, -5, -52, -18, 30, -74, 14, -17, 79, 29, 15, -26, -75, 27, -75, -30, -24, -34, 66, 30, 31, 33, -73, 81, -7, -83, 76, 40, 5, 39, 79, -13, 59, -81, -31, -9, 55, 28, 78, 7, -10, 11, 44, 77, -50, -2, -75, -50, 50, -67, -13, 52, -49, 71, 48, -44, -45, -82, 82, -48, 59, -70, 80, -10, 58, 39, 3, -15, -8, -35, -83, -17, -41, 20, 18, 3, -17, 74, -37, 36, -35, 71, -72, 12, -16, -82, -62, 66, -32, -60, 66, 33, 40, -55, 24, -50, 39, -27, 26, -84, -57, -20, 2, 32, -24, 32, -53, -2, -39, 81, -83, -27, 50, -49, -9, -4, -65, -27, -66, -65, -82, 31, 62, -70, -79, 30, -28, -38, 10, -52, 57, -3, 66, 52, 25, -11, -32, -55, 59, 19, -50, 48, -21, 6, -65, -84, 79, 35, -78, 71, 61, -27, 55, 67, -27, -59, 11, 48, 16, -65, -60, 47, -66, 72, 82, 82, 26, -37, -36, 70, -9, -10, -72, 75, -59, 12, -31, 80, 4, 43, 48, -11, -2, 63, 3, 24, 9, -5, -36, -23, -66, 56, -1, -15, -67, 46, -12, -41, -27, 48, -36, -17, -39, -80, -18, -20, -18, 59, -22, -23, -83, -78, -54, -28, 55, -49, 14, -37, -33, -17, 51, 46, -34, 53, -71, 37, -61, -75, -79, 48, 9, -50, -46, 32, -32, 23, -28, 46, 83, 70, 50, 36, -62, -71, 83, 64, -28, 73, 37, 32, -34, 48, -62, -40, 8, 13, 65, 59, 56, 42, -77, -25, 25, -2, 21, -68, -18, -43, 57, -46, 69, 44, -14, 34, 42, 6, 48, -59, -38, -73, -1, -56, 45, 59, -32, -31, 84, 79, 69, -73, -8, -81, -43, 73, -31, 61, -72, -1, 64, -73, 38, 32, 85, -78, -21, 14, -31, -22, -50, -40, -71, -8, -11, 49, -60, -36, -14, 58, -59, -69, 59, 66, 56, -57, -45, 22, 1, 64, -58, 25, -39, -6, -36, 69, -4, 67, -59, 85, -17, 45, 3, -74, -84, -79, 61, -73, 26, 9, 61, 64, 77, -71, -57, -70, -68, -37, -31, 64, 33, -69, -59, -25, 8, -15, 10, 2, -18, -34, -42, 20, -80, -51, 71, -54, 44, -57, 3, 27, -74, 19, -49, 77, 43, -76, -65, 65, 13, -78, 57, -81, 85, -22, 33, -53, 43, -56, -49, 60, -42, 64, -35, -54, -49, -14, -82, 24, 4, 69, -25, -60, -75, -78, -80, 74, 47, -51, 28, 61, 64, 46, 12, 78, -51, -45, -45, 52, -71, -51, 34, 62, 31, 48, 75, 81, -33, 51, -10, 73, -25, 53, 35, 69, 50, 61, 59, -63, 12, 41, 28, -83, -39, 19, -67, 34, -45, 50, -47, 14, -15, 71, -55, 61, 3, 84, -10, 79, 84, 85, 67, -83, -26, -13, 64, -11, 19, -19, 80, -81, 43, -28, -18, 48, 35, 66, -72, -35, 67, 43, 48, -18, -32, -39, 45, -5, -85, -76, 72, 82, -48, 67, -77, -85, -85, 75, 64, -39, -29, 83, 80, -45, 45, 36, 82, 54, -49, 40, -58, -27, -45, 82, 72, 7, 64, -17, -69, -48, 74, -15, -28, 74, 39, -13, -20, 74, -47, 25, 52, 20, 15, 14, 6, -71, -47, 80, 38, 56, 76, -82, 15, -42, -13, 31, 5, 49, -59, -80, -46, -31, -34, -46, 81, 14, 78, -66, 26, -10, 4, 45, 70, 64, 26, -52, 71, -6, -47, 28, -14, 80, 51, -47, -24, -77, -34, -67, -10, -66, -68, -47, -27, -78, -20, -8, -16, 28, -80, 0, 4, 76, -18, -82, 37, -69, -58, 31, 50, -56, -39, -44, 66, -43, 4, 16, 64, -78, 77, 83, 41, 12, -54, 23, -47, -8, 56, -58, -43, 49, -36, -32, -65, 31, 15, 64, -65, 17, 56, -52, 63, 18, -71, 30, -9, -27, -20, 41, 13, -72, 2, 48, 13, -77, 62, 25, 32, -64, -12, -49, -54, 75, 65, 78, -8, 78, 5, -30, 74, -60, -10, 82, -7, -49, 7, -23, 62, -19, -47, 9, 70, 61, 69, 55, 57, -81, -56, -46, -77, -47, 48, 51, -32, 54, -77, 82, -67, -56, 69, 61, 2, -30, 44, 17, -52, -55, 80, 41, -55, -1, 26, 7, 41, -10, 9, 36, -30, -20, -74, 67, -62, 69, -1, 77, 8, -42, 11, -13, -39, -74, -83, 16, 17, -52, -2, 3, 1, -27, -71, -56, -48, 19, 28, 67, 54, -48, -12, 22, -84, 46, 64, 76, -51, 66, 84, 26, -53, 1, -35, 3, 44, -9, -34, -77, -45, 15, -25, -30, 73, 11, -78, -58, 7, -32, 32, -25, 55, -71, -56, 35, -19, -35, 66, 28, 68, 79, 83, -8, -24, -65, -63, -63, -69, -56, -15, -78, 84, -85, 83, 80, -60, 32, 23, 51, 51, 41, -11, -72, 83, -85, 81, 55, -59, 11, 58, -18, 1, 34, -30, 62, 79, 83, 83, -5, 54, 1, 8, 31, 46, -65, 77, 59, 64, -24, 43, 80, -70, 68, 65, -11, -17, -2, -21, -38, -40, 3, -70, -28, -83, -54, 8, 71, 13, 1, 16, -79, 51, 62, 60, 24, 31, 84, -8, 19, 40, -75, 9, -76, 55, 19, 83, 52, 51, -77, -10, -68, -77, 15, -15, -8, 59, -22, 30, -44, -80, 65, -83, -20, 52, -65, -46, -69, 20, -6, -71, -16, -74, 66, -62, -13, -2, 68, -35, -63, 45, 50, 22, 23, 26, 18, -57, -85, -43, 54, -63, -66, -8, 45, -31, 0, -6, -69, -22, -16, -44, -19, 4, 13, -28, 22, 74, 48, -63, 64, -16, -65, -73, -1, -59, -74, 65, -7, 42, 25, -62, 13, 83, 50, 11, 51, 21, 16, -14, -43, 15, 43, 64, 17, 7, 11, -8, 1, 61, 11, 16, -63, -15, -20, -65, 37, 5, -16, -36, -45, -71, -22, 26, -44, 62, -53, -57, 10, -3, 29, -62, -80, 17, -85, -77, 80, -74, -30, -18, -79, 62, 20, 11, 73, 60, -17, 38, -85, 51, -54, -10, 23, -43, 53, -58, -72, 67, 45, 84, -84, 76, 7, 75, 43, -43, -59, 10, 28, 69, -77, -52, 83, -23, -38, 50, -70, 19, 29, -77, 38, 68, -2, -11, -9, -42, -21, -65, -66, 50, 9, -5, -39, 49, -51, 35, -45, -81, -72, 12, -70, 34, 32, -33, -25, 31, -20, 8, 65, 4, -47, 17, -27, -46, 27, 8, 82, -85, 67, 34, 17, 57, 19, 34, 40, -31, -61, -39, 41, 30, -49, -11, 12, -2, 44, -44, -57, -63, 77, 74, -74, -50, 75, -33, -78, -41, 33, 55, 78, 2, 26, -22, 43, 61, 39, 78, -74, -84, 34, -25, -66, 47, -82, 65, 75, -19, -7, -42, -25, 8, 63, -4, -73, -78, 3, -34, 7, -80, 29, -41, -10, 57, -34, 3, 56, 14, -51, 18, 19, -72, -78, 41, -9, -30, -9, -51, 41, 26, -21, -72, -11, -5, -4, -29, 60, -59, 58, -73, 15, 16, 46, -73, 69, -20, -42, -56, 56, 19, 59, 23, -16, 40, -8, -50, -10, 41, 43, 18, 80, -16, -53, -38, -36, -85, 25, -54, -10, -1, -66, 1, -15, 82, -78, 60, -1, 25, 1, 16, 78, -26, -14, -17, 7, 55, -69, 25, 0, 12, 13, 53, -68, 74, -12, 47, 13, 48, 63, 68, 11, 84, -68, 14, -1, -22, 76, 9, 23, -63, -78, 44, 38, -10, 28, -28, -73, 12, -68, -39, -24, -52, 69, -9, -74, -33, 38, -75, 78, 82, -27, 29, 6, -5, 18, 2, -45, -30, 8, 63, 79, -26, -7, 80, 18, -63, -81, 5, -47, -16, -32, 21, 40, 56, -79, -70, 48, 1, 80, -16, 69, -13, 3, 49, 27, 12, -45, 56, 1, 48, -6, 14, 27, 40, 6, 45, 67, -51, -74, 71, -69, 24, -32, -16, 73, 73, -74, -81, -19, -36, 10, 83, 65, -16, 4, -49, -75, 65, 21, -34, 49, 17, 83, -70, -55, 54, -22, -17, -45, 34, 74, 70, -62, 22, -80, -12, -67, 56, -3, -19, -50, -15, -80, 81, 22, 17, 44, 69, 62, 58, 38, -66, -38, 20, -32, -26, -71, -85, 5, 56, 25, 8, 35, 69, 16, -39, 33, 72, -15, 59, -58, 27, 8, -69, -39, -69, 48, -1, -8, 70, -16, 15, 14, -45, 79, -14, -17, 35, 28, -1, 23, -47, -5, -25, -71, -72, -85, -69, 70, -37, -65, -54, -46, -28, 22, -48, 42, -78, 34, -63, -7, -37, -8, -71, 52, -49, 17, 84, -43, 55, -60, 58, 56, 46, -46, 39, 84, 6, -46, 6, 28, -84, -40, 26, -34, -26, 53, 16, 75, 29, -60, 69, 82, 4, 80, 24, -68, 24, -21, -22, -9, -49, -32, 34, -80, -42, -83, 59, -33, 29, 3, -6, -38, 40, -18, -5, -60, 35, 73, 43, 63, 11, 36, -36, 52, 51, -5, 2, -24, 19, -32, -53, 15, -42, 10, -11, 71, 8, 53, -2, 84, -85, 33, -61, 70, -73, 20, 72, -15, 41, -8, -1, 27, 70, 26, 76, -68, 29, 55, -41, -57, -36, 78, -46, -31, -32, -20, 8, 62, 41, 34, -28, 2, 23, 20, 34, 79, 69, 32, 47, 35, -62, 55, -47, -51, -26, 46, 46, 21, 76, -25, 40, 56, -68, -65, -77, -9, 8, -30, 56, 78, 76, -61, -68, -63, -11, 53, -9, 73, 79, 49, -29, -33, 35, 47, -7, 17, -19, -84, -23, 45, 7, 68, 84, -45, -24, 85, -41, 68, -24, -17, -24, 82, 18, 47, -30, -4, -12, 80, 41, -54, 50, 9, -79, -19, 4, 67, -71, 76, 66, 72, 12, -62, -16, -8, -16, 69, -64, 24, -67, 13, -16, 46, 48, 57, -72, 48, -85, 58, -31, -85, -24, -70, 50, -4, -22, 16, 66, 72, 47, 82, -22, -20, -22, 12, -78, 35, 39, -40, 5, -62, -20, 6, 21, 18, -67, 83, -73, 72, 52, -63, -29, 42, 9, -20, -10, -36, 67, -58, -16, 43, 28, -13, -3, 52, 57, -56, 23, 85, -2, 50, 30, -22, -68, -12, -40, 73, 45, -70, -42, 41, -42, -67, -44, 46, -48, -57, 79, 9, -25, 28, 60, 57, -37, 81, -48, -37, 11, -44, -82, -37, 61, 49, 57, -62, -29, -67, -52, -10, 26, 62, -23, -72, 16, 15, 45, -63, -11, -50, 65, 29, -29, -40, 57, 5, -37, -7, 37, -28, -48, -15, 81, 35, 56, 50, -45, -73, 45, -48, 12, 19, -64, -47, -21, -74, 17, 53, -38, 14, -74, -59, 19, 82, -82, 11, 77, 66, -9, 0, 34, 61, 52, 45, -52, -2, -71, -5, 32, 51, -55, 79, -18, -10, 23, -64, -14, 37, 24, 17, -52, 11, -52, 43, 14, -27, -13, 83, 75, 11, -67, 5, -45, -31, 3, 28, -67, 72, 31, 50, 52, 7, 50, 75, 24, 54, 16, -60, -50, 1, 52, -1, -73, -67, -11, -82, -3, 80, -68, 29, 58, -53, 6, 64, 42, 59, 4, -18, -13, -82, 41, -27, 37, 21, 55, 36, -51, -29, 2, 41, -52, -69, 12, 26, 46, 59, -81, -4, -82, -4, -5, 9, -67, -48, 10, 45, 10, 16, 58, -39, -54, 55, -63, 50, 61, -41, -4, 14, 7, 70, 39, -27, -46, -3, -33, 22, -47, 47, -15, -82, -15, 60, 60, -20, 42, 19, 21, -27, -69, 75, 71, -69, -12, -53, -3, 78, 58, 80, 42, -2, 83, -40, 25, 37, -73, -43, 40, 82, 48, 58, 74, 10, -28, 60, -16, 74, -47, 49, 65, 24, -5, -29, 41, 42, 50, -75, -81, -24, -17, 38, -56, 74, 0, -47, -85, -39, 38, -27, 85, -40, 38, -22, 15, -14, 32, 71, -79, -24, -46, 77, -21, 41, -39, -5, 35, 24, -14, -33, -24, 26, -9, -16, 30, 24, 27, -78, 58, -1, -78, -14, 24, 14, -79, -15, -73, -84, -50, -45, 35, -3, 66, 62, 2, -54, 11, 11, 73, -7, 33, 16, -66, -71, 4, -58, -40, -8, -69, -41, 40, 49, -23, -37, -54, 41, 37, 21, 66, 49, 39, 17, 64, 17, -59, 58, 1, 55, -52, 15, 24, -59, 18, 82, 68, 25, 76, -4, 80, 52, -9, 25, 41, 38, -25, 4, -75, -57, 60, -21, -14, -54, -79, -21, 16, 16, -68, 82, 55, 24, -45, 27, -64, 79, -6, -57, 20, 11, 66, 35, 83, 61, 37, -68, -24, -59, 17, -39, 0, -69, 51, -15, 18, -71, -14, -69, 26, -37, -43, 64, 9, 2, 73, 41, 36, -23, 83, -81, 43, 26, 68, 65, 61, 75, -51, 84, -2, 48, 28, -43, -20, -38, 29, -45, -53, 38, 32, -1, 28, 75, 18, 32, -25, -75, 55, -3, -49, 52, -4, -7, -46, 4, -29, 68, -52, 66, -23, -36, 28, 25, -47, -17, 81, 80, 34, -12, 32, -29, 50, 40, 40, -54, 79, 11, -40, 59, -14, -45, 30, 74, -60, 5, -55, 67, 41, 25, -6, -22, 39, -49, 12, -33, 19, 58, 5, 9, -51, 19, 7, 65, -64, 20, 79, -46, -25, 13, 70, -24, -17, 15, 64, 32, -28, 72, 71, 9, 66, 13, 31, -3, 85, 9, -55, -48, -47, -78, -70, -36, 34, 29, -77, -6, -29, 75, -9, 64, -13, -71, 46, 67, 6, 40, 41, 36, -57, 72, 17, -78, -16, -65, -65, 26, 13, -83, -47, 34, 3, -3, 15, -45, 14, -48, -64, -39, 33, 44, -11, 45, 52, -30, -16, -31, -69, 15, -70, -47, 36, -44, 81, -62, -69, -37, 6, -77, 79, -70, 50, -53, 11, -38, -22, -68, -81, 20, 63, -6, -30, 72, -83, -67, -61, 63, 15, 68, 47, 73, -1, 34, 36, 21, -22, 62, -48, 24, -23, 58, -66, -47, -67, 55, -76, -46, 35, -72, 41, 70, -29, 78, 77, 21, -85, 80, 81, -4, 72, 47, -2, -63, 78, 74, 15, 29, -70, 33, -32, -54, 23, -2, -54, -42, -1, -19, -62, -18, 40, -10, 81, 20, -67, 68, 1, 7, -69, 22, -40, 22, 4, 18, -51, -75, 7, 41, 4, 70, 81, 65, 68, -6, 5, -3, 32, -8, 55, -84, 9, -59, -12, -49, 60, -54, -79, -64, 4, 46, -77, 70, -65, 7, -41, -58, -24, -8, -20, -57, 82, -21, 55, -34, 37, 36, 47, -3, -79, -78, 34, -34, 15, 79, 25, 48, -20, -10, -15, 19, 61, 2, -79, -71, 72, -58, -6, 46, -79, -30, -40, -9, -82, -71, 70, 29, -31, -32, -27, 12, -85, -46, 75, -45, 56, -26, -62, -21, -8, -3, -59, -46, -76, -30, 26, -26, 20, -19, -58, -36, -14, 18, 26, 85, -3, -50, 68, 3, 61, -59, -24, 30, 79, -7, -3, 58, 81, 26, 22, 41, 51, -50, 79, -30, -51, 33, -66, 74, -83, -46, 2, 78, 26, -72, -50, -20, -2, -1, 81, -37, -66, 30, -49, -9, -16, 63, -30, 22, 25, -26, 44, 43, 53, -49, 81, -15, 40, 10, -17, 10, 42, 69, -43, 29, -4, 21, -13, -17, -43, 35, -65, 5, -5, -35, -23, -29, -79, -75, -48, -45, 36, -43, -51, -32, 22, 29, 48, 73, 80, -27, 29, -48, -25, 79, -59, 4, -38, -64, 67, 32, -9, -32, -16, -22, -1, -57, -61, -73, 14, -81, -26, -84, -60, -18, 24, -82, 13, 50, 69, 18, -42, -9, 27, 56, -78, 56, -2, -14, 57, -1, 25, 4, 1, 60, 4, -60, -45, 38, -76, -37, 32, 23, 41, -85, -37, 24, 55, -28, 34, 29, 52, -66, -12, 56, -83, 5, -40, 30, -72, 60, -26, -62, -56, -72, -29, 25, 53, -42, 28, 37, 6, 80, 11, -75, -65, -77, 48, 43, 62, 61, 25, -44, -80, -13, -68, -61, 9, -49, 20, -27, 24, 54, -56, -4, -46, 13, -66, -58, 43, 9, -75, -42, 24, -43, 82, -6, 8, 46, 27, -42, 21, 60, 9, 15, 59, 62, -51, 50, -72, -38, -29, 69, 75, -51, 57, -48, -69, -83, 69, -65, 9, 63, 41, 28, -61, -35, -73, -2, -16, -72, 18, 50, 7, -59, -53, -23, -76, -62, -31, -61, 25, -68, -7, 77, 27, 32, 33, 9, 26, 78, 25, 44, 61, 45, -12, -80, 2, -73, 20, 77, -67, -6, -6, 73, -52, -63, 57, -37, 81, -9, -18, -71, -64, -25, 4, -75, 52, 60, -39, -38, -68, -77, -32, -58, 83, -27, 27, -62, -33, 62, -11, 37, 28, -76, 71, 58, -73, 73, 79, -60, -61, 35, -37, 72, -2, -72, 59, -34, 2, -55, -64, 8, 55, 0, -29, -30, -9, -51, 80, -15, -44, 68, -82, -60, 48, 70, 48, -38, 33, -82, -13, -21, -83, 20, 84, 58, 85, 22, 30, 48, -78, 0, -82, 35, -23, -14, 14, -26, 42, 44, -25, -34, 35, 47, 66, 80, -49, 55, -36, 56, -71, 50, 61, -25, 14, 59, 2, 82, -57, 52, -38, -77, -61, 64, -28, -52, 21, -63, 34, 37, 21, 57, -38, -71, -12, 14, -83, 9, -34, 8, 85, -9, -40, -56, -30, -48, -55, -7, -49, -11, 15, -49, 10, -13, 30, -39, -64, -39, 3, -54, 73, -9, 29, 72, -68, -40, -17, -11, 76, -40, 57, 76, -7, -57, -32, -33, 58, 30, 69, 17, 13, 47, 14, -31, 18, -60, -42, -64, 63, -80, -70, 59, 55, 43, 27, -15, -47, 60, 54, -83, 12, -68, 32, 65, 26, 85, 69, 83, -9, -1, 54, -25, -34, -18, -51, 28, -2, -70, -34, -14, -19, -17, 10, -69, -56, -52, 49, -64, 59, 39, -51, -80, 68, 3, -82, 68, -26, -20, -44, -80, -60, 50, -30, 63, -2, 53, -23, 66, -57, 43, 57, 16, 77, -12, -14, 23, -37, -37, 29, -49, 60, -19, 44, 41, 36, -58, 2, -19, 52, -7, 38, -85, -59, 36, -64, 54, 59, 42, -1, 63, 12, 82, -61, 74, -54, 41, 35, 22, -22, -76, -55, 10, -66, -6, 38, 30, 12, 23, -39, -82, 56, 75, 76, -18, -37, 25, 42, 45, -43, -20, -26, 71, -6, 17, 15, 56, 32, 10, 9, -56, -45, -32, 62, 37, 9, -65, 53, 64, -49, -16, 77, 52, -35, -40, -39, 36, 10, -72, 3, -10, -59, 11, 68, 71, -79, -6, -54, -61, -49, -18, -16, -12, -73, -79, 27, 6, 29, 83, 32, 76, 56, 18, 65, -30, -63, -35, -50, -72, -19, 27, 23, -37, 48, 19, 17, 72, 66, -65, -23, -43, 65, -47, 83, -63, -73, -42, 47, 44, -83, -25, -69, -67, 80, 84, -8, 38, 26, -33, 55, 44, 36, -85, 19, 67, -31, -54, 39, 61, 25, -79, -6, -19, 8, -60, 46, -81, -76, 76, 61, 58, 11, 24, 61, -11, 61, -27, 2, -60, -5, -59, 80, -40, -66, 51, 76, -13, -14, 75, -22, -73, -27, -52, 78, -12, 33, -67, 55, -9, -67, -32, -54, -37, 39, 14, -1, 48, 40, 3, -42, -75, -1, 60, 71, -74, -15, -60, 47, 66, 84, -37, 63, 18, 49, 69, 47, -41, 73, 47, -45, -42, -9, 33, 2, -56, -29, -69, -49, 27, 70, -81, 19, -77, 63, 82, 25, -54, 6, 80, -32, -57, 69, 14, 7, 41, 80, 1, 39, 21, -37, -69, -2, 16, 34, 77, 8, -37, -76, 73, -42, 27, 34, -3, 49, -69, -37, 55, 48, -35, 60, 18, -23, 42, -26, 22, -59, -75, 16, -18, -68, 35, -35, 5, 61, -74, -18, -48, 15, 31, 18, 8, -53, 41, -29, -48, -69, 40, 35, -1, 77, 53, -65, 37, -11, -79, 35, 41, 11, 45, -56, 32, 7, -62, 16, -12, 50, 38, -11, 54, 11, 8, -49, -45, 74, -32, 16, -3, -77, 5, 46, -17, -74, -42, -31, -76, -3, 11, -83, 38, 37, 18, 80, -24, 37, 78, -1, -14, -72, -7, 27, -51, 0, 6, -81, -24, -60, -5, -17, 16, 30, -17, -2, -10, -50, 75, 35, -3, -13, -21, -69, -82, -44, -16, 41, 34, -10, 84, 78, -37, -19, 12, -30, -42, 25, -75, -59, 9, -61, 75, 1, -3, 36, -28, 59, 83, -79, 56, -81, -54, -12, 23, 82, -81, 66, 75, 14, -18, -76, 51, 65, 82, -72, 20, 21, 44, -21, -13, 66, 72, -60, -23, 36, -72, 32, 1, -74, -4, -18, -50, 59, 38, -20, -10, -21, 47, 61, 47, 23, 36, 63, 15, -45, 1, -6, -77, 34, 43, -6, 81, 4, 16, 75, 10, -45, 24, -19, 8, -33, -9, -61, 26, 21, -26, -79, -40, -4, 36, 58, 71, 60, -74, 60, 3, -43, -32, -20, -77, 15, 57, 7, 4, -68, -42, 5, -13, 74, 76, -57, -60, -76, -5, -46, 76, 63, 26, -7, 58, 42, 83, -60, 83, 22, 85, 33, -27, 48, -58, -38, -48, -30, 84, 36, 66, 81, 45, -34, -34, 12, -85, -53, -55, -20, -50, -24, -40, -5, -20, -66, 25, 8, -11, 38, -18, 83, -24, -30, -54, 2, 40, -38, 64, 41, 13, -82, 75, 69, -27, -59, 69, 43, 33, -11, 61, -33, -61, 46, 28, 48, -84, -36, -18, -20, 75, -59, 26, -49, -60, 39, 55, -5, 0, -59, -82, 57, 84, 35, -44, 17, 34, 75, 21, -59, -19, 13, 58, 12, -81, 15, -19, 32, -68, 21, -75, -61, -78, 58, 62, -26, 58, -38, 35, -10, -74, -24, -51, -38, 46, -81, 37, 62, -76, 14, -63, -30, 42, 48, 33, 20, -18, -56, -79, 7, 24, -77, 60, 16, 62, -61, 75, 63, -75, -9, -79, -45, -63, 12, 77, 47, -26, -9, 42, 76, -14, -26, 13, -53, -52, 23, 23, 83, 48, -46, 9, 76, 23, -1, -67, 6, -9, -18, -59, 71, 71, 13, -33, 10, 73, -45, -78, -7, 71, 17, 63, -14, 69, -35, 2, -85, -19, -32, 31, -78, 59, 77, 29, 44, 34, 45, -46, -44, 58, 5, 19, 68, -47, 18, 13, 71, -49, -21, 11, -77, 1, -7, -46, 1, 3, -67, -9, -78, 73, -64, -19, -39, -79, 19, 30, 46, -57, 40, -41, 41, -20, -5, -50, -35, 10, -10, 26, 15, -60, 69, 3, 56, -41, 58, 67, -82, 67, 82, -30, 25, 81, -71, -22, -67, -34, -29, 46, 59, 26, 63, -8, -40, 31, -41, 28, -6, 64, -80, -3, -50, -48, -61, 28, 48, 26, 5, -74, 54, 34, -66, 49, 73, 67, 41, -66, -73, -4, -54, 78, 11, -84, 52, 51, 15, 21, -34, -47, 44, 26, 29, -33, 71, -9, -84, 1, 69, 4, -35, -54, 35, -47, -76, -4, -29, -29, 20, -55, -77, 17, -55, 71, -79, -56, 35, -65, -71, -55, 31, 29, 16, 28, 35, 84, 18, -16, 15, -18, 58, 84, 82, 48, -82, -15, -17, -33, 56, 35, -16, 71, -29, 33, 61, 74, 15, -42, -51, 67, 84, 19, 33, 78, 70, 65, 39, 33, 78, -34, 70, 74, -42, -62, -16, -50, 40, -6, -25, -73, -22, -8, 15, -73, -59, 75, -60, 41, 15, -27, -41, 75, 3, -40, -12, -49, -62, -23, 32, -40, -24, -79, -28, -72, -21, -36, -68, -66, -80, -75, 16, -33, 66, 75, -65, 50, 71, -84, -25, 67, 29, -12, 27, -63, 44, -58, 61, -62, 38, 34, -74, 57, 79, -17, 69, 51, -59, -55, -44, 10, -19, -64, -30, -33, -79, -53, -52, 41, 80, 72, -71, 79, -85, 60, -12, -5, -78, -10, 45, 52, -12, -64, -6, -60, 40, -62, 31, -58, 44, 10, 39, 18, -37, 60, 46, -40, 3, -76, -61, -9, 35, -32, -72, -24, -25, 39, -69, -3, -57, -44, 73, -53, 55, -9, -83, 29, -25, 68, -61, -38, 38, -58, -66, 4, 23, -35, 40, 6, -58, -31, 17, 25, 20, -81, -25, 76, -61, -71, 51, 45, -58, 26, 85, 24, -57, -44, -50, -28, -8, 37, -32, 41, -10, 30, -28, -35, 77, 20, -23, -76, 11, -67, -66, 37, 40, 62, -35, 44, 9, -85, -82, 69, -56, 70, 43, 62, -4, -67, 3, -63, 2, 3, 53, -66, 73, -67, 63, 38, -73, -69, -34, -78, -60, 20, 60, -14, -66, -62, -75, -11, -65, 60, 77, -4, -52, -25, -5, -72, -57, -66, -43, 25, -53, -73, -29, 43, 49, 66, -65, -29, 33, 27, -44, 37, -76, -31, -71, 16, -70, 48, -29, 35, 59, -34, -60, -66, 31, -29, 74, 32, -26, -80, 36, 79, -30, 47, -12, -74, -25, -11, -54, 34, 23, -10, 24, 41, -34, -15, -72, 62, -54, -64, -85, -44, 20, 59, -67, -38, -56, 16, 76, 11, -6, -5, -56, -24, 49, -9, -79, -28, 56, -45, 59, 32, -23, 78, -7, -55, -59, 71, -62, 21, -46, -77, -78, 66, 25, 0, -80, 31, -71, 63, 39, -55, 25, 65, 13, 45, -56, 28, 42, -26, -37, 71, -54, -73, -6, 37, 19, -76, -43, 0, 54, -14, 59, -15, 36, 17, 73, 35, -3, 79, -32, -82, -34, -15, -25, -75, -79, -38, -44, -33, 61, -19, 71, 50, 53, -26, 6, 59, -15, -21, -52, -42, 7, -24, -66, -32, -4, -69, -39, -7, -68, -37, 75, -23, 33, 42, -70, -63, 58, -18, -75, 46, 31, 85, 50, 22, -77, 76, -54, -2, 75, -72, -34, 5, -11, -78, 27, -7, 18, 25, 24, 0, -83, -12, -28, 10, -82, 27, 14, -16, -38, 3, -69, -55, -47, -49, -28, -18, 68, -51, 37, -13, -13, -57, 26, -67, -2, 36, -2, -76, 32, -39, 77, 42, -53, 21, -9, 75, -29, -9, -38, 20, 23, -39, -47, -14, -77, 63, -9, 56, -1, -37, -34, -17, -5, 80, -20, 41, 3, -42, -84, 65, -31, -59, 20, 50, -1, -8, -45, 61, 50, 43, 67, -71, 76, 59, -54, 77, 71, -29, -83, 81, 67, 72, 45, -16, -56, 14, -71, -84, 40, 48, 14, -80, 40, -25, 58, -44, -34, 79, -81, -69, -1, 27, 5, 27, -39, 2, -58, 61, -22, -32, -39, 13, -3, -60, 67, -52, 49, -68, -52, 63, -1, -72, -83, 68, -81, -11, -23, 67, -53, -60, 83, 80, -16, 84, 9, 27, 54, 34, 77, -63, -69, -38, -58, -18, -28, 64, -68, 84, -67, -85, -15, -5, 79, 42, 40, -6, -55, -10, -33, 38, 37, 15, -47, -39, -43, -75, -61, 41, 60, 50, -57, -45, -9, -21, -28, -8, -21, 53, -21, 12, 4, 40, 2, -47, -73, -39, 20, 74, -51, 0, 29, -75, -42, 37, 23, -33, -45, 66, 3, -48, -24, -45, 62, 12, -57, 22, 67, 73, -52, -48, -53, 37, 34, 76, -75, 69, -24, -5, 15, 2, 46, -71, -24, -5, -9, 41, -75, 30, 3, -35, 78, -63, 68, 79, 16, 78, 23, 77, -12, 76, 29, 14, 6, 38, -71, -69, 36, -21, 30, 38, 66, -29, -67, 85, -11, -82, 40, -74, 38, 2, -60, -37, -23, 33, -16, 16, -17, -11, -24, -7, -16, -66, 70, 3, -61, 49, -61, -53, 38, -14, 70, -84, -17, 45, 68, 57, -24, 0, 25, 49, -63, -60, 63, -60, 68, 61, -82, -22, 38, 55, -61, 28, -52, -48, 6, 67, -28, 17, 22, -10, 13, 9, 53, -16, 61, 28, 13, -53, -1, -3, 62, -41, 85, 24, 39, -6, -40, -23, 32, 40, -55, 63, 7, 72, -21, -73, 84, -8, 53, 62, -21, 51, 78, 6, -29, 65, -23, -41, 51, -65, 28, 11, -70, 51, -19, 41, -46, -51, 75, 40, 25, 31, 17, -54, 64, 30, 67, 67, 6, -64, 52, 14, 51, 12, -51, 40, -61, -51, -67, 82, 11, -33, -44, 17, 72, -67, -70, 40, -73, 15, 18, 59, -53, 18, -56, 41, -67, 9, 59, -63, 35, -35, -31, -40, 74, 17, -76, 23, -38, -9, 44, 3, 44, 42, -73, 22, -13, -60, -77, 47, 55, 23, -38, -6, 34, -71, -55, -13, -32, -13, 43, 39, -37, -78, 70, 60, -43, -37, 6, 26, -59, -73, 47, -6, -48, 71, -71, 20, 83, -37, -48, -39, -18, -34, 18, 39, -85, -8, -40, -26, -19, -45, -75, 40, 24, 40, -31, 67, 58, -41, 59, -17, -76, 23, -45, 27, -50, -14, -38, 32, -48, 56, 64, -30, 8, -5, 1, -26, 23, 60, -17, 44, -84, -74, -11, 22, 65, -32, 63, 10, -56, -20, 75, -26, -5, 66, 49, 49, -44, -21, -39, -10, 18, 73, 52, 75, -69, -26, 25, 30, 48, 65, -27, -28, -45, 27, 59, 18, -77, -71, 17, -3, 59, 0, -23, 61, 15, 13, 27, -1, 38, -74, 38, -23, -25, -27, 18, 82, -63, 49, -58, 61, -76, 60, -64, 31, -70, 21, -81, -47, -11, 31, -23, 23, -63, 20, 72, -3, -42, -74, -46, 37, -48, -77, 78, -20, -47, 1, -70, 1, 68, 16, 9, -6, 16, 82, -82, 16, 81, -35, -5, 84, 44, -47, -10, -64, 85, 51, -27, 0, -72, 22, -64, -60, 35, 7, -47, -55, 54, 62, 13, -20, 34, 78, 9, -17, -52, -68, -36, -10, -25, 31, 61, 49, 3, -82, -20, 73, -66, -3, -47, -27, -22, -46, -76, -53, -13, 11, 48, -19, 31, 81, -43, -18, -53, 29, 40, 12, -46, -29, -62, -73, 47, 27, 74, -69, 17, -16, 39, 1, 3, -54, -43, 2, -30, 10, -63, -64, 60, -35, -10, -1, -75, -42, 74, 18, 21, -41, 27, 68, 85, 85, 75, -19, -61, 24, -57, 26, -69, 78, -22, -81, -28, -34, 64, 17, -23, 31, -62, 76, 8, -44, 84, -66, 39, -60, -19, 74, 26, -82, 61, -12, 63, 27, 81, 5, -33, 9, -67, -23, -37, 73, 47, 85, 64, 37, -13, -36, 56, -57, 51, -75, 15, -77, 32, -44, 1, 16, 61, -22, -71, -55, -84, -3, -30, -41, -57, 68, -16, -85, -74, 26, -1, -72, 38, -16, -35, 73, -59, 83, 33, -69, 79, 14, 48, 12, -38, -54, -62, -27, -45, 57, -68, -48, -79, 0, -47, -62, 33, 9, -68, -26, -37, 57, -17, -35, -9, 79, 4, 78, -6, 41, -81, 51, 78, -61, 36, -45, 52, -51, 17, -70, -1, -58, 77, -14, -10, -31, 83, -35, 69, -54, -14, -82, 5, -58, 12, 63, 72, 51, -56, -61, -64, 27, -8, -54, 26, 21, 4, 57, 15, -26, -78, 57, -45, -21, 27, 69, -73, -30, -53, 59, 55, -42, 21, 40, 42, -3, 25, -68, -78, -67, -68, 66, 15, -7, 53, -24, 47, 8, 20, 83, -30, -67, 55, -15, 65, -60, 49, -13, 8, 57, -73, -35, -8, 50, -82, -25, 18, -21, 73, 29, -15, -65, -83, 32, 79, -54, 41, -16, 72, -1, 23, -54, -32, -69, -14, 14, 64, 52, 67, -15, 16, 23, 71, 40, -66, 53, 26, -64, 58, 36, 6, 13, 40, -22, -30, -73, 44, 13, -46, 65, -29, -1, -15, 7, 19, -12, -17, -42, 55, -24, -20, 52, -78, 66, 62, -1, 38, -63, -21, 29, 31, -51, -63, -85, -10, -57, -39, 68, -11, -48, -16, 79, 55, 72, 21, 4, -8, -49, 30, 46, 25, 7, -84, 26, -39, 16, -52, 0, 18, -66, 49, 38, -30, 63, -59, -74, -35, -43, -13, 27, 63, 61, 62, -17, 17, -30, 46, -25, -33, -29, -67, -65, -38, -43, -80, 54, 81, -62, 57, -50, -2, 50, 83, -80, 59, -36, 63, -7, 41, 59, 62, -29, -5, 46, -18, -43, 79, 15, 40, -61, -31, -8, -18, -57, -79, 84, 77, 70, 13, -62, 14, -9, 47, -70, 76, -69, 69, -34, -37, 19, 7, 29, 14, 73, 7, 10, 62, 62, 17, 34, -33, 42, -59, -81, -15, 7, 14, -62, -7, -84, -29, -81, 32, -82, 64, -11, 9, 20, 48, 69, -69, 61, -41, -71, 31, 76, -20, 57, 58, 69, -45, -30, -72, 71, 10, -64, -11, -81, -14, 41, 41, 7, 84, -62, -83, -40, -9, 83, -37, 17, -7, 16, 74, 49, -76, 11, -42, -63, -66, -44, -49, 14, -12, -70, -82, -68, 68, 37, -80, -81, 57, -66, 47, 19, -19, 75, 51, -38, 80, 17, -81, -84, 77, 51, 28, -43, 5, -77, -72, -29, -31, -26, 39, 8, 79, 59, 63, 1, -44, -4, 31, -7, -74, 5, -36, 73, -74, -46, 2, 14, 72, -48, 3, 5, 35, 57, 1, -57, -64, -47, 79, 13, -6, 82, 64, -51, -83, -79, 44, 41, 9, -7, -80, -66, -47, -33, 10, -24, 61, 48, 6, 75, -82, -73, -53, -63, -12, -33, 47, -78, 16, 84, 75, 10, 28, 35, -57, 48, 69, 44, 21, 56, -51, 31, 35, 45, 2, 76, -34, -27, -9, -15, 81, 23, 52, -53, -47, 50, 23, 58, 70, 85, 14, -52, 59, 47, -77, 38, 9, -25, 76, 12, 5, -38, -26, -82, -31, -57, 31, -4, -4, 10, 45, 69, 36, -78, -37, 80, -39, -79, -53, -59, -83, 8, 52, 26, 62, 46, 3, -29, -12, -54, 54, -73, -33, -64, -6, 58, -3, -11, -44, 53, -60, -44, -30, 54, -61, -23, 28, 16, 76, 54, 58, -18, -75, 71, -12, 62, 46, -22, 17, 80, -26, 37, -34, 5, 78, -60, -16, 12, 74, -76, 67, 28, 48, -40, 78, -65, -27, -13, -77, -21, -31, -53, -58, 26, -17, -80, -60, -21, 76, 73, -68, 9, 7, -21, 26, -37, -26, -1, 76, -59, 13, -35, 15, -84, 60, -23, -23, -52, 18, -57, 69, -56, -66, -72, 21, 49, 35, 83, 36, -70, -43, 60, 15, -42, 23, 74, -50, -57, 76, -48, -84, -69, 38, 15, 44, 79, 30, 25, -42, -63, 1, 35, -35, -46, -2, 8, -76, 68, -61, 75, 14, -53, 58, 75, -10, 48, -69, 46, -50, 48, 28, -24, -47, 76, -20, -44, 8, -20, 54, -9, -51, -31, -57, 83, -25, -81, 77, -17, -21, 66, -48, 74, -24, 19, -46, 69, -71, -81, 69, 79, -10, -47, -4, 47, -66, -69, 11, 64, -18, -31, -55, 14, -24, -81, 8, -43, 13, -45, -30, -81, -61, -36, -36, -74, -40, -79, 85, 84, 31, 0, -45, 49, 35, -32, -40, 59, -13, 21, -84, -33, -61, 15, 77, 76, -33, 29, -48, 85, -24, -59, 84, 49, 12, 23, -67, -81, -44, 47, -68, 43, -55, -30, -45, 84, -43, 67, -21, -52, -43, -30, 54, 57, -41, -44, 25, 77, 80, -40, -4, 4, -11, 42, -4, 79, -61, -56, -78, 61, -5, -40, -80, 64, -14, -80, -53, -1, 82, 23, 81, 9, -43, 48, 74, -64, -35, -71, -30, -77, 30, -78, 4, 81, -13, 75, 65, 56, 84, -15, 63, -31, -74, 55, -71, -11, -15, -42, 81, 37, 67, -23, 12, -57, 57, 59, -23, 32, -37, 17, -58, -21, 63, 59, 82, -47, 39, -39, -35, 80, 31, 62, -36, -28, 54, 84, -80, -68, 0, 52, 15, -26, 24, 44, -76, -30, 24, 57, -75, 47, 0, -28, -84, 62, -75, -24, -62, -33, -73, -24, -47, 20, -38, 64, -5, -40, -18, 40, 2, -23, -66, -43, -2, -41, -7, 81, 36, -11, 80, 23, 1, -37, 81, 82, 58, 53, 27, 4, -67, 49, 8, -68, 14, -58, 35, -53, -9, 10, 11, -42, 22, -62, -82, -65, -84, 41, 78, -24, -56, 76, 1, 71, 45, -35, -16, -44, 5, 49, 13, -48, 72, 19, -2, 49, 53, -44, 16, -8, 0, 74, 55, -41, 12, 67, -26, 11, -44, 84, -29, 59, -56, -24, 11, 57, -61, 48, 41, 71, -69, 53, 9, -9, 32, -3, 38, 42, -41, 36, 54, -74, 14, 74, 33, 19, -19, -50, 64, 67, -34, -83, 58, -75, -12, 0, 65, 50, -70, 69, -25, 31, 61, -78, 74, -35, 41, 15, 64, -32, -59, 24, -12, -18, 82, 85, 44, -50, -38, 30, 11, -48, 78, 16, -62, 55, -6, -7, -13, -55, -12, 32, 77, -79, 70, -35, -9, 13, 38, -70, 11, 58, -40, -59, -8, 58, -76, 43, -67, -70, -22, -8, 62, 18, 85, 81, -77, -75, 50, -68, -57, -1, -52, 67, -62, -59, 76, -68, 5, -66, -77, 81, -68, 47, -29, 62, 79, 27, 4, -53, -68, -47, -61, -35, 36, -42, 64, 10, 66, -73, 29, -23, 67, -70, 84, -68, -30, -22, -4, -38, -44, 82, 79, 2, 20, 84, -72, -15, -4, 48, -18, 29, -63, -76, -58, -42, 48, 30, 74, 5, 62, -29, -55, 75, -76, 82, 10, -81, 62, 58, -85, -61, 51, 9, -20, -47, -76, -11, 63, 30, -34, -17, -55, -85, 57, 42, -20, 45, -39, 32, -73, -68, 80, 19, -42, -60, 62, -84, 3, -39, -19, 3, -31, -14, -5, -15, 67, 76, 53, 0, 53, -16, 33, 40, 81, -8, -2, 7, -58, -68, -76, -67, -36, -2, 50, -41, -23, -61, 19, -66, 81, 7, 12, 78, -13, -24, -20, -10, 22, -11, -58, 68, -18, -38, 42, 2, -36, 53, -31, 25, -24, -61, -24, 38, -4, -85, -39, -66, -35, 3, 46, 22, -80, -60, -48, -63, -36, 22, -57, 82, -24, 58, -19, 18, -80, 57, 79, -36, 54, 79, 67, 36, -52, 37, 48, 2, -74, -43, 33, 17, -30, -76, 43, 16, 37, -52, 0, -17, -71, 16, -35, -63, 75, -79, -25, -38, -24, -67, -13, 30, 17, 34, 19, -45, 65, 33, -59, -52, -79, -38, -6, 69, -33, -1, 11, -58, 38, 37, -80, -12, -76, -35, 16, -81, 84, 12, -56, -46, 53, -72, 7, -74, -29, -2, 42, -79, -78, -45, 14, -84, -60, -68, -53, 20, 10, 36, -22, 27, -44, -21, 83, -50, 5, -76, -47, -67, -82, 79, 80, 75, 4, 39, 37, 58, -13, -50, 49, -53, 82, -19, 14, -59, 38, -18, -40, 34, -39, 46, 28, 28, 12, 65, 23, 81, 53, -51, 82, -21, 3, 48, 23, -54, 62, 67, 14, 7, -75, 78, -72, 77, 31, -82, 3, -9, -72, 26, 10, -69, -48, 85, 36, -40, -34, 68, -5, -83, 16, -34, 39, 42, -67, -56, 53, -3, 53, 63, 79, 23, 31, 30, -20, 31, 78, -14, 60, -50, 3, 53, -34, 83, -18, 73, 10, -57, -6, -67, -53, 59, -53, 51, -47, -68, -70, -22, -58, 55, 32, -78, -23, -62, 15, 72, -55, 24, -60, 19, -18, -31, -14, 2, -49, -9, 48, 26, 5, 11, -82, 51, -81, 62, 62, 10, -45, -74, -6, -11, 14, -7, -61, 6, -38, -76, 30, -52, 7, 53, 38, -27, -40, 38, -64, 82, 51, 21, -37, -9, -22, -2, -76, 14, -75, 59, -10, 84, 33, -71, 24, -53, 23, 16, -82, 15, -36, 46, -46, -8, -72, -42, -33, 39, 60, -15, -2, 61, 36, 76, -10, -24, 17, -54, -11, -39, 36, -77, -54, 28, -52, -78, -74, -50, 10, -60, -54, 60, -25, 50, 74, 33, -13, 41, -39, -28, -77, -60, -28, 46, -19, -56, 20, -56, 41, -10, 4, -6, 61, -56, -65, -46, -68, -51, 5, 84, 3, 77, -83, 70, -8, -64, 62, 59, -70, -48, -85, 76, -31, -64, 32, -45, 80, -45, 67, -39, 16, -50, -47, 14, -56, 16, -22, -85, 4, 17, -44, 22, 81, -39, 70, 83, -59, 8, -76, 47, -52, 79, -8, 50, 44, 78, 59, 46, 47, -56, 58, -68, -50, -31, -33, 29, 34, -7, 73, -33, -75, -77, 55, 18, 41, 67, 58, 4, 34, 33, 15, 80, 24, -34, -77, -37, -15, -10, 17, -38, 8, -76, 84, -59, -50, 71, -61, 38, 13, -58, -81, -34, -41, -23, 57, 65, 65, -20, 4, 41, 45, -31, -21, 13, -3, -57, 41, -29, -45, 30, -39, -18, 69, -9, 56, 79, 40, -81, -51, 63, -38, 12, -45, 84, 31, 44, -35, -2, -83, 59, 57, -74, -37, 56, 29, 48, 14, -56, -2, -38, -79, -5, 3, -38, 62, -49, -39, -65, -30, -7, 20, 84, -52, -79, -19, 5, 62, -23, -82, 67, -84, 67, -6, -9, 22, -78, 61, 1, -25, 84, -82, -72, 73, 19, -39, 52, 56, -46, 2, -9, -44, 50, 80, 40, -30, -70, 72, 23, -62, -52, -24, 30, 68, -30, 34, 25, -82, 17, 79, 56, 14, 67, 38, -16, 34, -15, -23, 10, 46, -2, -25, -72, -27, 49, 61, 62, -16, 77, 77, 63, -22, 32, -64, 18, -61, 72, 77, -12, 28, -8, -5, 60, -1, 25, 0, -51, -3, 60, -65, -59, 36, -51, -49, -28, 74, 10, -39, -6, -52, -16, 42, -52, 64, -37, 70, -74, 66, 26, -44, 8, -32, -20, -71, -54, 49, 63, -46, 28, 55, 84, -70, 7, 8, 77, -34, 25, -72, 7, -23, 72, 42, -78, 38, 33, 42, 54, 9, 63, -30, -74, 68, -42, -80, -64, -65, 0, 9, -48, 52, -42, 48, -22, 54, 67, 76, 63, -3, -61, 4, -14, -65, -53, -78, 54, -74, -14, -1, 58, -71, -41, 34, -17, -52, 29, 67, -8, 3, 12, -49, 37, -49, -78, -60, 42, -84, -10, -33, -71, -15, 33, -39, -42, 84, 13, -67, 11, -12, 74, -64, 30, 19, -35, 7, -83, 45, -13, 52, -5, -56, 29, -13, 57, 72, 83, 2, 34, 77, 78, 15, 13, 48, 10, 19, -1, 24, 21, 16, -61, -59, -5, -72, 44, 2, 29, 18, 1, 69, -33, -72, 28, 40, 19, 25, 68, -21, 31, -68, 84, -54, 60, -24, -6, 24, -7, 57, 48, 70, -14, -70, 59, 64, 67, -38, 17, -46, 12, -5, 79, 5, 10, 26, 51, 50, -16, -32, 29, 36, -65, -28, -24, 40, 57, 23, -62, 23, -4, 38, -2, 56, 65, 41, -66, -45, -16, 19, -34, -11, -25, 32, 25, -20, 20, 9, 54, -83, -37, -15, -38, 24, -13, -69, 36, -4, -6, -23, 55, -74, 73, -64, -14, 85, 29, 81, 54, 29, 4, -57, 16, 51, -47, -63, -8, -66, -58, -44, -48, -36, -19, -39, 3, -39, -5, -55, -19, -34, -44, 11, -45, -84, 62, 36, -51, 24, 82, 49, 37, 23, -72, -73, 58, -77, -44, 69, 75, 70, 51, 79, 48, 76, -16, -57, -30, -41, 37, 25, -49, 81, -19, -33, -73, 72, -70, 25, -3, -33, -69, 6, -63, 12, -52, -40, -13, 63, 53, -7, -73, -55, 76, -4, -80, -5, 74, -64, -24, 44, 41, 47, 29, -74, 53, 21, 55, -38, 22, -83, 66, -39, 16, 34, 56, 22, 32, 25, 35, -10, -31, -82, -65, 71, -16, -8, -18, 46, 17, -38, -45, 84, 31, 27, -77, -53, 26, -37, -28, 71, 51, 12, -3, 26, -27, -76, 21, 43, -13, 54, 70, -85, -40, -36, 82, 44, 82, 26, -9, -12, 79, -51, 21, 7, 66, 71, 72, -66, 17, 85, 60, -31, 59, -7, 6, 53, 10, -45, -43, -34, 27, 26, -22, 16, 53, 54, -10, -79, -21, 44, 13, -73, 11, -1, 22, -51, 73, -72, -1, 81, 44, 28, -49, -34, 48, -72, -18, 49, 67, 29, -71, 21, 67, 56, -38, 57, 11, -41, -19, -13, 2, 44, 55, 42, -29, -67, 0, -69, 25, -51, 22, -38, -44, 17, -14, 69, 7, 57, 78, 71, 80, -23, -71, 2, 0, -38, -68, -66, 30, 69, -22, -7, 46, 51, -9, 78, 79, -5, 42, -77, -72, -13, 46, 79, -16, 30, -52, -60, -21, -23, -66, -14, -19, -23, -17, -80, 34, 47, -30, 38, -30, 20, -80, -74, -54, -12, -1, 80, -70, -12, -75, -58, 33, -55, 35, -79, -24, -20, 9, -22, 17, -63, -44, 33, 77, -14, -50, 58, -3, -35, -14, 48, -52, 36, -42, -15, 42, 33, 73, 65, 11, 78, 79, -48, 23, 10, -38, -66, -66, -7, 68, 74, 13, 67, 51, -53, -38, -12, -71, 19, 53, -45, 40, -38, 81, 33, -25, 33, -27, 17, -67, 45, 36, -57, 72, 77, 56, -70, -78, -28, 21, -56, -57, -42, -16, -5, -9, 40, -29, -81, -50, -47, 49, 25, -39, -11, 56, -32, -78, 34, 82, -17, 59, -43, -75, -73, -75, 55, 50, -2, -37, -7, -76, -35, -83, -32, 31, -45, 41, -24, 1, -48, -19, -82, -36, 16, 53, 60, 30, -85, -66, -56, 83, 68, 8, 49, -54, -63, 63, -12, -73, -56, -4, 61, -65, 1, 59, 28, -16, -50, -60, 16, 52, -22, 4, 8, -30, 20, -45, -13, 62, -14, 47, -78, 67, 63, -8, -5, -61, 40, -49, 7, 68, 32, 5, -26, -31, 78, -34, -21, 30, -40, 63, 15, -10, 15, 12, 76, 4, -73, 73, 4, 70, -40, 61, -9, 6, -26, 3, 50, 76, 48, 9, -82, -23, -16, 27, 11, -57, 71, 4, -24, -11, -50, 54, 60, -9, 61, -17, 55, -67, -47, 1, 67, -18, -25, -19, 0, 21, -11, -37, 53, 36, 44, -7, -37, -17, -34, -55, 58, -61, 24, 55, -46, -24, 19, -85, -7, -55, -75, 58, -64, 70, -25, -53, 74, 62, -6, 13, -42, -65, -43, -39, 50, -30, 7, 34, -49, 2, 3, -46, -70, 79, -5, 63, -4, 27, 45, 63, -48, -31, 78, 45, -13, -5, -70, -66, 44, 67, -17, -47, -41, 26, -39, -83, 59, -58, -36, -46, 25, -21, -73, -1, 34, 45, -70, 35, -69, 11, 79, 5, -61, 59, 19, 28, 8, -66, 79, -66, 18, 77, -51, 79, -85, -47, 47, 76, -77, 21, -61, -2, -37, 3, -20, -46, -83, 61, 40, 65, -84, 69, -52, 40, -23, -51, 21, -47, -5, -41, -30, 84, 3, -15, 26, 23, 14, -66, 29, -2, 26, -77, -33, 76, -38, 7, 75, -17, 15, 63, -74, 22, 54, -56, -58, 82, -64, -83, -44, -51, 80, -54, 80, 22, 21, -9, 49, -69, -77, 34, 68, -82, -73, 63, 55, -61, -64, 39, -60, 60, 70, 24, -57, -59, 74, 63, 32, 83, -54, 9, 68, 75, 13, -22, -14, -37, -35, -83, -80, -46, -7, -55, 50, -51, 34, 75, -80, -77, -48, -68, 74, 22, 60, -40, 33, -41, 58, 59, -26, 67, -28, -39, 81, 12, 82, 80, 21, 66, 34, 23, -54, 26, -23, -60, 53, 75, 65, -80, -57, 83, 67, 22, -33, -55, -60, 73, 60, 73, -16, 8, -54, 30, -15, 14, 84, 56, 7, 12, -53, -85, -61, -19, -18, 71, -80, -14, -80, -54, -72, -74, -9, -42, -19, -71, -51, 26, -30, 47, -14, 20, -41, 27, 24, -32, -30, -82, 35, 76, 58, -83, -46, -68, -16, 54, -9, 11, 85, -43, -35, 58, -14, -55, -72, 41, -2, -47, 83, -69, -84, -67, 61, -30, -82, -17, 68, -21, -42, -11, -76, -83, -78, -83, -80, -83, -12, 10, -5, -69, -1, -73, -34, -53, -78, -82, 68, -19, -1, 7, -74, -28, 0, -56, -1, 2, -61, 64, -39, 22, 8, -84, -39, 25, 14, -29, 63, 67, -81, -19, -63, 71, -12, -27, 55, -14, -51, 21, 66, -60, -37, 31, -64, -38, -73, -32, -15, 34, -25, 30, 14, 11, 38, 73, 65, -68, -64, 29, -63, -80, -67, 70, 26, -14, -66, 59, -34, 58, 71, -52, -72, 21, 42, -65, 50, 2, -4, 1, -64, -54, -40, 4, -66, 82, -62, 9, 13, -44, 66, -15, -15, 36, -24, -7, 31, 77, -19, -78, -1, -44, -16, 33, -38, -25, -15, 84, 67, -44, 61, -33, 45, 28, -8, -76, 4, -53, -74, -8, -6, -38, 47, 35, -63, -18, -23, 15, -37, -1, 55, 3, -19, -58, 65, 46, 30, 47, -28, 73, -78, -84, 66, 20, 25, 44, -80, 57, -52, -8, -41, 83, 16, 68, -4, 42, 83, 80, 10, 0, -60, 48, -49, -16, -11, -45, -8, -1, -3, 49, 60, 84, -60, -17, 85, -18, 61, 52, -27, 78, 85, -2, -21, 71, 21, 33, -20, -9, 15, 75, 83, 70, -82, -37, 17, -16, 33, -52, 28, -25, 0, 1, 44, -32, 49, 74, -85, 75, 84, -27, 35, 6, 21, 6, 69, 48, 39, 66, 81, -15, 62, -49, 21, -48, 49, 19, -7, 76, -31, -82, -77, -67, 33, -67, 0, 2, 34, 28, 31, 51, 74, -32, -53, -30, -1, 8, 51, 35, -49, -79, -83, -62, 4, 2, 0, -12, 9, 37, -2, 48, 20, 14, -1, -42, -18, 4, -81, 71, -13, -1, 55, -2, 30, 71, -17, 53, -8, -79, 28, -36, 37, -9, -36, 63, -77, -72, 15, -84, 5, -13, -46, -33, 10, 49, -56, 37, 79, 43, 71, 33, 78, -67, -33, -25, -66, 40, -63, 61, 30, -17, 21, 28, 61, -71, 47, -56, -20, 6, -21, -6, 26, -3, -43, 55, -40, 57, 57, 20, 32, -36, 56, -23, 67, -60, -50, 57, 75, 73, -32, 72, 56, -2, 81, 18, 27, 4, 12, 15, 57, 73, -80, 57, -19, 74, -3, 75, -9, 19, -30, -28, -55, -6, -33, 29, 53, -35, -38, 82, -19, -14, 81, -26, 71, 6, 21, -45, 39, 25, -24, -64, -28, 5, -12, 83, 52, -78, 56, 29, -54, -43, -79, 62, 71, 51}

#define GROUP_CONV2D_KERNEL_0_SHIFT (10)

#define GROUP_CONV2D_BIAS_0 {76, -61, -30, 47, 7, 42, 66, -20, 91, -29, 50, 33, 12, -40, -62, -43, -7, -7, 108, -74, 45, 27, 67, -50, 85, 80, 21, 108, -41, 59, 30, 83, -91, -28, -45, 7, 110, 0, -32, -52, -72, 5, 41, 105, 82, 18, -17, -18, 99, -59, 90, -32, 61, -83, -71, 86, -29, -62, 75, -37, 94, -106, -102, 57}

#define GROUP_CONV2D_BIAS_0_SHIFT (9)


/* output enconding for each layer */
#define INPUT_1_OUTPUT_SHIFT 7
#define GROUP_CONV2D_OUTPUT_SHIFT 5

/* bias shift and output shift for each layer */
#define GROUP_CONV2D_OUTPUT_RSHIFT (INPUT_1_OUTPUT_SHIFT+GROUP_CONV2D_KERNEL_0_SHIFT-GROUP_CONV2D_OUTPUT_SHIFT)
#define GROUP_CONV2D_BIAS_LSHIFT   (INPUT_1_OUTPUT_SHIFT+GROUP_CONV2D_KERNEL_0_SHIFT-GROUP_CONV2D_BIAS_0_SHIFT)
#if GROUP_CONV2D_OUTPUT_RSHIFT < 0
#error GROUP_CONV2D_OUTPUT_RSHIFT must be bigger than 0
#endif
#if GROUP_CONV2D_BIAS_LSHIFT < 0
#error GROUP_CONV2D_BIAS_LSHIFT must be bigger than 0
#endif

/* weights for each layer */
static const int8_t group_conv2d_weights[] = GROUP_CONV2D_KERNEL_0;
static const nnom_weight_t group_conv2d_w = { (const void*)group_conv2d_weights, GROUP_CONV2D_OUTPUT_RSHIFT};
static const int8_t group_conv2d_bias[] = GROUP_CONV2D_BIAS_0;
static const nnom_bias_t group_conv2d_b = { (const void*)group_conv2d_bias, GROUP_CONV2D_BIAS_LSHIFT};

/* nnom model */
static int8_t nnom_input_data[12800];
static int8_t nnom_output_data[6400];
static nnom_model_t* nnom_model_create(void)
{
	static nnom_model_t model;
	nnom_layer_t* layer[3];

	new_model(&model);

	layer[0] = Input(shape(10, 10, 128), nnom_input_data);
	layer[1] = model.hook(GroupConv2D(64, 4, kernel(3, 3), stride(1, 1), dilation(1, 1), PADDING_SAME, &group_conv2d_w, &group_conv2d_b), layer[0]);
	layer[2] = model.hook(Output(shape(10, 10, 64), nnom_output_data), layer[1]);
	model_compile(&model, layer[0], layer[2]);
	return &model;
}
