#include "nnom.h"

#define CONV2D_KERNEL_0 {-12, 29, 1, -59, -88, -13, 40, 8, -20, 25, -74, 8, -54, -2, -38, -57, 22, -30, -74, -53, 56, 5, -39, 3, -41, 5, 53, -63, -68, -20, 89, 29, 40, -1, 10, -76, 6, 38, 41, 13, -11, -7, -52, -31, 36, 22, 29, -56, 47, -55, -57, 22, -78, 46, 43, -84, -33, -66, -14, -20, -68, -78, 81, 8, -30, -86, 47, 52, -25, -43, 75, -13, 31, -86, 73, 15, 86, 53, 56, -29, -1, -54, 52, 21, 30, -33, 54, -58, 27, 50, -75, 71, -49, 68, 19, -14, -68, -80, 51, 22, 34, -28, 38, -18, -51, 63, -34, -77, 44, 65, 41, -3, 83, 80, 54, 76, 1, -10, -14, 21, 5, 14, -48, 39, -19, -79, 78, 19, 15, -7, -85, 28, 67, 55, 12, -31, -7, -61, -45, -39, -86, 26, 43, -27, -8, -9, -27, 30, 14, 79, -42, -79, 87, -67, 13, 66, 13, 28, 35, 50, 7, 78, 67, 39, 75, -15, -15, 56, 32, -37, 53, -39, -54, 83, -34, 17, 24, 69, 44, 40, -26, -5, 29, -1, 87, -8, -61, -88, -60, -4, -70, 32, 58, -47, 20, -29, -35, 80, 46, 81, -36, 7, -11, -70, -32, 53, 29, -1, 51, -5, -68, 54, 52, -17, 51, 20, -88, -39, -68, -58, -52, -25, 49, -6, 18, -24, 28, 18, 3, -1, 75, -52, -80, 83, -47, 12, -40, -65, 32, -2, 67, 38, -4, 35, -21, 64, -1, 6, 34, 47, -13, -10, -32, 7, -16, 77, 76, 60, -26, 32, -11, 35, -4, 74, -2, -52, 15, 10, -23, 35, 58, -5, 15, 50, 53, -22, 63, 60, 67, -51, 39, -62, 31, -40, 79, 27, 36, -67, -54, -83, -59, -2, -13, 89, 7, -71, -32, -56, -42, 79, 81, 15, -87, -31, 44, -7, -87, 72, 0, 45, -56, 20, -9, -28, -45, 44, -85, 18, 50, 86, -9, -35, 1, 52, 7, -83, -45, -55, -43, -23, -67, 28, -24, -80, -72, 72, -14, 72, -64, 8, 48, -88, -84, -65, -58, 54, -75, 11, -64, 82, -62, -57, 85, -28, -5, 88, 78, 50, 48, 14, -33, -47, 75, 4, 68, -59, -39, 71, -25, -86, 49, 73, 29, 73, 21, -30, 17, 50, -42, -43, 51, 72, 80, 2, 15, -3, 80, 39, 61, 22, -4, -21, 19, -36, 33, -71, 83, 79, -74, 1, 45, 28, -61, -88, 65, 73, -26, 81, -41, -3, -12, -10, -64, 70, -88, 2, 37, -78, -2, -36, -49, -8, -73, 3, -19, -29, 69, 57, -59, -48, -82, 35, -17, 44, 64, 38, 49, 56, -82, -60, -8, 67, 30, 59, 23, -18, 34, -30, -25, -34, 23, 5, 73, -44, -33, -45, 0, -31, 73, 39, -33, 32, -60, -77, 4, -71, -50, -35, 77, 66, 55, 70, -37, -40, 68, -43, 66, -20, -34, 12, -6, 2, 23, -70, 7, -19, -72, 45, -59, 11, -61, -8, -37, 19, -8, -56, -25, 25, -5, 16, -10, 33, 55, 20, -66, 24, 13, 56, 24, 6, -85, -25, -13, 87, -46, -26, 1, -88, -38, 30, 23, 61, 32, 40, -24, -14, 14, 54, -50, -20, -77, 14, -62, 13, -7, 6, -41, -38, 14, 77, 1, 36, -40, -70, -40, -68, -77, 80, 61, 59, 50, 37, -63, -42, -29, 8, 30, 40, 16, 52, 49, 30, 61, 12, -81, -17, 20, -8, -64, 41, -31, 16, 74, -47, -30, -87, 80, -10, 53, -69, 48, 36, -48, -45, 74, 84, 8, -63, -61, -78, 64, 33, -39, -47, 60, -88, -56, -19, -29, -55, -22, -47, 10, 51, -75, 55, 6, -33, -19, -56, 46, -48, 16, 59, 50, 26, -15, 20, -4, -31, 74, 8, 61, 2, 85, -70, 25, -17, 7, 17, 88, -50, -32, 5, 33, 56, -16, -76, -21, -35, -86, -16, -58, -12, 15, -52, 34, -67, -15, 74, 27, 43, 7, 62, 55, -82, 24, 85, -56, -56, 82, 51, 85, -27, -56, -72, 64, 7, 64, -16, 74, -53, 6, -85, 72, 24, 74, 2, -27, 55, 26, -35, -38, -46, -43, -37, 59, 68, -85, -89, 4, 33, -23, 33, 78, -3, 35, -9, 43, 79, -72, 28, 72, -23, 68, 63, 62, -86, 21, 66, -44, -56, 35, 26, 70, 17, 25, -53, -74, 69, 80, 56, -80, -84, 18, -72, -78, 55, 41, 35, 72, -75, -33, -9, -42, -52, 3, 86, -72, -57, 3, 63, 64, 8, 26, 60, 29, 22, -63, -25, 53, 30, 51, 25, 29, 57, -67, -8, -65, -48, -62, 36, 80, -51, 3, -63, 48, -45, -32, 11, 49, -74, 16, -48, -81, 8, 8, 49, -13, 37, 24, 45, -3, 40, -23, -23, 35, 39, 62, 36, 84, 12, -6, 41, 61, -63, 88, -3, -61, 86, -50, -87, -36, -60, -44, 39, 2, 89, -46, -32, -9, -73, -19, -24, -75, -11, 66, -87, 10, -22, -56, -27, 8, -77, 68, -26, 21, -61, 80, -38, 5, -28, 69, -14, -21, 74, -61, 70, 66, -73, 6, -15, -83, -83, 30, 13, 4, 50, 80, -20, 77, 35, -45, -42, 86, -29, -72, 77, -60, -39, -42, -47, 78, 29, -31, -82, -20, -41, 30, -8, -71, -25, 38, -17, 35, -53, -25, 73, -65, -25, -84, -53, -61, 64, -9, 62, -77, 22, 59, -29, 33, -54, 51, 52, 55, -6, 55, 71, -43, -37, 27, -75, -42, -35, -69, -60, -30, -12, -19, -45, -18, -46, -62, -87, -56, 70, 51, 52, -50, -74, 48, 38, 11, 11, -57, 85, -9, 9, -54, 35, 77, -18, 2, -25, -52, 56, -27, 61, 48, 41, 31, -14, -40, -7, 72, -67, -76, 47, -82, -52, 78, -71, 74, 82, 78, 52, -24, 26, 71, 53, -51, -18, -17, -59, 88, -85, 86, 60, -73, -66, 19, 8, 9, 88, -47, 77, 61, -62, -25, -5, 45, 7, -8, 66, -62, -64, 10, -60, -55, 14, 4, 10, -13, 79, 7, 86, -19, 11, -50, 40, 32, 71, 17, -72, -12, -61, 67, -28, 56, 59, -86, 59, 22, -42, 10, 60, -41, -59, 37, -88, -9, 14, -53, -67, -69, 60, 15, 30, 61, 50, 79, 31, 30, 23, -47, -41, 67, 44, -2, 48, 81, 70, -61, -23, 80, -2, -11, 10, -14, 46, -30, 79, -37, 27, 14, -18, -56, -33, 42, 77, 68, -39, 74, -88, -3, -34, 13, -64, -25, -6, -41, -60, 61, -83, -24, -56, -70, -28, -32, -10, -79, -79, 86, -50, -50, 18, 34, 36, -6, -6, -50, 36, -37, 67, -84, -86, -51, 19, 26, 76, -24, -72, -14, -27, 69, -84, 88, -14, -61, -18, -50, -73, -43, -18, -5, -25, 5, -30, 82, 52, -27, -58, 60, -46, 74, -74, 52, -53, -3, 2, 62, -9, -54, 86, 54, 31, 22, 17, 50, -70, 78, -86, -84, -36, 5, 26, 82, -43, -68, -74, 36, -73, 49, 5, 76, 74, -8, 48, 88, -62, 57, -61, -58, -21, -67, -79, -69, -62, -36, -39, 47, -2, -51, 71, -24, -45, -85, 88, -24, 65, 56, -80, 49, 33, -60, -45, -77, -28, 66, 3, -55, -7, -88, -21, -14, -88, -77, -26, -39, 62, -60, -84, 8, 5, -30, 21, -12, 27, 56, -68, -74, -48, 50, -41, 19, 3, -5, -34, 7, -88, -31, 1, 87, 79, -7, -56, -51, 76, 20, -48, 72, -68, -47, -81, 74, -14, 21, -70, 75, 79, -64, -13, -29, -25, 32, -68, 43, 76, 13, 56, 43, 55, 47, -64, -53, 67, 54, 49, 45, -64, -24, -75, 59, -88, 24, -68, -76, -37, -65, -64, -5, 10, -70, -82, 54, -77, 31, -53, -86, 64, -77, -18, 23, -53, 14, -2, -77, 45, -29, -11, 19, 40, 10, -56, -38, 76, -57, -4, 36, 45, 45, 86, -35, 1, 10, -38, 73, 72, -57, -38, -3, 10, 32, 81, -16, 21, 3, -21, -21, 70, -36, 19, -22, 2, 83, -62, 74, -8, 24, -27, -62, 30, 31, 1, 56, -71, 28, 73, -63, 66, -12, -53, 81, -85, -62, -2, 11, 78, -31, -65, 85, 64, 37, -43, -30, 38, 11, -23, 47, -50, 42, 15, 49, 14, -73, 20, -9, 38, 50, 51, -72, -82, -44, -81, -43, 54, -45, -74, 40, 55, 86, -64, -45, -55, -38, -25, 83, 54, 56, -15, 69, -63, 21, 85, 51, -20, 56, 11, 2, -43, 76, 71, 19, 37, 7, -50, -26, 74, 1, -48, -81, 19, 86, -60, -16, 62, -28, -36, -51, 67, 82, -45, 52, 49, 36, 76, -66, 65, 20, -54, -5, -59, 11, 24, -13, 7, -8, 31, -8, 23, 84, 46, -62, 74, 68, -17, 69, -46, -7, -31, -75, -76, 5, 53, -56, -3, 45, 32, -40, -56, 54, -70, 64, 19, -78, -83, 22, 42, -22, 41, -47, -76, 9, 72, -55, 43, 65, -53, 45, -49, 45, 62, -21, -40, 84, -59, -72, 68, -50, -67, 69, -78, -82, -30, -57, 17, -77, -22, -25, -24, 51, 43, 2, 67, -87, -60, -62, -28, 58, 33, -4, -79, 29, 41, -7, -64, -41, -48, -84, -60, -4, -48, -85, -36, 6, 65, -41, 34, -37, 37, 1, 40, 20, -18, -61, -45, -10, 70, 7, -87, 47, 0, -31, -85, 73, -59, 62, -54, 58, -8, -27, 6, 55, -49, -5, 21, -79, -78, -33, -27, 87, -6, -11, -80, 57, 86, -6, 6, 75, 81, -25, -26, -6, -73, -3, -80, -28, 33, 44, 31, 22, -54, -64, 83, 72, -29, 88, -56, 42, -73, -26, -52, 43, 3, -37, -33, -84, -3, 47, 57, 9, 88, -27, -45, 78, 59, 12, -53, -32, -75, 63, -87, 26, 9, -53, -78, -18, -15, -2, 51, 18, 63, -51, 30, -21, 42, -26, 9, 5, -3, -26, -48, -31, -49, -13, -9, -7, 49, -13, -74, -28, 2, -55, 53, -72, -8, -55, 85, 15, -11, 66, 85, 72, 71, -77, 5, -37, 23, 55, -85, -80, 40, 38, 23, -84, 0, 11, 74, 41, -27, 63, 79, 18, 63, 54, 25, -24, -1, -56, -61, -21, 83, 62, 86, -20, 55, 39, 30, -55, 30, 64, 9, 66, -22, -35, -36, -69, 42, -45, -39, -50, 43, 53, 85, 88, 50, -58, -83, 59, 58, 61, 59, -74, -21, -8, -28, 25, 57, 66, -84, 53, 67, 2, 80, 70, 49, -24, 36, 27, -25, 22, 55, 36, 6, 70, 85, 18, -8, 85, -58, 73, -18, -2, -20, -5, 23, 28, 84, 83, -31, 76, 67, 51, 0, -9, 59, 60, -82, -61, -17, 15, 27, 78, 61, -77, -57, 73, -46, 33, -6, 73, -42, 3, 33, 2, -15, 87, 10, 55, -82, -1, -19, -36, 22, 88, -24, -31, 30, 40, 50, 6, -5, 54, 81, 58, -13, 29, 47, -13, -22, -6, -59, 72, 29, 59, 60, 85, -31, 53, -57, -43, -13, 43, -49, -59, -74, 44, -40, 54, -75, -56, 36, 31, -26, 51, -87, -11, -43, 51, -87, 73, 78, -80, 66, 63, -89, -21, -14, -9, 50, -18, -53, -29, 82, 15, 10, -14, 19, -75, 81, 73, -11, 37, -82, 13, 65, -68, -2, 61, 66, 24, -22, 79, 81, -2, 23, -29, 40, 82, -64, 60, 35, -31, 11, -22, 7, 88, 12, 27, 82, -47, 70, 40, 56, -66, 35, -27, 1, 39, -33, -48, 44, 72, 60, 9, 50, -47, -71, -29, 46, -73, -82, 4, -10, 84, -39, -62, -60, -24, -59, -15, 41, -12, -84, 65, -74, 72, -49, -13, -59, -68, 19, -41, -37, 82, 52, -70, -11, -44, -6, -52, -64, 40, -86, 1, 76, 60, 45, -55, 36, -67, 61, 73, -50, -33, -39, 63, 25, 39, 67, -22, -76, 54, -40, -62, -35, -37, 59, 43, 44, 19, -3, -23, 70, 53, -13, -43, 32, 78, -32, -11, 1, 70, 32, -35, -11, 41, -63, 88, 31, -18, 81, 16, -52, -55, 1, 15, -45, 27, -50, 16, -71, 62, 47, 10, 76, -51, -75, 5, 38, 16, -33, 50, 37, -35, -60, -32, 88, -24, 7, -81, -29, 38, -45, -7, 66, -33, -45, -42, 85, -52, -13, 56, 75, 67, -2, -46, -37, -4, -54, 79, -79, -46, -13, -51, 36, -87, 64, -7, 58, 28, -29, 29, -88, 10, -71, 15, 65, 3, -77, 38, 63, -25, -6, 34, -21, -30, 55, -70, 24, -47, -4, 86, 7, 20, 26, -10, 19, 80, -45, 88, 87, 57, -18, -43, 41, -69, 86, -18, -2, -21, 68, -54, -62, -71, 4, -83, -50, 36, 65, 56, 52, -11, -52, 58, 52, -68, 70, -75, -28, 76, -88, -71, 77, 45, 72, -1, -80, -82, 81, 44, 43, -82, -13, 31, 1, -54, 6, -54, -20, 26, -6, -85, 25, -65, 23, -62, 54, -60, -88, -72, 0, -76, -15, -40, -52, 14, 48, -31, 20, 33, 39, 17, 36, -45, 42, 87, 2, 43, 85, 54, -88, 64, -54, -35, -21, 75, -23, 44, -3, 82, -36, -50, 51, 74, -38, -14, -32, 70, 56, 71, -35, 45, 3, -88, -59, 4, 4, -56, -11, -41, -39, -76, -70, 48, -37, -19, 64, -26, -2, -48, 87, 81, 66, -75, 17, -27, -34, 28, -16, -55, 79, -35, 27, 20, -67, -27, 80, 18, -65, -43, -84, -61, -35, -49, 79, -47, -84, -20, 75, 29, -29, -44, -25, -68, 14, -60, -77, 26, 10, -82, 26, -4, 59, -21, -8, 18, 17, -77, -41, -61, -82, -46, 57, 4, -80, -16, -30, 19, 60, -27, -30, -23, -7, -17, -4, 53, 73, 15, 22, -28, 63, -70, -54, 1, -76, -80, 40, 36, -62, 28, 57, 40, 47, 77, 22, 41, 88, 38, 53, -55, 85, 33, 44, -79, -75, -17, -13, -67, -77, 14, 26, -84, 82, -45, -9, -88, 73, -3, 49, -8, 52, -49, -63, -65, 38, -66, 55, -9, -63, -38, -13, 74, -41, 67, -85, 3, 59, 37, 77, 17, -42, 68, -19, -11, 75, -85, 84, -60, 12, 10, 12, -51, -6, -56, -67, -31, -77, 72, -29, -29, -45, -1, -20, -45, 51, 8, 88, 23, -70, 67, 15, -65, -84, 0, 70, -47, 8, -33, 35, -82, 16, 10, -47, -69, 61, -2, 59, -84, 25, 81, -59, 70, -32, -33, 18, -71, -19, 1, -72, -59, 26, -21, 0, -53, 63, 26, -43, 13, -46, 52, 86, 20, -67, -48, 8, -74, 77, -86, -30, 68, 4, -44, 27, -23, -56, 45, -11, 82, 64, -14, 48, 27, -37, 21, -11, 58, 40, 77, -52, -7, 2, 74, 46, -31, 84, -51, 7, 49, 39, -12, -15, -82, -45, 61, 62, -13, -29, 87, -79, -56, 23, -50, 56, -24, -63, -24, -36, 39, -48, -12, -81, 10, -76, -8, -64, 22, 86, 14, -70, 70, -26, 1, 28, -6, 73, -68, -3, 38, 13, -42, 60, -65, 50, -12, -68, 68, 51, -41, 54, -54, -77, -63, -78, 21, -58, -8, -24, 78, 23, 58, 23, -27, -45, -77, 57, 24, 59, -29, 32, 69, 13, 0, -2, -52, 19, 2, -47, 84, 48, 79, -10, 71, -72, 61, -43, -58, 7, 44, -1, 30, 49, -35, 22, 64, 36, 15, -76, -73, 31, 42, 29, 38, -81, -49, 40, -24, -28, -46, 0, 72, -48, -8, 14, 15, 78, -49, -58, -14, -85, -14, -77, -83, -46, 56, -16, 17, 75, -53, 21, -68, -89, 66, 53, 68, 15, -29, 8, -19, -33, 44, 62, -58, -47, -73, 56, 29, 86, -11, 82, -77, 8, -31, -5, -13, 71, -9, -52, 1, -14, -50, -50, -6, 67, 77, -41, 68, 63, 30, -12, -49, -71, 78, -80, -31, 24, 33, 28, 77, 70, 37, 85, -3, -67, -1, -74, -45, 48, 49, 56, -37, 77, 67, 31, 33, -67, -3, -80, 34, -21, 22, -42, 47, 46, -16, -62, 82, -37, 87, -6, -88, -14, 48, 22, -10, -24, -60, -15, 35, -5, 85, -69, -53, -79, -87, 1, 43, -36, 33, 3, -55, -12, -37, -19, 56, 28, -41, -29, 26, -31, 22, -62, -75, 39, -44, 2, -12, 43, -30, -36, -11, -44, 57, 67, -82, 55, -85, 35, 59, 76, 68, 44, 31, -5, 78, 29, -62, -82, 21, -56, 86, -20, -86, 2, -40, -26, -4, 48, 13, -22, -75, -53, 60, -17, -51, 85, 84, -41, 11, -67, -26, 40, -15, 88, 35, -83, 30, -63, 69, -30, 67, -27, -14, 50, 85, 29, -30, -4, -56, 27, 46, -51, 29, 69, 64, -38, 81, -38, 53, -2, -24, 9, -49, -62, -33, 61, 81, -40, 80, -48, -78, -64, 68, -67, -7, 52, 31, -3, 43, -33, 28, -21, -26, -58, 32, -79, 53, -80, 68, 14, 86, -57, -25, 63, -48, 7, 12, -13, 81, -12, -6, 14, 67, -86, -12, 15, 30, 48, -59, -71, -88, -78, -20, 5, 11, 67, -29, -70, -88, 72, 44, 56, -27, -9, -11, 15, -37, -58, 68, -6, 51, 7, 63, 43, -6, 4, -45, -7, -21, -10, -3, -54, 42, 63, -49, 41, -59, -10, -64, 10, -35, -55, -62, -76, -32, -80, 68, -36, 33, -70, 25, 9, 62, -50, 2, -14, -60, 46, -27, 46, -85, -34, -4, -65, 16, 35, 67, -15, 14, 46, 25, -2, 16, -78, 24, 7, -38, 49, -5, 1, -69, -3, -85, 4, 12, 53, 56, 3, -77, -32, -52, -47, 50, 25, 1, -14, -45, -5, -61, -55, -19, 2, -7, -41, 43, -47, -42, -2, 84, 12, -40, -44, 14, 53, -89, -80, -32, 79, -56, 50, -75, 24, -65, -55, -68, -77, -43, -42, -50, -82, 24, 80, 10, 39, 36, 83, 24, 0, -7, 79, 22, 7, 65, -33, 2, -85, 16, -16, -3, 54, 26, 21, 73, -82, -88, 71, 26, -24, -58, -30, -19, -17, -45, 63, 18, -3, -80, -12, -38, -21, 27, 31, -18, -55, 51, -48, -9, 1, 85, -56, 23, 19, 21, 86, -59, -64, -14, -48, -58, -21, 81, 27, -43, 47, -12, -11, 59, 77, 65, -69, -17, -22, 88, -44, -58, 34, -51, -60, 25, -83, -57, -54, -10, -59, -16, -80, 9, -13, -60, 87, 40, 27, 1, -41, -3, -50, 35, -78, 72, -25, 80, -61, 87, 51, 8, 88, 82, 79, 55, 82, -30, -19, 73, -44, 75, -51, -39, -53, -70, -22, -74, 58, -20, 84, -67, 56, 79, 9, 11, 5, 1, 77, -22, -19, -4, -7, -74, -43, -61, 10, 83, 53, 80, 14, 22, -36, -5, 36, 84, -49, -75, 38, -29, -48, 88, 60, 52, 2, -13, -4, -63, -82, -50, 77, 67, -86, 50, 14, 38, -17, 82, 66, -74, 39, -48, -46, 0, 72, 16, -67, -79, -54, -68, -62, 24, -77, 15, -70, 42, -29, 66, 61, 27, 13, 56, -18, 43, -61, 27, 27, 29, -82, -52, -31, -15, -68, -25, 9, -42, 26, -32, 72, 73, 29, 79, 52, -4, -54, -28, -14, -54, -50, 29, 87, -47, -28, 77, 50, -5, -38, -21, -35, -6, 62, -67, 32, 29, 84, 43, -49, -40, 11, 70, -35, -44, 26, -57, -45, 49, -66, 70, 52, 32, 24, 33, -74, -64, -72, 39, 44, -45, -20, 83, 70, -8, 13, 45, 47, 58, -85, -1, 84, -66, 36, 34, 21, -69, 50, -45, 17, -64, 70, 58, 21, -51, 30, -38, -40, -35, 63, -57, -27, 37, 38, 20, 21, -32, 42, 6, 41, -87, -78, -14, -49, 86, 29, -62, -35, -20, 78, -21, -65, 15, 63, 64, 45, -56, -39, -51, -59, -24, 83, -34, 70, -45, 88, -20, 69, 1, -70, 85, -22, -14, -48, -49, 35, 61, -58, 21, 22, -59, -56, 22, 38, -76, 3, -68, 74, -35, 79, 69, -7, -31, -37, -41, -27, 68, -13, 72, -87, 77, 88, 50, 47, -79, 14, -62, 36, -41, -80, -7, 83, -61, -44, 46, 62, 40, 80, 9, -43, 50, 80, -18, -33, -42, -76, 56, 67, -7, -86, -86, 21, 51, -32, 15, -71, 8, -25, -59, -24, -83, -19, -47, 48, 58, 12, 26, -51, -46, -70, 68, -6, -27, -34, -10, 2, -2, -16, 45, -79, 37, 43, 23, -27, 80, 51, 22, 74, -73, 44, 74, -28, 70, 18, -23, -28, -26, -59, 4, -64, -39, 39, 2, -6, 8, 67, 0, 1, 12, -5, 16, -83, -26, 44, 52, -32, -47, 46, -6, 88, -38, 66, -15, 56, -27, -14, -22, 3, -70, 85, -64, -65, -58, -81, 46, 50, 86, -42, 59, 88, 87, 4, -81, 84, 31, -41, -37, -12, 69, 71, 22, -55, -40, 19, -4, -4, 58, -83, -24, -71, 0, -27, -82, 18, 26, 60, 24, 52, -20, 65, -42, 75, 36, 52, 82, 55, -49, 32, 48, 72, 40, 44, -85, 47, 35, 38, 41, -35, -61, 5, -73, 82, 81, 76, 62, 74, 8, 47, 8, -11, 31, -18, -46, 1, -19, 86, 29, 3, 78, 57, -23, 55, 66, 41, 49, 49, -50, 11, -36, -87, -11, -73, 72, -63, -54, 73, 86, 27, -43, 81, -32, 31, 19, -4, 65, 47, -51, 84, 67, -4, 42, -83, 69, -39, 78, -82, -39, 29, 37, 6, 86, 42, 63, 56, 82, -15, 71, -9, -67, 25, 81, 56, 24, 30, -8, -19, -67, 74, 31, -42, -36, -13, 71, -66, 8, -34, 66, -48, 35, -38, 35, -68, 20, -38, -45, 52, -5, -68, -73, -7, 72, -35, 41, 39, -76, 77, -60, 11, 43, 36, -53, 13, -52, 62, 81, 75, -1, 69, 65, -80, -53, -38, -49, 17, -14, -86, -62, 56, 87, -20, 71, -33, 79, -43, 23, -6, -74, 88, 44, 69, -53, 8, -88, -51, 63, 84, -41, -10, 53, -3, 0, -81, -17, 8, -69, -18, 13, -17, 17, -15, -8, 2, -16, -51, 38, -75, 18, 42, 25, 87, 33, -25, 2, -14, 27, -78, 15, -54, -73, -79, -89, -52, 83, -84, 72, -67, 24, 80, 63, -16, -58, 15, -33, 80, -43, -49, -88, 61, 63, -84, -67, -31, -20, 59, 19, -80, 32, 68, -88, -34, -19, -53, 69, 17, 20, -67, 85, 56, 83, 62, -69, -19, -36, -39, -28, -15, 11, -77, -52, -12, 40, 24, -2, 73, -65, -60, -5, 67, 2, -38, 63, -21, 49, 88, 53, -85, -66, 66, 8, -22, 20, -31, -18, 34, 21, 68, 47, -65, -42, 45, -88, -1, 69, 3, 70, -18, -14, 35, 21, 55, -66, 80, -67, 73, 15, 1, 39, -84, -53, 82, -45, 56, 77, -52, 36, 82, 9, -47, -78, 70, -24, -53, 4, 9, -13, 62, 59, 43, -50, -56, -73, 63, -55, -28, 29, 60, -28, 70, -88, 46, 0, -38, 56, -53, 6, 10, 37, 0, 75, 48, 26, 36, -38, -24, -7, 61, -54, -71, -56, 36, -13, -72, 81, -17, -75, -19, -41, -54, -63, -62, -35, -57, -9, 57, 16, 65, -87, 9, -15, 80, 60, -25, -80, 66, 27, 13, -88, 66, 38, 83, -68, 53, -11, -83, -21, 72, 9, 31, 35, -48, -9, -50, 77, 21, -34, 49, 88, -23, 27, -24, 64, -58, 67, 66, -39, -71, -65, 44, 24, -40, -48, -55, 85, 36, 6, -7, 28, 66, 3, -79, -87, -58, 22, 23, -88, 37, 42, -77, -58, 55, -28, -31, 32, -9, 43, -36, -32, -77, -75, 54, 34, -70, -72, 18, 31, 6, 22, 25, 6, 18, 46, 20, 70, 67, -80, -6, -19, -4, -56, 71, 19, -46, 66, 40, 11, -61, 81, 13, -61, -8, 59, 11, -3, -76, 71, -67, -22, -9, -37, -70, -29, -7, 2, -27, 63, 33, 44, 78, 52, 20, -17, 14, -16, -46, -23, 61, 67, 49, -84, 75, 81, -37, -65, -75, 20, 86, 75, 88, -50, 3, 56, -88, -3, -81, -35, -30, -15, -38, 42, -77, -53, -24, -15, -26, -59, -20, 79, -43, 57, -38, 52, -27, -41, 10, -66, 73, -1, -52, -82, -65, -47, -29, 47, 4, -44, 64, 83, -56, -80, 65, -88, 49, -77, 55, 3, 46, 44, 56, -26, 39, -32, -41, -20, 72, -32, 27, -64, 6, 61, 41, -60, -58, -70, 81, 30, 48, 57, 82, 35, -66, 6, -1, -12, 68, -10, -76, 55, -10, 10, 19, -14, 45, -65, 71, 69, 59, -26, 22, -51, 23, 63, -28, 67, -64, 26, -2, 62, -42, 80, -36, -6, 31, 39, 79, 62, 65, 51, -9, 50, 37, 30, -64, 85, -33, 62, -59, 13, -55, 84, -38, 61, 46, -71, 45, -32, -36, -8, 44, 85, 39, 19, -4, -85, -81, 75, -10, 63, 5, 16, 67, -87, -51, -36, 58, 45, -49, 61, 60, 50, -47, -65, -12, -14, 37, -13, 59, 43, 51, 78, 22, -35, 0, 43, -22, 71, -42, -87, -64, -4, -24, -68, -6, -55, 1, 16, -28, -7, -11, -81, 13, 70, 70, 6, -62, 71, -44, -68, 31, -81, 52, -15, 13, -31, 34, -43, 19, -8, -83, 57, 23, -87, 86, -24, 81, -26, 67, 58, 53, 17, -15, 61, -25, 5, 17, 56, -85, 42, -64, 80, 18, -20, 20, -79, -47, 9, 47, 40, 33, 8, -80, -27, -27, -61, 32, 20, 30, -2, 85, 38, -37, -58, 82, 50, -66, 35, -14, 29, -3, 85, 1, -53, -14, 83, 70, 74, -26, -24, 40, -88, -9, 55, 85, 47, 15, 17, -38, 70, -15, -84, -84, 61, -5, 67, -16, -21, -31, 30, -75, -57, -3, 50, 45, 60, 66, 49, -31, -48, -60, -1, -79, 44, -58, 85, 65, 3, 27, 79, -62, 32, -76, -24, 48, -37, 71, -67, -80, 14, -11, -37, -45, -8, 68, 58, 89, 7, 44, -34, -47, -16, -56, 81, -52, -88, -39, 86, 86, 55, -83, -17, 25, -77, 73, -13, 59, 67, 19, 30, -66, 65, 58, 5, 53, 58, -36, 27, 81, -34, 40, -35, -18, 70, -44, 8, 3, 4, -70, 9, -42, 4, -47, -14, 36, 0, 65, 31, 45, 19, -38, -2, -40, -70, 36, 35, -34, -51, 3, -50, 14, 32, 51, 76, -88, -1, 14, -46, 80, 43, -60, 82, 60, -28, -33, 55, -87, 2, -26, -1, 26, -48, 55, -87, 39, 30, 35, 53, -3, -10, 84, -35, 10, -48, -17, 15, 18, 45, 36, -14, -15, 85, -80, -64, 2, -83, -24, -74, -63, 40, 55, 73, -8, -78, 14, -7, 86, -11, -78, 67, 77, 80, -48, -58, 20, -65, 88, 6, 14, 33, 27, -61, 19, 57, -15, 35, -48, 47, 38, -24, -44, 72, -86, 65, 34, 22, -63, -18, -35, 51, 79, -40, -34, 55, -7, -72, -81, 5, -34, 61, 49, 52, 14, -66, -23, 35, -30, 13, -86, 41, -31, 68, -75, 75, 64, 60, 21, -33, 77, -74, -40, 10, 37, 3, 40, 36, 62, -72, -53, 70, 80, -11, -58, -73, -58, 0, -9, 45, -48, 52, -13, 54, 44, 79, 68, -53, 8, -45, -48, -80, -11, 55, -1, 29, 88, -32, -86, 66, 62, -78, 37, -19, 22, -28, -10, 26, -5, -70, -18, -4, 79, -15, -25, 40, 9, -55, 38, 17, -11, -14, -53, 61, -20, -36, -9, 42, -35, -28, 86, 14, -71, -1, -71, -34, 18, 27, 48, 41, 48, 26, 39, 61, -7, -2, 79, -81, -88, -58, -31, -39, 70, -88, -84, 19, -63, 64, 81, -71, -85, -14, -63, 71, -35, -23, -20, 87, 6, -57, 54, 39, 6, 75, -14, 6, -67, -8, -70, 26, 34, -3, 54, -66, 40, -4, 48, 84, 65, -16, 6, 3, -24, 56, 44, 50, 73, -29, -5, -33, -8, 58, 75, -10, -63, 32, 56, 10, -25, 8, -22, -72, -48, -14, -60, -84, -61, 15, -5, -70, 79, -81, 77, 32, 52, -4, 26, 76, 1, 29, -2, 80, -13, 31, 71, -30, 74, 86, -21, -24, 24, -39, 56, 33, -86, 78, -23, -53, -78, 64, 53, -46, 37, -56, 52, -71, -85, -84, -16, -9, 66, -58, 6, 55, 84, -65, -79, -22, -77, 54, 4, 69, 11, -24, -48, -18, -72, -86, -64, 46, 2, -10, -14, 2, 80, 3, -75, -66, -42, 87, 25, -21, 28, -3, -19, 88, -74, -4, -55, -27, 86, 28, 31, -10, -50, -15, -28, 1, -3, -66, -32, 83, -35, -86, -48, -47, 87, 1, -37, 32, 61, -8, 23, -26, 62, 21, 24, -48, 86, 7, 14, -63, 72, -19, 11, 13, -13, 9, -17, -49, -13, -42, 41, 26, -60, -53, 19, -81, -58, -36, 64, 81, -65, 23, -77, -72, 73, 36, 44, -65, 77, -63, 55, -38, -74, 62, -19, 13, 56, 42, -79, -5, -51, -72, 16, 58, 43, 73, -84, -1, 51, -13, -72, 62, -41, 30, 44, -83, 62, -2, 69, -48, 8, -59, -28, 3, -68, -31, -70, 47, -51, -11, -35, -68, -23, 69, 77, 67, -64, 58, -82, 35, -34, -29, 16, -22, -57, -59, -2, 23, 70, 56, 74, 33, 82, -37, 41, -22, 52, 82, 20, -64, -5, 51, 46, 76, 76, -6, 19, -45, 76, 70, -43, 56, -50, 37, -88, -53, 4, -60, 84, -34, -26, 24, -43, 51, 86, 70, 44, -43, 45, -33, 60, 76, 48, -23, -35, -83, -51, 82, 68, 88, 36, 79, 64, -32, 67, 23, -35, 81, -17, -82, -12, 24, -23, 14, 15, 80, -36, -48, 46, 13, -29, 85, 57, -55, 69, -57, 79, -85, -25, 32, 26, 40, -54, -85, -80, -63, -87, -60, -13, -58, -62, -58, -86, -79, -17, 11, 51, 76, -87, 30, 88, -73, -6, -89, -15, 71, -70, 36, -40, -72, -26, -70, 73, 24, -11, -14, -43, 33, 66, -78, -47, -13, -73, 0, -28, -84, -24, -31, 36, 2, -1, 55, -19, 62, 2, 33, -44, -23, 83, -9, -32, 69, 64, -10, -24, 83, 34, -56, 26, -11, 9, -40, -7, -1, 46, 50, -3, 43, 35, 30, -76, 56, -80, 16, -19, 66, -62, -11, 37, -15, 37, -12, -56, 48, -50, -83, -55, -5, -25, 7, 74, -6, 9, 16, 35, -84, -49, 12, -2, 27, -12, 26, 68, -46, -11, -62, 77, -85, -61, 80, 6, 45, 5, 24, 26, 11, 33, -61, -13, -62, 25, -60, 56, -10, -28, 38, 87, 3, 4, -29, -50, -64, -18, 51, -3, 7, 7, -76, -35, 46, 0, -75, 54, 0, 43, 85, 59, 87, -53, 28, 77, -33, -61, 29, 74, 28, 62, -30, 14, -9, 6, 49, 22, -59, -79, -16, 56, 10, -60, 27, 6, 67, 64, 54, -60, -86, 76, -58, 67, -71, 52, -49, 36, -33, -56, 54, -38, -6, -4, 20, 54, 11, 84, -74, -73, -57, -9, 19, 14, 5, -16, 50, 28, 28, -59, -61, -7, 17, -34, -86, 37, -33, 37, -67, -31, 1, 34, -9, -52, 83, -74, 61, -70, -58, 59, 75, -10, -24, -31, -79, -20, 57, 10, -75, 9, -81, 17, 27, -13, -77, -10, -24, 81, -71, -78, -86, -4, -3, -14, 52, 73, -84, 61, 26, 58, -16, 28, 57, -3, -19, -49, -68, 60, 63, 31, -67, -49, 10, 16, 45, -23, 20, -35, -34, 76, 12, -69, 7, 83, -78, 26, -22, -8, -86, -27, 37, -42, -57, 59, -13, 12, -4, -71, 26, -37, -23, 78, 43, 77, -58, -15, -88, -85, 85, 46, 35, -15, -59, -87, -70, 15, -84, 40, 58, 49, -83, 8, -27, 52, 44, 82, -75, -71, -6, -16, -34, 83, 14, 0, 51, -31, 56, 79, 5, -87, 62, -7, -89, -24, 2, 79, 50, 6, 24, 13, 83, 12, 70, 20, 45, 16, 34, -11, -78, 84, -18, -68, -12, -17, -35, -50, 16, -13, 8, -11, -6, 79, 71, -65, -7, 13, -16, -14, 9, -40, -54, 35, -57, 45, -35, 58, 77, -48, 2, -59, -17, 71, -60, 18, 47, 47, -62, -61, -68, -39, -25, -86, 27, 54, 45, -30, 48, 19, -20, -38, 59, 68, -79, 84, -79, 46, -21, 64, -36, 40, -10, 14, -78, -13, 6, -12, -54, -41, -71, -73, 37, 47, 27, 12, 10, -60, 73, 4, -35, -71, 66, -7, 51, -58, -36, 40, -36, 52, 23, -62, 61, 30, -20, -24, 10, 11, -21, 56, -46, 39, -4, -39, 50, -77, -42, 16, -36, -35, -85, -42, -45, -70, 30, -55, 71, 59, 42, -48, 37, -2, -61, 40, -35, -3, 67, 21, -15, -84, 85, 46, -53, 14, 19, 36, -73, -47, -47, -29, -43, -4, 75, 44, -1, 21, -22, -19, -50, 56, 11, -15, -85, 76, -14, 52, -41, -43, -79, 40, 13, -41, 66, -61, -52, 28, -41, 62, -15, -72, 66, 20, -47, -32, 44, 32, -40, 70, 10, -73, -13, 76, -50, -28, 24, 52, -55, -29, -82, -24, 12, -13, 71, -61, 5, 47, 2, -52, -30, 24, 17, 25, -31, 49, -4, 62, 34, 39, 7, 54, 76, 13, -68, 78, -74, -27, 51, 11, 17, -60, 20, -14, -84, 14, 15, 17, 57, 79, 64, 29, 76, 73, 59, 15, -51, 43, -73, -70, 0, 61, 86, -65, -38, 73, -61, 60, -88, 68, -12, 34, 83, -84, 73, -18, 18, -79, -20, -6, -29, 26, 56, -41, -72, 17, -60, 51, -55, -70, -2, -86, -12, 48, 36, -14, 21, 70, -36, 87, 51, 46, 42, -30, 13, -50, 9, 36, -69, -80, -87, -84, -16, 77, 87, -87, 13, 22, -76, 26, -56, 42, -48, -26, -43, -47, 72, 63, -51, -69, -72, -41, -20, 41, -49, 48, 87, -84, 28, -31, -41, 50, -80, 39, 60, 76, -9, -79, 12, 43, 26, 40, -48, -60, 73, 0, 21, 37, -24, -23, 41, -83, 84, -20, -4, -2, -4, 35, -21, 31, 61, 62, -20, -76, 79, -45, 36, 63, -52, 20, -6, 57, 23, 55, 35, 35, 83, 15, -61, -10, -30, -41, -18, -83, 86, -26, 50, 32, 37, 22, 10, -62, -73, 36, 80, -42, -67, 79, 84, -38, 61, 73, -16, -62, -2, -85, 35, -34, 78, 1, 57, 56, 45, -45, -62, -41, 74, 83, 82, 82, 72, -12, 53, -35, -33, 58, -62, -18, -45, 43, 5, -47, 35, -29, -18, 88, 6, -18, -50, 50, 47, 6, 50, -28, -62, 13, 16, -15, 50, 27, 27, 42, 52, 57, 48, -33, 67, -32, 50, -27, 64, 66, -6, -21, -42, -57, -15, -70, 6, 61, 61, 32, -64, 85, 22, 83, -20, 69, 19, 36, 8, -49, 85, 33, -49, -41, 24, -29, 17, 6, -47, 37, -60, -73, 48, 52, -31, -66, -24, 22, 62, 71, 51, -55, -26, -27, -26, 14, 78, 9, -88, 46, -31, -41, 54, -20, -54, 46, -52, 43, 54, 9, 87, 5, -13, -38, -59, -59, -73, -10, 70, 40, -33, 80, 74, 66, -10, 76, 14, 60, 66, 0, 7, -11, 40, -9, 71, 49, 22, -7, -7, -84, -36, 22, -67, 20, 85, -25, 84, -89, -89, 4, -29, -20, 26, 39, 23, -44, 44, 86, 82, -37, 40, -3, 79, 27, 14, -45, -28, 85, -74, 54, 53, -83, 75, -9, 39, -23, 33, -62, -70, 85, -38, -72, -28, -65, 68, 6, -50, -65, -16, 57, -57, 33, -51, 24, 20, 29, -25, 77, 81, 77, -71, -33, 64, 70, 83, -80, -40, 17, 1, 72, -54, -59, 48, 79, -61, -85, -27, -24, -29, -18, 17, 19, -2, -71, -32, 75, -75, 55, -10, 69, 39, 54, 10, -84, 30, 30, -38, 23, -39, 85, -40, 76, -29, 9, -87, 50, 57, 11, -13, -26, -45, 81, -60, 14, -58, 53, -23, 16, 56, -28, 52, -75, -22, 12, -41, 20, 3, -62, 81, -64, -39, -39, -28, -47, 44, 76, 41, 36, 13, -29, 4, 30, 1, -6, 27, 46, 23, 41, 25, -28, 56, 39, 19, -27, 28, 3, -72, -19, 29, 60, 46, -45, -23, 11, -35, 22, -86, 11, 6, -8, 40, 67, -2, -57, -39, 57, -65, -74, -47, -59, -7, 20, 28, -20, -39, 45, -60, -3, -64, -84, 68, 35, -51, -21, -60, -56, 84, 24, 38, 74, 0, 56, -26, 2, 47, 19, -11, 34, -18, 76, -33, 25, 78, 11, -42, -51, -1, 38, -52, -81, 78, 76, -38, -9, -4, 63, 78, -68, -36, -27, 85, -80, 55, 27, 50, -45, 12, -18, -79, 58, 16, 25, 67, 40, 44, 84, 9, 83, 46, -34, 80, 61, 14, -10, -35, -39, 66, 63, -70, 78, 51, -66, -3, 77, -83, -70, 7, -20, -83, 39, 36, -52, 35, 65, 86, 74, -25, -68, 33, 81, 15, 75, 14, 74, 83, -1, 38, 18, -10, 4, 26, 70, -86, -14, -34, 53, 16, -80, 85, 63, 15, 67, 68, -83, -79, 68, 5, -77, 7, -23, -2, 88, 7, 61, -78, 88, 62, 86, 65, -26, -18, -28, -76, -54, 36, -78, 19, -25, -42, 58, -71, 4, -42, -86, -55, -44, 61, -16, 52, -85, -43, -45, -77, 14, 84, 1, 49, -51, -1, -26, 70, 31, -25, 53, 57, 87, -36, 46, -46, 13, 32, 5, 21, 34, 77, 78, -88, 24, 45, -15, -34, 53, -4, 61, -32, 27, -28, 62, -36, -74, 52, 28, -71, 79, -16, -77, -17, 29, -56, 9, 49, -68, -46, 25, -72, -21, -34, -11, -36, 25, 45, -40, -9, -48, 48, -70, -8, 57, 35, -28, -70, 84, 62, 59, 82, -4, 20, 54, 17, -69, -2, -35, 5, 24, 34, 22, 42, 77, -35, 32, -70, 20, 44, 14, 80, -4, -86, -4, 23, 69, 21, 15, -15, -12, -57, -12, 21, -19, -83, 22, 3, -82, -85, -61, -1, 57, 52, -64, 27, 37, 28, 46, -32, -23, 56, 26, -71, 21, -43, -44, 64, 38, -50, 21, 82, 52, 53, 28, 64, 43, -26, 48, 89, -30, 85, 36, 79, -77, 32, -29, -4, -87, 40, -10, -14, -56, -11, 23, -41, 3, -84, 40, -41, 85, -72, 33, -63, -26, -55, 75, -58, -23, 5, 36, 23, 81, -13, -50, 73, -3, 79, -59, 79, -61, 41, -61, -10, 16, 88, -65, -86, -31, 85, -77, -83, -83, -72, -10, 13, 47, -33, -73, 7, -49, 47, -41, -73, -39, -8, 39, 66, -44, -47, -42, 21, 61, 34, 61, -52, 2, -78, 36, 40, 4, -49, 29, -10, -25, -69, -15, 77, 36, -55, -4, -1, 22, -22, -5, -49, 28, 21, -60, -31, -34, -79, -59, -16, 84, 75, 61, 81, -28, 44, -47, -66, -32, 51, -33, 20, -72, 3, -88, 82, -34, -61, -36, 76, -40, 48, 56}

#define CONV2D_KERNEL_0_SHIFT (10)

#define CONV2D_BIAS_0 {68, -3, 51, -28, 18, -33, -12, 75, -8, -96, -21, -47, -53, 53, 3, 72}

#define CONV2D_BIAS_0_SHIFT (8)


/* output enconding for each layer */
#define INPUT_1_OUTPUT_SHIFT 7
#define CONV2D_OUTPUT_SHIFT 5

/* bias shift and output shift for each layer */
#define CONV2D_OUTPUT_RSHIFT (INPUT_1_OUTPUT_SHIFT+CONV2D_KERNEL_0_SHIFT-CONV2D_OUTPUT_SHIFT)
#define CONV2D_BIAS_LSHIFT   (INPUT_1_OUTPUT_SHIFT+CONV2D_KERNEL_0_SHIFT-CONV2D_BIAS_0_SHIFT)
#if CONV2D_OUTPUT_RSHIFT < 0
#error CONV2D_OUTPUT_RSHIFT must be bigger than 0
#endif
#if CONV2D_BIAS_LSHIFT < 0
#error CONV2D_BIAS_LSHIFT must be bigger than 0
#endif

/* weights for each layer */
static const int8_t conv2d_weights[] = CONV2D_KERNEL_0;
static const nnom_weight_t conv2d_w = { (const void*)conv2d_weights, CONV2D_OUTPUT_RSHIFT};
static const int8_t conv2d_bias[] = CONV2D_BIAS_0;
static const nnom_bias_t conv2d_b = { (const void*)conv2d_bias, CONV2D_BIAS_LSHIFT};

/* nnom model */
static int8_t nnom_input_data[16384];
static int8_t nnom_output_data[16384];
static nnom_model_t* nnom_model_create(void)
{
	static nnom_model_t model;
	nnom_layer_t* layer[3];

	new_model(&model);

	layer[0] = Input(shape(32, 32, 16), nnom_input_data);
	layer[1] = model.hook(Conv2D(16, kernel(5, 5), stride(1, 1), dilation(1, 1), PADDING_SAME, &conv2d_w, &conv2d_b), layer[0]);
	layer[2] = model.hook(Output(shape(32, 32, 16), nnom_output_data), layer[1]);
	model_compile(&model, layer[0], layer[2]);
	return &model;
}
