#include "nnom.h"

#define ADD_CONV2D_KERNEL_0 {-49, 12, -84, -72, -65, 19, -57, -78, -26, 6, 62, -59, 59, 70, 22, 12, 12, -58, -49, -20, -89, -45, -52, -59, 33, -49, 31, 61, -13, -70, -16, 78, -35, 85, -44, -16, -18, -57, 11, 78, -69, 23, 35, -86, 26, -18, -22, -75, -13, 44, -71, 80, -4, 11, 81, -54, -24, 54, 32, 51, -81, 24, -32, -16, 8, -55, -15, 69, -13, 38, -14, -29, -27, -59, -30, -8, 49, -49, 4, -58, 45, -70, -1, -85, 75, -65, -5, 43, 49, 18, -85, 1, 80, -31, -22, 40, 12, -85, -52, -27, 84, -44, 84, 53, 56, 40, -71, 70, -84, -5, -67, 52, -46, -17, -20, -67, -83, 23, 2, -41, 25, 54, -88, 2, -13, -2, -9, 54, -28, -51, 42, 18, -35, -68, -79, 44, -80, -46, -84, -1, -72, -26, 47, 44, -8, -62, 86, 52, 43, -85, -40, 58, 77, 29, -56, 29, 11, 19, -53, 58, -79, -50, -43, -21, 3, -29, -30, -6, 85, -53, 22, 11, -21, 30, -33, 81, -42, -78, -17, 33, 20, 72, -42, 9, 32, 70, -4, 14, 59, 9, 51, -15, 45, -6, 8, 84, -48, -36, 64, 20, 4, 25, -49, -44, 88, 4, 40, -15, 74, 47, 45, -82, 54, -79, 24, -18, 1, 13, 8, 42, 67, -37, 52, 76, 58, -17, -62, -18, 48, 2, 82, -27, 26, -74, -13, -36, -62, -83, -79, 55, -11, 54, -46, -47, -73, 1, 66, 67, -46, -56, -84, -31, 82, -41, 16, 57, -75, 62, -44, -29, 87, 76, -64, 71, -9, 8, 28, 83, 80, 31, -74, -87, -4, -48, -23, 40, -50, 30, -78, 67, 62, 28, -50, 75, -53, -7, -39, 51, -73, -85, -54, -48, 11, 88, -78, 50, -15, 11, 54, -42, 26, -44, 23, 12, -12, -5, -17, -7, 52, 25, -32, -47, -26, -2, 72, -63, 2, 40, 79, 69, 27, -68, -57, -12, -35, 84, -53, -77, -36, 23, 12, 22, 48, 46, 75, 7, 76, -39, 48, -88, -18, -6, 10, -47, -54, 35, -74, -30, -70, -67, -56, -36, 70, -60, 67, 47, -53, 11, -32, -8, 74, 54, 25, 26, 26, 19, 8, -67, -18, -33, 66, 22, 57, 88, 62, -65, -84, -24, 38, -29, -74, -78, -73, -41, 32, -2, -72, 76, 6, 12, -25, -66, -4, 65, 61, 19, 36, -34, 57, -71, -70, 48, 47, -1, 79, 69, 26, -29, -9, 36, -1, 55, -85, -79, -14, -48, 38, 9, -11, 49, 38, 74, 78, -70, -17, -57, 65, 23, 35, 46, 2, -34, 2, 57, -65, 3, 10, 74, -69, 78, 4, -17, 12, -7, -19, -28, -65, 78, 28, 89, -27, 54, 85, -39, 14, 3, -71, 16, 85, -63, -62, 16, 66, 34, 58, 62, 86, -68, 87, -80, 17, 30, -50, 12, 47, 48, -72, -37, -86, -16, 11, 60, -66, 71, -20, 68, 47, -75, -30, 50, 4, -61, -20, -67, -27, -40, 74, -26, 77, 48, -28, 22, -4, 67, 44, -41, -56, 55, -5, -29, 29, 16, -51, 58, 87, -68, 64, 14, 53, 23, 0, -18, 63, -30, -12, 38, -8, -1, -69, 87, 22, -47, 88, -40, -25, -1, -34, 86, 23, 58, 75, 13, 51, -88, 71, 68, -16, 61, -72, 23, 79, 60, 8, -79, 11, -26, -64, -32, -84, 9, -56, 24, 59, -60, -64, -24, -78, 9, -49, 53, 9, 54, -30, -32, 86, -78, 6, 31, 84, 39, -71, 59, -72, 57, 78, 46, 41, -53, 66, 32, 78, 72, -26, 48, -5, -18, -73, 76, -16, -34, -64, 76, -51, 54, -4, 52, -79, 83, 73, 37, 37, 85, 7, 29, -68, 82, 22, 33, -20, 49, -43, -37, -69, -84, 1, -19, -49, -10, 16, 36, -34, -69, 13, 59, 48, -38, -68, 84, 2, -38, -16, 50, 40, 68, 22, -53, -45, 12, 27, 56, 54, -50, 29, -59, -15, -51, 15, -13, 6, -22, 34, -6, 49, 26, -38, 83, -74, 57, 37, -30, 45, 3, -17, 30, -12, 23, 2, -27, 72, -27, 4, 64, 65, 7, 4, 7, -27, -64, 19, -25, -87, -43, -78, -51, -40, 39, -61, 87, 67, 49, 7, 84, 7, 31, 51, -20, -37, -19, 14, 25, -12, 39, 78, -71, 73, -71, -2, 49, 78, 61, -58, 31, 35, 27, -48, -33, -75, -7, 64, -19, -59, -8, 69, -34, 58, 47, -7, 40, 18, 51, -39, -50, -76, -80, 61, 1, -76, 57, -8, -60, -82, 12, -86, -32, -38, 15, 36, -63, -70, 20, 78, -14, -19, 70, -53, 28, -73, 49, 39, -60, -82, 16, 17, -40, -19, 2, 23, -21, -20, 50, -37, -3, 85, -73, 81, 9, -24, 24, 61, -19, 46, -32, -43, 30, 62, 39, 22, 40, -32, -51, -8, -17, 56, 58, 69, 18, -58, -50, -34, 40, 83, 45, -66, -13, -64, 87, -15, 46, 47, 63, -2, 9, 12, 0, 68, 56, 73, 10, 72, 18, -63, 64, 19, -18, 76, 41, -48, -47, -61, -11, 12, 19, -26, -43, -26, 35, -8, -8, -66, 65, 19, 88, -42, -80, -6, 77, 54, 41, -79, -78, -64, 6, 37, 17, -73, 33, -41, 64, 0, 25, 1, -65, 70, 82, 23, -53, -47, 42, 38, -50, 46, 86, -67, -2, -78, -74, -60, 87, 78, -78, -73, -86, 43, 58, 74, -37, -77, 42, -84, 61, 44, 36, -5, -58, -16, -53, -15, 32, -61, -31, -84, 66, 33, -55, -63, -10, 20, -75, -16, 21, -12, 8, 76, 5, 22, 30, -2, 75, 32, -34, 69, -52, 46, -40, -66, -2, 3, 38, 25, -2, 83, -78, -44, 19, 83, -46, 71, -15, -30, 2, 52, -21, 54, -63, 8, -77, -66, 43, 70, -52, 12, 31, -62, -6, -41, -70, 17, 16, -64, -2, -17, -20, 78, 87, 6, -53, 2, -51, 78, 3, -31, -33, -10, 59, 60, -60, 48, 15, -21, 15, -77, 2, 73, 64, -82, -27, -25, 63, -50, 21, 0, 19, 8, -82, -41, 40, -74, -21, 6, 41, 79, 57, -61, -6, -22, -17, 75, -3, -55, 38, -86, 85, -72, 5, 67, -40, -15, 47, 75, -76, -56, 75, 17, 0, 42, 40, 12, 3, 56, -6, -7, 39, -37, 61, 83, 77, 39, 56, -34, -46, 29, 9, -79, -14, -89, 59, 49, -6, -61, -15, -61, -5, -18, 74, 64, -7, -81, 36, -34, -61, -34, 78, 65, -53, -25, 12, -60, -76, -48, 37, -36, -41, 8, 3, 28, -36, 61, -19, 72, -25, 29, 84, -72, -11, 56, 6, -33, 2, 8, 62, -79, 73, 8, 31, -30, 84, 2, 41, 27, 35, -72, 31, -87, 36, -39, 18, 24, 17, 9, 37, -43, 82, 30, -25, -87, 62, 56, -40, 9, 71, -85, 61, 41, 4, -21, 3, -20, -18, -21, 34, -85, -84, -78, 54, -75, -18, 83, 19, 10, 10, 54, -24, -5, 45, -49, -48, -61, 82, -82, 12, 32, -88, 73, 21, 80, -19, -43, 35, 44, 4, 31, 66, -26, -67, -16, -8, -24, -14, -14, -47, 84, -49, -10, 5, -11, -16, -62, 39, -31, 38, 18, -58, -41, 51, 42, 47, -44, 46, -65, -28, -41, 13, -85, -87, 45, 74, -48, 59, -73, 55, 28, 59, 3, -84, 33, -12, -86, 77, -42, -47, -29, 38, -8, 27, -50, 41, 31, -78, -56, -70, -40, 87, -65, -85, -9, -78, -45, 45, -6, -18, -84, 30, 45, 67, 40, -9, -29, 9, -4, -10, -81, 34, 19, -71, 75, -84, -71, 82, -31, 7, -12, 20, -67, -8, -72, -70, -62, 64, 54, 61, -85, 40, 66, 57, -32, 10, -84, 67, -46, -75, 6, 5, 20, 31, 38, 86, 10, 48, 86, 29, -75, 65, 14, -18, 5, -6, -47, -21, 7, -26, 7, 18, -52, -68, 59, 2, 85, -24, 50, 39, -41, -16, 58, -15, 50, -78, 69, -16, -81, -30, 81, -85, -59, 77, 51, -66, 32, -18, 63, 31, 57, 74, 85, -23, 65, -35, -43, 2, -25, -59, 88, -40, -44, -81, 48, 43, 13, 24, -76, -32, 31, 48, 15, -75, 19, -72, 23, -26, -54, 79, 14, -40, 44, -5, 24, -81, -13, 73, 22, -44, 7, -55, -55, -48, -9, -57, 20, 52, -48, 14, 49, -27, -86, -47, 63, 28, -70, 0, -42, -87, 64, -57, 76, 71, -50, -38, -12, -61, -42, 74, -13, 38, 66, -24, -77, 83, -50, -13, 49, 58, 71, -83, -38, 36, 35, 63, 33, -3, 1, 71, 74, -24, 40, 80, 18, -6, -81, -31, -47, 0, 16, 76, 50, -81, 77, 79, -18, 8, -80, -14, -45, 69, -33, -60, 45, 11, -20, 73, 77, 49, -8, 80, -88, 32, 7, -78, 23, 66, 27, -23, 53, 87, 11, -14, -39, 24, -60, -18, -61, 57, -17, -35, -7, -46, 16, -39, -50, -65, -66, -65, -53, -63, -72, -66, -58, -26, -84, -41, -66, 7, 72, -32, 0, 17, -32, 80, -3, -38, -38, -10, -63, -35, -76, -21, 59, -60, 12, -60, 68, -56, 23, 52, 34, -25, -33, -39, -56, 9, -29, -85, -42, 49, 75, 33, -73, 49, -47, 41, -51, -73, 13, 29, 18, -20, -50, 50, -3, 44, 62, 69, -10, -17, -52, 60, -67, -85, -42, -50, 23, 51, 80, 62, -52, -31, -40, -85, 8, 2, 88, 42, -35, -44, 54, 45, -37, -5, -68, 50, -28, 53, 13, -43, 48, 80, -88, 43, -83, 83, -4, 26, -60, 8, 79, -59, -25, -38, -78, -20, -46, 38, 36, 57, 16, -87, -85, 67, -42, 31, -10, -6, 0, 61, 37, 69, 0, -70, -67, -44, 73, 21, -81, -23, 86, -53, 32, -50, 19, 13, 78, 66, 10, -19, 17, 4, 37, 15, -22, -24, 27, -74, -42, -80, 22, 2, 31, 32, -53, -7, 62, 89, -32, -65, -32, 54, 58, -27, 81, -61, -32, -53, 74, -15, -67, 69, 10, 16, -62, -77, -54, 7, -57, -18, 24, -34, -76, -85, 65, -22, -84, 25, -20, 8, -63, 41, 37, 28, -68, -34, 16, 47, 38, -1, -19, 11, -68, 44, 18, -65, -23, -1, -74, -71, 48, 81, 46, 30, 82, 32, 84, -49, -29, 5, 85, 44, -80, 14, 46, 26, 38, 46, 25, 84, -50, -18, 2, -50, -42, 62, -77, 37, 39, -22, 80, 35, -53, -63, -58, 30, 88, -69, 52, 30, -34, -62, 81, 75, 72, -65, 65, -71, -80, -26, -14, -2, 49, 7, -76, 71, 22, -34, -46, -56, -38, 9, 57, -16, -12, 18, 31, -61, -49, -36, -80, 36, 30, -17, -69, -2, 27, -47, -33, 16, -69, -56, 26, -77, 8, -62, -69, 36, 39, 75, 22, 27, -20, 73, -34, 81, -44, -65, 44, 88, -21, 3, 18, 52, -25, -21, -28, 34, 17, -68, 22, 3, 71, -77, -3, 59, -73, -81, -69, -3, -32, -19, -59, 20, 82, -23, 14, 2, 55, -62, 33, -27, -86, -64, 16, -71, -22, -23, -86, 21, -80, 41, 24, 2, 69, -72, 42, -43, 17, -32, 46, 47, -3, 66, 5, -68, -77, -60, -49, 63, -13, -50, 65, 61, -64, -1, -80, 29, -67, -28, -64, 30, -52, -37, 23, 48, 7, -50, 21, 63, 17, -60, 23, -68, -25, 17, -83, 75, 84, -48, 74, -79, -19, 75, 26, 81, 27, 85, -37, 71, 1, -22, -31, -73, -16, 66, 71, 70, -18, -40, 28, -33, -8, 18, 39, -1, -8, -33, 86, 50, 69, -43, 33, -52, 18, 11, -18, 70, 60, 11, -58, 51, -83, 81, -14, 17, -69, 49, -4, 6, -17, -86, -10, 42, 43, -38, 76, 50, 3, 26, -49, -5, 39, -42, 3, 41, 55, -17, 10, -67, -28, -56, -42, 10, -64, 60, 67, 38, 59, -81, 68, -38, 37, -3, -49, -60, 71, -59, -44, -72, 85, -86, 30, 11, 69, -1, -47, 15, 35, -1, -15, 24, -69, -54, -81, 62, -83, 68, -84, -86, -46, 38, -27, 2, -49, 42, -55, -71, 1, 79, -15, 77, 9, -53, 60, -13, -83, 31, 34, -3, -43, -40, 37, -13, 42, -37, 9, -49, 27, 66, -40, 69, 77, -4, 0, -43, -6, 24, 81, 45, -84, 43, 40, -43, -76, 55, 41, -31, 11, -13, -58, -88, 49, -77, -58, -68, -47, 64, -76, 14, -88, 67, 67, -35, 81, 21, -76, -34, 28, 19, 47, -79, -63, -53, 73, 22, 78, -38, -64, -75, 19, 65, 38, 46, -11, -58, -39, 21, 63, 62, 16, -34, -75, 20, -46, 73, -50, 54, 60, 11, 80, -24, 57, 74, -12, 54, 42, -74, 23, -26, 32, 30, -39, -40, -47, 9, 15, 82, -77, -77, 77, 49, 39, -88, 53, -14, -70, 86, -11, 25, 30, 70, -48, 44, 67, -66, 60, 23, -11, 21, -11, -73, -58, 38, 84, -51, -4, -63, 35, 12, 1, -63, -5, -65, 29, -89, 41, 73, 43, 75, -47, 33, 74, 39, -68, -12, 35, -55, -1, 12, 80, -39, 17, -73, -61, -58, 2, -1, -34, 25, -29, -17, 42, 30, -7, -60, 57, -42, 50, 12, -39, -8, 15, -42, -29, -16, -56, -14, 75, 64, 56, 36, -17, 47, -86, 69, 78, -85, 55, -67, 48, 37, 29, 29, -38, -79, 86, 22, -24, -81, -58, -34, -72, 87, 27, 9, -56, 68, 59, -65, -80, -24, -82, -75, -65, -50, -36, 78, -81, 63, 16, -68, 48, 70, 55, 16, 68, -80, 50, -67, -1, 29, 34, -13, -48, 29, -9, -66, -70, -67, -15, 19, 6, -39, 36, -20, -4, 9, -73, 60, 74, -46, 42, 31, -79, 26, -48, 35, 65, 61, -87, 29, 19, 75, -86, -76, -3, -4, -34, 48, -42, 55, 52, -9, -23, -25, -71, 8, -62, 2, -9, -43, -31, -34, -38, -11, 35, 79, 44, 1, 39, -51, -24, 38, -7, 12, -13, 56, -69, -37, -52, -72, 5, -76, 35, -58, -37, -74, 81, -37, 81, -83, -30, -28, -71, -54, 57, 20, -83, 49, -86, 60, -31, 17, 34, 71, -70, 7, -42, -45, -18, 35, 83, -82, -64, -71, -32, -11, 40, -16, 77, 81, 5, 65, 55, 48, -54, 57, -46, -4, 21, -36, 50, 87, -5, -68, 49, 48, 71, 5, 11, -23, 69, -75, -13, -25, 65, 81, 0, 82, -10, 31, -63, -26, -17, 7, 74, 17, 36, -88, -2, 51, -25, 15, -88, -65, -12, -10, 33, -13, 5, 73, -83, 51, -46, -48, -53, -30, 0, -78, 15, -75, 67, -34, -83, 80, 17, -82, 38, 76, 61, -37, 26, 75, 40, 59, 78, 27, -76, -38, 68, -33, -6, 55, -40, 56, -55, -27, -64, -24, -48, -36, -57, -56, 58, -5, -34, 64, 36, 60, 86, -60, 10, -3, -4, 35, -20, 15, -70, -76, 87, 40, -61, -46, 75, 12, -23, 38, 87, -2, 11, 87, 7, -65, 20, 25, 49, 45, 45, -14, -69, -13, -57, -29, -3, 19, -59, -9, 19, 78, -16, -78, -48, -10, 18, 54, 65, 85, -63, 71, -46, 67, 15, 85, 55, -15, 71, 74, 29, 71, 57, 27, -21, -71, 72, 86, 39, 85, 64, -77, 3, -11, -71, -62, 27, 61, -69, -1, 49, -83, -33, -77, 65, -31, 22, 20, 29, 72, -50, -84, 22, 23, -79, 27, -27, -24, -45, -37, -3, 64, 19, 83, -16, -21, 49, -58, -72, 82, 23, 19, 53, -75, -14, 82, 0, 41, 7, -49, 21, 31, -4, 53, -24, -74, -47, -23, 54, -76, -39, -61, -72, 39, -78, 16, -49, -10, 33, -13, -14, -10, 63, -38, -74, -86, 28, 67, 81, 69, 45, -72, -8, -65, 57, 27, 15, 66, -86, 47, 63, 28, 7, 83, 60, 11, 37, -51, 1, -11, 73, 48, -70, -34, 28, -32, 31, -74, 7, 57, 24, -67, 82, -30, 52, 84, -64, -76, 61, 9, 48, -17, -47, 30, 1, -79, 78, -39, -13, 51, 71, -82, -21, -38, 52, -44, 4, 7, -48, 84, 53, 77, -77, 12, 25, -23, -5, -29, 45, 83, -13, 41, -21, 62, -38, -5, 9, -86, -74, -30, -72, -28, 48, 1, -47, -29, -75, -59, 33, 65, -46, 79, -25, -49, 0, -1, -84, 3, 13, -75, 71, -49, 48, -46, -87, -38, -75, -48, 69, 14, -30, 76, -39, -20, 20, 69, -36, 28, 7, 76, 71, -63, 69, -88, 31, 38, 2, 56, -9, -31, 48, 40, -45, 6, -43, 33, 85, -52, -55, 85, -25, 12, 22, 12, 60, 59, -63, 41, 45, 85, -66, -45, 19, -64, 47, -54, -64, -50, -83, -17, 54, -24, 49, 65, 19, 65, -15, -21, 8, -74, 45, 75, -6, 32, 61, 60, -53, -6, 51, -71, 39, 18, -58, -39, 35, 60, 56, -64, -23, 51, 36, -42, 18, 14, 72, 18, 11, -27, -33, 20, 43, 40, -12, 61, -38, 75, -41, -78, 81, -66, -84, 29, 7, 15, -50, 5, 42, 88, 65, 64, -63, 66, -27, 64, 23, -80, -30, 20, 15, 45, 38, 42, -17, 79, 17, 44, -23, 72, 64, -36, -45, -29, -19, -83, -13, -51, 17, -45, 17, -76, 29, 12, -1, -80, 64, -24, -25, 33, -40, -7, -21, 36, -56, -35, 83, 34, 19, -84, -8, 71, 15, 86, 34, 56, 29, 17, -81, -17, -13, -59, -11, 9, -16, 29, 18, 82, -43, -74, -61, -30, 25, -16, -89, -12, 81, 17, 43, 27, 70, 58, -42, -51, 31, 63, 33, 44, -3, 11, -60, -19, 33, -64, 66, 27, -54, -81, 57, 71, -56, -25, -89, 55, 39, 57, 80, 12, 30, 59, -61, -13, 16, -68, 48, -31, 59, 21, 86, 21, -34, 33, 28, -7, 74, -3, -76, 67, 41, 16, -21, 77, -20, -39, 73, 32, 9, -9, 45, 65, -9, -79, 22, 11, 26, -40, -86, -39, -79, -61, -59, 86, -18, -28, 48, -60, -58, -29, -50, 50, -86, -42, -56, 55, 15, -4, 43, -31, -21, 14, -82, -30, 31, -8, 40, 51, 28, -82, -47, -11, -72, -83, 77, -81, 88, -56, -23, -17, 60, 33, -83, 56, 22, -36, -69, -15, 66, -27, 30, 19, 67, 46, 57, 5, -50, -54, 20, -81, -77, -22, 47, -57, -68, 27, 40, 25, 50, -74, 11, -9, 50, -18, 36, -43, -79, 3, -35, -25, 8, -66, -57, 3, 49, 11, 6, -76, 1, 43, -2, -2, 25, 11, 27, -76, 47, 63, -14, 65, 62, -45, -2, -24, -87, 76, 1, 44, -13, 25, 3, 74, 73, 55, -67, 20, -83, 60, 4, 85, 32, -75, -9, 30, -60, 54, 89, -54, 2, -59, -73, 51, -14, -16, 37, -59, 60, -15, -85, -66, -73, -31, -89, 11, 68, -79, 76, 41, -11, -37, 10, 41, -38, -70, 29, 4, 38, -66, -5, 84, -33, -87, 48, -24, 34, -1, 44, 12, -16, -77, 4, 1, 17, 60, 64, 88, 59, -24, 41, -74, 55, 31, 37, -86, -78, 27, -22, -43, 62, -69, 88, 62, 51, -68, 9, -70, 45, 62, 38, 32, 40, 76, -50, -85, -44, 19, -2, -82, -23, -72, -32, 13, 57, -24, 5, -52, 26, 41, -66, -42, 70, 17, -43, -20, -42, 29, 84, 74, 70, -74, -24, -48, -80, 81, 6, -49, 3, -49, 50, -40, -34, 66, 76, -30, -44, 58, -28, 72, -52, 47, 47, -26, -25, 65, -61, 45, 41, 19, 47, -27, 3, 36, -11, 52, -82, 34, 68, 5, 61, -35, 88, 74, 0, -53, 58, -1, -33, 30, -21, 83, -32, -88, -81, 15, -65, 18, 59, 49, -33, 30, -68, 54, -63, 76, 85, -16, 64, -4, -88, 37, 41, -14, 82, 64, -78, 14, 67, 66, -63, 47, 71, 60, 72, -54, 19, -48, 6, 69, -69, 35, -50, -62, -26, -69, 54, -63, 26, -65, 13, 27, 78, 50, -43, 9, 57, 8, -75, -27, 67, 84, -80, -39, -58, -82, 5, 0, -27, 45, 39, 73, -51, 75, -8, 46, -39, -54, 2, 68, 47, 52, 49, -82, -28, -71, 26, 42, -7, -54, 4, -39, 43, -8, -72, -78, 0, 87, -38, -13, -27, -45, 84, -5, 20, 57, 60, 51, 67, 41, -77, -16, -25, 64, 33, -34, -50, 68, 24, -19, 53, -61, 24, -88, 19, -24, 46, 81, -24, -2, 83, -11, 51, -71, 34, 73, 31, 28, -42, -32, 13, -46, -8, 44, 22, 12, 32, 4, 0, -36, 50, -14, 7, 0, -66, 17, 20, 74, 48, -66, -50, 79, 76, 47, 35, -24, 37, 68, 79, -45, 43, 77, 28, 12, 3, -80, -65, 68, -40, -86, -36, -27, -11, -51, -33, 77, -55, 28, 41, 41, 19, 77, -84, 26, 48, -38, 25, -18, -72, -4, -83, -43, -75, -11, 7, 66, 30, -20, 13, 85, 60, -51, -67, 58, -28, -56, 12, -84, 1, -41, -77, -67, 68, -15, 58, -29, -29, 6, -65, -28, -70, 11, -78, 83, -38, -47, -82, 17, -14, 34, 83, 8, 42, -34, -77, -58, -45, 0, -81, -7, 82, -8, -36, 21, 67, -61, 21, -43, -33, 0, -43, -60, -36, -8, 73, -4, 73, 67, 12, -1, -33, 57, -69, -6, 16, -77, -3, -75, 34, 86, 81, -63, 8, -20, -72, 39, -1, 32, 86, 38, 14, 37, -56, -58, 20, 62, -52, 85, -9, 16, 25, -57, -84, -56, -29, -79, 10, -27, 57, 39, -38, 18, -38, 79, -19, -34, 84, -29, -74, -87, 1, -55, -87, 61, -24, 42, -44, -17, -81, 4, -27, -10, -40, -44, -8, 58, 57, 5, -71, -23, -63, 30, 64, -66, -79, -58, 36, -2, -25, -45, -84, 27, -70, -61, 50, -7, -87, -60, 75, -34, 27, -46, 59, 35, 26, -56, 86, 84, 49, -65, 60, -39, 13, 87, -34, 17, -67, 28, 56, 87, 61, -50, -69, -13, 28, 39, 83, 79, 1, 17, 45, -23, 17, 82, 38, 5, -15, -14, -53, 58, -50, 49, -54, 23, 66, 55, 19, -46, -2, 34, -69, 85, 89, -79, 44, -77, -32, -2, 41, -6, 60, 51, -44, -86, -88, -43, 86, 87, 66, -38, 35, -3, -30, 36, 26, 17, -2, -74, 56, 47, -36, 25, 12, -81, -26, -12, 21, 31, -35, -63, 63, 78, -40, -3, -58, 78, 46, 35, 35, -81, -72, -73, -57, 39, -50, 37, -1, 3, 52, 66, -79, -85, -25, -10, -54, 66, -72, -38, -2, 37, -42, 19, -21, -60, -1, 61, 53, 80, 36, 21, 43, 15, 31, 5, -3, -47, -45, 61, -81, 45, -78, -70, -70, -70, 32, 33, -54, 47, 54, -1, -1, -86, -77, -58, 53, -35, -68, 49, -36, -40, -88, -62, 46, 25, 66, -74, 69, 19, -15, -54, 55, -78, -20, 9, 86, -28, -2, 4, 86, -27, 47, -32, -73, 11, 85, -34, 3, -85, 60, 42, 5, -10, -15, -14, -9, -64, 27, -85, 56, -47, 35, -76, 20, 41, -26, 30, -84, -88, -34, 68, 35, -88, -49, -51, 43, 77, 36, -79, -87, -85, -61, 4, -34, -84, -31, 61, 65, -29, 24, -48, 56, 18, -55, 10, 39, -13, -59, 78, 41, 33, 72, 88, -48, 68, 34, 50, -67, 51, 59, -31, -13, -18, 87, 49, 83, 52, 88, -34, -88, -12, -50, 81, 34, -25, -69, -56, 5, -55, -42, 47, -72, -8, 6, 1, -84, 20, -47, -3, 73, -67, 28, -1, 13, -5, 70, -3, -82, -75, 80, 65, -86, -44, 62, 18, 9, 19, -73, -68, -68, -25, 60, -37, 70, 42, 88, -15, -85, 31, 5, -18, 1, 35, 62, 9, -61, -3, -18, -48, 48, -71, -70, -84, -47, -81, 0, 32, 48, -67, -71, 45, -73, 80, 79, -84, 64, 49, -87, -42, 50, -23, 70, -32, 6, -33, -72, -54, -71, -6, -19, -11, 30, 58, 29, -55, -28, -38, -31, -78, -52, 80, 67, -29, -86, -38, -88, 41, -15, 22, -28, -30, -88, -76, 88, 57, -36, -51, 81, 67, 16, -8, -28, -77, 17, -53, -7, -2, 37, 2, 29, -55, -1, 61, 15, -59, -41, 74, -59, -30, 43, 49, -51, 47, -75, -43, 46, -29, 43, -32, -82, -31, 62, 76, -8, 74, 53, 51, -57, 10, -23, 5, -43, 61, 35, -55, -56, -78, 41, 64, 75, 62, 62, 59, -20, 21, 65, 51, 46, 6, -57, -41, 53, -53, 79, -18, -81, 44, 28, -39, -21, 23, -14, 66, 79, 42, -59, 2, -87, -59, -20, 23, -23, -47, -22, -9, -37, 59, -40, 11, -31, -78, 85, 16, 7, -44, -52, -19, -40, 31, 16, -71, -4, -24, 50, -60, 51, -77, -79, -41, 24, 14, 19, -42, 43, 32, 43, 5, 5, 61, -46, 43, 16, -39, -85, -59, -67, 74, 41, 27, -47, -23, 6, -52, 1, -85, 67, 3, -28, -7, 68, -65, -20, 49, 16, -33, 73, -58, -76, -46, -1, -17, 25, -12, 8, 36, 79, 73, 25, 29, 87, 64, 51, 32, -84, 43, 57, 60, 8, -36, 17, 30, 38, -17, -62, -59, 38, -7, 81, 41, 64, 38, -24, 54, -38, 59, 16, -68, -3, 81, 39, -16, -32, 10, -88, 13, -63, -35, 65, -11, 54, 19, 19, -14, 25, 58, -4, 42, 9, -81, 15, -82, 62, 50, -31, 65, -39, 16, 26, 26, 79, 75, -27, -24, -7, -45, -72, 17, 30, 30, -68, 85, -58, 84, 60, 82, -72, 61, -46, -68, 43, -38, -54, 3, -61, 23, -31, -70, 46, 81, -40, -82, -56, 87, -26, -9, 55, 38, 15, 54, -1, -69, -53, -30, 13, -41, 25, 45, -63, -17, -38, -51, 50, 13, -23, 2, 15, 65, -14, -19, 9, -14, 17, 75, 67, 68, -58, -76, 59, -59, 2, -20, 77, 20, -59, -47, -74, 18, -34, 39, 37, 51, 15, 3, 61, -79, 0, -60, 10, 83, -15, -85, 57, -10, 32, -19, -29, 40, -41, 14, -2, -25, -16, -40, -85, 5, 53, 10, 76, 69, 50, -26, 42, -39, -53, 80, -4, 56, 50, -36, -16, 59, 76, -84, -86, 5, -70, 12, -50, 10, -81, 10, -9, 75, 51, 58, 88, 69, -69, 43, 52, -27, 21, 4, 6, -68, -56, 54, 86, 12, -61, -3, 39, -48, -16, 8, 53, -23, 64, 72, 61, -43, -60, -25, 38, 9, -23, 14, -73, -83, -70, 27, 75, 63, -40, -38, 51, -54, 15, -6, -81, 7, 7, 18, 69, -51, -74, 35, 55, -87, -27, 49, -88, -55, 6, -39, 25, -8, -86, 70, 7, -2, -76, -83, 22, 51, -70, -47, 58, 29, -22, 80, -52, 36, -86, 42, 32, -49, -25, -21, -82, 7, -32, -21, -1, -54, 83, 59, -61, -67, -77, 76, -23, 19, -71, 20, -57, 57, 48, -46, -31, 49, 67, 47, -25, 9, 50, 5, 17, 3, 16, 70, 23, 33, 56, 22, 9, -28, -77, 33, 52, -40, -47, -9, 86, 65, -70, 54, 46, -77, -8, -25, 3, 57, -10, 29, 27, 51, -76, 56, 17, -45, 11, 61, -62, 39, 67, 33, -3, 78, 27, 84, -20, 14, -5, 71, -69, -83, -9, 61, -40, 38, -52, -50, 82, 12, 58, -15, 22, 9, 78, 47, -4, 42, -28, -11, -16, 47, 74, -38, -30, -71, 55, 7, 77, -18, 5, 0, -88, 6, -72, 76, -26, -5, 4, -88, -3, 8, -39, -76, 59, -3, -73, 18, -59, 42, 76, -42, 50, 47, 49, -36, 45, -38, 2, 22, -27, 57, -70, 68, 73, 18, -6, -70, 40, -78, 18, 81, 76, 33, 34, 41, 87, -26, -29, -65, 48, -63, 42, -76, 56, -58, -70, 41, 47, -74, 58, 69, -32, -27, 66, 47, 5, 46, -8, -87, -5, -33, -81, 43, -69, 1, 18, 8, 44, 48, 17, -15, 65, 29, -78, 30, 72, -5, 60, -83, 65, 27, -33, 61, 45, -49, 27, 43, 40, 7, 78, -70, 32, 45, 5, -59, 74, -7, -77, 23, 12, -12, -45, 84, -84, -12, -45, 42, 4, -65, -12, 78, -64, -86, -55, 0, 76, 53, -84, 43, -82, -35, 56, 61, -52, 26, -86, 56, -84, -14, 43, -36, -11, -86, 15, -4, 29, 64, 50, -41, -58, 22, -74, -72, 67, -68, -39, 72, -86, -82, -77, 80, -86, -77, -86, -23, -27, -42, -20, -72, -26, 44, 2, 61, 38, 2, 16, -79, -62, 27, 83, -13, 48, -35, 18, 19, -42, -39, 65, -30, 4, -62, -72, 51, 4, -2, 34, 59, -21, 77, -32, -62, -5, -74, 14, 41, 88, -62, 55, -43, -30, 25, 17, -32, -27, 80, 88, -47, -28, -85, 54, -74, -13, 27, 72, 76, -55, 39, 5, 83, 66, 75, -23, -45, 15, -15, -55, -13, -20, 48, 31, -6, -40, -59, 27, -28, -11, 73, 3, -15, 72, 77, -10, -35, -12, 81, 54, 39, -47, -46, 41, -88, 72, 85, 84, -52, -4, -42, 50, -48, -24, 11, 11, 58, -41, 24, 26, -39, -11, 12, 9, 50, 13, -76, -24, 35, 11, -72, -13, 56, -24, 78, 12, 65, -89, -56, 64, -58, 81, -60, -86, -67, -34, -61, 56, 26, 70, -75, -11, -76, -13, -27, 88, 15, -54, 61, 4, -9, -42, 68, 31, -27, -9, -55, 56, -14, -25, -65, 15, -1, -25, -75, 4, -66, 16, -18, -64, 63, -10, 20, 68, -13, 48, -68, 10, 65, 51, -85, 86, -21, -41, -12, 46, -8, -84, -76, 10, -14, 87, 7, -38, -88, 54, 56, -1, 21, -59, -64, 88, 79, -10, -87, -13, -13, 57, 51, 50, -82, -87, -30, 5, -40, -78, 25, 2, 14, 34, -35, 19, 36, 43, 65, -23, 9, -79, -41, -66, 49, 52, -8, -76, -33, -84, -37, 65, -28, -11, 37, -72, 73, 79, -2, -79, -30, -51, -22, 9, 87, -54, -65, 55, -37, -61, -71, 15, 12, -42, 65, 67, 71, 16, 10, -30, 36, -66, -76, -37, -58, -21, 11, -4, 1, -72, 29, 43, 54, -22, 82, -36, -87, 63, -8, 69, 29, -43, -28, 69, 76, 70, 20, -20, 35, -1, 74, 58, -88, 36, 34, 45, -54, 82, -57, 30, -35, 69, -47, -50, -16, 64, -84, -27, -7, -85, 20, -78, -87, -19, 10, 71, 14, 86, -39, -15, 86, 70, 12, 73, 43, 78, 81, -12, 3, -37, 11, 74, -52, 68, -23, -79, -6, 27, -15, 32, -10, 44, -47, 74, 14, -81, -37, 51, 37, -2, 89, -31, -20, -41, -54, -56, 53, -82, 58, -53, -19, -26, -52, -34, 40, -79, -86, 16, -64, 17, 59, 13, 74, 10, 56, 56, 64, 9, -15, 52, -77, -66, 30, 24, -59, 83, -79, -65, -32, -64, -70, -86, 28, 6, 62, 72, -87, 39, 17, -49, 44, -7, -70, 33, 45, -69, -18, 46, 86, -87, 84, -4, -26, 88, 72, -22, -64, -46, 80, -47, 76, 40, -4, 22, 85, -22, 70, -26, -9, 56, 56, -33, 21, 2, -66, 3, -75, 31, 31, -88, 32, -24, 77, 44, -7, -82, -41, 31, -19, -67, 32, -41, 76, 17, -22, -19, -38, 50, 42, 84, 85, 41, 85, -7, 23, 59, 3, 2, 0, 87, 50, 33, 65, -87, -50, 26, 76, -17, 67, -15, -26, -9, -45, -56, 61, 71, -64, 10, 38, 76, -65, -51, 15, 19, -31, -4, 10, -31, 16, -79, -6, -69, 11, 46, -34, -30, 17, -41, 22, 46, 24, -71, -76, -30, -10, -5, -33, -78, 1, -44, 27, -78, -69, 2, 53, -8, 14, 55, 2, 15, 45, 88, 0, 15, 27, -84, 47, 43, -21, 52, 87, 60, -55, 14, -57, 31, -65, -14, -21, 56, -18, 50, 10, -60, 62, 18, -71, 70, 75, -28, -84, -22, 42, -86, -10, 39, 5, 20, 77, -2, 40, 46, 66, 12, 86, 27, 13, 79, -31, -58, 41, 79, 59, 13, 79, 64, 21, 63, 84, -48, 69, 51, 68, 33, -85, 48, 23, 16, -72, -85, -67, -12, 36, -29, -81, -30, 67, 18, -53, -29, 76, 63, -67, -40, -3, 8, 19, -73, 23, 28, -13, -8, 22, -23, -12, 86, 59, 62, 86, -38, 88, 81, -32, 2, 73, -79, -59, 72, 77, -33, -80, -71, -54, -45, -21, -52, 73, 8, 72, 32, 29, -26, 2, 37, -38, 36, 11, -62, 52, 65, -43, -73, -68, -5, -61, 41, -77, -10, -64, 28, 44, -34, -55, 8, 82, -28, 82, -71, -16, -66, 42, 22, 89, 43, -14, -76, -32, 60, -29, -81, 14, -32, -7, 53, -71, 35, -20, 13, 4, -63, 86, -72, 12, -49, 59, -62, -79, 27, 24, 4, -81, 35, -61, -35, -52, -38, -42, -41, 32, -69, 56, 47, 45, 30, 60, -63, 43, 19, -34, -70, -64, 22, 47, 34, 39, 65, 49, 80, -25, 81, -26, -73, 74, -60, -71, 52, -50, 9, -17, -2, 22, -55, -88, 31, 3, 38, 85, 71, -20, -38, 37, -48, -62, -26, 67, -47, 57, 78, -39, 67, 52, 63, 78, -69, -50, 43, 78, 81, 8, 82, 32, -11, 28, 79, 58, -28, 56, -35, -76, -8, -22, -23, -12, -53, -35, 31, 75, 88, 31, -57, 38, 63, -48, 9, -70, -16, 59, -6, -29, 44, 10, 17, 2, 6, 2, -11, 18, 81, -67, 26, -56, -21, 72, 8, 30, 75, -46, -31, 35, -6, -76, 46, -9, -10, -78, -73, -6, -68, -44, -60, -83, -3, -78, -14, 76, 76, 35, -67, -27, -5, -9, 66, -69, 37, 14, -36, -37, 70, -21, -48, 56, 46, 2, -32, -84, 47, -83, 65, 29, -52, -23, 56, -25, 65, -55, 47, -25, 33, 12, 34, 4, 54, 71, -87, -53, -50, 23, 62, 6, 87, 72, -10, -7, -29, -21, 39, 50, 7, 78, -4, -5, -20, 60, -28, -64, 84, 78, -52, 24, -26, -82, -31, -46, -30, -36, 79, -40, 79, 11, -43, 8, -52, -28, 12, -49, 21, 61, 67, 44, 54, 53, 82, 28, 47, -82, 55, 13, -69, 21, -3, 44, 55, 77, -32, 49, 18, 47, 68, 71, 67, -87, 24, 17, -22, 14, 86, 61, 44, -38, -67, 52, -80, 62, 8, -5, 42, -82, 58, -29, -80, -28, 54, 30, -44, 68, 83, 3, 9, -61, 67, 45, -25, -23, 37, 62, 21, 23, 41, -10, 66, 76, -16, -72, 0, 16, -2, 17, 58, -3, -42, 81, 20, -78, 61, -42, -76, -73, 23, -31, 80, 72, 34, -21, 67, 44, 22, 86, -44, 88, -78, 88, 43, 9, -54, 13, 16, -7, 77, -82, 71, -35, 20, 68, -49, 9, -56, -88, 53, -51, 58, -17, 11, -55, 29, -12, -72, -75, -14, -55, -25, 26, 68, -86, -57, -68, -30, -42, 34, 52, -37, 62, 30, 2, -43, -40, 0, 43, -35, 20, -76, -88, -65, -30, -21, 64, -36, 51, 12, 66, -42, 65, 4, 40, -64, 77, 4, 36, 84, -2, 5, -87, -77, -41, 84, 40, 71, -41, 50, 62, 18, 52, -68, 57, -52, -47, -66, 75, -3, -12, -27, -16, -25, -57, 78, 65, -3, 54, 30, 64, -52, 23, -40, -13, -44, 83, 46, -55, 6, -54, -81, -67, -45, -21, -38, -11, -28, -19, -5, -4, -51, 22, 80, 20, -61, 75, -12, 13, 44, 40, 15, 45, 42, 21, 78, 19, -34, -38, -69, -12, -54, 75, -68, -4, 31, 48, 78, -35, 56, 26, 39, 68, 53, -79, 33, 52, -53, 48, -57, 5, -78, 62, 0, 15, 63, -39, 36, 53, -86, -21, 37, -67, 85, 81, -3, 62, -82, -8, 28, 0, -13, -74, -3, 10, 84, 68, 76, -29, -68, -86, 13, 5, 69, -16, 15, -11, 2, 56, -6, -21, 44, -26, 84, 57, 20, -28, 63, 68, -79, 81, 45, 77, 26, 25, -7, 21, 45, -68, -61, -69, 37, -28, -48, 69, -26, -3, 3, -22, -71, -65, -2, -85, 2, 26, -56, 81, -72, -67, 59, 55, 67, -23, 37, -70, 85, 2, 52, 57, -59, 0, 37, 76, 37, 2, 88, -89, -34, 46, -48, -85, -69, 43, 36, 45, 59, 32, 48, 71, -58, 65, -42, -8, 41, 18, 71, 71, 30, -37, -34, 72, -12, 27, 37, 1, 79, -55, -80, 78, 44, 67, 86, -89, -16, 61, -80, 10, 72, 76, -11, 74, -12, -55, -65, 29, -85, 17, -55, 35, -24, -33, 54, 0, 25, -63, 67, -49, 52, 63, 17, -34, 51, 13, 85, 12, 39, -85, 33, -2, 33, 67, 57, -87, 31, 9, 74, 72, -49, -5, -46, 11, 62, -61, -83, 1, -30, 53, -48, -55, -6, -34, -16, -3, 23, 74, 20, -64, -43, 15, -41, -12, 20, 6, -85, -10, -70, -17, -46, -83, 44, 17, -76, 19, -2, 65, 10, 60, -72, 80, -78, 1, 7, -29, 41, -42, -43, 85, -36, -53, -73, 41, 48, -55, 30, 53, 40, 73, 24, 38, 40, 21, -19, 7, -65, -23, -59, -59, -88, 19, -28, 88, -73, -56, 6, -2, 46, -65, 18, 26, -6, -18, 52, 70, -82, 61, -49, -2, 50, -28, -8, 75, -25, -6, -85, -16, -62, 30, -82, -41, 8, 26, 22, -80, -40, -43, -40, 82, 57, -4, 19, -80, 19, -65, 81, 79, -47, -42, 45, -78, 9, 86, -44, 64, 61, -38, 34, 12, -61, 84, 77, -4, -63, -58, -28, 50, -35, -54, 76, 83, -21, -3, -50, 33, -87, 49, 41, -27, 66, -36, -59, -15, -28, 50, 82, -12, 30, -49, -58, 16, -33, -35, -87, -72, -48, 77, -41, 18, 72, 77, 36, 46, -33, -24, 2, -86, -33, -31, 78, -27, 40, 65, -82, 1, -17, 0, -33, -50, -7, 19, -6, -36, 0, -13, 24, 37, 45, -56, 37, -8, 75, 25, -50, 28, 76, 31, 7, 61, 16, -86, 10, -66, 53, -55, 37, 55, 63, -52, -64, -32, 71, -18, 74, -21, -67, -5, -56, -73, -7, 52, -43, -65, 61, 7, -44, -84, -77, -42, 64, -6, -36, -72, 2, -6, -74, 72, -41, -62, -37, 34, -7, 40, -21, -33, -33, 50, -50, -71, -50, 87, -68, 1, -8, 20, 74, -79, -56, 0, -4, -62, 47, 34, -71, 45, 20, -31, -38, -81, 67, -19, -54, 26, 59, 27, -51, -24, 36, -21, -67, -88, 12, 83, -77, -73, -47, -21, -69, 47, -12, 54, -15, 50, 21, 26, 32, -10, -56, -23, -78, 14, -11, -55, 45, 45, 37, 17, -89, -65, 9, -62, -12, -62, -19, -9, 40, 27, 12, 46, 24, -66, 44, -18, -20, -66, 10, -78, -51, 86, -27, -51, -22, 11}

#define ADD_CONV2D_KERNEL_0_SHIFT (10)

#define ADD_CONV2D_BIAS_0 {-21, 13, 85, 101, -32, 36, -75, 79, -39, -80, 101, 21, 10, 80, -27, -70}

#define ADD_CONV2D_BIAS_0_SHIFT (8)

#define BATCH_NORMALIZATION_KERNEL_0 {89, 90, 89, 89, 89, 89, 90, 89, 89, 89, 89, 89, 89, 90, 90, 88}

#define BATCH_NORMALIZATION_KERNEL_0_SHIFT (8)

#define BATCH_NORMALIZATION_BIAS_0 {96, 96, 96, 96, 96, 96, 96, 96, 96, 97, 96, 96, 96, 96, 96, 96}

#define BATCH_NORMALIZATION_BIAS_0_SHIFT (7)


/* output enconding for each layer */
#define INPUT_1_OUTPUT_SHIFT 7
#define ADD_CONV2D_OUTPUT_SHIFT -1
#define BATCH_NORMALIZATION_OUTPUT_SHIFT 0

/* bias shift and output shift for each layer */
#define ADD_CONV2D_INPUT_LSHIFT (ADD_CONV2D_KERNEL_0_SHIFT-INPUT_1_OUTPUT_SHIFT)
#if ADD_CONV2D_INPUT_LSHIFT > 0
#define ADD_CONV2D_MODE 1
#define ADD_CONV2D_INTER_SHIFT ADD_CONV2D_KERNEL_0_SHIFT
#define ADD_CONV2D_INTER_LSHIFT (ADD_CONV2D_KERNEL_0_SHIFT-INPUT_1_OUTPUT_SHIFT)
#elif ADD_CONV2D_INPUT_LSHIFT < 0
#define ADD_CONV2D_MODE 2
#define ADD_CONV2D_INTER_SHIFT INPUT_1_OUTPUT_SHIFT
#define ADD_CONV2D_INTER_LSHIFT (INPUT_1_OUTPUT_SHIFT-ADD_CONV2D_KERNEL_0_SHIFT)
#else
#define ADD_CONV2D_MODE 0
#define ADD_CONV2D_INTER_SHIFT ADD_CONV2D_KERNEL_0_SHIFT
#define ADD_CONV2D_INTER_LSHIFT 0
#endif
#define ADD_CONV2D_OUTPUT_RSHIFT   (ADD_CONV2D_INTER_SHIFT-ADD_CONV2D_OUTPUT_SHIFT)
#define ADD_CONV2D_BIAS_LSHIFT   (ADD_CONV2D_INTER_SHIFT-ADD_CONV2D_BIAS_0_SHIFT)
#if ADD_CONV2D_OUTPUT_RSHIFT < 0
#error ADD_CONV2D_OUTPUT_RSHIFT must be bigger than 0
#endif
#if ADD_CONV2D_BIAS_LSHIFT < 0
#error ADD_CONV2D_BIAS_LSHIFT must be bigger than 0
#endif
#define BATCH_NORMALIZATION_OUTPUT_RSHIFT (ADD_CONV2D_OUTPUT_SHIFT+BATCH_NORMALIZATION_KERNEL_0_SHIFT-BATCH_NORMALIZATION_OUTPUT_SHIFT)
#define BATCH_NORMALIZATION_BIAS_LSHIFT   (ADD_CONV2D_OUTPUT_SHIFT+BATCH_NORMALIZATION_KERNEL_0_SHIFT-BATCH_NORMALIZATION_BIAS_0_SHIFT)
#if BATCH_NORMALIZATION_OUTPUT_RSHIFT < 0
#error BATCH_NORMALIZATION_OUTPUT_RSHIFT must be bigger than 0
#endif
#if BATCH_NORMALIZATION_BIAS_LSHIFT < 0
#error BATCH_NORMALIZATION_BIAS_LSHIFT must be bigger than 0
#endif

/* weights for each layer */
static const int8_t add_conv2d_weights[] = ADD_CONV2D_KERNEL_0;
static const nnom_weight_t add_conv2d_w = { (const void*)add_conv2d_weights, ADD_CONV2D_OUTPUT_RSHIFT};
static const int8_t add_conv2d_bias[] = ADD_CONV2D_BIAS_0;
static const nnom_bias_t add_conv2d_b = { (const void*)add_conv2d_bias, ADD_CONV2D_BIAS_LSHIFT};
static const nnom_addconv_parameter_t add_conv2d_parameter = { (const void*)NULL, ADD_CONV2D_MODE, ADD_CONV2D_INTER_LSHIFT};
static const int8_t batch_normalization_weights[] = BATCH_NORMALIZATION_KERNEL_0;
static const nnom_weight_t batch_normalization_w = { (const void*)batch_normalization_weights, BATCH_NORMALIZATION_OUTPUT_RSHIFT};
static const int8_t batch_normalization_bias[] = BATCH_NORMALIZATION_BIAS_0;
static const nnom_bias_t batch_normalization_b = { (const void*)batch_normalization_bias, BATCH_NORMALIZATION_BIAS_LSHIFT};

/* nnom model */
static int8_t nnom_input_data[16384];
static int8_t nnom_output_data[16384];
static nnom_model_t* nnom_model_create(void)
{
	static nnom_model_t model;
	nnom_layer_t* layer[4];

	new_model(&model);

	layer[0] = Input(shape(32, 32, 16), nnom_input_data);
	layer[1] = model.hook(AddConv2D(16, kernel(5, 5), stride(1, 1), dilation(1, 1), PADDING_SAME, &add_conv2d_w, &add_conv2d_b, &add_conv2d_parameter), layer[0]);
	layer[2] = model.hook(BatchNormalization(16, &batch_normalization_w, &batch_normalization_b), layer[1]);
	layer[3] = model.hook(Output(shape(32, 32, 16), nnom_output_data), layer[2]);
	model_compile(&model, layer[0], layer[3]);
	return &model;
}
